SVM-light Version V3.50
0 # kernel type
1 # kernel parameter -d 
1 # kernel parameter -g 
1 # kernel parameter -s 
0 # kernel parameter -r 
EmptyParam # kernel parameter -u 
1000 # highest feature index 
418 # number of training documents 
135 # number of support vectors plus 1 
0.90691597 # threshold b 
-0.10872963460681487 114:0.30060101 138:0.32528901 295:0.26949701 302:0.14762899 327:0.28308401 467:0.26949701 574:0.32079801 628:0.18821099 633:0.26949701 641:0.20680501 672:0.169112 754:0.30060101 817:0.176577 827:0.28308401 840:0.26949701 
-0.054874317776551967 10:0.152234 24:0.115108 104:0.056917999 106:0.094708003 131:0.088111997 170:0.086852998 227:0.164737 229:0.071598999 253:0.095316 276:0.16896001 304:0.085643999 312:0.164737 314:0.30446801 328:0.118357 335:0.143363 342:0.121989 355:0.109486 363:0.078291997 373:0.143363 418:0.100615 427:0.152234 447:0.164737 456:0.104733 535:0.121989 554:0.077372 572:0.118357 586:0.096983001 588:0.082277 592:0.13086 612:0.164737 618:0.164737 652:0.121989 666:0.121989 686:0.143363 703:0.143363 732:0.12610701 739:0.118357 753:0.143363 767:0.086852998 787:0.152234 789:0.143363 800:0.252213 808:0.095316 812:0.164737 834:0.143363 870:0.13086 887:0.085643999 897:0.109486 909:0.085643999 917:0.121989 920:0.136482 931:0.136482 934:0.115108 945:0.152234 996:0.152234 999:0.09223 
-0.032407376599894934 31:0.140751 48:0.25694999 49:0.169912 104:0.063528001 194:0.15233099 202:0.132101 208:0.16001099 230:0.146056 272:0.1222 309:0.093038999 314:0.169912 349:0.119445 389:0.125195 440:0.128475 468:0.106384 477:0.36660001 485:0.140751 512:0.13615499 527:0.264202 538:0.30466199 549:0.116895 583:0.15233099 588:0.091830999 663:0.15233099 679:0.110212 687:0.202677 697:0.140751 702:0.16001099 703:0.16001099 732:0.140751 760:0.140751 762:0.077482998 767:0.096938998 784:0.16001099 855:0.101339 915:0.099808998 942:0.16001099 945:0.169912 
-0.083716713082540598 57:0.199365 179:0.084444001 255:0.18139499 293:0.114488 302:0.12949 306:0.21841399 330:0.082015999 333:0.263666 370:0.17102499 492:0.248302 501:0.150428 554:0.13400599 592:0.226647 664:0.236384 748:0.226647 762:0.120236 882:0.285321 904:0.51307601 929:0.18139499 943:0.226647 985:0.18139499 
-0.20158100781315938 4:0.134799 94:0.079182997 106:0.041931 117:0.101925 146:0.115873 149:0.12694401 169:0.099322997 200:0.108018 206:0.065472998 226:0.26959801 281:0.101925 302:0.132403 313:0.111664 330:0.041931 356:0.087436996 366:0.089092001 381:0.29174 400:0.120851 402:0.101925 411:0.120851 423:0.231746 433:0.134799 444:0.056908999 453:0.115873 475:0.099322997 481:0.165998 485:0.111664 497:0.085876003 501:0.076906003 504:0.082998998 521:0.134799 561:0.134799 574:0.071928002 607:0.120851 613:0.134799 646:0.090853997 666:0.108018 686:0.12694401 687:0.080397002 704:0.134799 747:0.115873 763:0.12694401 828:0.231746 874:0.12694401 887:0.075834997 890:0.134799 941:0.14587 975:0.115873 987:0.43761 991:0.099322997 
0.99999993212504223 63:0.092013001 69:0.15664101 94:0.184027 106:0.048725002 108:0.101604 115:0.107765 193:0.110116 209:0.125521 266:0.099790998 296:0.129757 304:0.176247 309:0.171544 337:0.140433 373:0.147513 380:0.098075002 434:0.25951499 444:0.066129997 464:0.15664101 501:0.178735 543:0.147513 574:0.16716599 581:0.125521 627:0.134648 657:0.096447997 673:0.086925998 678:0.112656 686:0.44253999 688:0.078691997 733:0.125521 808:0.098075002 810:0.140433 827:0.147513 868:0.092013001 871:0.389272 899:0.15664101 915:0.092013001 926:0.098075002 964:0.098075002 985:0.107765 997:0.092013001 
0.99999993212504223 14:0.25692001 16:0.27281699 179:0.087375 293:0.118461 378:0.25692001 387:0.196209 390:0.13107499 393:0.46902701 501:0.15564901 530:0.20101801 574:0.145574 685:0.29522401 692:0.206284 762:0.124409 774:0.244589 823:0.27281699 857:0.18031099 868:0.160257 930:0.173803 934:0.206284 
0.99999993212504223 38:0.144278 77:0.184009 101:0.20159 137:0.231645 190:0.166428 192:0.184009 214:0.177325 227:0.231645 245:0.20159 253:0.134028 259:0.166428 292:0.214064 332:0.214064 363:0.110091 364:0.177325 387:0.153954 423:0.184009 456:0.14726999 466:0.16185901 477:0.153954 596:0.19191401 664:0.19191401 665:0.150483 688:0.107539 722:0.231645 743:0.214064 767:0.122129 805:0.10513 857:0.14148 868:0.125744 887:0.120428 909:0.120428 929:0.14726999 975:0.184009 
0.99999993212504223 58:0.230818 94:0.13558599 149:0.434735 179:0.147848 218:0.191203 231:0.16226099 245:0.21736801 248:0.18495999 253:0.144518 282:0.24977501 302:0.226715 306:0.191203 363:0.118707 390:0.110896 424:0.149718 434:0.191203 452:0.15557 467:0.206935 524:0.24977501 574:0.123163 590:0.147046 641:0.158796 672:0.12985399 687:0.13766401 688:0.115956 733:0.18495999 857:0.15255301 868:0.13558599 
0.99999993212504223 15:0.222477 180:0.28615499 253:0.35833201 330:0.089011997 369:0.245978 390:0.137483 501:0.163259 523:0.25654599 592:0.245978 677:0.245978 681:0.17066801 690:0.222477 857:0.189127 909:0.16098499 951:0.54689902 
-0.18135131658691769 22:0.065490998 55:0.100813 61:0.07243 106:0.028979 107:0.167045 179:0.119348 220:0.144861 245:0.087733001 262:0.056441002 297:0.154346 302:0.091505997 304:0.052411001 347:0.087733001 349:0.130982 355:0.067001998 363:0.095824003 380:0.058329999 397:0.074653 440:0.070441999 444:0.039331 452:0.062790997 475:0.068644002 484:0.093162 497:0.059349999 501:0.212605 504:0.114724 523:0.167045 536:0.100813 574:0.099421002 579:0.080081999 584:0.123146 605:0.186324 640:0.083521999 649:0.083521999 664:0.167045 681:0.111127 686:0.175466 688:0.093603998 717:0.061572999 728:0.087733001 745:0.154346 751:0.100813 762:0.042482998 764:0.077173002 811:0.093162 827:0.087733001 857:0.184719 897:0.067001998 917:0.074653 919:0.48049101 927:0.040840998 949:0.07243 951:0.415452 956:0.093162 975:0.080081999 
-0.092506695454496093 33:0.191929 38:0.137364 50:0.300336 63:0.119718 94:0.119718 151:0.191929 152:0.203806 179:0.065273002 197:0.137364 253:0.127606 262:0.123474 302:0.100092 328:0.158452 330:0.063395999 349:0.143272 363:0.104815 397:0.163315 501:0.116276 543:0.191929 550:0.191929 574:0.108749 624:0.123474 628:0.127606 647:0.18271799 664:0.18271799 678:0.146576 679:0.13219699 686:0.191929 692:0.154103 706:0.140212 743:0.203806 745:0.168827 757:0.203806 762:0.092938997 772:0.1347 827:0.191929 837:0.175191 868:0.119718 918:0.191929 1000:0.146576 
-0.075460918809587121 5:0.14724401 70:0.156884 102:0.178352 104:0.14162 115:0.130294 140:0.18938901 179:0.060656 229:0.089073002 235:0.130294 253:0.118579 254:0.18938901 258:0.15176199 293:0.082235001 309:0.103703 338:0.14724401 342:0.30352399 371:0.169792 380:0.118579 399:0.169792 424:0.122846 429:0.26627401 471:0.18938901 527:0.14724401 569:0.156884 588:0.204714 607:0.169792 657:0.116611 658:0.178352 681:0.112955 709:0.162798 767:0.108051 808:0.237158 855:0.22590999 857:0.12517101 868:0.11125 875:0.127647 971:0.14724401 996:0.18938901 
-0.3861734878468101 16:0.145172 77:0.124789 94:0.085276 106:0.135472 171:0.130151 184:0.124789 192:0.124789 197:0.097845003 201:0.145172 226:0.145172 241:0.124789 252:0.136712 259:0.112866 262:0.087950997 274:0.124789 290:0.130151 296:0.120256 308:0.240513 309:0.079492003 342:0.11633 355:0.104407 363:0.14932001 387:0.104407 390:0.069747999 401:0.130151 411:0.130151 434:0.120256 440:0.109768 442:0.124789 475:0.106965 496:0.11633 514:0.085276 523:0.130151 527:0.112866 628:0.090893999 681:0.086583003 688:0.072930001 690:0.112866 742:0.273424 747:0.124789 767:0.082823999 778:0.157095 780:0.130151 797:0.145172 827:0.273424 857:0.095946997 868:0.25582799 882:0.157095 883:0.136712 887:0.081671 909:0.081671 927:0.063642003 932:0.145172 948:0.102053 949:0.112866 951:0.092483997 997:0.085276 999:0.087950997 
-0.4826493196473321 106:0.062027998 154:0.17141099 172:0.150778 229:0.093786001 247:0.150778 259:0.310067 292:0.39881599 302:0.19586401 328:0.15503301 364:0.16518401 370:0.129345 384:0.19940799 387:0.14341301 390:0.095806003 445:0.089138001 487:0.215786 497:0.12703601 498:0.310067 588:0.215545 686:0.18778799 716:0.17141099 722:0.215786 796:0.16518401 827:0.18778799 849:0.15979099 857:0.13179401 868:0.117135 878:0.15503301 915:0.117135 
0.99999993212504223 57:0.29411101 62:0.32221299 67:0.279746 107:0.34872299 210:0.36630401 390:0.18688101 539:0.28660101 715:0.311692 767:0.221917 878:0.302412 930:0.24779999 964:0.24354 
0.99999993212504223 67:0.139108 77:0.166265 104:0.14463601 150:0.166265 193:0.13597199 229:0.090970002 245:0.182151 266:0.123223 295:0.173408 359:0.13306899 363:0.099474996 394:0.38684401 402:0.292503 422:0.209308 424:0.125462 452:0.130366 481:0.119095 514:0.113619 582:0.209308 588:0.104537 751:0.209308 767:0.110352 784:0.182151 796:0.160226 812:0.209308 817:0.113619 827:0.182151 871:0.32045099 915:0.113619 945:0.193422 953:0.142517 
0.99999993212504223 63:0.118692 67:0.145319 117:0.15278099 229:0.095031999 243:0.43730599 266:0.12872399 278:0.190284 290:0.181151 349:0.14204299 381:0.21865299 444:0.170609 464:0.202058 514:0.118692 517:0.25744799 651:0.202058 657:0.124412 687:0.120511 699:0.16737901 743:0.202058 815:0.17368899 827:0.38056701 871:0.16737901 905:0.181151 926:0.12651099 937:0.145319 973:0.157094 
0.99999993212504223 104:0.084476002 115:0.155441 133:0.134756 238:0.19421899 253:0.14146499 286:0.175662 352:0.21277501 355:0.162496 384:0.225941 396:0.18716399 444:0.095388003 464:0.225941 475:0.16647799 477:0.162496 504:0.139118 540:0.244498 574:0.120561 590:0.28787899 673:0.125383 677:0.19421899 686:0.21277501 739:0.175662 767:0.128905 859:0.18716399 871:0.18716399 874:0.21277501 882:0.244498 905:0.202563 910:0.225941 
0.99999993212504223 34:0.17424101 47:0.15326799 62:0.16791201 67:0.14578199 125:0.16791201 192:0.17424101 217:0.202701 235:0.13945299 236:0.17424101 248:0.32485899 276:0.112486 282:0.219349 286:0.157594 302:0.099549003 363:0.104247 390:0.097387999 402:0.15326799 427:0.202701 452:0.13662 473:0.110993 537:0.202701 546:0.190889 588:0.109552 612:0.219349 681:0.120895 760:0.16791201 805:0.099549003 808:0.12691399 811:0.202701 816:0.202701 871:0.16791201 915:0.11907 930:0.129134 951:0.129134 973:0.157594 982:0.202701 
-0.2469247354027978 9:0.159016 19:0.172076 70:0.131724 104:0.059454001 105:0.159016 179:0.050928 214:0.39517301 229:0.074787997 243:0.172076 245:0.149749 290:0.142562 322:0.149749 330:0.049463999 335:0.149749 341:0.142562 370:0.103144 387:0.114363 466:0.120236 477:0.114363 512:0.127423 513:0.123629 517:0.405213 530:0.117166 532:0.159016 546:0.149749 570:0.13668901 596:0.142562 631:0.142562 653:0.142562 673:0.088243 785:0.25484699 809:0.172076 857:0.105097 909:0.178918 973:0.24725901 
-0.64084704301748274 17:0.084037997 51:0.195381 67:0.28103399 104:0.1461 115:0.134417 118:0.13734899 125:0.16184799 229:0.091891997 236:0.33589801 248:0.156564 255:0.134417 276:0.108424 355:0.140517 363:0.200964 390:0.093870997 394:0.195381 481:0.120301 501:0.11147 508:0.18399601 509:0.195381 533:0.211428 588:0.105596 681:0.116529 686:0.18399601 688:0.098153003 736:0.18399601 805:0.095954001 827:0.18399601 848:0.102956 857:0.25826401 930:0.124471 933:0.156564 951:0.124471 958:0.175165 964:0.122331 975:0.16794901 997:0.11477 
-0.17716630613036077 104:0.075698003 151:0.19066601 245:0.57199699 253:0.126765 302:0.099432997 349:0.14232799 363:0.104125 364:0.167715 397:0.162239 402:0.153088 494:0.17403699 536:0.219092 603:0.219092 665:0.14232799 673:0.224709 688:0.101712 717:0.26762599 965:0.43818399 973:0.157409 
-0.47879527315436154 10:0.161872 46:0.15244 57:0.122396 67:0.23283599 70:0.134091 77:0.139145 94:0.095086001 104:0.24208701 220:0.12585101 227:0.17516699 236:0.139145 245:0.30487901 305:0.139145 355:0.116418 359:0.111364 363:0.083249003 389:0.119271 390:0.077771999 402:0.122396 455:0.139145 456:0.111364 574:0.086374 588:0.087485999 628:0.101351 658:0.30487901 671:0.15244 681:0.096543998 688:0.081320003 692:0.122396 699:0.134091 786:0.161872 808:0.101351 842:0.161872 861:0.15244 866:0.145123 874:0.15244 875:0.109101 880:0.145123 915:0.095086001 919:0.27829 933:0.129712 951:0.103123 961:0.17516699 
-0.28833816805250684 17:0.073499002 50:0.125907 67:0.122895 77:0.146887 101:0.16092101 103:0.141551 104:0.063888997 117:0.129206 118:0.120125 180:0.17087799 230:0.146887 245:0.16092101 253:0.106989 268:0.15319701 302:0.083921 349:0.120125 355:0.122895 363:0.087880999 390:0.082098998 412:0.15319701 465:0.146887 475:0.125907 515:0.17087799 517:0.108861 546:0.16092101 572:0.132852 574:0.091179997 679:0.110839 681:0.101915 699:0.141551 700:0.17087799 736:0.16092101 751:0.18491299 754:0.17087799 805:0.083921 857:0.112938 863:0.146887 893:0.18491299 914:0.55473799 
0.99999993212504223 39:0.29972401 57:0.209429 72:0.27697599 192:0.238088 210:0.26083601 292:0.27697599 380:0.173418 390:0.133073 393:0.238088 475:0.204081 481:0.170541 552:0.26083601 590:0.176452 664:0.248317 722:0.29972401 929:0.190551 933:0.221948 982:0.27697599 
0.99999993212504223 28:0.252803 94:0.15768901 106:0.083503 133:0.160106 304:0.151022 366:0.177422 384:0.268446 434:0.22237299 567:0.268446 688:0.134859 739:0.208708 762:0.244831 810:0.240669 826:0.240669 827:0.252803 850:0.193065 868:0.15768901 871:0.22237299 908:0.22237299 915:0.15768901 924:0.16807801 927:0.117684 930:0.171018 990:0.268446 
-0.21331828028706606 38:0.102487 131:0.088010997 206:0.073857002 229:0.071516 281:0.114975 293:0.132052 310:0.40897399 354:0.13070901 390:0.21917 393:0.13070901 418:0.20099799 445:0.067971997 549:0.104612 574:0.081138 580:0.118221 588:0.164363 638:0.136325 653:0.136325 669:0.136325 676:0.143198 689:0.25192299 695:0.354662 708:0.152059 713:0.098632 744:0.164547 767:0.086753003 774:0.27265 796:0.12596101 805:0.074677996 807:0.152059 819:0.096871004 840:0.136325 850:0.10936 876:0.152059 909:0.085545003 930:0.096871004 960:0.236441 
-0.17354572533350676 28:0.39195001 57:0.157351 106:0.129465 108:0.134984 122:0.19597501 166:0.15333401 167:0.166757 179:0.066648997 229:0.097874001 266:0.13257401 281:0.157351 286:0.161792 304:0.117074 420:0.14026 446:0.17238601 482:0.118727 526:0.208102 534:0.208102 564:0.19597501 657:0.128133 687:0.124116 720:0.292584 767:0.118727 780:0.18656901 789:0.19597501 837:0.178884 882:0.22519299 924:0.13029499 926:0.13029499 949:0.161792 973:0.161792 989:0.19597501 
-0.085771998857418472 179:0.058972999 193:0.064722002 201:0.184135 206:0.044718001 231:0.064722002 247:0.13923 262:0.055778001 302:0.271294 305:0.158282 306:0.38133201 309:0.050413001 320:0.076265998 330:0.028639 345:0.092068002 360:0.086703002 366:0.060849998 393:0.158282 396:0.076265998 401:0.082540996 423:0.079140998 444:0.116607 445:0.16462199 482:0.052526999 495:0.079140998 515:0.092068002 528:0.082540996 543:0.086703002 569:0.076265998 578:0.228799 594:0.07158 657:0.056688 659:0.073775999 672:0.31077299 677:0.079140998 711:0.092068002 713:0.059719 715:0.073775999 745:0.076265998 774:0.16508301 810:0.16508301 821:0.39851701 851:0.184135 857:0.121699 882:0.099629 909:0.103591 922:0.21473899 926:0.057645001 927:0.040362 974:0.092068002 
-0.37281770579726065 47:0.155634 149:0.193837 226:0.20583101 276:0.114223 293:0.089374997 309:0.112707 349:0.144696 363:0.105857 387:0.14803299 393:0.53079599 495:0.17693201 517:0.131128 541:0.20583101 546:0.193837 592:0.17693201 641:0.141606 672:0.115797 695:0.160027 754:0.20583101 764:0.170505 827:0.193837 855:0.122762 857:0.136039 923:0.34101 973:0.160027 991:0.15166099 
-0.15117771031535074 8:0.117294 304:0.146163 316:0.21521901 323:0.182641 380:0.16267 468:0.16267 482:0.148228 506:0.21521901 576:0.223331 677:0.223331 686:0.48933899 739:0.40398699 759:0.186854 827:0.24467 888:0.25980899 894:0.24467 927:0.113898 964:0.16267 
-0.27425055410279897 7:0.120303 80:0.120303 84:0.139952 179:0.089644998 202:0.108808 208:0.263594 247:0.211643 260:0.096283004 299:0.108808 311:0.151446 318:0.554986 393:0.240605 394:0.139952 424:0.181558 429:0.098384 455:0.120303 468:0.087626003 527:0.108808 538:0.125471 554:0.071129002 590:0.178317 627:0.120303 657:0.086172 673:0.077664003 677:0.120303 686:0.131797 706:0.096283004 726:0.131797 767:0.079846002 806:0.120303 827:0.131797 832:0.100653 857:0.092497997 867:0.151446 901:0.125471 915:0.16441999 917:0.112147 924:0.087626003 945:0.139952 948:0.098384 
-0.12905205054682445 17:0.056993 81:0.14338601 106:0.041216999 151:0.124782 201:0.132504 235:0.091159001 248:0.106178 292:0.39751101 294:0.132504 309:0.072554998 348:0.14338601 351:0.24956401 364:0.109762 384:0.39751101 389:0.097631 430:0.118793 435:0.124782 442:0.1139 480:0.109762 481:0.16317099 501:0.075597003 552:0.124782 590:0.084412999 629:0.24956401 657:0.081586003 686:0.374347 705:0.132504 738:0.1139 748:0.1139 817:0.077834003 818:0.14338601 825:0.118793 866:0.118793 881:0.132504 920:0.118793 963:0.118793 992:0.124782 
-0.11214640925852146 1:0.34593201 8:0.103274 129:0.189493 249:0.41016701 280:0.189493 359:0.15737499 369:0.19663601 416:0.151188 541:0.228753 543:0.215423 587:0.228753 657:0.14084899 673:0.12694301 686:0.215423 771:0.24754 800:0.189493 810:0.205084 850:0.164518 882:0.24754 908:0.189493 962:0.215423 
-0.15810872329008815 126:0.26167801 209:0.20969 364:0.216767 446:0.216767 447:0.28317001 540:0.28317001 677:0.22493801 686:0.24642999 703:0.24642999 752:0.22493801 859:0.43353501 862:0.22493801 878:0.203447 880:0.234602 900:0.151458 927:0.229435 
0.97426902658202708 18:0.081416003 47:0.065370001 106:0.053785 115:0.059478 183:0.074316002 198:0.077509001 218:0.071616001 231:0.060775999 235:0.059478 241:0.074316002 243:0.18710899 253:0.16238999 257:0.086453997 266:0.055077001 275:0.059478 302:0.084918 309:0.047339998 312:0.18710899 323:0.060775999 328:0.134431 337:0.077509001 369:0.074316002 398:0.143233 420:0.05827 422:0.093555003 443:0.086453997 444:0.21899401 464:0.17290799 477:0.124355 501:0.098647997 518:0.086453997 519:0.086453997 523:0.077509001 542:0.062176999 561:0.086453997 574:0.046131 581:0.069278002 590:0.055077001 644:0.054129999 657:0.106464 675:0.081416003 681:0.051562998 686:0.16283301 690:0.067215003 699:0.071616001 705:0.086453997 706:0.059478 709:0.074316002 733:0.069278002 739:0.067215003 769:0.081416003 772:0.05714 774:0.077509001 785:0.069278002 790:0.071616001 800:0.143233 823:0.086453997 857:0.05714 867:0.093555003 871:0.57293099 872:0.081416003 875:0.05827 882:0.18710899 905:0.077509001 915:0.050783999 926:0.10826 932:0.17290799 934:0.065370001 941:0.093555003 949:0.067215003 951:0.055077001 959:0.086453997 964:0.054129999 987:0.093555003 
-0.27786610179547039 12:0.19494 38:0.060708001 48:0.068106003 94:0.05291 98:0.09747 104:0.033677001 106:0.056035999 112:0.090071999 115:0.061967 124:0.09747 148:0.19494 156:0.084824003 167:0.072177 187:0.084824003 210:0.084824003 218:0.074614003 231:0.063318998 266:0.057381999 276:0.049984001 301:0.09747 302:0.044236001 321:0.090071999 335:0.084824003 337:0.080752 352:0.084824003 356:0.058425002 396:0.14922699 413:0.068106003 423:0.154852 428:0.084824003 434:0.074614003 444:0.076053001 447:0.09747 459:0.072177 462:0.161505 466:0.068106003 473:0.049321 481:0.055459999 491:0.090071999 504:0.055459999 509:0.090071999 543:0.084824003 559:0.090071999 602:0.090071999 622:0.09747 634:0.090071999 651:0.090071999 656:0.223841 657:0.110919 662:0.080752 663:0.080752 681:0.053721 684:0.084824003 727:0.084824003 743:0.090071999 752:0.077426001 767:0.051387999 769:0.084824003 772:0.059531 792:0.09747 793:0.080752 800:0.223841 804:0.35054901 857:0.119062 882:0.48734999 905:0.080752 926:0.056396 927:0.039487001 932:0.090071999 940:0.080752 948:0.063318998 985:0.061967 990:0.090071999 
-0.29854875337638687 57:0.159914 106:0.065787002 179:0.067734003 286:0.32885501 446:0.175194 501:0.120661 526:0.42298299 574:0.11285 584:0.13978 629:0.199167 655:0.36359501 664:0.18960799 705:0.211491 735:0.228861 760:0.175194 762:0.096442997 856:0.13978 905:0.18960799 913:0.199167 935:0.228861 947:0.175194 966:0.211491 980:0.181797 
-0.16002177451665844 14:0.21082 21:0.185444 25:0.24225099 38:0.150884 65:0.21082 66:0.200701 94:0.131501 131:0.12957101 177:0.21082 253:0.140165 302:0.109943 312:0.24225099 313:0.185444 330:0.069636002 331:0.21082 356:0.145208 380:0.140165 439:0.223865 497:0.142617 539:0.164948 572:0.17404801 584:0.147957 599:0.122581 624:0.135627 738:0.192434 797:0.223865 812:0.24225099 848:0.117966 882:0.24225099 963:0.200701 964:0.140165 
-0.094540714190579314 132:0.29666299 156:0.27937499 210:0.27937499 330:0.09228 387:0.213358 416:0.196071 428:0.27937499 430:0.265966 445:0.132612 452:0.199949 513:0.230646 563:0.32102701 572:0.46129099 613:0.29666299 
-0.1227524893410824 95:0.165225 133:0.104641 177:0.165225 198:0.157295 238:0.30162999 260:0.24140701 276:0.097363003 295:0.157295 302:0.086165003 307:0.175448 312:0.189858 323:0.123337 369:0.150815 370:0.113803 398:0.145337 399:0.157295 402:0.132661 417:0.157295 419:0.189858 488:0.165225 495:0.150815 501:0.100098 505:0.165225 522:0.175448 594:0.136406 673:0.292088 677:0.150815 785:0.140591 791:0.189858 805:0.086165003 857:0.115958 900:0.101548 909:0.098704003 915:0.103061 920:0.31458899 927:0.076915003 969:0.140591 
-0.31139136958801228 106:0.085372999 248:0.21992999 255:0.18881901 293:0.119173 309:0.15028401 330:0.085372999 343:0.23592301 449:0.184983 501:0.15658499 514:0.16122 574:0.146449 664:0.246059 717:0.18139499 720:0.192939 762:0.125157 767:0.15658499 805:0.13479 819:0.34969401 837:0.23592301 868:0.16122 870:0.23592301 927:0.12032 930:0.17484701 948:0.192939 953:0.202226 980:0.23592301 988:0.27445701 
-0.15459978770392868 15:0.145625 57:0.141628 72:0.187307 124:0.20269001 247:0.141628 293:0.081331 320:0.15515999 330:0.058263998 342:0.150094 366:0.123795 367:0.176392 382:0.32201701 441:0.15515999 548:0.167926 583:0.167926 596:0.167926 664:0.167926 665:0.13167299 686:0.176392 690:0.29124999 692:0.141628 715:0.150094 716:0.161009 805:0.36795601 815:0.161009 849:0.150094 857:0.123795 951:0.119327 975:0.32201701 
-0.28763672353323527 104:0.118562 330:0.098640002 404:0.34315199 456:0.218161 475:0.233651 590:0.20201799 681:0.18912899 690:0.49308199 737:0.26268399 742:0.29862899 827:0.29862899 920:0.28429601 929:0.218161 973:0.24654099 
-0.24358667306551951 8:0.070159003 48:0.235009 56:0.146348 179:0.099541999 256:0.168167 272:0.111765 286:0.120821 302:0.076320998 306:0.128732 330:0.09668 337:0.139323 384:0.155403 423:0.13358399 445:0.069467001 477:0.55882698 514:0.091286004 586:0.19800401 591:0.155403 599:0.085093997 646:0.314224 650:0.13358399 651:0.155403 673:0.086239003 678:0.111765 679:0.100801 681:0.092684999 705:0.155403 713:0.100801 721:0.120821 793:0.139323 855:0.092684999 857:0.205419 915:0.091286004 926:0.1946 927:0.068126999 973:0.120821 
-0.17332561883578845 47:0.188594 133:0.297519 143:0.22361401 151:0.234887 179:0.079882003 245:0.234887 304:0.14032 359:0.17159501 416:0.164849 467:0.22361401 517:0.158898 624:0.30221999 686:0.234887 743:0.249422 808:0.156166 817:0.146514 827:0.234887 857:0.164849 886:0.269907 909:0.14032 932:0.249422 937:0.17938299 991:0.183779 
-0.11530501265395267 136:0.189881 139:0.22919101 194:0.189881 202:0.164664 229:0.099611998 231:0.14888901 343:0.182059 402:0.160144 445:0.094674997 482:0.120835 514:0.124412 617:0.12631901 686:0.19945399 784:0.59836203 832:0.304645 836:0.134928 915:0.373236 960:0.164664 973:0.164664 
-0.067547026829418239 8:0.084509999 94:0.109958 106:0.174683 108:0.12142 117:0.14153901 184:0.160908 193:0.13159101 196:0.155063 266:0.23850501 272:0.134626 342:0.15000001 343:0.160908 351:0.176282 501:0.106797 503:0.167821 521:0.18719 546:0.35256499 574:0.099884003 599:0.1025 657:0.115258 679:0.12142 688:0.094039001 762:0.085362002 806:0.160908 811:0.18719 827:0.176282 828:0.48272499 857:0.123718 900:0.108344 915:0.109958 926:0.117202 949:0.14553399 991:0.137926 997:0.109958 
-0.12008597888876478 8:0.076748997 56:0.16009501 94:0.099861003 108:0.11027 118:0.119508 133:0.101392 155:0.116956 193:0.119508 242:0.170001 300:0.16009501 302:0.083489999 317:0.16009501 346:0.14082401 366:0.112358 402:0.12854201 424:0.11027 445:0.075993001 449:0.22916 470:0.170001 501:0.29096901 574:0.27213499 587:0.170001 623:0.152411 654:0.16009501 703:0.16009501 713:0.11027 732:0.14082401 777:0.20934699 780:0.152411 808:0.21288 836:0.108302 853:0.14613301 857:0.112358 882:0.183963 891:0.320189 962:0.16009501 969:0.136226 972:0.16009501 
-0.087809139049010915 63:0.080610998 161:0.123031 179:0.043951001 229:0.064542003 238:0.117963 293:0.059588 298:0.24606299 330:0.042686999 352:0.129234 377:0.387703 378:0.258468 380:0.085922003 430:0.123031 455:0.117963 458:0.471854 475:0.101115 477:0.098696001 528:0.123031 554:0.139493 578:0.113678 590:0.087425001 599:0.075143002 617:0.081846997 649:0.123031 701:0.13723101 762:0.062579997 769:0.258468 802:0.27446201 850:0.098696001 857:0.090699002 882:0.297003 912:0.106693 927:0.120322 
-0.082110530665097922 5:0.191122 100:0.26601601 168:0.231501 248:0.39397401 293:0.106741 299:0.191122 320:0.20363601 390:0.236215 397:0.196987 412:0.22039001 425:0.24582601 442:0.211312 490:0.185876 493:0.24582601 603:0.26601601 673:0.136418 686:0.231501 767:0.14025 850:0.176797 915:0.144402 949:0.191122 
-0.22918064165994081 3:0.22693001 60:0.203449 62:0.18798301 94:0.133302 106:0.141178 179:0.072678998 196:0.18798301 218:0.18798301 302:0.111448 308:0.18798301 390:0.109029 397:0.18184499 530:0.167207 686:0.427412 717:0.149983 721:0.176431 739:0.176431 767:0.12946901 772:0.149983 790:0.375965 828:0.39013699 909:0.127666 930:0.14456899 
-0.14501549348497236 15:0.112987 106:0.045205999 179:0.046544001 183:0.124923 190:0.112987 211:0.136859 214:0.120385 220:0.112987 222:0.145327 253:0.090992004 275:0.099981003 298:0.13029 306:0.48154199 329:0.136859 363:0.22422101 365:0.157263 402:0.109886 423:0.249846 451:0.13029 454:0.145327 468:0.090992004 471:0.145327 496:0.116455 543:0.136859 575:0.13029 577:0.145327 602:0.145327 641:0.099981003 658:0.136859 659:0.34936401 673:0.080646999 686:0.136859 743:0.145327 777:0.089482002 872:0.136859 887:0.081758 916:0.099981003 945:0.145327 957:0.136859 960:0.112987 
-0.19288212981023675 22:0.054839998 25:0.084417999 62:0.129244 81:0.084417999 94:0.18329801 96:0.084417999 106:0.121331 156:0.14692999 172:0.058986001 184:0.067057997 193:0.054839998 206:0.037891001 220:0.060651001 229:0.03669 230:0.067057997 253:0.097686999 259:0.121302 262:0.094524004 266:0.049697999 272:0.056104999 290:0.069939002 293:0.067746997 302:0.191561 308:0.193866 316:0.064622 328:0.060651001 330:0.048532002 331:0.073464997 343:0.067057997 351:0.073464997 356:0.151803 373:0.073464997 377:0.073464997 390:0.112441 396:0.064622 397:0.062512003 400:0.139878 411:0.069939002 423:0.13411599 434:0.193866 439:0.156021 441:0.064622 444:0.032933999 445:0.069743 465:0.067057997 466:0.117972 481:0.144099 497:0.049697999 504:0.048032999 517:0.149094 522:0.078010999 524:0.084417999 541:0.078010999 546:0.073464997 551:0.084417999 599:0.042716 657:0.048032999 664:0.20981599 666:0.25004801 677:0.067057997 679:0.101202 680:0.073464997 681:0.093053997 688:0.117571 692:0.058986001 713:0.050601002 717:0.103118 762:0.035574 796:0.064622 800:0.258488 804:0.101202 805:0.038311999 823:0.078010999 842:0.078010999 849:0.062512003 857:0.30935499 863:0.067057997 868:0.045825001 870:0.20117299 872:0.073464997 909:0.043887001 926:0.048843998 927:0.136797 930:0.049697999 949:0.060651001 951:0.049697999 997:0.045825001 
-0.1041873479912348 8:0.1012 57:0.169493 72:0.22416 131:0.129742 153:0.22416 188:0.185688 190:0.17427699 229:0.105427 259:0.17427699 308:0.185688 330:0.069728002 390:0.107698 466:0.169493 530:0.16516601 643:0.22416 736:0.211098 774:0.200966 805:0.220176 846:0.192687 903:0.44832 918:0.42219499 973:0.17427699 
-0.1284403229958824 1:0.162701 17:0.092552997 23:0.202638 45:0.38582501 84:0.215177 179:0.068915002 224:0.430354 227:0.23285 248:0.172427 272:0.154754 280:0.178247 286:0.167293 363:0.110663 628:0.134725 641:0.148036 687:0.128336 694:0.184966 714:0.202638 762:0.098123997 827:0.40527701 868:0.126398 920:0.192912 
-0.094229409093890909 15:0.19398101 76:0.269995 106:0.155222 151:0.234965 218:0.206682 241:0.21447299 328:0.19398101 373:0.234965 385:0.234965 398:0.206682 430:0.22368699 444:0.105335 479:0.22368699 498:0.19398101 552:0.234965 688:0.12534299 790:0.206682 827:0.234965 839:0.249504 907:0.234965 927:0.10938 973:0.19398101 995:0.21447299 
-0.046096514015503832 61:0.17381001 210:0.21053199 300:0.21053199 316:0.18519101 342:0.179144 352:0.21053199 369:0.19217101 510:0.24191999 514:0.131322 569:0.18519101 628:0.139974 633:0.200427 671:0.21053199 686:0.21053199 726:0.21053199 743:0.22356001 796:0.18519101 827:0.21053199 954:0.52143103 973:0.17381001 
-0.17029171289696274 17:0.090241 104:0.078442998 106:0.065261997 133:0.125131 179:0.067194 214:0.173796 224:0.209804 245:0.197578 297:0.173796 323:0.147488 342:0.168121 356:0.136088 384:0.209804 403:0.45407 504:0.129181 519:0.209804 574:0.11195 660:0.227035 664:0.188095 686:0.197578 687:0.125131 705:0.209804 762:0.191348 767:0.239397 819:0.13365901 868:0.123242 927:0.091976002 946:0.227035 949:0.16311599 971:0.16311599 
-0.13436027288870733 22:0.071275003 28:0.095481001 47:0.153327 61:0.078827001 94:0.059558 106:0.094614998 115:0.069752999 133:0.060470998 148:0.109717 150:0.087154001 166:0.074706003 218:0.083988003 229:0.095371 231:0.071275003 246:0.109717 253:0.126963 262:0.061425999 266:0.12918399 281:0.076663002 302:0.049794 320:0.083988003 377:0.095481001 382:0.174309 396:0.083988003 397:0.081246004 430:0.090898998 432:0.10139 442:0.087154001 444:0.085608996 445:0.045322001 449:0.068336003 469:0.10139 477:0.072919004 481:0.062428001 502:0.10139 523:0.090898998 530:0.074706003 542:0.072919004 543:0.095481001 552:0.095481001 611:0.109717 624:0.061425999 649:0.090898998 657:0.124856 672:0.057039998 686:0.28644401 687:0.060470998 688:0.050935 733:0.081246004 767:0.057845 774:0.181797 805:0.049794 808:0.063481003 837:0.087154001 846:0.087154001 857:0.067010999 882:0.21943399 900:0.058683999 908:0.083988003 909:0.057039998 919:0.52292597 922:0.157654 926:0.126963 927:0.044447999 934:0.076663002 951:0.12918399 952:0.10139 959:0.10139 962:0.095481001 963:0.090898998 973:0.157654 
-0.1289904394468725 141:0.595833 170:0.157069 292:0.27530599 349:0.193535 376:0.25926301 414:0.25926301 494:0.236652 599:0.150749 688:0.13830499 811:0.27530599 829:0.27530599 875:0.185555 882:0.297916 
-0.098482665569795722 29:0.20397601 68:0.19209 115:0.14033 116:0.20397601 253:0.127712 258:0.163451 313:0.16896801 325:0.15029401 443:0.20397601 479:0.18287 590:0.12994599 592:0.175337 610:0.158585 623:0.18287 632:0.441457 662:0.18287 666:0.163451 686:0.19209 695:0.158585 726:0.19209 762:0.093015999 808:0.127712 827:0.19209 836:0.12994599 904:0.13230801 943:0.175337 963:0.18287 972:0.19209 979:0.18287 
-0.19714863741630051 8:0.056722 63:0.147605 105:0.12564 130:0.135959 210:0.354956 214:0.104077 230:0.108 242:0.12564 253:0.23599499 259:0.29304299 317:0.354956 322:0.118319 330:0.039081998 335:0.118319 349:0.088322997 387:0.090360001 435:0.118319 449:0.084680997 456:0.086437002 466:0.094999999 468:0.078665003 512:0.100679 517:0.080040999 554:0.38313299 572:0.097681001 593:0.108 653:0.11264 673:0.20916601 678:0.090360001 689:0.104077 754:0.12564 765:0.12564 777:0.077359997 785:0.100679 809:0.135959 827:0.118319 855:0.074933998 857:0.166077 909:0.070683002 927:0.055078998 973:0.195362 
-0.11783081837168592 21:0.278115 166:0.24737699 201:0.33573601 253:0.210209 294:0.33573601 440:0.25385901 513:0.261024 514:0.197216 572:0.261024 574:0.17914701 603:0.36331001 628:0.210209 774:0.30099699 929:0.230977 
-0.13432099299959618 40:0.21915799 179:0.078290999 235:0.168176 295:0.21915799 311:0.26452899 323:0.34369099 363:0.125719 369:0.21013001 398:0.20249701 402:0.184836 493:0.244452 506:0.20249701 513:0.190053 535:0.195885 576:0.21013001 623:0.21915799 774:0.21915799 775:0.244452 832:0.175809 882:0.26452899 927:0.214331 951:0.15573201 
-0.087128543614099871 17:0.023077 38:0.036161002 39:0.058056999 99:0.058056999 104:0.020059001 118:0.037716001 127:0.058056999 170:0.061218999 179:0.017183 180:0.053651001 198:0.52909702 245:0.10105 247:0.040566999 248:0.042992 249:0.048099998 250:0.046117999 253:0.100775 255:0.036910001 274:0.046117999 276:0.029773001 293:0.069888003 294:0.053651001 302:0.052698001 306:0.044443 312:0.058056999 315:0.038586002 320:0.177773 335:0.050524998 348:0.058056999 354:0.046117999 363:0.027592 377:0.050524998 380:0.033592001 387:0.038586002 389:0.118594 390:0.025776999 393:0.046117999 419:0.116115 420:0.036161002 423:0.046117999 473:0.029378001 475:0.039531 481:0.033034001 489:0.058056999 493:0.107302 501:0.061218999 530:0.039531 549:0.073821001 568:0.52737099 574:0.057255998 587:0.107302 588:0.028996 593:0.046117999 594:0.041712001 601:0.058056999 602:0.053651001 603:0.058056999 613:0.053651001 617:0.031998999 628:0.033592001 657:0.033034001 664:0.048099998 669:0.048099998 672:0.150915 673:0.029773001 683:0.053651001 685:0.058056999 686:0.050524998 689:0.044443 690:0.041712001 698:0.10105 701:0.160953 703:0.050524998 728:0.050524998 734:0.081133999 740:0.088886 759:0.038586002 762:0.024466 767:0.061218999 774:0.048099998 776:0.174172 807:0.053651001 812:0.058056999 819:0.102538 849:0.042992 857:0.177296 874:0.050524998 877:0.050524998 896:0.053651001 902:0.053651001 910:0.053651001 912:0.041712001 915:0.063031003 917:0.042992 920:0.048099998 922:0.083424002 929:0.073821001 949:0.041712001 952:0.053651001 973:0.041712001 
-0.08160718963436614 29:0.264384 57:0.199908 106:0.08224 191:0.264384 203:0.286098 231:0.185857 258:0.211858 302:0.129842 492:0.248978 544:0.264384 590:0.16843 599:0.144768 616:0.237028 668:0.264384 721:0.20555 808:0.165534 836:0.16843 857:0.17473701 904:0.34298199 981:0.286098 
-0.092286659536199203 22:0.139478 74:0.099205002 94:0.058274001 106:0.092577003 108:0.064349003 113:0.099205002 163:0.099205002 168:0.093424 179:0.031771999 229:0.093316004 238:0.085276 244:0.088940002 253:0.062114 260:0.54600102 262:0.060102001 266:0.063199997 274:0.085276 276:0.055052001 278:0.28027201 286:0.077128999 306:0.16435701 309:0.054320998 315:0.071347997 337:0.088940002 357:0.093424 377:0.093424 385:0.093424 390:0.047662999 397:0.079494998 423:0.170553 426:0.093424 430:0.088940002 437:0.107353 444:0.125646 505:0.186848 578:0.082179002 583:0.088940002 594:0.077128999 606:0.186848 617:0.059168 623:0.088940002 650:0.085276 657:0.061083 671:0.093424 680:0.093424 686:0.093424 687:0.118335 717:0.065567002 721:0.077128999 752:0.085276 755:0.088940002 769:0.093424 804:0.064349003 810:0.088940002 850:0.071347997 851:0.19841 853:0.085276 856:0.065567002 857:0.131134 874:0.093424 882:0.107353 897:0.071347997 898:0.099205002 926:0.124227 927:0.086980999 934:0.075011 976:0.099205002 
-0.081830390413966989 106:0.139677 130:0.242956 191:0.224516 304:0.12630799 342:0.179911 351:0.21143299 416:0.148388 468:0.14057299 492:0.21143299 530:0.165428 583:0.201285 590:0.28606299 624:0.136021 664:0.201285 668:0.224516 728:0.21143299 736:0.21143299 739:0.17455401 817:0.13188399 881:0.224516 904:0.145631 913:0.21143299 984:0.42286599 
-0.081040056767772581 15:0.196987 63:0.14883301 94:0.14883301 106:0.078814 206:0.123065 255:0.174311 256:0.27417901 274:0.217796 343:0.217796 383:0.203032 396:0.209885 420:0.17077 423:0.217796 444:0.106967 499:0.203032 558:0.227153 586:0.322826 599:0.13873699 627:0.217796 678:0.18222199 855:0.151114 870:0.217796 910:0.25336999 938:0.227153 949:0.196987 
-0.1068912079132637 17:0.080748998 38:0.126533 46:0.17679501 57:0.14195099 67:0.13501801 91:0.150437 103:0.155515 104:0.14038301 162:0.155515 245:0.17679501 248:0.150437 293:0.16303401 330:0.058396999 420:0.126533 453:0.161376 465:0.161376 503:0.16831 519:0.18773501 562:0.203154 584:0.124078 657:0.231186 664:0.16831 673:0.104181 678:0.13501801 699:0.155515 720:0.131974 732:0.155515 745:0.155515 820:0.17679501 836:0.119599 926:0.117543 933:0.150437 958:0.16831 966:0.37547001 980:0.161376 985:0.25831199 
-0.089731010645003967 114:0.23840401 179:0.076353997 188:0.197487 195:0.20493101 252:0.224512 267:0.20493101 295:0.213736 316:0.39497501 328:0.185351 587:0.23840401 623:0.213736 633:0.213736 641:0.32802999 657:0.146791 672:0.134121 686:0.224512 733:0.191039 767:0.136015 857:0.15756699 905:0.213736 926:0.149268 954:0.185351 
-0.13602262694418651 50:0.16714799 72:0.226851 91:0.18178099 94:0.133255 197:0.152897 266:0.144519 291:0.18178099 297:0.18791699 302:0.222819 328:0.176369 363:0.116667 378:0.213632 390:0.108991 607:0.20337801 608:0.20337801 619:0.226851 664:0.20337801 671:0.213632 681:0.135298 688:0.113963 713:0.147145 745:0.18791699 772:0.149931 827:0.427264 857:0.149931 887:0.12762199 948:0.159472 1000:0.16315 
-0.087950753268754303 48:0.113554 73:0.141427 131:0.086921997 133:0.089569002 146:0.12909301 220:0.116759 281:0.113554 312:0.162512 330:0.046714999 335:0.141427 370:0.097411998 377:0.141427 390:0.144306 392:0.162512 393:0.12909301 424:0.097411998 458:0.12909301 490:0.227107 513:0.116759 520:0.150178 580:0.116759 588:0.081165001 643:0.150178 651:0.150178 664:0.13463899 686:0.141427 703:0.141427 715:0.120342 769:0.56570798 781:0.141427 800:0.248807 812:0.162512 831:0.141427 857:0.099256001 900:0.086921997 927:0.065837003 928:0.162512 951:0.095673002 964:0.094029002 
-0.10821203359337236 17:0.121193 57:0.21304999 61:0.438126 132:0.28176501 179:0.090241 275:0.193846 302:0.13837799 424:0.18276501 445:0.12595201 467:0.25261 481:0.173489 624:0.17070501 641:0.193846 672:0.31703001 739:0.219063 762:0.128489 848:0.148477 857:0.186225 909:0.15851501 917:0.225785 922:0.219063 954:0.219063 
-0.034164359448514869 18:0.245671 26:0.245671 216:0.282298 224:0.26087299 253:0.16333599 285:0.224246 327:0.245671 330:0.081147999 478:0.282298 599:0.142846 641:0.179473 664:0.23388 672:0.44028601 754:0.26087299 836:0.16619299 857:0.172417 964:0.16333599 983:0.23388 
-0.067285440693125226 15:0.21094701 17:0.116703 28:0.51102901 57:0.205156 122:0.25551501 193:0.19073699 206:0.131786 300:0.25551501 305:0.23323099 686:0.25551501 696:0.23323099 713:0.175993 720:0.19073699 857:0.179325 924:0.33976099 989:0.25551501 
-0.062137887361294483 18:0.065274999 31:0.057418 69:0.069314003 86:0.075006999 89:0.069314003 105:0.069314003 126:0.069314003 143:0.062142 179:0.044399001 190:0.053890001 193:0.048726998 206:0.067333996 227:0.075006999 247:0.052409999 253:0.043398999 265:0.055543002 272:0.099701002 281:0.052409999 286:0.053890001 287:0.069314003 302:0.034040999 328:0.053890001 330:0.021561 334:0.097453997 380:0.043398999 393:0.178748 424:0.134881 445:0.030983999 452:0.046718001 480:0.057418 503:0.062142 523:0.124285 552:0.065274999 591:0.069314003 607:0.062142 628:0.043398999 664:0.062142 673:0.038465001 686:0.130551 703:0.130551 713:0.04496 726:0.065274999 785:0.111087 805:0.068083003 827:0.130551 848:0.036525 850:0.049851 855:0.041340001 857:0.045812 859:0.057418 862:0.178748 889:0.20794301 907:0.78330398 917:0.055543002 927:0.151934 964:0.043398999 997:0.040716 1000:0.049851 
-0.13197522718438626 80:0.126351 94:0.086342998 111:0.138423 200:0.117785 201:0.146988 238:0.126351 262:0.089051001 318:0.097148001 320:0.243522 325:0.108304 353:0.263558 360:0.138423 466:0.111141 549:0.20224699 620:0.138423 621:0.138423 650:0.126351 654:0.138423 664:0.131779 670:0.146988 672:0.082693003 677:0.126351 686:0.138423 690:0.22855701 715:0.117785 726:0.138423 745:0.121761 748:0.25270101 774:0.131779 823:0.146988 827:0.415268 851:0.146988 863:0.126351 882:0.15906 927:0.064438 951:0.28092301 
-0.072129998615938551 78:0.173915 99:0.188199 150:0.149497 231:0.122259 300:0.163781 332:0.173915 349:0.122259 387:0.12507901 393:0.149497 444:0.073422998 467:0.15592 514:0.10216 574:0.1856 590:0.110795 624:0.21073 674:0.37639701 686:0.32756099 705:0.173915 714:0.163781 723:0.173915 746:0.188199 748:0.149497 817:0.20432 840:0.15592 857:0.22988901 886:0.188199 887:0.097841002 956:0.173915 983:0.15592 991:0.128144 992:0.163781 
-0.05158521475393911 65:0.13112199 78:0.139236 159:0.26224399 169:0.205183 179:0.089185998 228:0.23067801 229:0.065485001 235:0.095789999 250:0.119687 253:0.087177001 254:0.139236 267:0.119687 320:0.115339 322:0.39336601 328:0.108251 330:0.043311 358:0.13112199 382:0.119687 393:0.35905999 402:0.10528 495:0.119687 499:0.22314601 513:0.108251 570:0.119687 580:0.108251 669:0.124829 686:0.39336601 737:0.23067801 739:0.108251 762:0.126987 916:0.095789999 997:0.081789002 
-0.073064811161996035 21:0.40592799 154:0.21061499 236:0.21061499 316:0.20296399 363:0.126008 364:0.20296399 390:0.117718 396:0.20296399 397:0.196337 441:0.20296399 443:0.245015 452:0.165139 512:0.196337 552:0.230738 572:0.19049101 624:0.14844 629:0.230738 665:0.172241 774:0.21966299 796:0.20296399 808:0.15340699 900:0.141813 932:0.245015 
-0.078829150401936249 46:0.22482599 63:0.140238 229:0.112283 253:0.14947701 286:0.18561099 312:0.25834599 330:0.074262001 389:0.175907 402:0.180516 419:0.25834599 425:0.238738 440:0.180516 445:0.106719 456:0.16424499 504:0.146997 514:0.140238 522:0.238738 603:0.25834599 673:0.132484 687:0.142388 699:0.19776399 709:0.205219 732:0.19776399 785:0.19130699 832:0.171699 848:0.12580401 857:0.15778799 866:0.214035 915:0.140238 973:0.18561099 
-0.073416441110139702 7:0.16005599 27:0.201491 49:0.186198 104:0.13923401 193:0.13089401 202:0.14476299 302:0.091444999 304:0.104752 335:0.175348 371:0.166932 393:0.16005599 410:0.201491 423:0.16005599 468:0.116581 496:0.149206 545:0.201491 586:0.118621 588:0.100633 646:0.125497 671:0.175348 767:0.106231 784:0.175348 832:0.133913 852:0.201491 901:0.50079602 910:0.186198 944:0.37239701 
-0.039536272056879589 104:0.218162 106:0.090751998 190:0.45365199 244:0.26156199 248:0.233787 304:0.164133 309:0.15975299 456:0.200716 497:0.185864 523:0.26156199 599:0.15975299 624:0.176754 687:0.174005 804:0.18924201 853:0.250788 857:0.385649 986:0.29175001 
-0.05358874961921252 178:0.187594 227:0.20300101 235:0.12906 299:0.145849 309:0.102721 347:0.176663 414:0.176663 552:0.176663 613:0.187594 628:0.117455 788:0.168184 857:0.123985 879:0.60900402 887:0.105537 909:0.105537 915:0.110196 955:0.20300101 960:0.43754601 967:0.150324 983:0.168184 
-0.068688083638211078 245:0.39235801 253:0.130431 267:0.17907 273:0.208318 309:0.114069 327:0.196179 330:0.064800002 390:0.100086 416:0.13768201 459:0.166931 488:0.196179 501:0.118851 513:0.161961 561:0.208318 572:0.32392099 624:0.252415 642:0.172565 686:0.196179 783:0.153493 825:0.186763 827:0.196179 836:0.13271201 855:0.124245 882:0.225427 887:0.117196 905:0.186763 951:0.13271201 963:0.186763 
-0.07267168631404293 15:0.163176 170:0.119742 220:0.163176 248:0.168183 281:0.31739399 310:0.18816499 349:0.147543 390:0.100838 393:0.18041401 458:0.18041401 468:0.13141 482:0.239485 490:0.31739399 513:0.163176 535:0.168183 686:0.197651 715:0.168183 752:0.18041401 759:0.15094601 767:0.239485 826:0.18816499 829:0.20988099 849:0.168183 855:0.125177 857:0.138716 882:0.227119 927:0.092009999 937:0.15094601 951:0.133708 964:0.13141 
-0.097247342172802911 8:0.039106999 15:0.067345999 17:0.037257999 21:0.071755998 25:0.37494799 34:0.074460998 38:0.058382999 47:0.065498002 63:0.050882999 106:0.134725 107:0.15531901 123:0.086622998 137:0.093736999 151:0.081574999 163:0.086622998 187:0.16315 200:0.138826 217:0.086622998 220:0.134693 230:0.148921 241:0.074460998 245:0.16315 247:0.065498002 257:0.086622998 259:0.067345999 276:0.048069999 290:0.077660002 291:0.069412999 292:0.086622998 293:0.037613001 302:0.085083 307:0.173245 319:0.077660002 325:0.063824996 331:0.081574999 335:0.081574999 355:0.062298998 356:0.168562 368:0.081574999 380:0.054235999 405:0.093736999 424:0.112374 430:0.077660002 439:0.173245 444:0.036570001 459:0.069412999 477:0.062298998 487:0.093736999 498:0.26938501 501:0.049419999 509:0.086622998 510:0.187474 515:0.086622998 535:0.069412999 574:0.046220999 579:0.074460998 582:0.093736999 588:0.093631998 590:0.055183999 624:0.104959 628:0.054235999 640:0.077660002 654:0.081574999 664:0.077660002 673:0.048069999 678:0.062298998 681:0.206653 686:0.081574999 688:0.043517001 689:0.071755998 692:0.065498002 696:0.074460998 705:0.086622998 713:0.056187 722:0.093736999 733:0.069412999 736:0.081574999 739:0.067345999 742:0.081574999 747:0.074460998 767:0.148261 772:0.057250999 793:0.077660002 823:0.086622998 868:0.050882999 880:0.077660002 882:0.187474 890:0.086622998 930:0.055183999 937:0.062298998 973:0.067345999 997:0.050882999 
-0.04233576931174305 6:0.096730001 11:0.096730001 22:0.062838003 47:0.067589 67:0.064287998 68:0.084179997 83:0.096730001 87:0.38691899 88:0.096730001 106:0.055610999 115:0.061496999 124:0.096730001 131:0.051736999 139:0.096730001 171:0.40069601 190:0.069496997 192:0.076838002 262:0.10831 266:0.056945998 281:0.067589 312:0.096730001 328:0.069496997 337:0.080139004 342:0.14325801 352:0.084179997 385:0.084179997 390:0.042947002 396:0.074046999 412:0.080139004 413:0.067589 430:0.080139004 444:0.037737999 448:0.084179997 477:0.064287998 501:0.050997999 542:0.064287998 581:0.071629003 608:0.080139004 624:0.054155 635:0.19346 657:0.055039 659:0.071629003 666:0.071629003 679:0.057980999 686:0.084179997 705:0.089387998 717:0.059078999 731:0.084179997 767:0.050997999 774:0.080139004 790:0.074046999 793:0.080139004 805:0.087800004 827:0.084179997 846:0.076838002 853:0.076838002 868:0.052508 882:0.48364899 900:0.051736999 925:0.084179997 926:0.111935 932:0.089387998 934:0.067589 952:0.089387998 983:0.080139004 999:0.216621 
-0.076157424582813535 14:0.068020001 15:0.056155998 16:0.072228998 22:0.050776001 47:0.054614 94:0.25457099 106:0.17974199 133:0.086158 139:0.078161001 144:0.050776001 149:0.068020001 159:0.068020001 170:0.041209001 180:0.144458 197:0.048682 209:0.115758 220:0.056155998 229:0.067942001 241:0.062088002 253:0.090447001 255:0.049692001 262:0.043759 275:0.049692001 276:0.040082999 278:0.068020001 293:0.125452 296:0.059833001 297:0.059833001 301:0.078161001 302:0.035473 305:0.124176 306:0.119666 308:0.119666 328:0.056155998 330:0.022468001 349:0.050776001 355:0.051947001 390:0.104108 397:0.057879001 402:0.054614 412:0.064755999 416:0.047738001 434:0.179498 444:0.121974 445:0.096862003 459:0.115758 497:0.046015002 499:0.057879001 504:0.044473 514:0.042428002 517:0.092030004 524:0.078161001 527:0.056155998 541:0.072228998 546:0.068020001 552:0.204061 553:0.068020001 561:0.144458 574:0.077082001 579:0.124176 588:0.039037 605:0.072228998 628:0.180895 633:0.064755999 640:0.064755999 641:0.049692001 644:0.045224 649:0.064755999 664:0.129511 672:0.081269003 673:0.040082999 679:0.093702003 686:0.204061 688:0.036286 690:0.056155998 692:0.109229 705:0.072228998 717:0.047738001 772:0.095476002 789:0.068020001 790:0.059833001 797:0.072228998 805:0.035473 812:0.078161001 827:0.068020001 853:0.062088002 857:0.047738001 865:0.064755999 882:0.078161001 897:0.051947001 900:0.083612002 909:0.121904 915:0.042428002 919:0.43461701 922:0.056155998 927:0.094994001 932:0.144458 940:0.129511 951:0.046015002 964:0.045224 972:0.068020001 973:0.056155998 997:0.042428002 
-0.066203155576240097 105:0.156556 127:0.169414 152:0.156556 192:0.13457499 210:0.147433 224:0.156556 229:0.14726301 311:0.338828 330:0.048698999 348:0.169414 363:0.080514997 384:0.156556 404:0.169414 435:0.147433 441:0.129687 481:0.096395001 485:0.25937399 495:0.13457499 550:0.147433 630:0.338828 643:0.156556 664:0.140357 673:0.086879 701:0.156556 703:0.147433 736:0.147433 740:0.129687 818:0.169414 827:0.44229999 
-0.053752824077859342 38:0.13979501 46:0.39065099 63:0.121837 67:0.29833999 104:0.15509699 106:0.064517997 125:0.17181499 179:0.066427998 206:0.100742 224:0.207412 227:0.224447 300:0.195326 323:0.145807 440:0.15683 473:0.113572 477:0.14917 514:0.121837 527:0.161256 554:0.105415 588:0.112098 651:0.41482401 653:0.18595099 681:0.123704 686:0.195326 720:0.145807 796:0.17181499 868:0.121837 917:0.166205 948:0.145807 
-0.035111890736446237 94:0.139167 108:0.15367299 142:0.446219 155:0.162991 183:0.20365199 193:0.166547 197:0.15967999 289:0.23691501 293:0.102872 306:0.196254 420:0.15967999 431:0.196254 516:0.212401 642:0.392508 644:0.14833599 666:0.18984599 679:0.15367299 705:0.23691501 717:0.156583 749:0.23691501 822:0.22310901 
-0.024146259391027769 66:0.200037 142:0.210122 181:0.241449 182:0.241449 195:0.191797 237:0.223124 286:0.173471 289:0.223124 304:0.125525 326:0.210122 330:0.069404997 440:0.16870999 451:0.200037 516:0.200037 517:0.14214399 570:0.191797 642:0.18483 644:0.13970099 679:0.144728 681:0.133075 686:0.210122 688:0.112091 690:0.173471 705:0.223124 713:0.144728 781:0.210122 783:0.16440199 822:0.210122 915:0.13106599 951:0.14214399 
-0.086556652529380398 196:0.176425 198:0.19093999 244:0.19093999 248:0.34132901 304:0.119817 318:0.281524 323:0.149719 329:0.20056701 369:0.183075 398:0.176425 475:0.15692601 522:0.21297701 523:0.19093999 588:0.230212 614:0.170664 675:0.20056701 690:0.165583 759:0.153172 785:0.170664 805:0.104596 857:0.140762 858:0.183075 900:0.12327 902:0.21297701 927:0.186735 949:0.165583 969:0.170664 995:0.183075 
-0.069955194351488781 136:0.195362 168:0.205211 179:0.069789998 194:0.195362 328:0.16941699 330:0.067782998 444:0.091995999 445:0.097407997 538:0.195362 599:0.23864099 651:0.21790899 677:0.187314 682:0.235806 686:0.205211 731:0.205211 784:0.410422 832:0.313438 882:0.235806 901:0.195362 915:0.384009 
-0.059842078395516543 5:0.200716 104:0.19305 106:0.080306001 107:0.231454 209:0.206875 294:0.258167 380:0.161642 397:0.206875 475:0.190222 501:0.14729001 506:0.21385799 552:0.24312299 574:0.137756 677:0.221919 686:0.48624501 739:0.200716 805:0.126789 829:0.258167 848:0.136041 855:0.153975 857:0.170628 900:0.149425 
-0.064738746043837794 78:0.308357 131:0.17847501 179:0.098757997 306:0.25543499 349:0.21676999 396:0.25543499 445:0.137839 452:0.20783199 517:0.196444 563:0.33368301 603:0.33368301 609:0.290389 664:0.27645099 798:0.27645099 909:0.173476 932:0.308357 
-0.063635689612418306 17:0.069817998 133:0.096812002 151:0.152863 229:0.076343 238:0.139531 239:0.152863 260:0.111673 264:0.134463 276:0.090078004 281:0.122736 293:0.140965 299:0.12620001 320:0.134463 330:0.151476 369:0.139531 373:0.152863 380:0.101632 390:0.155975 393:0.139531 402:0.122736 434:0.134463 435:0.152863 445:0.072559997 459:0.130072 481:0.099945001 490:0.122736 505:0.152863 580:0.12620001 625:0.139531 643:0.162322 651:0.162322 672:0.091319002 673:0.090078004 686:0.30572599 703:0.152863 708:0.162322 715:0.130072 752:0.139531 769:0.152863 781:0.152863 849:0.26014501 857:0.107282 928:0.175653 934:0.122736 942:0.30572599 999:0.098341003 
-0.075132200258961793 17:0.116551 245:0.25518101 253:0.169659 293:0.11766 363:0.139357 389:0.19965699 430:0.242934 530:0.19965699 572:0.21067201 616:0.242934 686:0.25518101 695:0.21067201 740:0.224465 743:0.54194301 808:0.169659 817:0.159172 920:0.242934 923:0.224465 
-0.040722872176690197 22:0.15658399 83:0.241036 87:0.241036 106:0.20785999 171:0.399389 179:0.071337998 193:0.15658399 262:0.134946 266:0.141901 290:0.19969501 307:0.22274201 308:0.184514 342:0.356978 378:0.20976201 475:0.164121 497:0.141901 583:0.19969501 657:0.13714799 688:0.111899 721:0.17317501 803:0.22274201 813:0.241036 926:0.13946199 999:0.134946 
-0.024992145465440211 106:0.061386 149:0.37168899 245:0.185845 306:0.16347501 351:0.185845 363:0.101492 396:0.16347501 416:0.13043 435:0.185845 445:0.088215001 456:0.135767 499:0.15813699 501:0.11259 527:0.153429 572:0.153429 574:0.105302 641:0.40730199 652:0.15813699 672:0.22204401 674:0.213552 679:0.128006 687:0.1177 699:0.16347501 736:0.185845 817:0.115923 857:0.13043 915:0.115923 923:0.32695001 973:0.153429 
-0.043635266717295625 30:0.249052 190:0.17893399 229:0.108244 236:0.197836 259:0.17893399 281:0.174022 313:0.19065 363:0.236726 381:0.249052 466:0.174022 491:0.23015 551:0.249052 590:0.14662001 592:0.197836 656:0.19065 686:0.216738 730:0.216738 745:0.3813 767:0.13130599 804:0.149285 909:0.12947799 951:0.14662001 973:0.17893399 984:0.216738 
-0.027458838770440825 1:0.086115003 17:0.048985999 23:0.214506 28:0.107253 45:0.306315 121:0.107253 139:0.123243 144:0.080062002 170:0.064976998 227:0.123243 245:0.214506 249:0.102105 253:0.071308002 276:0.063201003 281:0.086115003 290:0.20421 293:0.049451999 302:0.111865 306:0.188686 328:0.088545002 330:0.035427 337:0.102105 363:0.058572002 374:0.113889 377:0.107253 402:0.086115003 423:0.19579799 449:0.076761 473:0.062362 526:0.113889 567:0.227779 587:0.113889 590:0.14511 599:0.062362 610:0.088545002 646:0.076761 682:0.123243 686:0.107253 696:0.097898997 719:0.20421 741:0.102105 748:0.097898997 760:0.094342999 785:0.091263004 793:0.102105 797:0.113889 805:0.055932999 827:0.32175899 835:0.113889 836:0.14511 841:0.123243 856:0.075272001 857:0.150544 873:0.227779 927:0.049927998 956:0.113889 998:0.107253 
-0.026460939019868582 31:0.23646 110:0.30889601 120:0.154448 178:0.142726 179:0.182843 408:0.28545099 414:0.134409 424:0.092578001 454:0.142726 527:0.110965 552:0.134409 610:0.221929 664:0.127958 684:0.53763503 687:0.170248 767:0.081428997 777:0.175759 857:0.18866199 915:0.083838999 916:0.29457399 960:0.221929 973:0.110965 
-0.046159667550218025 30:0.15051 82:0.15051 118:0.097774997 131:0.080502003 179:0.089091003 229:0.065415002 243:0.15051 248:0.111454 306:0.115216 328:0.108135 339:0.37408501 351:0.130982 370:0.090218 402:0.105167 428:0.130982 429:0.19555099 443:0.13908701 466:0.105167 493:0.13908701 531:0.13908701 547:0.15051 575:0.124695 586:0.088606998 590:0.088606998 659:0.111454 679:0.090218 686:0.26196301 695:0.108135 706:0.095688 745:0.115216 762:0.063426003 784:0.130982 805:0.068306997 817:0.081701003 827:0.130982 845:0.124695 855:0.082953997 857:0.091926001 859:0.115216 885:0.22290701 895:0.451529 915:0.163403 943:0.119559 
-0.035062428103342265 76:0.29326701 104:0.101326 154:0.232959 174:0.29326701 250:0.232959 291:0.21716601 299:0.210701 302:0.13309599 363:0.139377 371:0.24296699 435:0.25521699 452:0.182659 514:0.15919501 539:0.19968501 584:0.179116 671:0.25521699 673:0.15039299 850:0.19490799 918:0.25521699 931:0.24296699 947:0.22449701 997:0.15919501 
-0.030108801973390067 79:0.237122 106:0.078323998 261:0.20858 281:0.19038799 302:0.247319 355:0.18109 356:0.163325 451:0.225741 471:0.25179499 501:0.143655 504:0.155036 574:0.13435601 584:0.166417 603:0.27247399 624:0.152548 657:0.155036 688:0.12649401 767:0.143655 812:0.27247399 848:0.13268401 857:0.166417 905:0.225741 927:0.110385 933:0.20176899 946:0.27247399 949:0.19576199 971:0.19576199 
-0.03578875073070098 61:0.15486901 106:0.061962999 133:0.118805 143:0.17858601 156:0.187589 228:0.16500901 253:0.12472 302:0.097828001 311:0.21555699 335:0.187589 384:0.19919699 411:0.17858601 440:0.150618 451:0.17858601 456:0.137042 501:0.227293 502:0.19919699 508:0.187589 584:0.13165399 603:0.21555699 672:0.112064 688:0.10007 728:0.187589 743:0.19919699 764:0.16500901 797:0.19919699 805:0.097828001 830:0.21555699 855:0.118805 866:0.17858601 923:0.16500901 929:0.137042 949:0.15486901 953:0.146772 963:0.17858601 970:0.17858601 
-0.007978336553891097 15:0.078666002 31:0.083816998 61:0.078666002 211:0.19057199 228:0.083816998 231:0.071129002 245:0.28585801 253:0.063352004 257:0.101182 258:0.081079997 268:0.090713002 275:0.06961 276:0.056150001 281:0.15301301 293:0.043935001 296:0.083816998 298:0.090713002 306:0.083816998 327:0.095285997 330:0.062948003 342:0.081079997 349:0.071129002 363:0.052037001 366:0.066873997 380:0.12670299 389:0.074552998 392:0.109492 396:0.083816998 406:0.101182 481:0.0623 485:0.083816998 502:0.101182 514:0.059436001 518:0.101182 537:0.101182 560:0.101182 599:0.055404 609:0.28585801 628:0.063352004 629:0.095285997 633:0.090713002 657:0.0623 664:0.090713002 668:0.202364 672:0.056922998 673:0.056150001 679:0.065631002 686:0.095285997 719:0.090713002 733:0.081079997 740:0.083816998 743:0.30354699 758:0.101182 765:0.101182 783:0.074552998 817:0.059436001 822:0.095285997 827:0.38114399 836:0.064460002 848:0.053318001 854:0.202364 855:0.060346998 857:0.133747 882:0.109492 904:0.131262 909:0.056922998 927:0.044357002 933:0.081079997 943:0.086975999 954:0.078666002 975:0.086975999 996:0.101182 997:0.059436001 1000:0.07277 
-0.026721166988348373 8:0.063588999 31:0.116677 80:0.121075 104:0.052662 108:0.091362 118:0.099016003 131:0.081523001 133:0.16801199 179:0.090221003 322:0.132643 330:0.043813001 335:0.132643 367:0.79585803 424:0.091362 482:0.16071799 504:0.086724997 514:0.082737997 517:0.179462 570:0.121075 617:0.084005997 675:0.132643 677:0.121075 686:0.132643 688:0.070758998 762:0.064230002 857:0.093091004 860:0.132643 887:0.079240002 917:0.112867 927:0.061748002 930:0.089731 968:0.121075 
-0.019833088702905059 47:0.13858999 64:0.172608 179:0.058701999 253:0.11476 275:0.12609801 279:0.59502703 306:0.151832 328:0.142501 330:0.057014 400:0.164324 477:0.13182101 481:0.112855 499:0.146874 546:0.172608 574:0.097801998 579:0.31511 599:0.100363 602:0.18328901 613:0.18328901 686:0.172608 691:0.157555 713:0.118889 752:0.31511 757:0.18328901 849:0.146874 
-0.017091874825160575 57:0.15722699 106:0.064681001 209:0.16662601 227:0.225016 237:0.207938 253:0.130193 276:0.115392 285:0.178743 299:0.16166499 302:0.102121 334:0.292353 424:0.134877 509:0.207938 546:0.195821 557:0.178743 636:0.225016 664:0.18642201 686:0.39164099 713:0.134877 787:0.207938 808:0.130193 827:0.195821 859:0.17225 862:0.178743 915:0.122146 943:0.178743 963:0.18642201 979:0.18642201 
-0.02613322727891175 131:0.115765 237:0.200011 260:0.275204 276:0.110993 299:0.15550201 309:0.10952 312:0.216438 315:0.143847 325:0.14737301 382:0.171929 388:0.216438 390:0.192191 401:0.179316 482:0.114111 495:0.171929 506:0.165684 552:0.188356 565:0.216438 573:0.216438 588:0.108098 767:0.114111 769:0.188356 812:0.216438 827:0.37671301 857:0.26438501 932:0.200011 995:0.171929 
-0.012823609985573154 103:0.228065 117:0.20817401 304:0.15488701 309:0.150755 420:0.371124 519:0.275316 560:0.275316 588:0.148798 720:0.193542 732:0.45612901 760:0.228065 838:0.29792801 909:0.15488701 927:0.120696 966:0.275316 973:0.21404999 
-0.015769624791704937 294:0.27129301 298:0.243221 328:0.210921 330:0.084389001 366:0.179304 428:0.25548401 443:0.27129301 494:0.233202 590:0.345662 594:0.210921 631:0.243221 673:0.15054999 686:0.25548401 748:0.233202 762:0.123714 848:0.142958 917:0.43478701 
-0.024302560907675609 10:0.212082 66:0.190138 101:0.199724 115:0.145907 124:0.22950099 206:0.103011 247:0.16036101 253:0.132788 356:0.137566 390:0.101895 402:0.16036101 431:0.17568301 442:0.18230499 596:0.190138 624:0.25697601 629:0.199724 652:0.169947 666:0.169947 686:0.39944801 713:0.137566 716:0.18230499 733:0.169947 751:0.22950099 805:0.104157 808:0.26557499 857:0.14016999 929:0.145907 999:0.128488 
-0.010260833880354082 17:0.068972997 178:0.160356 179:0.051357001 190:0.24934299 199:0.151012 306:0.26566899 363:0.164938 365:0.173526 414:0.151012 454:0.160356 543:0.151012 552:0.151012 574:0.085565001 579:0.137842 602:0.160356 664:0.143764 680:0.151012 699:0.132835 777:0.098734997 782:0.160356 798:0.143764 827:0.151012 856:0.105983 916:0.11032 955:0.173526 960:0.62335801 996:0.160356 
-0.010209554008638941 104:0.107838 121:0.271617 179:0.092373997 224:0.28842399 265:0.231121 344:0.312112 364:0.238923 435:0.271617 473:0.157932 574:0.153901 595:0.312112 665:0.202757 673:0.16005699 695:0.22424001 884:0.24792901 950:0.28842399 954:0.22424001 956:0.28842399 
-0.013454023848007273 22:0.116293 33:0.155788 106:0.051458001 108:0.107304 133:0.098664001 175:0.165428 197:0.111498 200:0.132562 248:0.132562 253:0.103577 273:0.165428 276:0.091802001 355:0.118975 385:0.155788 391:0.179014 444:0.069839999 445:0.073948003 476:0.35802901 497:0.105388 546:0.155788 562:0.179014 633:0.148311 658:0.155788 665:0.116293 677:0.14220101 679:0.107304 684:0.155788 712:0.165428 720:0.116293 748:0.14220101 760:0.137036 780:0.148311 789:0.155788 796:0.27407199 827:0.155788 847:0.165428 856:0.32800499 973:0.12861501 980:0.14220101 988:0.165428 
-0.019988923037502951 17:0.083254002 24:0.146355 118:0.136069 145:0.209456 238:0.166383 302:0.095059998 315:0.13920701 328:0.15048601 352:0.18228 389:0.142618 509:0.19355901 568:0.58542001 574:0.103282 617:0.115442 649:0.173531 697:0.160339 701:0.19355901 743:0.38711801 827:0.18228 857:0.127928 888:0.19355901 917:0.155104 948:0.136069 
-0.013756134070788632 60:0.16790999 106:0.058258999 148:0.20267101 155:0.12885 187:0.176376 266:0.119316 313:0.155146 328:0.29122299 337:0.16790999 359:0.12885 366:0.123784 402:0.141614 444:0.079069003 468:0.117264 512:0.15008 514:0.220033 559:0.187289 581:0.15008 635:0.20267101 656:0.155146 657:0.115319 684:0.176376 686:0.176376 738:0.16099399 749:0.187289 767:0.106853 790:0.155146 800:0.155146 804:0.364452 827:0.176376 882:0.20267101 926:0.117264 927:0.082106002 941:0.20267101 
-0.013381832009369352 8:0.104904 9:0.232365 94:0.136494 104:0.086878002 106:0.072279997 211:0.218824 266:0.14803199 272:0.167116 330:0.14455999 445:0.10387 449:0.31322601 501:0.13257 508:0.218824 567:0.232365 574:0.247977 631:0.208322 688:0.116733 694:0.19973999 713:0.150722 726:0.218824 777:0.14307299 783:0.171211 789:0.218824 857:0.153575 937:0.167116 949:0.361312 998:0.218824 
-0.014339843537989571 99:0.30149201 150:0.239493 193:0.195858 206:0.135324 257:0.27860999 281:0.210664 444:0.117623 518:0.27860999 572:0.21661 679:0.180719 857:0.18414 886:0.60298502 983:0.249782 991:0.205286 
-0.014526075107075223 144:0.125568 245:0.33642599 254:0.17862201 294:0.17862201 327:0.16821299 389:0.131612 468:0.111838 596:0.16013899 628:0.111838 743:0.17862201 763:0.67285198 767:0.101908 805:0.087724 806:0.153543 827:0.33642599 857:0.118055 876:0.17862201 920:0.16013899 
-0.013094009725720827 119:0.088132001 131:0.054166999 179:0.059946001 231:0.065788999 237:0.187172 243:0.30381599 247:0.141525 248:0.074992999 260:0.128769 267:0.080445997 286:0.072760001 288:0.088132001 299:0.072760001 318:0.061852999 323:0.065788999 355:0.067307003 370:0.060704 389:0.068956003 397:0.074992999 399:0.083902001 402:0.070762999 418:0.247412 420:0.063075997 423:0.080445997 424:0.060704 459:0.074992999 482:0.053392999 501:0.106786 525:0.088132001 534:0.093585998 590:0.05962 592:0.080445997 599:0.051245 614:0.074992999 625:0.321785 663:0.083902001 673:0.103868 680:0.088132001 686:0.176265 692:0.070762999 702:0.088132001 729:0.101272 736:0.264397 737:0.232572 739:0.072760001 742:0.176265 748:0.241339 750:0.101272 777:0.057622999 781:0.088132001 785:0.074992999 800:0.077523999 808:0.058595002 827:0.264397 850:0.13461301 857:0.185559 882:0.101272 887:0.052650001 893:0.101272 912:0.072760001 929:0.128769 949:0.072760001 951:0.05962 964:0.058595002 
-0.0080547921784294776 18:0.082783997 54:0.095126003 93:0.068343997 115:0.060477 117:0.066468 166:0.064770997 179:0.028154001 200:0.140883 210:0.16556799 223:0.087906003 230:0.075563997 266:0.056001998 286:0.068343997 290:0.078810997 299:0.068343997 315:0.063221999 330:0.027344 334:0.18539 384:0.087906003 420:0.118497 424:0.057020001 426:0.082783997 429:0.18539 440:0.066468 444:0.037112001 446:0.072819002 500:0.087906003 503:0.078810997 525:0.24835201 531:0.087906003 540:0.095126003 579:0.075563997 587:0.087906003 594:0.13668901 606:0.082783997 618:0.095126003 655:0.075563997 659:0.070441999 662:0.078810997 664:0.078810997 671:0.082783997 679:0.057020001 680:0.082783997 682:0.095126003 686:0.082783997 687:0.052429002 690:0.068343997 693:0.087906003 695:0.13668901 697:0.072819002 703:0.16556799 726:0.082783997 731:0.082783997 745:0.072819002 755:0.078810997 769:0.082783997 779:0.087906003 800:0.072819002 803:0.087906003 808:0.055039 815:0.075563997 824:0.082783997 839:0.087906003 842:0.087906003 850:0.063221999 853:0.075563997 859:0.29127699 882:0.475631 915:0.051637001 926:0.110079 936:0.19025201 948:0.061797 949:0.068343997 950:0.087906003 954:0.13668901 960:0.068343997 971:0.068343997 974:0.087906003 
-0.0060643389388713269 47:0.15558 58:0.205759 115:0.14155599 170:0.117391 176:0.205759 193:0.14464501 276:0.114183 325:0.15160801 330:0.064003997 333:0.205759 341:0.184469 420:0.13868099 424:0.13346399 430:0.184469 473:0.112667 632:0.22265799 662:0.184469 665:0.14464501 673:0.228366 681:0.122719 836:0.131082 857:0.27198201 867:0.22265799 904:0.40039301 924:0.128829 973:0.159971 979:0.184469 981:0.22265799 984:0.19376899 
-0.0021288848118572942 15:0.090391003 26:0.109489 41:0.116264 47:0.087909997 56:0.109489 77:0.099940002 88:0.251625 94:0.068295002 106:0.14466099 115:0.159972 122:0.109489 148:0.251625 179:0.037236001 183:0.099940002 193:0.081730999 222:0.116264 249:0.104234 253:0.072793998 266:0.14813501 297:0.096309997 302:0.114197 309:0.063662 328:0.090391003 330:0.036164999 337:0.104234 349:0.081730999 377:0.109489 420:0.078360997 423:0.099940002 429:0.081730999 444:0.098168001 457:0.116264 529:0.116264 530:0.085665002 554:0.11818 556:0.12581199 558:0.104234 594:0.090391003 599:0.063662 619:0.116264 646:0.078360997 657:0.14317299 662:0.104234 664:0.20846701 668:0.116264 679:0.075414002 686:0.109489 688:0.058407001 696:0.099940002 720:0.163462 731:0.218977 739:0.18078201 760:0.096309997 783:0.085665002 793:0.104234 805:0.057099 813:0.12581199 857:0.15368301 882:0.251625 900:0.067293003 920:0.104234 926:0.145588 935:0.12581199 949:0.18078201 952:0.116264 966:0.116264 
-0.003997283224553675 41:0.109791 115:0.075533003 151:0.103393 179:0.070326 297:0.090948001 313:0.090948001 330:0.034152001 349:0.077180997 369:0.094375998 390:0.052749 423:0.094375998 436:0.109791 444:0.046351001 448:0.103393 475:0.080895998 494:0.66063398 510:0.118808 524:0.118808 561:0.109791 594:0.085359 617:0.130963 650:0.094375998 660:0.118808 671:0.103393 672:0.24706499 679:0.071214996 686:0.103393 688:0.055156 690:0.170718 716:0.094375998 728:0.103393 737:0.090948001 742:0.103393 790:0.090948001 827:0.103393 872:0.103393 874:0.103393 882:0.118808 884:0.18875299 900:0.254186 905:0.098430999 915:0.064493001 926:0.068742 929:0.075533003 965:0.118808 970:0.098430999 985:0.075533003 
-0.0016821136699276425 56:0.264936 67:0.20233101 102:0.264936 104:0.21037 170:0.160505 171:0.25222 286:0.218724 304:0.15827 316:0.233046 352:0.264936 420:0.189615 456:0.193546 485:0.233046 504:0.17322101 546:0.264936 599:0.154047 658:0.264936 688:0.141331 797:0.28132901 836:0.179225 857:0.185937 
-0.0014007833158145942 22:0.157015 38:0.075271003 43:0.12085 47:0.084443003 63:0.065600999 91:0.089489996 97:0.12085 103:0.092510998 106:0.104216 115:0.076830998 187:0.10517 214:0.092510998 218:0.092510998 222:0.111678 231:0.078507997 257:0.111678 262:0.067658998 266:0.071145996 290:0.100122 297:0.092510998 302:0.16453999 309:0.061151002 324:0.12085 330:0.034738999 342:0.089489996 381:0.12085 396:0.092510998 423:0.095997997 429:0.078507997 444:0.094296001 453:0.095997997 465:0.095997997 475:0.082286999 486:0.092510998 501:0.063715003 518:0.111678 544:0.111678 594:0.086825997 608:0.100122 617:0.066606998 619:0.111678 623:0.100122 646:0.15054099 657:0.13752601 671:0.10517 678:0.080317996 681:0.066606998 686:0.10517 687:0.066606998 690:0.086825997 717:0.073811002 724:0.095997997 725:0.12085 767:0.063715003 772:0.14762101 790:0.27753299 797:0.111678 813:0.12085 823:0.111678 828:0.47999099 848:0.058848999 857:0.073811002 869:0.12085 870:0.095997997 882:0.12085 925:0.10517 926:0.139846 934:0.084443003 940:0.100122 975:0.095997997 985:0.076830998 
