SVM-light Version V3.50
0 # kernel type
1 # kernel parameter -d 
1 # kernel parameter -g 
1 # kernel parameter -s 
0 # kernel parameter -r 
EmptyParam # kernel parameter -u 
1000 # highest feature index 
418 # number of training documents 
126 # number of support vectors plus 1 
0.91854085 # threshold b 
-0.1229684215145113 104:0.080473997 123:0.21523701 167:0.172475 169:0.158591 270:0.202695 281:0.32549301 302:0.105706 330:0.066951998 334:0.302616 516:0.192967 564:0.202695 570:0.185018 673:0.119443 686:0.202695 713:0.139612 817:0.126434 857:0.14225601 859:0.178297 862:0.37003499 866:0.192967 889:0.21523701 907:0.202695 913:0.202695 948:0.151308 957:0.202695 997:0.126434 
-0.11554698972093877 111:0.174225 169:0.136316 201:0.370011 389:0.136316 404:0.20020001 416:0.122274 450:0.16586301 453:0.15903001 475:0.136316 494:0.15903001 610:0.14383601 624:0.112084 630:0.20020001 651:0.18500499 657:0.113912 672:0.10408 686:0.174225 690:0.28767201 737:0.153254 742:0.34845001 743:0.18500499 789:0.174225 826:0.331725 857:0.122274 923:0.153254 926:0.115835 929:0.127278 997:0.108675 
-0.079009576109323978 31:0.140751 48:0.25694999 49:0.169912 104:0.063528001 194:0.15233099 202:0.132101 208:0.16001099 230:0.146056 272:0.1222 309:0.093038999 314:0.169912 349:0.119445 389:0.125195 440:0.128475 468:0.106384 477:0.36660001 485:0.140751 512:0.13615499 527:0.264202 538:0.30466199 549:0.116895 583:0.15233099 588:0.091830999 663:0.15233099 679:0.110212 687:0.202677 697:0.140751 702:0.16001099 703:0.16001099 732:0.140751 760:0.140751 762:0.077482998 767:0.096938998 784:0.16001099 855:0.101339 915:0.099808998 942:0.16001099 945:0.169912 
-0.1976593897747228 35:0.201278 104:0.15051 314:0.201278 329:0.189549 330:0.06261 338:0.156487 372:0.17301799 389:0.29661101 425:0.201278 429:0.141495 526:0.201278 549:0.138473 554:0.102298 569:0.166733 628:0.12602299 684:0.189549 687:0.120046 709:0.17301799 730:0.189549 732:0.33346599 767:0.114834 800:0.166733 808:0.12602299 819:0.25645399 857:0.133029 864:0.201278 866:0.18045101 867:0.21780901 916:0.138473 927:0.088238001 973:0.156487 
-0.061348064212520724 8:0.059597 33:0.124316 50:0.29179999 57:0.099815004 115:0.090818003 152:0.132009 159:0.124316 162:0.109352 193:0.092799999 206:0.064117998 255:0.090818003 266:0.084097996 272:0.094939999 277:0.52803499 330:0.041063 349:0.092799999 416:0.087247998 445:0.059009001 502:0.132009 537:0.132009 574:0.070439003 582:0.14285 615:0.26401699 619:0.132009 652:0.105782 655:0.113474 657:0.081280999 664:0.118349 673:0.073256001 686:0.124316 689:0.109352 717:0.087247998 748:0.113474 764:0.109352 767:0.075314 777:0.081280999 805:0.12966201 840:0.118349 857:0.174495 881:0.26401699 913:0.248632 926:0.082652003 927:0.057870999 937:0.094939999 970:0.118349 
0.99999993212504223 28:0.39195001 57:0.157351 106:0.129465 108:0.134984 122:0.19597501 166:0.15333401 167:0.166757 179:0.066648997 229:0.097874001 266:0.13257401 281:0.157351 286:0.161792 304:0.117074 420:0.14026 446:0.17238601 482:0.118727 526:0.208102 534:0.208102 564:0.19597501 657:0.128133 687:0.124116 720:0.292584 767:0.118727 780:0.18656901 789:0.19597501 837:0.178884 882:0.22519299 924:0.13029499 926:0.13029499 949:0.161792 973:0.161792 989:0.19597501 
0.99999993212504223 38:0.13979501 46:0.39065099 63:0.121837 67:0.29833999 104:0.15509699 106:0.064517997 125:0.17181499 179:0.066427998 206:0.100742 224:0.207412 227:0.224447 300:0.195326 323:0.145807 440:0.15683 473:0.113572 477:0.14917 514:0.121837 527:0.161256 554:0.105415 588:0.112098 651:0.41482401 653:0.18595099 681:0.123704 686:0.195326 720:0.145807 796:0.17181499 868:0.121837 917:0.166205 948:0.145807 
0.99999993212504223 8:0.11093 60:0.220287 106:0.229294 115:0.16904201 136:0.220287 153:0.245711 166:0.181045 168:0.23139299 193:0.172731 206:0.119345 266:0.156534 273:0.245711 328:0.19103201 330:0.076430999 377:0.23139299 534:0.245711 587:0.245711 611:0.26589099 657:0.15129 666:0.196895 712:0.245711 720:0.172731 815:0.21121299 857:0.162396 926:0.153843 
0.99999993212504223 8:0.044238999 22:0.068885997 28:0.092280999 88:0.21207701 94:0.172683 106:0.060961999 108:0.063561 111:0.092280999 133:0.058442999 166:0.072200999 170:0.055906001 179:0.031383999 197:0.066045001 226:0.195981 293:0.042548999 301:0.106039 302:0.048124999 304:0.055128001 309:0.053656999 316:0.081173003 330:0.060961999 349:0.068885997 352:0.092280999 390:0.047079999 434:0.081173003 440:0.074092999 461:0.092280999 476:0.42415401 497:0.062426001 558:0.087851003 565:0.21207701 581:0.078521997 594:0.076185003 660:0.106039 664:0.087851003 686:0.184561 688:0.049228001 696:0.084233001 717:0.25905699 736:0.184561 760:0.16234601 778:0.106039 813:0.106039 827:0.184561 844:0.097990997 847:0.097990997 856:0.32382199 870:0.084233001 927:0.214791 930:0.062426001 934:0.074092999 935:0.21207701 966:0.097990997 973:0.076185003 980:0.168465 
0.99999993212504223 8:0.103928 22:0.080913998 106:0.071607001 108:0.074658997 197:0.077577002 200:0.092233002 234:0.09894 241:0.09894 255:0.079186 262:0.069733001 276:0.063873999 293:0.049977999 302:0.056527998 308:0.095345996 330:0.10741 342:0.092233002 349:0.080913998 352:0.108394 390:0.055300001 391:0.37366199 412:0.103191 420:0.077577002 465:0.09894 471:0.115101 476:0.62277001 502:0.115101 559:0.115101 564:0.108394 565:0.124554 620:0.108394 623:0.20638201 647:0.103191 655:0.09894 664:0.103191 678:0.082780004 679:0.074658997 688:0.057822999 691:0.09894 696:0.197881 703:0.108394 720:0.080913998 765:0.115101 827:0.108394 856:0.228218 
-0.99999993212504223 17:0.081595004 28:0.35729599 122:0.17864799 146:0.163068 162:0.157144 170:0.10823 179:0.060756002 229:0.089221001 249:0.170074 255:0.13051 286:0.147487 300:0.17864799 304:0.106723 469:0.189702 514:0.111434 526:0.189702 686:0.35729599 696:0.163068 720:0.133357 735:0.205283 762:0.173015 789:0.17864799 797:0.189702 805:0.093165003 827:0.17864799 882:0.205283 908:0.157144 919:0.163068 927:0.083163999 932:0.189702 949:0.147487 985:0.13051 988:0.189702 
-0.097561513673539699 63:0.118692 67:0.145319 117:0.15278099 229:0.095031999 243:0.43730599 266:0.12872399 278:0.190284 290:0.181151 349:0.14204299 381:0.21865299 444:0.170609 464:0.202058 514:0.118692 517:0.25744799 651:0.202058 657:0.124412 687:0.120511 699:0.16737901 743:0.202058 815:0.17368899 827:0.38056701 871:0.16737901 905:0.181151 926:0.12651099 937:0.145319 973:0.157094 
-0.29990602661916138 8:0.073592 28:0.15350799 41:0.16300701 47:0.123254 50:0.48042601 60:0.14613999 84:0.16300701 106:0.152115 108:0.105733 109:0.176394 133:0.097220004 138:0.176394 193:0.114591 249:0.14613999 273:0.16300701 276:0.090457998 302:0.160109 304:0.091704004 328:0.12673201 330:0.10141 350:0.176394 366:0.107735 377:0.15350799 385:0.15350799 445:0.072866 481:0.100367 497:0.103846 590:0.103846 686:0.30701599 688:0.081890002 696:0.14012 713:0.105733 726:0.15350799 755:0.14613999 756:0.16300701 808:0.102061 843:0.16300701 857:0.107735 893:0.176394 927:0.071461 
-0.82342318720562857 60:0.148748 87:0.17954201 106:0.206439 171:0.29749501 266:0.21139801 276:0.092072003 284:0.165915 290:0.148748 301:0.17954201 309:0.090850003 328:0.128994 342:0.132952 351:0.156247 357:0.156247 359:0.114145 363:0.085327998 377:0.156247 452:0.111826 475:0.12225 497:0.105699 514:0.097461 537:0.165915 546:0.156247 591:0.165915 599:0.090850003 657:0.102158 664:0.148748 686:0.156247 688:0.083351001 720:0.116635 721:0.25798699 723:0.165915 736:0.156247 739:0.128994 780:0.148748 789:0.156247 808:0.207763 815:0.14262 882:0.17954201 897:0.119325 926:0.103882 932:0.165915 
-0.043343432350932729 53:0.14574499 60:0.13066401 106:0.090671003 153:0.14574499 179:0.046677999 196:0.120731 294:0.14574499 316:0.120731 317:0.411755 330:0.045336001 390:0.070023 402:0.110201 424:0.094535999 449:0.098231003 501:0.083150998 565:0.15771499 574:0.077767998 580:0.113312 587:0.43723401 654:0.137252 673:0.080879003 677:0.125282 688:0.073218003 692:0.110201 706:0.100268 745:0.120731 748:0.125282 777:0.089737996 797:0.14574499 827:0.137252 842:0.14574499 849:0.116789 857:0.192652 882:0.15771499 910:0.14574499 962:0.137252 969:0.35036701 973:0.113312 1000:0.104819 
0.99999993212504223 103:0.228065 117:0.20817401 304:0.15488701 309:0.150755 420:0.371124 519:0.275316 560:0.275316 588:0.148798 720:0.193542 732:0.45612901 760:0.228065 838:0.29792801 909:0.15488701 927:0.120696 966:0.275316 973:0.21404999 
0.99999993212504223 46:0.32171199 51:0.34161901 79:0.32171199 104:0.127727 106:0.106265 169:0.25171199 506:0.28298801 687:0.203748 699:0.28298801 767:0.194902 882:0.36967599 933:0.27374801 958:0.30627099 997:0.200672 
0.99999993212504223 17:0.084037997 51:0.195381 67:0.28103399 104:0.1461 115:0.134417 118:0.13734899 125:0.16184799 229:0.091891997 236:0.33589801 248:0.156564 255:0.134417 276:0.108424 355:0.140517 363:0.200964 390:0.093870997 394:0.195381 481:0.120301 501:0.11147 508:0.18399601 509:0.195381 533:0.211428 588:0.105596 681:0.116529 686:0.18399601 688:0.098153003 736:0.18399601 805:0.095954001 827:0.18399601 848:0.102956 857:0.25826401 930:0.124471 933:0.156564 951:0.124471 958:0.175165 964:0.122331 975:0.16794901 997:0.11477 
0.99999993212504223 31:0.225931 46:0.25684699 61:0.212047 104:0.20394801 245:0.25684699 293:0.118428 304:0.153438 330:0.169678 338:0.212047 363:0.140267 420:0.183826 509:0.27274001 588:0.147406 686:0.25684699 720:0.191732 797:0.27274001 827:0.25684699 857:0.180261 864:0.27274001 866:0.24451999 963:0.24451999 
0.99999993212504223 17:0.077287003 34:0.154459 84:0.17968699 104:0.067181997 105:0.17968699 106:0.055893999 138:0.194445 141:0.194445 192:0.154459 248:0.143988 286:0.27940199 298:0.16109399 306:0.148848 402:0.271732 439:0.17968699 509:0.17968699 527:0.13970099 574:0.095880002 686:0.33843201 720:0.12631699 736:0.16921601 742:0.16921601 780:0.16109399 797:0.17968699 848:0.094686002 857:0.118759 864:0.17968699 868:0.211101 882:0.194445 924:0.112505 930:0.114472 948:0.25263399 997:0.105551 
-0.5220017235064941 13:0.069871999 17:0.027772 20:0.057888001 38:0.043519001 46:0.060805999 67:0.232187 79:0.060805999 84:0.12913699 97:0.20961501 103:0.106974 104:0.144848 105:0.064568996 115:0.088843003 118:0.045391001 137:0.069871999 138:0.069871999 164:0.069871999 179:0.041359 196:0.053486999 206:0.031362001 229:0.030368 231:0.045391001 235:0.044420999 236:0.111006 243:0.069871999 254:0.12913699 265:0.051739998 282:0.069871999 286:0.2008 293:0.028037 294:0.064568996 300:0.121612 301:0.069871999 302:0.095132001 304:0.07265 319:0.057888001 323:0.045391001 330:0.040169999 346:0.053486999 356:0.041882001 363:0.033206999 368:0.060805999 373:0.060805999 390:0.031021999 393:0.111006 412:0.057888001 424:0.041882001 428:0.060805999 430:0.057888001 440:0.097644001 443:0.064568996 450:0.057888001 452:0.043519001 468:0.040426999 473:0.070712 475:0.047575001 480:0.053486999 501:0.036837999 504:0.159026 508:0.121612 509:0.19370601 527:0.0502 530:0.047575001 533:0.069871999 541:0.064568996 546:0.060805999 554:0.032816 574:0.068907 588:0.034897 590:0.041134 617:0.038509998 627:0.055503 628:0.040426999 661:0.069871999 664:0.057888001 673:0.035831001 686:0.182418 699:0.16046099 705:0.064568996 717:0.085349999 736:0.060805999 748:0.055503 762:0.058889002 786:0.12913699 796:0.106974 797:0.12913699 798:0.057888001 815:0.055503 817:0.075856999 827:0.060805999 828:0.444024 857:0.25604901 868:0.075856999 870:0.166509 878:0.0502 885:0.051739998 896:0.064568996 900:0.037372001 907:0.060805999 915:0.037928998 920:0.057888001 923:0.053486999 926:0.040426999 927:0.056612998 929:0.044420999 933:0.051739998 956:0.064568996 990:0.064568996 
-0.89329782181336148 73:0.17115299 75:0.19667099 98:0.19667099 103:0.150552 104:0.067952 131:0.105192 179:0.058207002 237:0.18174399 258:0.14563601 281:0.137421 293:0.078915998 294:0.18174399 304:0.102246 326:0.51345998 330:0.056534 426:0.17115299 482:0.103689 501:0.103689 519:0.18174399 534:0.18174399 554:0.092370003 568:0.137421 617:0.216791 664:0.162939 686:0.17115299 687:0.108395 720:0.127763 767:0.103689 780:0.162939 837:0.15622699 848:0.191541 868:0.21351799 915:0.106759 973:0.14129999 997:0.106759 
-0.48656088862962693 10:0.161872 46:0.15244 57:0.122396 67:0.23283599 70:0.134091 77:0.139145 94:0.095086001 104:0.24208701 220:0.12585101 227:0.17516699 236:0.139145 245:0.30487901 305:0.139145 355:0.116418 359:0.111364 363:0.083249003 389:0.119271 390:0.077771999 402:0.122396 455:0.139145 456:0.111364 574:0.086374 588:0.087485999 628:0.101351 658:0.30487901 671:0.15244 681:0.096543998 688:0.081320003 692:0.122396 699:0.134091 786:0.161872 808:0.101351 842:0.161872 861:0.15244 866:0.145123 874:0.15244 875:0.109101 880:0.145123 915:0.095086001 919:0.27829 933:0.129712 951:0.103123 961:0.17516699 
-0.27757982446951468 106:0.055806 138:0.19414 193:0.126119 206:0.087139003 227:0.19414 228:0.148615 275:0.370278 298:0.160842 306:0.148615 309:0.098237 423:0.154217 430:0.321684 437:0.19414 445:0.160393 468:0.112328 481:0.110464 483:0.14376201 509:0.179406 581:0.14376201 589:0.179406 631:0.160842 677:0.154217 680:0.168951 686:0.168951 733:0.14376201 736:0.168951 740:0.148615 767:0.102355 777:0.110464 810:0.160842 856:0.237147 857:0.118573 882:0.19414 909:0.10093 916:0.123426 
-0.32656275722136907 34:0.17424101 47:0.15326799 62:0.16791201 67:0.14578199 125:0.16791201 192:0.17424101 217:0.202701 235:0.13945299 236:0.17424101 248:0.32485899 276:0.112486 282:0.219349 286:0.157594 302:0.099549003 363:0.104247 390:0.097387999 402:0.15326799 427:0.202701 452:0.13662 473:0.110993 537:0.202701 546:0.190889 588:0.109552 612:0.219349 681:0.120895 760:0.16791201 805:0.099549003 808:0.12691399 811:0.202701 816:0.202701 871:0.16791201 915:0.11907 930:0.129134 951:0.129134 973:0.157594 982:0.202701 
0.99999993212504223 57:0.159914 106:0.065787002 179:0.067734003 286:0.32885501 446:0.175194 501:0.120661 526:0.42298299 574:0.11285 584:0.13978 629:0.199167 655:0.36359501 664:0.18960799 705:0.211491 735:0.228861 760:0.175194 762:0.096442997 856:0.13978 905:0.18960799 913:0.199167 935:0.228861 947:0.175194 966:0.211491 980:0.181797 
0.99999993212504223 15:0.090391003 26:0.109489 41:0.116264 47:0.087909997 56:0.109489 77:0.099940002 88:0.251625 94:0.068295002 106:0.14466099 115:0.159972 122:0.109489 148:0.251625 179:0.037236001 183:0.099940002 193:0.081730999 222:0.116264 249:0.104234 253:0.072793998 266:0.14813501 297:0.096309997 302:0.114197 309:0.063662 328:0.090391003 330:0.036164999 337:0.104234 349:0.081730999 377:0.109489 420:0.078360997 423:0.099940002 429:0.081730999 444:0.098168001 457:0.116264 529:0.116264 530:0.085665002 554:0.11818 556:0.12581199 558:0.104234 594:0.090391003 599:0.063662 619:0.116264 646:0.078360997 657:0.14317299 662:0.104234 664:0.20846701 668:0.116264 679:0.075414002 686:0.109489 688:0.058407001 696:0.099940002 720:0.163462 731:0.218977 739:0.18078201 760:0.096309997 783:0.085665002 793:0.104234 805:0.057099 813:0.12581199 857:0.15368301 882:0.251625 900:0.067293003 920:0.104234 926:0.145588 935:0.12581199 949:0.18078201 952:0.116264 966:0.116264 
0.99999993212504223 91:0.407489 106:0.105454 108:0.109949 183:0.145707 197:0.114246 206:0.082331002 286:0.131786 291:0.27165899 297:0.140414 302:0.083246998 305:0.145707 307:0.169506 315:0.121908 328:0.131786 330:0.052726999 378:0.159629 385:0.159629 439:0.169506 465:0.145707 477:0.121908 579:0.145707 594:0.131786 608:0.151967 617:0.101097 644:0.10613 681:0.20219301 686:0.159629 688:0.085155003 696:0.145707 705:0.169506 713:0.109949 720:0.11916 745:0.140414 772:0.112031 803:0.169506 806:0.145707 813:0.183428 827:0.159629 847:0.169506 856:0.112031 948:0.11916 980:0.145707 
0.99999993212504223 15:0.21094701 17:0.116703 28:0.51102901 57:0.205156 122:0.25551501 193:0.19073699 206:0.131786 300:0.25551501 305:0.23323099 686:0.25551501 696:0.23323099 713:0.175993 720:0.19073699 857:0.179325 924:0.33976099 989:0.25551501 
0.99999993212504223 106:0.085372999 248:0.21992999 255:0.18881901 293:0.119173 309:0.15028401 330:0.085372999 343:0.23592301 449:0.184983 501:0.15658499 514:0.16122 574:0.146449 664:0.246059 717:0.18139499 720:0.192939 762:0.125157 767:0.15658499 805:0.13479 819:0.34969401 837:0.23592301 868:0.16122 870:0.23592301 927:0.12032 930:0.17484701 948:0.192939 953:0.202226 980:0.23592301 988:0.27445701 
-0.36949634371446383 22:0.106128 38:0.203504 43:0.163367 47:0.114151 83:0.163367 87:0.32673499 106:0.093920998 133:0.090039998 142:0.142171 144:0.106128 179:0.096701004 184:0.12977199 246:0.163367 291:0.120975 302:0.074143 307:0.150968 308:0.125058 315:0.108576 363:0.15528201 378:0.142171 390:0.072532997 412:0.13534699 466:0.114151 497:0.096176997 590:0.096176997 594:0.117373 599:0.082666002 608:0.13534699 677:0.12977199 678:0.108576 686:0.28434199 688:0.075842001 739:0.117373 742:0.28434199 797:0.150968 803:0.150968 806:0.12977199 808:0.094522998 813:0.163367 819:0.096176997 827:0.142171 857:0.099777997 882:0.163367 887:0.084931999 930:0.096176997 931:0.13534699 948:0.106128 953:0.111237 964:0.094522998 966:0.150968 
-0.36694377155126234 94:0.139167 108:0.15367299 142:0.446219 155:0.162991 183:0.20365199 193:0.166547 197:0.15967999 289:0.23691501 293:0.102872 306:0.196254 420:0.15967999 431:0.196254 516:0.212401 642:0.392508 644:0.14833599 666:0.18984599 679:0.15367299 705:0.23691501 717:0.156583 749:0.23691501 822:0.22310901 
-0.33833052272220199 50:0.16714799 72:0.226851 91:0.18178099 94:0.133255 197:0.152897 266:0.144519 291:0.18178099 297:0.18791699 302:0.222819 328:0.176369 363:0.116667 378:0.213632 390:0.108991 607:0.20337801 608:0.20337801 619:0.226851 664:0.20337801 671:0.213632 681:0.135298 688:0.113963 713:0.147145 745:0.18791699 772:0.149931 827:0.427264 857:0.149931 887:0.12762199 948:0.159472 1000:0.16315 
-0.017047761109145198 8:0.079558998 63:0.103517 94:0.103517 106:0.109634 112:0.17622501 145:0.190698 163:0.35245001 179:0.112879 193:0.123883 206:0.085594997 234:0.151483 323:0.123883 330:0.054816999 363:0.090630002 420:0.23755001 438:0.190698 445:0.078775004 468:0.110337 472:0.190698 498:0.274019 501:0.100541 514:0.20703401 521:0.17622501 522:0.17622501 574:0.094033003 599:0.096495003 678:0.12673999 686:0.16595601 688:0.088529997 725:0.190698 795:0.190698 827:0.33191201 857:0.116471 882:0.190698 917:0.141214 964:0.110337 999:0.106764 
-0.24940901379225186 15:0.196987 63:0.14883301 94:0.14883301 106:0.078814 206:0.123065 255:0.174311 256:0.27417901 274:0.217796 343:0.217796 383:0.203032 396:0.209885 420:0.17077 423:0.217796 444:0.106967 499:0.203032 558:0.227153 586:0.322826 599:0.13873699 627:0.217796 678:0.18222199 855:0.151114 870:0.217796 910:0.25336999 938:0.227153 949:0.196987 
0.99999993212504223 22:0.116293 33:0.155788 106:0.051458001 108:0.107304 133:0.098664001 175:0.165428 197:0.111498 200:0.132562 248:0.132562 253:0.103577 273:0.165428 276:0.091802001 355:0.118975 385:0.155788 391:0.179014 444:0.069839999 445:0.073948003 476:0.35802901 497:0.105388 546:0.155788 562:0.179014 633:0.148311 658:0.155788 665:0.116293 677:0.14220101 679:0.107304 684:0.155788 712:0.165428 720:0.116293 748:0.14220101 760:0.137036 780:0.148311 789:0.155788 796:0.27407199 827:0.155788 847:0.165428 856:0.32800499 973:0.12861501 980:0.14220101 988:0.165428 
0.99999993212504223 56:0.206476 60:0.196566 106:0.204603 136:0.196566 166:0.16155 168:0.206476 218:0.181623 266:0.279356 315:0.157685 359:0.150839 439:0.21925201 497:0.139678 534:0.21925201 611:0.23726 657:0.13499901 686:0.41295201 720:0.30826101 745:0.181623 817:0.128792 920:0.196566 926:0.13727701 956:0.21925201 
0.99999993212504223 77:0.232236 106:0.084039003 226:0.27016801 230:0.232236 299:0.21004701 380:0.169156 449:0.18209299 501:0.154138 503:0.24221399 508:0.25442499 543:0.25442499 574:0.28832099 664:0.24221399 720:0.37984699 736:0.25442499 785:0.216493 789:0.25442499 857:0.178561 
-0.19710762320022898 5:0.16332901 63:0.123403 103:0.174023 200:0.168341 202:0.16332901 238:0.180582 262:0.12727401 302:0.103172 330:0.130694 353:0.18834101 360:0.197836 473:0.115032 482:0.119855 525:0.197836 578:0.174023 584:0.138845 646:0.141592 659:0.168341 664:0.56502199 679:0.13626599 697:0.174023 748:0.180582 773:0.210078 858:0.180582 917:0.168341 947:0.174023 985:0.144527 
-0.25675888511568595 17:0.090241 104:0.078442998 106:0.065261997 133:0.125131 179:0.067194 214:0.173796 224:0.209804 245:0.197578 297:0.173796 323:0.147488 342:0.168121 356:0.136088 384:0.209804 403:0.45407 504:0.129181 519:0.209804 574:0.11195 660:0.227035 664:0.188095 686:0.197578 687:0.125131 705:0.209804 762:0.191348 767:0.239397 819:0.13365901 868:0.123242 927:0.091976002 946:0.227035 949:0.16311599 971:0.16311599 
-0.14479287830657991 79:0.237122 106:0.078323998 261:0.20858 281:0.19038799 302:0.247319 355:0.18109 356:0.163325 451:0.225741 471:0.25179499 501:0.143655 504:0.155036 574:0.13435601 584:0.166417 603:0.27247399 624:0.152548 657:0.155036 688:0.12649401 767:0.143655 812:0.27247399 848:0.13268401 857:0.166417 905:0.225741 927:0.110385 933:0.20176899 946:0.27247399 949:0.19576199 971:0.19576199 
-0.1869400056158638 48:0.093292996 66:0.110616 108:0.080031998 228:0.102207 248:0.098870002 252:0.116193 266:0.078602999 273:0.123383 281:0.093292996 401:0.110616 420:0.083159998 570:0.10606 583:0.110616 650:0.10606 734:0.466465 739:0.095926002 767:0.070393004 770:0.53406501 772:0.081547 857:0.163093 882:0.133516 940:0.110616 947:0.51103598 989:0.116193 
-0.24136821419964019 56:0.244179 166:0.19104899 202:0.201589 421:0.445768 458:0.222884 468:0.16234399 482:0.14793099 490:0.196055 554:0.131781 599:0.14197899 697:0.214788 741:0.23246001 759:0.186479 806:0.222884 836:0.16518401 857:0.17137 920:0.464919 948:0.182275 
-0.24653933578216383 8:0.064990997 15:0.111921 56:0.13556699 78:0.14395601 106:0.089559004 113:0.14395601 166:0.21213999 193:0.101199 203:0.155779 206:0.069921002 209:0.115356 226:0.14395601 253:0.090132996 261:0.476998 266:0.091709003 297:0.119249 304:0.080986999 319:0.129061 328:0.223842 363:0.074034996 366:0.095144004 369:0.123744 380:0.090132996 382:0.123744 420:0.097025998 443:0.14395601 468:0.090132996 492:0.13556699 561:0.14395601 583:0.129061 609:0.13556699 624:0.174429 679:0.093376003 686:0.271135 733:0.115356 747:0.123744 790:0.119249 827:0.271135 857:0.19028801 905:0.129061 909:0.080986999 991:0.10607 
-0.13774920729146528 47:0.110403 84:0.14601199 104:0.054591998 105:0.14601199 125:0.24190401 170:0.083302997 229:0.068672001 248:0.117003 259:0.22703899 300:0.275006 330:0.090837002 390:0.070151001 440:0.110403 445:0.065269001 462:0.130904 481:0.089902997 485:0.120952 497:0.093019001 506:0.120952 508:0.137503 527:0.113519 572:0.113519 617:0.087084003 686:0.41251001 701:0.14601199 717:0.096501999 726:0.137503 730:0.275006 785:0.117003 796:0.120952 804:0.28412801 833:0.14601199 857:0.096501999 869:0.31600699 909:0.082143001 917:0.117003 927:0.064010002 957:0.137503 999:0.088459998 
-0.30064453968228461 15:0.13565201 95:0.16431101 115:0.120036 150:0.14998201 176:0.17447899 206:0.084746003 276:0.096823998 293:0.075760998 319:0.156425 323:0.122655 334:0.122655 361:0.16431101 398:0.14453401 446:0.72266799 468:0.109244 584:0.115317 665:0.122655 686:0.16431101 827:0.328623 857:0.115317 867:0.18880901 900:0.100987 927:0.07649 
-0.21016335345337253 116:0.293506 146:0.25229701 276:0.16287699 283:0.293506 293:0.127445 294:0.293506 304:0.165121 328:0.228191 494:0.25229701 527:0.228191 686:0.27640301 762:0.133843 810:0.263136 884:0.25229701 924:0.183768 927:0.12867001 988:0.293506 989:0.27640301 
0.75476197362902253 17:0.080748998 38:0.126533 46:0.17679501 57:0.14195099 67:0.13501801 91:0.150437 103:0.155515 104:0.14038301 162:0.155515 245:0.17679501 248:0.150437 293:0.16303401 330:0.058396999 420:0.126533 453:0.161376 465:0.161376 503:0.16831 519:0.18773501 562:0.203154 584:0.124078 657:0.231186 664:0.16831 673:0.104181 678:0.13501801 699:0.155515 720:0.131974 732:0.155515 745:0.155515 820:0.17679501 836:0.119599 926:0.117543 933:0.150437 958:0.16831 966:0.37547001 980:0.161376 985:0.25831199 
-0.22897068410020985 8:0.036924001 17:0.035179 29:0.081786998 37:0.088505 60:0.073325001 105:0.081786998 106:0.025441 120:0.088505 131:0.047338001 209:0.065537997 210:0.077021003 229:0.038465999 230:0.070303999 234:0.070303999 249:0.146649 271:0.088505 286:0.063587002 290:0.073325001 305:0.070303999 317:0.23106401 323:0.057495002 330:0.076323003 346:0.067750998 356:0.053050999 369:0.070303999 372:0.070303999 383:0.13107701 389:0.060263 396:0.135501 398:0.067750998 413:0.061841998 417:0.073325001 423:0.070303999 441:0.203252 444:0.103587 445:0.036559999 449:0.38587099 465:0.070303999 466:0.061841998 479:0.073325001 501:0.046661999 503:0.073325001 504:0.050358001 517:0.052104 526:0.081786998 549:0.056267001 567:0.16357499 570:0.140609 572:0.063587002 574:0.087283 586:0.052104 599:0.089569002 617:0.048780002 623:0.146649 626:0.088505 638:0.073325001 641:0.056267001 650:0.070303999 655:0.070303999 657:0.050358001 662:0.073325001 664:0.073325001 679:0.053050999 681:0.097558998 687:0.048780002 696:0.140609 734:0.247366 754:0.081786998 767:0.046661999 777:0.25179201 798:0.073325001 801:0.088505 809:0.088505 835:0.081786998 836:0.052104 851:0.081786998 857:0.162166 870:0.070303999 881:0.081786998 882:0.177009 913:0.077021003 923:0.067750998 926:0.051208001 927:0.107565 935:0.26551399 945:0.081786998 953:0.060263 997:0.048043001 1000:0.058821 
-0.3726230040277877 30:0.174758 46:0.304167 47:0.12211 104:0.120761 123:0.161494 186:0.144784 193:0.113528 207:0.161494 283:0.161494 293:0.070123002 309:0.088428997 349:0.113528 351:0.15208399 377:0.15208399 417:0.144784 461:0.15208399 477:0.116146 497:0.102882 592:0.13882001 599:0.088428997 654:0.15208399 664:0.144784 686:0.15208399 695:0.12555701 699:0.13377801 703:0.15208399 736:0.15208399 739:0.12555701 746:0.174758 748:0.13882001 765:0.322988 767:0.092136003 784:0.15208399 857:0.213471 882:0.349516 885:0.129409 915:0.094864003 986:0.161494 
-0.40870691886253008 8:0.104904 9:0.232365 94:0.136494 104:0.086878002 106:0.072279997 211:0.218824 266:0.14803199 272:0.167116 330:0.14455999 445:0.10387 449:0.31322601 501:0.13257 508:0.218824 567:0.232365 574:0.247977 631:0.208322 688:0.116733 694:0.19973999 713:0.150722 726:0.218824 777:0.14307299 783:0.171211 789:0.218824 857:0.153575 937:0.167116 949:0.361312 998:0.218824 
-0.22728462152192797 33:0.17282499 91:0.14705899 106:0.171257 121:0.17282499 206:0.089137003 275:0.126256 293:0.079686999 296:0.152022 308:0.152022 325:0.135221 331:0.17282499 335:0.17282499 355:0.13198601 364:0.152022 390:0.088172004 396:0.152022 432:0.18351901 497:0.116914 579:0.15775301 609:0.17282499 628:0.114904 633:0.16452999 647:0.16452999 664:0.16452999 665:0.12901101 672:0.206488 681:0.109454 688:0.092193998 717:0.121292 740:0.152022 757:0.18351901 764:0.152022 780:0.32905999 805:0.090129003 857:0.121292 868:0.107802 900:0.10622 919:0.15775301 927:0.080453001 945:0.18351901 951:0.116914 961:0.19859201 973:0.14268 
-0.17271628914437351 8:0.1012 57:0.169493 72:0.22416 131:0.129742 153:0.22416 188:0.185688 190:0.17427699 229:0.105427 259:0.17427699 308:0.185688 330:0.069728002 390:0.107698 466:0.169493 530:0.16516601 643:0.22416 736:0.211098 774:0.200966 805:0.220176 846:0.192687 903:0.44832 918:0.42219499 973:0.17427699 
-0.12734907056487013 8:0.106615 106:0.073458999 139:0.25554901 170:0.13473199 186:0.21171901 270:0.22239301 306:0.19562399 363:0.121451 406:0.236154 435:0.22239301 581:0.189236 603:0.25554901 620:0.22239301 681:0.56338602 691:0.202998 713:0.15318 836:0.150446 856:0.15607999 916:0.162467 943:0.202998 
-0.28518500272160802 49:0.26440901 80:0.227286 104:0.098858997 202:0.20557 236:0.227286 247:0.199927 335:0.24900199 363:0.13598301 418:0.17475399 456:0.181906 497:0.168446 576:0.227286 688:0.13283101 760:0.438059 887:0.14875101 901:0.23705 909:0.14875101 934:0.199927 938:0.23705 944:0.26440901 948:0.185875 
-0.36136376464902059 4:0.116479 12:0.252092 22:0.081882998 94:0.068421997 106:0.072465003 179:0.037305001 187:0.219384 196:0.096487999 230:0.100125 253:0.145859 262:0.14113601 286:0.090558998 302:0.228818 307:0.116479 311:0.126046 330:0.072465003 337:0.104427 363:0.059904002 399:0.104427 444:0.049175002 445:0.104135 470:0.116479 473:0.063781001 480:0.096487999 481:0.071718998 498:0.090558998 501:0.066454001 508:0.109692 525:0.109692 526:0.116479 584:0.076984003 622:0.126046 635:0.252092 658:0.109692 661:0.126046 664:0.208854 677:0.100125 704:0.116479 727:0.219384 754:0.116479 780:0.104427 800:0.38595399 804:0.302214 815:0.100125 819:0.074205004 827:0.109692 848:0.061379001 856:0.15396801 948:0.163766 997:0.068421997 
-0.28628306920096547 93:0.115717 106:0.046298001 108:0.096542999 131:0.086145997 134:0.13343801 146:0.127941 170:0.084916003 222:0.148838 229:0.070001997 234:0.127941 241:0.127941 253:0.093189999 273:0.148838 285:0.127941 294:0.297676 302:0.073096 306:0.123293 334:0.209261 368:0.140165 395:0.123293 429:0.104631 447:0.161062 586:0.09482 600:0.161062 631:0.13343801 651:0.148838 658:0.140165 673:0.082595997 678:0.107044 681:0.088770002 686:0.140165 707:0.123293 732:0.36987999 748:0.127941 760:0.24658699 838:0.161062 859:0.123293 882:0.161062 917:0.119268 924:0.093189999 927:0.13049901 934:0.11254 936:0.161062 939:0.161062 973:0.231434 
-0.18229914651550397 17:0.067221999 80:0.134343 236:0.134343 247:0.23634399 248:0.125236 251:0.44153699 254:0.156286 318:0.206586 325:0.115155 342:0.125236 390:0.075088002 418:0.103293 453:0.134343 466:0.23634399 482:0.089165002 531:0.156286 554:0.079430997 664:0.14011499 679:0.608244 686:0.14717899 688:0.078512996 850:0.1124 856:0.103293 887:0.087922998 924:0.097852997 930:0.099564001 
-0.14093236049523625 20:0.25670201 104:0.107054 210:0.26964301 248:0.229442 300:0.26964301 318:0.18924101 420:0.192984 423:0.24612699 503:0.25670201 578:0.474374 613:0.28632799 617:0.170772 672:0.161083 673:0.158894 686:0.26964301 687:0.170772 717:0.18924101 
-0.22625395323812225 8:0.035491001 10:0.078613997 70:0.065122001 151:0.074033 178:0.078613997 185:0.078613997 199:0.074033 201:0.078613997 226:0.31445599 230:0.067575999 240:0.078613997 248:0.125991 253:0.049221002 264:0.065122001 272:0.113078 290:0.070479997 302:0.038608 323:0.055264 330:0.073362 348:0.085070997 352:0.074033 357:0.074033 363:0.040429998 385:0.074033 395:0.065122001 402:0.059441999 420:0.31791401 428:0.074033 429:0.055264 435:0.074033 454:0.078613997 456:0.054083999 461:0.074033 510:0.085070997 517:0.050082002 527:0.06112 535:0.125991 552:0.074033 553:0.296132 572:0.06112 579:0.067575999 581:0.062995002 588:0.042488001 590:0.050082002 594:0.12224 596:0.070479997 617:0.046886999 636:0.085070997 641:0.054083999 672:0.044227 677:0.067575999 687:0.140661 690:0.06112 699:0.065122001 703:0.074033 717:0.155874 718:0.085070997 726:0.074033 748:0.067575999 765:0.15722799 775:0.235842 812:0.085070997 827:0.074033 848:0.041425999 857:0.103916 874:0.074033 916:0.108168 920:0.14095999 945:0.15722799 951:0.050082002 955:0.085070997 960:0.42783901 985:0.054083999 999:0.142883 
-0.27130453565120599 57:0.29411101 62:0.32221299 67:0.279746 107:0.34872299 210:0.36630401 390:0.18688101 539:0.28660101 715:0.311692 767:0.221917 878:0.302412 930:0.24779999 964:0.24354 
-0.35754571676874941 10:0.199607 34:0.085790999 47:0.075464003 50:0.367686 58:0.099803001 70:0.082673997 91:0.079975002 94:0.058626 106:0.031044999 108:0.064737 166:0.147074 179:0.031964 197:0.201801 218:0.082673997 230:0.085790999 249:0.089477003 257:0.099803001 266:0.063580997 290:0.089477003 304:0.056147002 315:0.071777999 323:0.070160002 353:0.089477003 370:0.064737 374:0.099803001 385:0.093988001 396:0.082673997 420:0.067267001 423:0.171581 429:0.070160002 439:0.099803001 448:0.093988001 457:0.099803001 471:0.099803001 518:0.099803001 526:0.29940999 583:0.089477003 631:0.089477003 657:0.061450999 662:0.089477003 679:0.064737 686:0.187975 687:0.059525002 696:0.171581 713:0.064737 717:0.197887 739:0.077593997 742:0.093988001 758:0.39921299 769:0.093988001 773:0.099803001 810:0.089477003 827:0.187975 837:0.085790999 882:0.108 883:0.093988001 887:0.056147002 908:0.082673997 926:0.062488001 927:0.087506004 962:0.093988001 973:0.077593997 
-0.1456325147685783 17:0.072098002 90:0.54416502 132:0.167622 179:0.107369 227:0.18138801 235:0.115319 286:0.26064101 303:0.15785401 335:0.15785401 440:0.126743 484:0.167622 485:0.138853 495:0.432262 509:0.167622 628:0.10495 658:0.15785401 700:0.167622 736:0.15785401 762:0.076438002 857:0.22157 882:0.18138801 904:0.108727 945:0.167622 
-0.17424248896894604 114:0.23840401 179:0.076353997 188:0.197487 195:0.20493101 252:0.224512 267:0.20493101 295:0.213736 316:0.39497501 328:0.185351 587:0.23840401 623:0.213736 633:0.213736 641:0.32802999 657:0.146791 672:0.134121 686:0.224512 733:0.191039 767:0.136015 857:0.15756699 905:0.213736 926:0.149268 954:0.185351 
-0.13972114976910299 22:0.08066 45:0.102867 74:0.229479 91:0.091944002 249:0.30860099 258:0.091944002 266:0.073096 290:0.102867 302:0.05635 330:0.035691001 349:0.08066 354:0.19725899 409:0.124163 413:0.17351501 420:0.077334002 444:0.096881002 445:0.051290002 500:0.114739 503:0.102867 529:0.114739 581:0.183887 594:0.089206003 650:0.098630004 659:0.183887 662:0.102867 664:0.102867 682:0.124163 686:0.108053 703:0.108053 706:0.078937002 731:0.108053 745:0.095046997 765:0.114739 772:0.075833999 789:0.108053 790:0.19009399 793:0.102867 801:0.124163 803:0.114739 841:0.37248799 842:0.114739 855:0.068433002 856:0.075833999 878:0.089206003 882:0.248326 890:0.114739 916:0.078937002 926:0.071840003 927:0.150902 954:0.267618 968:0.098630004 976:0.114739 
-0.34623316398444109 38:0.158994 63:0.138569 104:0.088198997 125:0.195411 131:0.136536 186:0.21148901 207:0.235897 234:0.202777 254:0.235897 270:0.222151 286:0.183403 330:0.073379003 338:0.183403 349:0.165832 402:0.178368 473:0.12917 517:0.150282 592:0.202777 599:0.12917 653:0.21148901 678:0.16965599 681:0.14069299 687:0.14069299 732:0.195411 736:0.222151 819:0.150282 836:0.150282 848:0.124307 857:0.15591 909:0.13271099 956:0.235897 985:0.16229101 991:0.173814 
-0.21655184761218679 60:0.21316101 93:0.184852 106:0.147917 134:0.21316101 291:0.190525 309:0.130191 330:0.073959 375:0.237762 420:0.16025101 429:0.167143 466:0.17977799 474:0.20438001 615:0.237762 617:0.283611 673:0.131943 707:0.19695599 734:0.17977799 824:0.44781399 827:0.22390699 838:0.25729001 848:0.12528899 909:0.13376001 973:0.184852 
-0.17853965773032496 4:0.097081997 8:0.043829001 22:0.068246998 25:0.105056 41:0.19416501 76:0.105056 106:0.120794 115:0.06679 156:0.091425002 179:0.031093 187:0.274275 213:0.091425002 230:0.083452001 257:0.097081997 259:0.075478002 266:0.123696 276:0.053874001 290:0.087036997 297:0.080420002 312:0.105056 321:0.097081997 330:0.030199001 335:0.091425002 349:0.068246998 356:0.062972002 376:0.091425002 423:0.083452001 424:0.062972002 438:0.105056 439:0.097081997 444:0.081972003 448:0.091425002 466:0.073407002 469:0.097081997 479:0.17407399 497:0.061848 498:0.52834898 499:0.077794999 510:0.105056 518:0.097081997 561:0.097081997 579:0.166904 605:0.097081997 608:0.087036997 611:0.105056 623:0.087036997 628:0.060784999 644:0.060784999 657:0.119552 666:0.077794999 680:0.091425002 681:0.057902001 686:0.091425002 704:0.097081997 725:0.105056 743:0.097081997 755:0.087036997 767:0.055388 790:0.080420002 795:0.105056 797:0.097081997 827:0.18285 850:0.069821 856:0.064163998 857:0.064163998 875:0.065433003 882:0.105056 926:0.121569 927:0.12768 941:0.105056 975:0.083452001 987:0.105056 
-0.30374239259124486 22:0.109178 61:0.120746 105:0.15530699 106:0.096620001 108:0.100739 133:0.092628002 197:0.104676 200:0.124451 210:0.146257 266:0.098940998 276:0.086185001 293:0.067437001 296:0.12865201 297:0.12865201 330:0.096620001 331:0.146257 342:0.124451 343:0.13350099 351:0.146257 445:0.069424003 497:0.098940998 500:0.15530699 503:0.139237 504:0.095625997 541:0.15530699 554:0.078933001 560:0.15530699 572:0.120746 617:0.092628002 624:0.18818299 657:0.19125199 664:0.139237 677:0.13350099 681:0.185256 686:0.146257 731:0.146257 733:0.124451 765:0.15530699 783:0.114433 826:0.139237 828:0.40050399 865:0.139237 867:0.168062 868:0.182459 870:0.13350099 881:0.15530699 900:0.089891002 915:0.091228999 926:0.097240001 948:0.109178 999:0.094090998 
-0.18363289693556367 57:0.152318 63:0.118332 112:0.60433602 145:0.21799 179:0.064516999 255:0.13858899 272:0.144879 420:0.135773 452:0.135773 471:0.201445 552:0.189707 588:0.108873 678:0.144879 686:0.37941301 689:0.16687199 703:0.189707 827:0.189707 856:0.13314 857:0.26628 927:0.088312 929:0.13858899 
-0.1455698373954582 8:0.055443998 66:0.110102 118:0.086332999 124:0.13289601 179:0.039331999 220:0.095481001 224:0.12281 228:0.101732 231:0.086332999 253:0.076893002 255:0.084489003 276:0.13630299 282:0.13289601 291:0.29523101 303:0.115653 323:0.086332999 328:0.095481001 330:0.038201001 358:0.115653 363:0.063160002 390:0.059004001 420:0.165546 495:0.211134 496:0.098410003 506:0.101732 530:0.090489 546:0.115653 548:0.110102 553:0.115653 588:0.066373996 592:0.105567 641:0.084489003 643:0.12281 650:0.105567 673:0.068150997 686:0.115653 687:0.073246002 695:0.095481001 703:0.115653 713:0.079659998 715:0.098410003 717:0.243503 728:0.115653 734:0.092859998 742:0.115653 745:0.305197 770:0.13289601 805:0.060313001 817:0.072140001 827:0.115653 867:0.13289601 922:0.095481001 923:0.101732 947:0.101732 954:0.095481001 975:0.42226699 985:0.084489003 1000:0.088324003 
-0.26291973920685519 8:0.11378 26:0.237339 106:0.078395002 155:0.17338599 167:0.20195401 190:0.195942 306:0.41754201 330:0.078395002 333:0.25202501 363:0.129614 486:0.20877101 574:0.134479 581:0.20195401 602:0.25202501 644:0.15779699 705:0.25202501 713:0.16347501 748:0.21664 767:0.143787 836:0.160557 856:0.16656899 857:0.16656899 882:0.272724 909:0.141784 916:0.17338599 
-0.18515451912410674 17:0.065667003 26:0.28754601 37:0.165208 92:0.152669 104:0.114162 135:0.13123401 199:0.143773 245:0.143773 293:0.066290997 309:0.16719399 317:0.28754601 342:0.122338 349:0.107324 383:0.122338 396:0.25293401 408:0.152669 429:0.107324 471:0.152669 517:0.097259998 539:0.11249 584:0.100903 588:0.082511999 617:0.091054998 679:0.099027999 699:0.25293401 760:0.37940201 797:0.152669 817:0.089680001 827:0.143773 857:0.201805 870:0.13123401 875:0.102899 882:0.165208 909:0.171777 916:0.21006399 948:0.107324 971:0.118695 
-0.1262938333723907 5:0.191122 100:0.26601601 168:0.231501 248:0.39397401 293:0.106741 299:0.191122 320:0.20363601 390:0.236215 397:0.196987 412:0.22039001 425:0.24582601 442:0.211312 490:0.185876 493:0.24582601 603:0.26601601 673:0.136418 686:0.231501 767:0.14025 850:0.176797 915:0.144402 949:0.191122 
-0.16845041513933434 67:0.139108 77:0.166265 104:0.14463601 150:0.166265 193:0.13597199 229:0.090970002 245:0.182151 266:0.123223 295:0.173408 359:0.13306899 363:0.099474996 394:0.38684401 402:0.292503 422:0.209308 424:0.125462 452:0.130366 481:0.119095 514:0.113619 582:0.209308 588:0.104537 751:0.209308 767:0.110352 784:0.182151 796:0.160226 812:0.209308 817:0.113619 827:0.182151 871:0.32045099 915:0.113619 945:0.193422 953:0.142517 
-0.1959080520428709 46:0.22482599 63:0.140238 229:0.112283 253:0.14947701 286:0.18561099 312:0.25834599 330:0.074262001 389:0.175907 402:0.180516 419:0.25834599 425:0.238738 440:0.180516 445:0.106719 456:0.16424499 504:0.146997 514:0.140238 522:0.238738 603:0.25834599 673:0.132484 687:0.142388 699:0.19776399 709:0.205219 732:0.19776399 785:0.19130699 832:0.171699 848:0.12580401 857:0.15778799 866:0.214035 915:0.140238 973:0.18561099 
-0.23374450969813715 63:0.092013001 69:0.15664101 94:0.184027 106:0.048725002 108:0.101604 115:0.107765 193:0.110116 209:0.125521 266:0.099790998 296:0.129757 304:0.176247 309:0.171544 337:0.140433 373:0.147513 380:0.098075002 434:0.25951499 444:0.066129997 464:0.15664101 501:0.178735 543:0.147513 574:0.16716599 581:0.125521 627:0.134648 657:0.096447997 673:0.086925998 678:0.112656 686:0.44253999 688:0.078691997 733:0.125521 808:0.098075002 810:0.140433 827:0.147513 868:0.092013001 871:0.389272 899:0.15664101 915:0.092013001 926:0.098075002 964:0.098075002 985:0.107765 997:0.092013001 
-0.11292070954754825 12:0.128508 17:0.051079001 22:0.25044799 30:0.128508 96:0.257016 104:0.044401001 106:0.036940001 162:0.196747 179:0.038034 200:0.095160998 229:0.055853002 230:0.102081 248:0.095160998 253:0.074354 255:0.081699997 262:0.071947001 272:0.085408002 282:0.128508 293:0.051564999 301:0.128508 366:0.078488 384:0.118755 397:0.095160998 411:0.106467 423:0.204163 424:0.077030003 445:0.10617 453:0.102081 462:0.106467 465:0.102081 468:0.074354 470:0.118755 491:0.118755 517:0.37827301 646:0.08004 654:0.111835 656:0.098373003 657:0.073119998 658:0.111835 664:0.319401 681:0.070827998 686:0.111835 687:0.070827998 727:0.111835 800:0.098373003 804:0.077030003 805:0.058322001 827:0.22366901 857:0.078488 882:0.128508 892:0.118755 920:0.106467 921:0.118755 927:0.052060999 948:0.25044799 958:0.106467 
-0.14848989003661472 17:0.073499002 50:0.125907 67:0.122895 77:0.146887 101:0.16092101 103:0.141551 104:0.063888997 117:0.129206 118:0.120125 180:0.17087799 230:0.146887 245:0.16092101 253:0.106989 268:0.15319701 302:0.083921 349:0.120125 355:0.122895 363:0.087880999 390:0.082098998 412:0.15319701 465:0.146887 475:0.125907 515:0.17087799 517:0.108861 546:0.16092101 572:0.132852 574:0.091179997 679:0.110839 681:0.101915 699:0.141551 700:0.17087799 736:0.16092101 751:0.18491299 754:0.17087799 805:0.083921 857:0.112938 863:0.146887 893:0.18491299 914:0.55473799 
-0.16733456371926025 8:0.039106999 15:0.067345999 17:0.037257999 21:0.071755998 25:0.37494799 34:0.074460998 38:0.058382999 47:0.065498002 63:0.050882999 106:0.134725 107:0.15531901 123:0.086622998 137:0.093736999 151:0.081574999 163:0.086622998 187:0.16315 200:0.138826 217:0.086622998 220:0.134693 230:0.148921 241:0.074460998 245:0.16315 247:0.065498002 257:0.086622998 259:0.067345999 276:0.048069999 290:0.077660002 291:0.069412999 292:0.086622998 293:0.037613001 302:0.085083 307:0.173245 319:0.077660002 325:0.063824996 331:0.081574999 335:0.081574999 355:0.062298998 356:0.168562 368:0.081574999 380:0.054235999 405:0.093736999 424:0.112374 430:0.077660002 439:0.173245 444:0.036570001 459:0.069412999 477:0.062298998 487:0.093736999 498:0.26938501 501:0.049419999 509:0.086622998 510:0.187474 515:0.086622998 535:0.069412999 574:0.046220999 579:0.074460998 582:0.093736999 588:0.093631998 590:0.055183999 624:0.104959 628:0.054235999 640:0.077660002 654:0.081574999 664:0.077660002 673:0.048069999 678:0.062298998 681:0.206653 686:0.081574999 688:0.043517001 689:0.071755998 692:0.065498002 696:0.074460998 705:0.086622998 713:0.056187 722:0.093736999 733:0.069412999 736:0.081574999 739:0.067345999 742:0.081574999 747:0.074460998 767:0.148261 772:0.057250999 793:0.077660002 823:0.086622998 868:0.050882999 880:0.077660002 882:0.187474 890:0.086622998 930:0.055183999 937:0.062298998 973:0.067345999 997:0.050882999 
-0.088200019790114131 172:0.102573 179:0.086893998 223:0.27131301 228:0.112374 229:0.063801996 238:0.11661 264:0.224749 298:0.12162 302:0.066623002 320:0.112374 330:0.042197999 384:0.135657 393:0.23322 420:0.091431998 445:0.06064 499:0.21741 501:0.077395 513:0.21093699 535:0.108705 542:0.097563997 543:0.12775201 574:0.072385997 580:0.105469 652:0.108705 669:0.24324 676:0.255503 686:0.511006 736:0.255503 739:0.105469 745:0.112374 762:0.123723 861:0.12775201 945:0.135657 964:0.084936 975:0.11661 
-0.085573193974256348 91:0.124161 130:0.16767 248:0.124161 276:0.085983999 302:0.076095 306:0.128352 342:0.124161 360:0.145916 445:0.069261998 514:0.091017 583:0.41673699 602:0.154945 634:0.154945 664:0.13891201 701:0.154945 703:0.145916 705:0.154945 717:0.61444002 724:0.13319001 797:0.154945 810:0.13891201 850:0.111436 904:0.301512 924:0.097012997 
-0.078339192087098372 5:0.34033099 102:0.137411 104:0.21822099 131:0.084454 140:0.145914 179:0.046732001 185:0.145914 193:0.102575 224:0.29182801 230:0.12542801 248:0.116925 274:0.12542801 304:0.082088001 338:0.113444 359:0.100385 363:0.150084 377:0.137411 473:0.079898 541:0.145914 549:0.100385 575:0.261632 588:0.157722 590:0.092956997 592:0.12542801 658:0.137411 686:0.137411 706:0.100385 760:0.241743 767:0.083247997 817:0.085712001 820:0.137411 850:0.104941 857:0.192876 860:0.137411 885:0.116925 891:0.27482301 927:0.063968003 932:0.145914 934:0.220659 949:0.113444 968:0.12542801 
-0.13068534259465886 1:0.162701 17:0.092552997 23:0.202638 45:0.38582501 84:0.215177 179:0.068915002 224:0.430354 227:0.23285 248:0.172427 272:0.154754 280:0.178247 286:0.167293 363:0.110663 628:0.134725 641:0.148036 687:0.128336 694:0.184966 714:0.202638 762:0.098123997 827:0.40527701 868:0.126398 920:0.192912 
-0.11718202719778367 17:0.098415002 57:0.173007 235:0.15741301 248:0.183349 298:0.20513199 363:0.117673 569:0.189538 584:0.151224 588:0.123661 599:0.12528799 632:0.49519801 652:0.183349 726:0.21547399 817:0.134405 857:0.45367199 860:0.21547399 882:0.24759901 904:0.148414 968:0.19668201 975:0.19668201 
-0.07451939785334119 39:0.29972401 57:0.209429 72:0.27697599 192:0.238088 210:0.26083601 292:0.27697599 380:0.173418 390:0.133073 393:0.238088 475:0.204081 481:0.170541 552:0.26083601 590:0.176452 664:0.248317 722:0.29972401 929:0.190551 933:0.221948 982:0.27697599 
-0.094933266569411062 15:0.19398101 76:0.269995 106:0.155222 151:0.234965 218:0.206682 241:0.21447299 328:0.19398101 373:0.234965 385:0.234965 398:0.206682 430:0.22368699 444:0.105335 479:0.22368699 498:0.19398101 552:0.234965 688:0.12534299 790:0.206682 827:0.234965 839:0.249504 907:0.234965 927:0.10938 973:0.19398101 995:0.21447299 
-0.14205119626462795 56:0.264936 67:0.20233101 102:0.264936 104:0.21037 170:0.160505 171:0.25222 286:0.218724 304:0.15827 316:0.233046 352:0.264936 420:0.189615 456:0.193546 485:0.233046 504:0.17322101 546:0.264936 599:0.154047 658:0.264936 688:0.141331 797:0.28132901 836:0.179225 857:0.185937 
-0.11512953924208587 17:0.079674996 179:0.059326001 201:0.185238 206:0.089971997 229:0.087121002 231:0.130219 349:0.130219 354:0.15922999 370:0.120154 424:0.360461 458:0.318461 496:0.14843599 514:0.217623 554:0.188291 574:0.197684 587:0.185238 594:0.144017 686:0.34888801 748:0.15922999 767:0.105683 802:0.185238 814:0.185238 826:0.166071 827:0.174444 856:0.122428 911:0.174444 927:0.081207 929:0.12743901 973:0.28803301 
-0.063390638719728845 8:0.107028 17:0.101968 104:0.088636003 106:0.073743001 254:0.237068 260:0.163096 272:0.170498 280:0.196381 323:0.166655 330:0.073743001 394:0.237068 440:0.179253 522:0.237068 526:0.237068 554:0.120488 578:0.196381 625:0.20378301 694:0.20378301 761:0.237068 800:0.196381 814:0.237068 817:0.139257 819:0.15102801 866:0.212538 873:0.237068 882:0.25653899 932:0.237068 948:0.166655 
-0.11914625972198749 8:0.076748997 56:0.16009501 94:0.099861003 108:0.11027 118:0.119508 133:0.101392 155:0.116956 193:0.119508 242:0.170001 300:0.16009501 302:0.083489999 317:0.16009501 346:0.14082401 366:0.112358 402:0.12854201 424:0.11027 445:0.075993001 449:0.22916 470:0.170001 501:0.29096901 574:0.27213499 587:0.170001 623:0.152411 654:0.16009501 703:0.16009501 713:0.11027 732:0.14082401 777:0.20934699 780:0.152411 808:0.21288 836:0.108302 853:0.14613301 857:0.112358 882:0.183963 891:0.320189 962:0.16009501 969:0.136226 972:0.16009501 
-0.072066957863247641 14:0.25692001 16:0.27281699 179:0.087375 293:0.118461 378:0.25692001 387:0.196209 390:0.13107499 393:0.46902701 501:0.15564901 530:0.20101801 574:0.145574 685:0.29522401 692:0.206284 762:0.124409 774:0.244589 823:0.27281699 857:0.18031099 868:0.160257 930:0.173803 934:0.206284 
-0.12124660717940898 31:0.17301901 46:0.196695 104:0.078092001 170:0.119163 229:0.098233998 253:0.13077401 301:0.22602101 302:0.205154 304:0.117504 381:0.22602101 395:0.17301901 465:0.17954101 542:0.150216 598:0.22602101 664:0.187255 686:0.196695 699:0.346039 717:0.138045 730:0.196695 739:0.162387 741:0.187255 764:0.17301901 800:0.17301901 804:0.13548 857:0.27608901 927:0.18313 984:0.196695 994:0.22602101 
-0.077690824665343133 65:0.152215 73:0.152215 100:0.174909 144:0.113626 179:0.051766999 196:0.133893 226:0.323268 229:0.076020002 235:0.1112 253:0.101201 320:0.133893 355:0.116246 364:0.133893 367:0.60886103 467:0.14490899 552:0.152215 554:0.246447 574:0.086246997 664:0.14490899 672:0.27279601 686:0.152215 687:0.096400999 717:0.106828 762:0.073707998 805:0.079380997 819:0.102971 848:0.085173003 857:0.106828 868:0.094945997 927:0.070859 951:0.102971 975:0.13894001 
-0.12941386373964581 21:0.19648699 50:0.34954199 106:0.073783003 118:0.16674501 133:0.141468 277:0.237196 308:0.19648699 309:0.12988099 382:0.203894 552:0.22337399 589:0.237196 615:0.237196 655:0.203894 664:0.212653 686:0.22337399 692:0.17935 717:0.15676901 740:0.19648699 767:0.135326 785:0.190072 849:0.190072 900:0.137288 913:0.22337399 920:0.212653 927:0.103985 930:0.15110999 
-0.098533802629828762 128:0.26696599 175:0.246704 215:0.204363 255:0.33945 261:0.40872601 298:0.221177 356:0.48006901 496:0.19769 641:0.169725 710:0.26696599 805:0.12116 863:0.21206599 923:0.204363 924:0.154465 
-0.089034516306264785 56:0.234055 106:0.15462101 117:0.18792599 155:0.170987 193:0.17471801 197:0.167514 206:0.120718 290:0.222821 343:0.213643 349:0.17471801 423:0.213643 497:0.158335 539:0.183128 610:0.19323 624:0.150575 651:0.248538 658:0.234055 668:0.248538 679:0.161213 688:0.124858 743:0.248538 749:0.248538 755:0.222821 827:0.234055 919:0.213643 
-0.11051225203003157 63:0.101443 196:0.14305501 200:0.138384 302:0.084812 305:0.29689401 309:0.094562002 316:0.14305501 318:0.114137 352:0.16263001 389:0.127244 394:0.172693 396:0.14305501 482:0.098526001 509:0.172693 549:0.118808 578:0.14305501 583:0.154825 617:0.102998 649:0.154825 664:0.30964899 679:0.112016 686:0.16263001 711:0.34538701 734:0.130578 783:0.127244 790:0.14305501 793:0.154825 805:0.084812 827:0.32526001 856:0.114137 857:0.228274 859:0.14305501 865:0.154825 870:0.14844701 915:0.101443 
-0.098251743879117448 196:0.176425 198:0.19093999 244:0.19093999 248:0.34132901 304:0.119817 318:0.281524 323:0.149719 329:0.20056701 369:0.183075 398:0.176425 475:0.15692601 522:0.21297701 523:0.19093999 588:0.230212 614:0.170664 675:0.20056701 690:0.165583 759:0.153172 785:0.170664 805:0.104596 857:0.140762 858:0.183075 900:0.12327 902:0.21297701 927:0.186735 949:0.165583 969:0.170664 995:0.183075 
-0.085144448229429806 8:0.112729 116:0.249697 144:0.175533 224:0.249697 249:0.22386099 293:0.108422 300:0.235147 304:0.140475 309:0.13672701 339:0.22386099 483:0.20008899 516:0.22386099 532:0.249697 644:0.156339 646:0.33658999 673:0.138566 686:0.235147 719:0.22386099 856:0.165031 857:0.165031 882:0.27020499 943:0.21463899 954:0.194132 
-0.065165534804892233 8:0.117931 80:0.44908601 104:0.097666003 106:0.081254996 135:0.22454301 179:0.083660997 202:0.406178 309:0.14303499 379:0.26121899 477:0.37573501 652:0.20932101 691:0.22454301 797:0.26121899 827:0.245997 882:0.282673 927:0.114516 
-0.060909720364366149 57:0.094892003 62:0.103959 66:0.112513 77:0.107878 104:0.046921998 118:0.17644601 125:0.207919 133:0.074849002 170:0.071599998 179:0.080387004 183:0.107878 190:0.097571 220:0.195141 229:0.118049 259:0.097571 281:0.094892003 305:0.107878 309:0.068719 322:0.118185 324:0.135805 325:0.092469998 330:0.039037999 338:0.097571 349:0.088223003 362:0.125498 363:0.064542003 364:0.103959 373:0.118185 390:0.120591 392:0.135805 400:0.112513 401:0.225025 403:0.135805 416:0.082944997 420:0.084585004 429:0.088223003 466:0.094892003 514:0.073719002 517:0.079951003 520:0.25099599 527:0.097571 533:0.135805 552:0.118185 563:0.135805 572:0.097571 574:0.066964999 601:0.135805 628:0.078575999 644:0.078575999 653:0.112513 664:0.112513 668:0.125498 672:0.070602998 677:0.107878 686:0.23637 699:0.103959 705:0.125498 714:0.118185 715:0.100565 748:0.107878 751:0.135805 762:0.057229001 774:0.112513 805:0.061634 813:0.135805 844:0.125498 848:0.066131003 857:0.082944997 887:0.070602998 900:0.072636999 909:0.070602998 915:0.147439 970:0.112513 973:0.097571 997:0.073719002 
-0.11822053758954576 8:0.055682998 104:0.046114001 106:0.15346301 107:0.110576 115:0.084853001 161:0.110576 165:0.123338 193:0.086704999 206:0.059907001 213:0.116151 233:0.123338 237:0.123338 253:0.077224001 287:0.123338 293:0.053555001 294:0.123338 299:0.095890999 301:0.133468 304:0.069388002 334:0.26011401 336:0.133468 343:0.106021 375:0.123338 412:0.110576 420:0.083129004 445:0.055133998 446:0.10217 447:0.133468 460:0.133468 475:0.090878002 481:0.075942002 517:0.078575 542:0.088703997 584:0.081517003 587:0.123338 604:0.133468 616:0.110576 639:0.116151 643:0.123338 664:0.110576 665:0.086704999 686:0.580755 688:0.061960999 717:0.081517003 732:0.10217 734:0.093258999 769:0.116151 797:0.123338 815:0.106021 827:0.116151 877:0.116151 887:0.069388002 924:0.077224001 927:0.05407 932:0.123338 937:0.088703997 948:0.086704999 964:0.077224001 999:0.074722998 
-0.034726501803021476 93:0.11111 106:0.044454999 133:0.085235998 153:0.142913 165:0.428738 167:0.11452 179:0.045770999 213:0.13458499 265:0.11452 276:0.079306997 298:0.128125 304:0.080399998 330:0.044454999 334:0.100465 363:0.073498003 370:0.092698999 407:0.15465 429:0.100465 446:0.118385 460:0.15465 511:0.15465 539:0.105301 574:0.076256998 587:0.285826 686:0.26916999 689:0.118385 695:0.22222 707:0.118385 738:0.122848 780:0.128125 789:0.13458499 805:0.070185997 827:0.26916999 877:0.26916999 882:0.15465 900:0.082717001 927:0.062651999 950:0.285826 973:0.11111 
-0.062647927547882593 61:0.15486901 106:0.061962999 133:0.118805 143:0.17858601 156:0.187589 228:0.16500901 253:0.12472 302:0.097828001 311:0.21555699 335:0.187589 384:0.19919699 411:0.17858601 440:0.150618 451:0.17858601 456:0.137042 501:0.227293 502:0.19919699 508:0.187589 584:0.13165399 603:0.21555699 672:0.112064 688:0.10007 728:0.187589 743:0.19919699 764:0.16500901 797:0.19919699 805:0.097828001 830:0.21555699 855:0.118805 866:0.17858601 923:0.16500901 929:0.137042 949:0.15486901 953:0.146772 963:0.17858601 970:0.17858601 
-0.070497340740939607 17:0.14664701 20:0.305664 38:0.229794 248:0.273206 298:0.305664 395:0.28242701 445:0.15240499 508:0.32107499 541:0.340942 603:0.36894399 673:0.189201 857:0.225337 904:0.22115 973:0.26507199 
-0.059332205083627861 106:0.139677 130:0.242956 191:0.224516 304:0.12630799 342:0.179911 351:0.21143299 416:0.148388 468:0.14057299 492:0.21143299 530:0.165428 583:0.201285 590:0.28606299 624:0.136021 664:0.201285 668:0.224516 728:0.21143299 736:0.21143299 739:0.17455401 817:0.13188399 881:0.224516 904:0.145631 913:0.21143299 984:0.42286599 
-0.072562466800671813 22:0.139478 74:0.099205002 94:0.058274001 106:0.092577003 108:0.064349003 113:0.099205002 163:0.099205002 168:0.093424 179:0.031771999 229:0.093316004 238:0.085276 244:0.088940002 253:0.062114 260:0.54600102 262:0.060102001 266:0.063199997 274:0.085276 276:0.055052001 278:0.28027201 286:0.077128999 306:0.16435701 309:0.054320998 315:0.071347997 337:0.088940002 357:0.093424 377:0.093424 385:0.093424 390:0.047662999 397:0.079494998 423:0.170553 426:0.093424 430:0.088940002 437:0.107353 444:0.125646 505:0.186848 578:0.082179002 583:0.088940002 594:0.077128999 606:0.186848 617:0.059168 623:0.088940002 650:0.085276 657:0.061083 671:0.093424 680:0.093424 686:0.093424 687:0.118335 717:0.065567002 721:0.077128999 752:0.085276 755:0.088940002 769:0.093424 804:0.064349003 810:0.088940002 850:0.071347997 851:0.19841 853:0.085276 856:0.065567002 857:0.131134 874:0.093424 882:0.107353 897:0.071347997 898:0.099205002 926:0.124227 927:0.086980999 934:0.075011 976:0.099205002 
-0.076876417666675328 22:0.15658399 83:0.241036 87:0.241036 106:0.20785999 171:0.399389 179:0.071337998 193:0.15658399 262:0.134946 266:0.141901 290:0.19969501 307:0.22274201 308:0.184514 342:0.356978 378:0.20976201 475:0.164121 497:0.141901 583:0.19969501 657:0.13714799 688:0.111899 721:0.17317501 803:0.22274201 813:0.241036 926:0.13946199 999:0.134946 
-0.046321693316501038 38:0.102487 131:0.088010997 206:0.073857002 229:0.071516 281:0.114975 293:0.132052 310:0.40897399 354:0.13070901 390:0.21917 393:0.13070901 418:0.20099799 445:0.067971997 549:0.104612 574:0.081138 580:0.118221 588:0.164363 638:0.136325 653:0.136325 669:0.136325 676:0.143198 689:0.25192299 695:0.354662 708:0.152059 713:0.098632 744:0.164547 767:0.086753003 774:0.27265 796:0.12596101 805:0.074677996 807:0.152059 819:0.096871004 840:0.136325 850:0.10936 876:0.152059 909:0.085545003 930:0.096871004 960:0.236441 
-0.036989773231218451 104:0.107838 121:0.271617 179:0.092373997 224:0.28842399 265:0.231121 344:0.312112 364:0.238923 435:0.271617 473:0.157932 574:0.153901 595:0.312112 665:0.202757 673:0.16005699 695:0.22424001 884:0.24792901 950:0.28842399 954:0.22424001 956:0.28842399 
-0.036416620543119047 8:0.069868997 17:0.066565998 22:0.108794 63:0.090908997 106:0.048140001 108:0.100385 111:0.145743 200:0.248028 221:0.145743 242:0.154761 245:0.145743 259:0.24064399 266:0.098592997 317:0.145743 330:0.048140001 350:0.167472 397:0.124014 402:0.117019 411:0.13874801 416:0.102285 445:0.069179997 449:0.104309 469:0.30952299 514:0.090908997 517:0.098592997 519:0.154761 554:0.15731201 572:0.24064399 624:0.093760997 651:0.154761 657:0.095289998 659:0.124014 662:0.13874801 664:0.13874801 673:0.085882999 678:0.111304 763:0.145743 772:0.102285 793:0.13874801 808:0.096897997 827:0.291486 835:0.154761 843:0.154761 848:0.081551999 857:0.102285 887:0.087066002 923:0.12819999 926:0.096897997 972:0.145743 973:0.120322 
-0.054827174296012547 8:0.070159003 48:0.235009 56:0.146348 179:0.099541999 256:0.168167 272:0.111765 286:0.120821 302:0.076320998 306:0.128732 330:0.09668 337:0.139323 384:0.155403 423:0.13358399 445:0.069467001 477:0.55882698 514:0.091286004 586:0.19800401 591:0.155403 599:0.085093997 646:0.314224 650:0.13358399 651:0.155403 673:0.086239003 678:0.111765 679:0.100801 681:0.092684999 705:0.155403 713:0.100801 721:0.120821 793:0.139323 855:0.092684999 857:0.205419 915:0.091286004 926:0.1946 927:0.068126999 973:0.120821 
-0.03689732373059966 31:0.077785999 63:0.055158999 179:0.030074 194:0.084186003 202:0.073005997 208:0.70743799 260:0.12920301 262:0.056889001 293:0.040773001 397:0.150492 423:0.080718003 451:0.33674201 485:0.077785999 554:0.047724999 581:0.075245999 587:0.187803 588:0.050749999 614:0.075245999 664:0.16837101 687:0.056005001 781:0.353719 847:0.093901999 857:0.124124 897:0.135067 915:0.055158999 928:0.203228 945:0.093901999 999:0.056889001 
-0.028905162141295154 8:0.046339002 51:0.102642 54:0.111072 104:0.038376998 106:0.031927999 220:0.079801001 223:0.102642 224:0.102642 247:0.077610999 272:0.073820002 282:0.111072 286:0.079801001 290:0.092022002 291:0.082249999 295:0.092022002 319:0.092022002 330:0.031927999 334:0.144311 351:0.096661001 361:0.096661001 400:0.092022002 402:0.077610999 420:0.13836101 444:0.043333001 445:0.045882002 446:0.17005201 448:0.096661001 452:0.13836101 496:0.082249999 497:0.065389998 504:0.442395 509:0.102642 517:0.065389998 523:0.092022002 574:0.109539 592:0.088230997 624:0.062185001 673:0.22783899 686:0.289983 689:0.085026003 705:0.102642 723:0.102642 734:0.077610999 736:0.096661001 745:0.085026003 816:0.102642 819:0.065389998 827:0.193322 839:0.102642 840:0.18404301 848:0.054088 853:0.088230997 857:0.20351601 865:0.092022002 881:0.102642 887:0.057744998 920:0.092022002 927:0.089994997 949:0.159602 951:0.065389998 957:0.096661001 958:0.27606499 997:0.060293999 
-0.033769219038923146 22:0.071275003 28:0.095481001 47:0.153327 61:0.078827001 94:0.059558 106:0.094614998 115:0.069752999 133:0.060470998 148:0.109717 150:0.087154001 166:0.074706003 218:0.083988003 229:0.095371 231:0.071275003 246:0.109717 253:0.126963 262:0.061425999 266:0.12918399 281:0.076663002 302:0.049794 320:0.083988003 377:0.095481001 382:0.174309 396:0.083988003 397:0.081246004 430:0.090898998 432:0.10139 442:0.087154001 444:0.085608996 445:0.045322001 449:0.068336003 469:0.10139 477:0.072919004 481:0.062428001 502:0.10139 523:0.090898998 530:0.074706003 542:0.072919004 543:0.095481001 552:0.095481001 611:0.109717 624:0.061425999 649:0.090898998 657:0.124856 672:0.057039998 686:0.28644401 687:0.060470998 688:0.050935 733:0.081246004 767:0.057845 774:0.181797 805:0.049794 808:0.063481003 837:0.087154001 846:0.087154001 857:0.067010999 882:0.21943399 900:0.058683999 908:0.083988003 909:0.057039998 919:0.52292597 922:0.157654 926:0.126963 927:0.044447999 934:0.076663002 951:0.12918399 952:0.10139 959:0.10139 962:0.095481001 963:0.090898998 973:0.157654 
-0.030184446023785866 17:0.083254002 24:0.146355 118:0.136069 145:0.209456 238:0.166383 302:0.095059998 315:0.13920701 328:0.15048601 352:0.18228 389:0.142618 509:0.19355901 568:0.58542001 574:0.103282 617:0.115442 649:0.173531 697:0.160339 701:0.19355901 743:0.38711801 827:0.18228 857:0.127928 888:0.19355901 917:0.155104 948:0.136069 
-0.035677956223167585 17:0.060982998 31:0.117447 93:0.11023 235:0.097540997 243:0.15342499 263:0.15342499 309:0.077634998 328:0.11023 334:0.199338 347:0.13351899 369:0.121874 377:0.13351899 399:0.12711 415:0.15342499 420:0.095559001 429:0.099669002 445:0.063377999 447:0.15342499 527:0.220459 585:0.15342499 618:0.15342499 644:0.088771001 655:0.121874 658:0.13351899 686:0.267037 705:0.14178 707:0.117447 721:0.11023 769:0.13351899 827:0.13351899 859:0.352341 870:0.121874 882:0.15342499 927:0.124311 948:0.099669002 972:0.13351899 973:0.11023 993:0.46027499 
-0.033578891541054597 141:0.595833 170:0.157069 292:0.27530599 349:0.193535 376:0.25926301 414:0.25926301 494:0.236652 599:0.150749 688:0.13830499 811:0.27530599 829:0.27530599 875:0.185555 882:0.297916 
-0.02084747672398523 21:0.185462 22:0.078694001 103:0.092730999 104:0.041854002 106:0.034821 187:0.10542 190:0.087033004 206:0.054372001 222:0.111944 235:0.077013999 237:0.111944 253:0.070088997 262:0.067819998 293:0.097214997 295:0.100361 301:0.121138 302:0.109954 312:0.121138 314:0.111944 330:0.069642998 338:0.087033004 359:0.077013999 363:0.057571001 366:0.073986001 402:0.084643997 420:0.075450003 423:0.096226998 444:0.047260001 456:0.077013999 465:0.192453 477:0.080509 497:0.071314998 498:0.087033004 508:0.10542 519:0.111944 522:0.111944 551:0.48455 570:0.096226998 571:0.111944 572:0.087033004 588:0.060501002 624:0.067819998 664:0.200721 666:0.179407 673:0.062121999 681:0.066765003 684:0.10542 686:0.31626099 703:0.10542 717:0.073986001 732:0.092730999 751:0.121138 785:0.089703001 800:0.185462 804:0.14522301 827:0.10542 857:0.22195899 909:0.062977001 917:0.089703001 927:0.09815 951:0.071314998 973:0.087033004 
-0.016924141051658712 60:0.16790999 106:0.058258999 148:0.20267101 155:0.12885 187:0.176376 266:0.119316 313:0.155146 328:0.29122299 337:0.16790999 359:0.12885 366:0.123784 402:0.141614 444:0.079069003 468:0.117264 512:0.15008 514:0.220033 559:0.187289 581:0.15008 635:0.20267101 656:0.155146 657:0.115319 684:0.176376 686:0.176376 738:0.16099399 749:0.187289 767:0.106853 790:0.155146 800:0.155146 804:0.364452 827:0.176376 882:0.20267101 926:0.117264 927:0.082106002 941:0.20267101 
-0.01301925567694979 31:0.32048899 106:0.120347 169:0.28506801 179:0.123909 276:0.214699 294:0.38688901 482:0.22073001 617:0.230748 686:0.364344 868:0.227264 908:0.32048899 996:0.38688901 997:0.227264 
-0.014911239465966605 18:0.082783997 54:0.095126003 93:0.068343997 115:0.060477 117:0.066468 166:0.064770997 179:0.028154001 200:0.140883 210:0.16556799 223:0.087906003 230:0.075563997 266:0.056001998 286:0.068343997 290:0.078810997 299:0.068343997 315:0.063221999 330:0.027344 334:0.18539 384:0.087906003 420:0.118497 424:0.057020001 426:0.082783997 429:0.18539 440:0.066468 444:0.037112001 446:0.072819002 500:0.087906003 503:0.078810997 525:0.24835201 531:0.087906003 540:0.095126003 579:0.075563997 587:0.087906003 594:0.13668901 606:0.082783997 618:0.095126003 655:0.075563997 659:0.070441999 662:0.078810997 664:0.078810997 671:0.082783997 679:0.057020001 680:0.082783997 682:0.095126003 686:0.082783997 687:0.052429002 690:0.068343997 693:0.087906003 695:0.13668901 697:0.072819002 703:0.16556799 726:0.082783997 731:0.082783997 745:0.072819002 755:0.078810997 769:0.082783997 779:0.087906003 800:0.072819002 803:0.087906003 808:0.055039 815:0.075563997 824:0.082783997 839:0.087906003 842:0.087906003 850:0.063221999 853:0.075563997 859:0.29127699 882:0.475631 915:0.051637001 926:0.110079 936:0.19025201 948:0.061797 949:0.068343997 950:0.087906003 954:0.13668901 960:0.068343997 971:0.068343997 974:0.087906003 
-0.0066594022776550734 57:0.136296 123:0.180255 179:0.05773 205:0.19506 222:0.180255 248:0.14444301 258:0.14444301 283:0.180255 293:0.078268997 333:0.180255 363:0.185406 364:0.14931899 428:0.33950299 430:0.161604 605:0.180255 616:0.161604 629:0.33950299 659:0.43332899 664:0.161604 748:0.154947 765:0.180255 808:0.225721 817:0.105884 848:0.094985999 857:0.119135 904:0.116921 933:0.14444301 
-0.0028859100704818896 24:0.120575 63:0.093671001 104:0.119243 106:0.049603 135:0.13707501 193:0.1121 202:0.123978 206:0.077453002 215:0.13209599 276:0.088491999 345:0.159464 360:0.150171 379:0.159464 402:0.120575 419:0.345121 440:0.120575 473:0.17463499 482:0.18195599 486:0.13209599 528:0.14296401 578:0.13209599 583:0.14296401 678:0.114686 686:0.150171 697:0.13209599 711:0.159464 741:0.14296401 745:0.264191 797:0.159464 820:0.150171 827:0.30034301 836:0.30476701 857:0.105393 878:0.123978 882:0.17256001 924:0.099841997 927:0.069908001 948:0.1121 985:0.109706 990:0.159464 
