SVM-light Version V3.50
0 # kernel type
1 # kernel parameter -d 
1 # kernel parameter -g 
1 # kernel parameter -s 
0 # kernel parameter -r 
EmptyParam # kernel parameter -u 
1000 # highest feature index 
418 # number of training documents 
119 # number of support vectors plus 1 
1.0944139 # threshold b 
-0.1741668779044919 35:0.17885099 48:0.270468 104:0.13373999 155:0.123045 300:0.168429 314:0.17885099 325:0.131781 396:0.148156 414:0.168429 425:0.17885099 468:0.111981 486:0.148156 519:0.17885099 538:0.32069099 571:0.357703 656:0.148156 673:0.099251002 679:0.116011 690:0.13905101 713:0.116011 730:0.168429 749:0.17885099 783:0.131781 855:0.21334 882:0.19354001 916:0.123045 927:0.078406997 932:0.357703 937:0.128629 
-0.14442110133104985 104:0.14984 135:0.17224699 170:0.114323 253:0.125462 294:0.200381 300:0.37740901 323:0.140865 419:0.216839 473:0.109723 477:0.144113 482:0.228645 488:0.188705 592:0.17224699 686:0.37740901 796:0.16599099 797:0.200381 820:0.188705 827:0.188705 857:0.13243701 882:0.43367699 920:0.179648 
-0.20932422617935084 17:0.073499002 50:0.125907 67:0.122895 77:0.146887 101:0.16092101 103:0.141551 104:0.063888997 117:0.129206 118:0.120125 180:0.17087799 230:0.146887 245:0.16092101 253:0.106989 268:0.15319701 302:0.083921 349:0.120125 355:0.122895 363:0.087880999 390:0.082098998 412:0.15319701 465:0.146887 475:0.125907 515:0.17087799 517:0.108861 546:0.16092101 572:0.132852 574:0.091179997 679:0.110839 681:0.101915 699:0.141551 700:0.17087799 736:0.16092101 751:0.18491299 754:0.17087799 805:0.083921 857:0.112938 863:0.146887 893:0.18491299 914:0.55473799 
-0.12239814285440909 106:0.055806 138:0.19414 193:0.126119 206:0.087139003 227:0.19414 228:0.148615 275:0.370278 298:0.160842 306:0.148615 309:0.098237 423:0.154217 430:0.321684 437:0.19414 445:0.160393 468:0.112328 481:0.110464 483:0.14376201 509:0.179406 581:0.14376201 589:0.179406 631:0.160842 677:0.154217 680:0.168951 686:0.168951 733:0.14376201 736:0.168951 740:0.148615 767:0.102355 777:0.110464 810:0.160842 856:0.237147 857:0.118573 882:0.19414 909:0.10093 916:0.123426 
-0.28262459384539501 15:0.067790002 22:0.061294999 23:0.082111999 108:0.056557 115:0.059985999 116:0.087192997 144:0.061294999 146:0.074951001 179:0.027925 196:0.072228 214:0.072228 222:0.087192997 224:0.087192997 230:0.074951001 235:0.059985999 247:0.065929003 249:0.62536699 255:0.059985999 262:0.052825 302:0.128465 328:0.067790002 330:0.027122 339:0.078171 354:0.149901 370:0.056557 397:0.069870003 409:0.094354004 430:0.078171 444:0.036811002 445:0.038975999 449:0.117535 468:0.054593001 483:0.069870003 500:0.17438599 502:0.087192997 532:0.087192997 552:0.082111999 584:0.057627998 596:0.078171 617:0.052003 659:0.13974001 664:0.078171 671:0.082111999 686:0.246336 696:0.149901 703:0.082111999 716:0.074951001 719:0.156342 721:0.067790002 726:0.082111999 739:0.067790002 760:0.072228 779:0.087192997 784:0.164224 805:0.128465 806:0.224852 817:0.051217999 857:0.115256 874:0.082111999 877:0.082111999 880:0.078171 882:0.094354004 897:0.062709004 900:0.050466999 915:0.051217999 927:0.038224999 943:0.074951001 945:0.087192997 954:0.067790002 975:0.074951001 976:0.087192997 
0.99143777853953763 8:0.076748997 56:0.16009501 94:0.099861003 108:0.11027 118:0.119508 133:0.101392 155:0.116956 193:0.119508 242:0.170001 300:0.16009501 302:0.083489999 317:0.16009501 346:0.14082401 366:0.112358 402:0.12854201 424:0.11027 445:0.075993001 449:0.22916 470:0.170001 501:0.29096901 574:0.27213499 587:0.170001 623:0.152411 654:0.16009501 703:0.16009501 713:0.11027 732:0.14082401 777:0.20934699 780:0.152411 808:0.21288 836:0.108302 853:0.14613301 857:0.112358 882:0.183963 891:0.320189 962:0.16009501 969:0.136226 972:0.16009501 
0.99999993212504223 8:0.069868997 17:0.066565998 22:0.108794 63:0.090908997 106:0.048140001 108:0.100385 111:0.145743 200:0.248028 221:0.145743 242:0.154761 245:0.145743 259:0.24064399 266:0.098592997 317:0.145743 330:0.048140001 350:0.167472 397:0.124014 402:0.117019 411:0.13874801 416:0.102285 445:0.069179997 449:0.104309 469:0.30952299 514:0.090908997 517:0.098592997 519:0.154761 554:0.15731201 572:0.24064399 624:0.093760997 651:0.154761 657:0.095289998 659:0.124014 662:0.13874801 664:0.13874801 673:0.085882999 678:0.111304 763:0.145743 772:0.102285 793:0.13874801 808:0.096897997 827:0.291486 835:0.154761 843:0.154761 848:0.081551999 857:0.102285 887:0.087066002 923:0.12819999 926:0.096897997 972:0.145743 973:0.120322 
0.99999993212504223 7:0.102194 8:0.053672999 64:0.111958 106:0.036981001 156:0.111958 159:0.111958 179:0.038075998 206:0.057744 245:0.111958 249:0.106584 259:0.18486001 261:0.098481998 272:0.085501999 281:0.089892998 300:0.111958 317:0.111958 325:0.087596998 330:0.073962003 349:0.16714901 355:0.085501999 356:0.38557199 390:0.057119001 449:0.160257 465:0.102194 466:0.089892998 469:0.118886 501:0.067827001 504:0.073201001 514:0.069835 517:0.22721399 543:0.111958 554:0.120845 567:0.118886 572:0.092430003 574:0.126873 599:0.065098003 623:0.106584 624:0.072025999 626:0.12864999 628:0.148872 629:0.111958 641:0.08179 644:0.074436001 651:0.118886 657:0.073201001 662:0.106584 664:0.106584 679:0.154229 687:0.070905998 705:0.118886 772:0.078574002 777:0.073201001 827:0.33587399 835:0.118886 857:0.235723 882:0.12864999 916:0.08179 923:0.098481998 926:0.074436001 954:0.092430003 970:0.106584 977:0.118886 991:0.087596998 
0.99999993212504223 16:0.123416 22:0.086759001 62:0.102234 100:0.133552 106:0.076779999 153:0.123416 179:0.039526001 200:0.098895997 229:0.058045 245:0.232448 253:0.077271998 281:0.093318 293:0.053589001 302:0.121222 308:0.102234 331:0.116224 351:0.116224 390:0.059294999 397:0.098895997 440:0.093318 448:0.116224 449:0.24954499 501:0.070412003 517:0.078624003 525:0.116224 526:0.123416 546:0.232448 548:0.110646 572:0.095951997 574:0.065853998 581:0.098895997 594:0.095951997 603:0.267104 609:0.232448 623:0.110646 624:0.074770004 639:0.116224 647:0.110646 651:0.123416 654:0.116224 657:0.075989999 664:0.110646 672:0.069430999 673:0.13697501 679:0.160106 748:0.106088 772:0.081568003 793:0.110646 796:0.102234 815:0.106088 827:0.116224 830:0.133552 849:0.19779199 855:0.073606998 857:0.24470501 859:0.102234 900:0.071432002 909:0.069430999 923:0.102234 926:0.077271998 927:0.054104 934:0.093318 940:0.110646 945:0.123416 973:0.095951997 990:0.123416 
0.99999993212504223 8:0.056508999 22:0.087990999 33:0.117874 47:0.094642997 60:0.112216 81:0.13544799 94:0.073524997 106:0.038934998 179:0.040088002 197:0.084362999 229:0.058869001 245:0.117874 262:0.075832002 268:0.224433 293:0.05435 301:0.13544799 302:0.061471999 309:0.068538003 317:0.117874 330:0.038934998 341:0.112216 356:0.081188999 360:0.117874 390:0.060137 397:0.2006 445:0.055950999 449:0.084362999 513:0.097314 515:0.125168 517:0.079740003 525:0.117874 526:0.375503 528:0.112216 546:0.117874 554:0.063615002 574:0.066789001 599:0.068538003 603:0.13544799 623:0.112216 624:0.075832002 629:0.117874 631:0.112216 641:0.086112 644:0.078368999 647:0.112216 652:0.1003 657:0.077068999 659:0.2006 664:0.112216 678:0.090020001 679:0.162378 705:0.125168 743:0.125168 790:0.103686 818:0.13544799 827:0.23574799 857:0.082726002 863:0.107594 882:0.13544799 897:0.090020001 905:0.112216 909:0.21125101 910:0.125168 923:0.103686 926:0.078368999 927:0.109745 934:0.094642997 948:0.087990999 950:0.125168 
-0.45990421896795414 34:0.210675 50:0.361168 94:0.143967 197:0.165187 259:0.19054601 330:0.076237001 349:0.172291 356:0.15897299 390:0.117751 440:0.185316 466:0.185316 572:0.19054601 574:0.130776 624:0.14848299 628:0.153451 655:0.210675 664:0.219726 681:0.146173 717:0.161983 742:0.230804 772:0.161983 827:0.230804 857:0.32396501 887:0.13788 923:0.203022 927:0.107443 930:0.15613499 951:0.15613499 
-0.074133639200466769 61:0.15486901 106:0.061962999 133:0.118805 143:0.17858601 156:0.187589 228:0.16500901 253:0.12472 302:0.097828001 311:0.21555699 335:0.187589 384:0.19919699 411:0.17858601 440:0.150618 451:0.17858601 456:0.137042 501:0.227293 502:0.19919699 508:0.187589 584:0.13165399 603:0.21555699 672:0.112064 688:0.10007 728:0.187589 743:0.19919699 764:0.16500901 797:0.19919699 805:0.097828001 830:0.21555699 855:0.118805 866:0.17858601 923:0.16500901 929:0.137042 949:0.15486901 953:0.146772 963:0.17858601 970:0.17858601 
-0.071717881555459967 17:0.079674996 179:0.059326001 201:0.185238 206:0.089971997 229:0.087121002 231:0.130219 349:0.130219 354:0.15922999 370:0.120154 424:0.360461 458:0.318461 496:0.14843599 514:0.217623 554:0.188291 574:0.197684 587:0.185238 594:0.144017 686:0.34888801 748:0.15922999 767:0.105683 802:0.185238 814:0.185238 826:0.166071 827:0.174444 856:0.122428 911:0.174444 927:0.081207 929:0.12743901 973:0.28803301 
-0.75989776990418623 12:0.128508 17:0.051079001 22:0.25044799 30:0.128508 96:0.257016 104:0.044401001 106:0.036940001 162:0.196747 179:0.038034 200:0.095160998 229:0.055853002 230:0.102081 248:0.095160998 253:0.074354 255:0.081699997 262:0.071947001 272:0.085408002 282:0.128508 293:0.051564999 301:0.128508 366:0.078488 384:0.118755 397:0.095160998 411:0.106467 423:0.204163 424:0.077030003 445:0.10617 453:0.102081 462:0.106467 465:0.102081 468:0.074354 470:0.118755 491:0.118755 517:0.37827301 646:0.08004 654:0.111835 656:0.098373003 657:0.073119998 658:0.111835 664:0.319401 681:0.070827998 686:0.111835 687:0.070827998 727:0.111835 800:0.098373003 804:0.077030003 805:0.058322001 827:0.22366901 857:0.078488 882:0.128508 892:0.118755 920:0.106467 921:0.118755 927:0.052060999 948:0.25044799 958:0.106467 
-0.29067936894847285 1:0.086115003 17:0.048985999 23:0.214506 28:0.107253 45:0.306315 121:0.107253 139:0.123243 144:0.080062002 170:0.064976998 227:0.123243 245:0.214506 249:0.102105 253:0.071308002 276:0.063201003 281:0.086115003 290:0.20421 293:0.049451999 302:0.111865 306:0.188686 328:0.088545002 330:0.035427 337:0.102105 363:0.058572002 374:0.113889 377:0.107253 402:0.086115003 423:0.19579799 449:0.076761 473:0.062362 526:0.113889 567:0.227779 587:0.113889 590:0.14511 599:0.062362 610:0.088545002 646:0.076761 682:0.123243 686:0.107253 696:0.097898997 719:0.20421 741:0.102105 748:0.097898997 760:0.094342999 785:0.091263004 793:0.102105 797:0.113889 805:0.055932999 827:0.32175899 835:0.113889 836:0.14511 841:0.123243 856:0.075272001 857:0.150544 873:0.227779 927:0.049927998 956:0.113889 998:0.107253 
0.99999993212504223 9:0.193872 19:0.209795 179:0.062091999 229:0.182364 242:0.193872 244:0.173812 247:0.14659201 293:0.084182002 311:0.209795 330:0.060306001 429:0.136289 435:0.182575 453:0.16665199 456:0.133379 465:0.16665199 477:0.278864 481:0.358116 523:0.173812 537:0.193872 594:0.15073 686:0.36515 762:0.088408999 785:0.15535501 786:0.193872 882:0.209795 909:0.21813799 927:0.084991999 999:0.117456 
0.99999993212504223 37:0.45511499 53:0.210287 104:0.078622997 120:0.227557 196:0.174196 230:0.18076199 247:0.159003 271:0.227557 309:0.115146 383:0.16850799 429:0.147828 449:0.14173201 456:0.14467099 466:0.159003 486:0.174196 497:0.133966 514:0.123525 586:0.133966 592:0.18076199 599:0.115146 617:0.12541901 657:0.12947901 686:0.198033 703:0.198033 777:0.12947901 820:0.198033 836:0.133966 848:0.110811 857:0.138983 909:0.118303 916:0.14467099 973:0.163491 997:0.123525 
0.99999993212504223 8:0.109534 9:0.24261899 51:0.24261899 53:0.24261899 104:0.090712003 193:0.17055701 351:0.22848099 440:0.18345 517:0.30912799 599:0.132851 624:0.146989 638:0.435029 673:0.134638 686:0.22848099 713:0.157373 767:0.13842 836:0.15456399 857:0.16035201 881:0.24261899 882:0.26254499 913:0.22848099 997:0.142518 
0.99999993212504223 9:0.242024 53:0.121012 104:0.180979 172:0.091499999 186:0.21698201 222:0.242024 228:0.100243 281:0.091499999 302:0.17829201 311:0.130951 317:0.11396 326:0.22792099 392:0.130951 414:0.11396 430:0.21698201 441:0.100243 445:0.108188 449:0.081561998 468:0.151535 477:0.174063 553:0.11396 631:0.108491 646:0.081561998 664:0.21698201 686:0.22792099 687:0.072173998 734:0.091499999 777:0.074510001 783:0.089163996 798:0.21698201 829:0.121012 857:0.39989901 909:0.068079002 920:0.21698201 927:0.053050999 953:0.089163996 973:0.18816601 983:0.108491 
0.99999993212504223 9:0.156183 15:0.242854 63:0.091743998 104:0.175184 131:0.090397999 193:0.109794 220:0.121427 230:0.13425399 259:0.242854 301:0.16901 306:0.12937801 351:0.147082 352:0.147082 370:0.101307 396:0.12937801 449:0.31580001 455:0.13425399 459:0.12515301 466:0.118094 468:0.097787999 471:0.156183 486:0.12937801 508:0.147082 509:0.156183 567:0.156183 586:0.099499002 599:0.085520998 673:0.086671002 686:0.147082 689:0.12937801 696:0.13425399 706:0.107449 736:0.147082 748:0.268509 777:0.192331 797:0.156183 817:0.091743998 819:0.099499002 855:0.093149997 870:0.13425399 882:0.16901 909:0.087865002 970:0.14002199 982:0.156183 997:0.091743998 
-0.078937170778881724 114:0.23840401 179:0.076353997 188:0.197487 195:0.20493101 252:0.224512 267:0.20493101 295:0.213736 316:0.39497501 328:0.185351 587:0.23840401 623:0.213736 633:0.213736 641:0.32802999 657:0.146791 672:0.134121 686:0.224512 733:0.191039 767:0.136015 857:0.15756699 905:0.213736 926:0.149268 954:0.185351 
-0.049350985791531216 170:0.118267 196:0.171717 218:0.171717 304:0.11662 309:0.113508 311:0.22431999 330:0.064480998 384:0.207295 413:0.15674099 416:0.137006 477:0.29817101 481:0.127636 494:0.35637999 496:0.16610999 499:0.16610999 502:0.207295 569:0.171717 588:0.112035 603:0.22431999 629:0.195215 686:0.39043 738:0.17818999 767:0.118267 909:0.23323999 927:0.090875998 984:0.195215 
-0.29180695869537676 22:0.071275003 28:0.095481001 47:0.153327 61:0.078827001 94:0.059558 106:0.094614998 115:0.069752999 133:0.060470998 148:0.109717 150:0.087154001 166:0.074706003 218:0.083988003 229:0.095371 231:0.071275003 246:0.109717 253:0.126963 262:0.061425999 266:0.12918399 281:0.076663002 302:0.049794 320:0.083988003 377:0.095481001 382:0.174309 396:0.083988003 397:0.081246004 430:0.090898998 432:0.10139 442:0.087154001 444:0.085608996 445:0.045322001 449:0.068336003 469:0.10139 477:0.072919004 481:0.062428001 502:0.10139 523:0.090898998 530:0.074706003 542:0.072919004 543:0.095481001 552:0.095481001 611:0.109717 624:0.061425999 649:0.090898998 657:0.124856 672:0.057039998 686:0.28644401 687:0.060470998 688:0.050935 733:0.081246004 767:0.057845 774:0.181797 805:0.049794 808:0.063481003 837:0.087154001 846:0.087154001 857:0.067010999 882:0.21943399 900:0.058683999 908:0.083988003 909:0.057039998 919:0.52292597 922:0.157654 926:0.126963 927:0.044447999 934:0.076663002 951:0.12918399 952:0.10139 959:0.10139 962:0.095481001 963:0.090898998 973:0.157654 
-0.057133094334704718 30:0.174758 46:0.304167 47:0.12211 104:0.120761 123:0.161494 186:0.144784 193:0.113528 207:0.161494 283:0.161494 293:0.070123002 309:0.088428997 349:0.113528 351:0.15208399 377:0.15208399 417:0.144784 461:0.15208399 477:0.116146 497:0.102882 592:0.13882001 599:0.088428997 654:0.15208399 664:0.144784 686:0.15208399 695:0.12555701 699:0.13377801 703:0.15208399 736:0.15208399 739:0.12555701 746:0.174758 748:0.13882001 765:0.322988 767:0.092136003 784:0.15208399 857:0.213471 882:0.349516 885:0.129409 915:0.094864003 986:0.161494 
-0.12772064294248142 26:0.145962 32:0.145962 80:0.133232 126:0.154994 166:0.114202 193:0.108958 206:0.075282 248:0.1242 251:0.145962 300:0.145962 318:0.102439 330:0.048213001 358:0.145962 390:0.14893299 418:0.409756 501:0.088427998 543:0.145962 569:0.12839299 580:0.120503 599:0.084870003 679:0.100536 686:0.145962 692:0.35158399 703:0.145962 713:0.100536 741:0.138956 745:0.12839299 763:0.145962 777:0.095432997 810:0.138956 825:0.138956 848:0.081674002 857:0.409756 882:0.167723 915:0.091045 916:0.106631 924:0.097043999 937:0.111471 
0.99999993212504223 8:0.068916 71:0.15265 91:0.122322 104:0.057073999 114:0.15265 156:0.143755 175:0.15265 229:0.071794003 261:0.379354 275:0.105019 276:0.084711 286:0.118681 297:0.126451 355:0.21957099 356:0.099016003 442:0.131218 445:0.068236001 449:0.102886 465:0.131218 504:0.093989998 517:0.19449601 552:0.143755 584:0.10089 590:0.097248003 626:0.165187 634:0.15265 638:0.27371001 641:0.31505701 659:0.122322 664:0.13685501 672:0.085878 681:0.182087 691:0.131218 772:0.10089 777:0.093989998 811:0.15265 835:0.3053 923:0.126451 954:0.118681 991:0.112476 
0.99999993212504223 17:0.065667003 26:0.28754601 37:0.165208 92:0.152669 104:0.114162 135:0.13123401 199:0.143773 245:0.143773 293:0.066290997 309:0.16719399 317:0.28754601 342:0.122338 349:0.107324 383:0.122338 396:0.25293401 408:0.152669 429:0.107324 471:0.152669 517:0.097259998 539:0.11249 584:0.100903 588:0.082511999 617:0.091054998 679:0.099027999 699:0.25293401 760:0.37940201 797:0.152669 817:0.089680001 827:0.143773 857:0.201805 870:0.13123401 875:0.102899 882:0.165208 909:0.171777 916:0.21006399 948:0.107324 971:0.118695 
0.99999993212504223 21:0.297822 71:0.179763 118:0.12637 133:0.107214 221:0.16928799 228:0.297822 261:0.148911 297:0.148911 320:0.148911 330:0.055916999 355:0.12928499 393:0.154524 445:0.080356002 449:0.12116 469:0.35952601 481:0.110684 517:0.22904199 519:0.179763 572:0.13976 607:0.161163 638:0.32232499 659:0.144049 664:0.161163 681:0.107214 736:0.16928799 737:0.148911 738:0.154524 772:0.11881 777:0.110684 835:0.179763 857:0.11881 887:0.101131 915:0.105595 
0.99999993212504223 8:0.056722 63:0.147605 105:0.12564 130:0.135959 210:0.354956 214:0.104077 230:0.108 242:0.12564 253:0.23599499 259:0.29304299 317:0.354956 322:0.118319 330:0.039081998 335:0.118319 349:0.088322997 387:0.090360001 435:0.118319 449:0.084680997 456:0.086437002 466:0.094999999 468:0.078665003 512:0.100679 517:0.080040999 554:0.38313299 572:0.097681001 593:0.108 653:0.11264 673:0.20916601 678:0.090360001 689:0.104077 754:0.12564 765:0.12564 777:0.077359997 785:0.100679 809:0.135959 827:0.118319 855:0.074933998 857:0.166077 909:0.070683002 927:0.055078998 973:0.195362 
-0.40961044708035188 79:0.237122 106:0.078323998 261:0.20858 281:0.19038799 302:0.247319 355:0.18109 356:0.163325 451:0.225741 471:0.25179499 501:0.143655 504:0.155036 574:0.13435601 584:0.166417 603:0.27247399 624:0.152548 657:0.155036 688:0.12649401 767:0.143655 812:0.27247399 848:0.13268401 857:0.166417 905:0.225741 927:0.110385 933:0.20176899 946:0.27247399 949:0.19576199 971:0.19576199 
-0.72312092087669089 77:0.232236 106:0.084039003 226:0.27016801 230:0.232236 299:0.21004701 380:0.169156 449:0.18209299 501:0.154138 503:0.24221399 508:0.25442499 543:0.25442499 574:0.28832099 664:0.24221399 720:0.37984699 736:0.25442499 785:0.216493 789:0.25442499 857:0.178561 
-0.19270452443699287 128:0.26696599 175:0.246704 215:0.204363 255:0.33945 261:0.40872601 298:0.221177 356:0.48006901 496:0.19769 641:0.169725 710:0.26696599 805:0.12116 863:0.21206599 923:0.204363 924:0.154465 
-0.18021478974071356 63:0.085430004 84:0.14543401 158:0.136959 179:0.046578001 231:0.102237 247:0.109966 251:0.136959 318:0.192241 323:0.102237 419:0.157378 420:0.098021999 466:0.219933 482:0.082974002 495:0.250029 508:0.136959 554:0.51740801 574:0.077602997 590:0.092651002 603:0.157378 614:0.23308 617:0.086739004 673:0.161413 677:0.12501501 679:0.28300399 694:0.12501501 762:0.066320002 799:0.136959 807:0.14543401 827:0.136959 850:0.104595 857:0.192241 882:0.157378 912:0.11307 927:0.063757002 956:0.14543401 1000:0.104595 
-0.080766629373253934 21:0.63347697 104:0.095307 154:0.219119 206:0.123812 236:0.219119 291:0.204264 356:0.165345 363:0.13109601 364:0.21115901 475:0.187822 572:0.198183 624:0.154434 640:0.228532 644:0.159602 665:0.179196 673:0.141458 679:0.165345 767:0.145431 857:0.168475 887:0.143406 900:0.147539 
0.99999993212504223 8:0.104904 9:0.232365 94:0.136494 104:0.086878002 106:0.072279997 211:0.218824 266:0.14803199 272:0.167116 330:0.14455999 445:0.10387 449:0.31322601 501:0.13257 508:0.218824 567:0.232365 574:0.247977 631:0.208322 688:0.116733 694:0.19973999 713:0.150722 726:0.218824 777:0.14307299 783:0.171211 789:0.218824 857:0.153575 937:0.167116 949:0.361312 998:0.218824 
0.99999993212504223 9:0.159016 19:0.172076 70:0.131724 104:0.059454001 105:0.159016 179:0.050928 214:0.39517301 229:0.074787997 243:0.172076 245:0.149749 290:0.142562 322:0.149749 330:0.049463999 335:0.149749 341:0.142562 370:0.103144 387:0.114363 466:0.120236 477:0.114363 512:0.127423 513:0.123629 517:0.405213 530:0.117166 532:0.159016 546:0.149749 570:0.13668901 596:0.142562 631:0.142562 653:0.142562 673:0.088243 785:0.25484699 809:0.172076 857:0.105097 909:0.178918 973:0.24725901 
0.99999993212504223 53:0.14574499 60:0.13066401 106:0.090671003 153:0.14574499 179:0.046677999 196:0.120731 294:0.14574499 316:0.120731 317:0.411755 330:0.045336001 390:0.070023 402:0.110201 424:0.094535999 449:0.098231003 501:0.083150998 565:0.15771499 574:0.077767998 580:0.113312 587:0.43723401 654:0.137252 673:0.080879003 677:0.125282 688:0.073218003 692:0.110201 706:0.100268 745:0.120731 748:0.125282 777:0.089737996 797:0.14574499 827:0.137252 842:0.14574499 849:0.116789 857:0.192652 882:0.15771499 910:0.14574499 962:0.137252 969:0.35036701 973:0.113312 1000:0.104819 
-0.49836244696055793 63:0.118692 67:0.145319 117:0.15278099 229:0.095031999 243:0.43730599 266:0.12872399 278:0.190284 290:0.181151 349:0.14204299 381:0.21865299 444:0.170609 464:0.202058 514:0.118692 517:0.25744799 651:0.202058 657:0.124412 687:0.120511 699:0.16737901 743:0.202058 815:0.17368899 827:0.38056701 871:0.16737901 905:0.181151 926:0.12651099 937:0.145319 973:0.157094 
-0.35575248582815461 8:0.084509999 94:0.109958 106:0.174683 108:0.12142 117:0.14153901 184:0.160908 193:0.13159101 196:0.155063 266:0.23850501 272:0.134626 342:0.15000001 343:0.160908 351:0.176282 501:0.106797 503:0.167821 521:0.18719 546:0.35256499 574:0.099884003 599:0.1025 657:0.115258 679:0.12142 688:0.094039001 762:0.085362002 806:0.160908 811:0.18719 827:0.176282 828:0.48272499 857:0.123718 900:0.108344 915:0.109958 926:0.117202 949:0.14553399 991:0.137926 997:0.109958 
-0.31981155972605035 13:0.22019801 17:0.087523997 179:0.065169998 212:0.203485 214:0.168562 265:0.163058 275:0.139992 276:0.112921 281:0.153861 335:0.19162799 339:0.18243 383:0.163058 423:0.174916 429:0.143047 471:0.203485 512:0.163058 564:0.19162799 592:0.174916 593:0.174916 673:0.112921 695:0.316407 743:0.203485 762:0.092793003 767:0.232187 777:0.125291 805:0.099933997 848:0.107227 877:0.19162799 881:0.203485 896:0.203485 973:0.316407 
-0.26505778700333615 132:0.29666299 156:0.27937499 210:0.27937499 330:0.09228 387:0.213358 416:0.196071 428:0.27937499 430:0.265966 445:0.132612 452:0.199949 513:0.230646 563:0.32102701 572:0.46129099 613:0.29666299 
-0.36988347161902513 63:0.081014998 179:0.044171002 200:0.110518 229:0.064865999 230:0.118554 247:0.104284 297:0.114248 302:0.067734003 328:0.32168201 330:0.042900998 342:0.110518 351:0.12988199 421:0.118554 458:0.118554 469:0.13791899 554:0.070096001 566:0.13791899 700:0.13791899 711:0.13791899 713:0.17892 748:0.47421801 773:0.55167401 790:0.114248 797:0.13791899 850:0.099189997 875:0.092956997 881:0.13791899 882:0.14924601 910:0.13791899 911:0.12988199 
-0.49527097884228527 179:0.093369 229:0.137113 267:0.250599 293:0.126587 330:0.090683997 370:0.1891 375:0.291531 418:0.19268 445:0.130318 517:0.18572401 525:0.27454299 580:0.226656 659:0.233611 664:0.26136601 676:0.27454299 677:0.250599 679:0.1891 697:0.241497 762:0.132943 769:0.27454299 772:0.19268 857:0.19268 909:0.16401 
-0.33463308884207754 17:0.027005 20:0.112577 24:0.094947003 31:0.05201 52:0.067942001 68:0.059126999 70:0.260048 104:0.023475001 106:0.058589999 132:0.062785 170:0.071640998 178:0.062785 190:0.048813 203:0.067942001 236:0.10794 243:0.067942001 272:0.045155 299:0.195254 300:0.059126999 329:0.236506 330:0.01953 363:0.064579003 395:0.156029 396:0.05201 423:0.053970002 429:0.044137001 435:0.17738 445:0.056131002 454:0.062785 466:0.047474001 474:0.10794 477:0.09031 481:0.038658001 485:0.104019 500:0.12557 512:0.050310999 552:0.059126999 574:0.100505 594:0.048813 613:0.062785 617:0.149785 657:0.038658001 664:0.112577 667:0.062785 672:0.035321999 673:0.104525 681:0.112339 686:0.236506 687:0.112339 699:0.104019 713:0.040725 748:0.053970002 767:0.035820998 777:0.23195 782:0.062785 788:0.225155 822:0.059126999 857:0.124489 876:0.12557 884:0.10794 886:0.067942001 909:0.035321999 916:0.30236101 920:0.056288999 960:0.341694 967:0.20124599 973:0.14644 986:0.062785 999:0.152151 
-0.14485269785999064 93:0.115717 106:0.046298001 108:0.096542999 131:0.086145997 134:0.13343801 146:0.127941 170:0.084916003 222:0.148838 229:0.070001997 234:0.127941 241:0.127941 253:0.093189999 273:0.148838 285:0.127941 294:0.297676 302:0.073096 306:0.123293 334:0.209261 368:0.140165 395:0.123293 429:0.104631 447:0.161062 586:0.09482 600:0.161062 631:0.13343801 651:0.148838 658:0.140165 673:0.082595997 678:0.107044 681:0.088770002 686:0.140165 707:0.123293 732:0.36987999 748:0.127941 760:0.24658699 838:0.161062 859:0.123293 882:0.161062 917:0.119268 924:0.093189999 927:0.13049901 934:0.11254 936:0.161062 939:0.161062 973:0.231434 
-0.29617885987151527 5:0.13293 17:0.073541 40:0.153286 179:0.054758999 194:0.153286 224:0.17097799 227:0.18502 259:0.13293 302:0.083968997 329:0.32202899 342:0.13700899 351:0.16101401 370:0.221807 385:0.16101401 408:0.34195501 420:0.115238 429:0.240389 440:0.129281 441:0.141633 466:0.129281 514:0.100435 574:0.091233 631:0.153286 648:0.16101401 673:0.18976299 697:0.141633 703:0.16101401 736:0.16101401 739:0.13293 762:0.077969 817:0.100435 827:0.16101401 857:0.33900899 927:0.074955001 949:0.13293 
-0.40051289478140678 38:0.158994 63:0.138569 104:0.088198997 125:0.195411 131:0.136536 186:0.21148901 207:0.235897 234:0.202777 254:0.235897 270:0.222151 286:0.183403 330:0.073379003 338:0.183403 349:0.165832 402:0.178368 473:0.12917 517:0.150282 592:0.202777 599:0.12917 653:0.21148901 678:0.16965599 681:0.14069299 687:0.14069299 732:0.195411 736:0.222151 819:0.150282 836:0.150282 848:0.124307 857:0.15591 909:0.13271099 956:0.235897 985:0.16229101 991:0.173814 
0.84615225940705063 7:0.156308 17:0.078212999 61:0.14137299 72:0.18183801 245:0.171242 249:0.16302299 317:0.171242 349:0.255658 440:0.137493 449:0.245116 469:0.18183801 501:0.103743 513:0.282747 517:0.231686 554:0.092418 572:0.282747 574:0.097028002 624:0.110165 629:0.171242 638:0.16302299 664:0.16302299 674:0.19677299 681:0.108452 772:0.120181 777:0.111962 865:0.16302299 882:0.393545 905:0.16302299 951:0.115843 991:0.133982 
-0.39379008494361567 63:0.077933997 80:0.114046 179:0.042491999 200:0.106315 206:0.064441003 229:0.062399 247:0.100318 286:0.10315 318:0.263062 353:0.118946 389:0.19551399 396:0.109903 440:0.100318 444:0.056012001 449:0.17884301 473:0.072648004 482:0.075694002 500:0.13267399 504:0.24507099 509:0.13267399 514:0.46760699 549:0.091275997 581:0.106315 586:0.169044 617:0.079129003 659:0.106315 664:0.35683799 681:0.079129003 686:0.124943 687:0.079129003 696:0.114046 699:0.109903 711:0.13267399 713:0.086057998 734:0.100318 762:0.060501002 777:0.081689999 793:0.118946 797:0.13267399 805:0.065158002 827:0.124943 857:0.087687001 870:0.114046 885:0.106315 890:0.13267399 909:0.074639998 915:0.15586901 927:0.058162998 1000:0.095417999 
-0.30990077358642476 104:0.075698003 151:0.19066601 245:0.57199699 253:0.126765 302:0.099432997 349:0.14232799 363:0.104125 364:0.167715 397:0.162239 402:0.153088 494:0.17403699 536:0.219092 603:0.219092 665:0.14232799 673:0.224709 688:0.101712 717:0.26762599 965:0.43818399 973:0.157409 
-0.41302231350428836 106:0.061386 149:0.37168899 245:0.185845 306:0.16347501 351:0.185845 363:0.101492 396:0.16347501 416:0.13043 435:0.185845 445:0.088215001 456:0.135767 499:0.15813699 501:0.11259 527:0.153429 572:0.153429 574:0.105302 641:0.40730199 652:0.15813699 672:0.22204401 674:0.213552 679:0.128006 687:0.1177 699:0.16347501 736:0.185845 817:0.115923 857:0.13043 915:0.115923 923:0.32695001 973:0.153429 
-0.43384202964864227 245:0.39235801 253:0.130431 267:0.17907 273:0.208318 309:0.114069 327:0.196179 330:0.064800002 390:0.100086 416:0.13768201 459:0.166931 488:0.196179 501:0.118851 513:0.161961 561:0.208318 572:0.32392099 624:0.252415 642:0.172565 686:0.196179 783:0.153493 825:0.186763 827:0.196179 836:0.13271201 855:0.124245 882:0.225427 887:0.117196 905:0.186763 951:0.13271201 963:0.186763 
-0.2365466173434142 179:0.097254999 307:0.303666 421:0.261031 440:0.22961 469:0.303666 499:0.24333601 514:0.178378 554:0.308671 659:0.24333601 664:0.54449099 805:0.14913499 826:0.27224499 909:0.170837 927:0.13312501 
-0.36513643192934286 167:0.136466 172:0.128768 222:0.17030001 231:0.119718 252:0.160376 253:0.106627 276:0.094506003 302:0.083636999 334:0.119718 376:0.160376 427:0.17030001 429:0.119718 431:0.14107201 492:0.160376 557:0.14639001 588:0.092041001 590:0.108492 606:0.160376 654:0.160376 659:0.40939799 672:0.095807999 695:0.132403 701:0.17030001 703:0.160376 706:0.117162 759:0.122479 817:0.100037 857:0.337666 859:0.14107201 882:0.36857399 900:0.197137 917:0.136466 927:0.074657999 972:0.160376 
-0.33752599285901963 8:0.11378 26:0.237339 106:0.078395002 155:0.17338599 167:0.20195401 190:0.195942 306:0.41754201 330:0.078395002 333:0.25202501 363:0.129614 486:0.20877101 574:0.134479 581:0.20195401 602:0.25202501 644:0.15779699 705:0.25202501 713:0.16347501 748:0.21664 767:0.143787 836:0.160557 856:0.16656899 857:0.16656899 882:0.272724 909:0.141784 916:0.17338599 
-0.41989863036425579 99:0.255905 104:0.088417999 156:0.22270299 157:0.23648299 229:0.111223 279:0.255905 296:0.195896 400:0.212014 444:0.099838004 481:0.29121599 497:0.150655 579:0.20328 599:0.25898099 601:0.255905 673:0.26246601 743:0.23648299 774:0.212014 857:0.312594 909:0.26608101 991:0.174245 
-0.14015451309550508 104:0.111841 144:0.21028499 170:0.170662 191:0.29913199 205:0.32370001 221:0.281701 240:0.29913199 377:0.281701 456:0.20579401 599:0.16379599 644:0.187291 705:0.29913199 857:0.197704 882:0.32370001 904:0.19403 971:0.232566 985:0.20579401 
-0.2810329712755667 73:0.109718 104:0.043559998 147:0.109718 170:0.066469997 172:0.17618699 185:0.116507 193:0.081901997 228:0.096510999 229:0.054795001 234:0.100149 238:0.100149 248:0.093359999 264:0.096510999 302:0.114436 309:0.063795 312:0.126075 330:0.072481997 351:0.109718 355:0.083791003 358:0.109718 363:0.059918001 369:0.100149 380:0.072945997 411:0.208903 448:0.109718 450:0.104451 453:0.100149 469:0.233013 482:0.13293999 490:0.352375 496:0.093359999 513:0.18116 514:0.068438001 516:0.104451 539:0.085844003 554:0.059213001 583:0.104451 588:0.062967002 601:0.126075 607:0.104451 612:0.126075 630:0.126075 644:0.072945997 650:0.100149 664:0.104451 679:0.075571001 686:0.21943501 703:0.109718 767:0.066469997 777:0.071736 797:0.116507 812:0.126075 816:0.116507 817:0.068438001 826:0.104451 827:0.109718 830:0.126075 832:0.25137299 855:0.069486998 857:0.231006 909:0.065544002 918:0.109718 920:0.104451 930:0.074221998 942:0.109718 951:0.074221998 964:0.072945997 
0.26599843171512511 3:0.212724 64:0.20032801 104:0.079535 179:0.068129003 300:0.20032801 330:0.06617 351:0.20032801 355:0.15299 444:0.089806996 449:0.43012601 475:0.15673999 517:0.271038 527:0.16538601 552:0.20032801 574:0.113508 638:0.38142601 657:0.130979 686:0.20032801 691:0.18285701 723:0.212724 777:0.130979 827:0.20032801 881:0.212724 957:0.20032801 
-0.17489417899596554 8:0.102387 129:0.187867 159:0.21357401 183:0.194948 245:0.21357401 254:0.22679 330:0.070546001 342:0.181733 349:0.159429 382:0.194948 444:0.095746003 468:0.141996 508:0.21357401 517:0.14448 584:0.149891 642:0.187867 653:0.20332401 679:0.44131699 686:0.21357401 694:0.194948 713:0.14710601 840:0.20332401 857:0.149891 873:0.22679 887:0.12758701 953:0.16710301 997:0.13322 
-0.1743406801972758 34:0.23596901 133:0.16372301 159:0.258515 245:0.258515 342:0.219973 357:0.258515 382:0.23596901 517:0.174881 584:0.181431 679:0.35611901 686:0.258515 688:0.137906 694:0.23596901 713:0.17806 783:0.20226499 840:0.246107 857:0.181431 887:0.154434 930:0.174881 970:0.246107 
-0.23594134153351065 8:0.117931 80:0.44908601 104:0.097666003 106:0.081254996 135:0.22454301 179:0.083660997 202:0.406178 309:0.14303499 379:0.26121899 477:0.37573501 652:0.20932101 691:0.22454301 797:0.26121899 827:0.245997 882:0.282673 927:0.114516 
-0.20616305049885231 8:0.081243001 129:0.149069 159:0.169467 235:0.123803 247:0.136068 254:0.17995401 262:0.109023 272:0.12942199 326:0.169467 337:0.16133399 349:0.379513 382:0.154688 440:0.136068 444:0.075971998 451:0.16133399 475:0.132594 517:0.229285 526:0.17995401 570:0.154688 584:0.118936 617:0.107328 686:0.169467 693:0.17995401 694:0.154688 695:0.279816 781:0.169467 827:0.33893499 857:0.118936 865:0.16133399 873:0.17995401 887:0.101238 912:0.139908 951:0.114642 
-0.12745868219636641 8:0.063588999 31:0.116677 80:0.121075 104:0.052662 108:0.091362 118:0.099016003 131:0.081523001 133:0.16801199 179:0.090221003 322:0.132643 330:0.043813001 335:0.132643 367:0.79585803 424:0.091362 482:0.16071799 504:0.086724997 514:0.082737997 517:0.179462 570:0.121075 617:0.084005997 675:0.132643 677:0.121075 686:0.132643 688:0.070758998 762:0.064230002 857:0.093091004 860:0.132643 887:0.079240002 917:0.112867 927:0.061748002 930:0.089731 968:0.121075 
-0.34986887828758334 22:0.054839998 25:0.084417999 62:0.129244 81:0.084417999 94:0.18329801 96:0.084417999 106:0.121331 156:0.14692999 172:0.058986001 184:0.067057997 193:0.054839998 206:0.037891001 220:0.060651001 229:0.03669 230:0.067057997 253:0.097686999 259:0.121302 262:0.094524004 266:0.049697999 272:0.056104999 290:0.069939002 293:0.067746997 302:0.191561 308:0.193866 316:0.064622 328:0.060651001 330:0.048532002 331:0.073464997 343:0.067057997 351:0.073464997 356:0.151803 373:0.073464997 377:0.073464997 390:0.112441 396:0.064622 397:0.062512003 400:0.139878 411:0.069939002 423:0.13411599 434:0.193866 439:0.156021 441:0.064622 444:0.032933999 445:0.069743 465:0.067057997 466:0.117972 481:0.144099 497:0.049697999 504:0.048032999 517:0.149094 522:0.078010999 524:0.084417999 541:0.078010999 546:0.073464997 551:0.084417999 599:0.042716 657:0.048032999 664:0.20981599 666:0.25004801 677:0.067057997 679:0.101202 680:0.073464997 681:0.093053997 688:0.117571 692:0.058986001 713:0.050601002 717:0.103118 762:0.035574 796:0.064622 800:0.258488 804:0.101202 805:0.038311999 823:0.078010999 842:0.078010999 849:0.062512003 857:0.30935499 863:0.067057997 868:0.045825001 870:0.20117299 872:0.073464997 909:0.043887001 926:0.048843998 927:0.136797 930:0.049697999 949:0.060651001 951:0.049697999 997:0.045825001 
-0.1846213234837695 8:0.039106999 15:0.067345999 17:0.037257999 21:0.071755998 25:0.37494799 34:0.074460998 38:0.058382999 47:0.065498002 63:0.050882999 106:0.134725 107:0.15531901 123:0.086622998 137:0.093736999 151:0.081574999 163:0.086622998 187:0.16315 200:0.138826 217:0.086622998 220:0.134693 230:0.148921 241:0.074460998 245:0.16315 247:0.065498002 257:0.086622998 259:0.067345999 276:0.048069999 290:0.077660002 291:0.069412999 292:0.086622998 293:0.037613001 302:0.085083 307:0.173245 319:0.077660002 325:0.063824996 331:0.081574999 335:0.081574999 355:0.062298998 356:0.168562 368:0.081574999 380:0.054235999 405:0.093736999 424:0.112374 430:0.077660002 439:0.173245 444:0.036570001 459:0.069412999 477:0.062298998 487:0.093736999 498:0.26938501 501:0.049419999 509:0.086622998 510:0.187474 515:0.086622998 535:0.069412999 574:0.046220999 579:0.074460998 582:0.093736999 588:0.093631998 590:0.055183999 624:0.104959 628:0.054235999 640:0.077660002 654:0.081574999 664:0.077660002 673:0.048069999 678:0.062298998 681:0.206653 686:0.081574999 688:0.043517001 689:0.071755998 692:0.065498002 696:0.074460998 705:0.086622998 713:0.056187 722:0.093736999 733:0.069412999 736:0.081574999 739:0.067345999 742:0.081574999 747:0.074460998 767:0.148261 772:0.057250999 793:0.077660002 823:0.086622998 868:0.050882999 880:0.077660002 882:0.187474 890:0.086622998 930:0.055183999 937:0.062298998 973:0.067345999 997:0.050882999 
-0.26341445004016251 17:0.045979001 20:0.095836997 38:0.072048999 105:0.106898 179:0.068472996 191:0.213796 193:0.075148001 206:0.051922001 230:0.183779 245:0.20133799 253:0.066930003 286:0.16621999 291:0.17132001 297:0.088551998 300:0.100669 330:0.033252001 349:0.075148001 356:0.138678 364:0.088551998 402:0.080828004 416:0.070651002 435:0.100669 440:0.080828004 445:0.047784999 456:0.073542997 484:0.106898 513:0.24933 569:0.177103 572:0.33243901 577:0.106898 592:0.091889001 609:0.20133799 613:0.106898 624:0.064763002 628:0.066930003 634:0.106898 641:0.073542997 664:0.19167399 673:0.118643 684:0.20133799 687:0.063755997 717:0.141303 753:0.100669 758:0.213796 790:0.177103 808:0.066930003 827:0.100669 842:0.213796 854:0.106898 857:0.070651002 884:0.091889001 904:0.20801599 923:0.088551998 951:0.068100996 954:0.16621999 1000:0.076880999 
-0.21963968767752717 65:0.28682199 229:0.143245 253:0.190695 294:0.30456999 320:0.25229701 328:0.236793 549:0.209535 554:0.61917901 863:0.26180699 882:0.329584 929:0.209535 
-0.12687004739869229 63:0.045317002 179:0.024707999 201:0.077147 206:0.037471 220:0.059978999 229:0.072567999 247:0.174999 253:0.096606001 259:0.059978999 291:0.06182 310:0.760809 320:0.31953299 323:0.108466 387:0.055484001 396:0.063906997 441:0.127813 549:0.10615 572:0.059978999 580:0.119959 628:0.144908 631:0.069164 634:0.077147 672:0.043400999 673:0.085623004 686:0.145303 690:0.119959 738:0.066315003 745:0.063906997 762:0.035179999 786:0.154294 797:0.077147 819:0.049148001 836:0.049148001 849:0.06182 850:0.055484001 857:0.15296499 860:0.072650999 866:0.069164 912:0.059978999 963:0.069164 968:0.066315003 973:0.119959 
-0.2191173461230175 47:0.155634 149:0.193837 226:0.20583101 276:0.114223 293:0.089374997 309:0.112707 349:0.144696 363:0.105857 387:0.14803299 393:0.53079599 495:0.17693201 517:0.131128 541:0.20583101 546:0.193837 592:0.17693201 641:0.141606 672:0.115797 695:0.160027 754:0.20583101 764:0.170505 827:0.193837 855:0.122762 857:0.136039 923:0.34101 973:0.160027 991:0.15166099 
-0.10038160858018691 8:0.1012 57:0.169493 72:0.22416 131:0.129742 153:0.22416 188:0.185688 190:0.17427699 229:0.105427 259:0.17427699 308:0.185688 330:0.069728002 390:0.107698 466:0.169493 530:0.16516601 643:0.22416 736:0.211098 774:0.200966 805:0.220176 846:0.192687 903:0.44832 918:0.42219499 973:0.17427699 
-0.14896133912306164 10:0.196807 102:0.185339 104:0.073582999 106:0.18365701 226:0.196807 281:0.148811 309:0.107765 315:0.141543 357:0.185339 396:0.16303 474:0.169175 553:0.185339 558:0.176443 581:0.15770601 599:0.107765 607:0.176443 636:0.212971 686:0.185339 709:0.169175 767:0.112283 777:0.121179 808:0.123224 827:0.185339 848:0.103708 856:0.13007399 857:0.390223 882:0.212971 916:0.27079499 960:0.15301099 971:0.15301099 995:0.169175 997:0.115607 
-0.24003685004154773 78:0.308357 131:0.17847501 179:0.098757997 306:0.25543499 349:0.21676999 396:0.25543499 445:0.137839 452:0.20783199 517:0.196444 563:0.33368301 603:0.33368301 609:0.290389 664:0.27645099 798:0.27645099 909:0.173476 932:0.308357 
-0.21375247512689749 5:0.136813 24:0.133058 41:0.087986998 71:0.087986998 94:0.051685002 106:0.054738998 133:0.052476998 140:0.087986998 167:0.070505999 179:0.028179999 183:0.075632997 188:0.072885998 189:0.082859002 230:0.075632997 244:0.078882001 264:0.072885998 280:0.072885998 297:0.072885998 304:0.0495 309:0.048179001 318:0.058152001 342:0.141012 349:0.061852999 353:0.078882001 359:0.121064 363:0.045249999 381:0.095213003 383:0.141012 384:0.087986998 385:0.082859002 389:0.12966099 396:0.072885998 397:0.141012 398:0.072885998 429:0.061852999 440:0.066528998 444:0.037145998 446:0.072885998 471:0.087986998 480:0.072885998 482:0.050198998 503:0.078882001 549:0.121064 554:0.044718001 586:0.056053001 588:0.095106997 594:0.068406999 599:0.048179001 627:0.075632997 662:0.078882001 679:0.057071999 686:0.248578 689:0.072885998 706:0.060532 734:0.066528998 739:0.136813 759:0.063280001 760:0.072885998 767:0.100397 772:0.058152001 808:0.055089999 824:0.082859002 827:0.082859002 853:0.075632997 855:0.052476998 874:0.082859002 882:0.66649002 885:0.070505999 897:0.126559 927:0.038573001 932:0.087986998 934:0.066528998 959:0.087986998 971:0.068406999 992:0.082859002 
-0.12207523926989977 26:0.140838 104:0.055916 106:0.232601 131:0.086560003 139:0.161835 219:0.161835 301:0.161835 302:0.14689501 330:0.046519998 342:0.11984 352:0.140838 357:0.140838 362:0.149553 424:0.097006001 471:0.149553 473:0.081890002 483:0.11984 486:0.24777099 509:0.149553 514:0.087848999 581:0.11984 588:0.080826998 599:0.245671 658:0.140838 661:0.161835 671:0.140838 686:0.140838 709:0.128555 726:0.28167599 797:0.149553 827:0.140838 848:0.078806996 853:0.128555 856:0.098843001 857:0.395372 882:0.161835 916:0.102888 971:0.232545 997:0.087848999 
-0.14509662392575418 47:0.188594 133:0.297519 143:0.22361401 151:0.234887 179:0.079882003 245:0.234887 304:0.14032 359:0.17159501 416:0.164849 467:0.22361401 517:0.158898 624:0.30221999 686:0.234887 743:0.249422 808:0.156166 817:0.146514 827:0.234887 857:0.164849 886:0.269907 909:0.14032 932:0.249422 937:0.17938299 991:0.183779 
-0.11735113336533903 57:0.159914 106:0.065787002 179:0.067734003 286:0.32885501 446:0.175194 501:0.120661 526:0.42298299 574:0.11285 584:0.13978 629:0.199167 655:0.36359501 664:0.18960799 705:0.211491 735:0.228861 760:0.175194 762:0.096442997 856:0.13978 905:0.18960799 913:0.199167 935:0.228861 947:0.175194 966:0.211491 980:0.181797 
-0.17025529248286678 215:0.193553 228:0.193553 261:0.193553 291:0.187233 356:0.30311701 445:0.208892 467:0.20947801 502:0.23365401 513:0.181659 624:0.283115 633:0.20947801 641:0.16074701 672:0.262898 686:0.220039 754:0.23365401 827:0.220039 915:0.27450401 923:0.193553 927:0.102432 929:0.16074701 954:0.181659 973:0.181659 
-0.12316231675251761 94:0.134124 275:0.31416801 325:0.168238 330:0.071024001 366:0.15090799 404:0.247082 444:0.096395999 445:0.102066 494:0.196271 513:0.17751899 599:0.125026 623:0.204704 624:0.27666199 651:0.228329 652:0.18296599 665:0.160511 672:0.128453 703:0.21502399 705:0.228329 743:0.228329 805:0.112136 900:0.39646599 909:0.128453 920:0.204704 923:0.189142 
-0.12726825504018949 1:0.164727 17:0.031235 22:0.05105 38:0.048944999 63:0.042656999 73:0.136774 103:0.060155001 104:0.027151 114:0.145237 117:0.054908998 129:0.120311 138:0.078583002 157:0.145237 175:0.072618999 200:0.058191001 206:0.035271998 215:0.060155001 238:0.124846 245:0.068387002 249:0.065104999 253:0.18187 258:0.116382 261:0.240621 276:0.040298998 286:0.056458998 291:0.116382 302:0.071327999 304:0.040854 311:0.314331 316:0.120311 328:0.056458998 330:0.022589 335:0.20516101 364:0.060155001 390:0.03489 396:0.060155001 416:0.047995001 433:0.072618999 445:0.097383998 466:0.054908998 467:0.130209 495:0.187268 506:0.120311 514:0.042656999 523:0.065104999 537:0.072618999 541:0.145237 554:0.110723 574:0.15499499 588:0.039248001 589:0.072618999 592:0.062422998 603:0.157166 624:0.043995 628:0.045467999 641:0.199838 653:0.065104999 672:0.122561 679:0.047104001 686:0.20516101 724:0.062422998 728:0.068387002 733:0.058191001 739:0.056458998 740:0.060155001 758:0.072618999 767:0.20715401 808:0.045467999 827:0.20516101 840:0.130209 848:0.038267002 856:0.047995001 857:0.191981 882:0.078583002 892:0.072618999 896:0.072618999 922:0.056458998 923:0.180466 954:0.056458998 963:0.065104999 973:0.056458998 975:0.062422998 977:0.072618999 997:0.042656999 
-0.18408258595324528 47:0.110403 84:0.14601199 104:0.054591998 105:0.14601199 125:0.24190401 170:0.083302997 229:0.068672001 248:0.117003 259:0.22703899 300:0.275006 330:0.090837002 390:0.070151001 440:0.110403 445:0.065269001 462:0.130904 481:0.089902997 485:0.120952 497:0.093019001 506:0.120952 508:0.137503 527:0.113519 572:0.113519 617:0.087084003 686:0.41251001 701:0.14601199 717:0.096501999 726:0.137503 730:0.275006 785:0.117003 796:0.120952 804:0.28412801 833:0.14601199 857:0.096501999 869:0.31600699 909:0.082143001 917:0.117003 927:0.064010002 957:0.137503 999:0.088459998 
-0.24197372618578378 8:0.070159003 48:0.235009 56:0.146348 179:0.099541999 256:0.168167 272:0.111765 286:0.120821 302:0.076320998 306:0.128732 330:0.09668 337:0.139323 384:0.155403 423:0.13358399 445:0.069467001 477:0.55882698 514:0.091286004 586:0.19800401 591:0.155403 599:0.085093997 646:0.314224 650:0.13358399 651:0.155403 673:0.086239003 678:0.111765 679:0.100801 681:0.092684999 705:0.155403 713:0.100801 721:0.120821 793:0.139323 855:0.092684999 857:0.205419 915:0.091286004 926:0.1946 927:0.068126999 973:0.120821 
-0.17138801144830784 1:0.42207399 17:0.060024001 74:0.139551 131:0.080770999 170:0.159235 179:0.044693999 193:0.098102003 200:0.111826 245:0.131419 249:0.25022399 280:0.115601 294:0.139551 297:0.115601 330:0.043409001 339:0.125112 342:0.111826 359:0.096006997 414:0.131419 416:0.092233002 455:0.119958 466:0.105519 514:0.081974998 526:0.139551 543:0.131419 554:0.14185201 579:0.119958 591:0.139551 646:0.094057001 673:0.077441998 686:0.131419 713:0.18103801 719:0.125112 736:0.131419 783:0.102824 790:0.115601 827:0.131419 836:0.177807 875:0.094057001 882:0.302026 910:0.139551 917:0.111826 924:0.087375 937:0.100365 973:0.108497 975:0.239916 976:0.139551 996:0.139551 
-0.12253418461965011 15:0.1428 36:0.091835998 38:0.061896998 40:0.082333997 84:0.091835998 104:0.034336001 107:0.082333997 148:0.099379003 173:0.091835998 179:0.029412 221:0.17297 229:0.043191999 247:0.06944 258:0.073591001 300:0.086484998 302:0.045102 330:0.057133999 338:0.071400002 349:0.12911899 357:0.17297 363:0.047230002 377:0.17297 384:0.091835998 388:0.099379003 389:0.135334 396:0.076075003 402:0.06944 445:0.041051999 453:0.078942001 456:0.063180998 468:0.115 477:0.198145 484:0.091835998 504:0.056545999 508:0.086484998 514:0.107892 520:0.18367299 553:0.259455 554:0.046675 558:0.082333997 569:0.076075003 574:0.049003001 575:0.082333997 584:0.060697 586:0.058506001 617:0.054772999 627:0.078942001 634:0.18367299 664:0.082333997 671:0.086484998 677:0.078942001 679:0.238276 686:0.259455 691:0.157885 694:0.157885 699:0.076075003 709:0.078942001 775:0.091835998 783:0.135334 808:0.057500001 814:0.091835998 827:0.086484998 848:0.048393 850:0.066047996 857:0.18209 858:0.078942001 870:0.157885 885:0.29436299 891:0.17297 909:0.051665001 927:0.040259998 949:0.071400002 960:0.071400002 973:0.071400002 975:0.078942001 999:0.055638 
-0.10575169141255164 56:0.264936 67:0.20233101 102:0.264936 104:0.21037 170:0.160505 171:0.25222 286:0.218724 304:0.15827 316:0.233046 352:0.264936 420:0.189615 456:0.193546 485:0.233046 504:0.17322101 546:0.264936 599:0.154047 658:0.264936 688:0.141331 797:0.28132901 836:0.179225 857:0.185937 
-0.21634753802597395 8:0.067345999 36:0.14917199 63:0.087626003 160:0.161423 202:0.115976 231:0.104865 259:0.115976 276:0.082781002 312:0.161423 318:0.098591 330:0.046402 363:0.076716997 373:0.140479 419:0.161423 420:0.100541 466:0.225585 468:0.093399003 501:0.085106 506:0.12357 554:0.379076 574:0.079596996 590:0.095031999 617:0.088969 673:0.082781002 679:0.193519 691:0.12822799 693:0.14917199 694:0.12822799 697:0.12357 721:0.115976 784:0.280958 808:0.093399003 826:0.133737 827:0.42143801 832:0.107284 857:0.197182 921:0.14917199 927:0.065396003 944:0.14917199 960:0.115976 969:0.119535 997:0.087626003 
-0.12723533127337086 8:0.084059 49:0.18619099 63:0.109371 85:0.201483 95:0.175341 179:0.059632 190:0.144757 194:0.166926 298:0.166926 304:0.104747 318:0.123058 323:0.130889 355:0.133908 445:0.16645899 451:0.166926 466:0.140784 504:0.114642 514:0.109371 523:0.166926 588:0.100629 592:0.16004901 625:0.16004901 629:0.175341 663:0.33385101 688:0.093537003 691:0.16004901 762:0.084905997 777:0.114642 784:0.175341 797:0.18619099 800:0.154236 819:0.118616 827:0.175341 857:0.123058 865:0.166926 880:0.166926 882:0.201483 887:0.104747 945:0.18619099 947:0.154236 951:0.118616 1000:0.133908 
-0.13761775183012401 5:0.121953 40:0.14062899 103:0.12993801 108:0.101746 131:0.090788998 139:0.169742 151:0.147719 155:0.107915 274:0.134836 281:0.118606 289:0.15685999 301:0.169742 320:0.12993801 369:0.134836 396:0.12993801 418:0.103672 428:0.147719 445:0.14023601 468:0.098212004 482:0.089492001 513:0.121953 514:0.092142001 664:0.14062899 686:0.147719 688:0.157603 753:0.147719 767:0.089492001 777:0.096582003 789:0.147719 798:0.14062899 805:0.077036001 822:0.147719 827:0.29543799 832:0.22562499 834:0.147719 850:0.112813 853:0.134836 855:0.093553998 856:0.103672 857:0.103672 870:0.134836 882:0.33948499 897:0.112813 901:0.14062899 909:0.17649201 915:0.092142001 927:0.068765998 997:0.092142001 998:0.147719 
-0.13541457455243777 17:0.043366 93:0.078387 106:0.062724002 107:0.090391003 131:0.058355998 134:0.090391003 149:0.094948001 166:0.074288003 179:0.064580999 227:0.109103 229:0.047419 245:0.284843 248:0.080792002 281:0.076234996 302:0.099031001 309:0.055206999 330:0.062724002 334:0.141753 349:0.070877001 363:0.15555599 375:0.50411397 380:0.063127004 424:0.065398 429:0.070877001 445:0.090138003 446:0.083518997 509:0.100823 514:0.059225 517:0.321154 552:0.094948001 572:0.078387 618:0.109103 624:0.061083 651:0.100823 655:0.086667001 681:0.060132999 686:0.284843 687:0.060132999 707:0.083518997 721:0.078387 736:0.094948001 738:0.086667001 762:0.045977 767:0.057521999 775:0.100823 783:0.074288003 789:0.094948001 817:0.059225 838:0.109103 859:0.25055701 867:0.109103 882:0.109103 915:0.059225 916:0.069362998 927:0.088399999 932:0.100823 933:0.080792002 947:0.083518997 958:0.090391003 970:0.090391003 975:0.086667001 998:0.094948001 1000:0.072511002 
-0.075760580929643329 60:0.21316101 93:0.184852 106:0.147917 134:0.21316101 291:0.190525 309:0.130191 330:0.073959 375:0.237762 420:0.16025101 429:0.167143 466:0.17977799 474:0.20438001 615:0.237762 617:0.283611 673:0.131943 707:0.19695599 734:0.17977799 824:0.44781399 827:0.22390699 838:0.25729001 848:0.12528899 909:0.13376001 973:0.184852 
-0.085496055048587663 47:0.15558 58:0.205759 115:0.14155599 170:0.117391 176:0.205759 193:0.14464501 276:0.114183 325:0.15160801 330:0.064003997 333:0.205759 341:0.184469 420:0.13868099 424:0.13346399 430:0.184469 473:0.112667 632:0.22265799 662:0.184469 665:0.14464501 673:0.228366 681:0.122719 836:0.131082 857:0.27198201 867:0.22265799 904:0.40039301 924:0.128829 973:0.159971 979:0.184469 981:0.22265799 984:0.19376899 
-0.06189020737952429 1:0.055397999 17:0.031513002 23:0.068995997 68:0.068995997 108:0.047522999 129:0.060690999 179:0.023465 197:0.049380001 200:0.117418 224:0.073265001 229:0.17229 235:0.100808 238:0.125957 247:0.055397999 249:0.197052 276:0.040656999 297:0.121382 304:0.041216999 305:0.125957 328:0.170884 330:0.04558 336:0.237847 342:0.058708999 346:0.060690999 356:0.047522999 370:0.047522999 371:0.131368 387:0.052692 451:0.065683998 477:0.052692 488:0.137991 537:0.073265001 554:0.335127 574:0.039094001 587:0.219795 631:0.065683998 664:0.328421 686:0.27598301 719:0.065683998 762:0.10023 767:0.041799001 769:0.137991 790:0.182072 794:0.158565 797:0.14653 798:0.065683998 831:0.068995997 850:0.052692 857:0.290535 882:0.158565 917:0.058708999 934:0.16619299 947:0.182072 954:0.056961 996:0.14653 
-0.045884074865861456 50:0.17097899 60:0.208039 84:0.232049 109:0.25110701 146:0.199469 175:0.232049 277:0.232049 355:0.166889 366:0.153367 481:0.142878 499:0.185947 554:0.117937 572:0.180411 691:0.199469 699:0.192223 861:0.218527 865:0.208039 866:0.208039 893:0.25110701 914:0.25110701 920:0.41607699 
-0.08161361054381 49:0.26440901 80:0.227286 104:0.098858997 202:0.20557 236:0.227286 247:0.199927 335:0.24900199 363:0.13598301 418:0.17475399 456:0.181906 497:0.168446 576:0.227286 688:0.13283101 760:0.438059 887:0.14875101 901:0.23705 909:0.14875101 934:0.199927 938:0.23705 944:0.26440901 948:0.185875 
-0.068017660475169883 68:0.38782799 131:0.119181 143:0.184607 188:0.170573 196:0.170573 228:0.170573 275:0.141662 276:0.114268 293:0.08941 306:0.34114599 309:0.112752 329:0.193914 330:0.064052001 429:0.14475299 463:0.20591301 468:0.128925 550:0.193914 572:0.160091 574:0.109874 599:0.112752 628:0.128925 631:0.184607 667:0.20591301 672:0.115843 673:0.114268 686:0.193914 743:0.20591301 808:0.128925 853:0.177002 855:0.12281 923:0.170573 945:0.20591301 
-0.10185473449266694 8:0.031443998 54:0.075369 61:0.108299 66:0.062442001 100:0.075369 104:0.052081 115:0.047915999 121:0.065590002 124:0.075369 133:0.041540001 150:0.059870001 153:0.069649003 158:0.065590002 166:0.051318999 169:0.051318999 193:0.048962001 196:0.057695001 201:0.069649003 206:0.067658 209:0.055810999 235:0.047915999 245:0.065590002 254:0.13929699 259:0.108299 276:0.038651001 281:0.105326 282:0.075369 293:0.060485002 294:0.069649003 300:0.065590002 302:0.068411 303:0.32795 304:0.039182998 309:0.038137 334:0.048962001 342:0.055810999 349:0.097924002 364:0.057695001 380:0.043607999 390:0.033463001 393:0.059870001 402:0.052662998 414:0.065590002 431:0.057695001 442:0.059870001 446:0.23078001 466:0.052662998 473:0.038137 475:0.102637 481:0.042884 527:0.05415 539:0.051318999 554:0.14159299 574:0.074327998 593:0.059870001 628:0.30525601 639:0.065590002 664:0.062442001 665:0.097924002 666:0.055810999 686:0.19677 687:0.041540001 690:0.108299 738:0.059870001 748:0.059870001 751:0.075369 756:0.069649003 759:0.050090998 780:0.062442001 796:0.11539 803:0.069649003 805:0.239438 806:0.059870001 808:0.043607999 815:0.059870001 827:0.32795 844:0.069649003 848:0.036702 849:0.16743401 850:0.150273 857:0.322227 863:0.059870001 868:0.040913001 873:0.069649003 882:0.075369 889:0.069649003 900:0.040312 907:0.065590002 927:0.030533001 973:0.108299 974:0.069649003 997:0.040913001 1000:0.050090998 
-0.075681359312693514 31:0.23646 110:0.30889601 120:0.154448 178:0.142726 179:0.182843 408:0.28545099 414:0.134409 424:0.092578001 454:0.142726 527:0.110965 552:0.134409 610:0.221929 664:0.127958 684:0.53763503 687:0.170248 767:0.081428997 777:0.175759 857:0.18866199 915:0.083838999 916:0.29457399 960:0.221929 973:0.110965 
-0.060589872430694143 147:0.16760799 160:0.192597 276:0.098766997 286:0.138373 326:0.50282502 336:0.192597 340:0.192597 373:0.16760799 377:0.16760799 451:0.159564 501:0.20308299 642:0.29486701 658:0.16760799 734:0.13457499 769:0.16760799 781:0.16760799 817:0.104548 857:0.23526201 882:0.385194 932:0.17797901 969:0.142619 
-0.088589293970200281 20:0.136898 31:0.126491 104:0.114183 170:0.087118 179:0.048905 190:0.118717 199:0.14380001 224:0.152698 243:0.16523901 276:0.084737003 293:0.132607 300:0.14380001 302:0.074992001 309:0.083612002 329:0.14380001 330:0.094997004 342:0.12236 356:0.099045999 365:0.16523901 383:0.12236 393:0.131258 395:0.126491 403:0.16523901 408:0.152698 440:0.115459 474:0.131258 486:0.126491 504:0.094020002 541:0.152698 589:0.152698 661:0.16523901 664:0.136898 686:0.14380001 699:0.37947199 706:0.105052 760:0.126491 762:0.069633 777:0.094020002 810:0.136898 857:0.40368599 859:0.126491 868:0.089697003 907:0.14380001 948:0.107344 973:0.118717 991:0.112511 
-0.04792702064791584 104:0.218162 106:0.090751998 190:0.45365199 244:0.26156199 248:0.233787 304:0.164133 309:0.15975299 456:0.200716 497:0.185864 523:0.26156199 599:0.15975299 624:0.176754 687:0.174005 804:0.18924201 853:0.250788 857:0.385649 986:0.29175001 
-0.048403490648802269 8:0.11093 60:0.220287 106:0.229294 115:0.16904201 136:0.220287 153:0.245711 166:0.181045 168:0.23139299 193:0.172731 206:0.119345 266:0.156534 273:0.245711 328:0.19103201 330:0.076430999 377:0.23139299 534:0.245711 587:0.245711 611:0.26589099 657:0.15129 666:0.196895 712:0.245711 720:0.172731 815:0.21121299 857:0.162396 926:0.153843 
-0.038172325458579771 57:0.094892003 62:0.103959 66:0.112513 77:0.107878 104:0.046921998 118:0.17644601 125:0.207919 133:0.074849002 170:0.071599998 179:0.080387004 183:0.107878 190:0.097571 220:0.195141 229:0.118049 259:0.097571 281:0.094892003 305:0.107878 309:0.068719 322:0.118185 324:0.135805 325:0.092469998 330:0.039037999 338:0.097571 349:0.088223003 362:0.125498 363:0.064542003 364:0.103959 373:0.118185 390:0.120591 392:0.135805 400:0.112513 401:0.225025 403:0.135805 416:0.082944997 420:0.084585004 429:0.088223003 466:0.094892003 514:0.073719002 517:0.079951003 520:0.25099599 527:0.097571 533:0.135805 552:0.118185 563:0.135805 572:0.097571 574:0.066964999 601:0.135805 628:0.078575999 644:0.078575999 653:0.112513 664:0.112513 668:0.125498 672:0.070602998 677:0.107878 686:0.23637 699:0.103959 705:0.125498 714:0.118185 715:0.100565 748:0.107878 751:0.135805 762:0.057229001 774:0.112513 805:0.061634 813:0.135805 844:0.125498 848:0.066131003 857:0.082944997 887:0.070602998 900:0.072636999 909:0.070602998 915:0.147439 970:0.112513 973:0.097571 997:0.073719002 
-0.065025118489573319 21:0.40592799 154:0.21061499 236:0.21061499 316:0.20296399 363:0.126008 364:0.20296399 390:0.117718 396:0.20296399 397:0.196337 441:0.20296399 443:0.245015 452:0.165139 512:0.196337 552:0.230738 572:0.19049101 624:0.14844 629:0.230738 665:0.172241 774:0.21966299 796:0.20296399 808:0.15340699 900:0.141813 932:0.245015 
-0.048974869278793354 68:0.080605999 79:0.080605999 91:0.068588004 106:0.026625 108:0.055520002 115:0.058885999 117:0.064719997 118:0.060171001 166:0.063066997 179:0.027412999 183:0.073576003 197:0.115379 207:0.25678101 210:0.080605999 228:0.070903003 257:0.085593998 287:0.085593998 290:0.153474 297:0.070903003 299:0.066546001 305:0.073576003 306:0.070903003 311:0.092623003 315:0.061558001 321:0.085593998 323:0.060171001 329:0.080605999 335:0.080605999 356:0.166559 360:0.080605999 366:0.056570999 368:0.080605999 398:0.070903003 412:0.076737002 430:0.076737002 444:0.072270997 445:0.038261 466:0.064719997 475:0.063066997 479:0.230211 481:0.052701999 497:0.054529 502:0.085593998 503:0.076737002 504:0.105404 518:0.085593998 523:0.076737002 542:0.061558001 548:0.153474 554:0.043501999 579:0.073576003 583:0.076737002 609:0.080605999 617:0.05105 629:0.080605999 660:0.092623003 667:0.085593998 673:0.047499001 677:0.073576003 686:0.32242301 690:0.066546001 691:0.073576003 726:0.080605999 733:0.068588004 758:0.085593998 767:0.048833001 797:0.085593998 800:0.070903003 808:0.053591002 813:0.092623003 823:0.085593998 827:0.161212 853:0.073576003 882:0.463117 890:0.171187 902:0.085593998 920:0.076737002 941:0.092623003 949:0.133092 953:0.063066997 991:0.189201 
-0.032427926622473471 93:0.11111 106:0.044454999 133:0.085235998 153:0.142913 165:0.428738 167:0.11452 179:0.045770999 213:0.13458499 265:0.11452 276:0.079306997 298:0.128125 304:0.080399998 330:0.044454999 334:0.100465 363:0.073498003 370:0.092698999 407:0.15465 429:0.100465 446:0.118385 460:0.15465 511:0.15465 539:0.105301 574:0.076256998 587:0.285826 686:0.26916999 689:0.118385 695:0.22222 707:0.118385 738:0.122848 780:0.128125 789:0.13458499 805:0.070185997 827:0.26916999 877:0.26916999 882:0.15465 900:0.082717001 927:0.062651999 950:0.285826 973:0.11111 
-0.041810736991652872 132:0.154149 141:0.16680899 170:0.087945998 221:0.14516599 253:0.096515 292:0.154149 294:0.154149 300:0.14516599 328:0.119846 330:0.04795 349:0.108364 351:0.58066398 374:0.154149 387:0.221726 414:0.29033199 481:0.094912998 485:0.127693 494:0.132506 514:0.090549 686:0.29033199 749:0.154149 789:0.14516599 840:0.138199 882:0.16680899 917:0.123523 929:0.10605 949:0.119846 965:0.16680899 973:0.119846 999:0.093390003 
-0.021054789645114591 14:0.25692001 16:0.27281699 179:0.087375 293:0.118461 378:0.25692001 387:0.196209 390:0.13107499 393:0.46902701 501:0.15564901 530:0.20101801 574:0.145574 685:0.29522401 692:0.206284 762:0.124409 774:0.244589 823:0.27281699 857:0.18031099 868:0.160257 930:0.173803 934:0.206284 
-0.02423941922698486 7:0.054280002 17:0.027161 27:0.068332002 40:0.056612 177:0.059466001 202:0.049093999 206:0.061342001 208:0.178399 229:0.029699 237:0.063146003 244:0.169837 251:0.059466001 262:0.038256001 276:0.035041999 286:0.049093999 288:0.118933 293:0.109676 299:0.049093999 302:0.062024001 306:0.104617 309:0.034577001 311:0.068332002 340:0.068332002 375:0.063146003 377:0.059466001 384:0.12629201 424:0.040959001 429:0.088780999 451:0.056612 477:0.045414001 480:0.052308001 493:0.189438 545:0.068332002 546:0.059466001 554:0.032093 576:0.16284101 578:0.052308001 583:0.056612 587:0.189438 588:0.034127999 590:0.040228002 599:0.034577001 603:0.068332002 644:0.039537001 650:0.10856 664:0.33967301 671:0.059466001 679:0.040959001 686:0.118933 693:0.31573001 701:0.063146003 703:0.118933 717:0.041735001 732:0.052308001 749:0.063146003 769:0.059466001 773:0.063146003 775:0.063146003 781:0.059466001 782:0.063146003 789:0.059466001 790:0.052308001 798:0.056612 808:0.039537001 817:0.037092999 832:0.090829 836:0.040228002 850:0.090829 852:0.068332002 856:0.041735001 857:0.208673 867:0.068332002 875:0.04256 897:0.045414001 898:0.063146003 901:0.113224 906:0.068332002 912:0.049093999 915:0.074185997 925:0.059466001 927:0.055365 928:0.068332002 948:0.044390999 949:0.049093999 960:0.049093999 964:0.039537001 969:0.50600499 
-0.024808205297532127 103:0.228065 117:0.20817401 304:0.15488701 309:0.150755 420:0.371124 519:0.275316 560:0.275316 588:0.148798 720:0.193542 732:0.45612901 760:0.228065 838:0.29792801 909:0.15488701 927:0.120696 966:0.275316 973:0.21404999 
-0.030980433297897802 104:0.118562 330:0.098640002 404:0.34315199 456:0.218161 475:0.233651 590:0.20201799 681:0.18912899 690:0.49308199 737:0.26268399 742:0.29862899 827:0.29862899 920:0.28429601 929:0.218161 973:0.24654099 
-0.017607782940994583 106:0.071967997 209:0.185396 227:0.25036299 248:0.185396 302:0.113625 309:0.12668601 334:0.162643 343:0.19887801 375:0.231361 517:0.147392 629:0.21788 686:0.43575901 713:0.150071 717:0.15291201 732:0.191654 734:0.17493799 739:0.179876 744:0.25036299 777:0.142455 808:0.144859 824:0.21788 848:0.121916 850:0.166394 853:0.19887801 857:0.15291201 927:0.101427 931:0.207422 
-0.020835477710649461 95:0.165225 133:0.104641 177:0.165225 198:0.157295 238:0.30162999 260:0.24140701 276:0.097363003 295:0.157295 302:0.086165003 307:0.175448 312:0.189858 323:0.123337 369:0.150815 370:0.113803 398:0.145337 399:0.157295 402:0.132661 417:0.157295 419:0.189858 488:0.165225 495:0.150815 501:0.100098 505:0.165225 522:0.175448 594:0.136406 673:0.292088 677:0.150815 785:0.140591 791:0.189858 805:0.086165003 857:0.115958 900:0.101548 909:0.098704003 915:0.103061 920:0.31458899 927:0.076915003 969:0.140591 
-0.020789406453595054 4:0.129475 8:0.058453001 47:0.097898997 60:0.116078 106:0.161099 188:0.107253 225:0.140109 278:0.12193 290:0.116078 293:0.11244 296:0.107253 297:0.107253 298:0.116078 305:0.111296 306:0.214507 323:0.273056 331:0.12193 382:0.111296 390:0.062206 396:0.107253 430:0.116078 438:0.140109 442:0.111296 444:0.218646 456:0.089074999 469:0.129475 471:0.129475 498:0.100663 501:0.073868997 502:0.129475 506:0.107253 521:0.129475 539:0.095399998 574:0.069086999 581:0.103751 592:0.111296 605:0.129475 654:0.12193 664:0.23215599 673:0.071850002 691:0.111296 732:0.107253 742:0.12193 748:0.111296 767:0.073868997 772:0.085573003 785:0.103751 807:0.129475 857:0.25671899 882:0.140109 887:0.072839998 903:0.129475 918:0.12193 929:0.089074999 941:0.28021699 948:0.091018997 972:0.12193 
-0.015303933810802752 106:0.085372999 248:0.21992999 255:0.18881901 293:0.119173 309:0.15028401 330:0.085372999 343:0.23592301 449:0.184983 501:0.15658499 514:0.16122 574:0.146449 664:0.246059 717:0.18139499 720:0.192939 762:0.125157 767:0.15658499 805:0.13479 819:0.34969401 837:0.23592301 868:0.16122 870:0.23592301 927:0.12032 930:0.17484701 948:0.192939 953:0.202226 980:0.23592301 988:0.27445701 
-0.012109939206793596 18:0.082783997 54:0.095126003 93:0.068343997 115:0.060477 117:0.066468 166:0.064770997 179:0.028154001 200:0.140883 210:0.16556799 223:0.087906003 230:0.075563997 266:0.056001998 286:0.068343997 290:0.078810997 299:0.068343997 315:0.063221999 330:0.027344 334:0.18539 384:0.087906003 420:0.118497 424:0.057020001 426:0.082783997 429:0.18539 440:0.066468 444:0.037112001 446:0.072819002 500:0.087906003 503:0.078810997 525:0.24835201 531:0.087906003 540:0.095126003 579:0.075563997 587:0.087906003 594:0.13668901 606:0.082783997 618:0.095126003 655:0.075563997 659:0.070441999 662:0.078810997 664:0.078810997 671:0.082783997 679:0.057020001 680:0.082783997 682:0.095126003 686:0.082783997 687:0.052429002 690:0.068343997 693:0.087906003 695:0.13668901 697:0.072819002 703:0.16556799 726:0.082783997 731:0.082783997 745:0.072819002 755:0.078810997 769:0.082783997 779:0.087906003 800:0.072819002 803:0.087906003 808:0.055039 815:0.075563997 824:0.082783997 839:0.087906003 842:0.087906003 850:0.063221999 853:0.075563997 859:0.29127699 882:0.475631 915:0.051637001 926:0.110079 936:0.19025201 948:0.061797 949:0.068343997 950:0.087906003 954:0.13668901 960:0.068343997 971:0.068343997 974:0.087906003 
-0.015217277110310769 17:0.080748998 38:0.126533 46:0.17679501 57:0.14195099 67:0.13501801 91:0.150437 103:0.155515 104:0.14038301 162:0.155515 245:0.17679501 248:0.150437 293:0.16303401 330:0.058396999 420:0.126533 453:0.161376 465:0.161376 503:0.16831 519:0.18773501 562:0.203154 584:0.124078 657:0.231186 664:0.16831 673:0.104181 678:0.13501801 699:0.155515 720:0.131974 732:0.155515 745:0.155515 820:0.17679501 836:0.119599 926:0.117543 933:0.150437 958:0.16831 966:0.37547001 980:0.161376 985:0.25831199 
-0.0049389323761313639 8:0.059597 33:0.124316 50:0.29179999 57:0.099815004 115:0.090818003 152:0.132009 159:0.124316 162:0.109352 193:0.092799999 206:0.064117998 255:0.090818003 266:0.084097996 272:0.094939999 277:0.52803499 330:0.041063 349:0.092799999 416:0.087247998 445:0.059009001 502:0.132009 537:0.132009 574:0.070439003 582:0.14285 615:0.26401699 619:0.132009 652:0.105782 655:0.113474 657:0.081280999 664:0.118349 673:0.073256001 686:0.124316 689:0.109352 717:0.087247998 748:0.113474 764:0.109352 767:0.075314 777:0.081280999 805:0.12966201 840:0.118349 857:0.174495 881:0.26401699 913:0.248632 926:0.082652003 927:0.057870999 937:0.094939999 970:0.118349 
-0.002766038929823543 155:0.113416 208:0.155249 245:0.155249 250:0.141709 276:0.091484003 293:0.071583003 302:0.080963001 307:0.32971099 318:0.108957 330:0.051279999 352:0.155249 424:0.106932 466:0.37395501 471:0.164855 482:0.188108 554:0.41893199 578:0.27312401 590:0.105024 617:0.098323002 646:0.222224 649:0.147798 664:0.147798 679:0.106932 697:0.136562 703:0.155249 726:0.155249 748:0.141709 773:0.164855 783:0.121469 827:0.155249 915:0.096837997 
