SVM-light Version V3.50
0 # kernel type
1 # kernel parameter -d 
1 # kernel parameter -g 
1 # kernel parameter -s 
0 # kernel parameter -r 
EmptyParam # kernel parameter -u 
1000 # highest feature index 
418 # number of training documents 
92 # number of support vectors plus 1 
1.0676102 # threshold b 
-0.13868298640171653 50:0.16714799 72:0.226851 91:0.18178099 94:0.133255 197:0.152897 266:0.144519 291:0.18178099 297:0.18791699 302:0.222819 328:0.176369 363:0.116667 378:0.213632 390:0.108991 607:0.20337801 608:0.20337801 619:0.226851 664:0.20337801 671:0.213632 681:0.135298 688:0.113963 713:0.147145 745:0.18791699 772:0.149931 827:0.427264 857:0.149931 887:0.12762199 948:0.159472 1000:0.16315 
-0.016573074286307023 63:0.118692 67:0.145319 117:0.15278099 229:0.095031999 243:0.43730599 266:0.12872399 278:0.190284 290:0.181151 349:0.14204299 381:0.21865299 444:0.170609 464:0.202058 514:0.118692 517:0.25744799 651:0.202058 657:0.124412 687:0.120511 699:0.16737901 743:0.202058 815:0.17368899 827:0.38056701 871:0.16737901 905:0.181151 926:0.12651099 937:0.145319 973:0.157094 
-0.031313215305139405 24:0.120575 63:0.093671001 104:0.119243 106:0.049603 135:0.13707501 193:0.1121 202:0.123978 206:0.077453002 215:0.13209599 276:0.088491999 345:0.159464 360:0.150171 379:0.159464 402:0.120575 419:0.345121 440:0.120575 473:0.17463499 482:0.18195599 486:0.13209599 528:0.14296401 578:0.13209599 583:0.14296401 678:0.114686 686:0.150171 697:0.13209599 711:0.159464 741:0.14296401 745:0.264191 797:0.159464 820:0.150171 827:0.30034301 836:0.30476701 857:0.105393 878:0.123978 882:0.17256001 924:0.099841997 927:0.069908001 948:0.1121 985:0.109706 990:0.159464 
-0.18420436979926125 80:0.19461501 104:0.084648997 179:0.072509997 229:0.106481 235:0.15575799 239:0.213209 294:0.226402 302:0.111189 306:0.187545 335:0.213209 419:0.48999301 501:0.129168 519:0.226402 574:0.120807 617:0.13503 672:0.127369 673:0.251277 686:0.213209 762:0.103243 827:0.213209 857:0.29926899 893:0.244996 917:0.181422 924:0.141753 
-0.050071018240299525 8:0.070159003 48:0.235009 56:0.146348 179:0.099541999 256:0.168167 272:0.111765 286:0.120821 302:0.076320998 306:0.128732 330:0.09668 337:0.139323 384:0.155403 423:0.13358399 445:0.069467001 477:0.55882698 514:0.091286004 586:0.19800401 591:0.155403 599:0.085093997 646:0.314224 650:0.13358399 651:0.155403 673:0.086239003 678:0.111765 679:0.100801 681:0.092684999 705:0.155403 713:0.100801 721:0.120821 793:0.139323 855:0.092684999 857:0.205419 915:0.091286004 926:0.1946 927:0.068126999 973:0.120821 
0.26719230644365538 8:0.077478997 10:0.171617 24:0.12976401 68:0.161616 71:0.171617 75:0.18571199 142:0.161616 229:0.080715001 289:0.171617 294:0.34323299 296:0.14216299 302:0.084283002 377:0.161616 429:0.120644 444:0.072453 445:0.076715 473:0.18794399 556:0.18571199 568:0.51905602 617:0.102355 627:0.147521 639:0.161616 645:0.18571199 646:0.115669 650:0.147521 698:0.161616 814:0.171617 822:0.161616 855:0.102355 915:0.10081 917:0.137521 997:0.10081 
0.99999993212504223 132:0.183011 224:0.183011 229:0.086074002 247:0.13837899 286:0.142285 335:0.17234699 481:0.112684 541:0.183011 568:0.41513801 592:0.157316 628:0.114586 664:0.164075 687:0.109151 691:0.157316 695:0.42685601 700:0.183011 713:0.118709 740:0.151601 743:0.36602199 767:0.104412 783:0.134846 827:0.17234699 848:0.096437998 892:0.183011 917:0.146651 927:0.080229998 954:0.142285 
0.65837757151820775 17:0.023077 38:0.036161002 39:0.058056999 99:0.058056999 104:0.020059001 118:0.037716001 127:0.058056999 170:0.061218999 179:0.017183 180:0.053651001 198:0.52909702 245:0.10105 247:0.040566999 248:0.042992 249:0.048099998 250:0.046117999 253:0.100775 255:0.036910001 274:0.046117999 276:0.029773001 293:0.069888003 294:0.053651001 302:0.052698001 306:0.044443 312:0.058056999 315:0.038586002 320:0.177773 335:0.050524998 348:0.058056999 354:0.046117999 363:0.027592 377:0.050524998 380:0.033592001 387:0.038586002 389:0.118594 390:0.025776999 393:0.046117999 419:0.116115 420:0.036161002 423:0.046117999 473:0.029378001 475:0.039531 481:0.033034001 489:0.058056999 493:0.107302 501:0.061218999 530:0.039531 549:0.073821001 568:0.52737099 574:0.057255998 587:0.107302 588:0.028996 593:0.046117999 594:0.041712001 601:0.058056999 602:0.053651001 603:0.058056999 613:0.053651001 617:0.031998999 628:0.033592001 657:0.033034001 664:0.048099998 669:0.048099998 672:0.150915 673:0.029773001 683:0.053651001 685:0.058056999 686:0.050524998 689:0.044443 690:0.041712001 698:0.10105 701:0.160953 703:0.050524998 728:0.050524998 734:0.081133999 740:0.088886 759:0.038586002 762:0.024466 767:0.061218999 774:0.048099998 776:0.174172 807:0.053651001 812:0.058056999 819:0.102538 849:0.042992 857:0.177296 874:0.050524998 877:0.050524998 896:0.053651001 902:0.053651001 910:0.053651001 912:0.041712001 915:0.063031003 917:0.042992 920:0.048099998 922:0.083424002 929:0.073821001 949:0.041712001 952:0.053651001 973:0.041712001 
0.99999993212504223 7:0.052678999 8:0.027667001 17:0.052717999 24:0.046337999 32:0.057712 42:0.066316001 44:0.132632 82:0.066316001 100:0.066316001 103:0.050765 106:0.019063 126:0.061283 131:0.035470001 148:0.066316001 169:0.045155 185:0.061283 203:0.066316001 206:0.029766001 215:0.050765 227:0.066316001 231:0.043081 232:0.066316001 234:0.052678999 238:0.105358 240:0.061283 244:0.054942001 247:0.046337999 253:0.076739997 281:0.046337999 294:0.061283 300:0.057712 302:0.030097 309:0.033557002 315:0.044075001 320:0.050765 323:0.172324 342:0.049107999 349:0.043081 363:0.031516999 371:0.054942001 377:0.28856 378:0.057712 385:0.057712 386:0.132632 389:0.045155 392:0.066316001 412:0.054942001 413:0.092675 414:0.057712 445:0.027394 448:0.057712 455:0.052678999 471:0.122566 473:0.10067 475:0.045155 501:0.069927 514:0.071997002 530:0.045155 537:0.061283 549:0.042160999 561:0.122566 568:0.32436401 574:0.065401003 581:0.049107999 583:0.054942001 590:0.039041001 593:0.052678999 601:0.066316001 603:0.066316001 617:0.073100999 638:0.054942001 643:0.061283 663:0.054942001 664:0.109884 672:0.34476599 676:0.057712 677:0.052678999 686:0.230848 690:0.047646001 697:0.050765 703:0.057712 708:0.122566 715:0.049107999 726:0.057712 743:0.061283 750:0.066316001 759:0.044075001 765:0.061283 766:0.26526499 767:0.034963001 769:0.173136 775:0.122566 785:0.049107999 797:0.122566 802:0.061283 805:0.030097 812:0.066316001 827:0.115424 850:0.044075001 855:0.03655 857:0.16201399 860:0.057712 863:0.052678999 864:0.061283 873:0.061283 895:0.066316001 898:0.061283 902:0.061283 906:0.066316001 909:0.034476999 915:0.035999 920:0.054942001 922:0.047646001 924:0.038369998 948:0.086162001 949:0.047646001 951:0.078083001 962:0.115424 964:0.038369998 968:0.052678999 995:0.052678999 997:0.071997002 
0.6992256249865566 17:0.083254002 24:0.146355 118:0.136069 145:0.209456 238:0.166383 302:0.095059998 315:0.13920701 328:0.15048601 352:0.18228 389:0.142618 509:0.19355901 568:0.58542001 574:0.103282 617:0.115442 649:0.173531 697:0.160339 701:0.19355901 743:0.38711801 827:0.18228 857:0.127928 888:0.19355901 917:0.155104 948:0.136069 
-0.066290347219067902 60:0.16790999 106:0.058258999 148:0.20267101 155:0.12885 187:0.176376 266:0.119316 313:0.155146 328:0.29122299 337:0.16790999 359:0.12885 366:0.123784 402:0.141614 444:0.079069003 468:0.117264 512:0.15008 514:0.220033 559:0.187289 581:0.15008 635:0.20267101 656:0.155146 657:0.115319 684:0.176376 686:0.176376 738:0.16099399 749:0.187289 767:0.106853 790:0.155146 800:0.155146 804:0.364452 827:0.176376 882:0.20267101 926:0.117264 927:0.082106002 941:0.20267101 
-0.50913469758852314 17:0.116551 245:0.25518101 253:0.169659 293:0.11766 363:0.139357 389:0.19965699 430:0.242934 530:0.19965699 572:0.21067201 616:0.242934 686:0.25518101 695:0.21067201 740:0.224465 743:0.54194301 808:0.169659 817:0.159172 920:0.242934 923:0.224465 
-0.073240336358736308 15:0.078666002 31:0.083816998 61:0.078666002 211:0.19057199 228:0.083816998 231:0.071129002 245:0.28585801 253:0.063352004 257:0.101182 258:0.081079997 268:0.090713002 275:0.06961 276:0.056150001 281:0.15301301 293:0.043935001 296:0.083816998 298:0.090713002 306:0.083816998 327:0.095285997 330:0.062948003 342:0.081079997 349:0.071129002 363:0.052037001 366:0.066873997 380:0.12670299 389:0.074552998 392:0.109492 396:0.083816998 406:0.101182 481:0.0623 485:0.083816998 502:0.101182 514:0.059436001 518:0.101182 537:0.101182 560:0.101182 599:0.055404 609:0.28585801 628:0.063352004 629:0.095285997 633:0.090713002 657:0.0623 664:0.090713002 668:0.202364 672:0.056922998 673:0.056150001 679:0.065631002 686:0.095285997 719:0.090713002 733:0.081079997 740:0.083816998 743:0.30354699 758:0.101182 765:0.101182 783:0.074552998 817:0.059436001 822:0.095285997 827:0.38114399 836:0.064460002 848:0.053318001 854:0.202364 855:0.060346998 857:0.133747 882:0.109492 904:0.131262 909:0.056922998 927:0.044357002 933:0.081079997 943:0.086975999 954:0.078666002 975:0.086975999 996:0.101182 997:0.059436001 1000:0.07277 
-0.47350032085285432 73:0.17115299 75:0.19667099 98:0.19667099 103:0.150552 104:0.067952 131:0.105192 179:0.058207002 237:0.18174399 258:0.14563601 281:0.137421 293:0.078915998 294:0.18174399 304:0.102246 326:0.51345998 330:0.056534 426:0.17115299 482:0.103689 501:0.103689 519:0.18174399 534:0.18174399 554:0.092370003 568:0.137421 617:0.216791 664:0.162939 686:0.17115299 687:0.108395 720:0.127763 767:0.103689 780:0.162939 837:0.15622699 848:0.191541 868:0.21351799 915:0.106759 973:0.14129999 997:0.106759 
-0.20755189416914066 17:0.121193 57:0.21304999 61:0.438126 132:0.28176501 179:0.090241 275:0.193846 302:0.13837799 424:0.18276501 445:0.12595201 467:0.25261 481:0.173489 624:0.17070501 641:0.193846 672:0.31703001 739:0.219063 762:0.128489 848:0.148477 857:0.186225 909:0.15851501 917:0.225785 922:0.219063 954:0.219063 
0.99999993212504223 30:0.15051 82:0.15051 118:0.097774997 131:0.080502003 179:0.089091003 229:0.065415002 243:0.15051 248:0.111454 306:0.115216 328:0.108135 339:0.37408501 351:0.130982 370:0.090218 402:0.105167 428:0.130982 429:0.19555099 443:0.13908701 466:0.105167 493:0.13908701 531:0.13908701 547:0.15051 575:0.124695 586:0.088606998 590:0.088606998 659:0.111454 679:0.090218 686:0.26196301 695:0.108135 706:0.095688 745:0.115216 762:0.063426003 784:0.130982 805:0.068306997 817:0.081701003 827:0.130982 845:0.124695 855:0.082953997 857:0.091926001 859:0.115216 885:0.22290701 895:0.451529 915:0.163403 943:0.119559 
0.99999993212504223 6:0.167468 75:0.33493599 118:0.108792 155:0.106469 198:0.13874499 241:0.133029 302:0.076003999 313:0.128197 328:0.120319 330:0.096277997 377:0.14574 420:0.104306 435:0.14574 445:0.069178998 473:0.16948099 514:0.181814 568:0.35104901 583:0.13874499 617:0.092299998 646:0.20861199 650:0.133029 662:0.13874499 671:0.14574 681:0.092299998 686:0.29147899 698:0.14574 717:0.102283 721:0.120319 725:0.167468 749:0.15475801 790:0.128197 857:0.102283 865:0.13874499 882:0.167468 915:0.181814 925:0.14574 927:0.067844003 941:0.167468 947:0.128197 948:0.108792 
0.99999993212504223 8:0.073480003 40:0.145919 118:0.114418 151:0.153276 166:0.119925 232:0.176128 275:0.111974 289:0.16276 302:0.159868 343:0.139908 377:0.153276 380:0.101906 429:0.228835 444:0.068714 473:0.089121997 475:0.119925 480:0.134826 529:0.16276 530:0.119925 556:0.176128 568:0.36920199 646:0.2194 650:0.139908 681:0.097073004 698:0.153276 706:0.111974 759:0.117056 822:0.153276 827:0.153276 855:0.097073004 857:0.322716 867:0.176128 882:0.176128 895:0.176128 902:0.16276 906:0.176128 909:0.091565996 927:0.071353003 960:0.126541 
0.94223713697396139 44:0.095833004 102:0.083398998 198:0.158792 230:0.076125003 235:0.060926002 252:0.083398998 276:0.049144998 286:0.068852 287:0.088559002 293:0.038454 302:0.13047799 306:0.073360004 307:0.088559002 320:0.073360004 377:0.25019601 378:0.083398998 380:0.055447999 386:0.095833004 389:0.065251999 402:0.066962004 413:0.13392401 426:0.166798 430:0.079396002 444:0.074776001 556:0.095833004 561:0.177119 568:0.40177199 570:0.076125003 599:0.096984997 606:0.083398998 617:0.052818 638:0.079396002 644:0.055447999 645:0.095833004 646:0.119377 650:0.076125003 664:0.079396002 672:0.099642999 680:0.083398998 686:0.41699401 690:0.068852 692:0.066962004 698:0.083398998 703:0.083398998 705:0.088559002 734:0.066962004 762:0.040383998 765:0.088559002 766:0.19166601 767:0.050524998 769:0.166798 772:0.058531001 773:0.177119 774:0.079396002 775:0.088559002 802:0.088559002 836:0.056418002 844:0.088559002 845:0.079396002 846:0.076125003 857:0.175593 875:0.059689 882:0.095833004 885:0.070964999 895:0.095833004 915:0.052021001 916:0.060926002 920:0.079396002 927:0.038823999 931:0.079396002 951:0.056418002 975:0.076125003 
-0.2245783536833528 5:0.1095 17:0.020192999 18:0.044211 106:0.014603 108:0.030452 116:0.046946999 123:0.046946999 131:0.027172999 167:0.037620001 169:0.034591999 179:0.045107 200:0.15048 205:0.050802998 206:0.022802999 212:0.046946999 231:0.066005997 238:0.161422 247:0.035498001 251:0.044211 258:0.037620001 265:0.037620001 293:0.020385001 294:0.14084101 297:0.350007 298:0.042089 302:0.046112999 306:0.077779002 309:0.025707001 328:0.36499801 339:0.126268 351:0.221057 363:0.024143999 377:0.044211 380:0.029394001 383:0.075240001 384:0.046946999 389:0.069182999 396:0.03889 402:0.070996001 420:0.031642001 423:0.040355999 425:0.093893997 428:0.132634 429:0.033002999 440:0.035498001 444:0.019819999 451:0.042089 452:0.031642001 453:0.040355999 466:0.035498001 468:0.058788002 473:0.025707001 481:0.028906001 482:0.026784001 512:0.037620001 525:0.044211 574:0.050101001 579:0.121067 588:0.025373001 590:0.089725003 593:0.121067 603:0.050802998 605:0.046946999 617:0.083999999 627:0.040355999 631:0.042089 643:0.32863 651:0.046946999 658:0.044211 659:0.15048 664:0.042089 666:0.037620001 673:0.026053 679:0.030452 683:0.093893997 686:0.221057 695:0.145999 700:0.046946999 705:0.046946999 706:0.064595997 721:0.036499999 736:0.044211 748:0.161422 762:0.14985999 765:0.093893997 777:0.028906001 779:0.046946999 782:0.093893997 790:0.233338 814:0.046946999 817:0.055155002 827:0.044211 842:0.046946999 845:0.042089 850:0.067528002 855:0.028000001 857:0.186171 882:0.050802998 885:0.037620001 896:0.046946999 900:0.027172999 907:0.044211 909:0.026411001 915:0.027577 920:0.042089 924:0.029394001 934:0.035498001 943:0.080711 948:0.033002999 953:0.034591999 954:0.036499999 956:0.046946999 982:0.046946999 
-0.39117055326475403 63:0.080610998 161:0.123031 179:0.043951001 229:0.064542003 238:0.117963 293:0.059588 298:0.24606299 330:0.042686999 352:0.129234 377:0.387703 378:0.258468 380:0.085922003 430:0.123031 455:0.117963 458:0.471854 475:0.101115 477:0.098696001 528:0.123031 554:0.139493 578:0.113678 590:0.087425001 599:0.075143002 617:0.081846997 649:0.123031 701:0.13723101 762:0.062579997 769:0.258468 802:0.27446201 850:0.098696001 857:0.090699002 882:0.297003 912:0.106693 927:0.120322 
-0.14746112288910146 15:0.077509001 34:0.085697003 68:0.093884997 70:0.082584001 121:0.093884997 150:0.085697003 193:0.070083 206:0.048423 220:0.077509001 231:0.070083 253:0.12484 276:0.055323999 286:0.077509001 303:0.093884997 316:0.082584001 341:0.089378998 342:0.079888001 420:0.067194 431:0.082584001 443:0.099693999 473:0.054589 514:0.058561999 555:0.107882 557:0.34278801 584:0.065889999 590:0.12702399 604:0.107882 637:0.099693999 639:0.093884997 643:0.099693999 659:0.079888001 686:0.18776999 691:0.085697003 717:0.065889999 748:0.085697003 817:0.058561999 821:0.107882 827:0.093884997 857:0.72479302 867:0.107882 920:0.089378998 931:0.089378998 948:0.070083 970:0.089378998 973:0.077509001 979:0.089378998 
-0.16637370923581293 18:0.21572401 47:0.173208 104:0.085647002 118:0.161034 179:0.073365003 190:0.17809699 244:0.20536999 302:0.112501 306:0.189758 309:0.125433 328:0.17809699 330:0.071255997 473:0.125433 497:0.145934 546:0.21572401 558:0.20536999 599:0.125433 601:0.247887 686:0.21572401 687:0.136623 721:0.17809699 790:0.189758 808:0.143426 857:0.30279899 882:0.247887 909:0.12887201 915:0.134561 927:0.100424 971:0.35619399 991:0.168786 
-0.061010654167778039 8:0.065876998 22:0.102578 24:0.110332 31:0.120874 80:0.125431 135:0.125431 168:0.13741501 179:0.046732999 200:0.116928 238:0.125431 294:0.145918 318:0.096441001 345:0.145918 349:0.102578 351:0.13741501 353:0.13082001 360:0.13741501 370:0.094649002 446:0.120874 509:0.145918 528:0.13082001 552:0.13741501 574:0.15572201 578:0.120874 617:0.17405599 664:0.261639 686:0.41224501 697:0.120874 711:0.145918 717:0.192881 734:0.110332 762:0.066541001 793:0.13082001 827:0.41224501 857:0.192881 882:0.157902 890:0.145918 948:0.102578 
-0.1263345627875751 196:0.176425 198:0.19093999 244:0.19093999 248:0.34132901 304:0.119817 318:0.281524 323:0.149719 329:0.20056701 369:0.183075 398:0.176425 475:0.15692601 522:0.21297701 523:0.19093999 588:0.230212 614:0.170664 675:0.20056701 690:0.165583 759:0.153172 785:0.170664 805:0.104596 857:0.140762 858:0.183075 900:0.12327 902:0.21297701 927:0.186735 949:0.165583 969:0.170664 995:0.183075 
-0.036801294014367041 17:0.069067001 71:0.160575 144:0.112882 224:0.48172599 247:0.36424601 272:0.115485 294:0.160575 302:0.078860998 306:0.13301601 370:0.104156 372:0.13802999 389:0.23662999 415:0.17376301 423:0.27605999 429:0.112882 430:0.28792101 549:0.22094201 586:0.102297 617:0.095770001 648:0.151218 664:0.14396 673:0.089109004 695:0.124842 701:0.160575 777:0.098870002 784:0.151218 805:0.078860998 836:0.102297 857:0.106128 968:0.13802999 
-0.24040725555062639 5:0.13190199 8:0.15318701 17:0.072972998 40:0.304203 108:0.110046 131:0.098196 139:0.18358999 173:0.16965599 185:0.16965599 234:0.145836 274:0.145836 289:0.33931199 294:0.16965599 330:0.21109401 389:0.12500601 406:0.16965599 423:0.145836 429:0.119265 468:0.106224 477:0.122016 523:0.152101 549:0.116718 558:0.152101 586:0.21616399 646:0.114348 681:0.101186 686:0.15977 726:0.15977 822:0.31953999 855:0.101186 857:0.224259 858:0.145836 865:0.152101 938:0.152101 
-0.084940359489717676 15:0.089071997 69:0.114567 86:0.123976 106:0.035636999 150:0.098480999 155:0.078818999 166:0.084415004 176:0.114567 193:0.080537997 213:0.107891 216:0.123976 233:0.114567 247:0.086626999 253:0.143464 265:0.18361001 269:0.123976 285:0.098480999 300:0.107891 306:0.094903998 323:0.080537997 330:0.035636999 334:0.16107699 364:0.094903998 444:0.048367999 451:0.102712 467:0.102712 478:0.123976 502:0.114567 511:0.123976 530:0.084415004 546:0.107891 584:0.075719997 592:0.098480999 695:0.62350303 713:0.074313 724:0.098480999 736:0.107891 767:0.065362997 772:0.075719997 797:0.114567 827:0.107891 848:0.060371 855:0.068329997 862:0.098480999 876:0.114567 881:0.114567 882:0.247952 896:0.114567 927:0.10045 932:0.114567 957:0.107891 974:0.114567 983:0.102712 
-0.013432265359190402 4:0.134799 94:0.079182997 106:0.041931 117:0.101925 146:0.115873 149:0.12694401 169:0.099322997 200:0.108018 206:0.065472998 226:0.26959801 281:0.101925 302:0.132403 313:0.111664 330:0.041931 356:0.087436996 366:0.089092001 381:0.29174 400:0.120851 402:0.101925 411:0.120851 423:0.231746 433:0.134799 444:0.056908999 453:0.115873 475:0.099322997 481:0.165998 485:0.111664 497:0.085876003 501:0.076906003 504:0.082998998 521:0.134799 561:0.134799 574:0.071928002 607:0.120851 613:0.134799 646:0.090853997 666:0.108018 686:0.12694401 687:0.080397002 704:0.134799 747:0.115873 763:0.12694401 828:0.231746 874:0.12694401 887:0.075834997 890:0.134799 941:0.14587 975:0.115873 987:0.43761 991:0.099322997 
-0.12032099956234688 107:0.193939 229:0.101741 250:0.18595 309:0.118451 315:0.155578 390:0.103932 435:0.407433 438:0.234089 459:0.173344 498:0.168183 521:0.216322 671:0.407433 686:0.407433 705:0.216322 717:0.14297201 887:0.121698 947:0.35839099 
-0.13814410179581288 79:0.243118 93:0.200712 166:0.190218 196:0.213854 222:0.25816101 233:0.25816101 265:0.206871 285:0.22191501 293:0.112097 302:0.12678599 428:0.243118 429:0.181483 447:0.27936399 468:0.16163801 473:0.141361 525:0.243118 557:0.22191501 595:0.27936399 717:0.170625 734:0.19520199 857:0.170625 915:0.151648 917:0.206871 
-0.10931206505936153 15:0.1428 36:0.091835998 38:0.061896998 40:0.082333997 84:0.091835998 104:0.034336001 107:0.082333997 148:0.099379003 173:0.091835998 179:0.029412 221:0.17297 229:0.043191999 247:0.06944 258:0.073591001 300:0.086484998 302:0.045102 330:0.057133999 338:0.071400002 349:0.12911899 357:0.17297 363:0.047230002 377:0.17297 384:0.091835998 388:0.099379003 389:0.135334 396:0.076075003 402:0.06944 445:0.041051999 453:0.078942001 456:0.063180998 468:0.115 477:0.198145 484:0.091835998 504:0.056545999 508:0.086484998 514:0.107892 520:0.18367299 553:0.259455 554:0.046675 558:0.082333997 569:0.076075003 574:0.049003001 575:0.082333997 584:0.060697 586:0.058506001 617:0.054772999 627:0.078942001 634:0.18367299 664:0.082333997 671:0.086484998 677:0.078942001 679:0.238276 686:0.259455 691:0.157885 694:0.157885 699:0.076075003 709:0.078942001 775:0.091835998 783:0.135334 808:0.057500001 814:0.091835998 827:0.086484998 848:0.048393 850:0.066047996 857:0.18209 858:0.078942001 870:0.157885 885:0.29436299 891:0.17297 909:0.051665001 927:0.040259998 949:0.071400002 960:0.071400002 973:0.071400002 975:0.078942001 999:0.055638 
-0.10713931732473689 17:0.060982998 31:0.117447 93:0.11023 235:0.097540997 243:0.15342499 263:0.15342499 309:0.077634998 328:0.11023 334:0.199338 347:0.13351899 369:0.121874 377:0.13351899 399:0.12711 415:0.15342499 420:0.095559001 429:0.099669002 445:0.063377999 447:0.15342499 527:0.220459 585:0.15342499 618:0.15342499 644:0.088771001 655:0.121874 658:0.13351899 686:0.267037 705:0.14178 707:0.117447 721:0.11023 769:0.13351899 827:0.13351899 859:0.352341 870:0.121874 882:0.15342499 927:0.124311 948:0.099669002 972:0.13351899 973:0.11023 993:0.46027499 
-0.11039629111962446 17:0.080774002 24:0.141996 63:0.110313 111:0.176851 144:0.132016 162:0.155563 188:0.155563 206:0.091214001 235:0.129197 276:0.104213 302:0.092228003 305:0.16142701 306:0.155563 309:0.10283 377:0.176851 389:0.276741 396:0.155563 444:0.079282001 445:0.251838 477:0.13506 481:0.115629 499:0.150484 514:0.33093801 549:0.25839299 553:0.176851 569:0.155563 586:0.119637 588:0.101495 646:0.126572 648:0.176851 664:0.16836201 679:0.121811 686:0.176851 709:0.16142701 808:0.11758 870:0.16142701 882:0.203217 948:0.132016 
-0.12818787786208155 80:0.126351 94:0.086342998 111:0.138423 200:0.117785 201:0.146988 238:0.126351 262:0.089051001 318:0.097148001 320:0.243522 325:0.108304 353:0.263558 360:0.138423 466:0.111141 549:0.20224699 620:0.138423 621:0.138423 650:0.126351 654:0.138423 664:0.131779 670:0.146988 672:0.082693003 677:0.126351 686:0.138423 690:0.22855701 715:0.117785 726:0.138423 745:0.121761 748:0.25270101 774:0.131779 823:0.146988 827:0.415268 851:0.146988 863:0.126351 882:0.15906 927:0.064438 951:0.28092301 
-0.1592418599313869 136:0.189881 139:0.22919101 194:0.189881 202:0.164664 229:0.099611998 231:0.14888901 343:0.182059 402:0.160144 445:0.094674997 482:0.120835 514:0.124412 617:0.12631901 686:0.19945399 784:0.59836203 832:0.304645 836:0.134928 915:0.373236 960:0.164664 973:0.164664 
-0.18106622179335671 7:0.054280002 17:0.027161 27:0.068332002 40:0.056612 177:0.059466001 202:0.049093999 206:0.061342001 208:0.178399 229:0.029699 237:0.063146003 244:0.169837 251:0.059466001 262:0.038256001 276:0.035041999 286:0.049093999 288:0.118933 293:0.109676 299:0.049093999 302:0.062024001 306:0.104617 309:0.034577001 311:0.068332002 340:0.068332002 375:0.063146003 377:0.059466001 384:0.12629201 424:0.040959001 429:0.088780999 451:0.056612 477:0.045414001 480:0.052308001 493:0.189438 545:0.068332002 546:0.059466001 554:0.032093 576:0.16284101 578:0.052308001 583:0.056612 587:0.189438 588:0.034127999 590:0.040228002 599:0.034577001 603:0.068332002 644:0.039537001 650:0.10856 664:0.33967301 671:0.059466001 679:0.040959001 686:0.118933 693:0.31573001 701:0.063146003 703:0.118933 717:0.041735001 732:0.052308001 749:0.063146003 769:0.059466001 773:0.063146003 775:0.063146003 781:0.059466001 782:0.063146003 789:0.059466001 790:0.052308001 798:0.056612 808:0.039537001 817:0.037092999 832:0.090829 836:0.040228002 850:0.090829 852:0.068332002 856:0.041735001 857:0.208673 867:0.068332002 875:0.04256 897:0.045414001 898:0.063146003 901:0.113224 906:0.068332002 912:0.049093999 915:0.074185997 925:0.059466001 927:0.055365 928:0.068332002 948:0.044390999 949:0.049093999 960:0.049093999 964:0.039537001 969:0.50600499 
-0.19069746497101756 72:0.097157001 127:0.105137 131:0.056233998 144:0.068300001 153:0.097157001 193:0.068300001 206:0.047189999 213:0.091495 253:0.060830999 255:0.200524 267:0.083516002 268:0.087104 272:0.13975 281:0.073463 302:0.047715001 316:0.080481999 323:0.068300001 328:0.075535998 330:0.060444001 339:0.087104 358:0.091495 367:0.091495 377:0.091495 396:0.080481999 418:0.128427 424:0.063019998 429:0.068300001 445:0.043430001 468:0.060830999 469:0.097157001 509:0.097157001 572:0.075535998 581:0.077854 584:0.064213 596:0.087104 603:0.105137 617:0.057946 679:0.063019998 686:0.091495 695:0.15107299 700:0.097157001 716:0.083516002 739:0.075535998 743:0.097157001 753:0.091495 777:0.059822001 783:0.14317501 796:0.080481999 797:0.097157001 805:0.429436 834:0.091495 849:0.077854 857:0.128427 863:0.167032 882:0.105137 885:0.155709 900:0.056233998 903:0.38862801 905:0.26131201 909:0.054659002 918:0.182991 927:0.042592999 929:0.200524 1000:0.13975 
-0.18665660120099364 8:0.112729 116:0.249697 144:0.175533 224:0.249697 249:0.22386099 293:0.108422 300:0.235147 304:0.140475 309:0.13672701 339:0.22386099 483:0.20008899 516:0.22386099 532:0.249697 644:0.156339 646:0.33658999 673:0.138566 686:0.235147 719:0.22386099 856:0.165031 857:0.165031 882:0.27020499 943:0.21463899 954:0.194132 
-0.20308198443747921 41:0.15279 134:0.13698 146:0.131338 147:0.143886 161:0.13698 179:0.048934001 198:0.13698 201:0.15279 287:0.15279 293:0.132687 302:0.15007401 306:0.12656701 309:0.083663002 310:0.13698 330:0.047527 351:0.143886 390:0.073408 393:0.131338 397:0.122434 418:0.100982 423:0.131338 440:0.115528 444:0.064503998 489:0.16533799 496:0.122434 513:0.118789 599:0.083663002 610:0.118789 624:0.092565998 642:0.25313401 664:0.27396101 670:0.15279 672:0.343826 686:0.28777301 692:0.115528 715:0.122434 724:0.131338 774:0.13698 827:0.143886 851:0.15279 896:0.15279 900:0.088434003 909:0.085956 922:0.118789 924:0.095664002 927:0.066982001 937:0.109886 951:0.097337 
-0.18098919141863642 1:0.28951699 23:0.180292 45:0.171638 118:0.13458399 133:0.114183 186:0.171638 228:0.15859 229:0.090042002 238:0.16456801 275:0.13170999 302:0.094022997 346:0.15859 375:0.191448 380:0.119868 387:0.137688 390:0.091981001 420:0.129035 423:0.16456801 445:0.085579 485:0.15859 517:0.121965 574:0.102155 624:0.115987 628:0.119868 641:0.13170999 681:0.114183 686:0.180292 687:0.114183 719:0.171638 765:0.191448 767:0.109226 774:0.171638 827:0.180292 857:0.25306401 867:0.20717099 975:0.32913601 978:0.20717099 
-0.16440200339671782 13:0.22019801 17:0.087523997 179:0.065169998 212:0.203485 214:0.168562 265:0.163058 275:0.139992 276:0.112921 281:0.153861 335:0.19162799 339:0.18243 383:0.163058 423:0.174916 429:0.143047 471:0.203485 512:0.163058 564:0.19162799 592:0.174916 593:0.174916 673:0.112921 695:0.316407 743:0.203485 762:0.092793003 767:0.232187 777:0.125291 805:0.099933997 848:0.107227 877:0.19162799 881:0.203485 896:0.203485 973:0.316407 
-0.08321479430911094 179:0.061949998 220:0.150387 260:0.133075 286:0.150387 288:0.18216 302:0.094997004 310:0.173417 316:0.160234 363:0.19895899 377:0.18216 507:0.209318 552:0.18216 554:0.19662 573:0.209318 578:0.160234 593:0.166273 618:0.209318 625:0.166273 628:0.12111 686:0.18216 691:0.166273 726:0.18216 732:0.160234 761:0.193431 762:0.088207997 787:0.193431 792:0.209318 827:0.18216 850:0.13911501 899:0.193431 912:0.150387 915:0.113624 925:0.18216 934:0.14625899 945:0.193431 
-0.087833621768512227 41:0.109791 115:0.075533003 151:0.103393 179:0.070326 297:0.090948001 313:0.090948001 330:0.034152001 349:0.077180997 369:0.094375998 390:0.052749 423:0.094375998 436:0.109791 444:0.046351001 448:0.103393 475:0.080895998 494:0.66063398 510:0.118808 524:0.118808 561:0.109791 594:0.085359 617:0.130963 650:0.094375998 660:0.118808 671:0.103393 672:0.24706499 679:0.071214996 686:0.103393 688:0.055156 690:0.170718 716:0.094375998 728:0.103393 737:0.090948001 742:0.103393 790:0.090948001 827:0.103393 872:0.103393 874:0.103393 882:0.118808 884:0.18875299 900:0.254186 905:0.098430999 915:0.064493001 926:0.068742 929:0.075533003 965:0.118808 970:0.098430999 985:0.075533003 
-0.077914230312483443 85:0.071523003 163:0.13218901 179:0.042335998 208:0.124486 229:0.062171001 238:0.056814998 260:0.13641401 262:0.040043 282:0.071523003 286:0.051385999 297:0.054751001 307:0.13218901 309:0.036191002 311:0.071523003 323:0.046463002 328:0.102773 330:0.041119002 337:0.118511 342:0.052963 352:0.062243 357:0.062243 370:0.042872 375:0.13218901 377:0.062243 399:0.118511 417:0.059255999 420:0.044548001 444:0.027904 448:0.062243 462:0.059255999 465:0.056814998 468:0.041382998 505:0.124486 522:0.066095002 527:0.051385999 538:0.118511 566:0.13218901 583:0.35553399 594:0.051385999 644:0.041382998 650:0.11363 663:0.118511 673:0.073357001 679:0.042872 686:0.248973 687:0.078840002 702:0.18673 703:0.062243 705:0.13218901 717:0.043683998 732:0.164253 769:0.311216 782:0.066095002 799:0.18673 800:0.383257 801:0.14304601 804:0.042872 820:0.124486 836:0.042107001 861:0.062243 882:0.071523003 920:0.059255999 925:0.062243 931:0.059255999 942:0.124486 945:0.26437899 968:0.056814998 
-0.1197569231880387 5:0.34033099 102:0.137411 104:0.21822099 131:0.084454 140:0.145914 179:0.046732001 185:0.145914 193:0.102575 224:0.29182801 230:0.12542801 248:0.116925 274:0.12542801 304:0.082088001 338:0.113444 359:0.100385 363:0.150084 377:0.137411 473:0.079898 541:0.145914 549:0.100385 575:0.261632 588:0.157722 590:0.092956997 592:0.12542801 658:0.137411 686:0.137411 706:0.100385 760:0.241743 767:0.083247997 817:0.085712001 820:0.137411 850:0.104941 857:0.192876 860:0.137411 885:0.116925 891:0.27482301 927:0.063968003 932:0.145914 934:0.220659 949:0.113444 968:0.12542801 
-0.11362444529102975 5:0.13293 17:0.073541 40:0.153286 179:0.054758999 194:0.153286 224:0.17097799 227:0.18502 259:0.13293 302:0.083968997 329:0.32202899 342:0.13700899 351:0.16101401 370:0.221807 385:0.16101401 408:0.34195501 420:0.115238 429:0.240389 440:0.129281 441:0.141633 466:0.129281 514:0.100435 574:0.091233 631:0.153286 648:0.16101401 673:0.18976299 697:0.141633 703:0.16101401 736:0.16101401 739:0.13293 762:0.077969 817:0.100435 827:0.16101401 857:0.33900899 927:0.074955001 949:0.13293 
-0.16357003088786104 167:0.136466 172:0.128768 222:0.17030001 231:0.119718 252:0.160376 253:0.106627 276:0.094506003 302:0.083636999 334:0.119718 376:0.160376 427:0.17030001 429:0.119718 431:0.14107201 492:0.160376 557:0.14639001 588:0.092041001 590:0.108492 606:0.160376 654:0.160376 659:0.40939799 672:0.095807999 695:0.132403 701:0.17030001 703:0.160376 706:0.117162 759:0.122479 817:0.100037 857:0.337666 859:0.14107201 882:0.36857399 900:0.197137 917:0.136466 927:0.074657999 972:0.160376 
-0.11085638404558032 179:0.108412 188:0.140203 224:0.16925099 229:0.079602003 248:0.135625 258:0.135625 280:0.140203 302:0.166243 303:0.31877601 359:0.11644 431:0.140203 483:0.135625 495:0.14548799 499:0.135625 541:0.33850199 588:0.091472998 628:0.10597 666:0.135625 686:0.478165 687:0.100944 724:0.14548799 733:0.135625 762:0.077180997 767:0.28968501 826:0.30347601 827:0.15938801 885:0.135625 
-0.097227741694444814 1:0.13572399 11:0.097120002 17:0.077206001 24:0.203585 48:0.067861997 93:0.069776997 105:0.089749001 133:0.053528 135:0.077147998 177:0.084518999 179:0.057487998 210:0.084518999 276:0.049805 305:0.077147998 307:0.089749001 330:0.027918 334:0.18927599 335:0.084518999 351:0.084518999 352:0.084518999 420:0.181472 429:0.126184 445:0.040119 460:0.097120002 477:0.064547002 483:0.071918003 499:0.143837 525:0.084518999 527:0.209332 547:0.097120002 553:0.084518999 578:0.148692 588:0.048505999 592:0.077147998 617:0.053528 664:0.080463 673:0.049805 686:0.25355801 706:0.061744999 734:0.203585 762:0.040927 767:0.102408 769:0.33807799 770:0.388482 831:0.084518999 917:0.071918003 947:0.44607499 948:0.063092001 953:0.066128999 
-0.070640404865406431 6:0.238507 106:0.068559997 294:0.220405 330:0.068559997 429:0.15494099 475:0.16239899 482:0.125747 502:0.220405 542:0.15851501 578:0.182578 591:0.220405 644:0.137999 646:0.148552 664:0.19760001 686:0.207562 709:0.18945999 775:0.220405 827:0.207562 830:0.238507 832:0.15851501 882:0.238507 901:0.395199 960:0.171358 997:0.12946901 999:0.267061 
-0.024071983490766915 52:0.134472 59:0.134472 106:0.077308998 199:0.117025 211:0.23405001 230:0.106819 234:0.106819 247:0.093961 299:0.096612997 330:0.038654 349:0.087357 352:0.117025 357:0.117025 363:0.25563401 420:0.16751 424:0.080604002 435:0.23405001 441:0.102939 445:0.055548001 474:0.106819 517:0.079166003 537:0.124266 572:0.096612997 577:0.124266 579:0.106819 664:0.22281601 679:0.080604002 681:0.148229 713:0.080604002 718:0.268944 775:0.124266 788:0.111408 812:0.268944 827:0.117025 892:0.124266 909:0.069909997 951:0.079166003 955:0.134472 960:0.48306501 967:0.099578001 986:0.124266 
-0.035557657175583936 5:0.191122 100:0.26601601 168:0.231501 248:0.39397401 293:0.106741 299:0.191122 320:0.20363601 390:0.236215 397:0.196987 412:0.22039001 425:0.24582601 442:0.211312 490:0.185876 493:0.24582601 603:0.26601601 673:0.136418 686:0.231501 767:0.14025 850:0.176797 915:0.144402 949:0.191122 
-0.050633943691779502 17:0.093305998 155:0.149241 193:0.15249801 206:0.105365 245:0.204289 276:0.120382 323:0.15249801 349:0.15249801 366:0.143374 444:0.091582999 473:0.118784 480:0.179699 514:0.127428 571:0.21693 594:0.16865601 599:0.356352 656:0.179699 681:0.129381 727:0.408577 730:0.204289 804:0.14071 853:0.186472 857:0.43012199 915:0.127428 937:0.15601499 
-0.08790298109474308 106:0.062545002 136:0.180263 184:0.172838 302:0.098747 330:0.062545002 412:0.180263 468:0.125892 477:0.14460699 517:0.128094 599:0.110099 604:0.217582 646:0.135519 656:0.16655999 727:0.378703 775:0.201068 804:0.391265 811:0.201068 827:0.18935201 853:0.172838 857:0.39867201 917:0.161121 921:0.201068 932:0.201068 948:0.14134701 
-0.044371527156316301 99:0.255905 104:0.088417999 156:0.22270299 157:0.23648299 229:0.111223 279:0.255905 296:0.195896 400:0.212014 444:0.099838004 481:0.29121599 497:0.150655 579:0.20328 599:0.25898099 601:0.255905 673:0.26246601 743:0.23648299 774:0.212014 857:0.312594 909:0.26608101 991:0.174245 
-0.062139616498312449 155:0.113416 208:0.155249 245:0.155249 250:0.141709 276:0.091484003 293:0.071583003 302:0.080963001 307:0.32971099 318:0.108957 330:0.051279999 352:0.155249 424:0.106932 466:0.37395501 471:0.164855 482:0.188108 554:0.41893199 578:0.27312401 590:0.105024 617:0.098323002 646:0.222224 649:0.147798 664:0.147798 679:0.106932 697:0.136562 703:0.155249 726:0.155249 748:0.141709 773:0.164855 783:0.121469 827:0.155249 915:0.096837997 
-0.036552352760189796 33:0.191929 38:0.137364 50:0.300336 63:0.119718 94:0.119718 151:0.191929 152:0.203806 179:0.065273002 197:0.137364 253:0.127606 262:0.123474 302:0.100092 328:0.158452 330:0.063395999 349:0.143272 363:0.104815 397:0.163315 501:0.116276 543:0.191929 550:0.191929 574:0.108749 624:0.123474 628:0.127606 647:0.18271799 664:0.18271799 678:0.146576 679:0.13219699 686:0.191929 692:0.154103 706:0.140212 743:0.203806 745:0.168827 757:0.203806 762:0.092938997 772:0.1347 827:0.191929 837:0.175191 868:0.119718 918:0.191929 1000:0.146576 
-0.051619176056213939 22:0.08066 45:0.102867 74:0.229479 91:0.091944002 249:0.30860099 258:0.091944002 266:0.073096 290:0.102867 302:0.05635 330:0.035691001 349:0.08066 354:0.19725899 409:0.124163 413:0.17351501 420:0.077334002 444:0.096881002 445:0.051290002 500:0.114739 503:0.102867 529:0.114739 581:0.183887 594:0.089206003 650:0.098630004 659:0.183887 662:0.102867 664:0.102867 682:0.124163 686:0.108053 703:0.108053 706:0.078937002 731:0.108053 745:0.095046997 765:0.114739 772:0.075833999 789:0.108053 790:0.19009399 793:0.102867 801:0.124163 803:0.114739 841:0.37248799 842:0.114739 855:0.068433002 856:0.075833999 878:0.089206003 882:0.248326 890:0.114739 916:0.078937002 926:0.071840003 927:0.150902 954:0.267618 968:0.098630004 976:0.114739 
-0.11859375545735511 63:0.077933997 80:0.114046 179:0.042491999 200:0.106315 206:0.064441003 229:0.062399 247:0.100318 286:0.10315 318:0.263062 353:0.118946 389:0.19551399 396:0.109903 440:0.100318 444:0.056012001 449:0.17884301 473:0.072648004 482:0.075694002 500:0.13267399 504:0.24507099 509:0.13267399 514:0.46760699 549:0.091275997 581:0.106315 586:0.169044 617:0.079129003 659:0.106315 664:0.35683799 681:0.079129003 686:0.124943 687:0.079129003 696:0.114046 699:0.109903 711:0.13267399 713:0.086057998 734:0.100318 762:0.060501002 777:0.081689999 793:0.118946 797:0.13267399 805:0.065158002 827:0.124943 857:0.087687001 870:0.114046 885:0.106315 890:0.13267399 909:0.074639998 915:0.15586901 927:0.058162998 1000:0.095417999 
-0.043700476955219045 114:0.30060101 138:0.32528901 295:0.26949701 302:0.14762899 327:0.28308401 467:0.26949701 574:0.32079801 628:0.18821099 633:0.26949701 641:0.20680501 672:0.169112 754:0.30060101 817:0.176577 827:0.28308401 840:0.26949701 
-0.06425211397500083 106:0.046820998 108:0.097632997 193:0.105812 206:0.073109001 229:0.14158501 281:0.113812 304:0.169358 320:0.37405899 323:0.105812 355:0.108253 369:0.12938599 402:0.113812 468:0.094241999 482:0.42937499 510:0.162881 541:0.150519 580:0.117024 583:0.13494501 672:0.25403801 686:0.28349599 705:0.150519 724:0.12938599 759:0.108253 780:0.13494501 785:0.120615 807:0.150519 808:0.188484 815:0.12938599 825:0.13494501 826:0.13494501 827:0.141748 850:0.108253 857:0.099482 868:0.088417001 882:0.162881 902:0.150519 927:0.065986 
-0.055566446353633316 30:0.174758 46:0.304167 47:0.12211 104:0.120761 123:0.161494 186:0.144784 193:0.113528 207:0.161494 283:0.161494 293:0.070123002 309:0.088428997 349:0.113528 351:0.15208399 377:0.15208399 417:0.144784 461:0.15208399 477:0.116146 497:0.102882 592:0.13882001 599:0.088428997 654:0.15208399 664:0.144784 686:0.15208399 695:0.12555701 699:0.13377801 703:0.15208399 736:0.15208399 739:0.12555701 746:0.174758 748:0.13882001 765:0.322988 767:0.092136003 784:0.15208399 857:0.213471 882:0.349516 885:0.129409 915:0.094864003 986:0.161494 
-0.047570898419059281 104:0.111841 144:0.21028499 170:0.170662 191:0.29913199 205:0.32370001 221:0.281701 240:0.29913199 377:0.281701 456:0.20579401 599:0.16379599 644:0.187291 705:0.29913199 857:0.197704 882:0.32370001 904:0.19403 971:0.232566 985:0.20579401 
-0.043724285494027459 57:0.152318 63:0.118332 112:0.60433602 145:0.21799 179:0.064516999 255:0.13858899 272:0.144879 420:0.135773 452:0.135773 471:0.201445 552:0.189707 588:0.108873 678:0.144879 686:0.37941301 689:0.16687199 703:0.189707 827:0.189707 856:0.13314 857:0.26628 927:0.088312 929:0.13858899 
-0.064373570588202436 18:0.081416003 47:0.065370001 106:0.053785 115:0.059478 183:0.074316002 198:0.077509001 218:0.071616001 231:0.060775999 235:0.059478 241:0.074316002 243:0.18710899 253:0.16238999 257:0.086453997 266:0.055077001 275:0.059478 302:0.084918 309:0.047339998 312:0.18710899 323:0.060775999 328:0.134431 337:0.077509001 369:0.074316002 398:0.143233 420:0.05827 422:0.093555003 443:0.086453997 444:0.21899401 464:0.17290799 477:0.124355 501:0.098647997 518:0.086453997 519:0.086453997 523:0.077509001 542:0.062176999 561:0.086453997 574:0.046131 581:0.069278002 590:0.055077001 644:0.054129999 657:0.106464 675:0.081416003 681:0.051562998 686:0.16283301 690:0.067215003 699:0.071616001 705:0.086453997 706:0.059478 709:0.074316002 733:0.069278002 739:0.067215003 769:0.081416003 772:0.05714 774:0.077509001 785:0.069278002 790:0.071616001 800:0.143233 823:0.086453997 857:0.05714 867:0.093555003 871:0.57293099 872:0.081416003 875:0.05827 882:0.18710899 905:0.077509001 915:0.050783999 926:0.10826 932:0.17290799 934:0.065370001 941:0.093555003 949:0.067215003 951:0.055077001 959:0.086453997 964:0.054129999 987:0.093555003 
-0.041071317140383291 48:0.113554 73:0.141427 131:0.086921997 133:0.089569002 146:0.12909301 220:0.116759 281:0.113554 312:0.162512 330:0.046714999 335:0.141427 370:0.097411998 377:0.141427 390:0.144306 392:0.162512 393:0.12909301 424:0.097411998 458:0.12909301 490:0.227107 513:0.116759 520:0.150178 580:0.116759 588:0.081165001 643:0.150178 651:0.150178 664:0.13463899 686:0.141427 703:0.141427 715:0.120342 769:0.56570798 781:0.141427 800:0.248807 812:0.162512 831:0.141427 857:0.099256001 900:0.086921997 927:0.065837003 928:0.162512 951:0.095673002 964:0.094029002 
-0.050575687577158211 2:0.185064 56:0.161052 106:0.053197 179:0.054772001 229:0.080433004 238:0.147007 260:0.235311 290:0.153322 294:0.171018 328:0.26592201 330:0.106394 377:0.161052 380:0.107077 414:0.161052 423:0.147007 473:0.093644001 481:0.1053 522:0.171018 523:0.153322 566:0.171018 579:0.147007 663:0.153322 687:0.101998 721:0.132961 762:0.077987 769:0.161052 800:0.42500001 882:0.185064 883:0.161052 920:0.153322 932:0.171018 948:0.120223 968:0.29401299 986:0.171018 
-0.035091545235162232 8:0.064990997 15:0.111921 56:0.13556699 78:0.14395601 106:0.089559004 113:0.14395601 166:0.21213999 193:0.101199 203:0.155779 206:0.069921002 209:0.115356 226:0.14395601 253:0.090132996 261:0.476998 266:0.091709003 297:0.119249 304:0.080986999 319:0.129061 328:0.223842 363:0.074034996 366:0.095144004 369:0.123744 380:0.090132996 382:0.123744 420:0.097025998 443:0.14395601 468:0.090132996 492:0.13556699 561:0.14395601 583:0.129061 609:0.13556699 624:0.174429 679:0.093376003 686:0.271135 733:0.115356 747:0.123744 790:0.119249 827:0.271135 857:0.19028801 905:0.129061 909:0.080986999 991:0.10607 
-0.023935037979028472 17:0.084037997 51:0.195381 67:0.28103399 104:0.1461 115:0.134417 118:0.13734899 125:0.16184799 229:0.091891997 236:0.33589801 248:0.156564 255:0.134417 276:0.108424 355:0.140517 363:0.200964 390:0.093870997 394:0.195381 481:0.120301 501:0.11147 508:0.18399601 509:0.195381 533:0.211428 588:0.105596 681:0.116529 686:0.18399601 688:0.098153003 736:0.18399601 805:0.095954001 827:0.18399601 848:0.102956 857:0.25826401 930:0.124471 933:0.156564 951:0.124471 958:0.175165 964:0.122331 975:0.16794901 997:0.11477 
-0.022430823658650127 1:0.39473701 22:0.061165001 41:0.087008998 45:0.078005999 129:0.072076 146:0.074791998 170:0.049640998 200:0.069721997 230:0.074791998 249:0.312022 258:0.069721997 262:0.052712999 286:0.067645997 302:0.085461996 304:0.048948999 316:0.072076 323:0.061165001 336:0.188309 339:0.078005999 371:0.078005999 420:0.058642998 445:0.038894001 468:0.054476999 514:0.051109999 532:0.087008998 554:0.088443004 570:0.074791998 588:0.047024999 629:0.081937999 646:0.058642998 651:0.087008998 664:0.156011 686:0.24581499 717:0.057505999 765:0.087008998 767:0.099280998 771:0.47077301 794:0.094154999 796:0.072076 808:0.054476999 816:0.087008998 821:0.094154999 827:0.32775301 845:0.078005999 850:0.062576003 857:0.115012 877:0.081937999 892:0.087008998 905:0.156011 910:0.087008998 934:0.065788999 948:0.061165001 976:0.174017 
-0.024836593573161741 106:0.062027998 154:0.17141099 172:0.150778 229:0.093786001 247:0.150778 259:0.310067 292:0.39881599 302:0.19586401 328:0.15503301 364:0.16518401 370:0.129345 384:0.19940799 387:0.14341301 390:0.095806003 445:0.089138001 487:0.215786 497:0.12703601 498:0.310067 588:0.215545 686:0.18778799 716:0.17141099 722:0.215786 796:0.16518401 827:0.18778799 849:0.15979099 857:0.13179401 868:0.117135 878:0.15503301 915:0.117135 
-0.037608569116382946 32:0.112964 106:0.111939 135:0.103112 163:0.119954 168:0.112964 179:0.038417999 197:0.080848999 204:0.119954 218:0.099367 241:0.103112 264:0.099367 276:0.066566996 286:0.18652099 293:0.104172 312:0.129806 320:0.099367 345:0.119954 352:0.112964 359:0.082525 360:0.112964 363:0.061691001 390:0.057631999 396:0.099367 397:0.096121997 413:0.090700001 428:0.112964 444:0.151926 445:0.053621002 448:0.112964 475:0.088385001 482:0.41062099 490:0.090700001 497:0.076419003 502:0.119954 505:0.112964 528:0.107542 542:0.086271003 556:0.129806 578:0.099367 583:0.107542 586:0.15283699 621:0.112964 623:0.107542 646:0.080848999 663:0.107542 686:0.338893 711:0.23990799 739:0.093259998 759:0.086271003 797:0.119954 845:0.107542 853:0.103112 857:0.079281002 874:0.112964 875:0.080848999 882:0.25961199 897:0.086271003 927:0.052586999 964:0.075104997 
-0.05656817100960352 8:0.081243001 129:0.149069 159:0.169467 235:0.123803 247:0.136068 254:0.17995401 262:0.109023 272:0.12942199 326:0.169467 337:0.16133399 349:0.379513 382:0.154688 440:0.136068 444:0.075971998 451:0.16133399 475:0.132594 517:0.229285 526:0.17995401 570:0.154688 584:0.118936 617:0.107328 686:0.169467 693:0.17995401 694:0.154688 695:0.279816 781:0.169467 827:0.33893499 857:0.118936 865:0.16133399 873:0.17995401 887:0.101238 912:0.139908 951:0.114642 
-0.02935923410765481 91:0.124161 130:0.16767 248:0.124161 276:0.085983999 302:0.076095 306:0.128352 342:0.124161 360:0.145916 445:0.069261998 514:0.091017 583:0.41673699 602:0.154945 634:0.154945 664:0.13891201 701:0.154945 703:0.145916 705:0.154945 717:0.61444002 724:0.13319001 797:0.154945 810:0.13891201 850:0.111436 904:0.301512 924:0.097012997 
-0.026459737112988581 8:0.11093 60:0.220287 106:0.229294 115:0.16904201 136:0.220287 153:0.245711 166:0.181045 168:0.23139299 193:0.172731 206:0.119345 266:0.156534 273:0.245711 328:0.19103201 330:0.076430999 377:0.23139299 534:0.245711 587:0.245711 611:0.26589099 657:0.15129 666:0.196895 712:0.245711 720:0.172731 815:0.21121299 857:0.162396 926:0.153843 
-0.044663782197816949 8:0.035491001 10:0.078613997 70:0.065122001 151:0.074033 178:0.078613997 185:0.078613997 199:0.074033 201:0.078613997 226:0.31445599 230:0.067575999 240:0.078613997 248:0.125991 253:0.049221002 264:0.065122001 272:0.113078 290:0.070479997 302:0.038608 323:0.055264 330:0.073362 348:0.085070997 352:0.074033 357:0.074033 363:0.040429998 385:0.074033 395:0.065122001 402:0.059441999 420:0.31791401 428:0.074033 429:0.055264 435:0.074033 454:0.078613997 456:0.054083999 461:0.074033 510:0.085070997 517:0.050082002 527:0.06112 535:0.125991 552:0.074033 553:0.296132 572:0.06112 579:0.067575999 581:0.062995002 588:0.042488001 590:0.050082002 594:0.12224 596:0.070479997 617:0.046886999 636:0.085070997 641:0.054083999 672:0.044227 677:0.067575999 687:0.140661 690:0.06112 699:0.065122001 703:0.074033 717:0.155874 718:0.085070997 726:0.074033 748:0.067575999 765:0.15722799 775:0.235842 812:0.085070997 827:0.074033 848:0.041425999 857:0.103916 874:0.074033 916:0.108168 920:0.14095999 945:0.15722799 951:0.050082002 955:0.085070997 960:0.42783901 985:0.054083999 999:0.142883 
-0.024256244322861425 95:0.165225 133:0.104641 177:0.165225 198:0.157295 238:0.30162999 260:0.24140701 276:0.097363003 295:0.157295 302:0.086165003 307:0.175448 312:0.189858 323:0.123337 369:0.150815 370:0.113803 398:0.145337 399:0.157295 402:0.132661 417:0.157295 419:0.189858 488:0.165225 495:0.150815 501:0.100098 505:0.165225 522:0.175448 594:0.136406 673:0.292088 677:0.150815 785:0.140591 791:0.189858 805:0.086165003 857:0.115958 900:0.101548 909:0.098704003 915:0.103061 920:0.31458899 927:0.076915003 969:0.140591 
-0.019643514337373241 31:0.239456 59:0.46921399 110:0.156405 159:0.136112 167:0.115819 179:0.092579998 210:0.136112 220:0.112371 224:0.14453401 231:0.101605 291:0.115819 299:0.112371 335:0.136112 349:0.101605 363:0.074331999 425:0.14453401 435:0.136112 441:0.119728 510:0.156405 531:0.14453401 569:0.119728 572:0.112371 587:0.14453401 664:0.25915799 672:0.081312001 681:0.086203001 687:0.172405 718:0.156405 759:0.103948 777:0.177986 788:0.12957899 812:0.156405 857:0.095526002 867:0.156405 879:0.156405 882:0.156405 892:0.14453401 900:0.083655 917:0.115819 948:0.101605 951:0.092078 960:0.112371 967:0.115819 
-0.03461945013938459 26:0.16177 63:0.100906 133:0.102453 144:0.120759 151:0.16177 162:0.142298 229:0.080792002 296:0.142298 306:0.142298 372:0.295324 389:0.126571 423:0.147662 429:0.120759 445:0.076788001 499:0.13765199 508:0.32354099 549:0.11818 574:0.183322 590:0.109435 593:0.147662 627:0.147662 658:0.16177 659:0.13765199 664:0.154006 677:0.147662 679:0.111424 686:0.32354099 694:0.295324 819:0.109435 827:0.16177 857:0.340601 938:0.154006 
-0.013827009687875806 29:0.20397601 68:0.19209 115:0.14033 116:0.20397601 253:0.127712 258:0.163451 313:0.16896801 325:0.15029401 443:0.20397601 479:0.18287 590:0.12994599 592:0.175337 610:0.158585 623:0.18287 632:0.441457 662:0.18287 666:0.163451 686:0.19209 695:0.158585 726:0.19209 762:0.093015999 808:0.127712 827:0.19209 836:0.12994599 904:0.13230801 943:0.175337 963:0.18287 972:0.19209 979:0.18287 
-0.015390216584272341 8:0.106615 106:0.073458999 139:0.25554901 170:0.13473199 186:0.21171901 270:0.22239301 306:0.19562399 363:0.121451 406:0.236154 435:0.22239301 581:0.189236 603:0.25554901 620:0.22239301 681:0.56338602 691:0.202998 713:0.15318 836:0.150446 856:0.15607999 916:0.162467 943:0.202998 
-0.017024165594483547 48:0.168276 106:0.069227003 179:0.071276002 206:0.108095 225:0.24082901 248:0.17833599 278:0.209582 283:0.222551 323:0.15644901 351:0.209582 397:0.17833599 402:0.168276 455:0.191304 492:0.209582 558:0.199523 589:0.222551 686:0.209582 734:0.168276 769:0.209582 770:0.24082901 817:0.130729 831:0.209582 855:0.26546699 947:0.36871001 953:0.16398001 
-0.017507607320200125 179:0.058972999 193:0.064722002 201:0.184135 206:0.044718001 231:0.064722002 247:0.13923 262:0.055778001 302:0.271294 305:0.158282 306:0.38133201 309:0.050413001 320:0.076265998 330:0.028639 345:0.092068002 360:0.086703002 366:0.060849998 393:0.158282 396:0.076265998 401:0.082540996 423:0.079140998 444:0.116607 445:0.16462199 482:0.052526999 495:0.079140998 515:0.092068002 528:0.082540996 543:0.086703002 569:0.076265998 578:0.228799 594:0.07158 657:0.056688 659:0.073775999 672:0.31077299 677:0.079140998 711:0.092068002 713:0.059719 715:0.073775999 745:0.076265998 774:0.16508301 810:0.16508301 821:0.39851701 851:0.184135 857:0.121699 882:0.099629 909:0.103591 922:0.21473899 926:0.057645001 927:0.040362 974:0.092068002 
-0.014028799311146079 61:0.17381001 210:0.21053199 300:0.21053199 316:0.18519101 342:0.179144 352:0.21053199 369:0.19217101 510:0.24191999 514:0.131322 569:0.18519101 628:0.139974 633:0.200427 671:0.21053199 686:0.21053199 726:0.21053199 743:0.22356001 796:0.18519101 827:0.21053199 954:0.52143103 973:0.17381001 
-0.011719896047370622 18:0.245671 26:0.245671 216:0.282298 224:0.26087299 253:0.16333599 285:0.224246 327:0.245671 330:0.081147999 478:0.282298 599:0.142846 641:0.179473 664:0.23388 672:0.44028601 754:0.26087299 836:0.16619299 857:0.172417 964:0.16333599 983:0.23388 
-0.0042680055319308796 61:0.15486901 106:0.061962999 133:0.118805 143:0.17858601 156:0.187589 228:0.16500901 253:0.12472 302:0.097828001 311:0.21555699 335:0.187589 384:0.19919699 411:0.17858601 440:0.150618 451:0.17858601 456:0.137042 501:0.227293 502:0.19919699 508:0.187589 584:0.13165399 603:0.21555699 672:0.112064 688:0.10007 728:0.187589 743:0.19919699 764:0.16500901 797:0.19919699 805:0.097828001 830:0.21555699 855:0.118805 866:0.17858601 923:0.16500901 929:0.137042 949:0.15486901 953:0.146772 963:0.17858601 970:0.17858601 
-0.011328747498729764 17:0.077287003 34:0.154459 84:0.17968699 104:0.067181997 105:0.17968699 106:0.055893999 138:0.194445 141:0.194445 192:0.154459 248:0.143988 286:0.27940199 298:0.16109399 306:0.148848 402:0.271732 439:0.17968699 509:0.17968699 527:0.13970099 574:0.095880002 686:0.33843201 720:0.12631699 736:0.16921601 742:0.16921601 780:0.16109399 797:0.17968699 848:0.094686002 857:0.118759 864:0.17968699 868:0.211101 882:0.194445 924:0.112505 930:0.114472 948:0.25263399 997:0.105551 
-0.0066764260169411907 8:0.117294 304:0.146163 316:0.21521901 323:0.182641 380:0.16267 468:0.16267 482:0.148228 506:0.21521901 576:0.223331 677:0.223331 686:0.48933899 739:0.40398699 759:0.186854 827:0.24467 888:0.25980899 894:0.24467 927:0.113898 964:0.16267 
-0.0051265309736736016 8:0.055443998 66:0.110102 118:0.086332999 124:0.13289601 179:0.039331999 220:0.095481001 224:0.12281 228:0.101732 231:0.086332999 253:0.076893002 255:0.084489003 276:0.13630299 282:0.13289601 291:0.29523101 303:0.115653 323:0.086332999 328:0.095481001 330:0.038201001 358:0.115653 363:0.063160002 390:0.059004001 420:0.165546 495:0.211134 496:0.098410003 506:0.101732 530:0.090489 546:0.115653 548:0.110102 553:0.115653 588:0.066373996 592:0.105567 641:0.084489003 643:0.12281 650:0.105567 673:0.068150997 686:0.115653 687:0.073246002 695:0.095481001 703:0.115653 713:0.079659998 715:0.098410003 717:0.243503 728:0.115653 734:0.092859998 742:0.115653 745:0.305197 770:0.13289601 805:0.060313001 817:0.072140001 827:0.115653 867:0.13289601 922:0.095481001 923:0.101732 947:0.101732 954:0.095481001 975:0.42226699 985:0.084489003 1000:0.088324003 
-0.001037456407611494 1:0.086115003 17:0.048985999 23:0.214506 28:0.107253 45:0.306315 121:0.107253 139:0.123243 144:0.080062002 170:0.064976998 227:0.123243 245:0.214506 249:0.102105 253:0.071308002 276:0.063201003 281:0.086115003 290:0.20421 293:0.049451999 302:0.111865 306:0.188686 328:0.088545002 330:0.035427 337:0.102105 363:0.058572002 374:0.113889 377:0.107253 402:0.086115003 423:0.19579799 449:0.076761 473:0.062362 526:0.113889 567:0.227779 587:0.113889 590:0.14511 599:0.062362 610:0.088545002 646:0.076761 682:0.123243 686:0.107253 696:0.097898997 719:0.20421 741:0.102105 748:0.097898997 760:0.094342999 785:0.091263004 793:0.102105 797:0.113889 805:0.055932999 827:0.32175899 835:0.113889 836:0.14511 841:0.123243 856:0.075272001 857:0.150544 873:0.227779 927:0.049927998 956:0.113889 998:0.107253 
