SVM-light Version V3.50
0 # kernel type
1 # kernel parameter -d 
1 # kernel parameter -g 
1 # kernel parameter -s 
0 # kernel parameter -r 
EmptyParam # kernel parameter -u 
1000 # highest feature index 
418 # number of training documents 
78 # number of support vectors plus 1 
1.0602551 # threshold b 
-0.048736226959370771 49:0.26440901 80:0.227286 104:0.098858997 202:0.20557 236:0.227286 247:0.199927 335:0.24900199 363:0.13598301 418:0.17475399 456:0.181906 497:0.168446 576:0.227286 688:0.13283101 760:0.438059 887:0.14875101 901:0.23705 909:0.14875101 934:0.199927 938:0.23705 944:0.26440901 948:0.185875 
-0.052711904474039561 10:0.152234 24:0.115108 104:0.056917999 106:0.094708003 131:0.088111997 170:0.086852998 227:0.164737 229:0.071598999 253:0.095316 276:0.16896001 304:0.085643999 312:0.164737 314:0.30446801 328:0.118357 335:0.143363 342:0.121989 355:0.109486 363:0.078291997 373:0.143363 418:0.100615 427:0.152234 447:0.164737 456:0.104733 535:0.121989 554:0.077372 572:0.118357 586:0.096983001 588:0.082277 592:0.13086 612:0.164737 618:0.164737 652:0.121989 666:0.121989 686:0.143363 703:0.143363 732:0.12610701 739:0.118357 753:0.143363 767:0.086852998 787:0.152234 789:0.143363 800:0.252213 808:0.095316 812:0.164737 834:0.143363 870:0.13086 887:0.085643999 897:0.109486 909:0.085643999 917:0.121989 920:0.136482 931:0.136482 934:0.115108 945:0.152234 996:0.152234 999:0.09223 
-0.053375927947689132 104:0.111841 144:0.21028499 170:0.170662 191:0.29913199 205:0.32370001 221:0.281701 240:0.29913199 377:0.281701 456:0.20579401 599:0.16379599 644:0.187291 705:0.29913199 857:0.197704 882:0.32370001 904:0.19403 971:0.232566 985:0.20579401 
-0.096096734867339342 8:0.046702001 104:0.077353999 106:0.032178 133:0.061696999 145:0.111941 154:0.26676399 174:0.223883 179:0.066261001 187:0.097416997 206:0.050244998 224:0.103445 230:0.088921003 253:0.064769 281:0.078217998 293:0.044916999 294:0.103445 316:0.085690998 318:0.136739 323:0.145441 342:0.082892999 419:0.44776499 420:0.069721997 424:0.067098998 435:0.097416997 438:0.223883 472:0.111941 481:0.063694 508:0.097416997 522:0.206891 523:0.092742004 561:0.206891 586:0.065900996 596:0.092742004 651:0.103445 671:0.097416997 681:0.061696999 686:0.19483501 690:0.080425002 706:0.071167 745:0.085690998 762:0.047173001 775:0.103445 780:0.092742004 790:0.085690998 797:0.103445 806:0.088921003 808:0.064769 810:0.092742004 813:0.223883 819:0.065900996 827:0.097416997 845:0.092742004 857:0.136739 863:0.088921003 866:0.092742004 868:0.060764998 882:0.223883 927:0.090699002 929:0.071167 932:0.103445 947:0.085690998 951:0.065900996 
-0.048415030736037985 8:0.1012 57:0.169493 72:0.22416 131:0.129742 153:0.22416 188:0.185688 190:0.17427699 229:0.105427 259:0.17427699 308:0.185688 330:0.069728002 390:0.107698 466:0.169493 530:0.16516601 643:0.22416 736:0.211098 774:0.200966 805:0.220176 846:0.192687 903:0.44832 918:0.42219499 973:0.17427699 
0.99999993212504223 6:0.096730001 11:0.096730001 22:0.062838003 47:0.067589 67:0.064287998 68:0.084179997 83:0.096730001 87:0.38691899 88:0.096730001 106:0.055610999 115:0.061496999 124:0.096730001 131:0.051736999 139:0.096730001 171:0.40069601 190:0.069496997 192:0.076838002 262:0.10831 266:0.056945998 281:0.067589 312:0.096730001 328:0.069496997 337:0.080139004 342:0.14325801 352:0.084179997 385:0.084179997 390:0.042947002 396:0.074046999 412:0.080139004 413:0.067589 430:0.080139004 444:0.037737999 448:0.084179997 477:0.064287998 501:0.050997999 542:0.064287998 581:0.071629003 608:0.080139004 624:0.054155 635:0.19346 657:0.055039 659:0.071629003 666:0.071629003 679:0.057980999 686:0.084179997 705:0.089387998 717:0.059078999 731:0.084179997 767:0.050997999 774:0.080139004 790:0.074046999 793:0.080139004 805:0.087800004 827:0.084179997 846:0.076838002 853:0.076838002 868:0.052508 882:0.48364899 900:0.051736999 925:0.084179997 926:0.111935 932:0.089387998 934:0.067589 952:0.089387998 983:0.080139004 999:0.216621 
0.99999993212504223 60:0.148748 87:0.17954201 106:0.206439 171:0.29749501 266:0.21139801 276:0.092072003 284:0.165915 290:0.148748 301:0.17954201 309:0.090850003 328:0.128994 342:0.132952 351:0.156247 357:0.156247 359:0.114145 363:0.085327998 377:0.156247 452:0.111826 475:0.12225 497:0.105699 514:0.097461 537:0.165915 546:0.156247 591:0.165915 599:0.090850003 657:0.102158 664:0.148748 686:0.156247 688:0.083351001 720:0.116635 721:0.25798699 723:0.165915 736:0.156247 739:0.128994 780:0.148748 789:0.156247 808:0.207763 815:0.14262 882:0.17954201 897:0.119325 926:0.103882 932:0.165915 
0.99999993212504223 56:0.264936 67:0.20233101 102:0.264936 104:0.21037 170:0.160505 171:0.25222 286:0.218724 304:0.15827 316:0.233046 352:0.264936 420:0.189615 456:0.193546 485:0.233046 504:0.17322101 546:0.264936 599:0.154047 658:0.264936 688:0.141331 797:0.28132901 836:0.179225 857:0.185937 
0.99999993212504223 22:0.15658399 83:0.241036 87:0.241036 106:0.20785999 171:0.399389 179:0.071337998 193:0.15658399 262:0.134946 266:0.141901 290:0.19969501 307:0.22274201 308:0.184514 342:0.356978 378:0.20976201 475:0.164121 497:0.141901 583:0.19969501 657:0.13714799 688:0.111899 721:0.17317501 803:0.22274201 813:0.241036 926:0.13946199 999:0.134946 
0.99999993212504223 16:0.145172 77:0.124789 94:0.085276 106:0.135472 171:0.130151 184:0.124789 192:0.124789 197:0.097845003 201:0.145172 226:0.145172 241:0.124789 252:0.136712 259:0.112866 262:0.087950997 274:0.124789 290:0.130151 296:0.120256 308:0.240513 309:0.079492003 342:0.11633 355:0.104407 363:0.14932001 387:0.104407 390:0.069747999 401:0.130151 411:0.130151 434:0.120256 440:0.109768 442:0.124789 475:0.106965 496:0.11633 514:0.085276 523:0.130151 527:0.112866 628:0.090893999 681:0.086583003 688:0.072930001 690:0.112866 742:0.273424 747:0.124789 767:0.082823999 778:0.157095 780:0.130151 797:0.145172 827:0.273424 857:0.095946997 868:0.25582799 882:0.157095 883:0.136712 887:0.081671 909:0.081671 927:0.063642003 932:0.145172 948:0.102053 949:0.112866 951:0.092483997 997:0.085276 999:0.087950997 
-0.3537489647972174 8:0.084509999 94:0.109958 106:0.174683 108:0.12142 117:0.14153901 184:0.160908 193:0.13159101 196:0.155063 266:0.23850501 272:0.134626 342:0.15000001 343:0.160908 351:0.176282 501:0.106797 503:0.167821 521:0.18719 546:0.35256499 574:0.099884003 599:0.1025 657:0.115258 679:0.12142 688:0.094039001 762:0.085362002 806:0.160908 811:0.18719 827:0.176282 828:0.48272499 857:0.123718 900:0.108344 915:0.109958 926:0.117202 949:0.14553399 991:0.137926 997:0.109958 
-0.1297613540304231 26:0.140838 104:0.055916 106:0.232601 131:0.086560003 139:0.161835 219:0.161835 301:0.161835 302:0.14689501 330:0.046519998 342:0.11984 352:0.140838 357:0.140838 362:0.149553 424:0.097006001 471:0.149553 473:0.081890002 483:0.11984 486:0.24777099 509:0.149553 514:0.087848999 581:0.11984 588:0.080826998 599:0.245671 658:0.140838 661:0.161835 671:0.140838 686:0.140838 709:0.128555 726:0.28167599 797:0.149553 827:0.140838 848:0.078806996 853:0.128555 856:0.098843001 857:0.395372 882:0.161835 916:0.102888 971:0.232545 997:0.087848999 
-0.20295186972351945 15:0.090391003 26:0.109489 41:0.116264 47:0.087909997 56:0.109489 77:0.099940002 88:0.251625 94:0.068295002 106:0.14466099 115:0.159972 122:0.109489 148:0.251625 179:0.037236001 183:0.099940002 193:0.081730999 222:0.116264 249:0.104234 253:0.072793998 266:0.14813501 297:0.096309997 302:0.114197 309:0.063662 328:0.090391003 330:0.036164999 337:0.104234 349:0.081730999 377:0.109489 420:0.078360997 423:0.099940002 429:0.081730999 444:0.098168001 457:0.116264 529:0.116264 530:0.085665002 554:0.11818 556:0.12581199 558:0.104234 594:0.090391003 599:0.063662 619:0.116264 646:0.078360997 657:0.14317299 662:0.104234 664:0.20846701 668:0.116264 679:0.075414002 686:0.109489 688:0.058407001 696:0.099940002 720:0.163462 731:0.218977 739:0.18078201 760:0.096309997 783:0.085665002 793:0.104234 805:0.057099 813:0.12581199 857:0.15368301 882:0.251625 900:0.067293003 920:0.104234 926:0.145588 935:0.12581199 949:0.18078201 952:0.116264 966:0.116264 
-0.25568237534179677 17:0.077287003 34:0.154459 84:0.17968699 104:0.067181997 105:0.17968699 106:0.055893999 138:0.194445 141:0.194445 192:0.154459 248:0.143988 286:0.27940199 298:0.16109399 306:0.148848 402:0.271732 439:0.17968699 509:0.17968699 527:0.13970099 574:0.095880002 686:0.33843201 720:0.12631699 736:0.16921601 742:0.16921601 780:0.16109399 797:0.17968699 848:0.094686002 857:0.118759 864:0.17968699 868:0.211101 882:0.194445 924:0.112505 930:0.114472 948:0.25263399 997:0.105551 
-0.0037663357943707012 128:0.463101 179:0.068530001 212:0.213976 214:0.17725199 247:0.32358599 255:0.14721 356:0.55517799 363:0.220091 710:0.23154999 716:0.183934 882:0.23154999 915:0.12569299 924:0.133974 977:0.213976 
0.99999993212504223 22:0.106128 38:0.203504 43:0.163367 47:0.114151 83:0.163367 87:0.32673499 106:0.093920998 133:0.090039998 142:0.142171 144:0.106128 179:0.096701004 184:0.12977199 246:0.163367 291:0.120975 302:0.074143 307:0.150968 308:0.125058 315:0.108576 363:0.15528201 378:0.142171 390:0.072532997 412:0.13534699 466:0.114151 497:0.096176997 590:0.096176997 594:0.117373 599:0.082666002 608:0.13534699 677:0.12977199 678:0.108576 686:0.28434199 688:0.075842001 739:0.117373 742:0.28434199 797:0.150968 803:0.150968 806:0.12977199 808:0.094522998 813:0.163367 819:0.096176997 827:0.142171 857:0.099777997 882:0.163367 887:0.084931999 930:0.096176997 931:0.13534699 948:0.106128 953:0.111237 964:0.094522998 966:0.150968 
-0.32190453297417904 17:0.157289 50:0.26944399 56:0.34437501 106:0.227501 352:0.34437501 357:0.34437501 481:0.225161 686:0.34437501 688:0.183709 691:0.31434199 808:0.22896001 908:0.30292299 999:0.22154699 
-0.12450570715137138 68:0.080605999 79:0.080605999 91:0.068588004 106:0.026625 108:0.055520002 115:0.058885999 117:0.064719997 118:0.060171001 166:0.063066997 179:0.027412999 183:0.073576003 197:0.115379 207:0.25678101 210:0.080605999 228:0.070903003 257:0.085593998 287:0.085593998 290:0.153474 297:0.070903003 299:0.066546001 305:0.073576003 306:0.070903003 311:0.092623003 315:0.061558001 321:0.085593998 323:0.060171001 329:0.080605999 335:0.080605999 356:0.166559 360:0.080605999 366:0.056570999 368:0.080605999 398:0.070903003 412:0.076737002 430:0.076737002 444:0.072270997 445:0.038261 466:0.064719997 475:0.063066997 479:0.230211 481:0.052701999 497:0.054529 502:0.085593998 503:0.076737002 504:0.105404 518:0.085593998 523:0.076737002 542:0.061558001 548:0.153474 554:0.043501999 579:0.073576003 583:0.076737002 609:0.080605999 617:0.05105 629:0.080605999 660:0.092623003 667:0.085593998 673:0.047499001 677:0.073576003 686:0.32242301 690:0.066546001 691:0.073576003 726:0.080605999 733:0.068588004 758:0.085593998 767:0.048833001 797:0.085593998 800:0.070903003 808:0.053591002 813:0.092623003 823:0.085593998 827:0.161212 853:0.073576003 882:0.463117 890:0.171187 902:0.085593998 920:0.076737002 941:0.092623003 949:0.133092 953:0.063066997 991:0.189201 
-0.061569077945522355 18:0.21572401 47:0.173208 104:0.085647002 118:0.161034 179:0.073365003 190:0.17809699 244:0.20536999 302:0.112501 306:0.189758 309:0.125433 328:0.17809699 330:0.071255997 473:0.125433 497:0.145934 546:0.21572401 558:0.20536999 599:0.125433 601:0.247887 686:0.21572401 687:0.136623 721:0.17809699 790:0.189758 808:0.143426 857:0.30279899 882:0.247887 909:0.12887201 915:0.134561 927:0.100424 971:0.35619399 991:0.168786 
-0.077338764254841222 32:0.112964 106:0.111939 135:0.103112 163:0.119954 168:0.112964 179:0.038417999 197:0.080848999 204:0.119954 218:0.099367 241:0.103112 264:0.099367 276:0.066566996 286:0.18652099 293:0.104172 312:0.129806 320:0.099367 345:0.119954 352:0.112964 359:0.082525 360:0.112964 363:0.061691001 390:0.057631999 396:0.099367 397:0.096121997 413:0.090700001 428:0.112964 444:0.151926 445:0.053621002 448:0.112964 475:0.088385001 482:0.41062099 490:0.090700001 497:0.076419003 502:0.119954 505:0.112964 528:0.107542 542:0.086271003 556:0.129806 578:0.099367 583:0.107542 586:0.15283699 621:0.112964 623:0.107542 646:0.080848999 663:0.107542 686:0.338893 711:0.23990799 739:0.093259998 759:0.086271003 797:0.119954 845:0.107542 853:0.103112 857:0.079281002 874:0.112964 875:0.080848999 882:0.25961199 897:0.086271003 927:0.052586999 964:0.075104997 
-0.075594376851946449 104:0.084476002 115:0.155441 133:0.134756 238:0.19421899 253:0.14146499 286:0.175662 352:0.21277501 355:0.162496 384:0.225941 396:0.18716399 444:0.095388003 464:0.225941 475:0.16647799 477:0.162496 504:0.139118 540:0.244498 574:0.120561 590:0.28787899 673:0.125383 677:0.19421899 686:0.21277501 739:0.175662 767:0.128905 859:0.18716399 871:0.18716399 874:0.21277501 882:0.244498 905:0.202563 910:0.225941 
-0.16049887821832862 104:0.118562 330:0.098640002 404:0.34315199 456:0.218161 475:0.233651 590:0.20201799 681:0.18912899 690:0.49308199 737:0.26268399 742:0.29862899 827:0.29862899 920:0.28429601 929:0.218161 973:0.24654099 
-0.30598209225221729 269:0.25192001 270:0.219234 274:0.200115 285:0.200115 293:0.101085 304:0.130969 334:0.163654 342:0.55964601 349:0.163654 446:0.192845 451:0.208712 583:0.208712 679:0.151004 695:0.180995 739:0.180995 767:0.132818 777:0.143341 827:0.219234 848:0.122675 857:0.153863 900:0.13474301 927:0.102058 957:0.219234 
-0.076715125413221202 21:0.40592799 154:0.21061499 236:0.21061499 316:0.20296399 363:0.126008 364:0.20296399 390:0.117718 396:0.20296399 397:0.196337 441:0.20296399 443:0.245015 452:0.165139 512:0.196337 552:0.230738 572:0.19049101 624:0.14844 629:0.230738 665:0.172241 774:0.21966299 796:0.20296399 808:0.15340699 900:0.141813 932:0.245015 
-0.092955202902253425 33:0.17282499 91:0.14705899 106:0.171257 121:0.17282499 206:0.089137003 275:0.126256 293:0.079686999 296:0.152022 308:0.152022 325:0.135221 331:0.17282499 335:0.17282499 355:0.13198601 364:0.152022 390:0.088172004 396:0.152022 432:0.18351901 497:0.116914 579:0.15775301 609:0.17282499 628:0.114904 633:0.16452999 647:0.16452999 664:0.16452999 665:0.12901101 672:0.206488 681:0.109454 688:0.092193998 717:0.121292 740:0.152022 757:0.18351901 764:0.152022 780:0.32905999 805:0.090129003 857:0.121292 868:0.107802 900:0.10622 919:0.15775301 927:0.080453001 945:0.18351901 951:0.116914 961:0.19859201 973:0.14268 
-0.22002408847297866 91:0.407489 106:0.105454 108:0.109949 183:0.145707 197:0.114246 206:0.082331002 286:0.131786 291:0.27165899 297:0.140414 302:0.083246998 305:0.145707 307:0.169506 315:0.121908 328:0.131786 330:0.052726999 378:0.159629 385:0.159629 439:0.169506 465:0.145707 477:0.121908 579:0.145707 594:0.131786 608:0.151967 617:0.101097 644:0.10613 681:0.20219301 686:0.159629 688:0.085155003 696:0.145707 705:0.169506 713:0.109949 720:0.11916 745:0.140414 772:0.112031 803:0.169506 806:0.145707 813:0.183428 827:0.159629 847:0.169506 856:0.112031 948:0.11916 980:0.145707 
-0.019957544082778791 50:0.16714799 72:0.226851 91:0.18178099 94:0.133255 197:0.152897 266:0.144519 291:0.18178099 297:0.18791699 302:0.222819 328:0.176369 363:0.116667 378:0.213632 390:0.108991 607:0.20337801 608:0.20337801 619:0.226851 664:0.20337801 671:0.213632 681:0.135298 688:0.113963 713:0.147145 745:0.18791699 772:0.149931 827:0.427264 857:0.149931 887:0.12762199 948:0.159472 1000:0.16315 
-0.19044557273241541 1:0.26639599 8:0.039765 22:0.061918002 29:0.088078998 45:0.078965001 63:0.051739 66:0.078965001 106:0.027398 131:0.050980002 138:0.095312998 159:0.082947001 166:0.064897999 179:0.056418002 200:0.070579998 206:0.042780999 249:0.23689599 253:0.055148002 258:0.14116 259:0.068479002 280:0.29184899 286:0.068479002 290:0.078965001 304:0.049552001 309:0.048229001 328:0.068479002 330:0.027398 363:0.045297999 375:0.26423699 377:0.082947001 418:0.058214001 436:0.088078998 444:0.037184998 448:0.082947001 463:0.088078998 475:0.064897999 495:0.075713001 501:0.050251 506:0.072962001 509:0.088078998 514:0.103478 517:0.168336 541:0.088078998 544:0.088078998 554:0.044764999 561:0.088078998 572:0.068479002 574:0.046998002 590:0.056111999 610:0.068479002 629:0.082947001 643:0.088078998 657:0.054232001 659:0.14116 664:0.078965001 679:0.057131998 681:0.26266 686:0.082947001 688:0.044248 694:0.075713001 713:0.057131998 719:0.078965001 721:0.20543601 739:0.068479002 749:0.088078998 753:0.082947001 762:0.040165 765:0.088078998 775:0.088078998 797:0.088078998 805:0.086514004 808:0.055148002 827:0.165893 834:0.082947001 857:0.058214001 867:0.095312998 882:0.28593901 887:0.099102996 900:0.050980002 908:0.072962001 930:0.056111999 932:0.088078998 948:0.061918002 975:0.227138 976:0.088078998 978:0.095312998 
-0.24602417511325428 55:0.237983 106:0.27363601 139:0.237983 155:0.151299 170:0.12547 206:0.106818 308:0.18217701 347:0.20710599 355:0.15816601 389:0.16204201 461:0.20710599 497:0.140104 514:0.12918501 535:0.176228 598:0.237983 686:0.41421199 688:0.220963 728:0.20710599 808:0.137696 817:0.12918501 857:0.29070199 919:0.189044 932:0.21992099 
-0.11800707889836298 5:0.14724401 70:0.156884 102:0.178352 104:0.14162 115:0.130294 140:0.18938901 179:0.060656 229:0.089073002 235:0.130294 253:0.118579 254:0.18938901 258:0.15176199 293:0.082235001 309:0.103703 338:0.14724401 342:0.30352399 371:0.169792 380:0.118579 399:0.169792 424:0.122846 429:0.26627401 471:0.18938901 527:0.14724401 569:0.156884 588:0.204714 607:0.169792 657:0.116611 658:0.178352 681:0.112955 709:0.162798 767:0.108051 808:0.237158 855:0.22590999 857:0.12517101 868:0.11125 875:0.127647 971:0.14724401 996:0.18938901 
-0.099713855673636234 22:0.054839998 25:0.084417999 62:0.129244 81:0.084417999 94:0.18329801 96:0.084417999 106:0.121331 156:0.14692999 172:0.058986001 184:0.067057997 193:0.054839998 206:0.037891001 220:0.060651001 229:0.03669 230:0.067057997 253:0.097686999 259:0.121302 262:0.094524004 266:0.049697999 272:0.056104999 290:0.069939002 293:0.067746997 302:0.191561 308:0.193866 316:0.064622 328:0.060651001 330:0.048532002 331:0.073464997 343:0.067057997 351:0.073464997 356:0.151803 373:0.073464997 377:0.073464997 390:0.112441 396:0.064622 397:0.062512003 400:0.139878 411:0.069939002 423:0.13411599 434:0.193866 439:0.156021 441:0.064622 444:0.032933999 445:0.069743 465:0.067057997 466:0.117972 481:0.144099 497:0.049697999 504:0.048032999 517:0.149094 522:0.078010999 524:0.084417999 541:0.078010999 546:0.073464997 551:0.084417999 599:0.042716 657:0.048032999 664:0.20981599 666:0.25004801 677:0.067057997 679:0.101202 680:0.073464997 681:0.093053997 688:0.117571 692:0.058986001 713:0.050601002 717:0.103118 762:0.035574 796:0.064622 800:0.258488 804:0.101202 805:0.038311999 823:0.078010999 842:0.078010999 849:0.062512003 857:0.30935499 863:0.067057997 868:0.045825001 870:0.20117299 872:0.073464997 909:0.043887001 926:0.048843998 927:0.136797 930:0.049697999 949:0.060651001 951:0.049697999 997:0.045825001 
-0.10756363787008774 8:0.11093 60:0.220287 106:0.229294 115:0.16904201 136:0.220287 153:0.245711 166:0.181045 168:0.23139299 193:0.172731 206:0.119345 266:0.156534 273:0.245711 328:0.19103201 330:0.076430999 377:0.23139299 534:0.245711 587:0.245711 611:0.26589099 657:0.15129 666:0.196895 712:0.245711 720:0.172731 815:0.21121299 857:0.162396 926:0.153843 
-0.033489172924207361 179:0.097254999 307:0.303666 421:0.261031 440:0.22961 469:0.303666 499:0.24333601 514:0.178378 554:0.308671 659:0.24333601 664:0.54449099 805:0.14913499 826:0.27224499 909:0.170837 927:0.13312501 
-0.033879947771077265 63:0.115839 100:0.21339799 202:0.153318 229:0.092748001 293:0.085628003 353:0.176797 458:0.169514 482:0.112509 554:0.100226 599:0.107982 692:0.14911 697:0.163357 701:0.39440399 769:0.37142101 785:0.158023 797:0.197202 814:0.197202 827:0.18571 882:0.42679599 911:0.37142101 927:0.086452 
-0.10880369580022722 8:0.117931 80:0.44908601 104:0.097666003 106:0.081254996 135:0.22454301 179:0.083660997 202:0.406178 309:0.14303499 379:0.26121899 477:0.37573501 652:0.20932101 691:0.22454301 797:0.26121899 827:0.245997 882:0.282673 927:0.114516 
-0.080843324226856514 131:0.121555 276:0.116544 296:0.17397 330:0.065327004 353:0.18828399 411:0.37656799 450:0.18828399 482:0.239637 490:0.158797 583:0.18828399 599:0.114997 688:0.105505 691:0.180528 807:0.210014 830:0.227263 832:0.30208299 850:0.151041 857:0.13880301 880:0.18828399 882:0.45452601 989:0.197776 998:0.197776 
-0.10203257413110579 89:0.133021 90:0.14394601 116:0.133021 142:0.125269 155:0.091513999 205:0.14394601 218:0.110191 306:0.220382 313:0.110191 333:0.133021 342:0.106593 349:0.093511 414:0.125269 420:0.089654997 486:0.220382 503:0.119257 644:0.083286002 658:0.501077 679:0.086282998 681:0.158672 684:0.125269 749:0.133021 842:0.133021 875:0.089654997 882:0.43183699 904:0.34513199 943:0.114344 985:0.183029 
-0.10302577350728793 2:0.185064 56:0.161052 106:0.053197 179:0.054772001 229:0.080433004 238:0.147007 260:0.235311 290:0.153322 294:0.171018 328:0.26592201 330:0.106394 377:0.161052 380:0.107077 414:0.161052 423:0.147007 473:0.093644001 481:0.1053 522:0.171018 523:0.153322 566:0.171018 579:0.147007 663:0.153322 687:0.101998 721:0.132961 762:0.077987 769:0.161052 800:0.42500001 882:0.185064 883:0.161052 920:0.153322 932:0.171018 948:0.120223 968:0.29401299 986:0.171018 
-0.14419239781157081 111:0.174225 169:0.136316 201:0.370011 389:0.136316 404:0.20020001 416:0.122274 450:0.16586301 453:0.15903001 475:0.136316 494:0.15903001 610:0.14383601 624:0.112084 630:0.20020001 651:0.18500499 657:0.113912 672:0.10408 686:0.174225 690:0.28767201 737:0.153254 742:0.34845001 743:0.18500499 789:0.174225 826:0.331725 857:0.122274 923:0.153254 926:0.115835 929:0.127278 997:0.108675 
-0.13684947949672194 22:0.157015 38:0.075271003 43:0.12085 47:0.084443003 63:0.065600999 91:0.089489996 97:0.12085 103:0.092510998 106:0.104216 115:0.076830998 187:0.10517 214:0.092510998 218:0.092510998 222:0.111678 231:0.078507997 257:0.111678 262:0.067658998 266:0.071145996 290:0.100122 297:0.092510998 302:0.16453999 309:0.061151002 324:0.12085 330:0.034738999 342:0.089489996 381:0.12085 396:0.092510998 423:0.095997997 429:0.078507997 444:0.094296001 453:0.095997997 465:0.095997997 475:0.082286999 486:0.092510998 501:0.063715003 518:0.111678 544:0.111678 594:0.086825997 608:0.100122 617:0.066606998 619:0.111678 623:0.100122 646:0.15054099 657:0.13752601 671:0.10517 678:0.080317996 681:0.066606998 686:0.10517 687:0.066606998 690:0.086825997 717:0.073811002 724:0.095997997 725:0.12085 767:0.063715003 772:0.14762101 790:0.27753299 797:0.111678 813:0.12085 823:0.111678 828:0.47999099 848:0.058848999 857:0.073811002 869:0.12085 870:0.095997997 882:0.12085 925:0.10517 926:0.139846 934:0.084443003 940:0.100122 975:0.095997997 985:0.076830998 
-0.081343852449880502 63:0.154102 114:0.26234001 247:0.19836199 295:0.235195 302:0.128839 316:0.217315 327:0.247053 363:0.134918 424:0.170165 445:0.117269 584:0.17338599 641:0.360964 671:0.247053 713:0.170165 733:0.21021999 783:0.193297 797:0.26234001 947:0.43463001 953:0.193297 
-0.048191618139659276 56:0.234055 106:0.15462101 117:0.18792599 155:0.170987 193:0.17471801 197:0.167514 206:0.120718 290:0.222821 343:0.213643 349:0.17471801 423:0.213643 497:0.158335 539:0.183128 610:0.19323 624:0.150575 651:0.248538 658:0.234055 668:0.248538 679:0.161213 688:0.124858 743:0.248538 749:0.248538 755:0.222821 827:0.234055 919:0.213643 
-0.041734383008156614 63:0.118692 67:0.145319 117:0.15278099 229:0.095031999 243:0.43730599 266:0.12872399 278:0.190284 290:0.181151 349:0.14204299 381:0.21865299 444:0.170609 464:0.202058 514:0.118692 517:0.25744799 651:0.202058 657:0.124412 687:0.120511 699:0.16737901 743:0.202058 815:0.17368899 827:0.38056701 871:0.16737901 905:0.181151 926:0.12651099 937:0.145319 973:0.157094 
-0.11230017968985889 28:0.39195001 57:0.157351 106:0.129465 108:0.134984 122:0.19597501 166:0.15333401 167:0.166757 179:0.066648997 229:0.097874001 266:0.13257401 281:0.157351 286:0.161792 304:0.117074 420:0.14026 446:0.17238601 482:0.118727 526:0.208102 534:0.208102 564:0.19597501 657:0.128133 687:0.124116 720:0.292584 767:0.118727 780:0.18656901 789:0.19597501 837:0.178884 882:0.22519299 924:0.13029499 926:0.13029499 949:0.161792 973:0.161792 989:0.19597501 
-0.044724561840569513 40:0.17285 42:0.208634 131:0.111591 133:0.114989 179:0.061748002 302:0.094686002 330:0.059971999 385:0.181564 390:0.092629999 410:0.208634 429:0.135534 482:0.109997 506:0.319419 537:0.192799 576:0.16573 677:0.16573 686:0.36312801 721:0.149895 803:0.192799 808:0.120714 831:0.181564 832:0.27732 853:0.16573 882:0.208634 894:0.181564 901:0.17285 927:0.084521003 949:0.149895 969:0.30899 
-0.18806043028974032 5:0.136813 24:0.133058 41:0.087986998 71:0.087986998 94:0.051685002 106:0.054738998 133:0.052476998 140:0.087986998 167:0.070505999 179:0.028179999 183:0.075632997 188:0.072885998 189:0.082859002 230:0.075632997 244:0.078882001 264:0.072885998 280:0.072885998 297:0.072885998 304:0.0495 309:0.048179001 318:0.058152001 342:0.141012 349:0.061852999 353:0.078882001 359:0.121064 363:0.045249999 381:0.095213003 383:0.141012 384:0.087986998 385:0.082859002 389:0.12966099 396:0.072885998 397:0.141012 398:0.072885998 429:0.061852999 440:0.066528998 444:0.037145998 446:0.072885998 471:0.087986998 480:0.072885998 482:0.050198998 503:0.078882001 549:0.121064 554:0.044718001 586:0.056053001 588:0.095106997 594:0.068406999 599:0.048179001 627:0.075632997 662:0.078882001 679:0.057071999 686:0.248578 689:0.072885998 706:0.060532 734:0.066528998 739:0.136813 759:0.063280001 760:0.072885998 767:0.100397 772:0.058152001 808:0.055089999 824:0.082859002 827:0.082859002 853:0.075632997 855:0.052476998 874:0.082859002 882:0.66649002 885:0.070505999 897:0.126559 927:0.038573001 932:0.087986998 934:0.066528998 959:0.087986998 971:0.068406999 992:0.082859002 
-0.062544962722477795 14:0.25692001 16:0.27281699 179:0.087375 293:0.118461 378:0.25692001 387:0.196209 390:0.13107499 393:0.46902701 501:0.15564901 530:0.20101801 574:0.145574 685:0.29522401 692:0.206284 762:0.124409 774:0.244589 823:0.27281699 857:0.18031099 868:0.160257 930:0.173803 934:0.206284 
-0.077053186609965851 50:0.58499199 68:0.186919 92:0.198485 210:0.186919 220:0.15431599 262:0.120251 266:0.12644801 309:0.108684 330:0.061740998 350:0.21478701 560:0.198485 572:0.15431599 608:0.177948 613:0.198485 628:0.124274 664:0.177948 721:0.15431599 763:0.186919 767:0.113241 803:0.198485 843:0.198485 857:0.131184 881:0.198485 887:0.111664 920:0.177948 
-0.075862591286734268 38:0.144278 77:0.184009 101:0.20159 137:0.231645 190:0.166428 192:0.184009 214:0.177325 227:0.231645 245:0.20159 253:0.134028 259:0.166428 292:0.214064 332:0.214064 363:0.110091 364:0.177325 387:0.153954 423:0.184009 456:0.14726999 466:0.16185901 477:0.153954 596:0.19191401 664:0.19191401 665:0.150483 688:0.107539 722:0.231645 743:0.214064 767:0.122129 805:0.10513 857:0.14148 868:0.125744 887:0.120428 909:0.120428 929:0.14726999 975:0.184009 
-0.039883407159435197 104:0.218162 106:0.090751998 190:0.45365199 244:0.26156199 248:0.233787 304:0.164133 309:0.15975299 456:0.200716 497:0.185864 523:0.26156199 599:0.15975299 624:0.176754 687:0.174005 804:0.18924201 853:0.250788 857:0.385649 986:0.29175001 
-0.067478759032068431 106:0.139677 130:0.242956 191:0.224516 304:0.12630799 342:0.179911 351:0.21143299 416:0.148388 468:0.14057299 492:0.21143299 530:0.165428 583:0.201285 590:0.28606299 624:0.136021 664:0.201285 668:0.224516 728:0.21143299 736:0.21143299 739:0.17455401 817:0.13188399 881:0.224516 904:0.145631 913:0.21143299 984:0.42286599 
-0.053321718964056949 60:0.16790999 106:0.058258999 148:0.20267101 155:0.12885 187:0.176376 266:0.119316 313:0.155146 328:0.29122299 337:0.16790999 359:0.12885 366:0.123784 402:0.141614 444:0.079069003 468:0.117264 512:0.15008 514:0.220033 559:0.187289 581:0.15008 635:0.20267101 656:0.155146 657:0.115319 684:0.176376 686:0.176376 738:0.16099399 749:0.187289 767:0.106853 790:0.155146 800:0.155146 804:0.364452 827:0.176376 882:0.20267101 926:0.117264 927:0.082106002 941:0.20267101 
-0.090376159812408069 6:0.238507 106:0.068559997 294:0.220405 330:0.068559997 429:0.15494099 475:0.16239899 482:0.125747 502:0.220405 542:0.15851501 578:0.182578 591:0.220405 644:0.137999 646:0.148552 664:0.19760001 686:0.207562 709:0.18945999 775:0.220405 827:0.207562 830:0.238507 832:0.15851501 882:0.238507 901:0.395199 960:0.171358 997:0.12946901 999:0.267061 
-0.081832232777625663 8:0.079558998 63:0.103517 94:0.103517 106:0.109634 112:0.17622501 145:0.190698 163:0.35245001 179:0.112879 193:0.123883 206:0.085594997 234:0.151483 323:0.123883 330:0.054816999 363:0.090630002 420:0.23755001 438:0.190698 445:0.078775004 468:0.110337 472:0.190698 498:0.274019 501:0.100541 514:0.20703401 521:0.17622501 522:0.17622501 574:0.094033003 599:0.096495003 678:0.12673999 686:0.16595601 688:0.088529997 725:0.190698 795:0.190698 827:0.33191201 857:0.116471 882:0.190698 917:0.141214 964:0.110337 999:0.106764 
-0.062642522389183053 14:0.21082 21:0.185444 25:0.24225099 38:0.150884 65:0.21082 66:0.200701 94:0.131501 131:0.12957101 177:0.21082 253:0.140165 302:0.109943 312:0.24225099 313:0.185444 330:0.069636002 331:0.21082 356:0.145208 380:0.140165 439:0.223865 497:0.142617 539:0.164948 572:0.17404801 584:0.147957 599:0.122581 624:0.135627 738:0.192434 797:0.223865 812:0.24225099 848:0.117966 882:0.24225099 963:0.200701 964:0.140165 
-0.072257429136806009 34:0.17424101 47:0.15326799 62:0.16791201 67:0.14578199 125:0.16791201 192:0.17424101 217:0.202701 235:0.13945299 236:0.17424101 248:0.32485899 276:0.112486 282:0.219349 286:0.157594 302:0.099549003 363:0.104247 390:0.097387999 402:0.15326799 427:0.202701 452:0.13662 473:0.110993 537:0.202701 546:0.190889 588:0.109552 612:0.219349 681:0.120895 760:0.16791201 805:0.099549003 808:0.12691399 811:0.202701 816:0.202701 871:0.16791201 915:0.11907 930:0.129134 951:0.129134 973:0.157594 982:0.202701 
-0.066866040814367325 14:0.068020001 15:0.056155998 16:0.072228998 22:0.050776001 47:0.054614 94:0.25457099 106:0.17974199 133:0.086158 139:0.078161001 144:0.050776001 149:0.068020001 159:0.068020001 170:0.041209001 180:0.144458 197:0.048682 209:0.115758 220:0.056155998 229:0.067942001 241:0.062088002 253:0.090447001 255:0.049692001 262:0.043759 275:0.049692001 276:0.040082999 278:0.068020001 293:0.125452 296:0.059833001 297:0.059833001 301:0.078161001 302:0.035473 305:0.124176 306:0.119666 308:0.119666 328:0.056155998 330:0.022468001 349:0.050776001 355:0.051947001 390:0.104108 397:0.057879001 402:0.054614 412:0.064755999 416:0.047738001 434:0.179498 444:0.121974 445:0.096862003 459:0.115758 497:0.046015002 499:0.057879001 504:0.044473 514:0.042428002 517:0.092030004 524:0.078161001 527:0.056155998 541:0.072228998 546:0.068020001 552:0.204061 553:0.068020001 561:0.144458 574:0.077082001 579:0.124176 588:0.039037 605:0.072228998 628:0.180895 633:0.064755999 640:0.064755999 641:0.049692001 644:0.045224 649:0.064755999 664:0.129511 672:0.081269003 673:0.040082999 679:0.093702003 686:0.204061 688:0.036286 690:0.056155998 692:0.109229 705:0.072228998 717:0.047738001 772:0.095476002 789:0.068020001 790:0.059833001 797:0.072228998 805:0.035473 812:0.078161001 827:0.068020001 853:0.062088002 857:0.047738001 865:0.064755999 882:0.078161001 897:0.051947001 900:0.083612002 909:0.121904 915:0.042428002 919:0.43461701 922:0.056155998 927:0.094994001 932:0.144458 940:0.129511 951:0.046015002 964:0.045224 972:0.068020001 973:0.056155998 997:0.042428002 
-0.041711705456934964 8:0.044238999 22:0.068885997 28:0.092280999 88:0.21207701 94:0.172683 106:0.060961999 108:0.063561 111:0.092280999 133:0.058442999 166:0.072200999 170:0.055906001 179:0.031383999 197:0.066045001 226:0.195981 293:0.042548999 301:0.106039 302:0.048124999 304:0.055128001 309:0.053656999 316:0.081173003 330:0.060961999 349:0.068885997 352:0.092280999 390:0.047079999 434:0.081173003 440:0.074092999 461:0.092280999 476:0.42415401 497:0.062426001 558:0.087851003 565:0.21207701 581:0.078521997 594:0.076185003 660:0.106039 664:0.087851003 686:0.184561 688:0.049228001 696:0.084233001 717:0.25905699 736:0.184561 760:0.16234601 778:0.106039 813:0.106039 827:0.184561 844:0.097990997 847:0.097990997 856:0.32382199 870:0.084233001 927:0.214791 930:0.062426001 934:0.074092999 935:0.21207701 966:0.097990997 973:0.076185003 980:0.168465 
-0.024331563305472904 8:0.103928 22:0.080913998 106:0.071607001 108:0.074658997 197:0.077577002 200:0.092233002 234:0.09894 241:0.09894 255:0.079186 262:0.069733001 276:0.063873999 293:0.049977999 302:0.056527998 308:0.095345996 330:0.10741 342:0.092233002 349:0.080913998 352:0.108394 390:0.055300001 391:0.37366199 412:0.103191 420:0.077577002 465:0.09894 471:0.115101 476:0.62277001 502:0.115101 559:0.115101 564:0.108394 565:0.124554 620:0.108394 623:0.20638201 647:0.103191 655:0.09894 664:0.103191 678:0.082780004 679:0.074658997 688:0.057822999 691:0.09894 696:0.197881 703:0.108394 720:0.080913998 765:0.115101 827:0.108394 856:0.228218 
-0.07508312664500244 63:0.080610998 161:0.123031 179:0.043951001 229:0.064542003 238:0.117963 293:0.059588 298:0.24606299 330:0.042686999 352:0.129234 377:0.387703 378:0.258468 380:0.085922003 430:0.123031 455:0.117963 458:0.471854 475:0.101115 477:0.098696001 528:0.123031 554:0.139493 578:0.113678 590:0.087425001 599:0.075143002 617:0.081846997 649:0.123031 701:0.13723101 762:0.062579997 769:0.258468 802:0.27446201 850:0.098696001 857:0.090699002 882:0.297003 912:0.106693 927:0.120322 
-0.059986717226273897 8:0.106601 106:0.073449001 109:0.25551701 184:0.20297199 237:0.23612399 357:0.22236399 398:0.195599 446:0.195599 599:0.12929399 686:0.444729 688:0.118621 736:0.22236399 769:0.22236399 797:0.23612399 804:0.30632001 808:0.14783999 812:0.25551701 853:0.20297199 857:0.15606 882:0.25551701 
-0.034007723731986718 147:0.16760799 160:0.192597 276:0.098766997 286:0.138373 326:0.50282502 336:0.192597 340:0.192597 373:0.16760799 377:0.16760799 451:0.159564 501:0.20308299 642:0.29486701 658:0.16760799 734:0.13457499 769:0.16760799 781:0.16760799 817:0.104548 857:0.23526201 882:0.385194 932:0.17797901 969:0.142619 
-0.035142920888699518 8:0.056508999 22:0.087990999 33:0.117874 47:0.094642997 60:0.112216 81:0.13544799 94:0.073524997 106:0.038934998 179:0.040088002 197:0.084362999 229:0.058869001 245:0.117874 262:0.075832002 268:0.224433 293:0.05435 301:0.13544799 302:0.061471999 309:0.068538003 317:0.117874 330:0.038934998 341:0.112216 356:0.081188999 360:0.117874 390:0.060137 397:0.2006 445:0.055950999 449:0.084362999 513:0.097314 515:0.125168 517:0.079740003 525:0.117874 526:0.375503 528:0.112216 546:0.117874 554:0.063615002 574:0.066789001 599:0.068538003 603:0.13544799 623:0.112216 624:0.075832002 629:0.117874 631:0.112216 641:0.086112 644:0.078368999 647:0.112216 652:0.1003 657:0.077068999 659:0.2006 664:0.112216 678:0.090020001 679:0.162378 705:0.125168 743:0.125168 790:0.103686 818:0.13544799 827:0.23574799 857:0.082726002 863:0.107594 882:0.13544799 897:0.090020001 905:0.112216 909:0.21125101 910:0.125168 923:0.103686 926:0.078368999 927:0.109745 934:0.094642997 948:0.087990999 950:0.125168 
-0.024460674759699465 22:0.08066 45:0.102867 74:0.229479 91:0.091944002 249:0.30860099 258:0.091944002 266:0.073096 290:0.102867 302:0.05635 330:0.035691001 349:0.08066 354:0.19725899 409:0.124163 413:0.17351501 420:0.077334002 444:0.096881002 445:0.051290002 500:0.114739 503:0.102867 529:0.114739 581:0.183887 594:0.089206003 650:0.098630004 659:0.183887 662:0.102867 664:0.102867 682:0.124163 686:0.108053 703:0.108053 706:0.078937002 731:0.108053 745:0.095046997 765:0.114739 772:0.075833999 789:0.108053 790:0.19009399 793:0.102867 801:0.124163 803:0.114739 841:0.37248799 842:0.114739 855:0.068433002 856:0.075833999 878:0.089206003 882:0.248326 890:0.114739 916:0.078937002 926:0.071840003 927:0.150902 954:0.267618 968:0.098630004 976:0.114739 
-0.030937410198819935 9:0.156183 15:0.242854 63:0.091743998 104:0.175184 131:0.090397999 193:0.109794 220:0.121427 230:0.13425399 259:0.242854 301:0.16901 306:0.12937801 351:0.147082 352:0.147082 370:0.101307 396:0.12937801 449:0.31580001 455:0.13425399 459:0.12515301 466:0.118094 468:0.097787999 471:0.156183 486:0.12937801 508:0.147082 509:0.156183 567:0.156183 586:0.099499002 599:0.085520998 673:0.086671002 686:0.147082 689:0.12937801 696:0.13425399 706:0.107449 736:0.147082 748:0.268509 777:0.192331 797:0.156183 817:0.091743998 819:0.099499002 855:0.093149997 870:0.13425399 882:0.16901 909:0.087865002 970:0.14002199 982:0.156183 997:0.091743998 
-0.020045156088295615 57:0.29411101 62:0.32221299 67:0.279746 107:0.34872299 210:0.36630401 390:0.18688101 539:0.28660101 715:0.311692 767:0.221917 878:0.302412 930:0.24779999 964:0.24354 
-0.031095126070539773 4:0.116479 12:0.252092 22:0.081882998 94:0.068421997 106:0.072465003 179:0.037305001 187:0.219384 196:0.096487999 230:0.100125 253:0.145859 262:0.14113601 286:0.090558998 302:0.228818 307:0.116479 311:0.126046 330:0.072465003 337:0.104427 363:0.059904002 399:0.104427 444:0.049175002 445:0.104135 470:0.116479 473:0.063781001 480:0.096487999 481:0.071718998 498:0.090558998 501:0.066454001 508:0.109692 525:0.109692 526:0.116479 584:0.076984003 622:0.126046 635:0.252092 658:0.109692 661:0.126046 664:0.208854 677:0.100125 704:0.116479 727:0.219384 754:0.116479 780:0.104427 800:0.38595399 804:0.302214 815:0.100125 819:0.074205004 827:0.109692 848:0.061379001 856:0.15396801 948:0.163766 997:0.068421997 
-0.021802419164026761 104:0.069066003 168:0.17396 194:0.165611 220:0.143617 235:0.25417 238:0.15878899 248:0.14802399 262:0.223827 290:0.165611 294:0.184724 307:0.184724 338:0.143617 362:0.184724 514:0.10851 538:0.165611 579:0.15878899 590:0.117682 603:0.19989599 628:0.115658 634:0.184724 641:0.127085 658:0.17396 684:0.17396 686:0.17396 697:0.306041 776:0.19989599 806:0.15878899 836:0.117682 842:0.184724 848:0.097341001 857:0.244177 904:0.11982 915:0.10851 923:0.15302099 927:0.080982 
-0.015416972254929195 10:0.161872 46:0.15244 57:0.122396 67:0.23283599 70:0.134091 77:0.139145 94:0.095086001 104:0.24208701 220:0.12585101 227:0.17516699 236:0.139145 245:0.30487901 305:0.139145 355:0.116418 359:0.111364 363:0.083249003 389:0.119271 390:0.077771999 402:0.122396 455:0.139145 456:0.111364 574:0.086374 588:0.087485999 628:0.101351 658:0.30487901 671:0.15244 681:0.096543998 688:0.081320003 692:0.122396 699:0.134091 786:0.161872 808:0.101351 842:0.161872 861:0.15244 866:0.145123 874:0.15244 875:0.109101 880:0.145123 915:0.095086001 919:0.27829 933:0.129712 951:0.103123 961:0.17516699 
-0.010953994154669123 91:0.124161 130:0.16767 248:0.124161 276:0.085983999 302:0.076095 306:0.128352 342:0.124161 360:0.145916 445:0.069261998 514:0.091017 583:0.41673699 602:0.154945 634:0.154945 664:0.13891201 701:0.154945 703:0.145916 705:0.154945 717:0.61444002 724:0.13319001 797:0.154945 810:0.13891201 850:0.111436 904:0.301512 924:0.097012997 
-0.0034897657949871479 6:0.085860997 8:0.071641997 22:0.055778001 31:0.065727003 34:0.068204001 79:0.074721001 106:0.049362 149:0.074721001 151:0.074721001 159:0.44832301 179:0.025412001 193:0.055778001 245:0.074721001 247:0.059994001 250:0.068204001 260:0.16375899 262:0.048069999 276:0.088062003 277:0.079343997 284:0.079343997 296:0.065727003 318:0.36708301 323:0.055778001 355:0.057064001 363:0.040805999 380:0.049678002 397:0.063579999 414:0.074721001 419:0.085860997 445:0.070936002 495:0.068204001 504:0.24427 514:0.046608001 523:0.071134001 561:0.079343997 584:0.052439999 593:0.068204001 614:0.44506299 620:0.074721001 621:0.074721001 659:0.063579999 664:0.142268 673:0.044031002 681:0.141967 686:0.074721001 687:0.047322001 688:0.039859999 690:0.061687 691:0.068204001 712:0.079343997 728:0.074721001 738:0.068204001 745:0.065727003 762:0.036182001 777:0.048854001 789:0.074721001 827:0.149441 857:0.104881 887:0.044636998 897:0.057064001 910:0.079343997 932:0.079343997 933:0.063579999 951:0.25273699 956:0.079343997 999:0.048069999 
-0.0054306822722184614 67:0.139108 77:0.166265 104:0.14463601 150:0.166265 193:0.13597199 229:0.090970002 245:0.182151 266:0.123223 295:0.173408 359:0.13306899 363:0.099474996 394:0.38684401 402:0.292503 422:0.209308 424:0.125462 452:0.130366 481:0.119095 514:0.113619 582:0.209308 588:0.104537 751:0.209308 767:0.110352 784:0.182151 796:0.160226 812:0.209308 817:0.113619 827:0.182151 871:0.32045099 915:0.113619 945:0.193422 953:0.142517 
-0.005972324589150123 46:0.32171199 51:0.34161901 79:0.32171199 104:0.127727 106:0.106265 169:0.25171199 506:0.28298801 687:0.203748 699:0.28298801 767:0.194902 882:0.36967599 933:0.27374801 958:0.30627099 997:0.200672 
-0.0032599209667210022 22:0.099436 179:0.045302 238:0.121589 260:0.29193699 262:0.085694999 266:0.090112001 299:0.109971 307:0.282897 328:0.109971 330:0.087998003 370:0.091748998 384:0.14144801 402:0.106953 405:0.153065 413:0.21390501 423:0.121589 430:0.126812 495:0.121589 496:0.113346 576:0.121589 581:0.113346 651:0.14144801 657:0.087093003 663:0.126812 686:0.13320599 713:0.091748998 717:0.093486004 762:0.129005 769:0.13320599 791:0.153065 800:0.23434401 857:0.093486004 894:0.13320599 926:0.088563003 927:0.062010001 969:0.56673098 995:0.121589 
-0.0016623610973744013 63:0.081014998 179:0.044171002 200:0.110518 229:0.064865999 230:0.118554 247:0.104284 297:0.114248 302:0.067734003 328:0.32168201 330:0.042900998 342:0.110518 351:0.12988199 421:0.118554 458:0.118554 469:0.13791899 554:0.070096001 566:0.13791899 700:0.13791899 711:0.13791899 713:0.17892 748:0.47421801 773:0.55167401 790:0.114248 797:0.13791899 850:0.099189997 875:0.092956997 881:0.13791899 882:0.14924601 910:0.13791899 911:0.12988199 
-0.00082956598414466571 17:0.080748998 38:0.126533 46:0.17679501 57:0.14195099 67:0.13501801 91:0.150437 103:0.155515 104:0.14038301 162:0.155515 245:0.17679501 248:0.150437 293:0.16303401 330:0.058396999 420:0.126533 453:0.161376 465:0.161376 503:0.16831 519:0.18773501 562:0.203154 584:0.124078 657:0.231186 664:0.16831 673:0.104181 678:0.13501801 699:0.155515 720:0.131974 732:0.155515 745:0.155515 820:0.17679501 836:0.119599 926:0.117543 933:0.150437 958:0.16831 966:0.37547001 980:0.161376 985:0.25831199 
-0.00074262482906011429 8:0.084059 49:0.18619099 63:0.109371 85:0.201483 95:0.175341 179:0.059632 190:0.144757 194:0.166926 298:0.166926 304:0.104747 318:0.123058 323:0.130889 355:0.133908 445:0.16645899 451:0.166926 466:0.140784 504:0.114642 514:0.109371 523:0.166926 588:0.100629 592:0.16004901 625:0.16004901 629:0.175341 663:0.33385101 688:0.093537003 691:0.16004901 762:0.084905997 777:0.114642 784:0.175341 797:0.18619099 800:0.154236 819:0.118616 827:0.175341 857:0.123058 865:0.166926 880:0.166926 882:0.201483 887:0.104747 945:0.18619099 947:0.154236 951:0.118616 1000:0.133908 
