SVM-light Version V3.50
0 # kernel type
1 # kernel parameter -d 
1 # kernel parameter -g 
1 # kernel parameter -s 
0 # kernel parameter -r 
EmptyParam # kernel parameter -u 
1000 # highest feature index 
418 # number of training documents 
124 # number of support vectors plus 1 
0.94388979 # threshold b 
-0.08192335846085752 35:0.17885099 48:0.270468 104:0.13373999 155:0.123045 300:0.168429 314:0.17885099 325:0.131781 396:0.148156 414:0.168429 425:0.17885099 468:0.111981 486:0.148156 519:0.17885099 538:0.32069099 571:0.357703 656:0.148156 673:0.099251002 679:0.116011 690:0.13905101 713:0.116011 730:0.168429 749:0.17885099 783:0.131781 855:0.21334 882:0.19354001 916:0.123045 927:0.078406997 932:0.357703 937:0.128629 
-0.0084657649473155808 10:0.152234 24:0.115108 104:0.056917999 106:0.094708003 131:0.088111997 170:0.086852998 227:0.164737 229:0.071598999 253:0.095316 276:0.16896001 304:0.085643999 312:0.164737 314:0.30446801 328:0.118357 335:0.143363 342:0.121989 355:0.109486 363:0.078291997 373:0.143363 418:0.100615 427:0.152234 447:0.164737 456:0.104733 535:0.121989 554:0.077372 572:0.118357 586:0.096983001 588:0.082277 592:0.13086 612:0.164737 618:0.164737 652:0.121989 666:0.121989 686:0.143363 703:0.143363 732:0.12610701 739:0.118357 753:0.143363 767:0.086852998 787:0.152234 789:0.143363 800:0.252213 808:0.095316 812:0.164737 834:0.143363 870:0.13086 887:0.085643999 897:0.109486 909:0.085643999 917:0.121989 920:0.136482 931:0.136482 934:0.115108 945:0.152234 996:0.152234 999:0.09223 
-0.064184222132417659 38:0.12561101 80:0.160201 94:0.109475 135:0.480602 179:0.119376 202:0.28978899 287:0.18636701 309:0.204098 318:0.123174 417:0.167083 430:0.167083 431:0.15438201 537:0.18636701 607:0.334167 666:0.149341 759:0.13403399 805:0.091527 819:0.118728 827:0.17550699 846:0.160201 857:0.123174 882:0.201673 900:0.107868 917:0.29868099 927:0.081702001 948:0.13101301 
0.55213954403989118 58:0.103679 113:0.103679 205:0.112194 256:0.112194 276:0.057535 287:0.103679 311:0.112194 321:0.103679 335:0.097636998 359:0.071327999 363:0.106642 374:0.207357 384:0.103679 404:0.112194 416:0.068524003 420:0.069879003 423:0.089121997 440:0.078394003 444:0.087541997 445:0.046346001 446:0.085885003 479:0.092951 494:0.62385398 499:0.083080001 517:0.1321 523:0.092951 578:0.085885003 583:0.092951 594:0.16121399 629:0.097636998 632:0.112194 650:0.089121997 660:0.112194 664:0.092951 672:0.058327999 681:0.061836001 686:0.195274 687:0.061836001 739:0.080606997 745:0.085885003 775:0.207357 783:0.076393001 790:0.17176899 817:0.121805 855:0.061836001 882:0.112194 884:0.17824399 890:0.103679 900:0.120017 916:0.071327999 943:0.089121997 973:0.080606997 992:0.097636998 
-0.087093858903489973 8:0.048043001 48:0.241392 56:0.100215 106:0.033101998 117:0.080463998 124:0.115156 135:0.091475002 179:0.034081999 194:0.095404997 260:0.146422 286:0.082735002 351:0.20043001 375:0.53207999 468:0.066629 483:0.085274003 496:0.085274003 517:0.067794003 527:0.082735002 541:0.106416 552:0.100215 570:0.091475002 617:0.063468002 644:0.066629 672:0.059868 686:0.20043001 703:0.100215 705:0.106416 713:0.069026001 769:0.30064499 784:0.100215 799:0.50107503 805:0.104525 827:0.100215 857:0.070332997 900:0.061593 985:0.073210999 994:0.115156 
0.99999993212504223 141:0.595833 170:0.157069 292:0.27530599 349:0.193535 376:0.25926301 414:0.25926301 494:0.236652 599:0.150749 688:0.13830499 811:0.27530599 829:0.27530599 875:0.185555 882:0.297916 
0.99999993212504223 105:0.156556 127:0.169414 152:0.156556 192:0.13457499 210:0.147433 224:0.156556 229:0.14726301 311:0.338828 330:0.048698999 348:0.169414 363:0.080514997 384:0.156556 404:0.169414 435:0.147433 441:0.129687 481:0.096395001 485:0.25937399 495:0.13457499 550:0.147433 630:0.338828 643:0.156556 664:0.140357 673:0.086879 701:0.156556 703:0.147433 736:0.147433 740:0.129687 818:0.169414 827:0.44229999 
0.99999993212504223 17:0.056993 81:0.14338601 106:0.041216999 151:0.124782 201:0.132504 235:0.091159001 248:0.106178 292:0.39751101 294:0.132504 309:0.072554998 348:0.14338601 351:0.24956401 364:0.109762 384:0.39751101 389:0.097631 430:0.118793 435:0.124782 442:0.1139 480:0.109762 481:0.16317099 501:0.075597003 552:0.124782 590:0.084412999 629:0.24956401 657:0.081586003 686:0.374347 705:0.132504 738:0.1139 748:0.1139 817:0.077834003 818:0.14338601 825:0.118793 866:0.118793 881:0.132504 920:0.118793 963:0.118793 992:0.124782 
0.99999993212504223 94:0.134124 275:0.31416801 325:0.168238 330:0.071024001 366:0.15090799 404:0.247082 444:0.096395999 445:0.102066 494:0.196271 513:0.17751899 599:0.125026 623:0.204704 624:0.27666199 651:0.228329 652:0.18296599 665:0.160511 672:0.128453 703:0.21502399 705:0.228329 743:0.228329 805:0.112136 900:0.39646599 909:0.128453 920:0.204704 923:0.189142 
-0.27702028002641699 65:0.28682199 229:0.143245 253:0.190695 294:0.30456999 320:0.25229701 328:0.236793 549:0.209535 554:0.61917901 863:0.26180699 882:0.329584 929:0.209535 
-0.32415072942284162 106:0.062027998 154:0.17141099 172:0.150778 229:0.093786001 247:0.150778 259:0.310067 292:0.39881599 302:0.19586401 328:0.15503301 364:0.16518401 370:0.129345 384:0.19940799 387:0.14341301 390:0.095806003 445:0.089138001 487:0.215786 497:0.12703601 498:0.310067 588:0.215545 686:0.18778799 716:0.17141099 722:0.215786 796:0.16518401 827:0.18778799 849:0.15979099 857:0.13179401 868:0.117135 878:0.15503301 915:0.117135 
-0.38586519748378267 39:0.29972401 57:0.209429 72:0.27697599 192:0.238088 210:0.26083601 292:0.27697599 380:0.173418 390:0.133073 393:0.238088 475:0.204081 481:0.170541 552:0.26083601 590:0.176452 664:0.248317 722:0.29972401 929:0.190551 933:0.221948 982:0.27697599 
-0.17444757404973041 18:0.26609701 26:0.133048 121:0.133048 144:0.099317998 196:0.117034 253:0.088458002 302:0.069385 306:0.117034 316:0.23406699 319:0.126663 320:0.117034 325:0.104099 328:0.109842 330:0.043947 331:0.133048 355:0.203218 364:0.117034 430:0.126663 431:0.117034 435:0.26609701 444:0.059645999 550:0.133048 557:0.121445 574:0.075387001 579:0.121445 624:0.085593998 644:0.088458002 659:0.113212 666:0.113212 668:0.14128099 670:0.14128099 672:0.31792799 686:0.26609701 705:0.282563 805:0.069385 811:0.14128099 827:0.133048 850:0.101609 900:0.081772998 920:0.126663 922:0.109842 923:0.117034 932:0.14128099 936:0.152885 964:0.088458002 974:0.14128099 
-0.14118066670421936 41:0.15279 134:0.13698 146:0.131338 147:0.143886 161:0.13698 179:0.048934001 198:0.13698 201:0.15279 287:0.15279 293:0.132687 302:0.15007401 306:0.12656701 309:0.083663002 310:0.13698 330:0.047527 351:0.143886 390:0.073408 393:0.131338 397:0.122434 418:0.100982 423:0.131338 440:0.115528 444:0.064503998 489:0.16533799 496:0.122434 513:0.118789 599:0.083663002 610:0.118789 624:0.092565998 642:0.25313401 664:0.27396101 670:0.15279 672:0.343826 686:0.28777301 692:0.115528 715:0.122434 724:0.131338 774:0.13698 827:0.143886 851:0.15279 896:0.15279 900:0.088434003 909:0.085956 922:0.118789 924:0.095664002 927:0.066982001 937:0.109886 951:0.097337 
-0.17583827399694998 215:0.193553 228:0.193553 261:0.193553 291:0.187233 356:0.30311701 445:0.208892 467:0.20947801 502:0.23365401 513:0.181659 624:0.283115 633:0.20947801 641:0.16074701 672:0.262898 686:0.220039 754:0.23365401 827:0.220039 915:0.27450401 923:0.193553 927:0.102432 929:0.16074701 954:0.181659 973:0.181659 
0.99999993212504223 116:0.293506 146:0.25229701 276:0.16287699 283:0.293506 293:0.127445 294:0.293506 304:0.165121 328:0.228191 494:0.25229701 527:0.228191 686:0.27640301 762:0.133843 810:0.263136 884:0.25229701 924:0.183768 927:0.12867001 988:0.293506 989:0.27640301 
0.99999993212504223 104:0.075698003 151:0.19066601 245:0.57199699 253:0.126765 302:0.099432997 349:0.14232799 363:0.104125 364:0.167715 397:0.162239 402:0.153088 494:0.17403699 536:0.219092 603:0.219092 665:0.14232799 673:0.224709 688:0.101712 717:0.26762599 965:0.43818399 973:0.157409 
0.99999993212504223 294:0.27129301 298:0.243221 328:0.210921 330:0.084389001 366:0.179304 428:0.25548401 443:0.27129301 494:0.233202 590:0.345662 594:0.210921 631:0.243221 673:0.15054999 686:0.25548401 748:0.233202 762:0.123714 848:0.142958 917:0.43478701 
0.99999993212504223 104:0.118562 330:0.098640002 404:0.34315199 456:0.218161 475:0.233651 590:0.20201799 681:0.18912899 690:0.49308199 737:0.26268399 742:0.29862899 827:0.29862899 920:0.28429601 929:0.218161 973:0.24654099 
0.99999993212504223 132:0.154149 141:0.16680899 170:0.087945998 221:0.14516599 253:0.096515 292:0.154149 294:0.154149 300:0.14516599 328:0.119846 330:0.04795 349:0.108364 351:0.58066398 374:0.154149 387:0.221726 414:0.29033199 481:0.094912998 485:0.127693 494:0.132506 514:0.090549 686:0.29033199 749:0.154149 789:0.14516599 840:0.138199 882:0.16680899 917:0.123523 929:0.10605 949:0.119846 965:0.16680899 973:0.119846 999:0.093390003 
-0.19504092346176147 1:0.42207399 17:0.060024001 74:0.139551 131:0.080770999 170:0.159235 179:0.044693999 193:0.098102003 200:0.111826 245:0.131419 249:0.25022399 280:0.115601 294:0.139551 297:0.115601 330:0.043409001 339:0.125112 342:0.111826 359:0.096006997 414:0.131419 416:0.092233002 455:0.119958 466:0.105519 514:0.081974998 526:0.139551 543:0.131419 554:0.14185201 579:0.119958 591:0.139551 646:0.094057001 673:0.077441998 686:0.131419 713:0.18103801 719:0.125112 736:0.131419 783:0.102824 790:0.115601 827:0.131419 836:0.177807 875:0.094057001 882:0.302026 910:0.139551 917:0.111826 924:0.087375 937:0.100365 973:0.108497 975:0.239916 976:0.139551 996:0.139551 
-0.3346932602137036 5:0.1095 17:0.020192999 18:0.044211 106:0.014603 108:0.030452 116:0.046946999 123:0.046946999 131:0.027172999 167:0.037620001 169:0.034591999 179:0.045107 200:0.15048 205:0.050802998 206:0.022802999 212:0.046946999 231:0.066005997 238:0.161422 247:0.035498001 251:0.044211 258:0.037620001 265:0.037620001 293:0.020385001 294:0.14084101 297:0.350007 298:0.042089 302:0.046112999 306:0.077779002 309:0.025707001 328:0.36499801 339:0.126268 351:0.221057 363:0.024143999 377:0.044211 380:0.029394001 383:0.075240001 384:0.046946999 389:0.069182999 396:0.03889 402:0.070996001 420:0.031642001 423:0.040355999 425:0.093893997 428:0.132634 429:0.033002999 440:0.035498001 444:0.019819999 451:0.042089 452:0.031642001 453:0.040355999 466:0.035498001 468:0.058788002 473:0.025707001 481:0.028906001 482:0.026784001 512:0.037620001 525:0.044211 574:0.050101001 579:0.121067 588:0.025373001 590:0.089725003 593:0.121067 603:0.050802998 605:0.046946999 617:0.083999999 627:0.040355999 631:0.042089 643:0.32863 651:0.046946999 658:0.044211 659:0.15048 664:0.042089 666:0.037620001 673:0.026053 679:0.030452 683:0.093893997 686:0.221057 695:0.145999 700:0.046946999 705:0.046946999 706:0.064595997 721:0.036499999 736:0.044211 748:0.161422 762:0.14985999 765:0.093893997 777:0.028906001 779:0.046946999 782:0.093893997 790:0.233338 814:0.046946999 817:0.055155002 827:0.044211 842:0.046946999 845:0.042089 850:0.067528002 855:0.028000001 857:0.186171 882:0.050802998 885:0.037620001 896:0.046946999 900:0.027172999 907:0.044211 909:0.026411001 915:0.027577 920:0.042089 924:0.029394001 934:0.035498001 943:0.080711 948:0.033002999 953:0.034591999 954:0.036499999 956:0.046946999 982:0.046946999 
-0.19050445844086644 144:0.125568 245:0.33642599 254:0.17862201 294:0.17862201 327:0.16821299 389:0.131612 468:0.111838 596:0.16013899 628:0.111838 743:0.17862201 763:0.67285198 767:0.101908 805:0.087724 806:0.153543 827:0.33642599 857:0.118055 876:0.17862201 920:0.16013899 
-0.035570289821104807 179:0.059865002 229:0.087912999 244:0.16757999 266:0.119081 294:0.186921 316:0.15484001 323:0.131402 349:0.131402 351:0.176028 389:0.13772701 411:0.16757999 421:0.160677 424:0.36373499 458:0.160677 499:0.149784 554:0.19000199 574:0.199479 659:0.149784 697:0.15484001 701:0.37384099 711:0.186921 747:0.160677 790:0.15484001 856:0.12354 882:0.202272 898:0.186921 911:0.35205701 927:0.081944004 
-0.27587488609603994 17:0.116551 245:0.25518101 253:0.169659 293:0.11766 363:0.139357 389:0.19965699 430:0.242934 530:0.19965699 572:0.21067201 616:0.242934 686:0.25518101 695:0.21067201 740:0.224465 743:0.54194301 808:0.169659 817:0.159172 920:0.242934 923:0.224465 
0.99999993212504223 170:0.118267 196:0.171717 218:0.171717 304:0.11662 309:0.113508 311:0.22431999 330:0.064480998 384:0.207295 413:0.15674099 416:0.137006 477:0.29817101 481:0.127636 494:0.35637999 496:0.16610999 499:0.16610999 502:0.207295 569:0.171717 588:0.112035 603:0.22431999 629:0.195215 686:0.39043 738:0.17818999 767:0.118267 909:0.23323999 927:0.090875998 984:0.195215 
0.99999993212504223 166:0.151388 179:0.065802999 197:0.13847999 229:0.19326501 304:0.115588 305:0.176614 356:0.13327099 387:0.14776701 398:0.17019901 404:0.22233599 416:0.135794 424:0.13327099 434:0.17019901 494:0.176614 553:0.193488 554:0.208848 599:0.112504 672:0.115588 679:0.13327099 690:0.159739 742:0.193488 764:0.17019901 790:0.17019901 836:0.13089199 857:0.271588 863:0.176614 884:0.176614 900:0.35675901 923:0.17019901 973:0.31947899 
0.99999993212504223 111:0.174225 169:0.136316 201:0.370011 389:0.136316 404:0.20020001 416:0.122274 450:0.16586301 453:0.15903001 475:0.136316 494:0.15903001 610:0.14383601 624:0.112084 630:0.20020001 651:0.18500499 657:0.113912 672:0.10408 686:0.174225 690:0.28767201 737:0.153254 742:0.34845001 743:0.18500499 789:0.174225 826:0.331725 857:0.122274 923:0.153254 926:0.115835 929:0.127278 997:0.108675 
-0.49397294790729313 9:0.193872 19:0.209795 179:0.062091999 229:0.182364 242:0.193872 244:0.173812 247:0.14659201 293:0.084182002 311:0.209795 330:0.060306001 429:0.136289 435:0.182575 453:0.16665199 456:0.133379 465:0.16665199 477:0.278864 481:0.358116 523:0.173812 537:0.193872 594:0.15073 686:0.36515 762:0.088408999 785:0.15535501 786:0.193872 882:0.209795 909:0.21813799 927:0.084991999 999:0.117456 
-0.15709142561047917 17:0.14664701 20:0.305664 38:0.229794 248:0.273206 298:0.305664 395:0.28242701 445:0.15240499 508:0.32107499 541:0.340942 603:0.36894399 673:0.189201 857:0.225337 904:0.22115 973:0.26507199 
-0.36071686194206398 28:0.252803 94:0.15768901 106:0.083503 133:0.160106 304:0.151022 366:0.177422 384:0.268446 434:0.22237299 567:0.268446 688:0.134859 739:0.208708 762:0.244831 810:0.240669 826:0.240669 827:0.252803 850:0.193065 868:0.15768901 871:0.22237299 908:0.22237299 915:0.15768901 924:0.16807801 927:0.117684 930:0.171018 990:0.268446 
-0.15716950819603789 17:0.077287003 34:0.154459 84:0.17968699 104:0.067181997 105:0.17968699 106:0.055893999 138:0.194445 141:0.194445 192:0.154459 248:0.143988 286:0.27940199 298:0.16109399 306:0.148848 402:0.271732 439:0.17968699 509:0.17968699 527:0.13970099 574:0.095880002 686:0.33843201 720:0.12631699 736:0.16921601 742:0.16921601 780:0.16109399 797:0.17968699 848:0.094686002 857:0.118759 864:0.17968699 868:0.211101 882:0.194445 924:0.112505 930:0.114472 948:0.25263399 997:0.105551 
-0.3285541395554783 61:0.15486901 106:0.061962999 133:0.118805 143:0.17858601 156:0.187589 228:0.16500901 253:0.12472 302:0.097828001 311:0.21555699 335:0.187589 384:0.19919699 411:0.17858601 440:0.150618 451:0.17858601 456:0.137042 501:0.227293 502:0.19919699 508:0.187589 584:0.13165399 603:0.21555699 672:0.112064 688:0.10007 728:0.187589 743:0.19919699 764:0.16500901 797:0.19919699 805:0.097828001 830:0.21555699 855:0.118805 866:0.17858601 923:0.16500901 929:0.137042 949:0.15486901 953:0.146772 963:0.17858601 970:0.17858601 
-0.18401756052561799 190:0.26421401 211:0.160018 224:0.169919 226:0.169919 276:0.094293997 296:0.14075699 298:0.152338 299:0.132107 306:0.14075699 351:0.32003599 365:0.18387499 394:0.169919 445:0.075956002 500:0.169919 572:0.132107 574:0.090668 629:0.160018 631:0.152338 681:0.101343 686:0.160018 688:0.085362002 691:0.29212499 718:0.18387499 726:0.160018 788:0.152338 812:0.18387499 817:0.099812999 857:0.112304 884:0.146062 886:0.18387499 887:0.095592998 892:0.169919 927:0.074491002 956:0.169919 960:0.26421401 967:0.136161 
-0.059166780986166824 65:0.13112199 78:0.139236 159:0.26224399 169:0.205183 179:0.089185998 228:0.23067801 229:0.065485001 235:0.095789999 250:0.119687 253:0.087177001 254:0.139236 267:0.119687 320:0.115339 322:0.39336601 328:0.108251 330:0.043311 358:0.13112199 382:0.119687 393:0.35905999 402:0.10528 495:0.119687 499:0.22314601 513:0.108251 570:0.119687 580:0.108251 669:0.124829 686:0.39336601 737:0.23067801 739:0.108251 762:0.126987 916:0.095789999 997:0.081789002 
-0.30080324952861537 93:0.115717 106:0.046298001 108:0.096542999 131:0.086145997 134:0.13343801 146:0.127941 170:0.084916003 222:0.148838 229:0.070001997 234:0.127941 241:0.127941 253:0.093189999 273:0.148838 285:0.127941 294:0.297676 302:0.073096 306:0.123293 334:0.209261 368:0.140165 395:0.123293 429:0.104631 447:0.161062 586:0.09482 600:0.161062 631:0.13343801 651:0.148838 658:0.140165 673:0.082595997 678:0.107044 681:0.088770002 686:0.140165 707:0.123293 732:0.36987999 748:0.127941 760:0.24658699 838:0.161062 859:0.123293 882:0.161062 917:0.119268 924:0.093189999 927:0.13049901 934:0.11254 936:0.161062 939:0.161062 973:0.231434 
-0.14704083207652077 196:0.176425 198:0.19093999 244:0.19093999 248:0.34132901 304:0.119817 318:0.281524 323:0.149719 329:0.20056701 369:0.183075 398:0.176425 475:0.15692601 522:0.21297701 523:0.19093999 588:0.230212 614:0.170664 675:0.20056701 690:0.165583 759:0.153172 785:0.170664 805:0.104596 857:0.140762 858:0.183075 900:0.12327 902:0.21297701 927:0.186735 949:0.165583 969:0.170664 995:0.183075 
-0.12236542012212803 8:0.035491001 10:0.078613997 70:0.065122001 151:0.074033 178:0.078613997 185:0.078613997 199:0.074033 201:0.078613997 226:0.31445599 230:0.067575999 240:0.078613997 248:0.125991 253:0.049221002 264:0.065122001 272:0.113078 290:0.070479997 302:0.038608 323:0.055264 330:0.073362 348:0.085070997 352:0.074033 357:0.074033 363:0.040429998 385:0.074033 395:0.065122001 402:0.059441999 420:0.31791401 428:0.074033 429:0.055264 435:0.074033 454:0.078613997 456:0.054083999 461:0.074033 510:0.085070997 517:0.050082002 527:0.06112 535:0.125991 552:0.074033 553:0.296132 572:0.06112 579:0.067575999 581:0.062995002 588:0.042488001 590:0.050082002 594:0.12224 596:0.070479997 617:0.046886999 636:0.085070997 641:0.054083999 672:0.044227 677:0.067575999 687:0.140661 690:0.06112 699:0.065122001 703:0.074033 717:0.155874 718:0.085070997 726:0.074033 748:0.067575999 765:0.15722799 775:0.235842 812:0.085070997 827:0.074033 848:0.041425999 857:0.103916 874:0.074033 916:0.108168 920:0.14095999 945:0.15722799 951:0.050082002 955:0.085070997 960:0.42783901 985:0.054083999 999:0.142883 
-0.37214907092823896 45:0.51893198 123:0.144706 131:0.083755001 146:0.124389 170:0.082557999 172:0.109416 211:0.136274 228:0.119871 245:0.136274 253:0.090602003 258:0.115957 275:0.099554002 276:0.080302 283:0.144706 302:0.071066998 306:0.119871 330:0.045012001 363:0.074421003 414:0.136274 416:0.19127899 468:0.090602003 515:0.144706 624:0.087669 628:0.090602003 631:0.129733 651:0.144706 668:0.144706 672:0.081409 673:0.080302 679:0.093863003 686:0.27254701 728:0.136274 741:0.129733 743:0.28941199 767:0.082557999 783:0.106622 803:0.144706 817:0.085001998 848:0.076252997 854:0.144706 872:0.136274 882:0.156591 900:0.083755001 954:0.112504 996:0.144706 
-0.30446619234275457 106:0.139677 130:0.242956 191:0.224516 304:0.12630799 342:0.179911 351:0.21143299 416:0.148388 468:0.14057299 492:0.21143299 530:0.165428 583:0.201285 590:0.28606299 624:0.136021 664:0.201285 668:0.224516 728:0.21143299 736:0.21143299 739:0.17455401 817:0.13188399 881:0.224516 904:0.145631 913:0.21143299 984:0.42286599 
-0.16901054269538004 104:0.107838 121:0.271617 179:0.092373997 224:0.28842399 265:0.231121 344:0.312112 364:0.238923 435:0.271617 473:0.157932 574:0.153901 595:0.312112 665:0.202757 673:0.16005699 695:0.22424001 884:0.24792901 950:0.28842399 954:0.22424001 956:0.28842399 
-0.25751834968874038 5:0.200716 104:0.19305 106:0.080306001 107:0.231454 209:0.206875 294:0.258167 380:0.161642 397:0.206875 475:0.190222 501:0.14729001 506:0.21385799 552:0.24312299 574:0.137756 677:0.221919 686:0.48624501 739:0.200716 805:0.126789 829:0.258167 848:0.136041 855:0.153975 857:0.170628 900:0.149425 
-0.41203029501272814 17:0.079674996 179:0.059326001 201:0.185238 206:0.089971997 229:0.087121002 231:0.130219 349:0.130219 354:0.15922999 370:0.120154 424:0.360461 458:0.318461 496:0.14843599 514:0.217623 554:0.188291 574:0.197684 587:0.185238 594:0.144017 686:0.34888801 748:0.15922999 767:0.105683 802:0.185238 814:0.185238 826:0.166071 827:0.174444 856:0.122428 911:0.174444 927:0.081207 929:0.12743901 973:0.28803301 
-0.21300532063427174 21:0.278115 166:0.24737699 201:0.33573601 253:0.210209 294:0.33573601 440:0.25385901 513:0.261024 514:0.197216 572:0.261024 574:0.17914701 603:0.36331001 628:0.210209 774:0.30099699 929:0.230977 
-0.0820969075864523 63:0.118692 67:0.145319 117:0.15278099 229:0.095031999 243:0.43730599 266:0.12872399 278:0.190284 290:0.181151 349:0.14204299 381:0.21865299 444:0.170609 464:0.202058 514:0.118692 517:0.25744799 651:0.202058 657:0.124412 687:0.120511 699:0.16737901 743:0.202058 815:0.17368899 827:0.38056701 871:0.16737901 905:0.181151 926:0.12651099 937:0.145319 973:0.157094 
-0.2111016525894972 50:0.17097899 60:0.208039 84:0.232049 109:0.25110701 146:0.199469 175:0.232049 277:0.232049 355:0.166889 366:0.153367 481:0.142878 499:0.185947 554:0.117937 572:0.180411 691:0.199469 699:0.192223 861:0.218527 865:0.208039 866:0.208039 893:0.25110701 914:0.25110701 920:0.41607699 
-0.14982600106688776 21:0.40592799 154:0.21061499 236:0.21061499 316:0.20296399 363:0.126008 364:0.20296399 390:0.117718 396:0.20296399 397:0.196337 441:0.20296399 443:0.245015 452:0.165139 512:0.196337 552:0.230738 572:0.19049101 624:0.14844 629:0.230738 665:0.172241 774:0.21966299 796:0.20296399 808:0.15340699 900:0.141813 932:0.245015 
-0.15722539462962976 66:0.200037 142:0.210122 181:0.241449 182:0.241449 195:0.191797 237:0.223124 286:0.173471 289:0.223124 304:0.125525 326:0.210122 330:0.069404997 440:0.16870999 451:0.200037 516:0.200037 517:0.14214399 570:0.191797 642:0.18483 644:0.13970099 679:0.144728 681:0.133075 686:0.210122 688:0.112091 690:0.173471 705:0.223124 713:0.144728 781:0.210122 783:0.16440199 822:0.210122 915:0.13106599 951:0.14214399 
-0.20716458001176602 29:0.20397601 68:0.19209 115:0.14033 116:0.20397601 253:0.127712 258:0.163451 313:0.16896801 325:0.15029401 443:0.20397601 479:0.18287 590:0.12994599 592:0.175337 610:0.158585 623:0.18287 632:0.441457 662:0.18287 666:0.163451 686:0.19209 695:0.158585 726:0.19209 762:0.093015999 808:0.127712 827:0.19209 836:0.12994599 904:0.13230801 943:0.175337 963:0.18287 972:0.19209 979:0.18287 
-0.090932803584191244 22:0.099436 179:0.045302 238:0.121589 260:0.29193699 262:0.085694999 266:0.090112001 299:0.109971 307:0.282897 328:0.109971 330:0.087998003 370:0.091748998 384:0.14144801 402:0.106953 405:0.153065 413:0.21390501 423:0.121589 430:0.126812 495:0.121589 496:0.113346 576:0.121589 581:0.113346 651:0.14144801 657:0.087093003 663:0.126812 686:0.13320599 713:0.091748998 717:0.093486004 762:0.129005 769:0.13320599 791:0.153065 800:0.23434401 857:0.093486004 894:0.13320599 926:0.088563003 927:0.062010001 969:0.56673098 995:0.121589 
-0.11649258386193542 17:0.093305998 155:0.149241 193:0.15249801 206:0.105365 245:0.204289 276:0.120382 323:0.15249801 349:0.15249801 366:0.143374 444:0.091582999 473:0.118784 480:0.179699 514:0.127428 571:0.21693 594:0.16865601 599:0.356352 656:0.179699 681:0.129381 727:0.408577 730:0.204289 804:0.14071 853:0.186472 857:0.43012199 915:0.127428 937:0.15601499 
-0.11302457311381317 37:0.45511499 53:0.210287 104:0.078622997 120:0.227557 196:0.174196 230:0.18076199 247:0.159003 271:0.227557 309:0.115146 383:0.16850799 429:0.147828 449:0.14173201 456:0.14467099 466:0.159003 486:0.174196 497:0.133966 514:0.123525 586:0.133966 592:0.18076199 599:0.115146 617:0.12541901 657:0.12947901 686:0.198033 703:0.198033 777:0.12947901 820:0.198033 836:0.133966 848:0.110811 857:0.138983 909:0.118303 916:0.14467099 973:0.163491 997:0.123525 
-0.063356668201909355 47:0.15558 58:0.205759 115:0.14155599 170:0.117391 176:0.205759 193:0.14464501 276:0.114183 325:0.15160801 330:0.064003997 333:0.205759 341:0.184469 420:0.13868099 424:0.13346399 430:0.184469 473:0.112667 632:0.22265799 662:0.184469 665:0.14464501 673:0.228366 681:0.122719 836:0.131082 857:0.27198201 867:0.22265799 904:0.40039301 924:0.128829 973:0.159971 979:0.184469 981:0.22265799 984:0.19376899 
-0.090790153938709012 80:0.17920201 206:0.101257 251:0.19632401 293:0.090521999 318:0.137784 330:0.064847998 389:0.30721301 418:0.27556899 549:0.430269 580:0.162081 679:0.270448 689:0.51807898 692:0.15763099 742:0.19632401 857:0.137784 876:0.208472 909:0.117282 934:0.15763099 
-0.10167414568169555 132:0.29666299 156:0.27937499 210:0.27937499 330:0.09228 387:0.213358 416:0.196071 428:0.27937499 430:0.265966 445:0.132612 452:0.199949 513:0.230646 563:0.32102701 572:0.46129099 613:0.29666299 
-0.15063065779154469 101:0.226487 159:0.226487 235:0.16545799 250:0.206734 264:0.19922499 293:0.104429 295:0.215616 318:0.158953 322:0.226487 384:0.240501 402:0.181849 482:0.13721199 542:0.172967 572:0.18698201 669:0.215616 686:0.45297301 737:0.19922499 759:0.172967 861:0.226487 927:0.105434 937:0.172967 964:0.150581 975:0.206734 
-0.11578519489146671 8:0.056508999 22:0.087990999 33:0.117874 47:0.094642997 60:0.112216 81:0.13544799 94:0.073524997 106:0.038934998 179:0.040088002 197:0.084362999 229:0.058869001 245:0.117874 262:0.075832002 268:0.224433 293:0.05435 301:0.13544799 302:0.061471999 309:0.068538003 317:0.117874 330:0.038934998 341:0.112216 356:0.081188999 360:0.117874 390:0.060137 397:0.2006 445:0.055950999 449:0.084362999 513:0.097314 515:0.125168 517:0.079740003 525:0.117874 526:0.375503 528:0.112216 546:0.117874 554:0.063615002 574:0.066789001 599:0.068538003 603:0.13544799 623:0.112216 624:0.075832002 629:0.117874 631:0.112216 641:0.086112 644:0.078368999 647:0.112216 652:0.1003 657:0.077068999 659:0.2006 664:0.112216 678:0.090020001 679:0.162378 705:0.125168 743:0.125168 790:0.103686 818:0.13544799 827:0.23574799 857:0.082726002 863:0.107594 882:0.13544799 897:0.090020001 905:0.112216 909:0.21125101 910:0.125168 923:0.103686 926:0.078368999 927:0.109745 934:0.094642997 948:0.087990999 950:0.125168 
-0.19060959306543501 15:0.19398101 76:0.269995 106:0.155222 151:0.234965 218:0.206682 241:0.21447299 328:0.19398101 373:0.234965 385:0.234965 398:0.206682 430:0.22368699 444:0.105335 479:0.22368699 498:0.19398101 552:0.234965 688:0.12534299 790:0.206682 827:0.234965 839:0.249504 907:0.234965 927:0.10938 973:0.19398101 995:0.21447299 
-0.1245233013197249 3:0.212724 64:0.20032801 104:0.079535 179:0.068129003 300:0.20032801 330:0.06617 351:0.20032801 355:0.15299 444:0.089806996 449:0.43012601 475:0.15673999 517:0.271038 527:0.16538601 552:0.20032801 574:0.113508 638:0.38142601 657:0.130979 686:0.20032801 691:0.18285701 723:0.212724 777:0.130979 827:0.20032801 881:0.212724 957:0.20032801 
-0.2207590409272317 17:0.10902 90:0.27428001 179:0.081177004 191:0.253463 248:0.203107 253:0.15869699 356:0.164407 363:0.130353 423:0.217877 553:0.238694 603:0.27428001 672:0.14259399 673:0.14065599 686:0.47738701 717:0.16752 762:0.115583 777:0.156064 882:0.27428001 923:0.209962 981:0.27428001 999:0.153559 
-0.18362690542083218 16:0.145172 77:0.124789 94:0.085276 106:0.135472 171:0.130151 184:0.124789 192:0.124789 197:0.097845003 201:0.145172 226:0.145172 241:0.124789 252:0.136712 259:0.112866 262:0.087950997 274:0.124789 290:0.130151 296:0.120256 308:0.240513 309:0.079492003 342:0.11633 355:0.104407 363:0.14932001 387:0.104407 390:0.069747999 401:0.130151 411:0.130151 434:0.120256 440:0.109768 442:0.124789 475:0.106965 496:0.11633 514:0.085276 523:0.130151 527:0.112866 628:0.090893999 681:0.086583003 688:0.072930001 690:0.112866 742:0.273424 747:0.124789 767:0.082823999 778:0.157095 780:0.130151 797:0.145172 827:0.273424 857:0.095946997 868:0.25582799 882:0.157095 883:0.136712 887:0.081671 909:0.081671 927:0.063642003 932:0.145172 948:0.102053 949:0.112866 951:0.092483997 997:0.085276 999:0.087950997 
-0.17022905370747432 126:0.26167801 209:0.20969 364:0.216767 446:0.216767 447:0.28317001 540:0.28317001 677:0.22493801 686:0.24642999 703:0.24642999 752:0.22493801 859:0.43353501 862:0.22493801 878:0.203447 880:0.234602 900:0.151458 927:0.229435 
-0.1163853147670818 80:0.126351 94:0.086342998 111:0.138423 200:0.117785 201:0.146988 238:0.126351 262:0.089051001 318:0.097148001 320:0.243522 325:0.108304 353:0.263558 360:0.138423 466:0.111141 549:0.20224699 620:0.138423 621:0.138423 650:0.126351 654:0.138423 664:0.131779 670:0.146988 672:0.082693003 677:0.126351 686:0.138423 690:0.22855701 715:0.117785 726:0.138423 745:0.121761 748:0.25270101 774:0.131779 823:0.146988 827:0.415268 851:0.146988 863:0.126351 882:0.15906 927:0.064438 951:0.28092301 
-0.12135430466564345 30:0.249052 190:0.17893399 229:0.108244 236:0.197836 259:0.17893399 281:0.174022 313:0.19065 363:0.236726 381:0.249052 466:0.174022 491:0.23015 551:0.249052 590:0.14662001 592:0.197836 656:0.19065 686:0.216738 730:0.216738 745:0.3813 767:0.13130599 804:0.149285 909:0.12947799 951:0.14662001 973:0.17893399 984:0.216738 
-0.21474978906194084 106:0.061386 149:0.37168899 245:0.185845 306:0.16347501 351:0.185845 363:0.101492 396:0.16347501 416:0.13043 435:0.185845 445:0.088215001 456:0.135767 499:0.15813699 501:0.11259 527:0.153429 572:0.153429 574:0.105302 641:0.40730199 652:0.15813699 672:0.22204401 674:0.213552 679:0.128006 687:0.1177 699:0.16347501 736:0.185845 817:0.115923 857:0.13043 915:0.115923 923:0.32695001 973:0.153429 
-0.081748644164020876 78:0.173915 99:0.188199 150:0.149497 231:0.122259 300:0.163781 332:0.173915 349:0.122259 387:0.12507901 393:0.149497 444:0.073422998 467:0.15592 514:0.10216 574:0.1856 590:0.110795 624:0.21073 674:0.37639701 686:0.32756099 705:0.173915 714:0.163781 723:0.173915 746:0.188199 748:0.149497 817:0.20432 840:0.15592 857:0.22988901 886:0.188199 887:0.097841002 956:0.173915 983:0.15592 991:0.128144 992:0.163781 
-0.096677158350720466 38:0.13979501 46:0.39065099 63:0.121837 67:0.29833999 104:0.15509699 106:0.064517997 125:0.17181499 179:0.066427998 206:0.100742 224:0.207412 227:0.224447 300:0.195326 323:0.145807 440:0.15683 473:0.113572 477:0.14917 514:0.121837 527:0.161256 554:0.105415 588:0.112098 651:0.41482401 653:0.18595099 681:0.123704 686:0.195326 720:0.145807 796:0.17181499 868:0.121837 917:0.166205 948:0.145807 
-0.098888913035053996 107:0.193939 229:0.101741 250:0.18595 309:0.118451 315:0.155578 390:0.103932 435:0.407433 438:0.234089 459:0.173344 498:0.168183 521:0.216322 671:0.407433 686:0.407433 705:0.216322 717:0.14297201 887:0.121698 947:0.35839099 
-0.12761674705214471 8:0.070159003 48:0.235009 56:0.146348 179:0.099541999 256:0.168167 272:0.111765 286:0.120821 302:0.076320998 306:0.128732 330:0.09668 337:0.139323 384:0.155403 423:0.13358399 445:0.069467001 477:0.55882698 514:0.091286004 586:0.19800401 591:0.155403 599:0.085093997 646:0.314224 650:0.13358399 651:0.155403 673:0.086239003 678:0.111765 679:0.100801 681:0.092684999 705:0.155403 713:0.100801 721:0.120821 793:0.139323 855:0.092684999 857:0.205419 915:0.091286004 926:0.1946 927:0.068126999 973:0.120821 
-0.1017515926938584 31:0.32048899 106:0.120347 169:0.28506801 179:0.123909 276:0.214699 294:0.38688901 482:0.22073001 617:0.230748 686:0.364344 868:0.227264 908:0.32048899 996:0.38688901 997:0.227264 
-0.11821930133263936 15:0.145625 57:0.141628 72:0.187307 124:0.20269001 247:0.141628 293:0.081331 320:0.15515999 330:0.058263998 342:0.150094 366:0.123795 367:0.176392 382:0.32201701 441:0.15515999 548:0.167926 583:0.167926 596:0.167926 664:0.167926 665:0.13167299 686:0.176392 690:0.29124999 692:0.141628 715:0.150094 716:0.161009 805:0.36795601 815:0.161009 849:0.150094 857:0.123795 951:0.119327 975:0.32201701 
-0.068630754821804543 56:0.264936 67:0.20233101 102:0.264936 104:0.21037 170:0.160505 171:0.25222 286:0.218724 304:0.15827 316:0.233046 352:0.264936 420:0.189615 456:0.193546 485:0.233046 504:0.17322101 546:0.264936 599:0.154047 658:0.264936 688:0.141331 797:0.28132901 836:0.179225 857:0.185937 
-0.10122065331587152 128:0.26696599 175:0.246704 215:0.204363 255:0.33945 261:0.40872601 298:0.221177 356:0.48006901 496:0.19769 641:0.169725 710:0.26696599 805:0.12116 863:0.21206599 923:0.204363 924:0.154465 
-0.040886149418223952 56:0.244179 166:0.19104899 202:0.201589 421:0.445768 458:0.222884 468:0.16234399 482:0.14793099 490:0.196055 554:0.131781 599:0.14197899 697:0.214788 741:0.23246001 759:0.186479 806:0.222884 836:0.16518401 857:0.17137 920:0.464919 948:0.182275 
-0.044910653680645993 20:0.25670201 104:0.107054 210:0.26964301 248:0.229442 300:0.26964301 318:0.18924101 420:0.192984 423:0.24612699 503:0.25670201 578:0.474374 613:0.28632799 617:0.170772 672:0.161083 673:0.158894 686:0.26964301 687:0.170772 717:0.18924101 
-0.082745068261344396 8:0.077478997 10:0.171617 24:0.12976401 68:0.161616 71:0.171617 75:0.18571199 142:0.161616 229:0.080715001 289:0.171617 294:0.34323299 296:0.14216299 302:0.084283002 377:0.161616 429:0.120644 444:0.072453 445:0.076715 473:0.18794399 556:0.18571199 568:0.51905602 617:0.102355 627:0.147521 639:0.161616 645:0.18571199 646:0.115669 650:0.147521 698:0.161616 814:0.171617 822:0.161616 855:0.102355 915:0.10081 917:0.137521 997:0.10081 
-0.084658863775290166 9:0.159016 19:0.172076 70:0.131724 104:0.059454001 105:0.159016 179:0.050928 214:0.39517301 229:0.074787997 243:0.172076 245:0.149749 290:0.142562 322:0.149749 330:0.049463999 335:0.149749 341:0.142562 370:0.103144 387:0.114363 466:0.120236 477:0.114363 512:0.127423 513:0.123629 517:0.405213 530:0.117166 532:0.159016 546:0.149749 570:0.13668901 596:0.142562 631:0.142562 653:0.142562 673:0.088243 785:0.25484699 809:0.172076 857:0.105097 909:0.178918 973:0.24725901 
-0.071646963649345419 8:0.084509999 94:0.109958 106:0.174683 108:0.12142 117:0.14153901 184:0.160908 193:0.13159101 196:0.155063 266:0.23850501 272:0.134626 342:0.15000001 343:0.160908 351:0.176282 501:0.106797 503:0.167821 521:0.18719 546:0.35256499 574:0.099884003 599:0.1025 657:0.115258 679:0.12142 688:0.094039001 762:0.085362002 806:0.160908 811:0.18719 827:0.176282 828:0.48272499 857:0.123718 900:0.108344 915:0.109958 926:0.117202 949:0.14553399 991:0.137926 997:0.109958 
-0.063137337799611143 28:0.39195001 57:0.157351 106:0.129465 108:0.134984 122:0.19597501 166:0.15333401 167:0.166757 179:0.066648997 229:0.097874001 266:0.13257401 281:0.157351 286:0.161792 304:0.117074 420:0.14026 446:0.17238601 482:0.118727 526:0.208102 534:0.208102 564:0.19597501 657:0.128133 687:0.124116 720:0.292584 767:0.118727 780:0.18656901 789:0.19597501 837:0.178884 882:0.22519299 924:0.13029499 926:0.13029499 949:0.161792 973:0.161792 989:0.19597501 
-0.070109594774807785 99:0.255905 104:0.088417999 156:0.22270299 157:0.23648299 229:0.111223 279:0.255905 296:0.195896 400:0.212014 444:0.099838004 481:0.29121599 497:0.150655 579:0.20328 599:0.25898099 601:0.255905 673:0.26246601 743:0.23648299 774:0.212014 857:0.312594 909:0.26608101 991:0.174245 
-0.040099771571195625 10:0.199607 34:0.085790999 47:0.075464003 50:0.367686 58:0.099803001 70:0.082673997 91:0.079975002 94:0.058626 106:0.031044999 108:0.064737 166:0.147074 179:0.031964 197:0.201801 218:0.082673997 230:0.085790999 249:0.089477003 257:0.099803001 266:0.063580997 290:0.089477003 304:0.056147002 315:0.071777999 323:0.070160002 353:0.089477003 370:0.064737 374:0.099803001 385:0.093988001 396:0.082673997 420:0.067267001 423:0.171581 429:0.070160002 439:0.099803001 448:0.093988001 457:0.099803001 471:0.099803001 518:0.099803001 526:0.29940999 583:0.089477003 631:0.089477003 657:0.061450999 662:0.089477003 679:0.064737 686:0.187975 687:0.059525002 696:0.171581 713:0.064737 717:0.197887 739:0.077593997 742:0.093988001 758:0.39921299 769:0.093988001 773:0.099803001 810:0.089477003 827:0.187975 837:0.085790999 882:0.108 883:0.093988001 887:0.056147002 908:0.082673997 926:0.062488001 927:0.087506004 962:0.093988001 973:0.077593997 
-0.045223761071692931 61:0.14061999 172:0.13676 179:0.057927001 201:0.18087 302:0.177655 304:0.101754 318:0.119541 330:0.056262001 342:0.144935 358:0.17033 359:0.124433 370:0.11732 398:0.149828 414:0.17033 421:0.15547501 431:0.29965499 440:0.13676 477:0.130081 490:0.13676 502:0.18087 574:0.096510999 580:0.14061999 588:0.097753003 617:0.107874 628:0.113245 651:0.18087 666:0.28987101 673:0.20074201 676:0.17033 686:0.34066001 695:0.14061999 741:0.162155 762:0.082479 774:0.162155 817:0.106245 819:0.115226 857:0.119541 920:0.162155 964:0.113245 999:0.109578 
-0.047004327375967353 104:0.111332 107:0.13348 115:0.20485801 133:0.088798001 134:0.13348 139:0.16111401 210:0.14021 222:0.148886 230:0.12798201 293:0.064648002 300:0.14021 359:0.102429 440:0.112576 456:0.102429 462:0.66740102 537:0.148886 552:0.14021 599:0.081524998 664:0.13348 673:0.165244 686:0.28041899 699:0.123333 717:0.098402001 736:0.14021 800:0.123333 804:0.096574001 844:0.148886 917:0.119306 927:0.065269999 971:0.115754 992:0.14021 
-0.051744939354535988 33:0.191929 38:0.137364 50:0.300336 63:0.119718 94:0.119718 151:0.191929 152:0.203806 179:0.065273002 197:0.137364 253:0.127606 262:0.123474 302:0.100092 328:0.158452 330:0.063395999 349:0.143272 363:0.104815 397:0.163315 501:0.116276 543:0.191929 550:0.191929 574:0.108749 624:0.123474 628:0.127606 647:0.18271799 664:0.18271799 678:0.146576 679:0.13219699 686:0.191929 692:0.154103 706:0.140212 743:0.203806 745:0.168827 757:0.203806 762:0.092938997 772:0.1347 827:0.191929 837:0.175191 868:0.119718 918:0.191929 1000:0.146576 
-0.071241337534313748 63:0.081014998 179:0.044171002 200:0.110518 229:0.064865999 230:0.118554 247:0.104284 297:0.114248 302:0.067734003 328:0.32168201 330:0.042900998 342:0.110518 351:0.12988199 421:0.118554 458:0.118554 469:0.13791899 554:0.070096001 566:0.13791899 700:0.13791899 711:0.13791899 713:0.17892 748:0.47421801 773:0.55167401 790:0.114248 797:0.13791899 850:0.099189997 875:0.092956997 881:0.13791899 882:0.14924601 910:0.13791899 911:0.12988199 
-0.071826903908156534 95:0.165225 133:0.104641 177:0.165225 198:0.157295 238:0.30162999 260:0.24140701 276:0.097363003 295:0.157295 302:0.086165003 307:0.175448 312:0.189858 323:0.123337 369:0.150815 370:0.113803 398:0.145337 399:0.157295 402:0.132661 417:0.157295 419:0.189858 488:0.165225 495:0.150815 501:0.100098 505:0.165225 522:0.175448 594:0.136406 673:0.292088 677:0.150815 785:0.140591 791:0.189858 805:0.086165003 857:0.115958 900:0.101548 909:0.098704003 915:0.103061 920:0.31458899 927:0.076915003 969:0.140591 
-0.079935604371538127 8:0.079821996 63:0.103859 104:0.066105001 108:0.114684 144:0.124292 162:0.14646199 173:0.176806 206:0.085877001 235:0.121638 280:0.14646199 305:0.15198199 372:0.303965 389:0.52109802 496:0.141679 549:0.36491299 575:0.158512 584:0.116855 593:0.15198199 648:0.166503 664:0.158512 686:0.166503 687:0.105451 689:0.14646199 690:0.13746101 761:0.176806 857:0.116855 858:0.15198199 885:0.141679 996:0.176806 
-0.030094091043056322 1:0.13572399 11:0.097120002 17:0.077206001 24:0.203585 48:0.067861997 93:0.069776997 105:0.089749001 133:0.053528 135:0.077147998 177:0.084518999 179:0.057487998 210:0.084518999 276:0.049805 305:0.077147998 307:0.089749001 330:0.027918 334:0.18927599 335:0.084518999 351:0.084518999 352:0.084518999 420:0.181472 429:0.126184 445:0.040119 460:0.097120002 477:0.064547002 483:0.071918003 499:0.143837 525:0.084518999 527:0.209332 547:0.097120002 553:0.084518999 578:0.148692 588:0.048505999 592:0.077147998 617:0.053528 664:0.080463 673:0.049805 686:0.25355801 706:0.061744999 734:0.203585 762:0.040927 767:0.102408 769:0.33807799 770:0.388482 831:0.084518999 917:0.071918003 947:0.44607499 948:0.063092001 953:0.066128999 
-0.038533631394718784 48:0.168276 106:0.069227003 179:0.071276002 206:0.108095 225:0.24082901 248:0.17833599 278:0.209582 283:0.222551 323:0.15644901 351:0.209582 397:0.17833599 402:0.168276 455:0.191304 492:0.209582 558:0.199523 589:0.222551 686:0.209582 734:0.168276 769:0.209582 770:0.24082901 817:0.130729 831:0.209582 855:0.26546699 947:0.36871001 953:0.16398001 
-0.051918110810581904 40:0.21915799 179:0.078290999 235:0.168176 295:0.21915799 311:0.26452899 323:0.34369099 363:0.125719 369:0.21013001 398:0.20249701 402:0.184836 493:0.244452 506:0.20249701 513:0.190053 535:0.195885 576:0.21013001 623:0.21915799 774:0.21915799 775:0.244452 832:0.175809 882:0.26452899 927:0.214331 951:0.15573201 
-0.042865486302048637 104:0.111841 144:0.21028499 170:0.170662 191:0.29913199 205:0.32370001 221:0.281701 240:0.29913199 377:0.281701 456:0.20579401 599:0.16379599 644:0.187291 705:0.29913199 857:0.197704 882:0.32370001 904:0.19403 971:0.232566 985:0.20579401 
-0.070647573591467075 2:0.185064 56:0.161052 106:0.053197 179:0.054772001 229:0.080433004 238:0.147007 260:0.235311 290:0.153322 294:0.171018 328:0.26592201 330:0.106394 377:0.161052 380:0.107077 414:0.161052 423:0.147007 473:0.093644001 481:0.1053 522:0.171018 523:0.153322 566:0.171018 579:0.147007 663:0.153322 687:0.101998 721:0.132961 762:0.077987 769:0.161052 800:0.42500001 882:0.185064 883:0.161052 920:0.153322 932:0.171018 948:0.120223 968:0.29401299 986:0.171018 
-0.053351597179690569 8:0.101589 21:0.18640199 47:0.170145 71:0.225022 152:0.225022 220:0.17494699 229:0.105832 313:0.18640199 328:0.17494699 330:0.069995999 362:0.225022 370:0.145959 411:0.201738 429:0.158186 430:0.201738 456:0.154808 485:0.18640199 527:0.17494699 541:0.225022 572:0.17494699 613:0.225022 624:0.136327 627:0.19342799 665:0.158186 686:0.211909 713:0.145959 717:0.14872199 763:0.211909 790:0.18640199 887:0.253185 
-0.050299869350612252 60:0.16790999 106:0.058258999 148:0.20267101 155:0.12885 187:0.176376 266:0.119316 313:0.155146 328:0.29122299 337:0.16790999 359:0.12885 366:0.123784 402:0.141614 444:0.079069003 468:0.117264 512:0.15008 514:0.220033 559:0.187289 581:0.15008 635:0.20267101 656:0.155146 657:0.115319 684:0.176376 686:0.176376 738:0.16099399 749:0.187289 767:0.106853 790:0.155146 800:0.155146 804:0.364452 827:0.176376 882:0.20267101 926:0.117264 927:0.082106002 941:0.20267101 
-0.064282285224565625 47:0.188594 133:0.297519 143:0.22361401 151:0.234887 179:0.079882003 245:0.234887 304:0.14032 359:0.17159501 416:0.164849 467:0.22361401 517:0.158898 624:0.30221999 686:0.234887 743:0.249422 808:0.156166 817:0.146514 827:0.234887 857:0.164849 886:0.269907 909:0.14032 932:0.249422 937:0.17938299 991:0.183779 
-0.051801566713282884 17:0.121193 57:0.21304999 61:0.438126 132:0.28176501 179:0.090241 275:0.193846 302:0.13837799 424:0.18276501 445:0.12595201 467:0.25261 481:0.173489 624:0.17070501 641:0.193846 672:0.31703001 739:0.219063 762:0.128489 848:0.148477 857:0.186225 909:0.15851501 917:0.225785 922:0.219063 954:0.219063 
-0.060291482158650773 57:0.136296 123:0.180255 179:0.05773 205:0.19506 222:0.180255 248:0.14444301 258:0.14444301 283:0.180255 293:0.078268997 333:0.180255 363:0.185406 364:0.14931899 428:0.33950299 430:0.161604 605:0.180255 616:0.161604 629:0.33950299 659:0.43332899 664:0.161604 748:0.154947 765:0.180255 808:0.225721 817:0.105884 848:0.094985999 857:0.119135 904:0.116921 933:0.14444301 
-0.0386338565302062 8:0.106615 106:0.073458999 139:0.25554901 170:0.13473199 186:0.21171901 270:0.22239301 306:0.19562399 363:0.121451 406:0.236154 435:0.22239301 581:0.189236 603:0.25554901 620:0.22239301 681:0.56338602 691:0.202998 713:0.15318 836:0.150446 856:0.15607999 916:0.162467 943:0.202998 
-0.047999416324339753 38:0.144278 77:0.184009 101:0.20159 137:0.231645 190:0.166428 192:0.184009 214:0.177325 227:0.231645 245:0.20159 253:0.134028 259:0.166428 292:0.214064 332:0.214064 363:0.110091 364:0.177325 387:0.153954 423:0.184009 456:0.14726999 466:0.16185901 477:0.153954 596:0.19191401 664:0.19191401 665:0.150483 688:0.107539 722:0.231645 743:0.214064 767:0.122129 805:0.10513 857:0.14148 868:0.125744 887:0.120428 909:0.120428 929:0.14726999 975:0.184009 
-0.047854977365653938 103:0.228065 117:0.20817401 304:0.15488701 309:0.150755 420:0.371124 519:0.275316 560:0.275316 588:0.148798 720:0.193542 732:0.45612901 760:0.228065 838:0.29792801 909:0.15488701 927:0.120696 966:0.275316 973:0.21404999 
-0.042355077576316132 9:0.242024 53:0.121012 104:0.180979 172:0.091499999 186:0.21698201 222:0.242024 228:0.100243 281:0.091499999 302:0.17829201 311:0.130951 317:0.11396 326:0.22792099 392:0.130951 414:0.11396 430:0.21698201 441:0.100243 445:0.108188 449:0.081561998 468:0.151535 477:0.174063 553:0.11396 631:0.108491 646:0.081561998 664:0.21698201 686:0.22792099 687:0.072173998 734:0.091499999 777:0.074510001 783:0.089163996 798:0.21698201 829:0.121012 857:0.39989901 909:0.068079002 920:0.21698201 927:0.053050999 953:0.089163996 973:0.18816601 983:0.108491 
-0.020893549895667267 15:0.13565201 95:0.16431101 115:0.120036 150:0.14998201 176:0.17447899 206:0.084746003 276:0.096823998 293:0.075760998 319:0.156425 323:0.122655 334:0.122655 361:0.16431101 398:0.14453401 446:0.72266799 468:0.109244 584:0.115317 665:0.122655 686:0.16431101 827:0.328623 857:0.115317 867:0.18880901 900:0.100987 927:0.07649 
-0.045595771337770659 91:0.124161 130:0.16767 248:0.124161 276:0.085983999 302:0.076095 306:0.128352 342:0.124161 360:0.145916 445:0.069261998 514:0.091017 583:0.41673699 602:0.154945 634:0.154945 664:0.13891201 701:0.154945 703:0.145916 705:0.154945 717:0.61444002 724:0.13319001 797:0.154945 810:0.13891201 850:0.111436 904:0.301512 924:0.097012997 
-0.043475757284533831 45:0.18673199 249:0.373465 258:0.166903 276:0.115584 294:0.20828401 302:0.102291 304:0.117176 309:0.11405 369:0.17904 416:0.13766 475:0.153468 670:0.20828401 686:0.58844 739:0.161934 787:0.20828401 796:0.172537 827:0.19614699 841:0.22539 857:0.13766 975:0.17904 
-0.029516902578491204 136:0.195362 168:0.205211 179:0.069789998 194:0.195362 328:0.16941699 330:0.067782998 444:0.091995999 445:0.097407997 538:0.195362 599:0.23864099 651:0.21790899 677:0.187314 682:0.235806 686:0.205211 731:0.205211 784:0.410422 832:0.313438 882:0.235806 901:0.195362 915:0.384009 
-0.024353725334244486 47:0.155634 149:0.193837 226:0.20583101 276:0.114223 293:0.089374997 309:0.112707 349:0.144696 363:0.105857 387:0.14803299 393:0.53079599 495:0.17693201 517:0.131128 541:0.20583101 546:0.193837 592:0.17693201 641:0.141606 672:0.115797 695:0.160027 754:0.20583101 764:0.170505 827:0.193837 855:0.122762 857:0.136039 923:0.34101 973:0.160027 991:0.15166099 
-0.03552431581764761 59:0.184075 104:0.063600004 110:0.36815 170:0.097048998 190:0.13225099 222:0.170104 243:0.184075 299:0.13225099 335:0.160192 414:0.160192 424:0.110337 425:0.170104 454:0.34020901 485:0.14091 575:0.152503 684:0.160192 686:0.160192 762:0.077569999 777:0.104737 788:0.152503 857:0.112426 916:0.234054 960:0.52900201 967:0.136309 999:0.103056 
-0.034516095727130158 56:0.234055 106:0.15462101 117:0.18792599 155:0.170987 193:0.17471801 197:0.167514 206:0.120718 290:0.222821 343:0.213643 349:0.17471801 423:0.213643 497:0.158335 539:0.183128 610:0.19323 624:0.150575 651:0.248538 658:0.234055 668:0.248538 679:0.161213 688:0.124858 743:0.248538 749:0.248538 755:0.222821 827:0.234055 919:0.213643 
-0.022699822604873594 8:0.109534 9:0.24261899 51:0.24261899 53:0.24261899 104:0.090712003 193:0.17055701 351:0.22848099 440:0.18345 517:0.30912799 599:0.132851 624:0.146989 638:0.435029 673:0.134638 686:0.22848099 713:0.157373 767:0.13842 836:0.15456399 857:0.16035201 881:0.24261899 882:0.26254499 913:0.22848099 997:0.142518 
-0.010970356693343702 17:0.090241 104:0.078442998 106:0.065261997 133:0.125131 179:0.067194 214:0.173796 224:0.209804 245:0.197578 297:0.173796 323:0.147488 342:0.168121 356:0.136088 384:0.209804 403:0.45407 504:0.129181 519:0.209804 574:0.11195 660:0.227035 664:0.188095 686:0.197578 687:0.125131 705:0.209804 762:0.191348 767:0.239397 819:0.13365901 868:0.123242 927:0.091976002 946:0.227035 949:0.16311599 971:0.16311599 
-0.024411299065590739 93:0.11111 106:0.044454999 133:0.085235998 153:0.142913 165:0.428738 167:0.11452 179:0.045770999 213:0.13458499 265:0.11452 276:0.079306997 298:0.128125 304:0.080399998 330:0.044454999 334:0.100465 363:0.073498003 370:0.092698999 407:0.15465 429:0.100465 446:0.118385 460:0.15465 511:0.15465 539:0.105301 574:0.076256998 587:0.285826 686:0.26916999 689:0.118385 695:0.22222 707:0.118385 738:0.122848 780:0.128125 789:0.13458499 805:0.070185997 827:0.26916999 877:0.26916999 882:0.15465 900:0.082717001 927:0.062651999 950:0.285826 973:0.11111 
-0.019990465331109451 31:0.225931 46:0.25684699 61:0.212047 104:0.20394801 245:0.25684699 293:0.118428 304:0.153438 330:0.169678 338:0.212047 363:0.140267 420:0.183826 509:0.27274001 588:0.147406 686:0.25684699 720:0.191732 797:0.27274001 827:0.25684699 857:0.180261 864:0.27274001 866:0.24451999 963:0.24451999 
-0.015177430930012864 17:0.069817998 133:0.096812002 151:0.152863 229:0.076343 238:0.139531 239:0.152863 260:0.111673 264:0.134463 276:0.090078004 281:0.122736 293:0.140965 299:0.12620001 320:0.134463 330:0.151476 369:0.139531 373:0.152863 380:0.101632 390:0.155975 393:0.139531 402:0.122736 434:0.134463 435:0.152863 445:0.072559997 459:0.130072 481:0.099945001 490:0.122736 505:0.152863 580:0.12620001 625:0.139531 643:0.162322 651:0.162322 672:0.091319002 673:0.090078004 686:0.30572599 703:0.152863 708:0.162322 715:0.130072 752:0.139531 769:0.152863 781:0.152863 849:0.26014501 857:0.107282 928:0.175653 934:0.122736 942:0.30572599 999:0.098341003 
-0.019974032666896221 119:0.088132001 131:0.054166999 179:0.059946001 231:0.065788999 237:0.187172 243:0.30381599 247:0.141525 248:0.074992999 260:0.128769 267:0.080445997 286:0.072760001 288:0.088132001 299:0.072760001 318:0.061852999 323:0.065788999 355:0.067307003 370:0.060704 389:0.068956003 397:0.074992999 399:0.083902001 402:0.070762999 418:0.247412 420:0.063075997 423:0.080445997 424:0.060704 459:0.074992999 482:0.053392999 501:0.106786 525:0.088132001 534:0.093585998 590:0.05962 592:0.080445997 599:0.051245 614:0.074992999 625:0.321785 663:0.083902001 673:0.103868 680:0.088132001 686:0.176265 692:0.070762999 702:0.088132001 729:0.101272 736:0.264397 737:0.232572 739:0.072760001 742:0.176265 748:0.241339 750:0.101272 777:0.057622999 781:0.088132001 785:0.074992999 800:0.077523999 808:0.058595002 827:0.264397 850:0.13461301 857:0.185559 882:0.101272 887:0.052650001 893:0.101272 912:0.072760001 929:0.128769 949:0.072760001 951:0.05962 964:0.058595002 
-0.011364824251391684 8:0.044238999 22:0.068885997 28:0.092280999 88:0.21207701 94:0.172683 106:0.060961999 108:0.063561 111:0.092280999 133:0.058442999 166:0.072200999 170:0.055906001 179:0.031383999 197:0.066045001 226:0.195981 293:0.042548999 301:0.106039 302:0.048124999 304:0.055128001 309:0.053656999 316:0.081173003 330:0.060961999 349:0.068885997 352:0.092280999 390:0.047079999 434:0.081173003 440:0.074092999 461:0.092280999 476:0.42415401 497:0.062426001 558:0.087851003 565:0.21207701 581:0.078521997 594:0.076185003 660:0.106039 664:0.087851003 686:0.184561 688:0.049228001 696:0.084233001 717:0.25905699 736:0.184561 760:0.16234601 778:0.106039 813:0.106039 827:0.184561 844:0.097990997 847:0.097990997 856:0.32382199 870:0.084233001 927:0.214791 930:0.062426001 934:0.074092999 935:0.21207701 966:0.097990997 973:0.076185003 980:0.168465 
-0.0088513793785948997 49:0.106057 80:0.091165997 202:0.164911 281:0.080192 294:0.106057 302:0.052085999 304:0.059664998 309:0.116147 349:0.074556001 399:0.095082998 405:0.229534 482:0.060508002 505:0.099877 579:0.091165997 607:0.28524801 614:0.254958 625:0.273498 663:0.095082998 666:0.084986001 676:0.099877 686:0.29962999 702:0.099877 713:0.137586 767:0.060508002 784:0.099877 874:0.099877 912:0.082456 915:0.062298998 927:0.046494 945:0.63634002 947:0.087854996 948:0.074556001 1000:0.076274998 
-0.013480418144000427 104:0.084476002 115:0.155441 133:0.134756 238:0.19421899 253:0.14146499 286:0.175662 352:0.21277501 355:0.162496 384:0.225941 396:0.18716399 444:0.095388003 464:0.225941 475:0.16647799 477:0.162496 504:0.139118 540:0.244498 574:0.120561 590:0.28787899 673:0.125383 677:0.19421899 686:0.21277501 739:0.175662 767:0.128905 859:0.18716399 871:0.18716399 874:0.21277501 882:0.244498 905:0.202563 910:0.225941 
-0.0076845072230268055 56:0.206476 60:0.196566 106:0.204603 136:0.196566 166:0.16155 168:0.206476 218:0.181623 266:0.279356 315:0.157685 359:0.150839 439:0.21925201 497:0.139678 534:0.21925201 611:0.23726 657:0.13499901 686:0.41295201 720:0.30826101 745:0.181623 817:0.128792 920:0.196566 926:0.13727701 956:0.21925201 
-0.011846490757671399 6:0.238507 106:0.068559997 294:0.220405 330:0.068559997 429:0.15494099 475:0.16239899 482:0.125747 502:0.220405 542:0.15851501 578:0.182578 591:0.220405 644:0.137999 646:0.148552 664:0.19760001 686:0.207562 709:0.18945999 775:0.220405 827:0.207562 830:0.238507 832:0.15851501 882:0.238507 901:0.395199 960:0.171358 997:0.12946901 999:0.267061 
-0.0049200015858545153 31:0.140751 48:0.25694999 49:0.169912 104:0.063528001 194:0.15233099 202:0.132101 208:0.16001099 230:0.146056 272:0.1222 309:0.093038999 314:0.169912 349:0.119445 389:0.125195 440:0.128475 468:0.106384 477:0.36660001 485:0.140751 512:0.13615499 527:0.264202 538:0.30466199 549:0.116895 583:0.15233099 588:0.091830999 663:0.15233099 679:0.110212 687:0.202677 697:0.140751 702:0.16001099 703:0.16001099 732:0.140751 760:0.140751 762:0.077482998 767:0.096938998 784:0.16001099 855:0.101339 915:0.099808998 942:0.16001099 945:0.169912 
-0.0049836052300626663 1:0.131273 84:0.173613 105:0.173613 131:0.100486 249:0.46694699 258:0.139121 286:0.13497899 309:0.095064998 322:0.163496 363:0.089286998 380:0.108702 389:0.25584301 420:0.117015 435:0.163496 475:0.127922 477:0.124862 499:0.139121 509:0.173613 513:0.13497899 673:0.192688 686:0.32699299 687:0.103546 695:0.13497899 736:0.163496 767:0.198101 796:0.14381699 808:0.108702 841:0.18787199 973:0.13497899 986:0.173613 996:0.173613 997:0.101983 
-0.0040862176301547501 63:0.045317002 179:0.024707999 201:0.077147 206:0.037471 220:0.059978999 229:0.072567999 247:0.174999 253:0.096606001 259:0.059978999 291:0.06182 310:0.760809 320:0.31953299 323:0.108466 387:0.055484001 396:0.063906997 441:0.127813 549:0.10615 572:0.059978999 580:0.119959 628:0.144908 631:0.069164 634:0.077147 672:0.043400999 673:0.085623004 686:0.145303 690:0.119959 738:0.066315003 745:0.063906997 762:0.035179999 786:0.154294 797:0.077147 819:0.049148001 836:0.049148001 849:0.06182 850:0.055484001 857:0.15296499 860:0.072650999 866:0.069164 912:0.059978999 963:0.069164 968:0.066315003 973:0.119959 
-0.0036968353954744855 47:0.110403 84:0.14601199 104:0.054591998 105:0.14601199 125:0.24190401 170:0.083302997 229:0.068672001 248:0.117003 259:0.22703899 300:0.275006 330:0.090837002 390:0.070151001 440:0.110403 445:0.065269001 462:0.130904 481:0.089902997 485:0.120952 497:0.093019001 506:0.120952 508:0.137503 527:0.113519 572:0.113519 617:0.087084003 686:0.41251001 701:0.14601199 717:0.096501999 726:0.137503 730:0.275006 785:0.117003 796:0.120952 804:0.28412801 833:0.14601199 857:0.096501999 869:0.31600699 909:0.082143001 917:0.117003 927:0.064010002 957:0.137503 999:0.088459998 
