SVM-light Version V3.50
0 # kernel type
1 # kernel parameter -d 
1 # kernel parameter -g 
1 # kernel parameter -s 
0 # kernel parameter -r 
EmptyParam # kernel parameter -u 
1000 # highest feature index 
418 # number of training documents 
143 # number of support vectors plus 1 
0.97423792 # threshold b 
-0.080999170768942946 35:0.17885099 48:0.270468 104:0.13373999 155:0.123045 300:0.168429 314:0.17885099 325:0.131781 396:0.148156 414:0.168429 425:0.17885099 468:0.111981 486:0.148156 519:0.17885099 538:0.32069099 571:0.357703 656:0.148156 673:0.099251002 679:0.116011 690:0.13905101 713:0.116011 730:0.168429 749:0.17885099 783:0.131781 855:0.21334 882:0.19354001 916:0.123045 927:0.078406997 932:0.357703 937:0.128629 
-0.079664801471333091 17:0.077287003 34:0.154459 84:0.17968699 104:0.067181997 105:0.17968699 106:0.055893999 138:0.194445 141:0.194445 192:0.154459 248:0.143988 286:0.27940199 298:0.16109399 306:0.148848 402:0.271732 439:0.17968699 509:0.17968699 527:0.13970099 574:0.095880002 686:0.33843201 720:0.12631699 736:0.16921601 742:0.16921601 780:0.16109399 797:0.17968699 848:0.094686002 857:0.118759 864:0.17968699 868:0.211101 882:0.194445 924:0.112505 930:0.114472 948:0.25263399 997:0.105551 
-0.026450428481991702 31:0.140751 48:0.25694999 49:0.169912 104:0.063528001 194:0.15233099 202:0.132101 208:0.16001099 230:0.146056 272:0.1222 309:0.093038999 314:0.169912 349:0.119445 389:0.125195 440:0.128475 468:0.106384 477:0.36660001 485:0.140751 512:0.13615499 527:0.264202 538:0.30466199 549:0.116895 583:0.15233099 588:0.091830999 663:0.15233099 679:0.110212 687:0.202677 697:0.140751 702:0.16001099 703:0.16001099 732:0.140751 760:0.140751 762:0.077482998 767:0.096938998 784:0.16001099 855:0.101339 915:0.099808998 942:0.16001099 945:0.169912 
-0.22857192938450657 10:0.212082 66:0.190138 101:0.199724 115:0.145907 124:0.22950099 206:0.103011 247:0.16036101 253:0.132788 356:0.137566 390:0.101895 402:0.16036101 431:0.17568301 442:0.18230499 596:0.190138 624:0.25697601 629:0.199724 652:0.169947 666:0.169947 686:0.39944801 713:0.137566 716:0.18230499 733:0.169947 751:0.22950099 805:0.104157 808:0.26557499 857:0.14016999 929:0.145907 999:0.128488 
-0.21957541101033601 17:0.121193 57:0.21304999 61:0.438126 132:0.28176501 179:0.090241 275:0.193846 302:0.13837799 424:0.18276501 445:0.12595201 467:0.25261 481:0.173489 624:0.17070501 641:0.193846 672:0.31703001 739:0.219063 762:0.128489 848:0.148477 857:0.186225 909:0.15851501 917:0.225785 922:0.219063 954:0.219063 
0.26245310446184406 47:0.15558 58:0.205759 115:0.14155599 170:0.117391 176:0.205759 193:0.14464501 276:0.114183 325:0.15160801 330:0.064003997 333:0.205759 341:0.184469 420:0.13868099 424:0.13346399 430:0.184469 473:0.112667 632:0.22265799 662:0.184469 665:0.14464501 673:0.228366 681:0.122719 836:0.131082 857:0.27198201 867:0.22265799 904:0.40039301 924:0.128829 973:0.159971 979:0.184469 981:0.22265799 984:0.19376899 
0.99999993212504223 17:0.098415002 57:0.173007 235:0.15741301 248:0.183349 298:0.20513199 363:0.117673 569:0.189538 584:0.151224 588:0.123661 599:0.12528799 632:0.49519801 652:0.183349 726:0.21547399 817:0.134405 857:0.45367199 860:0.21547399 882:0.24759901 904:0.148414 968:0.19668201 975:0.19668201 
0.99999993212504223 91:0.124161 130:0.16767 248:0.124161 276:0.085983999 302:0.076095 306:0.128352 342:0.124161 360:0.145916 445:0.069261998 514:0.091017 583:0.41673699 602:0.154945 634:0.154945 664:0.13891201 701:0.154945 703:0.145916 705:0.154945 717:0.61444002 724:0.13319001 797:0.154945 810:0.13891201 850:0.111436 904:0.301512 924:0.097012997 
0.99999993212504223 57:0.136296 123:0.180255 179:0.05773 205:0.19506 222:0.180255 248:0.14444301 258:0.14444301 283:0.180255 293:0.078268997 333:0.180255 363:0.185406 364:0.14931899 428:0.33950299 430:0.161604 605:0.180255 616:0.161604 629:0.33950299 659:0.43332899 664:0.161604 748:0.154947 765:0.180255 808:0.225721 817:0.105884 848:0.094985999 857:0.119135 904:0.116921 933:0.14444301 
0.97615134925787206 89:0.133021 90:0.14394601 116:0.133021 142:0.125269 155:0.091513999 205:0.14394601 218:0.110191 306:0.220382 313:0.110191 333:0.133021 342:0.106593 349:0.093511 414:0.125269 420:0.089654997 486:0.220382 503:0.119257 644:0.083286002 658:0.501077 679:0.086282998 681:0.158672 684:0.125269 749:0.133021 842:0.133021 875:0.089654997 882:0.43183699 904:0.34513199 943:0.114344 985:0.183029 
-0.99999993212504223 8:0.094881997 31:0.174095 45:0.188419 249:0.188419 302:0.103215 309:0.11508 369:0.180658 389:0.154854 471:0.21016499 474:0.180658 485:0.174095 509:0.21016499 514:0.123454 581:0.168411 591:0.21016499 681:0.25069299 719:0.188419 797:0.21016499 827:0.39583701 857:0.13890301 882:0.22742601 904:0.40896699 975:0.180658 
-0.91189911890984698 17:0.089654997 22:0.14653 45:0.186873 179:0.066757001 248:0.334057 249:0.37374499 302:0.102368 354:0.179175 357:0.19629399 445:0.093175001 485:0.172666 527:0.162056 548:0.186873 629:0.19629399 646:0.140488 659:0.16702899 664:0.186873 719:0.186873 765:0.20844001 808:0.13050701 817:0.122441 857:0.13776299 904:0.135203 910:0.20844001 915:0.122441 975:0.35835001 988:0.20844001 
-0.29645955986748512 8:0.11378 26:0.237339 106:0.078395002 155:0.17338599 167:0.20195401 190:0.195942 306:0.41754201 330:0.078395002 333:0.25202501 363:0.129614 486:0.20877101 574:0.134479 581:0.20195401 602:0.25202501 644:0.15779699 705:0.25202501 713:0.16347501 748:0.21664 767:0.143787 836:0.160557 856:0.16656899 857:0.16656899 882:0.272724 909:0.141784 916:0.17338599 
-0.21516640124298023 167:0.136466 172:0.128768 222:0.17030001 231:0.119718 252:0.160376 253:0.106627 276:0.094506003 302:0.083636999 334:0.119718 376:0.160376 427:0.17030001 429:0.119718 431:0.14107201 492:0.160376 557:0.14639001 588:0.092041001 590:0.108492 606:0.160376 654:0.160376 659:0.40939799 672:0.095807999 695:0.132403 701:0.17030001 703:0.160376 706:0.117162 759:0.122479 817:0.100037 857:0.337666 859:0.14107201 882:0.36857399 900:0.197137 917:0.136466 927:0.074657999 972:0.160376 
-0.43851203353474127 15:0.077509001 34:0.085697003 68:0.093884997 70:0.082584001 121:0.093884997 150:0.085697003 193:0.070083 206:0.048423 220:0.077509001 231:0.070083 253:0.12484 276:0.055323999 286:0.077509001 303:0.093884997 316:0.082584001 341:0.089378998 342:0.079888001 420:0.067194 431:0.082584001 443:0.099693999 473:0.054589 514:0.058561999 555:0.107882 557:0.34278801 584:0.065889999 590:0.12702399 604:0.107882 637:0.099693999 639:0.093884997 643:0.099693999 659:0.079888001 686:0.18776999 691:0.085697003 717:0.065889999 748:0.085697003 817:0.058561999 821:0.107882 827:0.093884997 857:0.72479302 867:0.107882 920:0.089378998 931:0.089378998 948:0.070083 970:0.089378998 973:0.077509001 979:0.089378998 
0.99999993212504223 57:0.106998 61:0.110018 63:0.083123997 90:0.15312999 131:0.081904002 132:0.141507 175:0.141507 179:0.045320999 224:0.141507 298:0.126865 300:0.13326199 306:0.117221 330:0.044018 370:0.091788001 412:0.126865 445:0.063256003 485:0.117221 508:0.13326199 527:0.110018 574:0.075507998 588:0.076479003 593:0.12164 609:0.13326199 628:0.26579899 681:0.084398001 687:0.168795 714:0.13326199 716:0.12164 747:0.12164 758:0.141507 767:0.080734 854:0.141507 857:0.093525998 909:0.079608999 929:0.097352996 932:0.141507 934:0.106998 945:0.28301501 981:0.61251801 
0.99999993212504223 104:0.088719003 106:0.073812 118:0.16681001 130:0.25677699 191:0.237289 275:0.163248 309:0.129932 380:0.14857 416:0.15683 532:0.237289 686:0.670385 784:0.223462 808:0.14857 882:0.25677699 904:0.153916 937:0.17065699 984:0.223462 
0.99999993212504223 17:0.10902 90:0.27428001 179:0.081177004 191:0.253463 248:0.203107 253:0.15869699 356:0.164407 363:0.130353 423:0.217877 553:0.238694 603:0.27428001 672:0.14259399 673:0.14065599 686:0.47738701 717:0.16752 762:0.115583 777:0.156064 882:0.27428001 923:0.209962 981:0.27428001 999:0.153559 
0.99999993212504223 104:0.069066003 168:0.17396 194:0.165611 220:0.143617 235:0.25417 238:0.15878899 248:0.14802399 262:0.223827 290:0.165611 294:0.184724 307:0.184724 338:0.143617 362:0.184724 514:0.10851 538:0.165611 579:0.15878899 590:0.117682 603:0.19989599 628:0.115658 634:0.184724 641:0.127085 658:0.17396 684:0.17396 686:0.17396 697:0.306041 776:0.19989599 806:0.15878899 836:0.117682 842:0.184724 848:0.097341001 857:0.244177 904:0.11982 915:0.10851 923:0.15302099 927:0.080982 
0.99999993212504223 10:0.33490801 31:0.27742901 38:0.22572701 131:0.19384199 330:0.104177 577:0.33490801 686:0.31539199 687:0.199745 904:0.43447101 912:0.52076 
-0.29464058307874114 20:0.25670201 104:0.107054 210:0.26964301 248:0.229442 300:0.26964301 318:0.18924101 420:0.192984 423:0.24612699 503:0.25670201 578:0.474374 613:0.28632799 617:0.170772 672:0.161083 673:0.158894 686:0.26964301 687:0.170772 717:0.18924101 
-0.026589035871488517 172:0.102573 179:0.086893998 223:0.27131301 228:0.112374 229:0.063801996 238:0.11661 264:0.224749 298:0.12162 302:0.066623002 320:0.112374 330:0.042197999 384:0.135657 393:0.23322 420:0.091431998 445:0.06064 499:0.21741 501:0.077395 513:0.21093699 535:0.108705 542:0.097563997 543:0.12775201 574:0.072385997 580:0.105469 652:0.108705 669:0.24324 676:0.255503 686:0.511006 736:0.255503 739:0.105469 745:0.112374 762:0.123723 861:0.12775201 945:0.135657 964:0.084936 975:0.11661 
-0.23108840254845744 8:0.107391 104:0.177875 154:0.40895 235:0.16365001 304:0.13382301 307:0.237873 323:0.16722 395:0.19704799 438:0.25740901 498:0.184939 521:0.237873 522:0.237873 588:0.128561 599:0.130252 681:0.141872 686:0.44802299 748:0.204475 755:0.21325999 882:0.25740901 
-0.11970470800077862 17:0.043177001 24:0.45540899 70:0.083154 104:0.075062998 149:0.094532996 179:0.032148998 186:0.089994997 248:0.080439001 298:0.089994997 304:0.056473002 329:0.094532996 330:0.031225 342:0.080439001 363:0.103251 383:0.080439001 423:0.086287998 425:0.100382 429:0.21170101 430:0.089994997 445:0.044872001 446:0.083154 501:0.057270002 514:0.058966 527:0.078043997 569:0.166308 588:0.217011 599:0.054965999 628:0.062850997 658:0.094532996 673:0.055706002 686:0.56719601 709:0.17257699 748:0.17257699 760:0.083154 767:0.057270002 808:0.125701 820:0.094532996 866:0.089994997 915:0.117932 953:0.073964 971:0.078043997 972:0.094532996 982:0.100382 986:0.100382 996:0.200764 999:0.060816001 
-0.13302602778220318 170:0.118267 196:0.171717 218:0.171717 304:0.11662 309:0.113508 311:0.22431999 330:0.064480998 384:0.207295 413:0.15674099 416:0.137006 477:0.29817101 481:0.127636 494:0.35637999 496:0.16610999 499:0.16610999 502:0.207295 569:0.171717 588:0.112035 603:0.22431999 629:0.195215 686:0.39043 738:0.17818999 767:0.118267 909:0.23323999 927:0.090875998 984:0.195215 
0.99999993212504223 15:0.078666002 31:0.083816998 61:0.078666002 211:0.19057199 228:0.083816998 231:0.071129002 245:0.28585801 253:0.063352004 257:0.101182 258:0.081079997 268:0.090713002 275:0.06961 276:0.056150001 281:0.15301301 293:0.043935001 296:0.083816998 298:0.090713002 306:0.083816998 327:0.095285997 330:0.062948003 342:0.081079997 349:0.071129002 363:0.052037001 366:0.066873997 380:0.12670299 389:0.074552998 392:0.109492 396:0.083816998 406:0.101182 481:0.0623 485:0.083816998 502:0.101182 514:0.059436001 518:0.101182 537:0.101182 560:0.101182 599:0.055404 609:0.28585801 628:0.063352004 629:0.095285997 633:0.090713002 657:0.0623 664:0.090713002 668:0.202364 672:0.056922998 673:0.056150001 679:0.065631002 686:0.095285997 719:0.090713002 733:0.081079997 740:0.083816998 743:0.30354699 758:0.101182 765:0.101182 783:0.074552998 817:0.059436001 822:0.095285997 827:0.38114399 836:0.064460002 848:0.053318001 854:0.202364 855:0.060346998 857:0.133747 882:0.109492 904:0.131262 909:0.056922998 927:0.044357002 933:0.081079997 943:0.086975999 954:0.078666002 975:0.086975999 996:0.101182 997:0.059436001 1000:0.07277 
0.99999993212504223 1:0.091043003 8:0.054359 17:0.051789999 68:0.11339 73:0.11339 129:0.398967 193:0.084643997 206:0.058483001 248:0.096484996 249:0.107948 276:0.066817999 302:0.059133001 323:0.084643997 336:0.13029601 356:0.078101002 387:0.086595997 433:0.240814 485:0.099742003 497:0.076706998 513:0.187225 514:0.070729002 554:0.30597901 569:0.099742003 572:0.187225 584:0.079580002 592:0.103501 596:0.107948 628:0.075387999 629:0.11339 634:0.120407 664:0.32384399 672:0.067737997 687:0.071813002 688:0.120977 748:0.103501 805:0.059133001 827:0.11339 842:0.120407 853:0.103501 854:0.120407 855:0.071813002 857:0.159159 863:0.103501 882:0.26059201 904:0.234303 923:0.099742003 932:0.120407 975:0.103501 977:0.120407 
0.99999993212504223 104:0.111841 144:0.21028499 170:0.170662 191:0.29913199 205:0.32370001 221:0.281701 240:0.29913199 377:0.281701 456:0.20579401 599:0.16379599 644:0.187291 705:0.29913199 857:0.197704 882:0.32370001 904:0.19403 971:0.232566 985:0.20579401 
0.99999993212504223 17:0.072098002 90:0.54416502 132:0.167622 179:0.107369 227:0.18138801 235:0.115319 286:0.26064101 303:0.15785401 335:0.15785401 440:0.126743 484:0.167622 485:0.138853 495:0.432262 509:0.167622 628:0.10495 658:0.15785401 700:0.167622 736:0.15785401 762:0.076438002 857:0.22157 882:0.18138801 904:0.108727 945:0.167622 
0.99999993212504223 106:0.139677 130:0.242956 191:0.224516 304:0.12630799 342:0.179911 351:0.21143299 416:0.148388 468:0.14057299 492:0.21143299 530:0.165428 583:0.201285 590:0.28606299 624:0.136021 664:0.201285 668:0.224516 728:0.21143299 736:0.21143299 739:0.17455401 817:0.13188399 881:0.224516 904:0.145631 913:0.21143299 984:0.42286599 
-0.20592247614429704 131:0.121555 276:0.116544 296:0.17397 330:0.065327004 353:0.18828399 411:0.37656799 450:0.18828399 482:0.239637 490:0.158797 583:0.18828399 599:0.114997 688:0.105505 691:0.180528 807:0.210014 830:0.227263 832:0.30208299 850:0.151041 857:0.13880301 880:0.18828399 882:0.45452601 989:0.197776 998:0.197776 
-0.021986463929831723 7:0.156308 17:0.078212999 61:0.14137299 72:0.18183801 245:0.171242 249:0.16302299 317:0.171242 349:0.255658 440:0.137493 449:0.245116 469:0.18183801 501:0.103743 513:0.282747 517:0.231686 554:0.092418 572:0.282747 574:0.097028002 624:0.110165 629:0.171242 638:0.16302299 664:0.16302299 674:0.19677299 681:0.108452 772:0.120181 777:0.111962 865:0.16302299 882:0.393545 905:0.16302299 951:0.115843 991:0.133982 
-0.29618940366769886 33:0.17282499 91:0.14705899 106:0.171257 121:0.17282499 206:0.089137003 275:0.126256 293:0.079686999 296:0.152022 308:0.152022 325:0.135221 331:0.17282499 335:0.17282499 355:0.13198601 364:0.152022 390:0.088172004 396:0.152022 432:0.18351901 497:0.116914 579:0.15775301 609:0.17282499 628:0.114904 633:0.16452999 647:0.16452999 664:0.16452999 665:0.12901101 672:0.206488 681:0.109454 688:0.092193998 717:0.121292 740:0.152022 757:0.18351901 764:0.152022 780:0.32905999 805:0.090129003 857:0.121292 868:0.107802 900:0.10622 919:0.15775301 927:0.080453001 945:0.18351901 951:0.116914 961:0.19859201 973:0.14268 
-0.51611805617557327 78:0.308357 131:0.17847501 179:0.098757997 306:0.25543499 349:0.21676999 396:0.25543499 445:0.137839 452:0.20783199 517:0.196444 563:0.33368301 603:0.33368301 609:0.290389 664:0.27645099 798:0.27645099 909:0.173476 932:0.308357 
-0.0058428464643338895 34:0.210675 50:0.361168 94:0.143967 197:0.165187 259:0.19054601 330:0.076237001 349:0.172291 356:0.15897299 390:0.117751 440:0.185316 466:0.185316 572:0.19054601 574:0.130776 624:0.14848299 628:0.153451 655:0.210675 664:0.219726 681:0.146173 717:0.161983 742:0.230804 772:0.161983 827:0.230804 857:0.32396501 887:0.13788 923:0.203022 927:0.107443 930:0.15613499 951:0.15613499 
0.99999993212504223 29:0.20397601 68:0.19209 115:0.14033 116:0.20397601 253:0.127712 258:0.163451 313:0.16896801 325:0.15029401 443:0.20397601 479:0.18287 590:0.12994599 592:0.175337 610:0.158585 623:0.18287 632:0.441457 662:0.18287 666:0.163451 686:0.19209 695:0.158585 726:0.19209 762:0.093015999 808:0.127712 827:0.19209 836:0.12994599 904:0.13230801 943:0.175337 963:0.18287 972:0.19209 979:0.18287 
0.99999993212504223 17:0.14664701 20:0.305664 38:0.229794 248:0.273206 298:0.305664 395:0.28242701 445:0.15240499 508:0.32107499 541:0.340942 603:0.36894399 673:0.189201 857:0.225337 904:0.22115 973:0.26507199 
0.84526338232908471 68:0.093198001 91:0.079302996 113:0.098963998 115:0.204254 156:0.093198001 160:0.107092 179:0.063391 234:0.085069999 257:0.098963998 288:0.093198001 293:0.042971998 313:0.081978999 316:0.245938 321:0.098963998 330:0.092352003 336:0.107092 385:0.093198001 390:0.047547001 398:0.081978999 399:0.088724002 423:0.170139 444:0.125342 445:0.044238001 459:0.079302996 477:0.14235 479:0.177449 497:0.063046999 499:0.15860499 506:0.081978999 518:0.098963998 538:0.088724002 543:0.093198001 554:0.050298002 606:0.186395 609:0.093198001 617:0.118048 623:0.177449 632:0.107092 634:0.19792899 643:0.098963998 650:0.085069999 680:0.093198001 681:0.059023999 686:0.27959299 687:0.059023999 697:0.081978999 721:0.076941997 755:0.088724002 758:0.098963998 762:0.045129001 783:0.072919004 817:0.058132999 849:0.079302996 855:0.059023999 882:0.32127699 900:0.05728 904:0.38515601 909:0.055675 922:0.076941997 927:0.043384999 928:0.107092 981:0.107092 
-0.31109776398983785 17:0.116551 245:0.25518101 253:0.169659 293:0.11766 363:0.139357 389:0.19965699 430:0.242934 530:0.19965699 572:0.21067201 616:0.242934 686:0.25518101 695:0.21067201 740:0.224465 743:0.54194301 808:0.169659 817:0.159172 920:0.242934 923:0.224465 
-0.27190018816773842 128:0.26696599 175:0.246704 215:0.204363 255:0.33945 261:0.40872601 298:0.221177 356:0.48006901 496:0.19769 641:0.169725 710:0.26696599 805:0.12116 863:0.21206599 923:0.204363 924:0.154465 
-0.087040070644702011 22:0.049911998 61:0.055201001 74:0.142001 114:0.071001001 138:0.076831996 156:0.066863 157:0.071001001 172:0.053684998 193:0.049911998 206:0.034485999 210:0.133727 231:0.049911998 245:0.20059 249:0.063653998 253:0.088909 255:0.048845999 262:0.043014999 268:0.063653998 276:0.039400999 302:0.034869 316:0.35289001 330:0.022086 342:0.056894999 354:0.061032001 369:0.061032001 397:0.056894999 409:0.076831996 424:0.046053998 430:0.063653998 444:0.029975001 445:0.031738002 467:0.063653998 480:0.058814999 481:0.043717001 508:0.066863 510:0.076831996 541:0.071001001 624:0.043014999 628:0.044454999 633:0.063653998 641:0.390771 659:0.113789 664:0.31827101 668:0.071001001 672:0.199718 673:0.078801997 686:0.20059 713:0.046053998 726:0.066863 733:0.113789 740:0.058814999 743:0.142001 754:0.142001 764:0.058814999 774:0.063653998 808:0.044454999 810:0.063653998 821:0.15366399 827:0.26745301 854:0.071001001 857:0.046925999 882:0.076831996 897:0.051063001 923:0.11763 927:0.031126 929:0.048845999 954:0.331204 976:0.071001001 
-0.31143055987609219 63:0.080610998 161:0.123031 179:0.043951001 229:0.064542003 238:0.117963 293:0.059588 298:0.24606299 330:0.042686999 352:0.129234 377:0.387703 378:0.258468 380:0.085922003 430:0.123031 455:0.117963 458:0.471854 475:0.101115 477:0.098696001 528:0.123031 554:0.139493 578:0.113678 590:0.087425001 599:0.075143002 617:0.081846997 649:0.123031 701:0.13723101 762:0.062579997 769:0.258468 802:0.27446201 850:0.098696001 857:0.090699002 882:0.297003 912:0.106693 927:0.120322 
-0.11652856494417402 128:0.463101 179:0.068530001 212:0.213976 214:0.17725199 247:0.32358599 255:0.14721 356:0.55517799 363:0.220091 710:0.23154999 716:0.183934 882:0.23154999 915:0.12569299 924:0.133974 977:0.213976 
-0.24981482097055013 17:0.080748998 38:0.126533 46:0.17679501 57:0.14195099 67:0.13501801 91:0.150437 103:0.155515 104:0.14038301 162:0.155515 245:0.17679501 248:0.150437 293:0.16303401 330:0.058396999 420:0.126533 453:0.161376 465:0.161376 503:0.16831 519:0.18773501 562:0.203154 584:0.124078 657:0.231186 664:0.16831 673:0.104181 678:0.13501801 699:0.155515 720:0.131974 732:0.155515 745:0.155515 820:0.17679501 836:0.119599 926:0.117543 933:0.150437 958:0.16831 966:0.37547001 980:0.161376 985:0.25831199 
-0.29932517474346143 63:0.085430004 84:0.14543401 158:0.136959 179:0.046578001 231:0.102237 247:0.109966 251:0.136959 318:0.192241 323:0.102237 419:0.157378 420:0.098021999 466:0.219933 482:0.082974002 495:0.250029 508:0.136959 554:0.51740801 574:0.077602997 590:0.092651002 603:0.157378 614:0.23308 617:0.086739004 673:0.161413 677:0.12501501 679:0.28300399 694:0.12501501 762:0.066320002 799:0.136959 807:0.14543401 827:0.136959 850:0.104595 857:0.192241 882:0.157378 912:0.11307 927:0.063757002 956:0.14543401 1000:0.104595 
-0.19317079532039003 5:0.191122 100:0.26601601 168:0.231501 248:0.39397401 293:0.106741 299:0.191122 320:0.20363601 390:0.236215 397:0.196987 412:0.22039001 425:0.24582601 442:0.211312 490:0.185876 493:0.24582601 603:0.26601601 673:0.136418 686:0.231501 767:0.14025 850:0.176797 915:0.144402 949:0.191122 
-0.28282307875928508 17:0.102971 31:0.198312 93:0.186125 106:0.074468002 224:0.239399 235:0.1647 240:0.239399 248:0.191837 263:0.25906101 343:0.205787 375:0.239399 393:0.205787 429:0.168294 445:0.214029 597:0.25906101 686:0.225449 707:0.198312 721:0.186125 777:0.147404 797:0.239399 805:0.117572 858:0.205787 882:0.25906101 900:0.13856301 973:0.186125 
-0.29619219728096058 294:0.27129301 298:0.243221 328:0.210921 330:0.084389001 366:0.179304 428:0.25548401 443:0.27129301 494:0.233202 590:0.345662 594:0.210921 631:0.243221 673:0.15054999 686:0.25548401 748:0.233202 762:0.123714 848:0.142958 917:0.43478701 
0.98216305666670156 17:0.045979001 20:0.095836997 38:0.072048999 105:0.106898 179:0.068472996 191:0.213796 193:0.075148001 206:0.051922001 230:0.183779 245:0.20133799 253:0.066930003 286:0.16621999 291:0.17132001 297:0.088551998 300:0.100669 330:0.033252001 349:0.075148001 356:0.138678 364:0.088551998 402:0.080828004 416:0.070651002 435:0.100669 440:0.080828004 445:0.047784999 456:0.073542997 484:0.106898 513:0.24933 569:0.177103 572:0.33243901 577:0.106898 592:0.091889001 609:0.20133799 613:0.106898 624:0.064763002 628:0.066930003 634:0.106898 641:0.073542997 664:0.19167399 673:0.118643 684:0.20133799 687:0.063755997 717:0.141303 753:0.100669 758:0.213796 790:0.177103 808:0.066930003 827:0.100669 842:0.213796 854:0.106898 857:0.070651002 884:0.091889001 904:0.20801599 923:0.088551998 951:0.068100996 954:0.16621999 1000:0.076880999 
-0.36538601786083891 31:0.23646 110:0.30889601 120:0.154448 178:0.142726 179:0.182843 408:0.28545099 414:0.134409 424:0.092578001 454:0.142726 527:0.110965 552:0.134409 610:0.221929 664:0.127958 684:0.53763503 687:0.170248 767:0.081428997 777:0.175759 857:0.18866199 915:0.083838999 916:0.29457399 960:0.221929 973:0.110965 
-0.37596855805442458 21:0.278115 166:0.24737699 201:0.33573601 253:0.210209 294:0.33573601 440:0.25385901 513:0.261024 514:0.197216 572:0.261024 574:0.17914701 603:0.36331001 628:0.210209 774:0.30099699 929:0.230977 
-0.31042432663432645 147:0.16760799 160:0.192597 276:0.098766997 286:0.138373 326:0.50282502 336:0.192597 340:0.192597 373:0.16760799 377:0.16760799 451:0.159564 501:0.20308299 642:0.29486701 658:0.16760799 734:0.13457499 769:0.16760799 781:0.16760799 817:0.104548 857:0.23526201 882:0.385194 932:0.17797901 969:0.142619 
-0.20491247387304501 5:0.14724401 70:0.156884 102:0.178352 104:0.14162 115:0.130294 140:0.18938901 179:0.060656 229:0.089073002 235:0.130294 253:0.118579 254:0.18938901 258:0.15176199 293:0.082235001 309:0.103703 338:0.14724401 342:0.30352399 371:0.169792 380:0.118579 399:0.169792 424:0.122846 429:0.26627401 471:0.18938901 527:0.14724401 569:0.156884 588:0.204714 607:0.169792 657:0.116611 658:0.178352 681:0.112955 709:0.162798 767:0.108051 808:0.237158 855:0.22590999 857:0.12517101 868:0.11125 875:0.127647 971:0.14724401 996:0.18938901 
-0.12881803408616554 22:0.15658399 83:0.241036 87:0.241036 106:0.20785999 171:0.399389 179:0.071337998 193:0.15658399 262:0.134946 266:0.141901 290:0.19969501 307:0.22274201 308:0.184514 342:0.356978 378:0.20976201 475:0.164121 497:0.141901 583:0.19969501 657:0.13714799 688:0.111899 721:0.17317501 803:0.22274201 813:0.241036 926:0.13946199 999:0.134946 
-0.16976586515155601 179:0.108412 188:0.140203 224:0.16925099 229:0.079602003 248:0.135625 258:0.135625 280:0.140203 302:0.166243 303:0.31877601 359:0.11644 431:0.140203 483:0.135625 495:0.14548799 499:0.135625 541:0.33850199 588:0.091472998 628:0.10597 666:0.135625 686:0.478165 687:0.100944 724:0.14548799 733:0.135625 762:0.077180997 767:0.28968501 826:0.30347601 827:0.15938801 885:0.135625 
-0.34465541842522401 68:0.080605999 79:0.080605999 91:0.068588004 106:0.026625 108:0.055520002 115:0.058885999 117:0.064719997 118:0.060171001 166:0.063066997 179:0.027412999 183:0.073576003 197:0.115379 207:0.25678101 210:0.080605999 228:0.070903003 257:0.085593998 287:0.085593998 290:0.153474 297:0.070903003 299:0.066546001 305:0.073576003 306:0.070903003 311:0.092623003 315:0.061558001 321:0.085593998 323:0.060171001 329:0.080605999 335:0.080605999 356:0.166559 360:0.080605999 366:0.056570999 368:0.080605999 398:0.070903003 412:0.076737002 430:0.076737002 444:0.072270997 445:0.038261 466:0.064719997 475:0.063066997 479:0.230211 481:0.052701999 497:0.054529 502:0.085593998 503:0.076737002 504:0.105404 518:0.085593998 523:0.076737002 542:0.061558001 548:0.153474 554:0.043501999 579:0.073576003 583:0.076737002 609:0.080605999 617:0.05105 629:0.080605999 660:0.092623003 667:0.085593998 673:0.047499001 677:0.073576003 686:0.32242301 690:0.066546001 691:0.073576003 726:0.080605999 733:0.068588004 758:0.085593998 767:0.048833001 797:0.085593998 800:0.070903003 808:0.053591002 813:0.092623003 823:0.085593998 827:0.161212 853:0.073576003 882:0.463117 890:0.171187 902:0.085593998 920:0.076737002 941:0.092623003 949:0.133092 953:0.063066997 991:0.189201 
-0.35612053754984224 48:0.12577 104:0.124381 115:0.114434 125:0.137787 170:0.094898 283:0.166335 293:0.072224997 302:0.081689 313:0.137787 380:0.104145 381:0.359992 440:0.12577 462:0.149124 491:0.166335 497:0.105966 508:0.156642 509:0.166335 551:0.179996 599:0.18216 686:0.156642 741:0.149124 745:0.137787 767:0.094898 804:0.215784 848:0.087650999 855:0.099205002 857:0.219869 869:0.179996 875:0.112109 882:0.53998798 999:0.100773 
-0.02858862406567779 132:0.154149 141:0.16680899 170:0.087945998 221:0.14516599 253:0.096515 292:0.154149 294:0.154149 300:0.14516599 328:0.119846 330:0.04795 349:0.108364 351:0.58066398 374:0.154149 387:0.221726 414:0.29033199 481:0.094912998 485:0.127693 494:0.132506 514:0.090549 686:0.29033199 749:0.154149 789:0.14516599 840:0.138199 882:0.16680899 917:0.123523 929:0.10605 949:0.119846 965:0.16680899 973:0.119846 999:0.093390003 
-0.23212352648161408 38:0.158994 63:0.138569 104:0.088198997 125:0.195411 131:0.136536 186:0.21148901 207:0.235897 234:0.202777 254:0.235897 270:0.222151 286:0.183403 330:0.073379003 338:0.183403 349:0.165832 402:0.178368 473:0.12917 517:0.150282 592:0.202777 599:0.12917 653:0.21148901 678:0.16965599 681:0.14069299 687:0.14069299 732:0.195411 736:0.222151 819:0.150282 836:0.150282 848:0.124307 857:0.15591 909:0.13271099 956:0.235897 985:0.16229101 991:0.173814 
-0.20335820039939467 10:0.161872 46:0.15244 57:0.122396 67:0.23283599 70:0.134091 77:0.139145 94:0.095086001 104:0.24208701 220:0.12585101 227:0.17516699 236:0.139145 245:0.30487901 305:0.139145 355:0.116418 359:0.111364 363:0.083249003 389:0.119271 390:0.077771999 402:0.122396 455:0.139145 456:0.111364 574:0.086374 588:0.087485999 628:0.101351 658:0.30487901 671:0.15244 681:0.096543998 688:0.081320003 692:0.122396 699:0.134091 786:0.161872 808:0.101351 842:0.161872 861:0.15244 866:0.145123 874:0.15244 875:0.109101 880:0.145123 915:0.095086001 919:0.27829 933:0.129712 951:0.103123 961:0.17516699 
-0.28837006577729229 104:0.075698003 151:0.19066601 245:0.57199699 253:0.126765 302:0.099432997 349:0.14232799 363:0.104125 364:0.167715 397:0.162239 402:0.153088 494:0.17403699 536:0.219092 603:0.219092 665:0.14232799 673:0.224709 688:0.101712 717:0.26762599 965:0.43818399 973:0.157409 
-0.1974661703049824 57:0.159914 106:0.065787002 179:0.067734003 286:0.32885501 446:0.175194 501:0.120661 526:0.42298299 574:0.11285 584:0.13978 629:0.199167 655:0.36359501 664:0.18960799 705:0.211491 735:0.228861 760:0.175194 762:0.096442997 856:0.13978 905:0.18960799 913:0.199167 935:0.228861 947:0.175194 966:0.211491 980:0.181797 
-0.46822211452493656 202:0.17598701 302:0.111168 304:0.127345 330:0.070412003 333:0.22635899 339:0.20293701 373:0.21316899 423:0.19457801 482:0.129143 506:0.18751 516:0.20293701 578:0.18751 586:0.28841099 644:0.141727 686:0.21316899 697:0.37502 767:0.129143 857:0.149606 882:0.48989999 943:0.19457801 948:0.159126 
-0.28965769410598674 15:0.112987 106:0.045205999 179:0.046544001 183:0.124923 190:0.112987 211:0.136859 214:0.120385 220:0.112987 222:0.145327 253:0.090992004 275:0.099981003 298:0.13029 306:0.48154199 329:0.136859 363:0.22422101 365:0.157263 402:0.109886 423:0.249846 451:0.13029 454:0.145327 468:0.090992004 471:0.145327 496:0.116455 543:0.136859 575:0.13029 577:0.145327 602:0.145327 641:0.099981003 658:0.136859 659:0.34936401 673:0.080646999 686:0.136859 743:0.145327 777:0.089482002 872:0.136859 887:0.081758 916:0.099981003 945:0.145327 957:0.136859 960:0.112987 
-0.26294047008877708 68:0.38782799 131:0.119181 143:0.184607 188:0.170573 196:0.170573 228:0.170573 275:0.141662 276:0.114268 293:0.08941 306:0.34114599 309:0.112752 329:0.193914 330:0.064052001 429:0.14475299 463:0.20591301 468:0.128925 550:0.193914 572:0.160091 574:0.109874 599:0.112752 628:0.128925 631:0.184607 667:0.20591301 672:0.115843 673:0.114268 686:0.193914 743:0.20591301 808:0.128925 853:0.177002 855:0.12281 923:0.170573 945:0.20591301 
-0.23206683442879647 10:0.199607 34:0.085790999 47:0.075464003 50:0.367686 58:0.099803001 70:0.082673997 91:0.079975002 94:0.058626 106:0.031044999 108:0.064737 166:0.147074 179:0.031964 197:0.201801 218:0.082673997 230:0.085790999 249:0.089477003 257:0.099803001 266:0.063580997 290:0.089477003 304:0.056147002 315:0.071777999 323:0.070160002 353:0.089477003 370:0.064737 374:0.099803001 385:0.093988001 396:0.082673997 420:0.067267001 423:0.171581 429:0.070160002 439:0.099803001 448:0.093988001 457:0.099803001 471:0.099803001 518:0.099803001 526:0.29940999 583:0.089477003 631:0.089477003 657:0.061450999 662:0.089477003 679:0.064737 686:0.187975 687:0.059525002 696:0.171581 713:0.064737 717:0.197887 739:0.077593997 742:0.093988001 758:0.39921299 769:0.093988001 773:0.099803001 810:0.089477003 827:0.187975 837:0.085790999 882:0.108 883:0.093988001 887:0.056147002 908:0.082673997 926:0.062488001 927:0.087506004 962:0.093988001 973:0.077593997 
-0.18911913023205745 54:0.063444003 89:0.117258 93:0.045582 104:0.065761998 121:0.055211999 134:0.052561998 155:0.040335 161:0.105125 165:0.058628999 170:0.033449002 172:0.088661999 179:0.018777 193:0.041214999 213:0.055211999 228:0.048567001 240:0.058628999 253:0.036708001 265:0.046980999 283:0.058628999 294:0.058628999 300:0.055211999 302:0.115174 316:0.048567001 323:0.041214999 328:0.091164 334:0.041214999 344:0.063444003 349:0.082429998 355:0.042165998 363:0.030152 364:0.048567001 369:0.050397001 370:0.038029 375:0.058628999 393:0.050397001 395:0.048567001 396:0.048567001 415:0.063444003 420:0.118547 424:0.076058 429:0.041214999 445:0.026208 446:0.19426601 447:0.12688801 457:0.058628999 461:0.055211999 466:0.044330999 468:0.036708001 474:0.100794 475:0.043198999 476:0.063444003 497:0.037349999 514:0.034439001 517:0.037349999 525:0.055211999 583:0.052561998 597:0.063444003 599:0.16051701 600:0.063444003 640:0.052561998 652:0.046980999 658:0.496912 666:0.046980999 673:0.065070003 679:0.076058 681:0.034967002 686:0.22085001 697:0.048567001 706:0.040335 713:0.114088 726:0.055211999 732:0.048567001 734:0.044330999 736:0.055211999 738:0.050397001 744:0.063444003 749:0.058628999 790:0.048567001 808:0.036708001 824:0.055211999 826:0.052561998 827:0.22085001 838:0.063444003 848:0.061788999 855:0.034967002 857:0.387492 859:0.19426601 866:0.105125 877:0.055211999 878:0.091164 880:0.052561998 882:0.12688801 900:0.033934001 910:0.058628999 915:0.068879001 927:0.025702 934:0.044330999 936:0.190332 937:0.042165998 973:0.091164 979:0.052561998 993:0.063444003 
-0.099539126361062741 99:0.30149201 150:0.239493 193:0.195858 206:0.135324 257:0.27860999 281:0.210664 444:0.117623 518:0.27860999 572:0.21661 679:0.180719 857:0.18414 886:0.60298502 983:0.249782 991:0.205286 
-0.26297183033178323 132:0.29666299 156:0.27937499 210:0.27937499 330:0.09228 387:0.213358 416:0.196071 428:0.27937499 430:0.265966 445:0.132612 452:0.199949 513:0.230646 563:0.32102701 572:0.46129099 613:0.29666299 
-0.1320533952869227 14:0.21082 21:0.185444 25:0.24225099 38:0.150884 65:0.21082 66:0.200701 94:0.131501 131:0.12957101 177:0.21082 253:0.140165 302:0.109943 312:0.24225099 313:0.185444 330:0.069636002 331:0.21082 356:0.145208 380:0.140165 439:0.223865 497:0.142617 539:0.164948 572:0.17404801 584:0.147957 599:0.122581 624:0.135627 738:0.192434 797:0.223865 812:0.24225099 848:0.117966 882:0.24225099 963:0.200701 964:0.140165 
-0.10837964290583021 179:0.093722001 281:0.221269 293:0.127066 309:0.160238 329:0.55116397 372:0.25154799 389:0.215619 549:0.201324 588:0.158158 664:0.262355 762:0.13344599 819:0.186427 827:0.27558199 855:0.17453299 927:0.25657699 971:0.227514 984:0.27558199 
-0.19289167523752923 58:0.103679 113:0.103679 205:0.112194 256:0.112194 276:0.057535 287:0.103679 311:0.112194 321:0.103679 335:0.097636998 359:0.071327999 363:0.106642 374:0.207357 384:0.103679 404:0.112194 416:0.068524003 420:0.069879003 423:0.089121997 440:0.078394003 444:0.087541997 445:0.046346001 446:0.085885003 479:0.092951 494:0.62385398 499:0.083080001 517:0.1321 523:0.092951 578:0.085885003 583:0.092951 594:0.16121399 629:0.097636998 632:0.112194 650:0.089121997 660:0.112194 664:0.092951 672:0.058327999 681:0.061836001 686:0.195274 687:0.061836001 739:0.080606997 745:0.085885003 775:0.207357 783:0.076393001 790:0.17176899 817:0.121805 855:0.061836001 882:0.112194 884:0.17824399 890:0.103679 900:0.120017 916:0.071327999 943:0.089121997 973:0.080606997 992:0.097636998 
-0.15520848078913135 5:0.34033099 102:0.137411 104:0.21822099 131:0.084454 140:0.145914 179:0.046732001 185:0.145914 193:0.102575 224:0.29182801 230:0.12542801 248:0.116925 274:0.12542801 304:0.082088001 338:0.113444 359:0.100385 363:0.150084 377:0.137411 473:0.079898 541:0.145914 549:0.100385 575:0.261632 588:0.157722 590:0.092956997 592:0.12542801 658:0.137411 686:0.137411 706:0.100385 760:0.241743 767:0.083247997 817:0.085712001 820:0.137411 850:0.104941 857:0.192876 860:0.137411 885:0.116925 891:0.27482301 927:0.063968003 932:0.145914 934:0.220659 949:0.113444 968:0.12542801 
-0.15955262727060771 8:0.055443998 66:0.110102 118:0.086332999 124:0.13289601 179:0.039331999 220:0.095481001 224:0.12281 228:0.101732 231:0.086332999 253:0.076893002 255:0.084489003 276:0.13630299 282:0.13289601 291:0.29523101 303:0.115653 323:0.086332999 328:0.095481001 330:0.038201001 358:0.115653 363:0.063160002 390:0.059004001 420:0.165546 495:0.211134 496:0.098410003 506:0.101732 530:0.090489 546:0.115653 548:0.110102 553:0.115653 588:0.066373996 592:0.105567 641:0.084489003 643:0.12281 650:0.105567 673:0.068150997 686:0.115653 687:0.073246002 695:0.095481001 703:0.115653 713:0.079659998 715:0.098410003 717:0.243503 728:0.115653 734:0.092859998 742:0.115653 745:0.305197 770:0.13289601 805:0.060313001 817:0.072140001 827:0.115653 867:0.13289601 922:0.095481001 923:0.101732 947:0.101732 954:0.095481001 975:0.42226699 985:0.084489003 1000:0.088324003 
-0.030675159927019122 6:0.167468 75:0.33493599 118:0.108792 155:0.106469 198:0.13874499 241:0.133029 302:0.076003999 313:0.128197 328:0.120319 330:0.096277997 377:0.14574 420:0.104306 435:0.14574 445:0.069178998 473:0.16948099 514:0.181814 568:0.35104901 583:0.13874499 617:0.092299998 646:0.20861199 650:0.133029 662:0.13874499 671:0.14574 681:0.092299998 686:0.29147899 698:0.14574 717:0.102283 721:0.120319 725:0.167468 749:0.15475801 790:0.128197 857:0.102283 865:0.13874499 882:0.167468 915:0.181814 925:0.14574 927:0.067844003 941:0.167468 947:0.128197 948:0.108792 
-0.20294872458822652 85:0.071523003 163:0.13218901 179:0.042335998 208:0.124486 229:0.062171001 238:0.056814998 260:0.13641401 262:0.040043 282:0.071523003 286:0.051385999 297:0.054751001 307:0.13218901 309:0.036191002 311:0.071523003 323:0.046463002 328:0.102773 330:0.041119002 337:0.118511 342:0.052963 352:0.062243 357:0.062243 370:0.042872 375:0.13218901 377:0.062243 399:0.118511 417:0.059255999 420:0.044548001 444:0.027904 448:0.062243 462:0.059255999 465:0.056814998 468:0.041382998 505:0.124486 522:0.066095002 527:0.051385999 538:0.118511 566:0.13218901 583:0.35553399 594:0.051385999 644:0.041382998 650:0.11363 663:0.118511 673:0.073357001 679:0.042872 686:0.248973 687:0.078840002 702:0.18673 703:0.062243 705:0.13218901 717:0.043683998 732:0.164253 769:0.311216 782:0.066095002 799:0.18673 800:0.383257 801:0.14304601 804:0.042872 820:0.124486 836:0.042107001 861:0.062243 882:0.071523003 920:0.059255999 925:0.062243 931:0.059255999 942:0.124486 945:0.26437899 968:0.056814998 
0.23820806788657109 57:0.199365 179:0.084444001 255:0.18139499 293:0.114488 302:0.12949 306:0.21841399 330:0.082015999 333:0.263666 370:0.17102499 492:0.248302 501:0.150428 554:0.13400599 592:0.226647 664:0.236384 748:0.226647 762:0.120236 882:0.285321 904:0.51307601 929:0.18139499 943:0.226647 985:0.18139499 
-0.20993378491058948 30:0.174758 46:0.304167 47:0.12211 104:0.120761 123:0.161494 186:0.144784 193:0.113528 207:0.161494 283:0.161494 293:0.070123002 309:0.088428997 349:0.113528 351:0.15208399 377:0.15208399 417:0.144784 461:0.15208399 477:0.116146 497:0.102882 592:0.13882001 599:0.088428997 654:0.15208399 664:0.144784 686:0.15208399 695:0.12555701 699:0.13377801 703:0.15208399 736:0.15208399 739:0.12555701 746:0.174758 748:0.13882001 765:0.322988 767:0.092136003 784:0.15208399 857:0.213471 882:0.349516 885:0.129409 915:0.094864003 986:0.161494 
-0.15655994593864539 8:0.059597 33:0.124316 50:0.29179999 57:0.099815004 115:0.090818003 152:0.132009 159:0.124316 162:0.109352 193:0.092799999 206:0.064117998 255:0.090818003 266:0.084097996 272:0.094939999 277:0.52803499 330:0.041063 349:0.092799999 416:0.087247998 445:0.059009001 502:0.132009 537:0.132009 574:0.070439003 582:0.14285 615:0.26401699 619:0.132009 652:0.105782 655:0.113474 657:0.081280999 664:0.118349 673:0.073256001 686:0.124316 689:0.109352 717:0.087247998 748:0.113474 764:0.109352 767:0.075314 777:0.081280999 805:0.12966201 840:0.118349 857:0.174495 881:0.26401699 913:0.248632 926:0.082652003 927:0.057870999 937:0.094939999 970:0.118349 
-0.17783880570813521 77:0.232236 106:0.084039003 226:0.27016801 230:0.232236 299:0.21004701 380:0.169156 449:0.18209299 501:0.154138 503:0.24221399 508:0.25442499 543:0.25442499 574:0.28832099 664:0.24221399 720:0.37984699 736:0.25442499 785:0.216493 789:0.25442499 857:0.178561 
-0.14215557985712174 5:0.1095 17:0.020192999 18:0.044211 106:0.014603 108:0.030452 116:0.046946999 123:0.046946999 131:0.027172999 167:0.037620001 169:0.034591999 179:0.045107 200:0.15048 205:0.050802998 206:0.022802999 212:0.046946999 231:0.066005997 238:0.161422 247:0.035498001 251:0.044211 258:0.037620001 265:0.037620001 293:0.020385001 294:0.14084101 297:0.350007 298:0.042089 302:0.046112999 306:0.077779002 309:0.025707001 328:0.36499801 339:0.126268 351:0.221057 363:0.024143999 377:0.044211 380:0.029394001 383:0.075240001 384:0.046946999 389:0.069182999 396:0.03889 402:0.070996001 420:0.031642001 423:0.040355999 425:0.093893997 428:0.132634 429:0.033002999 440:0.035498001 444:0.019819999 451:0.042089 452:0.031642001 453:0.040355999 466:0.035498001 468:0.058788002 473:0.025707001 481:0.028906001 482:0.026784001 512:0.037620001 525:0.044211 574:0.050101001 579:0.121067 588:0.025373001 590:0.089725003 593:0.121067 603:0.050802998 605:0.046946999 617:0.083999999 627:0.040355999 631:0.042089 643:0.32863 651:0.046946999 658:0.044211 659:0.15048 664:0.042089 666:0.037620001 673:0.026053 679:0.030452 683:0.093893997 686:0.221057 695:0.145999 700:0.046946999 705:0.046946999 706:0.064595997 721:0.036499999 736:0.044211 748:0.161422 762:0.14985999 765:0.093893997 777:0.028906001 779:0.046946999 782:0.093893997 790:0.233338 814:0.046946999 817:0.055155002 827:0.044211 842:0.046946999 845:0.042089 850:0.067528002 855:0.028000001 857:0.186171 882:0.050802998 885:0.037620001 896:0.046946999 900:0.027172999 907:0.044211 909:0.026411001 915:0.027577 920:0.042089 924:0.029394001 934:0.035498001 943:0.080711 948:0.033002999 953:0.034591999 954:0.036499999 956:0.046946999 982:0.046946999 
-0.13196369487269166 49:0.150227 95:0.141473 229:0.070655003 239:0.141473 245:0.28294599 293:0.065231003 302:0.073779002 335:0.141473 342:0.120381 369:0.25827 410:0.16256499 435:0.141473 510:0.16256499 534:0.150227 572:0.116797 588:0.162384 605:0.150227 617:0.089598 653:0.134683 675:0.141473 686:0.28294599 687:0.089598 697:0.248888 715:0.120381 774:0.134683 776:0.16256499 784:0.42441899 806:0.129135 857:0.099289 867:0.16256499 929:0.103352 944:0.150227 945:0.150227 975:0.129135 996:0.150227 
-0.12378789945685045 179:0.061949998 220:0.150387 260:0.133075 286:0.150387 288:0.18216 302:0.094997004 310:0.173417 316:0.160234 363:0.19895899 377:0.18216 507:0.209318 552:0.18216 554:0.19662 573:0.209318 578:0.160234 593:0.166273 618:0.209318 625:0.166273 628:0.12111 686:0.18216 691:0.166273 726:0.18216 732:0.160234 761:0.193431 762:0.088207997 787:0.193431 792:0.209318 827:0.18216 850:0.13911501 899:0.193431 912:0.150387 915:0.113624 925:0.18216 934:0.14625899 945:0.193431 
-0.15025916078738072 245:0.39235801 253:0.130431 267:0.17907 273:0.208318 309:0.114069 327:0.196179 330:0.064800002 390:0.100086 416:0.13768201 459:0.166931 488:0.196179 501:0.118851 513:0.161961 561:0.208318 572:0.32392099 624:0.252415 642:0.172565 686:0.196179 783:0.153493 825:0.186763 827:0.196179 836:0.13271201 855:0.124245 882:0.225427 887:0.117196 905:0.186763 951:0.13271201 963:0.186763 
-0.13341425403166995 45:0.51893198 123:0.144706 131:0.083755001 146:0.124389 170:0.082557999 172:0.109416 211:0.136274 228:0.119871 245:0.136274 253:0.090602003 258:0.115957 275:0.099554002 276:0.080302 283:0.144706 302:0.071066998 306:0.119871 330:0.045012001 363:0.074421003 414:0.136274 416:0.19127899 468:0.090602003 515:0.144706 624:0.087669 628:0.090602003 631:0.129733 651:0.144706 668:0.144706 672:0.081409 673:0.080302 679:0.093863003 686:0.27254701 728:0.136274 741:0.129733 743:0.28941199 767:0.082557999 783:0.106622 803:0.144706 817:0.085001998 848:0.076252997 854:0.144706 872:0.136274 882:0.156591 900:0.083755001 954:0.112504 996:0.144706 
-0.10375011193251012 56:0.234055 106:0.15462101 117:0.18792599 155:0.170987 193:0.17471801 197:0.167514 206:0.120718 290:0.222821 343:0.213643 349:0.17471801 423:0.213643 497:0.158335 539:0.183128 610:0.19323 624:0.150575 651:0.248538 658:0.234055 668:0.248538 679:0.161213 688:0.124858 743:0.248538 749:0.248538 755:0.222821 827:0.234055 919:0.213643 
-0.10705617373741083 94:0.139167 108:0.15367299 142:0.446219 155:0.162991 183:0.20365199 193:0.166547 197:0.15967999 289:0.23691501 293:0.102872 306:0.196254 420:0.15967999 431:0.196254 516:0.212401 642:0.392508 644:0.14833599 666:0.18984599 679:0.15367299 705:0.23691501 717:0.156583 749:0.23691501 822:0.22310901 
-0.087183060927643899 104:0.218162 106:0.090751998 190:0.45365199 244:0.26156199 248:0.233787 304:0.164133 309:0.15975299 456:0.200716 497:0.185864 523:0.26156199 599:0.15975299 624:0.176754 687:0.174005 804:0.18924201 853:0.250788 857:0.385649 986:0.29175001 
-0.23829627764011885 179:0.097254999 307:0.303666 421:0.261031 440:0.22961 469:0.303666 499:0.24333601 514:0.178378 554:0.308671 659:0.24333601 664:0.54449099 805:0.14913499 826:0.27224499 909:0.170837 927:0.13312501 
-0.23614348384942171 1:0.164727 17:0.031235 22:0.05105 38:0.048944999 63:0.042656999 73:0.136774 103:0.060155001 104:0.027151 114:0.145237 117:0.054908998 129:0.120311 138:0.078583002 157:0.145237 175:0.072618999 200:0.058191001 206:0.035271998 215:0.060155001 238:0.124846 245:0.068387002 249:0.065104999 253:0.18187 258:0.116382 261:0.240621 276:0.040298998 286:0.056458998 291:0.116382 302:0.071327999 304:0.040854 311:0.314331 316:0.120311 328:0.056458998 330:0.022589 335:0.20516101 364:0.060155001 390:0.03489 396:0.060155001 416:0.047995001 433:0.072618999 445:0.097383998 466:0.054908998 467:0.130209 495:0.187268 506:0.120311 514:0.042656999 523:0.065104999 537:0.072618999 541:0.145237 554:0.110723 574:0.15499499 588:0.039248001 589:0.072618999 592:0.062422998 603:0.157166 624:0.043995 628:0.045467999 641:0.199838 653:0.065104999 672:0.122561 679:0.047104001 686:0.20516101 724:0.062422998 728:0.068387002 733:0.058191001 739:0.056458998 740:0.060155001 758:0.072618999 767:0.20715401 808:0.045467999 827:0.20516101 840:0.130209 848:0.038267002 856:0.047995001 857:0.191981 882:0.078583002 892:0.072618999 896:0.072618999 922:0.056458998 923:0.180466 954:0.056458998 963:0.065104999 973:0.056458998 975:0.062422998 977:0.072618999 997:0.042656999 
-0.083459337976591913 56:0.264936 67:0.20233101 102:0.264936 104:0.21037 170:0.160505 171:0.25222 286:0.218724 304:0.15827 316:0.233046 352:0.264936 420:0.189615 456:0.193546 485:0.233046 504:0.17322101 546:0.264936 599:0.154047 658:0.264936 688:0.141331 797:0.28132901 836:0.179225 857:0.185937 
-0.087578127099534553 15:0.21094701 17:0.116703 28:0.51102901 57:0.205156 122:0.25551501 193:0.19073699 206:0.131786 300:0.25551501 305:0.23323099 686:0.25551501 696:0.23323099 713:0.175993 720:0.19073699 857:0.179325 924:0.33976099 989:0.25551501 
-0.10704452782166131 80:0.17910799 196:0.172602 248:0.166967 253:0.130459 267:0.17910799 302:0.10233 318:0.137712 330:0.064814001 418:0.55084801 482:0.118876 617:0.124272 686:0.19622099 692:0.31509799 748:0.17910799 796:0.172602 815:0.17910799 882:0.45095199 927:0.091344997 934:0.15754899 973:0.16199601 
-0.19720152719256273 61:0.17381001 210:0.21053199 300:0.21053199 316:0.18519101 342:0.179144 352:0.21053199 369:0.19217101 510:0.24191999 514:0.131322 569:0.18519101 628:0.139974 633:0.200427 671:0.21053199 686:0.21053199 726:0.21053199 743:0.22356001 796:0.18519101 827:0.21053199 954:0.52143103 973:0.17381001 
-0.049953935462565796 17:0.121107 80:0.24203201 135:0.24203201 149:0.26515701 179:0.090177 250:0.24203201 251:0.26515701 286:0.218907 318:0.186092 455:0.24203201 549:0.193708 574:0.150241 617:0.16793001 679:0.18263499 686:0.26515701 714:0.26515701 715:0.22562499 762:0.128398 849:0.22562499 882:0.30468899 924:0.176291 927:0.123435 
-0.066719449679056464 39:0.29972401 57:0.209429 72:0.27697599 192:0.238088 210:0.26083601 292:0.27697599 380:0.173418 390:0.133073 393:0.238088 475:0.204081 481:0.170541 552:0.26083601 590:0.176452 664:0.248317 722:0.29972401 929:0.190551 933:0.221948 982:0.27697599 
-0.12495159026742131 106:0.061386 149:0.37168899 245:0.185845 306:0.16347501 351:0.185845 363:0.101492 396:0.16347501 416:0.13043 435:0.185845 445:0.088215001 456:0.135767 499:0.15813699 501:0.11259 527:0.153429 572:0.153429 574:0.105302 641:0.40730199 652:0.15813699 672:0.22204401 674:0.213552 679:0.128006 687:0.1177 699:0.16347501 736:0.185845 817:0.115923 857:0.13043 915:0.115923 923:0.32695001 973:0.153429 
-0.050144566372637804 104:0.111332 107:0.13348 115:0.20485801 133:0.088798001 134:0.13348 139:0.16111401 210:0.14021 222:0.148886 230:0.12798201 293:0.064648002 300:0.14021 359:0.102429 440:0.112576 456:0.102429 462:0.66740102 537:0.148886 552:0.14021 599:0.081524998 664:0.13348 673:0.165244 686:0.28041899 699:0.123333 717:0.098402001 736:0.14021 800:0.123333 804:0.096574001 844:0.148886 917:0.119306 927:0.065269999 971:0.115754 992:0.14021 
-0.086470626556673591 50:0.213458 103:0.239981 179:0.092782997 248:0.232145 259:0.225233 423:0.249027 496:0.232145 499:0.232145 560:0.28970101 572:0.225233 590:0.184559 657:0.178376 681:0.172783 786:0.28970101 853:0.249027 857:0.19147 877:0.27282 893:0.313494 900:0.167677 
-0.064279723509751363 8:0.101589 21:0.18640199 47:0.170145 71:0.225022 152:0.225022 220:0.17494699 229:0.105832 313:0.18640199 328:0.17494699 330:0.069995999 362:0.225022 370:0.145959 411:0.201738 429:0.158186 430:0.201738 456:0.154808 485:0.18640199 527:0.17494699 541:0.225022 572:0.17494699 613:0.225022 624:0.136327 627:0.19342799 665:0.158186 686:0.211909 713:0.145959 717:0.14872199 763:0.211909 790:0.18640199 887:0.253185 
-0.088015033771136078 15:0.1428 36:0.091835998 38:0.061896998 40:0.082333997 84:0.091835998 104:0.034336001 107:0.082333997 148:0.099379003 173:0.091835998 179:0.029412 221:0.17297 229:0.043191999 247:0.06944 258:0.073591001 300:0.086484998 302:0.045102 330:0.057133999 338:0.071400002 349:0.12911899 357:0.17297 363:0.047230002 377:0.17297 384:0.091835998 388:0.099379003 389:0.135334 396:0.076075003 402:0.06944 445:0.041051999 453:0.078942001 456:0.063180998 468:0.115 477:0.198145 484:0.091835998 504:0.056545999 508:0.086484998 514:0.107892 520:0.18367299 553:0.259455 554:0.046675 558:0.082333997 569:0.076075003 574:0.049003001 575:0.082333997 584:0.060697 586:0.058506001 617:0.054772999 627:0.078942001 634:0.18367299 664:0.082333997 671:0.086484998 677:0.078942001 679:0.238276 686:0.259455 691:0.157885 694:0.157885 699:0.076075003 709:0.078942001 775:0.091835998 783:0.135334 808:0.057500001 814:0.091835998 827:0.086484998 848:0.048393 850:0.066047996 857:0.18209 858:0.078942001 870:0.157885 885:0.29436299 891:0.17297 909:0.051665001 927:0.040259998 949:0.071400002 960:0.071400002 973:0.071400002 975:0.078942001 999:0.055638 
-0.063430728532825442 5:0.264514 8:0.051199999 24:0.085750997 31:0.093943998 68:0.1068 118:0.159448 129:0.093943998 179:0.036320999 206:0.055084001 229:0.053337999 235:0.078022003 258:0.090876997 272:0.081563003 280:0.18788899 298:0.101674 302:0.055695999 328:0.088170998 330:0.070554003 336:0.122723 338:0.088170998 339:0.101674 346:0.093943998 348:0.122723 402:0.085750997 420:0.15287399 425:0.113408 429:0.159448 445:0.050694998 453:0.097485997 477:0.081563003 485:0.093943998 509:0.113408 514:0.066618003 520:0.226817 527:0.088170998 554:0.115278 569:0.093943998 575:0.101674 617:0.067639001 628:0.071006998 641:0.078022003 673:0.062933996 679:0.073562004 684:0.1068 686:0.21359999 687:0.067639001 694:0.097485997 709:0.097485997 761:0.34022501 762:0.103432 765:0.113408 767:0.064701997 777:0.069828004 797:0.113408 808:0.142013 819:0.072249003 826:0.101674 848:0.059760999 857:0.14990801 858:0.097485997 882:0.245445 885:0.090876997 887:0.063800998 899:0.113408 921:0.226817 926:0.071006998 927:0.099434003 948:0.079723999 954:0.088170998 997:0.066618003 999:0.068706997 
-0.067265269562690411 26:0.16177 63:0.100906 133:0.102453 144:0.120759 151:0.16177 162:0.142298 229:0.080792002 296:0.142298 306:0.142298 372:0.295324 389:0.126571 423:0.147662 429:0.120759 445:0.076788001 499:0.13765199 508:0.32354099 549:0.11818 574:0.183322 590:0.109435 593:0.147662 627:0.147662 658:0.16177 659:0.13765199 664:0.154006 677:0.147662 679:0.111424 686:0.32354099 694:0.295324 819:0.109435 827:0.16177 857:0.340601 938:0.154006 
-0.08916499542638559 136:0.195362 168:0.205211 179:0.069789998 194:0.195362 328:0.16941699 330:0.067782998 444:0.091995999 445:0.097407997 538:0.195362 599:0.23864099 651:0.21790899 677:0.187314 682:0.235806 686:0.205211 731:0.205211 784:0.410422 832:0.313438 882:0.235806 901:0.195362 915:0.384009 
-0.04914019375048858 94:0.134124 275:0.31416801 325:0.168238 330:0.071024001 366:0.15090799 404:0.247082 444:0.096395999 445:0.102066 494:0.196271 513:0.17751899 599:0.125026 623:0.204704 624:0.27666199 651:0.228329 652:0.18296599 665:0.160511 672:0.128453 703:0.21502399 705:0.228329 743:0.228329 805:0.112136 900:0.39646599 909:0.128453 920:0.204704 923:0.189142 
-0.12041924389587862 17:0.056993 81:0.14338601 106:0.041216999 151:0.124782 201:0.132504 235:0.091159001 248:0.106178 292:0.39751101 294:0.132504 309:0.072554998 348:0.14338601 351:0.24956401 364:0.109762 384:0.39751101 389:0.097631 430:0.118793 435:0.124782 442:0.1139 480:0.109762 481:0.16317099 501:0.075597003 552:0.124782 590:0.084412999 629:0.24956401 657:0.081586003 686:0.374347 705:0.132504 738:0.1139 748:0.1139 817:0.077834003 818:0.14338601 825:0.118793 866:0.118793 881:0.132504 920:0.118793 963:0.118793 992:0.124782 
-0.074367519131348786 8:0.109534 9:0.24261899 51:0.24261899 53:0.24261899 104:0.090712003 193:0.17055701 351:0.22848099 440:0.18345 517:0.30912799 599:0.132851 624:0.146989 638:0.435029 673:0.134638 686:0.22848099 713:0.157373 767:0.13842 836:0.15456399 857:0.16035201 881:0.24261899 882:0.26254499 913:0.22848099 997:0.142518 
-0.038064478212992567 8:0.035491001 10:0.078613997 70:0.065122001 151:0.074033 178:0.078613997 185:0.078613997 199:0.074033 201:0.078613997 226:0.31445599 230:0.067575999 240:0.078613997 248:0.125991 253:0.049221002 264:0.065122001 272:0.113078 290:0.070479997 302:0.038608 323:0.055264 330:0.073362 348:0.085070997 352:0.074033 357:0.074033 363:0.040429998 385:0.074033 395:0.065122001 402:0.059441999 420:0.31791401 428:0.074033 429:0.055264 435:0.074033 454:0.078613997 456:0.054083999 461:0.074033 510:0.085070997 517:0.050082002 527:0.06112 535:0.125991 552:0.074033 553:0.296132 572:0.06112 579:0.067575999 581:0.062995002 588:0.042488001 590:0.050082002 594:0.12224 596:0.070479997 617:0.046886999 636:0.085070997 641:0.054083999 672:0.044227 677:0.067575999 687:0.140661 690:0.06112 699:0.065122001 703:0.074033 717:0.155874 718:0.085070997 726:0.074033 748:0.067575999 765:0.15722799 775:0.235842 812:0.085070997 827:0.074033 848:0.041425999 857:0.103916 874:0.074033 916:0.108168 920:0.14095999 945:0.15722799 951:0.050082002 955:0.085070997 960:0.42783901 985:0.054083999 999:0.142883 
-0.075961773231461929 7:0.050191 22:0.082093 24:0.044149999 35:0.058389001 47:0.044149999 62:0.096735999 75:0.063184999 106:0.018162999 118:0.041046001 142:0.054986998 172:0.044149999 181:0.063184999 198:0.104695 231:0.041046001 244:0.104695 262:0.035374999 266:0.037198 281:0.044149999 286:0.090791002 302:0.028675999 307:0.058389001 323:0.041046001 326:0.109973 337:0.052347001 351:0.054986998 377:0.054986998 390:0.056106001 401:0.052347001 423:0.050191 429:0.041046001 473:0.031971999 475:0.043021999 501:0.066624999 503:0.052347001 509:0.058389001 537:0.058389001 568:0.75054199 570:0.050191 578:0.14510401 587:0.058389001 588:0.063114002 593:0.050191 603:0.063184999 617:0.069649003 634:0.17516699 643:0.058389001 644:0.036557999 650:0.050191 657:0.035952002 664:0.104695 672:0.098545998 686:0.109973 698:0.054986998 705:0.058389001 717:0.038591001 726:0.054986998 734:0.044149999 764:0.048367999 766:0.063184999 767:0.033312 783:0.043021999 805:0.028675999 819:0.037198 827:0.16496 849:0.046789002 857:0.347316 885:0.046789002 900:0.033794999 926:0.036557999 927:0.025597 930:0.037198 932:0.058389001 945:0.058389001 973:0.045396 999:0.035374999 
-0.02202447287469567 63:0.045317002 179:0.024707999 201:0.077147 206:0.037471 220:0.059978999 229:0.072567999 247:0.174999 253:0.096606001 259:0.059978999 291:0.06182 310:0.760809 320:0.31953299 323:0.108466 387:0.055484001 396:0.063906997 441:0.127813 549:0.10615 572:0.059978999 580:0.119959 628:0.144908 631:0.069164 634:0.077147 672:0.043400999 673:0.085623004 686:0.145303 690:0.119959 738:0.066315003 745:0.063906997 762:0.035179999 786:0.154294 797:0.077147 819:0.049148001 836:0.049148001 849:0.06182 850:0.055484001 857:0.15296499 860:0.072650999 866:0.069164 912:0.059978999 963:0.069164 968:0.066315003 973:0.119959 
-0.01351950127197115 65:0.152215 73:0.152215 100:0.174909 144:0.113626 179:0.051766999 196:0.133893 226:0.323268 229:0.076020002 235:0.1112 253:0.101201 320:0.133893 355:0.116246 364:0.133893 367:0.60886103 467:0.14490899 552:0.152215 554:0.246447 574:0.086246997 664:0.14490899 672:0.27279601 686:0.152215 687:0.096400999 717:0.106828 762:0.073707998 805:0.079380997 819:0.102971 848:0.085173003 857:0.106828 868:0.094945997 927:0.070859 951:0.102971 975:0.13894001 
-0.093122676782822475 66:0.180044 80:0.172628 94:0.117967 106:0.062469002 276:0.111444 318:0.13272899 323:0.141176 359:0.138161 398:0.166357 446:0.166357 450:0.180044 482:0.114575 552:0.18912099 617:0.119775 621:0.378243 627:0.172628 670:0.20082401 686:0.18912099 715:0.160925 882:0.65195203 
-0.072148198219030735 106:0.071967997 209:0.185396 227:0.25036299 248:0.185396 302:0.113625 309:0.12668601 334:0.162643 343:0.19887801 375:0.231361 517:0.147392 629:0.21788 686:0.43575901 713:0.150071 717:0.15291201 732:0.191654 734:0.17493799 739:0.179876 744:0.25036299 777:0.142455 808:0.144859 824:0.21788 848:0.121916 850:0.166394 853:0.19887801 857:0.15291201 927:0.101427 931:0.207422 
-0.054318071063640047 8:0.112729 116:0.249697 144:0.175533 224:0.249697 249:0.22386099 293:0.108422 300:0.235147 304:0.140475 309:0.13672701 339:0.22386099 483:0.20008899 516:0.22386099 532:0.249697 644:0.156339 646:0.33658999 673:0.138566 686:0.235147 719:0.22386099 856:0.165031 857:0.165031 882:0.27020499 943:0.21463899 954:0.194132 
-0.068416698886417895 6:0.096730001 11:0.096730001 22:0.062838003 47:0.067589 67:0.064287998 68:0.084179997 83:0.096730001 87:0.38691899 88:0.096730001 106:0.055610999 115:0.061496999 124:0.096730001 131:0.051736999 139:0.096730001 171:0.40069601 190:0.069496997 192:0.076838002 262:0.10831 266:0.056945998 281:0.067589 312:0.096730001 328:0.069496997 337:0.080139004 342:0.14325801 352:0.084179997 385:0.084179997 390:0.042947002 396:0.074046999 412:0.080139004 413:0.067589 430:0.080139004 444:0.037737999 448:0.084179997 477:0.064287998 501:0.050997999 542:0.064287998 581:0.071629003 608:0.080139004 624:0.054155 635:0.19346 657:0.055039 659:0.071629003 666:0.071629003 679:0.057980999 686:0.084179997 705:0.089387998 717:0.059078999 731:0.084179997 767:0.050997999 774:0.080139004 790:0.074046999 793:0.080139004 805:0.087800004 827:0.084179997 846:0.076838002 853:0.076838002 868:0.052508 882:0.48364899 900:0.051736999 925:0.084179997 926:0.111935 932:0.089387998 934:0.067589 952:0.089387998 983:0.080139004 999:0.216621 
-0.051934767867483939 31:0.17301901 46:0.196695 104:0.078092001 170:0.119163 229:0.098233998 253:0.13077401 301:0.22602101 302:0.205154 304:0.117504 381:0.22602101 395:0.17301901 465:0.17954101 542:0.150216 598:0.22602101 664:0.187255 686:0.196695 699:0.346039 717:0.138045 730:0.196695 739:0.162387 741:0.187255 764:0.17301901 800:0.17301901 804:0.13548 857:0.27608901 927:0.18313 984:0.196695 994:0.22602101 
-0.058029556945384572 8:0.072803997 22:0.113364 119:0.15186501 133:0.096179001 248:0.129223 260:0.33283001 262:0.097699001 280:0.13358501 297:0.13358501 309:0.176604 326:0.15186501 353:0.144576 371:0.144576 488:0.303729 496:0.129223 554:0.08196 599:0.088302001 614:0.25844601 631:0.144576 642:0.13358501 650:0.13862 664:0.144576 666:0.129223 686:0.303729 687:0.096179001 761:0.16126201 784:0.15186501 790:0.13358501 801:0.17450599 804:0.104601 819:0.102734 850:0.231958 857:0.213163 868:0.094727002 882:0.17450599 933:0.129223 943:0.13862 
-0.015100000454165499 106:0.065986 131:0.122779 134:0.190181 248:0.169985 253:0.132818 260:0.43781799 267:0.182347 318:0.140202 382:0.182347 390:0.20383599 418:0.140202 482:0.121025 506:0.175723 592:0.182347 614:0.169985 619:0.21213 737:0.175723 785:0.169985 797:0.21213 850:0.15256301 857:0.420605 882:0.229552 929:0.14593901 949:0.164924 
-0.063177494139117052 24:0.114437 63:0.088903002 104:0.056586001 139:0.163776 188:0.12537099 224:0.151346 286:0.117667 329:0.142527 372:0.130097 383:0.121277 389:0.111515 396:0.12537099 399:0.135686 423:0.130097 424:0.098168999 440:0.114437 444:0.063895002 451:0.135686 514:0.088903002 549:0.104122 588:0.081796996 593:0.130097 643:0.151346 644:0.094760001 654:0.142527 664:0.135686 679:0.098168999 683:0.151346 686:0.28505301 697:0.12537099 705:0.151346 745:0.25074199 760:0.12537099 761:0.151346 777:0.093186997 805:0.148656 807:0.151346 850:0.108847 855:0.090264998 857:0.100028 870:0.130097 882:0.491328 912:0.117667 934:0.114437 
-0.041066294331394679 132:0.183011 224:0.183011 229:0.086074002 247:0.13837899 286:0.142285 335:0.17234699 481:0.112684 541:0.183011 568:0.41513801 592:0.157316 628:0.114586 664:0.164075 687:0.109151 691:0.157316 695:0.42685601 700:0.183011 713:0.118709 740:0.151601 743:0.36602199 767:0.104412 783:0.134846 827:0.17234699 848:0.096437998 892:0.183011 917:0.146651 927:0.080229998 954:0.142285 
-0.081379926614258011 161:0.17166901 204:0.19148199 220:0.148871 229:0.090057999 248:0.153439 293:0.083144002 310:0.17166901 316:0.158618 318:0.126555 320:0.31723601 359:0.131734 367:0.180323 393:0.164597 526:0.19148199 554:0.097318999 580:0.148871 616:0.17166901 617:0.114203 665:0.134608 672:0.32317099 673:0.10626 686:0.180323 772:0.126555 817:0.112479 825:0.17166901 868:0.112479 875:0.129058 882:0.41441599 922:0.148871 937:0.137713 951:0.121986 992:0.180323 
-0.023705871426561442 40:0.21915799 179:0.078290999 235:0.168176 295:0.21915799 311:0.26452899 323:0.34369099 363:0.125719 369:0.21013001 398:0.20249701 402:0.184836 493:0.244452 506:0.20249701 513:0.190053 535:0.195885 576:0.21013001 623:0.21915799 774:0.21915799 775:0.244452 832:0.175809 882:0.26452899 927:0.214331 951:0.15573201 
-0.031767057129930096 18:0.245671 26:0.245671 216:0.282298 224:0.26087299 253:0.16333599 285:0.224246 327:0.245671 330:0.081147999 478:0.282298 599:0.142846 641:0.179473 664:0.23388 672:0.44028601 754:0.26087299 836:0.16619299 857:0.172417 964:0.16333599 983:0.23388 
-0.026304231726000878 269:0.25192001 270:0.219234 274:0.200115 285:0.200115 293:0.101085 304:0.130969 334:0.163654 342:0.55964601 349:0.163654 446:0.192845 451:0.208712 583:0.208712 679:0.151004 695:0.180995 739:0.180995 767:0.132818 777:0.143341 827:0.219234 848:0.122675 857:0.153863 900:0.13474301 927:0.102058 957:0.219234 
-0.026042033178697192 31:0.239456 59:0.46921399 110:0.156405 159:0.136112 167:0.115819 179:0.092579998 210:0.136112 220:0.112371 224:0.14453401 231:0.101605 291:0.115819 299:0.112371 335:0.136112 349:0.101605 363:0.074331999 425:0.14453401 435:0.136112 441:0.119728 510:0.156405 531:0.14453401 569:0.119728 572:0.112371 587:0.14453401 664:0.25915799 672:0.081312001 681:0.086203001 687:0.172405 718:0.156405 759:0.103948 777:0.177986 788:0.12957899 812:0.156405 857:0.095526002 867:0.156405 879:0.156405 882:0.156405 892:0.14453401 900:0.083655 917:0.115819 948:0.101605 951:0.092078 960:0.112371 967:0.115819 
-0.032044224492859687 5:0.212679 38:0.184374 104:0.102278 135:0.235145 179:0.087610997 236:0.235145 247:0.20683999 372:0.235145 390:0.131429 410:0.29602 440:0.413681 538:0.245248 583:0.245248 686:0.25761199 762:0.124744 827:0.25761199 927:0.119923 931:0.245248 944:0.27355301 
-0.033985327533459668 14:0.242487 179:0.082466997 228:0.21329901 247:0.19469599 293:0.111806 354:0.221339 358:0.242487 393:0.221339 513:0.20019101 549:0.177147 580:0.20019101 676:0.242487 686:0.242487 690:0.20019101 762:0.11742 857:0.170182 876:0.51498199 882:0.27863899 951:0.164039 
-0.015396262556307785 107:0.193939 229:0.101741 250:0.18595 309:0.118451 315:0.155578 390:0.103932 435:0.407433 438:0.234089 459:0.173344 498:0.168183 521:0.216322 671:0.407433 686:0.407433 705:0.216322 717:0.14297201 887:0.121698 947:0.35839099 
-0.033018538259845187 30:0.249052 190:0.17893399 229:0.108244 236:0.197836 259:0.17893399 281:0.174022 313:0.19065 363:0.236726 381:0.249052 466:0.174022 491:0.23015 551:0.249052 590:0.14662001 592:0.197836 656:0.19065 686:0.216738 730:0.216738 745:0.3813 767:0.13130599 804:0.149285 909:0.12947799 951:0.14662001 973:0.17893399 984:0.216738 
-0.020387901874908874 17:0.084037997 51:0.195381 67:0.28103399 104:0.1461 115:0.134417 118:0.13734899 125:0.16184799 229:0.091891997 236:0.33589801 248:0.156564 255:0.134417 276:0.108424 355:0.140517 363:0.200964 390:0.093870997 394:0.195381 481:0.120301 501:0.11147 508:0.18399601 509:0.195381 533:0.211428 588:0.105596 681:0.116529 686:0.18399601 688:0.098153003 736:0.18399601 805:0.095954001 827:0.18399601 848:0.102956 857:0.25826401 930:0.124471 933:0.156564 951:0.124471 958:0.175165 964:0.122331 975:0.16794901 997:0.11477 
-0.01804008083323588 26:0.140838 104:0.055916 106:0.232601 131:0.086560003 139:0.161835 219:0.161835 301:0.161835 302:0.14689501 330:0.046519998 342:0.11984 352:0.140838 357:0.140838 362:0.149553 424:0.097006001 471:0.149553 473:0.081890002 483:0.11984 486:0.24777099 509:0.149553 514:0.087848999 581:0.11984 588:0.080826998 599:0.245671 658:0.140838 661:0.161835 671:0.140838 686:0.140838 709:0.128555 726:0.28167599 797:0.149553 827:0.140838 848:0.078806996 853:0.128555 856:0.098843001 857:0.395372 882:0.161835 916:0.102888 971:0.232545 997:0.087848999 
-0.012045870908910288 5:0.16332901 63:0.123403 103:0.174023 200:0.168341 202:0.16332901 238:0.180582 262:0.12727401 302:0.103172 330:0.130694 353:0.18834101 360:0.197836 473:0.115032 482:0.119855 525:0.197836 578:0.174023 584:0.138845 646:0.141592 659:0.168341 664:0.56502199 679:0.13626599 697:0.174023 748:0.180582 773:0.210078 858:0.180582 917:0.168341 947:0.174023 985:0.144527 
-0.0069457215176174491 12:0.19494 38:0.060708001 48:0.068106003 94:0.05291 98:0.09747 104:0.033677001 106:0.056035999 112:0.090071999 115:0.061967 124:0.09747 148:0.19494 156:0.084824003 167:0.072177 187:0.084824003 210:0.084824003 218:0.074614003 231:0.063318998 266:0.057381999 276:0.049984001 301:0.09747 302:0.044236001 321:0.090071999 335:0.084824003 337:0.080752 352:0.084824003 356:0.058425002 396:0.14922699 413:0.068106003 423:0.154852 428:0.084824003 434:0.074614003 444:0.076053001 447:0.09747 459:0.072177 462:0.161505 466:0.068106003 473:0.049321 481:0.055459999 491:0.090071999 504:0.055459999 509:0.090071999 543:0.084824003 559:0.090071999 602:0.090071999 622:0.09747 634:0.090071999 651:0.090071999 656:0.223841 657:0.110919 662:0.080752 663:0.080752 681:0.053721 684:0.084824003 727:0.084824003 743:0.090071999 752:0.077426001 767:0.051387999 769:0.084824003 772:0.059531 792:0.09747 793:0.080752 800:0.223841 804:0.35054901 857:0.119062 882:0.48734999 905:0.080752 926:0.056396 927:0.039487001 932:0.090071999 940:0.080752 948:0.063318998 985:0.061967 990:0.090071999 
-0.0098466380052350568 47:0.155634 149:0.193837 226:0.20583101 276:0.114223 293:0.089374997 309:0.112707 349:0.144696 363:0.105857 387:0.14803299 393:0.53079599 495:0.17693201 517:0.131128 541:0.20583101 546:0.193837 592:0.17693201 641:0.141606 672:0.115797 695:0.160027 754:0.20583101 764:0.170505 827:0.193837 855:0.122762 857:0.136039 923:0.34101 973:0.160027 991:0.15166099 
-0.0049416663962934086 48:0.093292996 66:0.110616 108:0.080031998 228:0.102207 248:0.098870002 252:0.116193 266:0.078602999 273:0.123383 281:0.093292996 401:0.110616 420:0.083159998 570:0.10606 583:0.110616 650:0.10606 734:0.466465 739:0.095926002 767:0.070393004 770:0.53406501 772:0.081547 857:0.163093 882:0.133516 940:0.110616 947:0.51103598 989:0.116193 
-0.0087710693035699012 31:0.077785999 63:0.055158999 179:0.030074 194:0.084186003 202:0.073005997 208:0.70743799 260:0.12920301 262:0.056889001 293:0.040773001 397:0.150492 423:0.080718003 451:0.33674201 485:0.077785999 554:0.047724999 581:0.075245999 587:0.187803 588:0.050749999 614:0.075245999 664:0.16837101 687:0.056005001 781:0.353719 847:0.093901999 857:0.124124 897:0.135067 915:0.055158999 928:0.203228 945:0.093901999 999:0.056889001 
-0.0088117232226921048 47:0.110403 84:0.14601199 104:0.054591998 105:0.14601199 125:0.24190401 170:0.083302997 229:0.068672001 248:0.117003 259:0.22703899 300:0.275006 330:0.090837002 390:0.070151001 440:0.110403 445:0.065269001 462:0.130904 481:0.089902997 485:0.120952 497:0.093019001 506:0.120952 508:0.137503 527:0.113519 572:0.113519 617:0.087084003 686:0.41251001 701:0.14601199 717:0.096501999 726:0.137503 730:0.275006 785:0.117003 796:0.120952 804:0.28412801 833:0.14601199 857:0.096501999 869:0.31600699 909:0.082143001 917:0.117003 927:0.064010002 957:0.137503 999:0.088459998 
-0.0020938043870235845 57:0.15722699 106:0.064681001 209:0.16662601 227:0.225016 237:0.207938 253:0.130193 276:0.115392 285:0.178743 299:0.16166499 302:0.102121 334:0.292353 424:0.134877 509:0.207938 546:0.195821 557:0.178743 636:0.225016 664:0.18642201 686:0.39164099 713:0.134877 787:0.207938 808:0.130193 827:0.195821 859:0.17225 862:0.178743 915:0.122146 943:0.178743 963:0.18642201 979:0.18642201 
-0.0039753216139250813 48:0.168276 106:0.069227003 179:0.071276002 206:0.108095 225:0.24082901 248:0.17833599 278:0.209582 283:0.222551 323:0.15644901 351:0.209582 397:0.17833599 402:0.168276 455:0.191304 492:0.209582 558:0.199523 589:0.222551 686:0.209582 734:0.168276 769:0.209582 770:0.24082901 817:0.130729 831:0.209582 855:0.26546699 947:0.36871001 953:0.16398001 
-0.0044964536555658022 18:0.21572401 47:0.173208 104:0.085647002 118:0.161034 179:0.073365003 190:0.17809699 244:0.20536999 302:0.112501 306:0.189758 309:0.125433 328:0.17809699 330:0.071255997 473:0.125433 497:0.145934 546:0.21572401 558:0.20536999 599:0.125433 601:0.247887 686:0.21572401 687:0.136623 721:0.17809699 790:0.189758 808:0.143426 857:0.30279899 882:0.247887 909:0.12887201 915:0.134561 927:0.100424 971:0.35619399 991:0.168786 
-0.0033952492076006965 141:0.595833 170:0.157069 292:0.27530599 349:0.193535 376:0.25926301 414:0.25926301 494:0.236652 599:0.150749 688:0.13830499 811:0.27530599 829:0.27530599 875:0.185555 882:0.297916 
-0.0020956247923811025 34:0.17424101 47:0.15326799 62:0.16791201 67:0.14578199 125:0.16791201 192:0.17424101 217:0.202701 235:0.13945299 236:0.17424101 248:0.32485899 276:0.112486 282:0.219349 286:0.157594 302:0.099549003 363:0.104247 390:0.097387999 402:0.15326799 427:0.202701 452:0.13662 473:0.110993 537:0.202701 546:0.190889 588:0.109552 612:0.219349 681:0.120895 760:0.16791201 805:0.099549003 808:0.12691399 811:0.202701 816:0.202701 871:0.16791201 915:0.11907 930:0.129134 951:0.129134 973:0.157594 982:0.202701 
