SVM-light Version V3.50
0 # kernel type
1 # kernel parameter -d 
1 # kernel parameter -g 
1 # kernel parameter -s 
0 # kernel parameter -r 
EmptyParam # kernel parameter -u 
1000 # highest feature index 
418 # number of training documents 
205 # number of support vectors plus 1 
0.8158086 # threshold b 
-0.055784967676751229 35:0.17885099 48:0.270468 104:0.13373999 155:0.123045 300:0.168429 314:0.17885099 325:0.131781 396:0.148156 414:0.168429 425:0.17885099 468:0.111981 486:0.148156 519:0.17885099 538:0.32069099 571:0.357703 656:0.148156 673:0.099251002 679:0.116011 690:0.13905101 713:0.116011 730:0.168429 749:0.17885099 783:0.131781 855:0.21334 882:0.19354001 916:0.123045 927:0.078406997 932:0.357703 937:0.128629 
-0.43684270028329403 22:0.071275003 28:0.095481001 47:0.153327 61:0.078827001 94:0.059558 106:0.094614998 115:0.069752999 133:0.060470998 148:0.109717 150:0.087154001 166:0.074706003 218:0.083988003 229:0.095371 231:0.071275003 246:0.109717 253:0.126963 262:0.061425999 266:0.12918399 281:0.076663002 302:0.049794 320:0.083988003 377:0.095481001 382:0.174309 396:0.083988003 397:0.081246004 430:0.090898998 432:0.10139 442:0.087154001 444:0.085608996 445:0.045322001 449:0.068336003 469:0.10139 477:0.072919004 481:0.062428001 502:0.10139 523:0.090898998 530:0.074706003 542:0.072919004 543:0.095481001 552:0.095481001 611:0.109717 624:0.061425999 649:0.090898998 657:0.124856 672:0.057039998 686:0.28644401 687:0.060470998 688:0.050935 733:0.081246004 767:0.057845 774:0.181797 805:0.049794 808:0.063481003 837:0.087154001 846:0.087154001 857:0.067010999 882:0.21943399 900:0.058683999 908:0.083988003 909:0.057039998 919:0.52292597 922:0.157654 926:0.126963 927:0.044447999 934:0.076663002 951:0.12918399 952:0.10139 959:0.10139 962:0.095481001 963:0.090898998 973:0.157654 
0.99999993212504223 32:0.14011399 73:0.14011399 169:0.109627 170:0.084885001 179:0.047651 218:0.123249 220:0.115675 281:0.112499 290:0.133389 310:0.133389 330:0.046280999 341:0.133389 342:0.119224 389:0.109627 390:0.071483001 421:0.25578901 458:0.127894 468:0.093156002 481:0.09161 482:0.16977 490:0.56249702 513:0.115675 514:0.087398 572:0.115675 594:0.115675 671:0.14011399 673:0.082566001 677:0.127894 686:0.28022799 724:0.127894 726:0.14011399 739:0.115675 748:0.127894 759:0.107005 767:0.084885001 808:0.093156002 817:0.087398 848:0.078401998 855:0.088737004 856:0.098334998 915:0.087398 920:0.133389 927:0.13045099 932:0.148784 951:0.094784997 
-0.46707143649020338 8:0.069760002 14:0.14551599 60:0.138532 93:0.120135 106:0.048064999 124:0.167211 146:0.132825 293:0.067094997 323:0.108625 330:0.096130997 334:0.108625 361:0.14551599 376:0.14551599 396:0.128001 407:0.167211 429:0.108625 439:0.15452 445:0.069072999 446:0.128001 481:0.095141999 525:0.14551599 548:0.138532 549:0.106306 585:0.167211 596:0.138532 659:0.123821 665:0.108625 671:0.14551599 681:0.092159003 686:0.14551599 716:0.132825 734:0.35051101 738:0.132825 805:0.379435 853:0.132825 857:0.204252 859:0.128001 874:0.14551599 887:0.086929999 900:0.089435004 915:0.090768002 927:0.20322099 945:0.15452 975:0.132825 985:0.106306 999:0.093615003 
-0.14010267472757176 144:0.125568 245:0.33642599 254:0.17862201 294:0.17862201 327:0.16821299 389:0.131612 468:0.111838 596:0.16013899 628:0.111838 743:0.17862201 763:0.67285198 767:0.101908 805:0.087724 806:0.153543 827:0.33642599 857:0.118055 876:0.17862201 920:0.16013899 
0.99999993212504223 104:0.14984 135:0.17224699 170:0.114323 253:0.125462 294:0.200381 300:0.37740901 323:0.140865 419:0.216839 473:0.109723 477:0.144113 482:0.228645 488:0.188705 592:0.17224699 686:0.37740901 796:0.16599099 797:0.200381 820:0.188705 827:0.188705 857:0.13243701 882:0.43367699 920:0.179648 
0.42540414446654418 24:0.120575 63:0.093671001 104:0.119243 106:0.049603 135:0.13707501 193:0.1121 202:0.123978 206:0.077453002 215:0.13209599 276:0.088491999 345:0.159464 360:0.150171 379:0.159464 402:0.120575 419:0.345121 440:0.120575 473:0.17463499 482:0.18195599 486:0.13209599 528:0.14296401 578:0.13209599 583:0.14296401 678:0.114686 686:0.150171 697:0.13209599 711:0.159464 741:0.14296401 745:0.264191 797:0.159464 820:0.150171 827:0.30034301 836:0.30476701 857:0.105393 878:0.123978 882:0.17256001 924:0.099841997 927:0.069908001 948:0.1121 985:0.109706 990:0.159464 
0.99999993212504223 15:0.163176 170:0.119742 220:0.163176 248:0.168183 281:0.31739399 310:0.18816499 349:0.147543 390:0.100838 393:0.18041401 458:0.18041401 468:0.13141 482:0.239485 490:0.31739399 513:0.163176 535:0.168183 686:0.197651 715:0.168183 752:0.18041401 759:0.15094601 767:0.239485 826:0.18816499 829:0.20988099 849:0.168183 855:0.125177 857:0.138716 882:0.227119 927:0.092009999 937:0.15094601 951:0.133708 964:0.13141 
0.031847126167038123 80:0.17910799 196:0.172602 248:0.166967 253:0.130459 267:0.17910799 302:0.10233 318:0.137712 330:0.064814001 418:0.55084801 482:0.118876 617:0.124272 686:0.19622099 692:0.31509799 748:0.17910799 796:0.172602 815:0.17910799 882:0.45095199 927:0.091344997 934:0.15754899 973:0.16199601 
0.99999993212504223 101:0.226487 159:0.226487 235:0.16545799 250:0.206734 264:0.19922499 293:0.104429 295:0.215616 318:0.158953 322:0.226487 384:0.240501 402:0.181849 482:0.13721199 542:0.172967 572:0.18698201 669:0.215616 686:0.45297301 737:0.19922499 759:0.172967 861:0.226487 927:0.105434 937:0.172967 964:0.150581 975:0.206734 
-0.12979088997289995 3:0.126415 5:0.098283 17:0.054373998 104:0.047265001 193:0.088867001 200:0.101299 231:0.088867001 240:0.126415 248:0.202599 253:0.079149999 294:0.126415 297:0.104719 334:0.088867001 361:0.119048 383:0.202599 396:0.104719 397:0.101299 443:0.126415 452:0.085202999 473:0.069220997 474:0.108666 509:0.126415 514:0.074258 540:0.136797 555:0.136797 579:0.108666 590:0.080534004 617:0.075396001 627:0.108666 637:0.126415 664:0.113334 681:0.075396001 686:0.35714501 709:0.108666 741:0.113334 748:0.108666 780:0.113334 790:0.104719 796:0.104719 797:0.379244 811:0.126415 817:0.074258 826:0.113334 827:0.119048 850:0.090916999 857:0.167101 870:0.108666 882:0.27359399 900:0.073168002 920:0.113334 927:0.055419002 931:0.113334 979:0.226669 
-0.11044295808669588 104:0.088719003 106:0.073812 118:0.16681001 130:0.25677699 191:0.237289 275:0.163248 309:0.129932 380:0.14857 416:0.15683 532:0.237289 686:0.670385 784:0.223462 808:0.14857 882:0.25677699 904:0.153916 937:0.17065699 984:0.223462 
-0.043836394297514819 39:0.29972401 57:0.209429 72:0.27697599 192:0.238088 210:0.26083601 292:0.27697599 380:0.173418 390:0.133073 393:0.238088 475:0.204081 481:0.170541 552:0.26083601 590:0.176452 664:0.248317 722:0.29972401 929:0.190551 933:0.221948 982:0.27697599 
-0.99999993212504223 5:0.136813 24:0.133058 41:0.087986998 71:0.087986998 94:0.051685002 106:0.054738998 133:0.052476998 140:0.087986998 167:0.070505999 179:0.028179999 183:0.075632997 188:0.072885998 189:0.082859002 230:0.075632997 244:0.078882001 264:0.072885998 280:0.072885998 297:0.072885998 304:0.0495 309:0.048179001 318:0.058152001 342:0.141012 349:0.061852999 353:0.078882001 359:0.121064 363:0.045249999 381:0.095213003 383:0.141012 384:0.087986998 385:0.082859002 389:0.12966099 396:0.072885998 397:0.141012 398:0.072885998 429:0.061852999 440:0.066528998 444:0.037145998 446:0.072885998 471:0.087986998 480:0.072885998 482:0.050198998 503:0.078882001 549:0.121064 554:0.044718001 586:0.056053001 588:0.095106997 594:0.068406999 599:0.048179001 627:0.075632997 662:0.078882001 679:0.057071999 686:0.248578 689:0.072885998 706:0.060532 734:0.066528998 739:0.136813 759:0.063280001 760:0.072885998 767:0.100397 772:0.058152001 808:0.055089999 824:0.082859002 827:0.082859002 853:0.075632997 855:0.052476998 874:0.082859002 882:0.66649002 885:0.070505999 897:0.126559 927:0.038573001 932:0.087986998 934:0.066528998 959:0.087986998 971:0.068406999 992:0.082859002 
-0.50767415328844434 8:0.107391 104:0.177875 154:0.40895 235:0.16365001 304:0.13382301 307:0.237873 323:0.16722 395:0.19704799 438:0.25740901 498:0.184939 521:0.237873 522:0.237873 588:0.128561 599:0.130252 681:0.141872 686:0.44802299 748:0.204475 755:0.21325999 882:0.25740901 
0.90659755120085195 179:0.093369 229:0.137113 267:0.250599 293:0.126587 330:0.090683997 370:0.1891 375:0.291531 418:0.19268 445:0.130318 517:0.18572401 525:0.27454299 580:0.226656 659:0.233611 664:0.26136601 676:0.27454299 677:0.250599 679:0.1891 697:0.241497 762:0.132943 769:0.27454299 772:0.19268 857:0.19268 909:0.16401 
0.19121595353910981 179:0.070766002 201:0.22095799 229:0.103921 316:0.183036 389:0.32561299 421:0.189935 469:0.22095799 554:0.1123 574:0.23580401 697:0.183036 701:0.44191599 711:0.44191599 870:0.189935 911:0.41616401 927:0.096865997 
0.99999993212504223 179:0.097254999 307:0.303666 421:0.261031 440:0.22961 469:0.303666 499:0.24333601 514:0.178378 554:0.308671 659:0.24333601 664:0.54449099 805:0.14913499 826:0.27224499 909:0.170837 927:0.13312501 
0.58929147113817359 17:0.081591003 80:0.163059 229:0.089216001 251:0.35727599 267:0.163059 274:0.163059 291:0.152005 296:0.314271 304:0.106717 318:0.12537199 342:0.152005 346:0.15713599 417:0.170064 418:0.37611499 432:0.18969201 444:0.080084004 482:0.108224 503:0.170064 679:0.36912701 713:0.123042 749:0.18969201 777:0.116798 805:0.093160003 808:0.118769 900:0.109792 930:0.120846 932:0.18969201 938:0.170064 997:0.111428 
0.77202505018497714 80:0.17920201 206:0.101257 251:0.19632401 293:0.090521999 318:0.137784 330:0.064847998 389:0.30721301 418:0.27556899 549:0.430269 580:0.162081 679:0.270448 689:0.51807898 692:0.15763099 742:0.19632401 857:0.137784 876:0.208472 909:0.117282 934:0.15763099 
-0.99999993212504223 111:0.15515199 136:0.147705 202:0.12808999 206:0.080022 272:0.23697799 318:0.76222098 330:0.051247999 349:0.115818 410:0.17828301 514:0.193556 520:0.16475201 586:0.209916 679:0.21373101 681:0.098260999 686:0.15515199 756:0.16475201 832:0.118489 857:0.108889 927:0.072226003 
-0.54072020557383527 21:0.297822 71:0.179763 118:0.12637 133:0.107214 221:0.16928799 228:0.297822 261:0.148911 297:0.148911 320:0.148911 330:0.055916999 355:0.12928499 393:0.154524 445:0.080356002 449:0.12116 469:0.35952601 481:0.110684 517:0.22904199 519:0.179763 572:0.13976 607:0.161163 638:0.32232499 659:0.144049 664:0.161163 681:0.107214 736:0.16928799 737:0.148911 738:0.154524 772:0.11881 777:0.110684 835:0.179763 857:0.11881 887:0.101131 915:0.105595 
-0.99999993212504223 63:0.085430004 84:0.14543401 158:0.136959 179:0.046578001 231:0.102237 247:0.109966 251:0.136959 318:0.192241 323:0.102237 419:0.157378 420:0.098021999 466:0.219933 482:0.082974002 495:0.250029 508:0.136959 554:0.51740801 574:0.077602997 590:0.092651002 603:0.157378 614:0.23308 617:0.086739004 673:0.161413 677:0.12501501 679:0.28300399 694:0.12501501 762:0.066320002 799:0.136959 807:0.14543401 827:0.136959 850:0.104595 857:0.192241 882:0.157378 912:0.11307 927:0.063757002 956:0.14543401 1000:0.104595 
-0.91890907121891363 14:0.25692001 16:0.27281699 179:0.087375 293:0.118461 378:0.25692001 387:0.196209 390:0.13107499 393:0.46902701 501:0.15564901 530:0.20101801 574:0.145574 685:0.29522401 692:0.206284 762:0.124409 774:0.244589 823:0.27281699 857:0.18031099 868:0.160257 930:0.173803 934:0.206284 
-0.12910392417594452 57:0.094892003 62:0.103959 66:0.112513 77:0.107878 104:0.046921998 118:0.17644601 125:0.207919 133:0.074849002 170:0.071599998 179:0.080387004 183:0.107878 190:0.097571 220:0.195141 229:0.118049 259:0.097571 281:0.094892003 305:0.107878 309:0.068719 322:0.118185 324:0.135805 325:0.092469998 330:0.039037999 338:0.097571 349:0.088223003 362:0.125498 363:0.064542003 364:0.103959 373:0.118185 390:0.120591 392:0.135805 400:0.112513 401:0.225025 403:0.135805 416:0.082944997 420:0.084585004 429:0.088223003 466:0.094892003 514:0.073719002 517:0.079951003 520:0.25099599 527:0.097571 533:0.135805 552:0.118185 563:0.135805 572:0.097571 574:0.066964999 601:0.135805 628:0.078575999 644:0.078575999 653:0.112513 664:0.112513 668:0.125498 672:0.070602998 677:0.107878 686:0.23637 699:0.103959 705:0.125498 714:0.118185 715:0.100565 748:0.107878 751:0.135805 762:0.057229001 774:0.112513 805:0.061634 813:0.135805 844:0.125498 848:0.066131003 857:0.082944997 887:0.070602998 900:0.072636999 909:0.070602998 915:0.147439 970:0.112513 973:0.097571 997:0.073719002 
0.99999993212504223 17:0.062344 65:0.136499 106:0.045086998 124:0.15685 147:0.136499 228:0.24013799 235:0.099717997 253:0.18150499 293:0.062936999 296:0.120069 300:0.136499 320:0.24013799 328:0.11269 356:0.18803599 358:0.136499 393:0.24919 402:0.109597 468:0.090751998 481:0.089245997 501:0.082695 548:0.12994801 549:0.099717997 574:0.077342004 596:0.12994801 620:0.136499 624:0.087814003 627:0.124595 665:0.101894 686:0.40949699 703:0.136499 716:0.124595 739:0.225381 745:0.120069 785:0.116149 805:0.355923 848:0.076379001 855:0.086447999 857:0.095798001 882:0.15685 963:0.12994801 
0.99999993212504223 66:0.180044 80:0.172628 94:0.117967 106:0.062469002 276:0.111444 318:0.13272899 323:0.141176 359:0.138161 398:0.166357 446:0.166357 450:0.180044 482:0.114575 552:0.18912099 617:0.119775 621:0.378243 627:0.172628 670:0.20082401 686:0.18912099 715:0.160925 882:0.65195203 
0.99999993212504223 10:0.212082 66:0.190138 101:0.199724 115:0.145907 124:0.22950099 206:0.103011 247:0.16036101 253:0.132788 356:0.137566 390:0.101895 402:0.16036101 431:0.17568301 442:0.18230499 596:0.190138 624:0.25697601 629:0.199724 652:0.169947 666:0.169947 686:0.39944801 713:0.137566 716:0.18230499 733:0.169947 751:0.22950099 805:0.104157 808:0.26557499 857:0.14016999 929:0.145907 999:0.128488 
0.99999993212504223 202:0.17598701 302:0.111168 304:0.127345 330:0.070412003 333:0.22635899 339:0.20293701 373:0.21316899 423:0.19457801 482:0.129143 506:0.18751 516:0.20293701 578:0.18751 586:0.28841099 644:0.141727 686:0.21316899 697:0.37502 767:0.129143 857:0.149606 882:0.48989999 943:0.19457801 948:0.159126 
-0.85344913307394754 131:0.121555 276:0.116544 296:0.17397 330:0.065327004 353:0.18828399 411:0.37656799 450:0.18828399 482:0.239637 490:0.158797 583:0.18828399 599:0.114997 688:0.105505 691:0.180528 807:0.210014 830:0.227263 832:0.30208299 850:0.151041 857:0.13880301 880:0.18828399 882:0.45452601 989:0.197776 998:0.197776 
-0.99468828461053982 72:0.097157001 127:0.105137 131:0.056233998 144:0.068300001 153:0.097157001 193:0.068300001 206:0.047189999 213:0.091495 253:0.060830999 255:0.200524 267:0.083516002 268:0.087104 272:0.13975 281:0.073463 302:0.047715001 316:0.080481999 323:0.068300001 328:0.075535998 330:0.060444001 339:0.087104 358:0.091495 367:0.091495 377:0.091495 396:0.080481999 418:0.128427 424:0.063019998 429:0.068300001 445:0.043430001 468:0.060830999 469:0.097157001 509:0.097157001 572:0.075535998 581:0.077854 584:0.064213 596:0.087104 603:0.105137 617:0.057946 679:0.063019998 686:0.091495 695:0.15107299 700:0.097157001 716:0.083516002 739:0.075535998 743:0.097157001 753:0.091495 777:0.059822001 783:0.14317501 796:0.080481999 797:0.097157001 805:0.429436 834:0.091495 849:0.077854 857:0.128427 863:0.167032 882:0.105137 885:0.155709 900:0.056233998 903:0.38862801 905:0.26131201 909:0.054659002 918:0.182991 927:0.042592999 929:0.200524 1000:0.13975 
-0.99999993212504223 41:0.15279 134:0.13698 146:0.131338 147:0.143886 161:0.13698 179:0.048934001 198:0.13698 201:0.15279 287:0.15279 293:0.132687 302:0.15007401 306:0.12656701 309:0.083663002 310:0.13698 330:0.047527 351:0.143886 390:0.073408 393:0.131338 397:0.122434 418:0.100982 423:0.131338 440:0.115528 444:0.064503998 489:0.16533799 496:0.122434 513:0.118789 599:0.083663002 610:0.118789 624:0.092565998 642:0.25313401 664:0.27396101 670:0.15279 672:0.343826 686:0.28777301 692:0.115528 715:0.122434 724:0.131338 774:0.13698 827:0.143886 851:0.15279 896:0.15279 900:0.088434003 909:0.085956 922:0.118789 924:0.095664002 927:0.066982001 937:0.109886 951:0.097337 
-0.18352715136169589 68:0.093198001 91:0.079302996 113:0.098963998 115:0.204254 156:0.093198001 160:0.107092 179:0.063391 234:0.085069999 257:0.098963998 288:0.093198001 293:0.042971998 313:0.081978999 316:0.245938 321:0.098963998 330:0.092352003 336:0.107092 385:0.093198001 390:0.047547001 398:0.081978999 399:0.088724002 423:0.170139 444:0.125342 445:0.044238001 459:0.079302996 477:0.14235 479:0.177449 497:0.063046999 499:0.15860499 506:0.081978999 518:0.098963998 538:0.088724002 543:0.093198001 554:0.050298002 606:0.186395 609:0.093198001 617:0.118048 623:0.177449 632:0.107092 634:0.19792899 643:0.098963998 650:0.085069999 680:0.093198001 681:0.059023999 686:0.27959299 687:0.059023999 697:0.081978999 721:0.076941997 755:0.088724002 758:0.098963998 762:0.045129001 783:0.072919004 817:0.058132999 849:0.079302996 855:0.059023999 882:0.32127699 900:0.05728 904:0.38515601 909:0.055675 922:0.076941997 927:0.043384999 928:0.107092 981:0.107092 
-0.071392577942854751 17:0.089654997 22:0.14653 45:0.186873 179:0.066757001 248:0.334057 249:0.37374499 302:0.102368 354:0.179175 357:0.19629399 445:0.093175001 485:0.172666 527:0.162056 548:0.186873 629:0.19629399 646:0.140488 659:0.16702899 664:0.186873 719:0.186873 765:0.20844001 808:0.13050701 817:0.122441 857:0.13776299 904:0.135203 910:0.20844001 915:0.122441 975:0.35835001 988:0.20844001 
0.99999993212504223 80:0.19461501 104:0.084648997 179:0.072509997 229:0.106481 235:0.15575799 239:0.213209 294:0.226402 302:0.111189 306:0.187545 335:0.213209 419:0.48999301 501:0.129168 519:0.226402 574:0.120807 617:0.13503 672:0.127369 673:0.251277 686:0.213209 762:0.103243 827:0.213209 857:0.29926899 893:0.244996 917:0.181422 924:0.141753 
0.92883337957569723 155:0.113416 208:0.155249 245:0.155249 250:0.141709 276:0.091484003 293:0.071583003 302:0.080963001 307:0.32971099 318:0.108957 330:0.051279999 352:0.155249 424:0.106932 466:0.37395501 471:0.164855 482:0.188108 554:0.41893199 578:0.27312401 590:0.105024 617:0.098323002 646:0.222224 649:0.147798 664:0.147798 679:0.106932 697:0.136562 703:0.155249 726:0.155249 748:0.141709 773:0.164855 783:0.121469 827:0.155249 915:0.096837997 
0.99999993212504223 63:0.077933997 80:0.114046 179:0.042491999 200:0.106315 206:0.064441003 229:0.062399 247:0.100318 286:0.10315 318:0.263062 353:0.118946 389:0.19551399 396:0.109903 440:0.100318 444:0.056012001 449:0.17884301 473:0.072648004 482:0.075694002 500:0.13267399 504:0.24507099 509:0.13267399 514:0.46760699 549:0.091275997 581:0.106315 586:0.169044 617:0.079129003 659:0.106315 664:0.35683799 681:0.079129003 686:0.124943 687:0.079129003 696:0.114046 699:0.109903 711:0.13267399 713:0.086057998 734:0.100318 762:0.060501002 777:0.081689999 793:0.118946 797:0.13267399 805:0.065158002 827:0.124943 857:0.087687001 870:0.114046 885:0.106315 890:0.13267399 909:0.074639998 915:0.15586901 927:0.058162998 1000:0.095417999 
0.99999993212504223 63:0.081014998 179:0.044171002 200:0.110518 229:0.064865999 230:0.118554 247:0.104284 297:0.114248 302:0.067734003 328:0.32168201 330:0.042900998 342:0.110518 351:0.12988199 421:0.118554 458:0.118554 469:0.13791899 554:0.070096001 566:0.13791899 700:0.13791899 711:0.13791899 713:0.17892 748:0.47421801 773:0.55167401 790:0.114248 797:0.13791899 850:0.099189997 875:0.092956997 881:0.13791899 882:0.14924601 910:0.13791899 911:0.12988199 
0.99999993212504223 20:0.25670201 104:0.107054 210:0.26964301 248:0.229442 300:0.26964301 318:0.18924101 420:0.192984 423:0.24612699 503:0.25670201 578:0.474374 613:0.28632799 617:0.170772 672:0.161083 673:0.158894 686:0.26964301 687:0.170772 717:0.18924101 
-0.8337049795217728 73:0.17115299 75:0.19667099 98:0.19667099 103:0.150552 104:0.067952 131:0.105192 179:0.058207002 237:0.18174399 258:0.14563601 281:0.137421 293:0.078915998 294:0.18174399 304:0.102246 326:0.51345998 330:0.056534 426:0.17115299 482:0.103689 501:0.103689 519:0.18174399 534:0.18174399 554:0.092370003 568:0.137421 617:0.216791 664:0.162939 686:0.17115299 687:0.108395 720:0.127763 767:0.103689 780:0.162939 837:0.15622699 848:0.191541 868:0.21351799 915:0.106759 973:0.14129999 997:0.106759 
-0.42856546535675061 17:0.083254002 24:0.146355 118:0.136069 145:0.209456 238:0.166383 302:0.095059998 315:0.13920701 328:0.15048601 352:0.18228 389:0.142618 509:0.19355901 568:0.58542001 574:0.103282 617:0.115442 649:0.173531 697:0.160339 701:0.19355901 743:0.38711801 827:0.18228 857:0.127928 888:0.19355901 917:0.155104 948:0.136069 
-0.51280734213133816 104:0.054756001 152:0.14645199 159:0.137918 179:0.046904001 214:0.121317 229:0.068879001 248:0.23471101 253:0.091695003 254:0.14645199 286:0.113861 300:0.137918 329:0.137918 372:0.12589 389:0.215817 396:0.121317 402:0.221472 440:0.110736 445:0.065466002 493:0.14645199 504:0.360695 549:0.201509 569:0.121317 588:0.079150997 673:0.081271 686:0.27583501 695:0.227723 709:0.12589 713:0.094994999 748:0.12589 760:0.121317 767:0.167109 797:0.14645199 827:0.137918 870:0.12589 881:0.29290301 882:0.15848 885:0.117355 924:0.091695003 927:0.064203002 929:0.100755 956:0.14645199 
-0.14109938869264416 15:0.101121 17:0.055943999 63:0.152803 84:0.130064 104:0.048629001 105:0.130064 169:0.095834002 221:0.122485 230:0.111803 299:0.101121 302:0.063876003 330:0.121374 389:0.57500499 396:0.107742 402:0.098344997 423:0.22360601 425:0.130064 430:0.116606 481:0.080084004 499:0.104224 523:0.116606 549:0.44740301 554:0.066104002 575:0.116606 588:0.070294999 646:0.087663002 671:0.122485 673:0.072177 695:0.101121 726:0.24496999 748:0.111803 754:0.130064 767:0.074205004 817:0.076402001 857:0.085963003 870:0.111803 885:0.104224 909:0.073172003 
-0.37271158250943098 57:0.136296 123:0.180255 179:0.05773 205:0.19506 222:0.180255 248:0.14444301 258:0.14444301 283:0.180255 293:0.078268997 333:0.180255 363:0.185406 364:0.14931899 428:0.33950299 430:0.161604 605:0.180255 616:0.161604 629:0.33950299 659:0.43332899 664:0.161604 748:0.154947 765:0.180255 808:0.225721 817:0.105884 848:0.094985999 857:0.119135 904:0.116921 933:0.14444301 
0.36078104965213553 161:0.17166901 204:0.19148199 220:0.148871 229:0.090057999 248:0.153439 293:0.083144002 310:0.17166901 316:0.158618 318:0.126555 320:0.31723601 359:0.131734 367:0.180323 393:0.164597 526:0.19148199 554:0.097318999 580:0.148871 616:0.17166901 617:0.114203 665:0.134608 672:0.32317099 673:0.10626 686:0.180323 772:0.126555 817:0.112479 825:0.17166901 868:0.112479 875:0.129058 882:0.41441599 922:0.148871 937:0.137713 951:0.121986 992:0.180323 
0.80030312906826662 14:0.242487 179:0.082466997 228:0.21329901 247:0.19469599 293:0.111806 354:0.221339 358:0.242487 393:0.221339 513:0.20019101 549:0.177147 580:0.20019101 676:0.242487 686:0.242487 690:0.20019101 762:0.11742 857:0.170182 876:0.51498199 882:0.27863899 951:0.164039 
0.99999993212504223 38:0.102487 131:0.088010997 206:0.073857002 229:0.071516 281:0.114975 293:0.132052 310:0.40897399 354:0.13070901 390:0.21917 393:0.13070901 418:0.20099799 445:0.067971997 549:0.104612 574:0.081138 580:0.118221 588:0.164363 638:0.136325 653:0.136325 669:0.136325 676:0.143198 689:0.25192299 695:0.354662 708:0.152059 713:0.098632 744:0.164547 767:0.086753003 774:0.27265 796:0.12596101 805:0.074677996 807:0.152059 819:0.096871004 840:0.136325 850:0.10936 876:0.152059 909:0.085545003 930:0.096871004 960:0.236441 
0.67902356243218853 63:0.045317002 179:0.024707999 201:0.077147 206:0.037471 220:0.059978999 229:0.072567999 247:0.174999 253:0.096606001 259:0.059978999 291:0.06182 310:0.760809 320:0.31953299 323:0.108466 387:0.055484001 396:0.063906997 441:0.127813 549:0.10615 572:0.059978999 580:0.119959 628:0.144908 631:0.069164 634:0.077147 672:0.043400999 673:0.085623004 686:0.145303 690:0.119959 738:0.066315003 745:0.063906997 762:0.035179999 786:0.154294 797:0.077147 819:0.049148001 836:0.049148001 849:0.06182 850:0.055484001 857:0.15296499 860:0.072650999 866:0.069164 912:0.059978999 963:0.069164 968:0.066315003 973:0.119959 
0.99999993212504223 179:0.058972999 193:0.064722002 201:0.184135 206:0.044718001 231:0.064722002 247:0.13923 262:0.055778001 302:0.271294 305:0.158282 306:0.38133201 309:0.050413001 320:0.076265998 330:0.028639 345:0.092068002 360:0.086703002 366:0.060849998 393:0.158282 396:0.076265998 401:0.082540996 423:0.079140998 444:0.116607 445:0.16462199 482:0.052526999 495:0.079140998 515:0.092068002 528:0.082540996 543:0.086703002 569:0.076265998 578:0.228799 594:0.07158 657:0.056688 659:0.073775999 672:0.31077299 677:0.079140998 711:0.092068002 713:0.059719 715:0.073775999 745:0.076265998 774:0.16508301 810:0.16508301 821:0.39851701 851:0.184135 857:0.121699 882:0.099629 909:0.103591 922:0.21473899 926:0.057645001 927:0.040362 974:0.092068002 
-0.71278535400962006 17:0.069817998 133:0.096812002 151:0.152863 229:0.076343 238:0.139531 239:0.152863 260:0.111673 264:0.134463 276:0.090078004 281:0.122736 293:0.140965 299:0.12620001 320:0.134463 330:0.151476 369:0.139531 373:0.152863 380:0.101632 390:0.155975 393:0.139531 402:0.122736 434:0.134463 435:0.152863 445:0.072559997 459:0.130072 481:0.099945001 490:0.122736 505:0.152863 580:0.12620001 625:0.139531 643:0.162322 651:0.162322 672:0.091319002 673:0.090078004 686:0.30572599 703:0.152863 708:0.162322 715:0.130072 752:0.139531 769:0.152863 781:0.152863 849:0.26014501 857:0.107282 928:0.175653 934:0.122736 942:0.30572599 999:0.098341003 
-0.99999993212504223 7:0.120303 80:0.120303 84:0.139952 179:0.089644998 202:0.108808 208:0.263594 247:0.211643 260:0.096283004 299:0.108808 311:0.151446 318:0.554986 393:0.240605 394:0.139952 424:0.181558 429:0.098384 455:0.120303 468:0.087626003 527:0.108808 538:0.125471 554:0.071129002 590:0.178317 627:0.120303 657:0.086172 673:0.077664003 677:0.120303 686:0.131797 706:0.096283004 726:0.131797 767:0.079846002 806:0.120303 827:0.131797 832:0.100653 857:0.092497997 867:0.151446 901:0.125471 915:0.16441999 917:0.112147 924:0.087626003 945:0.139952 948:0.098384 
-0.3886624967520485 128:0.463101 179:0.068530001 212:0.213976 214:0.17725199 247:0.32358599 255:0.14721 356:0.55517799 363:0.220091 710:0.23154999 716:0.183934 882:0.23154999 915:0.12569299 924:0.133974 977:0.213976 
-0.99999993212504223 49:0.26440901 80:0.227286 104:0.098858997 202:0.20557 236:0.227286 247:0.199927 335:0.24900199 363:0.13598301 418:0.17475399 456:0.181906 497:0.168446 576:0.227286 688:0.13283101 760:0.438059 887:0.14875101 901:0.23705 909:0.14875101 934:0.199927 938:0.23705 944:0.26440901 948:0.185875 
-0.49446882735591835 24:0.168571 36:0.22294 103:0.184678 151:0.209949 179:0.071401 215:0.184678 239:0.209949 312:0.24125101 410:0.24125101 419:0.482501 482:0.127193 617:0.132966 673:0.247435 681:0.132966 748:0.19163901 806:0.19163901 820:0.209949 832:0.160338 836:0.142028 857:0.147347 882:0.24125101 915:0.13095801 927:0.097735003 934:0.168571 
0.99999993212504223 8:0.117294 304:0.146163 316:0.21521901 323:0.182641 380:0.16267 468:0.16267 482:0.148228 506:0.21521901 576:0.223331 677:0.223331 686:0.48933899 739:0.40398699 759:0.186854 827:0.24467 888:0.25980899 894:0.24467 927:0.113898 964:0.16267 
0.99999993212504223 8:0.117931 80:0.44908601 104:0.097666003 106:0.081254996 135:0.22454301 179:0.083660997 202:0.406178 309:0.14303499 379:0.26121899 477:0.37573501 652:0.20932101 691:0.22454301 797:0.26121899 827:0.245997 882:0.282673 927:0.114516 
0.99999993212504223 38:0.12561101 80:0.160201 94:0.109475 135:0.480602 179:0.119376 202:0.28978899 287:0.18636701 309:0.204098 318:0.123174 417:0.167083 430:0.167083 431:0.15438201 537:0.18636701 607:0.334167 666:0.149341 759:0.13403399 805:0.091527 819:0.118728 827:0.17550699 846:0.160201 857:0.123174 882:0.201673 900:0.107868 917:0.29868099 927:0.081702001 948:0.13101301 
0.60634832940982586 8:0.063588999 31:0.116677 80:0.121075 104:0.052662 108:0.091362 118:0.099016003 131:0.081523001 133:0.16801199 179:0.090221003 322:0.132643 330:0.043813001 335:0.132643 367:0.79585803 424:0.091362 482:0.16071799 504:0.086724997 514:0.082737997 517:0.179462 570:0.121075 617:0.084005997 675:0.132643 677:0.121075 686:0.132643 688:0.070758998 762:0.064230002 857:0.093091004 860:0.132643 887:0.079240002 917:0.112867 927:0.061748002 930:0.089731 968:0.121075 
0.99999993212504223 31:0.32048899 106:0.120347 169:0.28506801 179:0.123909 276:0.214699 294:0.38688901 482:0.22073001 617:0.230748 686:0.364344 868:0.227264 908:0.32048899 996:0.38688901 997:0.227264 
-0.50726720382905544 5:0.200716 104:0.19305 106:0.080306001 107:0.231454 209:0.206875 294:0.258167 380:0.161642 397:0.206875 475:0.190222 501:0.14729001 506:0.21385799 552:0.24312299 574:0.137756 677:0.221919 686:0.48624501 739:0.200716 805:0.126789 829:0.258167 848:0.136041 855:0.153975 857:0.170628 900:0.149425 
-0.047070067947726169 45:0.18673199 249:0.373465 258:0.166903 276:0.115584 294:0.20828401 302:0.102291 304:0.117176 309:0.11405 369:0.17904 416:0.13766 475:0.153468 670:0.20828401 686:0.58844 739:0.161934 787:0.20828401 796:0.172537 827:0.19614699 841:0.22539 857:0.13766 975:0.17904 
-0.66218914283489061 18:0.26609701 26:0.133048 121:0.133048 144:0.099317998 196:0.117034 253:0.088458002 302:0.069385 306:0.117034 316:0.23406699 319:0.126663 320:0.117034 325:0.104099 328:0.109842 330:0.043947 331:0.133048 355:0.203218 364:0.117034 430:0.126663 431:0.117034 435:0.26609701 444:0.059645999 550:0.133048 557:0.121445 574:0.075387001 579:0.121445 624:0.085593998 644:0.088458002 659:0.113212 666:0.113212 668:0.14128099 670:0.14128099 672:0.31792799 686:0.26609701 705:0.282563 805:0.069385 811:0.14128099 827:0.133048 850:0.101609 900:0.081772998 920:0.126663 922:0.109842 923:0.117034 932:0.14128099 936:0.152885 964:0.088458002 974:0.14128099 
-0.54374292263945301 45:0.201608 220:0.174834 229:0.105764 258:0.180199 302:0.11044 316:0.18628199 328:0.174834 332:0.224877 416:0.148626 463:0.224877 468:0.140798 502:0.224877 514:0.13209599 554:0.114292 574:0.119993 628:0.140798 641:0.154709 686:0.21177299 719:0.201608 758:0.224877 779:0.224877 787:0.224877 805:0.11044 827:0.423545 882:0.24334601 975:0.193303 
-0.067015512871696964 17:0.081595004 28:0.35729599 122:0.17864799 146:0.163068 162:0.157144 170:0.10823 179:0.060756002 229:0.089221001 249:0.170074 255:0.13051 286:0.147487 300:0.17864799 304:0.106723 469:0.189702 514:0.111434 526:0.189702 686:0.35729599 696:0.163068 720:0.133357 735:0.205283 762:0.173015 789:0.17864799 797:0.189702 805:0.093165003 827:0.17864799 882:0.205283 908:0.157144 919:0.163068 927:0.083163999 932:0.189702 949:0.147487 985:0.13051 988:0.189702 
0.99999993212504223 63:0.080610998 161:0.123031 179:0.043951001 229:0.064542003 238:0.117963 293:0.059588 298:0.24606299 330:0.042686999 352:0.129234 377:0.387703 378:0.258468 380:0.085922003 430:0.123031 455:0.117963 458:0.471854 475:0.101115 477:0.098696001 528:0.123031 554:0.139493 578:0.113678 590:0.087425001 599:0.075143002 617:0.081846997 649:0.123031 701:0.13723101 762:0.062579997 769:0.258468 802:0.27446201 850:0.098696001 857:0.090699002 882:0.297003 912:0.106693 927:0.120322 
0.99999993212504223 17:0.067221999 80:0.134343 236:0.134343 247:0.23634399 248:0.125236 251:0.44153699 254:0.156286 318:0.206586 325:0.115155 342:0.125236 390:0.075088002 418:0.103293 453:0.134343 466:0.23634399 482:0.089165002 531:0.156286 554:0.079430997 664:0.14011499 679:0.608244 686:0.14717899 688:0.078512996 850:0.1124 856:0.103293 887:0.087922998 924:0.097852997 930:0.099564001 
0.99999993212504223 65:0.28682199 229:0.143245 253:0.190695 294:0.30456999 320:0.25229701 328:0.236793 549:0.209535 554:0.61917901 863:0.26180699 882:0.329584 929:0.209535 
0.99999993212504223 22:0.038364999 32:0.35976401 70:0.045209002 80:0.046913002 92:0.054575 94:0.032058001 103:0.045209002 104:0.020405 117:0.041266002 133:0.03255 147:0.10279 183:0.140738 208:0.10279 220:0.12729099 222:0.10915 244:0.29356799 262:0.132255 276:0.090856999 288:0.051394999 290:0.048928 304:0.061406001 310:0.14678399 330:0.033952001 342:0.043731999 343:0.046913002 345:0.054575 353:0.048928 360:0.10279 363:0.028067 385:0.154185 393:0.046913002 397:0.087465003 402:0.041266002 420:0.036782999 428:0.10279 429:0.038364999 431:0.090416998 445:0.048790999 451:0.097856 458:0.093824998 482:0.062272999 490:0.49518701 496:0.043731999 513:0.084861003 514:0.032058001 525:0.10279 528:0.097856 541:0.054575 554:0.027736999 590:0.069536 594:0.042429999 628:0.034170002 643:0.054575 659:0.043731999 664:0.048928 666:0.349859 676:0.10279 677:0.046913002 686:0.10279 690:0.042429999 695:0.12729099 711:0.054575 732:0.045209002 762:0.024886999 767:0.062272999 769:0.051394999 774:0.048928 781:0.10279 815:0.046913002 857:0.03607 882:0.118115 897:0.078500003 927:0.023925001 934:0.041266002 945:0.054575 949:0.042429999 964:0.13668101 973:0.084861003 997:0.032058001 
0.8273637310450167 15:0.116299 56:0.14087 94:0.087869003 131:0.086580001 179:0.047908001 193:0.105157 218:0.123913 247:0.113106 276:0.083011001 302:0.073463999 320:0.24782699 366:0.098865002 382:0.128584 444:0.063152 445:0.133734 482:0.085343003 497:0.095296003 543:0.14087 549:0.102911 583:0.13410901 621:0.70434898 623:0.13410901 686:0.14087 692:0.113106 713:0.097028002 748:0.128584 749:0.14958601 867:0.161872 891:0.28174001 912:0.116299 951:0.095296003 
-0.55230820016764504 106:0.065986 131:0.122779 134:0.190181 248:0.169985 253:0.132818 260:0.43781799 267:0.182347 318:0.140202 382:0.182347 390:0.20383599 418:0.140202 482:0.121025 506:0.175723 592:0.182347 614:0.169985 619:0.21213 737:0.175723 785:0.169985 797:0.21213 850:0.15256301 857:0.420605 882:0.229552 929:0.14593901 949:0.164924 
-0.37642051331819354 94:0.139167 108:0.15367299 142:0.446219 155:0.162991 183:0.20365199 193:0.166547 197:0.15967999 289:0.23691501 293:0.102872 306:0.196254 420:0.15967999 431:0.196254 516:0.212401 642:0.392508 644:0.14833599 666:0.18984599 679:0.15367299 705:0.23691501 717:0.156583 749:0.23691501 822:0.22310901 
-0.26974696208086624 46:0.32171199 51:0.34161901 79:0.32171199 104:0.127727 106:0.106265 169:0.25171199 506:0.28298801 687:0.203748 699:0.28298801 767:0.194902 882:0.36967599 933:0.27374801 958:0.30627099 997:0.200672 
-0.37301583940203731 15:0.222477 180:0.28615499 253:0.35833201 330:0.089011997 369:0.245978 390:0.137483 501:0.163259 523:0.25654599 592:0.245978 677:0.245978 681:0.17066801 690:0.222477 857:0.189127 909:0.16098499 951:0.54689902 
0.99999993212504223 46:0.16575301 63:0.103391 104:0.065807998 135:0.151298 179:0.112741 202:0.136842 214:0.14580201 220:0.136842 229:0.082781002 236:0.151298 304:0.099019997 306:0.14580201 318:0.116329 366:0.116329 381:0.190465 420:0.11863 425:0.17601 466:0.133086 482:0.200836 501:0.100418 504:0.108373 574:0.093918003 578:0.14580201 581:0.141041 588:0.095126003 629:0.16575301 681:0.104975 686:0.49726 706:0.12109 711:0.17601 762:0.080263004 819:0.11213 827:0.33150601 839:0.17601 848:0.092749 857:0.116329 888:0.17601 997:0.103391 
0.99999993212504223 63:0.101443 196:0.14305501 200:0.138384 302:0.084812 305:0.29689401 309:0.094562002 316:0.14305501 318:0.114137 352:0.16263001 389:0.127244 394:0.172693 396:0.14305501 482:0.098526001 509:0.172693 549:0.118808 578:0.14305501 583:0.154825 617:0.102998 649:0.154825 664:0.30964899 679:0.112016 686:0.16263001 711:0.34538701 734:0.130578 783:0.127244 790:0.14305501 793:0.154825 805:0.084812 827:0.32526001 856:0.114137 857:0.228274 859:0.14305501 865:0.154825 870:0.14844701 915:0.101443 
0.86149932519347883 172:0.102573 179:0.086893998 223:0.27131301 228:0.112374 229:0.063801996 238:0.11661 264:0.224749 298:0.12162 302:0.066623002 320:0.112374 330:0.042197999 384:0.135657 393:0.23322 420:0.091431998 445:0.06064 499:0.21741 501:0.077395 513:0.21093699 535:0.108705 542:0.097563997 543:0.12775201 574:0.072385997 580:0.105469 652:0.108705 669:0.24324 676:0.255503 686:0.511006 736:0.255503 739:0.105469 745:0.112374 762:0.123723 861:0.12775201 945:0.135657 964:0.084936 975:0.11661 
0.79293129319254851 8:0.065876998 22:0.102578 24:0.110332 31:0.120874 80:0.125431 135:0.125431 168:0.13741501 179:0.046732999 200:0.116928 238:0.125431 294:0.145918 318:0.096441001 345:0.145918 349:0.102578 351:0.13741501 353:0.13082001 360:0.13741501 370:0.094649002 446:0.120874 509:0.145918 528:0.13082001 552:0.13741501 574:0.15572201 578:0.120874 617:0.17405599 664:0.261639 686:0.41224501 697:0.120874 711:0.145918 717:0.192881 734:0.110332 762:0.066541001 793:0.13082001 827:0.41224501 857:0.192881 882:0.157902 890:0.145918 948:0.102578 
0.99999993212504223 17:0.079674996 179:0.059326001 201:0.185238 206:0.089971997 229:0.087121002 231:0.130219 349:0.130219 354:0.15922999 370:0.120154 424:0.360461 458:0.318461 496:0.14843599 514:0.217623 554:0.188291 574:0.197684 587:0.185238 594:0.144017 686:0.34888801 748:0.15922999 767:0.105683 802:0.185238 814:0.185238 826:0.166071 827:0.174444 856:0.122428 911:0.174444 927:0.081207 929:0.12743901 973:0.28803301 
-0.99999993212504223 1:0.055397999 17:0.031513002 23:0.068995997 68:0.068995997 108:0.047522999 129:0.060690999 179:0.023465 197:0.049380001 200:0.117418 224:0.073265001 229:0.17229 235:0.100808 238:0.125957 247:0.055397999 249:0.197052 276:0.040656999 297:0.121382 304:0.041216999 305:0.125957 328:0.170884 330:0.04558 336:0.237847 342:0.058708999 346:0.060690999 356:0.047522999 370:0.047522999 371:0.131368 387:0.052692 451:0.065683998 477:0.052692 488:0.137991 537:0.073265001 554:0.335127 574:0.039094001 587:0.219795 631:0.065683998 664:0.328421 686:0.27598301 719:0.065683998 762:0.10023 767:0.041799001 769:0.137991 790:0.182072 794:0.158565 797:0.14653 798:0.065683998 831:0.068995997 850:0.052692 857:0.290535 882:0.158565 917:0.058708999 934:0.16619299 947:0.182072 954:0.056961 996:0.14653 
-0.30314876669866109 1:0.13572399 11:0.097120002 17:0.077206001 24:0.203585 48:0.067861997 93:0.069776997 105:0.089749001 133:0.053528 135:0.077147998 177:0.084518999 179:0.057487998 210:0.084518999 276:0.049805 305:0.077147998 307:0.089749001 330:0.027918 334:0.18927599 335:0.084518999 351:0.084518999 352:0.084518999 420:0.181472 429:0.126184 445:0.040119 460:0.097120002 477:0.064547002 483:0.071918003 499:0.143837 525:0.084518999 527:0.209332 547:0.097120002 553:0.084518999 578:0.148692 588:0.048505999 592:0.077147998 617:0.053528 664:0.080463 673:0.049805 686:0.25355801 706:0.061744999 734:0.203585 762:0.040927 767:0.102408 769:0.33807799 770:0.388482 831:0.084518999 917:0.071918003 947:0.44607499 948:0.063092001 953:0.066128999 
-0.44957003446578098 49:0.106057 80:0.091165997 202:0.164911 281:0.080192 294:0.106057 302:0.052085999 304:0.059664998 309:0.116147 349:0.074556001 399:0.095082998 405:0.229534 482:0.060508002 505:0.099877 579:0.091165997 607:0.28524801 614:0.254958 625:0.273498 663:0.095082998 666:0.084986001 676:0.099877 686:0.29962999 702:0.099877 713:0.137586 767:0.060508002 784:0.099877 874:0.099877 912:0.082456 915:0.062298998 927:0.046494 945:0.63634002 947:0.087854996 948:0.074556001 1000:0.076274998 
-0.4716397816547192 24:0.14259 61:0.146615 210:0.177591 222:0.18858001 226:0.18858001 228:0.156214 253:0.118072 297:0.156214 299:0.146615 306:0.156214 330:0.058660001 423:0.162103 454:0.18858001 500:0.18858001 575:0.169067 581:0.151114 613:0.18858001 617:0.112472 658:0.177591 659:0.151114 664:0.169067 672:0.106091 686:0.177591 718:0.20406801 788:0.169067 812:0.20406801 821:0.20406801 856:0.124637 884:0.162103 887:0.106091 916:0.129737 920:0.169067 922:0.146615 929:0.129737 960:0.29322901 967:0.151114 973:0.146615 
-0.97680604925559367 17:0.080774002 24:0.141996 63:0.110313 111:0.176851 144:0.132016 162:0.155563 188:0.155563 206:0.091214001 235:0.129197 276:0.104213 302:0.092228003 305:0.16142701 306:0.155563 309:0.10283 377:0.176851 389:0.276741 396:0.155563 444:0.079282001 445:0.251838 477:0.13506 481:0.115629 499:0.150484 514:0.33093801 549:0.25839299 553:0.176851 569:0.155563 586:0.119637 588:0.101495 646:0.126572 648:0.176851 664:0.16836201 679:0.121811 686:0.176851 709:0.16142701 808:0.11758 870:0.16142701 882:0.203217 948:0.132016 
0.99999993212504223 131:0.156896 169:0.199733 267:0.233015 293:0.117704 364:0.22455101 390:0.130238 418:0.53747803 665:0.19056 695:0.210752 796:0.22455101 819:0.172692 827:0.25527799 876:0.271074 882:0.293338 887:0.152501 916:0.186491 934:0.20496599 997:0.159233 
0.99999993212504223 26:0.145962 32:0.145962 80:0.133232 126:0.154994 166:0.114202 193:0.108958 206:0.075282 248:0.1242 251:0.145962 300:0.145962 318:0.102439 330:0.048213001 358:0.145962 390:0.14893299 418:0.409756 501:0.088427998 543:0.145962 569:0.12839299 580:0.120503 599:0.084870003 679:0.100536 686:0.145962 692:0.35158399 703:0.145962 713:0.100536 741:0.138956 745:0.12839299 763:0.145962 777:0.095432997 810:0.138956 825:0.138956 848:0.081674002 857:0.409756 882:0.167723 915:0.091045 916:0.106631 924:0.097043999 937:0.111471 
0.99999993212504223 15:0.145625 57:0.141628 72:0.187307 124:0.20269001 247:0.141628 293:0.081331 320:0.15515999 330:0.058263998 342:0.150094 366:0.123795 367:0.176392 382:0.32201701 441:0.15515999 548:0.167926 583:0.167926 596:0.167926 664:0.167926 665:0.13167299 686:0.176392 690:0.29124999 692:0.141628 715:0.150094 716:0.161009 805:0.36795601 815:0.161009 849:0.150094 857:0.123795 951:0.119327 975:0.32201701 
0.98836602927722328 193:0.095941 195:0.117315 206:0.066288002 228:0.113054 229:0.12837601 231:0.095941 264:0.45221499 275:0.093892001 306:0.113054 309:0.074730001 320:0.45221499 358:0.12852401 370:0.088524997 393:0.117315 396:0.113054 431:0.113054 475:0.100559 482:0.155727 535:0.109362 572:0.106106 590:0.173889 620:0.12852401 624:0.16536701 629:0.12852401 666:0.109362 673:0.075736001 686:0.12852401 724:0.117315 738:0.117315 808:0.1709 825:0.122355 826:0.122355 848:0.071916997 857:0.27060199 896:0.27295399 909:0.076779 915:0.080168001 
-0.60557519558609174 8:0.031443998 54:0.075369 61:0.108299 66:0.062442001 100:0.075369 104:0.052081 115:0.047915999 121:0.065590002 124:0.075369 133:0.041540001 150:0.059870001 153:0.069649003 158:0.065590002 166:0.051318999 169:0.051318999 193:0.048962001 196:0.057695001 201:0.069649003 206:0.067658 209:0.055810999 235:0.047915999 245:0.065590002 254:0.13929699 259:0.108299 276:0.038651001 281:0.105326 282:0.075369 293:0.060485002 294:0.069649003 300:0.065590002 302:0.068411 303:0.32795 304:0.039182998 309:0.038137 334:0.048962001 342:0.055810999 349:0.097924002 364:0.057695001 380:0.043607999 390:0.033463001 393:0.059870001 402:0.052662998 414:0.065590002 431:0.057695001 442:0.059870001 446:0.23078001 466:0.052662998 473:0.038137 475:0.102637 481:0.042884 527:0.05415 539:0.051318999 554:0.14159299 574:0.074327998 593:0.059870001 628:0.30525601 639:0.065590002 664:0.062442001 665:0.097924002 666:0.055810999 686:0.19677 687:0.041540001 690:0.108299 738:0.059870001 748:0.059870001 751:0.075369 756:0.069649003 759:0.050090998 780:0.062442001 796:0.11539 803:0.069649003 805:0.239438 806:0.059870001 808:0.043607999 815:0.059870001 827:0.32795 844:0.069649003 848:0.036702 849:0.16743401 850:0.150273 857:0.322227 863:0.059870001 868:0.040913001 873:0.069649003 882:0.075369 889:0.069649003 900:0.040312 907:0.065590002 927:0.030533001 973:0.108299 974:0.069649003 997:0.040913001 1000:0.050090998 
-0.26792013735266107 34:0.23596901 133:0.16372301 159:0.258515 245:0.258515 342:0.219973 357:0.258515 382:0.23596901 517:0.174881 584:0.181431 679:0.35611901 686:0.258515 688:0.137906 694:0.23596901 713:0.17806 783:0.20226499 840:0.246107 857:0.181431 887:0.154434 930:0.174881 970:0.246107 
-0.24281577023914164 28:0.252803 94:0.15768901 106:0.083503 133:0.160106 304:0.151022 366:0.177422 384:0.268446 434:0.22237299 567:0.268446 688:0.134859 739:0.208708 762:0.244831 810:0.240669 826:0.240669 827:0.252803 850:0.193065 868:0.15768901 871:0.22237299 908:0.22237299 915:0.15768901 924:0.16807801 927:0.117684 930:0.171018 990:0.268446 
-0.7105260869658625 8:0.067345999 36:0.14917199 63:0.087626003 160:0.161423 202:0.115976 231:0.104865 259:0.115976 276:0.082781002 312:0.161423 318:0.098591 330:0.046402 363:0.076716997 373:0.140479 419:0.161423 420:0.100541 466:0.225585 468:0.093399003 501:0.085106 506:0.12357 554:0.379076 574:0.079596996 590:0.095031999 617:0.088969 673:0.082781002 679:0.193519 691:0.12822799 693:0.14917199 694:0.12822799 697:0.12357 721:0.115976 784:0.280958 808:0.093399003 826:0.133737 827:0.42143801 832:0.107284 857:0.197182 921:0.14917199 927:0.065396003 944:0.14917199 960:0.115976 969:0.119535 997:0.087626003 
-0.32343129213198757 8:0.102387 129:0.187867 159:0.21357401 183:0.194948 245:0.21357401 254:0.22679 330:0.070546001 342:0.181733 349:0.159429 382:0.194948 444:0.095746003 468:0.141996 508:0.21357401 517:0.14448 584:0.149891 642:0.187867 653:0.20332401 679:0.44131699 686:0.21357401 694:0.194948 713:0.14710601 840:0.20332401 857:0.149891 873:0.22679 887:0.12758701 953:0.16710301 997:0.13322 
0.67330797753970095 5:0.16332901 63:0.123403 103:0.174023 200:0.168341 202:0.16332901 238:0.180582 262:0.12727401 302:0.103172 330:0.130694 353:0.18834101 360:0.197836 473:0.115032 482:0.119855 525:0.197836 578:0.174023 584:0.138845 646:0.141592 659:0.168341 664:0.56502199 679:0.13626599 697:0.174023 748:0.180582 773:0.210078 858:0.180582 917:0.168341 947:0.174023 985:0.144527 
0.99999993212504223 61:0.14061999 172:0.13676 179:0.057927001 201:0.18087 302:0.177655 304:0.101754 318:0.119541 330:0.056262001 342:0.144935 358:0.17033 359:0.124433 370:0.11732 398:0.149828 414:0.17033 421:0.15547501 431:0.29965499 440:0.13676 477:0.130081 490:0.13676 502:0.18087 574:0.096510999 580:0.14061999 588:0.097753003 617:0.107874 628:0.113245 651:0.18087 666:0.28987101 673:0.20074201 676:0.17033 686:0.34066001 695:0.14061999 741:0.162155 762:0.082479 774:0.162155 817:0.106245 819:0.115226 857:0.119541 920:0.162155 964:0.113245 999:0.109578 
-0.72719542273604887 294:0.27129301 298:0.243221 328:0.210921 330:0.084389001 366:0.179304 428:0.25548401 443:0.27129301 494:0.233202 590:0.345662 594:0.210921 631:0.243221 673:0.15054999 686:0.25548401 748:0.233202 762:0.123714 848:0.142958 917:0.43478701 
-0.67438614282284726 6:0.238507 106:0.068559997 294:0.220405 330:0.068559997 429:0.15494099 475:0.16239899 482:0.125747 502:0.220405 542:0.15851501 578:0.182578 591:0.220405 644:0.137999 646:0.148552 664:0.19760001 686:0.207562 709:0.18945999 775:0.220405 827:0.207562 830:0.238507 832:0.15851501 882:0.238507 901:0.395199 960:0.171358 997:0.12946901 999:0.267061 
-0.45011233943826268 21:0.278115 166:0.24737699 201:0.33573601 253:0.210209 294:0.33573601 440:0.25385901 513:0.261024 514:0.197216 572:0.261024 574:0.17914701 603:0.36331001 628:0.210209 774:0.30099699 929:0.230977 
-0.48527773892936399 15:0.089071997 69:0.114567 86:0.123976 106:0.035636999 150:0.098480999 155:0.078818999 166:0.084415004 176:0.114567 193:0.080537997 213:0.107891 216:0.123976 233:0.114567 247:0.086626999 253:0.143464 265:0.18361001 269:0.123976 285:0.098480999 300:0.107891 306:0.094903998 323:0.080537997 330:0.035636999 334:0.16107699 364:0.094903998 444:0.048367999 451:0.102712 467:0.102712 478:0.123976 502:0.114567 511:0.123976 530:0.084415004 546:0.107891 584:0.075719997 592:0.098480999 695:0.62350303 713:0.074313 724:0.098480999 736:0.107891 767:0.065362997 772:0.075719997 797:0.114567 827:0.107891 848:0.060371 855:0.068329997 862:0.098480999 876:0.114567 881:0.114567 882:0.247952 896:0.114567 927:0.10045 932:0.114567 957:0.107891 974:0.114567 983:0.102712 
-0.50953206629956094 9:0.193872 19:0.209795 179:0.062091999 229:0.182364 242:0.193872 244:0.173812 247:0.14659201 293:0.084182002 311:0.209795 330:0.060306001 429:0.136289 435:0.182575 453:0.16665199 456:0.133379 465:0.16665199 477:0.278864 481:0.358116 523:0.173812 537:0.193872 594:0.15073 686:0.36515 762:0.088408999 785:0.15535501 786:0.193872 882:0.209795 909:0.21813799 927:0.084991999 999:0.117456 
0.7170836560744549 17:0.064579003 20:0.134606 169:0.110627 179:0.192343 200:0.120312 204:0.45042399 268:0.134606 302:0.14747301 330:0.046703 367:0.14139199 444:0.063386001 482:0.085658997 501:0.085658997 514:0.088195004 552:0.14139199 554:0.076307997 578:0.124373 617:0.089547001 669:0.53842402 672:0.084467001 673:0.083319001 689:0.124373 717:0.099232003 762:0.136934 775:0.150141 797:0.150141 805:0.073735997 806:0.129061 819:0.095650002 848:0.079117 857:0.19846401 860:0.14139199 868:0.088195004 900:0.086901002 927:0.065820999 945:0.150141 968:0.129061 975:0.129061 997:0.088195004 
0.99999993212504223 65:0.152215 73:0.152215 100:0.174909 144:0.113626 179:0.051766999 196:0.133893 226:0.323268 229:0.076020002 235:0.1112 253:0.101201 320:0.133893 355:0.116246 364:0.133893 367:0.60886103 467:0.14490899 552:0.152215 554:0.246447 574:0.086246997 664:0.14490899 672:0.27279601 686:0.152215 687:0.096400999 717:0.106828 762:0.073707998 805:0.079380997 819:0.102971 848:0.085173003 857:0.106828 868:0.094945997 927:0.070859 951:0.102971 975:0.13894001 
0.84808872950471959 65:0.13112199 78:0.139236 159:0.26224399 169:0.205183 179:0.089185998 228:0.23067801 229:0.065485001 235:0.095789999 250:0.119687 253:0.087177001 254:0.139236 267:0.119687 320:0.115339 322:0.39336601 328:0.108251 330:0.043311 358:0.13112199 382:0.119687 393:0.35905999 402:0.10528 495:0.119687 499:0.22314601 513:0.108251 570:0.119687 580:0.108251 669:0.124829 686:0.39336601 737:0.23067801 739:0.108251 762:0.126987 916:0.095789999 997:0.081789002 
-0.87688223816451527 48:0.113554 73:0.141427 131:0.086921997 133:0.089569002 146:0.12909301 220:0.116759 281:0.113554 312:0.162512 330:0.046714999 335:0.141427 370:0.097411998 377:0.141427 390:0.144306 392:0.162512 393:0.12909301 424:0.097411998 458:0.12909301 490:0.227107 513:0.116759 520:0.150178 580:0.116759 588:0.081165001 643:0.150178 651:0.150178 664:0.13463899 686:0.141427 703:0.141427 715:0.120342 769:0.56570798 781:0.141427 800:0.248807 812:0.162512 831:0.141427 857:0.099256001 900:0.086921997 927:0.065837003 928:0.162512 951:0.095673002 964:0.094029002 
-0.4749706074168763 8:0.055443998 66:0.110102 118:0.086332999 124:0.13289601 179:0.039331999 220:0.095481001 224:0.12281 228:0.101732 231:0.086332999 253:0.076893002 255:0.084489003 276:0.13630299 282:0.13289601 291:0.29523101 303:0.115653 323:0.086332999 328:0.095481001 330:0.038201001 358:0.115653 363:0.063160002 390:0.059004001 420:0.165546 495:0.211134 496:0.098410003 506:0.101732 530:0.090489 546:0.115653 548:0.110102 553:0.115653 588:0.066373996 592:0.105567 641:0.084489003 643:0.12281 650:0.105567 673:0.068150997 686:0.115653 687:0.073246002 695:0.095481001 703:0.115653 713:0.079659998 715:0.098410003 717:0.243503 728:0.115653 734:0.092859998 742:0.115653 745:0.305197 770:0.13289601 805:0.060313001 817:0.072140001 827:0.115653 867:0.13289601 922:0.095481001 923:0.101732 947:0.101732 954:0.095481001 975:0.42226699 985:0.084489003 1000:0.088324003 
-0.52905938729001678 31:0.17301901 46:0.196695 104:0.078092001 170:0.119163 229:0.098233998 253:0.13077401 301:0.22602101 302:0.205154 304:0.117504 381:0.22602101 395:0.17301901 465:0.17954101 542:0.150216 598:0.22602101 664:0.187255 686:0.196695 699:0.346039 717:0.138045 730:0.196695 739:0.162387 741:0.187255 764:0.17301901 800:0.17301901 804:0.13548 857:0.27608901 927:0.18313 984:0.196695 994:0.22602101 
-0.99490186387867818 73:0.109718 104:0.043559998 147:0.109718 170:0.066469997 172:0.17618699 185:0.116507 193:0.081901997 228:0.096510999 229:0.054795001 234:0.100149 238:0.100149 248:0.093359999 264:0.096510999 302:0.114436 309:0.063795 312:0.126075 330:0.072481997 351:0.109718 355:0.083791003 358:0.109718 363:0.059918001 369:0.100149 380:0.072945997 411:0.208903 448:0.109718 450:0.104451 453:0.100149 469:0.233013 482:0.13293999 490:0.352375 496:0.093359999 513:0.18116 514:0.068438001 516:0.104451 539:0.085844003 554:0.059213001 583:0.104451 588:0.062967002 601:0.126075 607:0.104451 612:0.126075 630:0.126075 644:0.072945997 650:0.100149 664:0.104451 679:0.075571001 686:0.21943501 703:0.109718 767:0.066469997 777:0.071736 797:0.116507 812:0.126075 816:0.116507 817:0.068438001 826:0.104451 827:0.109718 830:0.126075 832:0.25137299 855:0.069486998 857:0.231006 909:0.065544002 918:0.109718 920:0.104451 930:0.074221998 942:0.109718 951:0.074221998 964:0.072945997 
0.71467069787175364 63:0.115839 100:0.21339799 202:0.153318 229:0.092748001 293:0.085628003 353:0.176797 458:0.169514 482:0.112509 554:0.100226 599:0.107982 692:0.14911 697:0.163357 701:0.39440399 769:0.37142101 785:0.158023 797:0.197202 814:0.197202 827:0.18571 882:0.42679599 911:0.37142101 927:0.086452 
0.43066143922027489 17:0.121107 80:0.24203201 135:0.24203201 149:0.26515701 179:0.090177 250:0.24203201 251:0.26515701 286:0.218907 318:0.186092 455:0.24203201 549:0.193708 574:0.150241 617:0.16793001 679:0.18263499 686:0.26515701 714:0.26515701 715:0.22562499 762:0.128398 849:0.22562499 882:0.30468899 924:0.176291 927:0.123435 
0.70841078587939965 104:0.065656997 108:0.113906 131:0.10164 135:0.150951 185:0.175606 193:0.123448 202:0.136528 206:0.085294001 236:0.150951 293:0.152501 294:0.35121199 302:0.086241998 328:0.136528 330:0.109249 339:0.157436 363:0.18062399 373:0.165373 379:0.175606 429:0.123448 445:0.235494 473:0.096156001 482:0.20037501 554:0.089249998 578:0.29093501 579:0.150951 586:0.223745 646:0.118358 697:0.29093501 713:0.113906 762:0.080078997 817:0.103153 857:0.232124 873:0.175606 934:0.13278 948:0.123448 975:0.150951 
-0.62533136326885608 1:0.42207399 17:0.060024001 74:0.139551 131:0.080770999 170:0.159235 179:0.044693999 193:0.098102003 200:0.111826 245:0.131419 249:0.25022399 280:0.115601 294:0.139551 297:0.115601 330:0.043409001 339:0.125112 342:0.111826 359:0.096006997 414:0.131419 416:0.092233002 455:0.119958 466:0.105519 514:0.081974998 526:0.139551 543:0.131419 554:0.14185201 579:0.119958 591:0.139551 646:0.094057001 673:0.077441998 686:0.131419 713:0.18103801 719:0.125112 736:0.131419 783:0.102824 790:0.115601 827:0.131419 836:0.177807 875:0.094057001 882:0.302026 910:0.139551 917:0.111826 924:0.087375 937:0.100365 973:0.108497 975:0.239916 976:0.139551 996:0.139551 
-0.61692311119950527 5:0.197833 48:0.19240201 208:0.23963 293:0.110489 302:0.124968 367:0.23963 495:0.218732 506:0.210786 578:0.210786 651:0.25445801 663:0.228129 702:0.23963 767:0.145175 800:0.210786 810:0.228129 857:0.336355 882:0.27535701 894:0.23963 945:0.25445801 969:0.203904 
-0.30468988900855926 50:0.174034 195:0.203034 229:0.111088 230:0.406068 277:0.47239301 355:0.169872 359:0.162496 366:0.15610801 387:0.169872 390:0.113481 446:0.195659 615:0.23619699 624:0.143098 686:0.222433 882:0.255595 913:0.222433 914:0.255595 937:0.169872 949:0.183635 
-0.4805843236855285 57:0.199365 179:0.084444001 255:0.18139499 293:0.114488 302:0.12949 306:0.21841399 330:0.082015999 333:0.263666 370:0.17102499 492:0.248302 501:0.150428 554:0.13400599 592:0.226647 664:0.236384 748:0.226647 762:0.120236 882:0.285321 904:0.51307601 929:0.18139499 943:0.226647 985:0.18139499 
-0.25318485471579377 53:0.14574499 60:0.13066401 106:0.090671003 153:0.14574499 179:0.046677999 196:0.120731 294:0.14574499 316:0.120731 317:0.411755 330:0.045336001 390:0.070023 402:0.110201 424:0.094535999 449:0.098231003 501:0.083150998 565:0.15771499 574:0.077767998 580:0.113312 587:0.43723401 654:0.137252 673:0.080879003 677:0.125282 688:0.073218003 692:0.110201 706:0.100268 745:0.120731 748:0.125282 777:0.089737996 797:0.14574499 827:0.137252 842:0.14574499 849:0.116789 857:0.192652 882:0.15771499 910:0.14574499 962:0.137252 969:0.35036701 973:0.113312 1000:0.104819 
-0.48766295129756476 5:0.212679 38:0.184374 104:0.102278 135:0.235145 179:0.087610997 236:0.235145 247:0.20683999 372:0.235145 390:0.131429 410:0.29602 440:0.413681 538:0.245248 583:0.245248 686:0.25761199 762:0.124744 827:0.25761199 927:0.119923 931:0.245248 944:0.27355301 
-0.53537449217164912 179:0.093722001 281:0.221269 293:0.127066 309:0.160238 329:0.55116397 372:0.25154799 389:0.215619 549:0.201324 588:0.158158 664:0.262355 762:0.13344599 819:0.186427 827:0.27558199 855:0.17453299 927:0.25657699 971:0.227514 984:0.27558199 
-0.022883064811550231 17:0.098415002 57:0.173007 235:0.15741301 248:0.183349 298:0.20513199 363:0.117673 569:0.189538 584:0.151224 588:0.123661 599:0.12528799 632:0.49519801 652:0.183349 726:0.21547399 817:0.134405 857:0.45367199 860:0.21547399 882:0.24759901 904:0.148414 968:0.19668201 975:0.19668201 
-0.55709195811878776 18:0.20179801 69:0.214284 106:0.066656001 195:0.18419801 206:0.10408 228:0.177508 275:0.147422 290:0.192112 304:0.120552 306:0.177508 357:0.20179801 400:0.192112 416:0.141626 461:0.20179801 468:0.26833299 581:0.171712 631:0.192112 680:0.20179801 686:0.403595 808:0.134166 856:0.28325099 865:0.192112 882:0.231884 916:0.147422 920:0.192112 
-0.3088154019773921 106:0.085372999 248:0.21992999 255:0.18881901 293:0.119173 309:0.15028401 330:0.085372999 343:0.23592301 449:0.184983 501:0.15658499 514:0.16122 574:0.146449 664:0.246059 717:0.18139499 720:0.192939 762:0.125157 767:0.15658499 805:0.13479 819:0.34969401 837:0.23592301 868:0.16122 870:0.23592301 927:0.12032 930:0.17484701 948:0.192939 953:0.202226 980:0.23592301 988:0.27445701 
0.77634128008975611 80:0.126351 94:0.086342998 111:0.138423 200:0.117785 201:0.146988 238:0.126351 262:0.089051001 318:0.097148001 320:0.243522 325:0.108304 353:0.263558 360:0.138423 466:0.111141 549:0.20224699 620:0.138423 621:0.138423 650:0.126351 654:0.138423 664:0.131779 670:0.146988 672:0.082693003 677:0.126351 686:0.138423 690:0.22855701 715:0.117785 726:0.138423 745:0.121761 748:0.25270101 774:0.131779 823:0.146988 827:0.415268 851:0.146988 863:0.126351 882:0.15906 927:0.064438 951:0.28092301 
-0.36733823881846156 7:0.052678999 8:0.027667001 17:0.052717999 24:0.046337999 32:0.057712 42:0.066316001 44:0.132632 82:0.066316001 100:0.066316001 103:0.050765 106:0.019063 126:0.061283 131:0.035470001 148:0.066316001 169:0.045155 185:0.061283 203:0.066316001 206:0.029766001 215:0.050765 227:0.066316001 231:0.043081 232:0.066316001 234:0.052678999 238:0.105358 240:0.061283 244:0.054942001 247:0.046337999 253:0.076739997 281:0.046337999 294:0.061283 300:0.057712 302:0.030097 309:0.033557002 315:0.044075001 320:0.050765 323:0.172324 342:0.049107999 349:0.043081 363:0.031516999 371:0.054942001 377:0.28856 378:0.057712 385:0.057712 386:0.132632 389:0.045155 392:0.066316001 412:0.054942001 413:0.092675 414:0.057712 445:0.027394 448:0.057712 455:0.052678999 471:0.122566 473:0.10067 475:0.045155 501:0.069927 514:0.071997002 530:0.045155 537:0.061283 549:0.042160999 561:0.122566 568:0.32436401 574:0.065401003 581:0.049107999 583:0.054942001 590:0.039041001 593:0.052678999 601:0.066316001 603:0.066316001 617:0.073100999 638:0.054942001 643:0.061283 663:0.054942001 664:0.109884 672:0.34476599 676:0.057712 677:0.052678999 686:0.230848 690:0.047646001 697:0.050765 703:0.057712 708:0.122566 715:0.049107999 726:0.057712 743:0.061283 750:0.066316001 759:0.044075001 765:0.061283 766:0.26526499 767:0.034963001 769:0.173136 775:0.122566 785:0.049107999 797:0.122566 802:0.061283 805:0.030097 812:0.066316001 827:0.115424 850:0.044075001 855:0.03655 857:0.16201399 860:0.057712 863:0.052678999 864:0.061283 873:0.061283 895:0.066316001 898:0.061283 902:0.061283 906:0.066316001 909:0.034476999 915:0.035999 920:0.054942001 922:0.047646001 924:0.038369998 948:0.086162001 949:0.047646001 951:0.078083001 962:0.115424 964:0.038369998 968:0.052678999 995:0.052678999 997:0.071997002 
-0.27633051300585498 44:0.095833004 102:0.083398998 198:0.158792 230:0.076125003 235:0.060926002 252:0.083398998 276:0.049144998 286:0.068852 287:0.088559002 293:0.038454 302:0.13047799 306:0.073360004 307:0.088559002 320:0.073360004 377:0.25019601 378:0.083398998 380:0.055447999 386:0.095833004 389:0.065251999 402:0.066962004 413:0.13392401 426:0.166798 430:0.079396002 444:0.074776001 556:0.095833004 561:0.177119 568:0.40177199 570:0.076125003 599:0.096984997 606:0.083398998 617:0.052818 638:0.079396002 644:0.055447999 645:0.095833004 646:0.119377 650:0.076125003 664:0.079396002 672:0.099642999 680:0.083398998 686:0.41699401 690:0.068852 692:0.066962004 698:0.083398998 703:0.083398998 705:0.088559002 734:0.066962004 762:0.040383998 765:0.088559002 766:0.19166601 767:0.050524998 769:0.166798 772:0.058531001 773:0.177119 774:0.079396002 775:0.088559002 802:0.088559002 836:0.056418002 844:0.088559002 845:0.079396002 846:0.076125003 857:0.175593 875:0.059689 882:0.095833004 885:0.070964999 895:0.095833004 915:0.052021001 916:0.060926002 920:0.079396002 927:0.038823999 931:0.079396002 951:0.056418002 975:0.076125003 
-0.46589139936504781 179:0.061949998 220:0.150387 260:0.133075 286:0.150387 288:0.18216 302:0.094997004 310:0.173417 316:0.160234 363:0.19895899 377:0.18216 507:0.209318 552:0.18216 554:0.19662 573:0.209318 578:0.160234 593:0.166273 618:0.209318 625:0.166273 628:0.12111 686:0.18216 691:0.166273 726:0.18216 732:0.160234 761:0.193431 762:0.088207997 787:0.193431 792:0.209318 827:0.18216 850:0.13911501 899:0.193431 912:0.150387 915:0.113624 925:0.18216 934:0.14625899 945:0.193431 
-0.56447874248081087 63:0.075800002 73:0.121521 158:0.121521 250:0.110923 284:0.12904 286:0.100325 302:0.063372999 309:0.070657998 316:0.106893 380:0.080793999 385:0.24304099 396:0.106893 399:0.115688 411:0.115688 412:0.115688 458:0.110923 522:0.12904 554:0.26233399 610:0.100325 614:0.103403 644:0.080793999 664:0.115688 671:0.121521 686:0.364562 692:0.097571 705:0.12904 713:0.083701 726:0.24304099 748:0.110923 783:0.095078997 799:0.24304099 827:0.486083 857:0.085285999 882:0.13963801 912:0.100325 915:0.075800002 920:0.115688 927:0.056570001 942:0.121521 949:0.100325 953:0.095078997 
-0.068724572604839829 2:0.26549101 10:0.122671 85:0.132745 106:0.114474 117:0.092753999 119:0.115522 158:0.115522 193:0.086235002 208:0.115522 260:0.25318101 262:0.074318998 265:0.098298997 290:0.109978 293:0.053265002 297:0.101617 304:0.069012001 318:0.16215201 352:0.115522 353:0.109978 414:0.23104499 417:0.109978 465:0.105447 473:0.134341 475:0.090386003 501:0.069986999 503:0.109978 514:0.072058 541:0.122671 554:0.124692 578:0.101617 583:0.109978 614:0.29489699 617:0.073163003 625:0.105447 628:0.076806001 651:0.122671 686:0.346567 732:0.101617 748:0.105447 790:0.101617 799:0.115522 800:0.203234 804:0.079568997 827:0.23104499 836:0.078148998 848:0.064641997 875:0.082679003 912:0.190745 968:0.210895 
-0.23514340433061182 17:0.102971 31:0.198312 93:0.186125 106:0.074468002 224:0.239399 235:0.1647 240:0.239399 248:0.191837 263:0.25906101 343:0.205787 375:0.239399 393:0.205787 429:0.168294 445:0.214029 597:0.25906101 686:0.225449 707:0.198312 721:0.186125 777:0.147404 797:0.239399 805:0.117572 858:0.205787 882:0.25906101 900:0.13856301 973:0.186125 
-0.47717838317493583 9:0.156183 15:0.242854 63:0.091743998 104:0.175184 131:0.090397999 193:0.109794 220:0.121427 230:0.13425399 259:0.242854 301:0.16901 306:0.12937801 351:0.147082 352:0.147082 370:0.101307 396:0.12937801 449:0.31580001 455:0.13425399 459:0.12515301 466:0.118094 468:0.097787999 471:0.156183 486:0.12937801 508:0.147082 509:0.156183 567:0.156183 586:0.099499002 599:0.085520998 673:0.086671002 686:0.147082 689:0.12937801 696:0.13425399 706:0.107449 736:0.147082 748:0.268509 777:0.192331 797:0.156183 817:0.091743998 819:0.099499002 855:0.093149997 870:0.13425399 882:0.16901 909:0.087865002 970:0.14002199 982:0.156183 997:0.091743998 
-0.22229521994591575 31:0.23646 110:0.30889601 120:0.154448 178:0.142726 179:0.182843 408:0.28545099 414:0.134409 424:0.092578001 454:0.142726 527:0.110965 552:0.134409 610:0.221929 664:0.127958 684:0.53763503 687:0.170248 767:0.081428997 777:0.175759 857:0.18866199 915:0.083838999 916:0.29457399 960:0.221929 973:0.110965 
-0.27834494340984567 111:0.174225 169:0.136316 201:0.370011 389:0.136316 404:0.20020001 416:0.122274 450:0.16586301 453:0.15903001 475:0.136316 494:0.15903001 610:0.14383601 624:0.112084 630:0.20020001 651:0.18500499 657:0.113912 672:0.10408 686:0.174225 690:0.28767201 737:0.153254 742:0.34845001 743:0.18500499 789:0.174225 826:0.331725 857:0.122274 923:0.153254 926:0.115835 929:0.127278 997:0.108675 
-0.20947909356999317 57:0.29411101 62:0.32221299 67:0.279746 107:0.34872299 210:0.36630401 390:0.18688101 539:0.28660101 715:0.311692 767:0.221917 878:0.302412 930:0.24779999 964:0.24354 
-0.12806565375313134 114:0.30060101 138:0.32528901 295:0.26949701 302:0.14762899 327:0.28308401 467:0.26949701 574:0.32079801 628:0.18821099 633:0.26949701 641:0.20680501 672:0.169112 754:0.30060101 817:0.176577 827:0.28308401 840:0.26949701 
-0.39085266038153244 10:0.174943 48:0.13227899 79:0.164749 104:0.065408997 106:0.108836 302:0.085917003 314:0.349886 325:0.128902 396:0.14491799 425:0.174943 538:0.15684199 571:0.174943 656:0.14491799 657:0.107717 666:0.140186 686:0.49424699 703:0.164749 797:0.174943 804:0.113476 827:0.164749 848:0.092187002 855:0.104339 858:0.150381 878:0.136013 882:0.37862301 909:0.098420002 949:0.136013 971:0.136013 997:0.102764 
-0.58752438104962512 54:0.16375899 89:0.075664997 106:0.023536 164:0.16375899 195:0.065040998 223:0.15132999 230:0.065040998 233:0.075664997 254:0.075664997 276:0.041988999 282:0.16375899 300:0.14251199 302:0.037160002 309:0.041432001 330:0.023536 334:0.053190999 393:0.065040998 402:0.057211999 441:0.062679 446:0.062679 468:0.047375001 481:0.046588998 499:0.060632002 504:0.046588998 506:0.062679 509:0.075664997 526:0.15132999 557:0.065040998 583:0.067836002 595:0.081878997 599:0.041432001 616:0.067836002 617:0.090255998 637:0.075664997 673:0.37790301 686:0.427535 739:0.058827002 745:0.062679 754:0.15132999 772:0.050009001 796:0.25071499 826:0.067836002 827:0.21376701 839:0.075664997 853:0.065040998 857:0.50008798 868:0.044447001 905:0.067836002 915:0.044447001 927:0.066342004 949:0.058827002 
-0.41009369223707864 119:0.088132001 131:0.054166999 179:0.059946001 231:0.065788999 237:0.187172 243:0.30381599 247:0.141525 248:0.074992999 260:0.128769 267:0.080445997 286:0.072760001 288:0.088132001 299:0.072760001 318:0.061852999 323:0.065788999 355:0.067307003 370:0.060704 389:0.068956003 397:0.074992999 399:0.083902001 402:0.070762999 418:0.247412 420:0.063075997 423:0.080445997 424:0.060704 459:0.074992999 482:0.053392999 501:0.106786 525:0.088132001 534:0.093585998 590:0.05962 592:0.080445997 599:0.051245 614:0.074992999 625:0.321785 663:0.083902001 673:0.103868 680:0.088132001 686:0.176265 692:0.070762999 702:0.088132001 729:0.101272 736:0.264397 737:0.232572 739:0.072760001 742:0.176265 748:0.241339 750:0.101272 777:0.057622999 781:0.088132001 785:0.074992999 800:0.077523999 808:0.058595002 827:0.264397 850:0.13461301 857:0.185559 882:0.101272 887:0.052650001 893:0.101272 912:0.072760001 929:0.128769 949:0.072760001 951:0.05962 964:0.058595002 
-0.48544553430413323 179:0.108412 188:0.140203 224:0.16925099 229:0.079602003 248:0.135625 258:0.135625 280:0.140203 302:0.166243 303:0.31877601 359:0.11644 431:0.140203 483:0.135625 495:0.14548799 499:0.135625 541:0.33850199 588:0.091472998 628:0.10597 666:0.135625 686:0.478165 687:0.100944 724:0.14548799 733:0.135625 762:0.077180997 767:0.28968501 826:0.30347601 827:0.15938801 885:0.135625 
-0.39182971844112557 8:0.079821996 63:0.103859 104:0.066105001 108:0.114684 144:0.124292 162:0.14646199 173:0.176806 206:0.085877001 235:0.121638 280:0.14646199 305:0.15198199 372:0.303965 389:0.52109802 496:0.141679 549:0.36491299 575:0.158512 584:0.116855 593:0.15198199 648:0.166503 664:0.158512 686:0.166503 687:0.105451 689:0.14646199 690:0.13746101 761:0.176806 857:0.116855 858:0.15198199 885:0.141679 996:0.176806 
-0.177574460132915 91:0.124161 130:0.16767 248:0.124161 276:0.085983999 302:0.076095 306:0.128352 342:0.124161 360:0.145916 445:0.069261998 514:0.091017 583:0.41673699 602:0.154945 634:0.154945 664:0.13891201 701:0.154945 703:0.145916 705:0.154945 717:0.61444002 724:0.13319001 797:0.154945 810:0.13891201 850:0.111436 904:0.301512 924:0.097012997 
-0.16246163009772979 8:0.103928 22:0.080913998 106:0.071607001 108:0.074658997 197:0.077577002 200:0.092233002 234:0.09894 241:0.09894 255:0.079186 262:0.069733001 276:0.063873999 293:0.049977999 302:0.056527998 308:0.095345996 330:0.10741 342:0.092233002 349:0.080913998 352:0.108394 390:0.055300001 391:0.37366199 412:0.103191 420:0.077577002 465:0.09894 471:0.115101 476:0.62277001 502:0.115101 559:0.115101 564:0.108394 565:0.124554 620:0.108394 623:0.20638201 647:0.103191 655:0.09894 664:0.103191 678:0.082780004 679:0.074658997 688:0.057822999 691:0.09894 696:0.197881 703:0.108394 720:0.080913998 765:0.115101 827:0.108394 856:0.228218 
-0.24493221709447582 7:0.156308 17:0.078212999 61:0.14137299 72:0.18183801 245:0.171242 249:0.16302299 317:0.171242 349:0.255658 440:0.137493 449:0.245116 469:0.18183801 501:0.103743 513:0.282747 517:0.231686 554:0.092418 572:0.282747 574:0.097028002 624:0.110165 629:0.171242 638:0.16302299 664:0.16302299 674:0.19677299 681:0.108452 772:0.120181 777:0.111962 865:0.16302299 882:0.393545 905:0.16302299 951:0.115843 991:0.133982 
0.36320734303206903 147:0.162972 153:0.17305601 172:0.130852 229:0.081391998 230:0.14875899 281:0.130852 293:0.075143002 302:0.084990002 316:0.143355 330:0.053831 353:0.15515 354:0.14875899 363:0.089001 393:0.14875899 402:0.130852 412:0.15515 418:0.114377 421:0.14875899 482:0.098733 513:0.40363601 535:0.13867401 549:0.119058 578:0.143355 580:0.134545 651:0.17305601 652:0.13867401 659:0.13867401 676:0.162972 686:0.162972 689:0.28670999 695:0.134545 708:0.17305601 724:0.14875899 752:0.14875899 767:0.098733 815:0.14875899 857:0.228754 915:0.101656 927:0.075865999 942:0.162972 951:0.110248 964:0.108353 
-0.18910401812549199 126:0.26167801 209:0.20969 364:0.216767 446:0.216767 447:0.28317001 540:0.28317001 677:0.22493801 686:0.24642999 703:0.24642999 752:0.22493801 859:0.43353501 862:0.22493801 878:0.203447 880:0.234602 900:0.151458 927:0.229435 
-0.47900001621077004 104:0.069066003 168:0.17396 194:0.165611 220:0.143617 235:0.25417 238:0.15878899 248:0.14802399 262:0.223827 290:0.165611 294:0.184724 307:0.184724 338:0.143617 362:0.184724 514:0.10851 538:0.165611 579:0.15878899 590:0.117682 603:0.19989599 628:0.115658 634:0.184724 641:0.127085 658:0.17396 684:0.17396 686:0.17396 697:0.306041 776:0.19989599 806:0.15878899 836:0.117682 842:0.184724 848:0.097341001 857:0.244177 904:0.11982 915:0.10851 923:0.15302099 927:0.080982 
-0.27516585562721485 63:0.092013001 69:0.15664101 94:0.184027 106:0.048725002 108:0.101604 115:0.107765 193:0.110116 209:0.125521 266:0.099790998 296:0.129757 304:0.176247 309:0.171544 337:0.140433 373:0.147513 380:0.098075002 434:0.25951499 444:0.066129997 464:0.15664101 501:0.178735 543:0.147513 574:0.16716599 581:0.125521 627:0.134648 657:0.096447997 673:0.086925998 678:0.112656 686:0.44253999 688:0.078691997 733:0.125521 808:0.098075002 810:0.140433 827:0.147513 868:0.092013001 871:0.389272 899:0.15664101 915:0.092013001 926:0.098075002 964:0.098075002 985:0.107765 997:0.092013001 
-0.18516999307219292 47:0.110403 84:0.14601199 104:0.054591998 105:0.14601199 125:0.24190401 170:0.083302997 229:0.068672001 248:0.117003 259:0.22703899 300:0.275006 330:0.090837002 390:0.070151001 440:0.110403 445:0.065269001 462:0.130904 481:0.089902997 485:0.120952 497:0.093019001 506:0.120952 508:0.137503 527:0.113519 572:0.113519 617:0.087084003 686:0.41251001 701:0.14601199 717:0.096501999 726:0.137503 730:0.275006 785:0.117003 796:0.120952 804:0.28412801 833:0.14601199 857:0.096501999 869:0.31600699 909:0.082143001 917:0.117003 927:0.064010002 957:0.137503 999:0.088459998 
0.44546428068385535 17:0.085949004 38:0.134681 104:0.074712001 172:0.15109301 189:0.188181 202:0.155358 239:0.188181 247:0.15109301 276:0.11089 293:0.086767003 302:0.196274 318:0.13206901 330:0.062158 367:0.188181 384:0.199825 456:0.137474 482:0.114005 539:0.14723501 546:0.188181 652:0.160125 675:0.188181 697:0.496589 737:0.16553 785:0.160125 796:0.16553 806:0.17176899 875:0.134681 878:0.155358 911:0.188181 927:0.087601997 931:0.179149 948:0.14047401 975:0.17176899 
-0.30988118517744678 4:0.134799 94:0.079182997 106:0.041931 117:0.101925 146:0.115873 149:0.12694401 169:0.099322997 200:0.108018 206:0.065472998 226:0.26959801 281:0.101925 302:0.132403 313:0.111664 330:0.041931 356:0.087436996 366:0.089092001 381:0.29174 400:0.120851 402:0.101925 411:0.120851 423:0.231746 433:0.134799 444:0.056908999 453:0.115873 475:0.099322997 481:0.165998 485:0.111664 497:0.085876003 501:0.076906003 504:0.082998998 521:0.134799 561:0.134799 574:0.071928002 607:0.120851 613:0.134799 646:0.090853997 666:0.108018 686:0.12694401 687:0.080397002 704:0.134799 747:0.115873 763:0.12694401 828:0.231746 874:0.12694401 887:0.075834997 890:0.134799 941:0.14587 975:0.115873 987:0.43761 991:0.099322997 
-0.3417102170752464 167:0.136466 172:0.128768 222:0.17030001 231:0.119718 252:0.160376 253:0.106627 276:0.094506003 302:0.083636999 334:0.119718 376:0.160376 427:0.17030001 429:0.119718 431:0.14107201 492:0.160376 557:0.14639001 588:0.092041001 590:0.108492 606:0.160376 654:0.160376 659:0.40939799 672:0.095807999 695:0.132403 701:0.17030001 703:0.160376 706:0.117162 759:0.122479 817:0.100037 857:0.337666 859:0.14107201 882:0.36857399 900:0.197137 917:0.136466 927:0.074657999 972:0.160376 
-0.27938511737341842 17:0.056993 81:0.14338601 106:0.041216999 151:0.124782 201:0.132504 235:0.091159001 248:0.106178 292:0.39751101 294:0.132504 309:0.072554998 348:0.14338601 351:0.24956401 364:0.109762 384:0.39751101 389:0.097631 430:0.118793 435:0.124782 442:0.1139 480:0.109762 481:0.16317099 501:0.075597003 552:0.124782 590:0.084412999 629:0.24956401 657:0.081586003 686:0.374347 705:0.132504 738:0.1139 748:0.1139 817:0.077834003 818:0.14338601 825:0.118793 866:0.118793 881:0.132504 920:0.118793 963:0.118793 992:0.124782 
-0.10999896228014198 38:0.13979501 46:0.39065099 63:0.121837 67:0.29833999 104:0.15509699 106:0.064517997 125:0.17181499 179:0.066427998 206:0.100742 224:0.207412 227:0.224447 300:0.195326 323:0.145807 440:0.15683 473:0.113572 477:0.14917 514:0.121837 527:0.161256 554:0.105415 588:0.112098 651:0.41482401 653:0.18595099 681:0.123704 686:0.195326 720:0.145807 796:0.17181499 868:0.121837 917:0.166205 948:0.145807 
-0.14238483333201166 57:0.152318 63:0.118332 112:0.60433602 145:0.21799 179:0.064516999 255:0.13858899 272:0.144879 420:0.135773 452:0.135773 471:0.201445 552:0.189707 588:0.108873 678:0.144879 686:0.37941301 689:0.16687199 703:0.189707 827:0.189707 856:0.13314 857:0.26628 927:0.088312 929:0.13858899 
-0.13868668947093016 106:0.071967997 209:0.185396 227:0.25036299 248:0.185396 302:0.113625 309:0.12668601 334:0.162643 343:0.19887801 375:0.231361 517:0.147392 629:0.21788 686:0.43575901 713:0.150071 717:0.15291201 732:0.191654 734:0.17493799 739:0.179876 744:0.25036299 777:0.142455 808:0.144859 824:0.21788 848:0.121916 850:0.166394 853:0.19887801 857:0.15291201 927:0.101427 931:0.207422 
-0.24417993419764641 47:0.13858999 64:0.172608 179:0.058701999 253:0.11476 275:0.12609801 279:0.59502703 306:0.151832 328:0.142501 330:0.057014 400:0.164324 477:0.13182101 481:0.112855 499:0.146874 546:0.172608 574:0.097801998 579:0.31511 599:0.100363 602:0.18328901 613:0.18328901 686:0.172608 691:0.157555 713:0.118889 752:0.31511 757:0.18328901 849:0.146874 
0.60449718254628537 179:0.059865002 229:0.087912999 244:0.16757999 266:0.119081 294:0.186921 316:0.15484001 323:0.131402 349:0.131402 351:0.176028 389:0.13772701 411:0.16757999 421:0.160677 424:0.36373499 458:0.160677 499:0.149784 554:0.19000199 574:0.199479 659:0.149784 697:0.15484001 701:0.37384099 711:0.186921 747:0.160677 790:0.15484001 856:0.12354 882:0.202272 898:0.186921 911:0.35205701 927:0.081944004 
-0.22077639645407471 22:0.08066 45:0.102867 74:0.229479 91:0.091944002 249:0.30860099 258:0.091944002 266:0.073096 290:0.102867 302:0.05635 330:0.035691001 349:0.08066 354:0.19725899 409:0.124163 413:0.17351501 420:0.077334002 444:0.096881002 445:0.051290002 500:0.114739 503:0.102867 529:0.114739 581:0.183887 594:0.089206003 650:0.098630004 659:0.183887 662:0.102867 664:0.102867 682:0.124163 686:0.108053 703:0.108053 706:0.078937002 731:0.108053 745:0.095046997 765:0.114739 772:0.075833999 789:0.108053 790:0.19009399 793:0.102867 801:0.124163 803:0.114739 841:0.37248799 842:0.114739 855:0.068433002 856:0.075833999 878:0.089206003 882:0.248326 890:0.114739 916:0.078937002 926:0.071840003 927:0.150902 954:0.267618 968:0.098630004 976:0.114739 
-0.22328333465912314 17:0.069067001 71:0.160575 144:0.112882 224:0.48172599 247:0.36424601 272:0.115485 294:0.160575 302:0.078860998 306:0.13301601 370:0.104156 372:0.13802999 389:0.23662999 415:0.17376301 423:0.27605999 429:0.112882 430:0.28792101 549:0.22094201 586:0.102297 617:0.095770001 648:0.151218 664:0.14396 673:0.089109004 695:0.124842 701:0.160575 777:0.098870002 784:0.151218 805:0.078860998 836:0.102297 857:0.106128 968:0.13802999 
0.52676535034927252 22:0.246944 31:0.145496 80:0.30195999 92:0.17564 103:0.145496 162:0.145496 202:0.136555 230:0.15098 231:0.123472 255:0.120835 260:0.120835 262:0.10641 312:0.19006599 318:0.23217 345:0.17564 353:0.15746699 449:0.118381 482:0.100207 578:0.145496 586:0.111894 617:0.104755 664:0.47240001 686:0.16540501 711:0.17564 777:0.108146 857:0.23217 875:0.118381 915:0.206347 927:0.153998 985:0.120835 
-0.23152082171684737 5:0.191122 100:0.26601601 168:0.231501 248:0.39397401 293:0.106741 299:0.191122 320:0.20363601 390:0.236215 397:0.196987 412:0.22039001 425:0.24582601 442:0.211312 490:0.185876 493:0.24582601 603:0.26601601 673:0.136418 686:0.231501 767:0.14025 850:0.176797 915:0.144402 949:0.191122 
-0.16719058846445947 78:0.173915 99:0.188199 150:0.149497 231:0.122259 300:0.163781 332:0.173915 349:0.122259 387:0.12507901 393:0.149497 444:0.073422998 467:0.15592 514:0.10216 574:0.1856 590:0.110795 624:0.21073 674:0.37639701 686:0.32756099 705:0.173915 714:0.163781 723:0.173915 746:0.188199 748:0.149497 817:0.20432 840:0.15592 857:0.22988901 886:0.188199 887:0.097841002 956:0.173915 983:0.15592 991:0.128144 992:0.163781 
-0.21820637543984206 40:0.21915799 179:0.078290999 235:0.168176 295:0.21915799 311:0.26452899 323:0.34369099 363:0.125719 369:0.21013001 398:0.20249701 402:0.184836 493:0.244452 506:0.20249701 513:0.190053 535:0.195885 576:0.21013001 623:0.21915799 774:0.21915799 775:0.244452 832:0.175809 882:0.26452899 927:0.214331 951:0.15573201 
-0.17723300309204859 9:0.159016 19:0.172076 70:0.131724 104:0.059454001 105:0.159016 179:0.050928 214:0.39517301 229:0.074787997 243:0.172076 245:0.149749 290:0.142562 322:0.149749 330:0.049463999 335:0.149749 341:0.142562 370:0.103144 387:0.114363 466:0.120236 477:0.114363 512:0.127423 513:0.123629 517:0.405213 530:0.117166 532:0.159016 546:0.149749 570:0.13668901 596:0.142562 631:0.142562 653:0.142562 673:0.088243 785:0.25484699 809:0.172076 857:0.105097 909:0.178918 973:0.24725901 
-0.1239595240059056 18:0.065274999 31:0.057418 69:0.069314003 86:0.075006999 89:0.069314003 105:0.069314003 126:0.069314003 143:0.062142 179:0.044399001 190:0.053890001 193:0.048726998 206:0.067333996 227:0.075006999 247:0.052409999 253:0.043398999 265:0.055543002 272:0.099701002 281:0.052409999 286:0.053890001 287:0.069314003 302:0.034040999 328:0.053890001 330:0.021561 334:0.097453997 380:0.043398999 393:0.178748 424:0.134881 445:0.030983999 452:0.046718001 480:0.057418 503:0.062142 523:0.124285 552:0.065274999 591:0.069314003 607:0.062142 628:0.043398999 664:0.062142 673:0.038465001 686:0.130551 703:0.130551 713:0.04496 726:0.065274999 785:0.111087 805:0.068083003 827:0.130551 848:0.036525 850:0.049851 855:0.041340001 857:0.045812 859:0.057418 862:0.178748 889:0.20794301 907:0.78330398 917:0.055543002 927:0.151934 964:0.043398999 997:0.040716 1000:0.049851 
-0.32436465512022944 15:0.21094701 17:0.116703 28:0.51102901 57:0.205156 122:0.25551501 193:0.19073699 206:0.131786 300:0.25551501 305:0.23323099 686:0.25551501 696:0.23323099 713:0.175993 720:0.19073699 857:0.179325 924:0.33976099 989:0.25551501 
-0.14179475148024126 3:0.22693001 60:0.203449 62:0.18798301 94:0.133302 106:0.141178 179:0.072678998 196:0.18798301 218:0.18798301 302:0.111448 308:0.18798301 390:0.109029 397:0.18184499 530:0.167207 686:0.427412 717:0.149983 721:0.176431 739:0.176431 767:0.12946901 772:0.149983 790:0.375965 828:0.39013699 909:0.127666 930:0.14456899 
-0.090551228783054924 31:0.239456 59:0.46921399 110:0.156405 159:0.136112 167:0.115819 179:0.092579998 210:0.136112 220:0.112371 224:0.14453401 231:0.101605 291:0.115819 299:0.112371 335:0.136112 349:0.101605 363:0.074331999 425:0.14453401 435:0.136112 441:0.119728 510:0.156405 531:0.14453401 569:0.119728 572:0.112371 587:0.14453401 664:0.25915799 672:0.081312001 681:0.086203001 687:0.172405 718:0.156405 759:0.103948 777:0.177986 788:0.12957899 812:0.156405 857:0.095526002 867:0.156405 879:0.156405 882:0.156405 892:0.14453401 900:0.083655 917:0.115819 948:0.101605 951:0.092078 960:0.112371 967:0.115819 
-0.11658272336939254 17:0.121193 57:0.21304999 61:0.438126 132:0.28176501 179:0.090241 275:0.193846 302:0.13837799 424:0.18276501 445:0.12595201 467:0.25261 481:0.173489 624:0.17070501 641:0.193846 672:0.31703001 739:0.219063 762:0.128489 848:0.148477 857:0.186225 909:0.15851501 917:0.225785 922:0.219063 954:0.219063 
-0.23572394439610783 136:0.189881 139:0.22919101 194:0.189881 202:0.164664 229:0.099611998 231:0.14888901 343:0.182059 402:0.160144 445:0.094674997 482:0.120835 514:0.124412 617:0.12631901 686:0.19945399 784:0.59836203 832:0.304645 836:0.134928 915:0.373236 960:0.164664 973:0.164664 
-0.079767080610512742 30:0.15051 82:0.15051 118:0.097774997 131:0.080502003 179:0.089091003 229:0.065415002 243:0.15051 248:0.111454 306:0.115216 328:0.108135 339:0.37408501 351:0.130982 370:0.090218 402:0.105167 428:0.130982 429:0.19555099 443:0.13908701 466:0.105167 493:0.13908701 531:0.13908701 547:0.15051 575:0.124695 586:0.088606998 590:0.088606998 659:0.111454 679:0.090218 686:0.26196301 695:0.108135 706:0.095688 745:0.115216 762:0.063426003 784:0.130982 805:0.068306997 817:0.081701003 827:0.130982 845:0.124695 855:0.082953997 857:0.091926001 859:0.115216 885:0.22290701 895:0.451529 915:0.163403 943:0.119559 
0.18641733817337422 56:0.244179 166:0.19104899 202:0.201589 421:0.445768 458:0.222884 468:0.16234399 482:0.14793099 490:0.196055 554:0.131781 599:0.14197899 697:0.214788 741:0.23246001 759:0.186479 806:0.222884 836:0.16518401 857:0.17137 920:0.464919 948:0.182275 
-0.1041689091843904 8:0.107028 17:0.101968 104:0.088636003 106:0.073743001 254:0.237068 260:0.163096 272:0.170498 280:0.196381 323:0.166655 330:0.073743001 394:0.237068 440:0.179253 522:0.237068 526:0.237068 554:0.120488 578:0.196381 625:0.20378301 694:0.20378301 761:0.237068 800:0.196381 814:0.237068 817:0.139257 819:0.15102801 866:0.212538 873:0.237068 882:0.25653899 932:0.237068 948:0.166655 
-0.17846631966751603 6:0.096730001 11:0.096730001 22:0.062838003 47:0.067589 67:0.064287998 68:0.084179997 83:0.096730001 87:0.38691899 88:0.096730001 106:0.055610999 115:0.061496999 124:0.096730001 131:0.051736999 139:0.096730001 171:0.40069601 190:0.069496997 192:0.076838002 262:0.10831 266:0.056945998 281:0.067589 312:0.096730001 328:0.069496997 337:0.080139004 342:0.14325801 352:0.084179997 385:0.084179997 390:0.042947002 396:0.074046999 412:0.080139004 413:0.067589 430:0.080139004 444:0.037737999 448:0.084179997 477:0.064287998 501:0.050997999 542:0.064287998 581:0.071629003 608:0.080139004 624:0.054155 635:0.19346 657:0.055039 659:0.071629003 666:0.071629003 679:0.057980999 686:0.084179997 705:0.089387998 717:0.059078999 731:0.084179997 767:0.050997999 774:0.080139004 790:0.074046999 793:0.080139004 805:0.087800004 827:0.084179997 846:0.076838002 853:0.076838002 868:0.052508 882:0.48364899 900:0.051736999 925:0.084179997 926:0.111935 932:0.089387998 934:0.067589 952:0.089387998 983:0.080139004 999:0.216621 
-0.088222904234464841 33:0.191929 38:0.137364 50:0.300336 63:0.119718 94:0.119718 151:0.191929 152:0.203806 179:0.065273002 197:0.137364 253:0.127606 262:0.123474 302:0.100092 328:0.158452 330:0.063395999 349:0.143272 363:0.104815 397:0.163315 501:0.116276 543:0.191929 550:0.191929 574:0.108749 624:0.123474 628:0.127606 647:0.18271799 664:0.18271799 678:0.146576 679:0.13219699 686:0.191929 692:0.154103 706:0.140212 743:0.203806 745:0.168827 757:0.203806 762:0.092938997 772:0.1347 827:0.191929 837:0.175191 868:0.119718 918:0.191929 1000:0.146576 
-0.084840088926927681 21:0.36968601 25:0.241466 101:0.21013699 276:0.123828 291:0.178808 330:0.069410004 356:0.28947601 363:0.114758 390:0.107208 439:0.22314 444:0.094205 498:0.173484 574:0.119066 584:0.147478 624:0.135187 681:0.133085 686:0.42027399 690:0.173484 713:0.144738 756:0.22314 808:0.13971099 827:0.21013699 932:0.22314 934:0.168722 951:0.14215501 
-0.097949406150363183 68:0.080605999 79:0.080605999 91:0.068588004 106:0.026625 108:0.055520002 115:0.058885999 117:0.064719997 118:0.060171001 166:0.063066997 179:0.027412999 183:0.073576003 197:0.115379 207:0.25678101 210:0.080605999 228:0.070903003 257:0.085593998 287:0.085593998 290:0.153474 297:0.070903003 299:0.066546001 305:0.073576003 306:0.070903003 311:0.092623003 315:0.061558001 321:0.085593998 323:0.060171001 329:0.080605999 335:0.080605999 356:0.166559 360:0.080605999 366:0.056570999 368:0.080605999 398:0.070903003 412:0.076737002 430:0.076737002 444:0.072270997 445:0.038261 466:0.064719997 475:0.063066997 479:0.230211 481:0.052701999 497:0.054529 502:0.085593998 503:0.076737002 504:0.105404 518:0.085593998 523:0.076737002 542:0.061558001 548:0.153474 554:0.043501999 579:0.073576003 583:0.076737002 609:0.080605999 617:0.05105 629:0.080605999 660:0.092623003 667:0.085593998 673:0.047499001 677:0.073576003 686:0.32242301 690:0.066546001 691:0.073576003 726:0.080605999 733:0.068588004 758:0.085593998 767:0.048833001 797:0.085593998 800:0.070903003 808:0.053591002 813:0.092623003 823:0.085593998 827:0.161212 853:0.073576003 882:0.463117 890:0.171187 902:0.085593998 920:0.076737002 941:0.092623003 949:0.133092 953:0.063066997 991:0.189201 
-0.18668227009123503 8:0.046702001 104:0.077353999 106:0.032178 133:0.061696999 145:0.111941 154:0.26676399 174:0.223883 179:0.066261001 187:0.097416997 206:0.050244998 224:0.103445 230:0.088921003 253:0.064769 281:0.078217998 293:0.044916999 294:0.103445 316:0.085690998 318:0.136739 323:0.145441 342:0.082892999 419:0.44776499 420:0.069721997 424:0.067098998 435:0.097416997 438:0.223883 472:0.111941 481:0.063694 508:0.097416997 522:0.206891 523:0.092742004 561:0.206891 586:0.065900996 596:0.092742004 651:0.103445 671:0.097416997 681:0.061696999 686:0.19483501 690:0.080425002 706:0.071167 745:0.085690998 762:0.047173001 775:0.103445 780:0.092742004 790:0.085690998 797:0.103445 806:0.088921003 808:0.064769 810:0.092742004 813:0.223883 819:0.065900996 827:0.097416997 845:0.092742004 857:0.136739 863:0.088921003 866:0.092742004 868:0.060764998 882:0.223883 927:0.090699002 929:0.071167 932:0.103445 947:0.085690998 951:0.065900996 
-0.054644843285934115 1:0.091043003 8:0.054359 17:0.051789999 68:0.11339 73:0.11339 129:0.398967 193:0.084643997 206:0.058483001 248:0.096484996 249:0.107948 276:0.066817999 302:0.059133001 323:0.084643997 336:0.13029601 356:0.078101002 387:0.086595997 433:0.240814 485:0.099742003 497:0.076706998 513:0.187225 514:0.070729002 554:0.30597901 569:0.099742003 572:0.187225 584:0.079580002 592:0.103501 596:0.107948 628:0.075387999 629:0.11339 634:0.120407 664:0.32384399 672:0.067737997 687:0.071813002 688:0.120977 748:0.103501 805:0.059133001 827:0.11339 842:0.120407 853:0.103501 854:0.120407 855:0.071813002 857:0.159159 863:0.103501 882:0.26059201 904:0.234303 923:0.099742003 932:0.120407 975:0.103501 977:0.120407 
-0.11973654958554591 10:0.33490801 31:0.27742901 38:0.22572701 131:0.19384199 330:0.104177 577:0.33490801 686:0.31539199 687:0.199745 904:0.43447101 912:0.52076 
-0.16776628520866918 269:0.25192001 270:0.219234 274:0.200115 285:0.200115 293:0.101085 304:0.130969 334:0.163654 342:0.55964601 349:0.163654 446:0.192845 451:0.208712 583:0.208712 679:0.151004 695:0.180995 739:0.180995 767:0.132818 777:0.143341 827:0.219234 848:0.122675 857:0.153863 900:0.13474301 927:0.102058 957:0.219234 
-0.15072285982959044 116:0.293506 146:0.25229701 276:0.16287699 283:0.293506 293:0.127445 294:0.293506 304:0.165121 328:0.228191 494:0.25229701 527:0.228191 686:0.27640301 762:0.133843 810:0.263136 884:0.25229701 924:0.183768 927:0.12867001 988:0.293506 989:0.27640301 
-0.054422467081877778 106:0.055806 138:0.19414 193:0.126119 206:0.087139003 227:0.19414 228:0.148615 275:0.370278 298:0.160842 306:0.148615 309:0.098237 423:0.154217 430:0.321684 437:0.19414 445:0.160393 468:0.112328 481:0.110464 483:0.14376201 509:0.179406 581:0.14376201 589:0.179406 631:0.160842 677:0.154217 680:0.168951 686:0.168951 733:0.14376201 736:0.168951 740:0.148615 767:0.102355 777:0.110464 810:0.160842 856:0.237147 857:0.118573 882:0.19414 909:0.10093 916:0.123426 
-0.18816683047901267 6:0.085860997 8:0.071641997 22:0.055778001 31:0.065727003 34:0.068204001 79:0.074721001 106:0.049362 149:0.074721001 151:0.074721001 159:0.44832301 179:0.025412001 193:0.055778001 245:0.074721001 247:0.059994001 250:0.068204001 260:0.16375899 262:0.048069999 276:0.088062003 277:0.079343997 284:0.079343997 296:0.065727003 318:0.36708301 323:0.055778001 355:0.057064001 363:0.040805999 380:0.049678002 397:0.063579999 414:0.074721001 419:0.085860997 445:0.070936002 495:0.068204001 504:0.24427 514:0.046608001 523:0.071134001 561:0.079343997 584:0.052439999 593:0.068204001 614:0.44506299 620:0.074721001 621:0.074721001 659:0.063579999 664:0.142268 673:0.044031002 681:0.141967 686:0.074721001 687:0.047322001 688:0.039859999 690:0.061687 691:0.068204001 712:0.079343997 728:0.074721001 738:0.068204001 745:0.065727003 762:0.036182001 777:0.048854001 789:0.074721001 827:0.149441 857:0.104881 887:0.044636998 897:0.057064001 910:0.079343997 932:0.079343997 933:0.063579999 951:0.25273699 956:0.079343997 999:0.048069999 
-0.052646258468899476 99:0.30149201 150:0.239493 193:0.195858 206:0.135324 257:0.27860999 281:0.210664 444:0.117623 518:0.27860999 572:0.21661 679:0.180719 857:0.18414 886:0.60298502 983:0.249782 991:0.205286 
-0.10616795898951312 22:0.106128 38:0.203504 43:0.163367 47:0.114151 83:0.163367 87:0.32673499 106:0.093920998 133:0.090039998 142:0.142171 144:0.106128 179:0.096701004 184:0.12977199 246:0.163367 291:0.120975 302:0.074143 307:0.150968 308:0.125058 315:0.108576 363:0.15528201 378:0.142171 390:0.072532997 412:0.13534699 466:0.114151 497:0.096176997 590:0.096176997 594:0.117373 599:0.082666002 608:0.13534699 677:0.12977199 678:0.108576 686:0.28434199 688:0.075842001 739:0.117373 742:0.28434199 797:0.150968 803:0.150968 806:0.12977199 808:0.094522998 813:0.163367 819:0.096176997 827:0.142171 857:0.099777997 882:0.163367 887:0.084931999 930:0.096176997 931:0.13534699 948:0.106128 953:0.111237 964:0.094522998 966:0.150968 
-0.070861438556065179 38:0.144278 77:0.184009 101:0.20159 137:0.231645 190:0.166428 192:0.184009 214:0.177325 227:0.231645 245:0.20159 253:0.134028 259:0.166428 292:0.214064 332:0.214064 363:0.110091 364:0.177325 387:0.153954 423:0.184009 456:0.14726999 466:0.16185901 477:0.153954 596:0.19191401 664:0.19191401 665:0.150483 688:0.107539 722:0.231645 743:0.214064 767:0.122129 805:0.10513 857:0.14148 868:0.125744 887:0.120428 909:0.120428 929:0.14726999 975:0.184009 
-0.10593009588475105 21:0.19648699 50:0.34954199 106:0.073783003 118:0.16674501 133:0.141468 277:0.237196 308:0.19648699 309:0.12988099 382:0.203894 552:0.22337399 589:0.237196 615:0.237196 655:0.203894 664:0.212653 686:0.22337399 692:0.17935 717:0.15676901 740:0.19648699 767:0.135326 785:0.190072 849:0.190072 900:0.137288 913:0.22337399 920:0.212653 927:0.103985 930:0.15110999 
-0.069232782445743213 14:0.21082 21:0.185444 25:0.24225099 38:0.150884 65:0.21082 66:0.200701 94:0.131501 131:0.12957101 177:0.21082 253:0.140165 302:0.109943 312:0.24225099 313:0.185444 330:0.069636002 331:0.21082 356:0.145208 380:0.140165 439:0.223865 497:0.142617 539:0.164948 572:0.17404801 584:0.147957 599:0.122581 624:0.135627 738:0.192434 797:0.223865 812:0.24225099 848:0.117966 882:0.24225099 963:0.200701 964:0.140165 
-0.044919632344053995 61:0.17381001 210:0.21053199 300:0.21053199 316:0.18519101 342:0.179144 352:0.21053199 369:0.19217101 510:0.24191999 514:0.131322 569:0.18519101 628:0.139974 633:0.200427 671:0.21053199 686:0.21053199 726:0.21053199 743:0.22356001 796:0.18519101 827:0.21053199 954:0.52143103 973:0.17381001 
-0.027459394882317901 58:0.103679 113:0.103679 205:0.112194 256:0.112194 276:0.057535 287:0.103679 311:0.112194 321:0.103679 335:0.097636998 359:0.071327999 363:0.106642 374:0.207357 384:0.103679 404:0.112194 416:0.068524003 420:0.069879003 423:0.089121997 440:0.078394003 444:0.087541997 445:0.046346001 446:0.085885003 479:0.092951 494:0.62385398 499:0.083080001 517:0.1321 523:0.092951 578:0.085885003 583:0.092951 594:0.16121399 629:0.097636998 632:0.112194 650:0.089121997 660:0.112194 664:0.092951 672:0.058327999 681:0.061836001 686:0.195274 687:0.061836001 739:0.080606997 745:0.085885003 775:0.207357 783:0.076393001 790:0.17176899 817:0.121805 855:0.061836001 882:0.112194 884:0.17824399 890:0.103679 900:0.120017 916:0.071327999 943:0.089121997 973:0.080606997 992:0.097636998 
-0.049105350832786818 141:0.595833 170:0.157069 292:0.27530599 349:0.193535 376:0.25926301 414:0.25926301 494:0.236652 599:0.150749 688:0.13830499 811:0.27530599 829:0.27530599 875:0.185555 882:0.297916 
-0.045311731617363224 215:0.193553 228:0.193553 261:0.193553 291:0.187233 356:0.30311701 445:0.208892 467:0.20947801 502:0.23365401 513:0.181659 624:0.283115 633:0.20947801 641:0.16074701 672:0.262898 686:0.220039 754:0.23365401 827:0.220039 915:0.27450401 923:0.193553 927:0.102432 929:0.16074701 954:0.181659 973:0.181659 
-0.065669095121459228 5:0.079141997 106:0.031665001 119:0.479316 158:0.191726 166:0.075005002 179:0.032602001 214:0.25297299 238:0.087503001 247:0.076970004 260:0.070032001 265:0.24471299 269:0.110155 285:0.175006 318:0.067279004 353:0.091261998 356:0.066028997 388:0.110155 402:0.076970004 419:0.110155 468:0.063735001 482:0.058077 507:0.110155 522:0.101795 554:0.051736001 570:0.175006 574:0.108634 579:0.087503001 590:0.064850003 614:0.163142 617:0.060711998 625:0.087503001 631:0.091261998 686:0.191726 687:0.060711998 695:0.237427 705:0.101795 713:0.066028997 748:0.087503001 750:0.110155 762:0.04642 769:0.095863 773:0.101795 799:0.191726 804:0.132057 805:0.049993001 827:0.191726 848:0.053640999 850:0.073210999 857:0.13455699 877:0.095863 882:0.110155 905:0.091261998 920:0.182524 945:0.101795 975:0.087503001 
-0.054671017142344229 18:0.082783997 54:0.095126003 93:0.068343997 115:0.060477 117:0.066468 166:0.064770997 179:0.028154001 200:0.140883 210:0.16556799 223:0.087906003 230:0.075563997 266:0.056001998 286:0.068343997 290:0.078810997 299:0.068343997 315:0.063221999 330:0.027344 334:0.18539 384:0.087906003 420:0.118497 424:0.057020001 426:0.082783997 429:0.18539 440:0.066468 444:0.037112001 446:0.072819002 500:0.087906003 503:0.078810997 525:0.24835201 531:0.087906003 540:0.095126003 579:0.075563997 587:0.087906003 594:0.13668901 606:0.082783997 618:0.095126003 655:0.075563997 659:0.070441999 662:0.078810997 664:0.078810997 671:0.082783997 679:0.057020001 680:0.082783997 682:0.095126003 686:0.082783997 687:0.052429002 690:0.068343997 693:0.087906003 695:0.13668901 697:0.072819002 703:0.16556799 726:0.082783997 731:0.082783997 745:0.072819002 755:0.078810997 769:0.082783997 779:0.087906003 800:0.072819002 803:0.087906003 808:0.055039 815:0.075563997 824:0.082783997 839:0.087906003 842:0.087906003 850:0.063221999 853:0.075563997 859:0.29127699 882:0.475631 915:0.051637001 926:0.110079 936:0.19025201 948:0.061797 949:0.068343997 950:0.087906003 954:0.13668901 960:0.068343997 971:0.068343997 974:0.087906003 
-0.038387518198254436 8:0.076748997 56:0.16009501 94:0.099861003 108:0.11027 118:0.119508 133:0.101392 155:0.116956 193:0.119508 242:0.170001 300:0.16009501 302:0.083489999 317:0.16009501 346:0.14082401 366:0.112358 402:0.12854201 424:0.11027 445:0.075993001 449:0.22916 470:0.170001 501:0.29096901 574:0.27213499 587:0.170001 623:0.152411 654:0.16009501 703:0.16009501 713:0.11027 732:0.14082401 777:0.20934699 780:0.152411 808:0.21288 836:0.108302 853:0.14613301 857:0.112358 882:0.183963 891:0.320189 962:0.16009501 969:0.136226 972:0.16009501 
-0.04115564773012173 22:0.109178 61:0.120746 105:0.15530699 106:0.096620001 108:0.100739 133:0.092628002 197:0.104676 200:0.124451 210:0.146257 266:0.098940998 276:0.086185001 293:0.067437001 296:0.12865201 297:0.12865201 330:0.096620001 331:0.146257 342:0.124451 343:0.13350099 351:0.146257 445:0.069424003 497:0.098940998 500:0.15530699 503:0.139237 504:0.095625997 541:0.15530699 554:0.078933001 560:0.15530699 572:0.120746 617:0.092628002 624:0.18818299 657:0.19125199 664:0.139237 677:0.13350099 681:0.185256 686:0.146257 731:0.146257 733:0.124451 765:0.15530699 783:0.114433 826:0.139237 828:0.40050399 865:0.139237 867:0.168062 868:0.182459 870:0.13350099 881:0.15530699 900:0.089891002 915:0.091228999 926:0.097240001 948:0.109178 999:0.094090998 
-0.014307250460891603 50:0.58499199 68:0.186919 92:0.198485 210:0.186919 220:0.15431599 262:0.120251 266:0.12644801 309:0.108684 330:0.061740998 350:0.21478701 560:0.198485 572:0.15431599 608:0.177948 613:0.198485 628:0.124274 664:0.177948 721:0.15431599 763:0.186919 767:0.113241 803:0.198485 843:0.198485 857:0.131184 881:0.198485 887:0.111664 920:0.177948 
-0.019293213921703186 15:0.196987 63:0.14883301 94:0.14883301 106:0.078814 206:0.123065 255:0.174311 256:0.27417901 274:0.217796 343:0.217796 383:0.203032 396:0.209885 420:0.17077 423:0.217796 444:0.106967 499:0.203032 558:0.227153 586:0.322826 599:0.13873699 627:0.217796 678:0.18222199 855:0.151114 870:0.217796 910:0.25336999 938:0.227153 949:0.196987 
-0.031298357139918513 8:0.070159003 48:0.235009 56:0.146348 179:0.099541999 256:0.168167 272:0.111765 286:0.120821 302:0.076320998 306:0.128732 330:0.09668 337:0.139323 384:0.155403 423:0.13358399 445:0.069467001 477:0.55882698 514:0.091286004 586:0.19800401 591:0.155403 599:0.085093997 646:0.314224 650:0.13358399 651:0.155403 673:0.086239003 678:0.111765 679:0.100801 681:0.092684999 705:0.155403 713:0.100801 721:0.120821 793:0.139323 855:0.092684999 857:0.205419 915:0.091286004 926:0.1946 927:0.068126999 973:0.120821 
-0.050039886282462774 132:0.29666299 156:0.27937499 210:0.27937499 330:0.09228 387:0.213358 416:0.196071 428:0.27937499 430:0.265966 445:0.132612 452:0.199949 513:0.230646 563:0.32102701 572:0.46129099 613:0.29666299 
-0.028622977139336196 12:0.128508 17:0.051079001 22:0.25044799 30:0.128508 96:0.257016 104:0.044401001 106:0.036940001 162:0.196747 179:0.038034 200:0.095160998 229:0.055853002 230:0.102081 248:0.095160998 253:0.074354 255:0.081699997 262:0.071947001 272:0.085408002 282:0.128508 293:0.051564999 301:0.128508 366:0.078488 384:0.118755 397:0.095160998 411:0.106467 423:0.204163 424:0.077030003 445:0.10617 453:0.102081 462:0.106467 465:0.102081 468:0.074354 470:0.118755 491:0.118755 517:0.37827301 646:0.08004 654:0.111835 656:0.098373003 657:0.073119998 658:0.111835 664:0.319401 681:0.070827998 686:0.111835 687:0.070827998 727:0.111835 800:0.098373003 804:0.077030003 805:0.058322001 827:0.22366901 857:0.078488 882:0.128508 892:0.118755 920:0.106467 921:0.118755 927:0.052060999 948:0.25044799 958:0.106467 
-0.019788867682699912 15:0.19398101 76:0.269995 106:0.155222 151:0.234965 218:0.206682 241:0.21447299 328:0.19398101 373:0.234965 385:0.234965 398:0.206682 430:0.22368699 444:0.105335 479:0.22368699 498:0.19398101 552:0.234965 688:0.12534299 790:0.206682 827:0.234965 839:0.249504 907:0.234965 927:0.10938 973:0.19398101 995:0.21447299 
-0.013598881572452523 17:0.157289 50:0.26944399 56:0.34437501 106:0.227501 352:0.34437501 357:0.34437501 481:0.225161 686:0.34437501 688:0.183709 691:0.31434199 808:0.22896001 908:0.30292299 999:0.22154699 
-0.00396237321787846 100:0.17949601 186:0.14871 230:0.142584 237:0.16587301 270:0.156207 276:0.092049003 293:0.144049 305:0.142584 309:0.090827003 373:0.156207 385:0.31241399 393:0.28516799 445:0.074147001 446:0.13740499 451:0.14871 473:0.090827003 500:0.16587301 535:0.132918 542:0.119295 572:0.25792199 643:0.16587301 664:0.14871 686:0.31241399 695:0.128961 703:0.156207 705:0.16587301 769:0.156207 785:0.132918 808:0.103855 836:0.105672 850:0.119295 857:0.109629 862:0.142584 875:0.111798 880:0.14871 900:0.096005999 907:0.156207 915:0.097436003 945:0.16587301 
