SVM-light Version V3.50
0 # kernel type
1 # kernel parameter -d 
1 # kernel parameter -g 
1 # kernel parameter -s 
0 # kernel parameter -r 
EmptyParam # kernel parameter -u 
1000 # highest feature index 
418 # number of training documents 
128 # number of support vectors plus 1 
0.97794112 # threshold b 
0.80848663149770184 50:0.17097899 60:0.208039 84:0.232049 109:0.25110701 146:0.199469 175:0.232049 277:0.232049 355:0.166889 366:0.153367 481:0.142878 499:0.185947 554:0.117937 572:0.180411 691:0.199469 699:0.192223 861:0.218527 865:0.208039 866:0.208039 893:0.25110701 914:0.25110701 920:0.41607699 
-0.12314167690303894 33:0.17282499 91:0.14705899 106:0.171257 121:0.17282499 206:0.089137003 275:0.126256 293:0.079686999 296:0.152022 308:0.152022 325:0.135221 331:0.17282499 335:0.17282499 355:0.13198601 364:0.152022 390:0.088172004 396:0.152022 432:0.18351901 497:0.116914 579:0.15775301 609:0.17282499 628:0.114904 633:0.16452999 647:0.16452999 664:0.16452999 665:0.12901101 672:0.206488 681:0.109454 688:0.092193998 717:0.121292 740:0.152022 757:0.18351901 764:0.152022 780:0.32905999 805:0.090129003 857:0.121292 868:0.107802 900:0.10622 919:0.15775301 927:0.080453001 945:0.18351901 951:0.116914 961:0.19859201 973:0.14268 
-0.12208947735076099 47:0.110403 84:0.14601199 104:0.054591998 105:0.14601199 125:0.24190401 170:0.083302997 229:0.068672001 248:0.117003 259:0.22703899 300:0.275006 330:0.090837002 390:0.070151001 440:0.110403 445:0.065269001 462:0.130904 481:0.089902997 485:0.120952 497:0.093019001 506:0.120952 508:0.137503 527:0.113519 572:0.113519 617:0.087084003 686:0.41251001 701:0.14601199 717:0.096501999 726:0.137503 730:0.275006 785:0.117003 796:0.120952 804:0.28412801 833:0.14601199 857:0.096501999 869:0.31600699 909:0.082143001 917:0.117003 927:0.064010002 957:0.137503 999:0.088459998 
-0.088219431378655205 26:0.145962 32:0.145962 80:0.133232 126:0.154994 166:0.114202 193:0.108958 206:0.075282 248:0.1242 251:0.145962 300:0.145962 318:0.102439 330:0.048213001 358:0.145962 390:0.14893299 418:0.409756 501:0.088427998 543:0.145962 569:0.12839299 580:0.120503 599:0.084870003 679:0.100536 686:0.145962 692:0.35158399 703:0.145962 713:0.100536 741:0.138956 745:0.12839299 763:0.145962 777:0.095432997 810:0.138956 825:0.138956 848:0.081674002 857:0.409756 882:0.167723 915:0.091045 916:0.106631 924:0.097043999 937:0.111471 
-0.074780111548490472 100:0.17949601 186:0.14871 230:0.142584 237:0.16587301 270:0.156207 276:0.092049003 293:0.144049 305:0.142584 309:0.090827003 373:0.156207 385:0.31241399 393:0.28516799 445:0.074147001 446:0.13740499 451:0.14871 473:0.090827003 500:0.16587301 535:0.132918 542:0.119295 572:0.25792199 643:0.16587301 664:0.14871 686:0.31241399 695:0.128961 703:0.156207 705:0.16587301 769:0.156207 785:0.132918 808:0.103855 836:0.105672 850:0.119295 857:0.109629 862:0.142584 875:0.111798 880:0.14871 900:0.096005999 907:0.156207 915:0.097436003 945:0.16587301 
0.99999993212504223 10:0.199607 34:0.085790999 47:0.075464003 50:0.367686 58:0.099803001 70:0.082673997 91:0.079975002 94:0.058626 106:0.031044999 108:0.064737 166:0.147074 179:0.031964 197:0.201801 218:0.082673997 230:0.085790999 249:0.089477003 257:0.099803001 266:0.063580997 290:0.089477003 304:0.056147002 315:0.071777999 323:0.070160002 353:0.089477003 370:0.064737 374:0.099803001 385:0.093988001 396:0.082673997 420:0.067267001 423:0.171581 429:0.070160002 439:0.099803001 448:0.093988001 457:0.099803001 471:0.099803001 518:0.099803001 526:0.29940999 583:0.089477003 631:0.089477003 657:0.061450999 662:0.089477003 679:0.064737 686:0.187975 687:0.059525002 696:0.171581 713:0.064737 717:0.197887 739:0.077593997 742:0.093988001 758:0.39921299 769:0.093988001 773:0.099803001 810:0.089477003 827:0.187975 837:0.085790999 882:0.108 883:0.093988001 887:0.056147002 908:0.082673997 926:0.062488001 927:0.087506004 962:0.093988001 973:0.077593997 
0.99999993212504223 17:0.157289 50:0.26944399 56:0.34437501 106:0.227501 352:0.34437501 357:0.34437501 481:0.225161 686:0.34437501 688:0.183709 691:0.31434199 808:0.22896001 908:0.30292299 999:0.22154699 
0.99999993212504223 17:0.073499002 50:0.125907 67:0.122895 77:0.146887 101:0.16092101 103:0.141551 104:0.063888997 117:0.129206 118:0.120125 180:0.17087799 230:0.146887 245:0.16092101 253:0.106989 268:0.15319701 302:0.083921 349:0.120125 355:0.122895 363:0.087880999 390:0.082098998 412:0.15319701 465:0.146887 475:0.125907 515:0.17087799 517:0.108861 546:0.16092101 572:0.132852 574:0.091179997 679:0.110839 681:0.101915 699:0.141551 700:0.17087799 736:0.16092101 751:0.18491299 754:0.17087799 805:0.083921 857:0.112938 863:0.146887 893:0.18491299 914:0.55473799 
0.99999993212504223 50:0.213458 103:0.239981 179:0.092782997 248:0.232145 259:0.225233 423:0.249027 496:0.232145 499:0.232145 560:0.28970101 572:0.225233 590:0.184559 657:0.178376 681:0.172783 786:0.28970101 853:0.249027 857:0.19147 877:0.27282 893:0.313494 900:0.167677 
0.99999993212504223 50:0.174034 195:0.203034 229:0.111088 230:0.406068 277:0.47239301 355:0.169872 359:0.162496 366:0.15610801 387:0.169872 390:0.113481 446:0.195659 615:0.23619699 624:0.143098 686:0.222433 882:0.255595 913:0.222433 914:0.255595 937:0.169872 949:0.183635 
-0.11855286359035611 17:0.10902 90:0.27428001 179:0.081177004 191:0.253463 248:0.203107 253:0.15869699 356:0.164407 363:0.130353 423:0.217877 553:0.238694 603:0.27428001 672:0.14259399 673:0.14065599 686:0.47738701 717:0.16752 762:0.115583 777:0.156064 882:0.27428001 923:0.209962 981:0.27428001 999:0.153559 
-0.29912973201594995 56:0.206476 60:0.196566 106:0.204603 136:0.196566 166:0.16155 168:0.206476 218:0.181623 266:0.279356 315:0.157685 359:0.150839 439:0.21925201 497:0.139678 534:0.21925201 611:0.23726 657:0.13499901 686:0.41295201 720:0.30826101 745:0.181623 817:0.128792 920:0.196566 926:0.13727701 956:0.21925201 
-0.006667536586941262 18:0.20179801 69:0.214284 106:0.066656001 195:0.18419801 206:0.10408 228:0.177508 275:0.147422 290:0.192112 304:0.120552 306:0.177508 357:0.20179801 400:0.192112 416:0.141626 461:0.20179801 468:0.26833299 581:0.171712 631:0.192112 680:0.20179801 686:0.403595 808:0.134166 856:0.28325099 865:0.192112 882:0.231884 916:0.147422 920:0.192112 
-0.19455837946266771 8:0.106601 106:0.073449001 109:0.25551701 184:0.20297199 237:0.23612399 357:0.22236399 398:0.195599 446:0.195599 599:0.12929399 686:0.444729 688:0.118621 736:0.22236399 769:0.22236399 797:0.23612399 804:0.30632001 808:0.14783999 812:0.25551701 853:0.20297199 857:0.15606 882:0.25551701 
-0.23524150614148776 15:0.090391003 26:0.109489 41:0.116264 47:0.087909997 56:0.109489 77:0.099940002 88:0.251625 94:0.068295002 106:0.14466099 115:0.159972 122:0.109489 148:0.251625 179:0.037236001 183:0.099940002 193:0.081730999 222:0.116264 249:0.104234 253:0.072793998 266:0.14813501 297:0.096309997 302:0.114197 309:0.063662 328:0.090391003 330:0.036164999 337:0.104234 349:0.081730999 377:0.109489 420:0.078360997 423:0.099940002 429:0.081730999 444:0.098168001 457:0.116264 529:0.116264 530:0.085665002 554:0.11818 556:0.12581199 558:0.104234 594:0.090391003 599:0.063662 619:0.116264 646:0.078360997 657:0.14317299 662:0.104234 664:0.20846701 668:0.116264 679:0.075414002 686:0.109489 688:0.058407001 696:0.099940002 720:0.163462 731:0.218977 739:0.18078201 760:0.096309997 783:0.085665002 793:0.104234 805:0.057099 813:0.12581199 857:0.15368301 882:0.251625 900:0.067293003 920:0.104234 926:0.145588 935:0.12581199 949:0.18078201 952:0.116264 966:0.116264 
0.99999993212504223 50:0.16714799 72:0.226851 91:0.18178099 94:0.133255 197:0.152897 266:0.144519 291:0.18178099 297:0.18791699 302:0.222819 328:0.176369 363:0.116667 378:0.213632 390:0.108991 607:0.20337801 608:0.20337801 619:0.226851 664:0.20337801 671:0.213632 681:0.135298 688:0.113963 713:0.147145 745:0.18791699 772:0.149931 827:0.427264 857:0.149931 887:0.12762199 948:0.159472 1000:0.16315 
0.99999993212504223 33:0.191929 38:0.137364 50:0.300336 63:0.119718 94:0.119718 151:0.191929 152:0.203806 179:0.065273002 197:0.137364 253:0.127606 262:0.123474 302:0.100092 328:0.158452 330:0.063395999 349:0.143272 363:0.104815 397:0.163315 501:0.116276 543:0.191929 550:0.191929 574:0.108749 624:0.123474 628:0.127606 647:0.18271799 664:0.18271799 678:0.146576 679:0.13219699 686:0.191929 692:0.154103 706:0.140212 743:0.203806 745:0.168827 757:0.203806 762:0.092938997 772:0.1347 827:0.191929 837:0.175191 868:0.119718 918:0.191929 1000:0.146576 
0.80505369363607338 21:0.19648699 50:0.34954199 106:0.073783003 118:0.16674501 133:0.141468 277:0.237196 308:0.19648699 309:0.12988099 382:0.203894 552:0.22337399 589:0.237196 615:0.237196 655:0.203894 664:0.212653 686:0.22337399 692:0.17935 717:0.15676901 740:0.19648699 767:0.135326 785:0.190072 849:0.190072 900:0.137288 913:0.22337399 920:0.212653 927:0.103985 930:0.15110999 
0.078710513836605434 50:0.58499199 68:0.186919 92:0.198485 210:0.186919 220:0.15431599 262:0.120251 266:0.12644801 309:0.108684 330:0.061740998 350:0.21478701 560:0.198485 572:0.15431599 608:0.177948 613:0.198485 628:0.124274 664:0.177948 721:0.15431599 763:0.186919 767:0.113241 803:0.198485 843:0.198485 857:0.131184 881:0.198485 887:0.111664 920:0.177948 
0.99999993212504223 34:0.210675 50:0.361168 94:0.143967 197:0.165187 259:0.19054601 330:0.076237001 349:0.172291 356:0.15897299 390:0.117751 440:0.185316 466:0.185316 572:0.19054601 574:0.130776 624:0.14848299 628:0.153451 655:0.210675 664:0.219726 681:0.146173 717:0.161983 742:0.230804 772:0.161983 827:0.230804 857:0.32396501 887:0.13788 923:0.203022 927:0.107443 930:0.15613499 951:0.15613499 
-0.16608385236206283 8:0.069868997 17:0.066565998 22:0.108794 63:0.090908997 106:0.048140001 108:0.100385 111:0.145743 200:0.248028 221:0.145743 242:0.154761 245:0.145743 259:0.24064399 266:0.098592997 317:0.145743 330:0.048140001 350:0.167472 397:0.124014 402:0.117019 411:0.13874801 416:0.102285 445:0.069179997 449:0.104309 469:0.30952299 514:0.090908997 517:0.098592997 519:0.154761 554:0.15731201 572:0.24064399 624:0.093760997 651:0.154761 657:0.095289998 659:0.124014 662:0.13874801 664:0.13874801 673:0.085882999 678:0.111304 763:0.145743 772:0.102285 793:0.13874801 808:0.096897997 827:0.291486 835:0.154761 843:0.154761 848:0.081551999 857:0.102285 887:0.087066002 923:0.12819999 926:0.096897997 972:0.145743 973:0.120322 
-0.36612186063681296 91:0.407489 106:0.105454 108:0.109949 183:0.145707 197:0.114246 206:0.082331002 286:0.131786 291:0.27165899 297:0.140414 302:0.083246998 305:0.145707 307:0.169506 315:0.121908 328:0.131786 330:0.052726999 378:0.159629 385:0.159629 439:0.169506 465:0.145707 477:0.121908 579:0.145707 594:0.131786 608:0.151967 617:0.101097 644:0.10613 681:0.20219301 686:0.159629 688:0.085155003 696:0.145707 705:0.169506 713:0.109949 720:0.11916 745:0.140414 772:0.112031 803:0.169506 806:0.145707 813:0.183428 827:0.159629 847:0.169506 856:0.112031 948:0.11916 980:0.145707 
-0.083824022069096865 5:0.16332901 63:0.123403 103:0.174023 200:0.168341 202:0.16332901 238:0.180582 262:0.12727401 302:0.103172 330:0.130694 353:0.18834101 360:0.197836 473:0.115032 482:0.119855 525:0.197836 578:0.174023 584:0.138845 646:0.141592 659:0.168341 664:0.56502199 679:0.13626599 697:0.174023 748:0.180582 773:0.210078 858:0.180582 917:0.168341 947:0.174023 985:0.144527 
-0.11809755765294251 21:0.297822 71:0.179763 118:0.12637 133:0.107214 221:0.16928799 228:0.297822 261:0.148911 297:0.148911 320:0.148911 330:0.055916999 355:0.12928499 393:0.154524 445:0.080356002 449:0.12116 469:0.35952601 481:0.110684 517:0.22904199 519:0.179763 572:0.13976 607:0.161163 638:0.32232499 659:0.144049 664:0.161163 681:0.107214 736:0.16928799 737:0.148911 738:0.154524 772:0.11881 777:0.110684 835:0.179763 857:0.11881 887:0.101131 915:0.105595 
-0.029937633738667799 15:0.067790002 22:0.061294999 23:0.082111999 108:0.056557 115:0.059985999 116:0.087192997 144:0.061294999 146:0.074951001 179:0.027925 196:0.072228 214:0.072228 222:0.087192997 224:0.087192997 230:0.074951001 235:0.059985999 247:0.065929003 249:0.62536699 255:0.059985999 262:0.052825 302:0.128465 328:0.067790002 330:0.027122 339:0.078171 354:0.149901 370:0.056557 397:0.069870003 409:0.094354004 430:0.078171 444:0.036811002 445:0.038975999 449:0.117535 468:0.054593001 483:0.069870003 500:0.17438599 502:0.087192997 532:0.087192997 552:0.082111999 584:0.057627998 596:0.078171 617:0.052003 659:0.13974001 664:0.078171 671:0.082111999 686:0.246336 696:0.149901 703:0.082111999 716:0.074951001 719:0.156342 721:0.067790002 726:0.082111999 739:0.067790002 760:0.072228 779:0.087192997 784:0.164224 805:0.128465 806:0.224852 817:0.051217999 857:0.115256 874:0.082111999 877:0.082111999 880:0.078171 882:0.094354004 897:0.062709004 900:0.050466999 915:0.051217999 927:0.038224999 943:0.074951001 945:0.087192997 954:0.067790002 975:0.074951001 976:0.087192997 
0.74944926152918478 8:0.073592 28:0.15350799 41:0.16300701 47:0.123254 50:0.48042601 60:0.14613999 84:0.16300701 106:0.152115 108:0.105733 109:0.176394 133:0.097220004 138:0.176394 193:0.114591 249:0.14613999 273:0.16300701 276:0.090457998 302:0.160109 304:0.091704004 328:0.12673201 330:0.10141 350:0.176394 366:0.107735 377:0.15350799 385:0.15350799 445:0.072866 481:0.100367 497:0.103846 590:0.103846 686:0.30701599 688:0.081890002 696:0.14012 713:0.105733 726:0.15350799 755:0.14613999 756:0.16300701 808:0.102061 843:0.16300701 857:0.107735 893:0.176394 927:0.071461 
-0.25670126042805519 28:0.252803 94:0.15768901 106:0.083503 133:0.160106 304:0.151022 366:0.177422 384:0.268446 434:0.22237299 567:0.268446 688:0.134859 739:0.208708 762:0.244831 810:0.240669 826:0.240669 827:0.252803 850:0.193065 868:0.15768901 871:0.22237299 908:0.22237299 915:0.15768901 924:0.16807801 927:0.117684 930:0.171018 990:0.268446 
-0.1611768469314063 10:0.161872 46:0.15244 57:0.122396 67:0.23283599 70:0.134091 77:0.139145 94:0.095086001 104:0.24208701 220:0.12585101 227:0.17516699 236:0.139145 245:0.30487901 305:0.139145 355:0.116418 359:0.111364 363:0.083249003 389:0.119271 390:0.077771999 402:0.122396 455:0.139145 456:0.111364 574:0.086374 588:0.087485999 628:0.101351 658:0.30487901 671:0.15244 681:0.096543998 688:0.081320003 692:0.122396 699:0.134091 786:0.161872 808:0.101351 842:0.161872 861:0.15244 866:0.145123 874:0.15244 875:0.109101 880:0.145123 915:0.095086001 919:0.27829 933:0.129712 951:0.103123 961:0.17516699 
-0.01564856223380497 58:0.230818 94:0.13558599 149:0.434735 179:0.147848 218:0.191203 231:0.16226099 245:0.21736801 248:0.18495999 253:0.144518 282:0.24977501 302:0.226715 306:0.191203 363:0.118707 390:0.110896 424:0.149718 434:0.191203 452:0.15557 467:0.206935 524:0.24977501 574:0.123163 590:0.147046 641:0.158796 672:0.12985399 687:0.13766401 688:0.115956 733:0.18495999 857:0.15255301 868:0.13558599 
-0.2622083375097024 34:0.23596901 133:0.16372301 159:0.258515 245:0.258515 342:0.219973 357:0.258515 382:0.23596901 517:0.174881 584:0.181431 679:0.35611901 686:0.258515 688:0.137906 694:0.23596901 713:0.17806 783:0.20226499 840:0.246107 857:0.181431 887:0.154434 930:0.174881 970:0.246107 
-0.27967588258050596 16:0.145172 77:0.124789 94:0.085276 106:0.135472 171:0.130151 184:0.124789 192:0.124789 197:0.097845003 201:0.145172 226:0.145172 241:0.124789 252:0.136712 259:0.112866 262:0.087950997 274:0.124789 290:0.130151 296:0.120256 308:0.240513 309:0.079492003 342:0.11633 355:0.104407 363:0.14932001 387:0.104407 390:0.069747999 401:0.130151 411:0.130151 434:0.120256 440:0.109768 442:0.124789 475:0.106965 496:0.11633 514:0.085276 523:0.130151 527:0.112866 628:0.090893999 681:0.086583003 688:0.072930001 690:0.112866 742:0.273424 747:0.124789 767:0.082823999 778:0.157095 780:0.130151 797:0.145172 827:0.273424 857:0.095946997 868:0.25582799 882:0.157095 883:0.136712 887:0.081671 909:0.081671 927:0.063642003 932:0.145172 948:0.102053 949:0.112866 951:0.092483997 997:0.085276 999:0.087950997 
-0.28340212228509792 17:0.045979001 20:0.095836997 38:0.072048999 105:0.106898 179:0.068472996 191:0.213796 193:0.075148001 206:0.051922001 230:0.183779 245:0.20133799 253:0.066930003 286:0.16621999 291:0.17132001 297:0.088551998 300:0.100669 330:0.033252001 349:0.075148001 356:0.138678 364:0.088551998 402:0.080828004 416:0.070651002 435:0.100669 440:0.080828004 445:0.047784999 456:0.073542997 484:0.106898 513:0.24933 569:0.177103 572:0.33243901 577:0.106898 592:0.091889001 609:0.20133799 613:0.106898 624:0.064763002 628:0.066930003 634:0.106898 641:0.073542997 664:0.19167399 673:0.118643 684:0.20133799 687:0.063755997 717:0.141303 753:0.100669 758:0.213796 790:0.177103 808:0.066930003 827:0.100669 842:0.213796 854:0.106898 857:0.070651002 884:0.091889001 904:0.20801599 923:0.088551998 951:0.068100996 954:0.16621999 1000:0.076880999 
-0.031221022922781685 21:0.40592799 154:0.21061499 236:0.21061499 316:0.20296399 363:0.126008 364:0.20296399 390:0.117718 396:0.20296399 397:0.196337 441:0.20296399 443:0.245015 452:0.165139 512:0.196337 552:0.230738 572:0.19049101 624:0.14844 629:0.230738 665:0.172241 774:0.21966299 796:0.20296399 808:0.15340699 900:0.141813 932:0.245015 
-0.2124034967651397 47:0.13858999 64:0.172608 179:0.058701999 253:0.11476 275:0.12609801 279:0.59502703 306:0.151832 328:0.142501 330:0.057014 400:0.164324 477:0.13182101 481:0.112855 499:0.146874 546:0.172608 574:0.097801998 579:0.31511 599:0.100363 602:0.18328901 613:0.18328901 686:0.172608 691:0.157555 713:0.118889 752:0.31511 757:0.18328901 849:0.146874 
-0.060802511429043297 132:0.29666299 156:0.27937499 210:0.27937499 330:0.09228 387:0.213358 416:0.196071 428:0.27937499 430:0.265966 445:0.132612 452:0.199949 513:0.230646 563:0.32102701 572:0.46129099 613:0.29666299 
-0.16750461067031308 39:0.29972401 57:0.209429 72:0.27697599 192:0.238088 210:0.26083601 292:0.27697599 380:0.173418 390:0.133073 393:0.238088 475:0.204081 481:0.170541 552:0.26083601 590:0.176452 664:0.248317 722:0.29972401 929:0.190551 933:0.221948 982:0.27697599 
-0.043768086796468403 15:0.077509001 34:0.085697003 68:0.093884997 70:0.082584001 121:0.093884997 150:0.085697003 193:0.070083 206:0.048423 220:0.077509001 231:0.070083 253:0.12484 276:0.055323999 286:0.077509001 303:0.093884997 316:0.082584001 341:0.089378998 342:0.079888001 420:0.067194 431:0.082584001 443:0.099693999 473:0.054589 514:0.058561999 555:0.107882 557:0.34278801 584:0.065889999 590:0.12702399 604:0.107882 637:0.099693999 639:0.093884997 643:0.099693999 659:0.079888001 686:0.18776999 691:0.085697003 717:0.065889999 748:0.085697003 817:0.058561999 821:0.107882 827:0.093884997 857:0.72479302 867:0.107882 920:0.089378998 931:0.089378998 948:0.070083 970:0.089378998 973:0.077509001 979:0.089378998 
-0.33030443429027201 56:0.234055 106:0.15462101 117:0.18792599 155:0.170987 193:0.17471801 197:0.167514 206:0.120718 290:0.222821 343:0.213643 349:0.17471801 423:0.213643 497:0.158335 539:0.183128 610:0.19323 624:0.150575 651:0.248538 658:0.234055 668:0.248538 679:0.161213 688:0.124858 743:0.248538 749:0.248538 755:0.222821 827:0.234055 919:0.213643 
-0.19828396945038484 31:0.17301901 46:0.196695 104:0.078092001 170:0.119163 229:0.098233998 253:0.13077401 301:0.22602101 302:0.205154 304:0.117504 381:0.22602101 395:0.17301901 465:0.17954101 542:0.150216 598:0.22602101 664:0.187255 686:0.196695 699:0.346039 717:0.138045 730:0.196695 739:0.162387 741:0.187255 764:0.17301901 800:0.17301901 804:0.13548 857:0.27608901 927:0.18313 984:0.196695 994:0.22602101 
-0.053015334570606004 45:0.164011 63:0.107462 222:0.18294001 230:0.15725499 249:0.328022 255:0.125857 359:0.125857 369:0.15725499 436:0.18294001 444:0.077233002 477:0.13157 516:0.164011 553:0.17228 596:0.164011 610:0.14223 664:0.164011 665:0.12860399 686:0.34455901 716:0.15725499 719:0.164011 805:0.17968901 806:0.31450999 857:0.48363701 
-0.022168262297543557 8:0.091692999 93:0.157905 103:0.168244 196:0.168244 216:0.21978199 248:0.16275001 253:0.127165 265:0.32550099 285:0.174585 293:0.088189997 300:0.191266 302:0.19949199 342:0.16275001 429:0.142777 447:0.21978199 595:0.21978199 610:0.157905 665:0.142777 686:0.191266 707:0.168244 827:0.191266 857:0.40270299 859:0.168244 927:0.089038 939:0.21978199 972:0.191266 973:0.157905 
0.5781707796439598 8:0.059597 33:0.124316 50:0.29179999 57:0.099815004 115:0.090818003 152:0.132009 159:0.124316 162:0.109352 193:0.092799999 206:0.064117998 255:0.090818003 266:0.084097996 272:0.094939999 277:0.52803499 330:0.041063 349:0.092799999 416:0.087247998 445:0.059009001 502:0.132009 537:0.132009 574:0.070439003 582:0.14285 615:0.26401699 619:0.132009 652:0.105782 655:0.113474 657:0.081280999 664:0.118349 673:0.073256001 686:0.124316 689:0.109352 717:0.087247998 748:0.113474 764:0.109352 767:0.075314 777:0.081280999 805:0.12966201 840:0.118349 857:0.174495 881:0.26401699 913:0.248632 926:0.082652003 927:0.057870999 937:0.094939999 970:0.118349 
-0.25387313968307085 57:0.159914 106:0.065787002 179:0.067734003 286:0.32885501 446:0.175194 501:0.120661 526:0.42298299 574:0.11285 584:0.13978 629:0.199167 655:0.36359501 664:0.18960799 705:0.211491 735:0.228861 760:0.175194 762:0.096442997 856:0.13978 905:0.18960799 913:0.199167 935:0.228861 947:0.175194 966:0.211491 980:0.181797 
-0.20586637702415619 8:0.103928 22:0.080913998 106:0.071607001 108:0.074658997 197:0.077577002 200:0.092233002 234:0.09894 241:0.09894 255:0.079186 262:0.069733001 276:0.063873999 293:0.049977999 302:0.056527998 308:0.095345996 330:0.10741 342:0.092233002 349:0.080913998 352:0.108394 390:0.055300001 391:0.37366199 412:0.103191 420:0.077577002 465:0.09894 471:0.115101 476:0.62277001 502:0.115101 559:0.115101 564:0.108394 565:0.124554 620:0.108394 623:0.20638201 647:0.103191 655:0.09894 664:0.103191 678:0.082780004 679:0.074658997 688:0.057822999 691:0.09894 696:0.197881 703:0.108394 720:0.080913998 765:0.115101 827:0.108394 856:0.228218 
-0.14981766265640556 8:0.1012 57:0.169493 72:0.22416 131:0.129742 153:0.22416 188:0.185688 190:0.17427699 229:0.105427 259:0.17427699 308:0.185688 330:0.069728002 390:0.107698 466:0.169493 530:0.16516601 643:0.22416 736:0.211098 774:0.200966 805:0.220176 846:0.192687 903:0.44832 918:0.42219499 973:0.17427699 
-0.16808475824151589 114:0.30060101 138:0.32528901 295:0.26949701 302:0.14762899 327:0.28308401 467:0.26949701 574:0.32079801 628:0.18821099 633:0.26949701 641:0.20680501 672:0.169112 754:0.30060101 817:0.176577 827:0.28308401 840:0.26949701 
-0.11378776271426547 8:0.081243001 129:0.149069 159:0.169467 235:0.123803 247:0.136068 254:0.17995401 262:0.109023 272:0.12942199 326:0.169467 337:0.16133399 349:0.379513 382:0.154688 440:0.136068 444:0.075971998 451:0.16133399 475:0.132594 517:0.229285 526:0.17995401 570:0.154688 584:0.118936 617:0.107328 686:0.169467 693:0.17995401 694:0.154688 695:0.279816 781:0.169467 827:0.33893499 857:0.118936 865:0.16133399 873:0.17995401 887:0.101238 912:0.139908 951:0.114642 
-0.17775386824196887 3:0.22693001 60:0.203449 62:0.18798301 94:0.133302 106:0.141178 179:0.072678998 196:0.18798301 218:0.18798301 302:0.111448 308:0.18798301 390:0.109029 397:0.18184499 530:0.167207 686:0.427412 717:0.149983 721:0.176431 739:0.176431 767:0.12946901 772:0.149983 790:0.375965 828:0.39013699 909:0.127666 930:0.14456899 
-0.13914190747812186 8:0.106615 106:0.073458999 139:0.25554901 170:0.13473199 186:0.21171901 270:0.22239301 306:0.19562399 363:0.121451 406:0.236154 435:0.22239301 581:0.189236 603:0.25554901 620:0.22239301 681:0.56338602 691:0.202998 713:0.15318 836:0.150446 856:0.15607999 916:0.162467 943:0.202998 
-0.13104964938898023 21:0.34564701 64:0.196473 76:0.225765 154:0.17933799 169:0.153723 174:0.225765 193:0.146663 206:0.101334 215:0.172824 281:0.15775099 392:0.225765 457:0.20863 498:0.324406 624:0.126397 679:0.135326 686:0.39294499 723:0.20863 857:0.27577701 878:0.162203 887:0.117371 900:0.120754 920:0.187043 
-0.18842190505943393 17:0.084037997 51:0.195381 67:0.28103399 104:0.1461 115:0.134417 118:0.13734899 125:0.16184799 229:0.091891997 236:0.33589801 248:0.156564 255:0.134417 276:0.108424 355:0.140517 363:0.200964 390:0.093870997 394:0.195381 481:0.120301 501:0.11147 508:0.18399601 509:0.195381 533:0.211428 588:0.105596 681:0.116529 686:0.18399601 688:0.098153003 736:0.18399601 805:0.095954001 827:0.18399601 848:0.102956 857:0.25826401 930:0.124471 933:0.156564 951:0.124471 958:0.175165 964:0.122331 975:0.16794901 997:0.11477 
-0.093053774575401052 40:0.17285 42:0.208634 131:0.111591 133:0.114989 179:0.061748002 302:0.094686002 330:0.059971999 385:0.181564 390:0.092629999 410:0.208634 429:0.135534 482:0.109997 506:0.319419 537:0.192799 576:0.16573 677:0.16573 686:0.36312801 721:0.149895 803:0.192799 808:0.120714 831:0.181564 832:0.27732 853:0.16573 882:0.208634 894:0.181564 901:0.17285 927:0.084521003 949:0.149895 969:0.30899 
-0.10748167387203703 17:0.083254002 24:0.146355 118:0.136069 145:0.209456 238:0.166383 302:0.095059998 315:0.13920701 328:0.15048601 352:0.18228 389:0.142618 509:0.19355901 568:0.58542001 574:0.103282 617:0.115442 649:0.173531 697:0.160339 701:0.19355901 743:0.38711801 827:0.18228 857:0.127928 888:0.19355901 917:0.155104 948:0.136069 
-0.29847498435747699 22:0.054839998 25:0.084417999 62:0.129244 81:0.084417999 94:0.18329801 96:0.084417999 106:0.121331 156:0.14692999 172:0.058986001 184:0.067057997 193:0.054839998 206:0.037891001 220:0.060651001 229:0.03669 230:0.067057997 253:0.097686999 259:0.121302 262:0.094524004 266:0.049697999 272:0.056104999 290:0.069939002 293:0.067746997 302:0.191561 308:0.193866 316:0.064622 328:0.060651001 330:0.048532002 331:0.073464997 343:0.067057997 351:0.073464997 356:0.151803 373:0.073464997 377:0.073464997 390:0.112441 396:0.064622 397:0.062512003 400:0.139878 411:0.069939002 423:0.13411599 434:0.193866 439:0.156021 441:0.064622 444:0.032933999 445:0.069743 465:0.067057997 466:0.117972 481:0.144099 497:0.049697999 504:0.048032999 517:0.149094 522:0.078010999 524:0.084417999 541:0.078010999 546:0.073464997 551:0.084417999 599:0.042716 657:0.048032999 664:0.20981599 666:0.25004801 677:0.067057997 679:0.101202 680:0.073464997 681:0.093053997 688:0.117571 692:0.058986001 713:0.050601002 717:0.103118 762:0.035574 796:0.064622 800:0.258488 804:0.101202 805:0.038311999 823:0.078010999 842:0.078010999 849:0.062512003 857:0.30935499 863:0.067057997 868:0.045825001 870:0.20117299 872:0.073464997 909:0.043887001 926:0.048843998 927:0.136797 930:0.049697999 949:0.060651001 951:0.049697999 997:0.045825001 
-0.14711004532545566 22:0.246944 31:0.145496 80:0.30195999 92:0.17564 103:0.145496 162:0.145496 202:0.136555 230:0.15098 231:0.123472 255:0.120835 260:0.120835 262:0.10641 312:0.19006599 318:0.23217 345:0.17564 353:0.15746699 449:0.118381 482:0.100207 578:0.145496 586:0.111894 617:0.104755 664:0.47240001 686:0.16540501 711:0.17564 777:0.108146 857:0.23217 875:0.118381 915:0.206347 927:0.153998 985:0.120835 
-0.12146688965506656 15:0.101121 17:0.055943999 63:0.152803 84:0.130064 104:0.048629001 105:0.130064 169:0.095834002 221:0.122485 230:0.111803 299:0.101121 302:0.063876003 330:0.121374 389:0.57500499 396:0.107742 402:0.098344997 423:0.22360601 425:0.130064 430:0.116606 481:0.080084004 499:0.104224 523:0.116606 549:0.44740301 554:0.066104002 575:0.116606 588:0.070294999 646:0.087663002 671:0.122485 673:0.072177 695:0.101121 726:0.24496999 748:0.111803 754:0.130064 767:0.074205004 817:0.076402001 857:0.085963003 870:0.111803 885:0.104224 909:0.073172003 
-0.1351590543358698 8:0.056508999 22:0.087990999 33:0.117874 47:0.094642997 60:0.112216 81:0.13544799 94:0.073524997 106:0.038934998 179:0.040088002 197:0.084362999 229:0.058869001 245:0.117874 262:0.075832002 268:0.224433 293:0.05435 301:0.13544799 302:0.061471999 309:0.068538003 317:0.117874 330:0.038934998 341:0.112216 356:0.081188999 360:0.117874 390:0.060137 397:0.2006 445:0.055950999 449:0.084362999 513:0.097314 515:0.125168 517:0.079740003 525:0.117874 526:0.375503 528:0.112216 546:0.117874 554:0.063615002 574:0.066789001 599:0.068538003 603:0.13544799 623:0.112216 624:0.075832002 629:0.117874 631:0.112216 641:0.086112 644:0.078368999 647:0.112216 652:0.1003 657:0.077068999 659:0.2006 664:0.112216 678:0.090020001 679:0.162378 705:0.125168 743:0.125168 790:0.103686 818:0.13544799 827:0.23574799 857:0.082726002 863:0.107594 882:0.13544799 897:0.090020001 905:0.112216 909:0.21125101 910:0.125168 923:0.103686 926:0.078368999 927:0.109745 934:0.094642997 948:0.087990999 950:0.125168 
-0.19570660933446923 104:0.118562 330:0.098640002 404:0.34315199 456:0.218161 475:0.233651 590:0.20201799 681:0.18912899 690:0.49308199 737:0.26268399 742:0.29862899 827:0.29862899 920:0.28429601 929:0.218161 973:0.24654099 
-0.17965338010456783 10:0.212082 66:0.190138 101:0.199724 115:0.145907 124:0.22950099 206:0.103011 247:0.16036101 253:0.132788 356:0.137566 390:0.101895 402:0.16036101 431:0.17568301 442:0.18230499 596:0.190138 624:0.25697601 629:0.199724 652:0.169947 666:0.169947 686:0.39944801 713:0.137566 716:0.18230499 733:0.169947 751:0.22950099 805:0.104157 808:0.26557499 857:0.14016999 929:0.145907 999:0.128488 
-0.15600934457323801 8:0.101589 21:0.18640199 47:0.170145 71:0.225022 152:0.225022 220:0.17494699 229:0.105832 313:0.18640199 328:0.17494699 330:0.069995999 362:0.225022 370:0.145959 411:0.201738 429:0.158186 430:0.201738 456:0.154808 485:0.18640199 527:0.17494699 541:0.225022 572:0.17494699 613:0.225022 624:0.136327 627:0.19342799 665:0.158186 686:0.211909 713:0.145959 717:0.14872199 763:0.211909 790:0.18640199 887:0.253185 
-0.08244900508181327 8:0.055443998 66:0.110102 118:0.086332999 124:0.13289601 179:0.039331999 220:0.095481001 224:0.12281 228:0.101732 231:0.086332999 253:0.076893002 255:0.084489003 276:0.13630299 282:0.13289601 291:0.29523101 303:0.115653 323:0.086332999 328:0.095481001 330:0.038201001 358:0.115653 363:0.063160002 390:0.059004001 420:0.165546 495:0.211134 496:0.098410003 506:0.101732 530:0.090489 546:0.115653 548:0.110102 553:0.115653 588:0.066373996 592:0.105567 641:0.084489003 643:0.12281 650:0.105567 673:0.068150997 686:0.115653 687:0.073246002 695:0.095481001 703:0.115653 713:0.079659998 715:0.098410003 717:0.243503 728:0.115653 734:0.092859998 742:0.115653 745:0.305197 770:0.13289601 805:0.060313001 817:0.072140001 827:0.115653 867:0.13289601 922:0.095481001 923:0.101732 947:0.101732 954:0.095481001 975:0.42226699 985:0.084489003 1000:0.088324003 
-0.017607666341933708 116:0.293506 146:0.25229701 276:0.16287699 283:0.293506 293:0.127445 294:0.293506 304:0.165121 328:0.228191 494:0.25229701 527:0.228191 686:0.27640301 762:0.133843 810:0.263136 884:0.25229701 924:0.183768 927:0.12867001 988:0.293506 989:0.27640301 
-0.17129764535800884 52:0.134472 59:0.134472 106:0.077308998 199:0.117025 211:0.23405001 230:0.106819 234:0.106819 247:0.093961 299:0.096612997 330:0.038654 349:0.087357 352:0.117025 357:0.117025 363:0.25563401 420:0.16751 424:0.080604002 435:0.23405001 441:0.102939 445:0.055548001 474:0.106819 517:0.079166003 537:0.124266 572:0.096612997 577:0.124266 579:0.106819 664:0.22281601 679:0.080604002 681:0.148229 713:0.080604002 718:0.268944 775:0.124266 788:0.111408 812:0.268944 827:0.117025 892:0.124266 909:0.069909997 951:0.079166003 955:0.134472 960:0.48306501 967:0.099578001 986:0.124266 
-0.15158426442086112 77:0.232236 106:0.084039003 226:0.27016801 230:0.232236 299:0.21004701 380:0.169156 449:0.18209299 501:0.154138 503:0.24221399 508:0.25442499 543:0.25442499 574:0.28832099 664:0.24221399 720:0.37984699 736:0.25442499 785:0.216493 789:0.25442499 857:0.178561 
-0.18051899650235192 7:0.156308 17:0.078212999 61:0.14137299 72:0.18183801 245:0.171242 249:0.16302299 317:0.171242 349:0.255658 440:0.137493 449:0.245116 469:0.18183801 501:0.103743 513:0.282747 517:0.231686 554:0.092418 572:0.282747 574:0.097028002 624:0.110165 629:0.171242 638:0.16302299 664:0.16302299 674:0.19677299 681:0.108452 772:0.120181 777:0.111962 865:0.16302299 882:0.393545 905:0.16302299 951:0.115843 991:0.133982 
-0.11083474473518572 41:0.15279 134:0.13698 146:0.131338 147:0.143886 161:0.13698 179:0.048934001 198:0.13698 201:0.15279 287:0.15279 293:0.132687 302:0.15007401 306:0.12656701 309:0.083663002 310:0.13698 330:0.047527 351:0.143886 390:0.073408 393:0.131338 397:0.122434 418:0.100982 423:0.131338 440:0.115528 444:0.064503998 489:0.16533799 496:0.122434 513:0.118789 599:0.083663002 610:0.118789 624:0.092565998 642:0.25313401 664:0.27396101 670:0.15279 672:0.343826 686:0.28777301 692:0.115528 715:0.122434 724:0.131338 774:0.13698 827:0.143886 851:0.15279 896:0.15279 900:0.088434003 909:0.085956 922:0.118789 924:0.095664002 927:0.066982001 937:0.109886 951:0.097337 
-0.11749260835818177 80:0.19461501 104:0.084648997 179:0.072509997 229:0.106481 235:0.15575799 239:0.213209 294:0.226402 302:0.111189 306:0.187545 335:0.213209 419:0.48999301 501:0.129168 519:0.226402 574:0.120807 617:0.13503 672:0.127369 673:0.251277 686:0.213209 762:0.103243 827:0.213209 857:0.29926899 893:0.244996 917:0.181422 924:0.141753 
-0.10693684434725567 45:0.201608 220:0.174834 229:0.105764 258:0.180199 302:0.11044 316:0.18628199 328:0.174834 332:0.224877 416:0.148626 463:0.224877 468:0.140798 502:0.224877 514:0.13209599 554:0.114292 574:0.119993 628:0.140798 641:0.154709 686:0.21177299 719:0.201608 758:0.224877 779:0.224877 787:0.224877 805:0.11044 827:0.423545 882:0.24334601 975:0.193303 
-0.11766672489955797 1:0.162701 17:0.092552997 23:0.202638 45:0.38582501 84:0.215177 179:0.068915002 224:0.430354 227:0.23285 248:0.172427 272:0.154754 280:0.178247 286:0.167293 363:0.110663 628:0.134725 641:0.148036 687:0.128336 694:0.184966 714:0.202638 762:0.098123997 827:0.40527701 868:0.126398 920:0.192912 
-0.079903036161701094 63:0.075800002 73:0.121521 158:0.121521 250:0.110923 284:0.12904 286:0.100325 302:0.063372999 309:0.070657998 316:0.106893 380:0.080793999 385:0.24304099 396:0.106893 399:0.115688 411:0.115688 412:0.115688 458:0.110923 522:0.12904 554:0.26233399 610:0.100325 614:0.103403 644:0.080793999 664:0.115688 671:0.121521 686:0.364562 692:0.097571 705:0.12904 713:0.083701 726:0.24304099 748:0.110923 783:0.095078997 799:0.24304099 827:0.486083 857:0.085285999 882:0.13963801 912:0.100325 915:0.075800002 920:0.115688 927:0.056570001 942:0.121521 949:0.100325 953:0.095078997 
-0.091459423903760481 60:0.21316101 93:0.184852 106:0.147917 134:0.21316101 291:0.190525 309:0.130191 330:0.073959 375:0.237762 420:0.16025101 429:0.167143 466:0.17977799 474:0.20438001 615:0.237762 617:0.283611 673:0.131943 707:0.19695599 734:0.17977799 824:0.44781399 827:0.22390699 838:0.25729001 848:0.12528899 909:0.13376001 973:0.184852 
-0.112482501594744 56:0.244179 166:0.19104899 202:0.201589 421:0.445768 458:0.222884 468:0.16234399 482:0.14793099 490:0.196055 554:0.131781 599:0.14197899 697:0.214788 741:0.23246001 759:0.186479 806:0.222884 836:0.16518401 857:0.17137 920:0.464919 948:0.182275 
-0.13119227436998424 91:0.124161 130:0.16767 248:0.124161 276:0.085983999 302:0.076095 306:0.128352 342:0.124161 360:0.145916 445:0.069261998 514:0.091017 583:0.41673699 602:0.154945 634:0.154945 664:0.13891201 701:0.154945 703:0.145916 705:0.154945 717:0.61444002 724:0.13319001 797:0.154945 810:0.13891201 850:0.111436 904:0.301512 924:0.097012997 
-0.08910543060775454 99:0.30149201 150:0.239493 193:0.195858 206:0.135324 257:0.27860999 281:0.210664 444:0.117623 518:0.27860999 572:0.21661 679:0.180719 857:0.18414 886:0.60298502 983:0.249782 991:0.205286 
-0.079216427904609851 8:0.039106999 15:0.067345999 17:0.037257999 21:0.071755998 25:0.37494799 34:0.074460998 38:0.058382999 47:0.065498002 63:0.050882999 106:0.134725 107:0.15531901 123:0.086622998 137:0.093736999 151:0.081574999 163:0.086622998 187:0.16315 200:0.138826 217:0.086622998 220:0.134693 230:0.148921 241:0.074460998 245:0.16315 247:0.065498002 257:0.086622998 259:0.067345999 276:0.048069999 290:0.077660002 291:0.069412999 292:0.086622998 293:0.037613001 302:0.085083 307:0.173245 319:0.077660002 325:0.063824996 331:0.081574999 335:0.081574999 355:0.062298998 356:0.168562 368:0.081574999 380:0.054235999 405:0.093736999 424:0.112374 430:0.077660002 439:0.173245 444:0.036570001 459:0.069412999 477:0.062298998 487:0.093736999 498:0.26938501 501:0.049419999 509:0.086622998 510:0.187474 515:0.086622998 535:0.069412999 574:0.046220999 579:0.074460998 582:0.093736999 588:0.093631998 590:0.055183999 624:0.104959 628:0.054235999 640:0.077660002 654:0.081574999 664:0.077660002 673:0.048069999 678:0.062298998 681:0.206653 686:0.081574999 688:0.043517001 689:0.071755998 692:0.065498002 696:0.074460998 705:0.086622998 713:0.056187 722:0.093736999 733:0.069412999 736:0.081574999 739:0.067345999 742:0.081574999 747:0.074460998 767:0.148261 772:0.057250999 793:0.077660002 823:0.086622998 868:0.050882999 880:0.077660002 882:0.187474 890:0.086622998 930:0.055183999 937:0.062298998 973:0.067345999 997:0.050882999 
-0.14674637837205781 17:0.116551 245:0.25518101 253:0.169659 293:0.11766 363:0.139357 389:0.19965699 430:0.242934 530:0.19965699 572:0.21067201 616:0.242934 686:0.25518101 695:0.21067201 740:0.224465 743:0.54194301 808:0.169659 817:0.159172 920:0.242934 923:0.224465 
-0.067163763622257774 22:0.109178 61:0.120746 105:0.15530699 106:0.096620001 108:0.100739 133:0.092628002 197:0.104676 200:0.124451 210:0.146257 266:0.098940998 276:0.086185001 293:0.067437001 296:0.12865201 297:0.12865201 330:0.096620001 331:0.146257 342:0.124451 343:0.13350099 351:0.146257 445:0.069424003 497:0.098940998 500:0.15530699 503:0.139237 504:0.095625997 541:0.15530699 554:0.078933001 560:0.15530699 572:0.120746 617:0.092628002 624:0.18818299 657:0.19125199 664:0.139237 677:0.13350099 681:0.185256 686:0.146257 731:0.146257 733:0.124451 765:0.15530699 783:0.114433 826:0.139237 828:0.40050399 865:0.139237 867:0.168062 868:0.182459 870:0.13350099 881:0.15530699 900:0.089891002 915:0.091228999 926:0.097240001 948:0.109178 999:0.094090998 
-0.064144950975490236 1:0.34593201 8:0.103274 129:0.189493 249:0.41016701 280:0.189493 359:0.15737499 369:0.19663601 416:0.151188 541:0.228753 543:0.215423 587:0.228753 657:0.14084899 673:0.12694301 686:0.215423 771:0.24754 800:0.189493 810:0.205084 850:0.164518 882:0.24754 908:0.189493 962:0.215423 
-0.059619882346787369 104:0.080473997 123:0.21523701 167:0.172475 169:0.158591 270:0.202695 281:0.32549301 302:0.105706 330:0.066951998 334:0.302616 516:0.192967 564:0.202695 570:0.185018 673:0.119443 686:0.202695 713:0.139612 817:0.126434 857:0.14225601 859:0.178297 862:0.37003499 866:0.192967 889:0.21523701 907:0.202695 913:0.202695 948:0.151308 957:0.202695 997:0.126434 
-0.10735272169463125 63:0.081014998 179:0.044171002 200:0.110518 229:0.064865999 230:0.118554 247:0.104284 297:0.114248 302:0.067734003 328:0.32168201 330:0.042900998 342:0.110518 351:0.12988199 421:0.118554 458:0.118554 469:0.13791899 554:0.070096001 566:0.13791899 700:0.13791899 711:0.13791899 713:0.17892 748:0.47421801 773:0.55167401 790:0.114248 797:0.13791899 850:0.099189997 875:0.092956997 881:0.13791899 882:0.14924601 910:0.13791899 911:0.12988199 
-0.048861329928899924 15:0.116299 56:0.14087 94:0.087869003 131:0.086580001 179:0.047908001 193:0.105157 218:0.123913 247:0.113106 276:0.083011001 302:0.073463999 320:0.24782699 366:0.098865002 382:0.128584 444:0.063152 445:0.133734 482:0.085343003 497:0.095296003 543:0.14087 549:0.102911 583:0.13410901 621:0.70434898 623:0.13410901 686:0.14087 692:0.113106 713:0.097028002 748:0.128584 749:0.14958601 867:0.161872 891:0.28174001 912:0.116299 951:0.095296003 
-0.057377589067915853 128:0.26696599 175:0.246704 215:0.204363 255:0.33945 261:0.40872601 298:0.221177 356:0.48006901 496:0.19769 641:0.169725 710:0.26696599 805:0.12116 863:0.21206599 923:0.204363 924:0.154465 
-0.0584240912674528 79:0.237122 106:0.078323998 261:0.20858 281:0.19038799 302:0.247319 355:0.18109 356:0.163325 451:0.225741 471:0.25179499 501:0.143655 504:0.155036 574:0.13435601 584:0.166417 603:0.27247399 624:0.152548 657:0.155036 688:0.12649401 767:0.143655 812:0.27247399 848:0.13268401 857:0.166417 905:0.225741 927:0.110385 933:0.20176899 946:0.27247399 949:0.19576199 971:0.19576199 
-0.051999208112699563 93:0.11111 106:0.044454999 133:0.085235998 153:0.142913 165:0.428738 167:0.11452 179:0.045770999 213:0.13458499 265:0.11452 276:0.079306997 298:0.128125 304:0.080399998 330:0.044454999 334:0.100465 363:0.073498003 370:0.092698999 407:0.15465 429:0.100465 446:0.118385 460:0.15465 511:0.15465 539:0.105301 574:0.076256998 587:0.285826 686:0.26916999 689:0.118385 695:0.22222 707:0.118385 738:0.122848 780:0.128125 789:0.13458499 805:0.070185997 827:0.26916999 877:0.26916999 882:0.15465 900:0.082717001 927:0.062651999 950:0.285826 973:0.11111 
-0.047771494985998926 15:0.196987 63:0.14883301 94:0.14883301 106:0.078814 206:0.123065 255:0.174311 256:0.27417901 274:0.217796 343:0.217796 383:0.203032 396:0.209885 420:0.17077 423:0.217796 444:0.106967 499:0.203032 558:0.227153 586:0.322826 599:0.13873699 627:0.217796 678:0.18222199 855:0.151114 870:0.217796 910:0.25336999 938:0.227153 949:0.196987 
-0.077547159478921338 6:0.085860997 8:0.071641997 22:0.055778001 31:0.065727003 34:0.068204001 79:0.074721001 106:0.049362 149:0.074721001 151:0.074721001 159:0.44832301 179:0.025412001 193:0.055778001 245:0.074721001 247:0.059994001 250:0.068204001 260:0.16375899 262:0.048069999 276:0.088062003 277:0.079343997 284:0.079343997 296:0.065727003 318:0.36708301 323:0.055778001 355:0.057064001 363:0.040805999 380:0.049678002 397:0.063579999 414:0.074721001 419:0.085860997 445:0.070936002 495:0.068204001 504:0.24427 514:0.046608001 523:0.071134001 561:0.079343997 584:0.052439999 593:0.068204001 614:0.44506299 620:0.074721001 621:0.074721001 659:0.063579999 664:0.142268 673:0.044031002 681:0.141967 686:0.074721001 687:0.047322001 688:0.039859999 690:0.061687 691:0.068204001 712:0.079343997 728:0.074721001 738:0.068204001 745:0.065727003 762:0.036182001 777:0.048854001 789:0.074721001 827:0.149441 857:0.104881 887:0.044636998 897:0.057064001 910:0.079343997 932:0.079343997 933:0.063579999 951:0.25273699 956:0.079343997 999:0.048069999 
-0.087229680035469825 22:0.106128 38:0.203504 43:0.163367 47:0.114151 83:0.163367 87:0.32673499 106:0.093920998 133:0.090039998 142:0.142171 144:0.106128 179:0.096701004 184:0.12977199 246:0.163367 291:0.120975 302:0.074143 307:0.150968 308:0.125058 315:0.108576 363:0.15528201 378:0.142171 390:0.072532997 412:0.13534699 466:0.114151 497:0.096176997 590:0.096176997 594:0.117373 599:0.082666002 608:0.13534699 677:0.12977199 678:0.108576 686:0.28434199 688:0.075842001 739:0.117373 742:0.28434199 797:0.150968 803:0.150968 806:0.12977199 808:0.094522998 813:0.163367 819:0.096176997 827:0.142171 857:0.099777997 882:0.163367 887:0.084931999 930:0.096176997 931:0.13534699 948:0.106128 953:0.111237 964:0.094522998 966:0.150968 
-0.081683586797788504 8:0.069760002 14:0.14551599 60:0.138532 93:0.120135 106:0.048064999 124:0.167211 146:0.132825 293:0.067094997 323:0.108625 330:0.096130997 334:0.108625 361:0.14551599 376:0.14551599 396:0.128001 407:0.167211 429:0.108625 439:0.15452 445:0.069072999 446:0.128001 481:0.095141999 525:0.14551599 548:0.138532 549:0.106306 585:0.167211 596:0.138532 659:0.123821 665:0.108625 671:0.14551599 681:0.092159003 686:0.14551599 716:0.132825 734:0.35051101 738:0.132825 805:0.379435 853:0.132825 857:0.204252 859:0.128001 874:0.14551599 887:0.086929999 900:0.089435004 915:0.090768002 927:0.20322099 945:0.15452 975:0.132825 985:0.106306 999:0.093615003 
-0.061985925649145575 294:0.27129301 298:0.243221 328:0.210921 330:0.084389001 366:0.179304 428:0.25548401 443:0.27129301 494:0.233202 590:0.345662 594:0.210921 631:0.243221 673:0.15054999 686:0.25548401 748:0.233202 762:0.123714 848:0.142958 917:0.43478701 
-0.034193607438217394 68:0.38782799 131:0.119181 143:0.184607 188:0.170573 196:0.170573 228:0.170573 275:0.141662 276:0.114268 293:0.08941 306:0.34114599 309:0.112752 329:0.193914 330:0.064052001 429:0.14475299 463:0.20591301 468:0.128925 550:0.193914 572:0.160091 574:0.109874 599:0.112752 628:0.128925 631:0.184607 667:0.20591301 672:0.115843 673:0.114268 686:0.193914 743:0.20591301 808:0.128925 853:0.177002 855:0.12281 923:0.170573 945:0.20591301 
-0.038233337823467217 5:0.212679 38:0.184374 104:0.102278 135:0.235145 179:0.087610997 236:0.235145 247:0.20683999 372:0.235145 390:0.131429 410:0.29602 440:0.413681 538:0.245248 583:0.245248 686:0.25761199 762:0.124744 827:0.25761199 927:0.119923 931:0.245248 944:0.27355301 
-0.062937657366995817 34:0.22376101 104:0.19465201 154:0.22376101 174:0.281688 235:0.179085 302:0.127841 420:0.175447 438:0.281688 443:0.26030901 452:0.175447 521:0.26030901 522:0.26030901 686:0.24514 732:0.215633 810:0.233374 857:0.17204399 882:0.281688 998:0.24514 999:0.15770601 1000:0.187213 
-0.046043101664915653 8:0.056722 63:0.147605 105:0.12564 130:0.135959 210:0.354956 214:0.104077 230:0.108 242:0.12564 253:0.23599499 259:0.29304299 317:0.354956 322:0.118319 330:0.039081998 335:0.118319 349:0.088322997 387:0.090360001 435:0.118319 449:0.084680997 456:0.086437002 466:0.094999999 468:0.078665003 512:0.100679 517:0.080040999 554:0.38313299 572:0.097681001 593:0.108 653:0.11264 673:0.20916601 678:0.090360001 689:0.104077 754:0.12564 765:0.12564 777:0.077359997 785:0.100679 809:0.135959 827:0.118319 855:0.074933998 857:0.166077 909:0.070683002 927:0.055078998 973:0.195362 
-0.040106012879343171 15:0.13565201 95:0.16431101 115:0.120036 150:0.14998201 176:0.17447899 206:0.084746003 276:0.096823998 293:0.075760998 319:0.156425 323:0.122655 334:0.122655 361:0.16431101 398:0.14453401 446:0.72266799 468:0.109244 584:0.115317 665:0.122655 686:0.16431101 827:0.328623 857:0.115317 867:0.18880901 900:0.100987 927:0.07649 
-0.041627601887050704 8:0.076748997 56:0.16009501 94:0.099861003 108:0.11027 118:0.119508 133:0.101392 155:0.116956 193:0.119508 242:0.170001 300:0.16009501 302:0.083489999 317:0.16009501 346:0.14082401 366:0.112358 402:0.12854201 424:0.11027 445:0.075993001 449:0.22916 470:0.170001 501:0.29096901 574:0.27213499 587:0.170001 623:0.152411 654:0.16009501 703:0.16009501 713:0.11027 732:0.14082401 777:0.20934699 780:0.152411 808:0.21288 836:0.108302 853:0.14613301 857:0.112358 882:0.183963 891:0.320189 962:0.16009501 969:0.136226 972:0.16009501 
-0.026829265192763851 30:0.249052 190:0.17893399 229:0.108244 236:0.197836 259:0.17893399 281:0.174022 313:0.19065 363:0.236726 381:0.249052 466:0.174022 491:0.23015 551:0.249052 590:0.14662001 592:0.197836 656:0.19065 686:0.216738 730:0.216738 745:0.3813 767:0.13130599 804:0.149285 909:0.12947799 951:0.14662001 973:0.17893399 984:0.216738 
-0.03909280303624868 14:0.25692001 16:0.27281699 179:0.087375 293:0.118461 378:0.25692001 387:0.196209 390:0.13107499 393:0.46902701 501:0.15564901 530:0.20101801 574:0.145574 685:0.29522401 692:0.206284 762:0.124409 774:0.244589 823:0.27281699 857:0.18031099 868:0.160257 930:0.173803 934:0.206284 
-0.060269338713469553 47:0.188594 133:0.297519 143:0.22361401 151:0.234887 179:0.079882003 245:0.234887 304:0.14032 359:0.17159501 416:0.164849 467:0.22361401 517:0.158898 624:0.30221999 686:0.234887 743:0.249422 808:0.156166 817:0.146514 827:0.234887 857:0.164849 886:0.269907 909:0.14032 932:0.249422 937:0.17938299 991:0.183779 
-0.034886391987107558 245:0.39235801 253:0.130431 267:0.17907 273:0.208318 309:0.114069 327:0.196179 330:0.064800002 390:0.100086 416:0.13768201 459:0.166931 488:0.196179 501:0.118851 513:0.161961 561:0.208318 572:0.32392099 624:0.252415 642:0.172565 686:0.196179 783:0.153493 825:0.186763 827:0.196179 836:0.13271201 855:0.124245 882:0.225427 887:0.117196 905:0.186763 951:0.13271201 963:0.186763 
-0.035374816322114908 101:0.226487 159:0.226487 235:0.16545799 250:0.206734 264:0.19922499 293:0.104429 295:0.215616 318:0.158953 322:0.226487 384:0.240501 402:0.181849 482:0.13721199 542:0.172967 572:0.18698201 669:0.215616 686:0.45297301 737:0.19922499 759:0.172967 861:0.226487 927:0.105434 937:0.172967 964:0.150581 975:0.206734 
-0.031955106775678664 179:0.108412 188:0.140203 224:0.16925099 229:0.079602003 248:0.135625 258:0.135625 280:0.140203 302:0.166243 303:0.31877601 359:0.11644 431:0.140203 483:0.135625 495:0.14548799 499:0.135625 541:0.33850199 588:0.091472998 628:0.10597 666:0.135625 686:0.478165 687:0.100944 724:0.14548799 733:0.135625 762:0.077180997 767:0.28968501 826:0.30347601 827:0.15938801 885:0.135625 
-0.032260190710271933 1:0.39473701 22:0.061165001 41:0.087008998 45:0.078005999 129:0.072076 146:0.074791998 170:0.049640998 200:0.069721997 230:0.074791998 249:0.312022 258:0.069721997 262:0.052712999 286:0.067645997 302:0.085461996 304:0.048948999 316:0.072076 323:0.061165001 336:0.188309 339:0.078005999 371:0.078005999 420:0.058642998 445:0.038894001 468:0.054476999 514:0.051109999 532:0.087008998 554:0.088443004 570:0.074791998 588:0.047024999 629:0.081937999 646:0.058642998 651:0.087008998 664:0.156011 686:0.24581499 717:0.057505999 765:0.087008998 767:0.099280998 771:0.47077301 794:0.094154999 796:0.072076 808:0.054476999 816:0.087008998 821:0.094154999 827:0.32775301 845:0.078005999 850:0.062576003 857:0.115012 877:0.081937999 892:0.087008998 905:0.156011 910:0.087008998 934:0.065788999 948:0.061165001 976:0.174017 
-0.027072785931757812 179:0.061949998 220:0.150387 260:0.133075 286:0.150387 288:0.18216 302:0.094997004 310:0.173417 316:0.160234 363:0.19895899 377:0.18216 507:0.209318 552:0.18216 554:0.19662 573:0.209318 578:0.160234 593:0.166273 618:0.209318 625:0.166273 628:0.12111 686:0.18216 691:0.166273 726:0.18216 732:0.160234 761:0.193431 762:0.088207997 787:0.193431 792:0.209318 827:0.18216 850:0.13911501 899:0.193431 912:0.150387 915:0.113624 925:0.18216 934:0.14625899 945:0.193431 
-0.070153418610656118 54:0.16375899 89:0.075664997 106:0.023536 164:0.16375899 195:0.065040998 223:0.15132999 230:0.065040998 233:0.075664997 254:0.075664997 276:0.041988999 282:0.16375899 300:0.14251199 302:0.037160002 309:0.041432001 330:0.023536 334:0.053190999 393:0.065040998 402:0.057211999 441:0.062679 446:0.062679 468:0.047375001 481:0.046588998 499:0.060632002 504:0.046588998 506:0.062679 509:0.075664997 526:0.15132999 557:0.065040998 583:0.067836002 595:0.081878997 599:0.041432001 616:0.067836002 617:0.090255998 637:0.075664997 673:0.37790301 686:0.427535 739:0.058827002 745:0.062679 754:0.15132999 772:0.050009001 796:0.25071499 826:0.067836002 827:0.21376701 839:0.075664997 853:0.065040998 857:0.50008798 868:0.044447001 905:0.067836002 915:0.044447001 927:0.066342004 949:0.058827002 
-0.038048671699180685 106:0.139677 130:0.242956 191:0.224516 304:0.12630799 342:0.179911 351:0.21143299 416:0.148388 468:0.14057299 492:0.21143299 530:0.165428 583:0.201285 590:0.28606299 624:0.136021 664:0.201285 668:0.224516 728:0.21143299 736:0.21143299 739:0.17455401 817:0.13188399 881:0.224516 904:0.145631 913:0.21143299 984:0.42286599 
-0.064152712442054449 21:0.63347697 104:0.095307 154:0.219119 206:0.123812 236:0.219119 291:0.204264 356:0.165345 363:0.13109601 364:0.21115901 475:0.187822 572:0.198183 624:0.154434 640:0.228532 644:0.159602 665:0.179196 673:0.141458 679:0.165345 767:0.145431 857:0.168475 887:0.143406 900:0.147539 
-0.026030451826804232 38:0.12561101 80:0.160201 94:0.109475 135:0.480602 179:0.119376 202:0.28978899 287:0.18636701 309:0.204098 318:0.123174 417:0.167083 430:0.167083 431:0.15438201 537:0.18636701 607:0.334167 666:0.149341 759:0.13403399 805:0.091527 819:0.118728 827:0.17550699 846:0.160201 857:0.123174 882:0.201673 900:0.107868 917:0.29868099 927:0.081702001 948:0.13101301 
-0.024291562758857174 9:0.193872 19:0.209795 179:0.062091999 229:0.182364 242:0.193872 244:0.173812 247:0.14659201 293:0.084182002 311:0.209795 330:0.060306001 429:0.136289 435:0.182575 453:0.16665199 456:0.133379 465:0.16665199 477:0.278864 481:0.358116 523:0.173812 537:0.193872 594:0.15073 686:0.36515 762:0.088408999 785:0.15535501 786:0.193872 882:0.209795 909:0.21813799 927:0.084991999 999:0.117456 
-0.027659604375128332 12:0.128508 17:0.051079001 22:0.25044799 30:0.128508 96:0.257016 104:0.044401001 106:0.036940001 162:0.196747 179:0.038034 200:0.095160998 229:0.055853002 230:0.102081 248:0.095160998 253:0.074354 255:0.081699997 262:0.071947001 272:0.085408002 282:0.128508 293:0.051564999 301:0.128508 366:0.078488 384:0.118755 397:0.095160998 411:0.106467 423:0.204163 424:0.077030003 445:0.10617 453:0.102081 462:0.106467 465:0.102081 468:0.074354 470:0.118755 491:0.118755 517:0.37827301 646:0.08004 654:0.111835 656:0.098373003 657:0.073119998 658:0.111835 664:0.319401 681:0.070827998 686:0.111835 687:0.070827998 727:0.111835 800:0.098373003 804:0.077030003 805:0.058322001 827:0.22366901 857:0.078488 882:0.128508 892:0.118755 920:0.106467 921:0.118755 927:0.052060999 948:0.25044799 958:0.106467 
-0.027859233789623399 63:0.118692 67:0.145319 117:0.15278099 229:0.095031999 243:0.43730599 266:0.12872399 278:0.190284 290:0.181151 349:0.14204299 381:0.21865299 444:0.170609 464:0.202058 514:0.118692 517:0.25744799 651:0.202058 657:0.124412 687:0.120511 699:0.16737901 743:0.202058 815:0.17368899 827:0.38056701 871:0.16737901 905:0.181151 926:0.12651099 937:0.145319 973:0.157094 
-0.014358577141651164 2:0.185064 56:0.161052 106:0.053197 179:0.054772001 229:0.080433004 238:0.147007 260:0.235311 290:0.153322 294:0.171018 328:0.26592201 330:0.106394 377:0.161052 380:0.107077 414:0.161052 423:0.147007 473:0.093644001 481:0.1053 522:0.171018 523:0.153322 566:0.171018 579:0.147007 663:0.153322 687:0.101998 721:0.132961 762:0.077987 769:0.161052 800:0.42500001 882:0.185064 883:0.161052 920:0.153322 932:0.171018 948:0.120223 968:0.29401299 986:0.171018 
-0.012965224396233909 103:0.228065 117:0.20817401 304:0.15488701 309:0.150755 420:0.371124 519:0.275316 560:0.275316 588:0.148798 720:0.193542 732:0.45612901 760:0.228065 838:0.29792801 909:0.15488701 927:0.120696 966:0.275316 973:0.21404999 
-0.018317964898969346 8:0.064990997 15:0.111921 56:0.13556699 78:0.14395601 106:0.089559004 113:0.14395601 166:0.21213999 193:0.101199 203:0.155779 206:0.069921002 209:0.115356 226:0.14395601 253:0.090132996 261:0.476998 266:0.091709003 297:0.119249 304:0.080986999 319:0.129061 328:0.223842 363:0.074034996 366:0.095144004 369:0.123744 380:0.090132996 382:0.123744 420:0.097025998 443:0.14395601 468:0.090132996 492:0.13556699 561:0.14395601 583:0.129061 609:0.13556699 624:0.174429 679:0.093376003 686:0.271135 733:0.115356 747:0.123744 790:0.119249 827:0.271135 857:0.19028801 905:0.129061 909:0.080986999 991:0.10607 
-0.015308703529361416 26:0.16177 63:0.100906 133:0.102453 144:0.120759 151:0.16177 162:0.142298 229:0.080792002 296:0.142298 306:0.142298 372:0.295324 389:0.126571 423:0.147662 429:0.120759 445:0.076788001 499:0.13765199 508:0.32354099 549:0.11818 574:0.183322 590:0.109435 593:0.147662 627:0.147662 658:0.16177 659:0.13765199 664:0.154006 677:0.147662 679:0.111424 686:0.32354099 694:0.295324 819:0.109435 827:0.16177 857:0.340601 938:0.154006 
-0.0089544852920179063 8:0.084059 49:0.18619099 63:0.109371 85:0.201483 95:0.175341 179:0.059632 190:0.144757 194:0.166926 298:0.166926 304:0.104747 318:0.123058 323:0.130889 355:0.133908 445:0.16645899 451:0.166926 466:0.140784 504:0.114642 514:0.109371 523:0.166926 588:0.100629 592:0.16004901 625:0.16004901 629:0.175341 663:0.33385101 688:0.093537003 691:0.16004901 762:0.084905997 777:0.114642 784:0.175341 797:0.18619099 800:0.154236 819:0.118616 827:0.175341 857:0.123058 865:0.166926 880:0.166926 882:0.201483 887:0.104747 945:0.18619099 947:0.154236 951:0.118616 1000:0.133908 
-0.018702487907484782 21:0.36968601 25:0.241466 101:0.21013699 276:0.123828 291:0.178808 330:0.069410004 356:0.28947601 363:0.114758 390:0.107208 439:0.22314 444:0.094205 498:0.173484 574:0.119066 584:0.147478 624:0.135187 681:0.133085 686:0.42027399 690:0.173484 713:0.144738 756:0.22314 808:0.13971099 827:0.21013699 932:0.22314 934:0.168722 951:0.14215501 
-0.017636696731531315 106:0.062027998 154:0.17141099 172:0.150778 229:0.093786001 247:0.150778 259:0.310067 292:0.39881599 302:0.19586401 328:0.15503301 364:0.16518401 370:0.129345 384:0.19940799 387:0.14341301 390:0.095806003 445:0.089138001 487:0.215786 497:0.12703601 498:0.310067 588:0.215545 686:0.18778799 716:0.17141099 722:0.215786 796:0.16518401 827:0.18778799 849:0.15979099 857:0.13179401 868:0.117135 878:0.15503301 915:0.117135 
-0.013827378606771122 57:0.152318 63:0.118332 112:0.60433602 145:0.21799 179:0.064516999 255:0.13858899 272:0.144879 420:0.135773 452:0.135773 471:0.201445 552:0.189707 588:0.108873 678:0.144879 686:0.37941301 689:0.16687199 703:0.189707 827:0.189707 856:0.13314 857:0.26628 927:0.088312 929:0.13858899 
-0.0082250396851056753 35:0.107882 38:0.072711997 48:0.489434 70:0.089365996 104:0.040336002 106:0.067116 109:0.116742 148:0.116742 177:0.101595 194:0.096718997 229:0.101478 248:0.086448997 257:0.107882 286:0.083875 290:0.096718997 297:0.089365996 307:0.107882 312:0.116742 314:0.107882 349:0.075838998 357:0.101595 366:0.071301997 377:0.101595 396:0.089365996 397:0.086448997 413:0.081572004 426:0.203191 444:0.045545001 447:0.116742 503:0.096718997 544:0.107882 552:0.203191 558:0.096718997 574:0.057565 577:0.107882 581:0.086448997 586:0.068728 594:0.083875 631:0.096718997 656:0.26809901 666:0.086448997 671:0.101595 684:0.101595 686:0.101595 687:0.128685 703:0.203191 713:0.069977 730:0.101595 731:0.101595 745:0.089365996 769:0.101595 792:0.116742 800:0.089365996 804:0.139954 819:0.068728 827:0.101595 833:0.107882 848:0.056848999 855:0.064342998 870:0.092735 874:0.101595 878:0.083875 897:0.077587999 909:0.060692001 916:0.074220002 942:0.101595 945:0.107882 971:0.083875 975:0.092735 
-0.0082256329625742634 7:0.16005599 27:0.201491 49:0.186198 104:0.13923401 193:0.13089401 202:0.14476299 302:0.091444999 304:0.104752 335:0.175348 371:0.166932 393:0.16005599 410:0.201491 423:0.16005599 468:0.116581 496:0.149206 545:0.201491 586:0.118621 588:0.100633 646:0.125497 671:0.175348 767:0.106231 784:0.175348 832:0.133913 852:0.201491 901:0.50079602 910:0.186198 944:0.37239701 
-0.0043814240912445407 106:0.085372999 248:0.21992999 255:0.18881901 293:0.119173 309:0.15028401 330:0.085372999 343:0.23592301 449:0.184983 501:0.15658499 514:0.16122 574:0.146449 664:0.246059 717:0.18139499 720:0.192939 762:0.125157 767:0.15658499 805:0.13479 819:0.34969401 837:0.23592301 868:0.16122 870:0.23592301 927:0.12032 930:0.17484701 948:0.192939 953:0.202226 980:0.23592301 988:0.27445701 
-0.0085860365235476618 166:0.151388 179:0.065802999 197:0.13847999 229:0.19326501 304:0.115588 305:0.176614 356:0.13327099 387:0.14776701 398:0.17019901 404:0.22233599 416:0.135794 424:0.13327099 434:0.17019901 494:0.176614 553:0.193488 554:0.208848 599:0.112504 672:0.115588 679:0.13327099 690:0.159739 742:0.193488 764:0.17019901 790:0.17019901 836:0.13089199 857:0.271588 863:0.176614 884:0.176614 900:0.35675901 923:0.17019901 973:0.31947899 
-0.0052928943982343346 8:0.035491001 10:0.078613997 70:0.065122001 151:0.074033 178:0.078613997 185:0.078613997 199:0.074033 201:0.078613997 226:0.31445599 230:0.067575999 240:0.078613997 248:0.125991 253:0.049221002 264:0.065122001 272:0.113078 290:0.070479997 302:0.038608 323:0.055264 330:0.073362 348:0.085070997 352:0.074033 357:0.074033 363:0.040429998 385:0.074033 395:0.065122001 402:0.059441999 420:0.31791401 428:0.074033 429:0.055264 435:0.074033 454:0.078613997 456:0.054083999 461:0.074033 510:0.085070997 517:0.050082002 527:0.06112 535:0.125991 552:0.074033 553:0.296132 572:0.06112 579:0.067575999 581:0.062995002 588:0.042488001 590:0.050082002 594:0.12224 596:0.070479997 617:0.046886999 636:0.085070997 641:0.054083999 672:0.044227 677:0.067575999 687:0.140661 690:0.06112 699:0.065122001 703:0.074033 717:0.155874 718:0.085070997 726:0.074033 748:0.067575999 765:0.15722799 775:0.235842 812:0.085070997 827:0.074033 848:0.041425999 857:0.103916 874:0.074033 916:0.108168 920:0.14095999 945:0.15722799 951:0.050082002 955:0.085070997 960:0.42783901 985:0.054083999 999:0.142883 
-0.0033373687378318272 63:0.045317002 179:0.024707999 201:0.077147 206:0.037471 220:0.059978999 229:0.072567999 247:0.174999 253:0.096606001 259:0.059978999 291:0.06182 310:0.760809 320:0.31953299 323:0.108466 387:0.055484001 396:0.063906997 441:0.127813 549:0.10615 572:0.059978999 580:0.119959 628:0.144908 631:0.069164 634:0.077147 672:0.043400999 673:0.085623004 686:0.145303 690:0.119959 738:0.066315003 745:0.063906997 762:0.035179999 786:0.154294 797:0.077147 819:0.049148001 836:0.049148001 849:0.06182 850:0.055484001 857:0.15296499 860:0.072650999 866:0.069164 912:0.059978999 963:0.069164 968:0.066315003 973:0.119959 
-0.0034583197658718456 107:0.193939 229:0.101741 250:0.18595 309:0.118451 315:0.155578 390:0.103932 435:0.407433 438:0.234089 459:0.173344 498:0.168183 521:0.216322 671:0.407433 686:0.407433 705:0.216322 717:0.14297201 887:0.121698 947:0.35839099 
-0.0020674122539199383 104:0.111332 107:0.13348 115:0.20485801 133:0.088798001 134:0.13348 139:0.16111401 210:0.14021 222:0.148886 230:0.12798201 293:0.064648002 300:0.14021 359:0.102429 440:0.112576 456:0.102429 462:0.66740102 537:0.148886 552:0.14021 599:0.081524998 664:0.13348 673:0.165244 686:0.28041899 699:0.123333 717:0.098402001 736:0.14021 800:0.123333 804:0.096574001 844:0.148886 917:0.119306 927:0.065269999 971:0.115754 992:0.14021 
-0.002848490846027691 1:0.28951699 23:0.180292 45:0.171638 118:0.13458399 133:0.114183 186:0.171638 228:0.15859 229:0.090042002 238:0.16456801 275:0.13170999 302:0.094022997 346:0.15859 375:0.191448 380:0.119868 387:0.137688 390:0.091981001 420:0.129035 423:0.16456801 445:0.085579 485:0.15859 517:0.121965 574:0.102155 624:0.115987 628:0.119868 641:0.13170999 681:0.114183 686:0.180292 687:0.114183 719:0.171638 765:0.191448 767:0.109226 774:0.171638 827:0.180292 857:0.25306401 867:0.20717099 975:0.32913601 978:0.20717099 
