SVM-light Version V3.50
0 # kernel type
1 # kernel parameter -d 
1 # kernel parameter -g 
1 # kernel parameter -s 
0 # kernel parameter -r 
EmptyParam # kernel parameter -u 
1000 # highest feature index 
418 # number of training documents 
122 # number of support vectors plus 1 
1.0563994 # threshold b 
0.99999993212504223 119:0.088132001 131:0.054166999 179:0.059946001 231:0.065788999 237:0.187172 243:0.30381599 247:0.141525 248:0.074992999 260:0.128769 267:0.080445997 286:0.072760001 288:0.088132001 299:0.072760001 318:0.061852999 323:0.065788999 355:0.067307003 370:0.060704 389:0.068956003 397:0.074992999 399:0.083902001 402:0.070762999 418:0.247412 420:0.063075997 423:0.080445997 424:0.060704 459:0.074992999 482:0.053392999 501:0.106786 525:0.088132001 534:0.093585998 590:0.05962 592:0.080445997 599:0.051245 614:0.074992999 625:0.321785 663:0.083902001 673:0.103868 680:0.088132001 686:0.176265 692:0.070762999 702:0.088132001 729:0.101272 736:0.264397 737:0.232572 739:0.072760001 742:0.176265 748:0.241339 750:0.101272 777:0.057622999 781:0.088132001 785:0.074992999 800:0.077523999 808:0.058595002 827:0.264397 850:0.13461301 857:0.185559 882:0.101272 887:0.052650001 893:0.101272 912:0.072760001 929:0.128769 949:0.072760001 951:0.05962 964:0.058595002 
-0.48363844405932266 10:0.152234 24:0.115108 104:0.056917999 106:0.094708003 131:0.088111997 170:0.086852998 227:0.164737 229:0.071598999 253:0.095316 276:0.16896001 304:0.085643999 312:0.164737 314:0.30446801 328:0.118357 335:0.143363 342:0.121989 355:0.109486 363:0.078291997 373:0.143363 418:0.100615 427:0.152234 447:0.164737 456:0.104733 535:0.121989 554:0.077372 572:0.118357 586:0.096983001 588:0.082277 592:0.13086 612:0.164737 618:0.164737 652:0.121989 666:0.121989 686:0.143363 703:0.143363 732:0.12610701 739:0.118357 753:0.143363 767:0.086852998 787:0.152234 789:0.143363 800:0.252213 808:0.095316 812:0.164737 834:0.143363 870:0.13086 887:0.085643999 897:0.109486 909:0.085643999 917:0.121989 920:0.136482 931:0.136482 934:0.115108 945:0.152234 996:0.152234 999:0.09223 
-0.098624655213540968 38:0.158994 63:0.138569 104:0.088198997 125:0.195411 131:0.136536 186:0.21148901 207:0.235897 234:0.202777 254:0.235897 270:0.222151 286:0.183403 330:0.073379003 338:0.183403 349:0.165832 402:0.178368 473:0.12917 517:0.150282 592:0.202777 599:0.12917 653:0.21148901 678:0.16965599 681:0.14069299 687:0.14069299 732:0.195411 736:0.222151 819:0.150282 836:0.150282 848:0.124307 857:0.15591 909:0.13271099 956:0.235897 985:0.16229101 991:0.173814 
-0.063846722467216149 47:0.188594 133:0.297519 143:0.22361401 151:0.234887 179:0.079882003 245:0.234887 304:0.14032 359:0.17159501 416:0.164849 467:0.22361401 517:0.158898 624:0.30221999 686:0.234887 743:0.249422 808:0.156166 817:0.146514 827:0.234887 857:0.164849 886:0.269907 909:0.14032 932:0.249422 937:0.17938299 991:0.183779 
-0.99999993212504223 8:0.048043001 48:0.241392 56:0.100215 106:0.033101998 117:0.080463998 124:0.115156 135:0.091475002 179:0.034081999 194:0.095404997 260:0.146422 286:0.082735002 351:0.20043001 375:0.53207999 468:0.066629 483:0.085274003 496:0.085274003 517:0.067794003 527:0.082735002 541:0.106416 552:0.100215 570:0.091475002 617:0.063468002 644:0.066629 672:0.059868 686:0.20043001 703:0.100215 705:0.106416 713:0.069026001 769:0.30064499 784:0.100215 799:0.50107503 805:0.104525 827:0.100215 857:0.070332997 900:0.061593 985:0.073210999 994:0.115156 
0.017106875518718798 2:0.26549101 10:0.122671 85:0.132745 106:0.114474 117:0.092753999 119:0.115522 158:0.115522 193:0.086235002 208:0.115522 260:0.25318101 262:0.074318998 265:0.098298997 290:0.109978 293:0.053265002 297:0.101617 304:0.069012001 318:0.16215201 352:0.115522 353:0.109978 414:0.23104499 417:0.109978 465:0.105447 473:0.134341 475:0.090386003 501:0.069986999 503:0.109978 514:0.072058 541:0.122671 554:0.124692 578:0.101617 583:0.109978 614:0.29489699 617:0.073163003 625:0.105447 628:0.076806001 651:0.122671 686:0.346567 732:0.101617 748:0.105447 790:0.101617 799:0.115522 800:0.203234 804:0.079568997 827:0.23104499 836:0.078148998 848:0.064641997 875:0.082679003 912:0.190745 968:0.210895 
0.63728303398195307 8:0.072803997 22:0.113364 119:0.15186501 133:0.096179001 248:0.129223 260:0.33283001 262:0.097699001 280:0.13358501 297:0.13358501 309:0.176604 326:0.15186501 353:0.144576 371:0.144576 488:0.303729 496:0.129223 554:0.08196 599:0.088302001 614:0.25844601 631:0.144576 642:0.13358501 650:0.13862 664:0.144576 666:0.129223 686:0.303729 687:0.096179001 761:0.16126201 784:0.15186501 790:0.13358501 801:0.17450599 804:0.104601 819:0.102734 850:0.231958 857:0.213163 868:0.094727002 882:0.17450599 933:0.129223 943:0.13862 
0.99999993212504223 8:0.107028 17:0.101968 104:0.088636003 106:0.073743001 254:0.237068 260:0.163096 272:0.170498 280:0.196381 323:0.166655 330:0.073743001 394:0.237068 440:0.179253 522:0.237068 526:0.237068 554:0.120488 578:0.196381 625:0.20378301 694:0.20378301 761:0.237068 800:0.196381 814:0.237068 817:0.139257 819:0.15102801 866:0.212538 873:0.237068 882:0.25653899 932:0.237068 948:0.166655 
0.99999993212504223 179:0.061949998 220:0.150387 260:0.133075 286:0.150387 288:0.18216 302:0.094997004 310:0.173417 316:0.160234 363:0.19895899 377:0.18216 507:0.209318 552:0.18216 554:0.19662 573:0.209318 578:0.160234 593:0.166273 618:0.209318 625:0.166273 628:0.12111 686:0.18216 691:0.166273 726:0.18216 732:0.160234 761:0.193431 762:0.088207997 787:0.193431 792:0.209318 827:0.18216 850:0.13911501 899:0.193431 912:0.150387 915:0.113624 925:0.18216 934:0.14625899 945:0.193431 
0.99999993212504223 5:0.079141997 106:0.031665001 119:0.479316 158:0.191726 166:0.075005002 179:0.032602001 214:0.25297299 238:0.087503001 247:0.076970004 260:0.070032001 265:0.24471299 269:0.110155 285:0.175006 318:0.067279004 353:0.091261998 356:0.066028997 388:0.110155 402:0.076970004 419:0.110155 468:0.063735001 482:0.058077 507:0.110155 522:0.101795 554:0.051736001 570:0.175006 574:0.108634 579:0.087503001 590:0.064850003 614:0.163142 617:0.060711998 625:0.087503001 631:0.091261998 686:0.191726 687:0.060711998 695:0.237427 705:0.101795 713:0.066028997 748:0.087503001 750:0.110155 762:0.04642 769:0.095863 773:0.101795 799:0.191726 804:0.132057 805:0.049993001 827:0.191726 848:0.053640999 850:0.073210999 857:0.13455699 877:0.095863 882:0.110155 905:0.091261998 920:0.182524 945:0.101795 975:0.087503001 
-0.22295764425874764 7:0.108987 41:0.126789 106:0.039439 147:0.1194 179:0.040607002 181:0.13720199 183:0.108987 286:0.098573998 288:0.238801 293:0.055052999 302:0.062268 315:0.091186002 326:0.238801 330:0.078878 336:0.13720199 340:0.13720199 355:0.091186002 371:0.11367 380:0.079383999 390:0.060915999 397:0.101599 402:0.095867999 413:0.095867999 416:0.083797999 423:0.21797501 440:0.095867999 442:0.108987 444:0.053527001 445:0.056676 451:0.11367 479:0.11367 481:0.078066997 497:0.080773003 501:0.14467201 513:0.098573998 554:0.064438999 567:0.126789 580:0.098573998 590:0.080773003 594:0.098573998 606:0.1194 642:0.31508499 650:0.108987 672:0.142658 686:0.1194 703:0.1194 717:0.083797999 736:0.1194 739:0.197148 745:0.105028 781:0.1194 801:0.13720199 827:0.1194 831:0.1194 833:0.126789 850:0.091186002 855:0.075618997 867:0.13720199 875:0.085455 882:0.27440399 900:0.073384002 927:0.055583 951:0.080773003 969:0.101599 975:0.108987 1000:0.091186002 
-0.41693854023305366 8:0.081243001 129:0.149069 159:0.169467 235:0.123803 247:0.136068 254:0.17995401 262:0.109023 272:0.12942199 326:0.169467 337:0.16133399 349:0.379513 382:0.154688 440:0.136068 444:0.075971998 451:0.16133399 475:0.132594 517:0.229285 526:0.17995401 570:0.154688 584:0.118936 617:0.107328 686:0.169467 693:0.17995401 694:0.154688 695:0.279816 781:0.169467 827:0.33893499 857:0.118936 865:0.16133399 873:0.17995401 887:0.101238 912:0.139908 951:0.114642 
-0.26013201696390714 5:0.1095 17:0.020192999 18:0.044211 106:0.014603 108:0.030452 116:0.046946999 123:0.046946999 131:0.027172999 167:0.037620001 169:0.034591999 179:0.045107 200:0.15048 205:0.050802998 206:0.022802999 212:0.046946999 231:0.066005997 238:0.161422 247:0.035498001 251:0.044211 258:0.037620001 265:0.037620001 293:0.020385001 294:0.14084101 297:0.350007 298:0.042089 302:0.046112999 306:0.077779002 309:0.025707001 328:0.36499801 339:0.126268 351:0.221057 363:0.024143999 377:0.044211 380:0.029394001 383:0.075240001 384:0.046946999 389:0.069182999 396:0.03889 402:0.070996001 420:0.031642001 423:0.040355999 425:0.093893997 428:0.132634 429:0.033002999 440:0.035498001 444:0.019819999 451:0.042089 452:0.031642001 453:0.040355999 466:0.035498001 468:0.058788002 473:0.025707001 481:0.028906001 482:0.026784001 512:0.037620001 525:0.044211 574:0.050101001 579:0.121067 588:0.025373001 590:0.089725003 593:0.121067 603:0.050802998 605:0.046946999 617:0.083999999 627:0.040355999 631:0.042089 643:0.32863 651:0.046946999 658:0.044211 659:0.15048 664:0.042089 666:0.037620001 673:0.026053 679:0.030452 683:0.093893997 686:0.221057 695:0.145999 700:0.046946999 705:0.046946999 706:0.064595997 721:0.036499999 736:0.044211 748:0.161422 762:0.14985999 765:0.093893997 777:0.028906001 779:0.046946999 782:0.093893997 790:0.233338 814:0.046946999 817:0.055155002 827:0.044211 842:0.046946999 845:0.042089 850:0.067528002 855:0.028000001 857:0.186171 882:0.050802998 885:0.037620001 896:0.046946999 900:0.027172999 907:0.044211 909:0.026411001 915:0.027577 920:0.042089 924:0.029394001 934:0.035498001 943:0.080711 948:0.033002999 953:0.034591999 954:0.036499999 956:0.046946999 982:0.046946999 
-0.030551116899994363 15:0.112987 106:0.045205999 179:0.046544001 183:0.124923 190:0.112987 211:0.136859 214:0.120385 220:0.112987 222:0.145327 253:0.090992004 275:0.099981003 298:0.13029 306:0.48154199 329:0.136859 363:0.22422101 365:0.157263 402:0.109886 423:0.249846 451:0.13029 454:0.145327 468:0.090992004 471:0.145327 496:0.116455 543:0.136859 575:0.13029 577:0.145327 602:0.145327 641:0.099981003 658:0.136859 659:0.34936401 673:0.080646999 686:0.136859 743:0.145327 777:0.089482002 872:0.136859 887:0.081758 916:0.099981003 945:0.145327 957:0.136859 960:0.112987 
-0.22172279517009058 68:0.080605999 79:0.080605999 91:0.068588004 106:0.026625 108:0.055520002 115:0.058885999 117:0.064719997 118:0.060171001 166:0.063066997 179:0.027412999 183:0.073576003 197:0.115379 207:0.25678101 210:0.080605999 228:0.070903003 257:0.085593998 287:0.085593998 290:0.153474 297:0.070903003 299:0.066546001 305:0.073576003 306:0.070903003 311:0.092623003 315:0.061558001 321:0.085593998 323:0.060171001 329:0.080605999 335:0.080605999 356:0.166559 360:0.080605999 366:0.056570999 368:0.080605999 398:0.070903003 412:0.076737002 430:0.076737002 444:0.072270997 445:0.038261 466:0.064719997 475:0.063066997 479:0.230211 481:0.052701999 497:0.054529 502:0.085593998 503:0.076737002 504:0.105404 518:0.085593998 523:0.076737002 542:0.061558001 548:0.153474 554:0.043501999 579:0.073576003 583:0.076737002 609:0.080605999 617:0.05105 629:0.080605999 660:0.092623003 667:0.085593998 673:0.047499001 677:0.073576003 686:0.32242301 690:0.066546001 691:0.073576003 726:0.080605999 733:0.068588004 758:0.085593998 767:0.048833001 797:0.085593998 800:0.070903003 808:0.053591002 813:0.092623003 823:0.085593998 827:0.161212 853:0.073576003 882:0.463117 890:0.171187 902:0.085593998 920:0.076737002 941:0.092623003 949:0.133092 953:0.063066997 991:0.189201 
0.99999993212504223 85:0.071523003 163:0.13218901 179:0.042335998 208:0.124486 229:0.062171001 238:0.056814998 260:0.13641401 262:0.040043 282:0.071523003 286:0.051385999 297:0.054751001 307:0.13218901 309:0.036191002 311:0.071523003 323:0.046463002 328:0.102773 330:0.041119002 337:0.118511 342:0.052963 352:0.062243 357:0.062243 370:0.042872 375:0.13218901 377:0.062243 399:0.118511 417:0.059255999 420:0.044548001 444:0.027904 448:0.062243 462:0.059255999 465:0.056814998 468:0.041382998 505:0.124486 522:0.066095002 527:0.051385999 538:0.118511 566:0.13218901 583:0.35553399 594:0.051385999 644:0.041382998 650:0.11363 663:0.118511 673:0.073357001 679:0.042872 686:0.248973 687:0.078840002 702:0.18673 703:0.062243 705:0.13218901 717:0.043683998 732:0.164253 769:0.311216 782:0.066095002 799:0.18673 800:0.383257 801:0.14304601 804:0.042872 820:0.124486 836:0.042107001 861:0.062243 882:0.071523003 920:0.059255999 925:0.062243 931:0.059255999 942:0.124486 945:0.26437899 968:0.056814998 
0.99999993212504223 196:0.176425 198:0.19093999 244:0.19093999 248:0.34132901 304:0.119817 318:0.281524 323:0.149719 329:0.20056701 369:0.183075 398:0.176425 475:0.15692601 522:0.21297701 523:0.19093999 588:0.230212 614:0.170664 675:0.20056701 690:0.165583 759:0.153172 785:0.170664 805:0.104596 857:0.140762 858:0.183075 900:0.12327 902:0.21297701 927:0.186735 949:0.165583 969:0.170664 995:0.183075 
0.99999993212504223 17:0.069817998 133:0.096812002 151:0.152863 229:0.076343 238:0.139531 239:0.152863 260:0.111673 264:0.134463 276:0.090078004 281:0.122736 293:0.140965 299:0.12620001 320:0.134463 330:0.151476 369:0.139531 373:0.152863 380:0.101632 390:0.155975 393:0.139531 402:0.122736 434:0.134463 435:0.152863 445:0.072559997 459:0.130072 481:0.099945001 490:0.122736 505:0.152863 580:0.12620001 625:0.139531 643:0.162322 651:0.162322 672:0.091319002 673:0.090078004 686:0.30572599 703:0.152863 708:0.162322 715:0.130072 752:0.139531 769:0.152863 781:0.152863 849:0.26014501 857:0.107282 928:0.175653 934:0.122736 942:0.30572599 999:0.098341003 
0.99999993212504223 8:0.076637998 49:0.169754 63:0.099716 106:0.052804001 131:0.098251998 140:0.169754 177:0.159862 202:0.26395601 217:0.169754 230:0.14591999 235:0.116786 260:0.116786 293:0.073710002 329:0.159862 330:0.052804001 379:0.169754 418:0.112194 505:0.159862 522:0.169754 539:0.12507799 588:0.091744997 607:0.304378 625:0.29183999 663:0.152189 686:0.159862 713:0.11011 753:0.159862 783:0.12507799 784:0.31972399 797:0.169754 834:0.159862 855:0.101244 882:0.183696 887:0.0955 909:0.0955 944:0.169754 948:0.119334 960:0.13197801 964:0.106285 973:0.13197801 
0.99999993212504223 8:0.084059 49:0.18619099 63:0.109371 85:0.201483 95:0.175341 179:0.059632 190:0.144757 194:0.166926 298:0.166926 304:0.104747 318:0.123058 323:0.130889 355:0.133908 445:0.16645899 451:0.166926 466:0.140784 504:0.114642 514:0.109371 523:0.166926 588:0.100629 592:0.16004901 625:0.16004901 629:0.175341 663:0.33385101 688:0.093537003 691:0.16004901 762:0.084905997 777:0.114642 784:0.175341 797:0.18619099 800:0.154236 819:0.118616 827:0.175341 857:0.123058 865:0.166926 880:0.166926 882:0.201483 887:0.104747 945:0.18619099 947:0.154236 951:0.118616 1000:0.133908 
-0.99999993212504223 5:0.197833 48:0.19240201 208:0.23963 293:0.110489 302:0.124968 367:0.23963 495:0.218732 506:0.210786 578:0.210786 651:0.25445801 663:0.228129 702:0.23963 767:0.145175 800:0.210786 810:0.228129 857:0.336355 882:0.27535701 894:0.23963 945:0.25445801 969:0.203904 
-0.32385967861685871 31:0.077785999 63:0.055158999 179:0.030074 194:0.084186003 202:0.073005997 208:0.70743799 260:0.12920301 262:0.056889001 293:0.040773001 397:0.150492 423:0.080718003 451:0.33674201 485:0.077785999 554:0.047724999 581:0.075245999 587:0.187803 588:0.050749999 614:0.075245999 664:0.16837101 687:0.056005001 781:0.353719 847:0.093901999 857:0.124124 897:0.135067 915:0.055158999 928:0.203228 945:0.093901999 999:0.056889001 
-0.41935990384369537 63:0.080610998 161:0.123031 179:0.043951001 229:0.064542003 238:0.117963 293:0.059588 298:0.24606299 330:0.042686999 352:0.129234 377:0.387703 378:0.258468 380:0.085922003 430:0.123031 455:0.117963 458:0.471854 475:0.101115 477:0.098696001 528:0.123031 554:0.139493 578:0.113678 590:0.087425001 599:0.075143002 617:0.081846997 649:0.123031 701:0.13723101 762:0.062579997 769:0.258468 802:0.27446201 850:0.098696001 857:0.090699002 882:0.297003 912:0.106693 927:0.120322 
-0.54262512149483255 48:0.113554 73:0.141427 131:0.086921997 133:0.089569002 146:0.12909301 220:0.116759 281:0.113554 312:0.162512 330:0.046714999 335:0.141427 370:0.097411998 377:0.141427 390:0.144306 392:0.162512 393:0.12909301 424:0.097411998 458:0.12909301 490:0.227107 513:0.116759 520:0.150178 580:0.116759 588:0.081165001 643:0.150178 651:0.150178 664:0.13463899 686:0.141427 703:0.141427 715:0.120342 769:0.56570798 781:0.141427 800:0.248807 812:0.162512 831:0.141427 857:0.099256001 900:0.086921997 927:0.065837003 928:0.162512 951:0.095673002 964:0.094029002 
-0.39177985519353964 104:0.218162 106:0.090751998 190:0.45365199 244:0.26156199 248:0.233787 304:0.164133 309:0.15975299 456:0.200716 497:0.185864 523:0.26156199 599:0.15975299 624:0.176754 687:0.174005 804:0.18924201 853:0.250788 857:0.385649 986:0.29175001 
0.99999993212504223 63:0.075800002 73:0.121521 158:0.121521 250:0.110923 284:0.12904 286:0.100325 302:0.063372999 309:0.070657998 316:0.106893 380:0.080793999 385:0.24304099 396:0.106893 399:0.115688 411:0.115688 412:0.115688 458:0.110923 522:0.12904 554:0.26233399 610:0.100325 614:0.103403 644:0.080793999 664:0.115688 671:0.121521 686:0.364562 692:0.097571 705:0.12904 713:0.083701 726:0.24304099 748:0.110923 783:0.095078997 799:0.24304099 827:0.486083 857:0.085285999 882:0.13963801 912:0.100325 915:0.075800002 920:0.115688 927:0.056570001 942:0.121521 949:0.100325 953:0.095078997 
0.99999993212504223 131:0.115765 237:0.200011 260:0.275204 276:0.110993 299:0.15550201 309:0.10952 312:0.216438 315:0.143847 325:0.14737301 382:0.171929 388:0.216438 390:0.192191 401:0.179316 482:0.114111 495:0.171929 506:0.165684 552:0.188356 565:0.216438 573:0.216438 588:0.108098 767:0.114111 769:0.188356 812:0.216438 827:0.37671301 857:0.26438501 932:0.200011 995:0.171929 
0.99999993212504223 8:0.096773997 17:0.092198998 104:0.080145001 158:0.201865 185:0.21435601 217:0.21435601 234:0.18426 260:0.147471 280:0.17756701 369:0.18426 418:0.141673 517:0.13655899 554:0.108945 617:0.127846 686:0.40373099 688:0.107686 729:0.231961 753:0.201865 769:0.201865 799:0.40373099 834:0.201865 850:0.154164 857:0.283346 887:0.120593 948:0.15068901 
0.99999993212504223 63:0.085430004 84:0.14543401 158:0.136959 179:0.046578001 231:0.102237 247:0.109966 251:0.136959 318:0.192241 323:0.102237 419:0.157378 420:0.098021999 466:0.219933 482:0.082974002 495:0.250029 508:0.136959 554:0.51740801 574:0.077602997 590:0.092651002 603:0.157378 614:0.23308 617:0.086739004 673:0.161413 677:0.12501501 679:0.28300399 694:0.12501501 762:0.066320002 799:0.136959 807:0.14543401 827:0.136959 850:0.104595 857:0.192241 882:0.157378 912:0.11307 927:0.063757002 956:0.14543401 1000:0.104595 
0.99999993212504223 6:0.085860997 8:0.071641997 22:0.055778001 31:0.065727003 34:0.068204001 79:0.074721001 106:0.049362 149:0.074721001 151:0.074721001 159:0.44832301 179:0.025412001 193:0.055778001 245:0.074721001 247:0.059994001 250:0.068204001 260:0.16375899 262:0.048069999 276:0.088062003 277:0.079343997 284:0.079343997 296:0.065727003 318:0.36708301 323:0.055778001 355:0.057064001 363:0.040805999 380:0.049678002 397:0.063579999 414:0.074721001 419:0.085860997 445:0.070936002 495:0.068204001 504:0.24427 514:0.046608001 523:0.071134001 561:0.079343997 584:0.052439999 593:0.068204001 614:0.44506299 620:0.074721001 621:0.074721001 659:0.063579999 664:0.142268 673:0.044031002 681:0.141967 686:0.074721001 687:0.047322001 688:0.039859999 690:0.061687 691:0.068204001 712:0.079343997 728:0.074721001 738:0.068204001 745:0.065727003 762:0.036182001 777:0.048854001 789:0.074721001 827:0.149441 857:0.104881 887:0.044636998 897:0.057064001 910:0.079343997 932:0.079343997 933:0.063579999 951:0.25273699 956:0.079343997 999:0.048069999 
-0.88166228730600904 8:0.067345999 36:0.14917199 63:0.087626003 160:0.161423 202:0.115976 231:0.104865 259:0.115976 276:0.082781002 312:0.161423 318:0.098591 330:0.046402 363:0.076716997 373:0.140479 419:0.161423 420:0.100541 466:0.225585 468:0.093399003 501:0.085106 506:0.12357 554:0.379076 574:0.079596996 590:0.095031999 617:0.088969 673:0.082781002 679:0.193519 691:0.12822799 693:0.14917199 694:0.12822799 697:0.12357 721:0.115976 784:0.280958 808:0.093399003 826:0.133737 827:0.42143801 832:0.107284 857:0.197182 921:0.14917199 927:0.065396003 944:0.14917199 960:0.115976 969:0.119535 997:0.087626003 
-0.095780199055593568 111:0.15515199 136:0.147705 202:0.12808999 206:0.080022 272:0.23697799 318:0.76222098 330:0.051247999 349:0.115818 410:0.17828301 514:0.193556 520:0.16475201 586:0.209916 679:0.21373101 681:0.098260999 686:0.15515199 756:0.16475201 832:0.118489 857:0.108889 927:0.072226003 
-0.17479790824831268 17:0.067221999 80:0.134343 236:0.134343 247:0.23634399 248:0.125236 251:0.44153699 254:0.156286 318:0.206586 325:0.115155 342:0.125236 390:0.075088002 418:0.103293 453:0.134343 466:0.23634399 482:0.089165002 531:0.156286 554:0.079430997 664:0.14011499 679:0.608244 686:0.14717899 688:0.078512996 850:0.1124 856:0.103293 887:0.087922998 924:0.097852997 930:0.099564001 
-0.82801430909305695 7:0.120303 80:0.120303 84:0.139952 179:0.089644998 202:0.108808 208:0.263594 247:0.211643 260:0.096283004 299:0.108808 311:0.151446 318:0.554986 393:0.240605 394:0.139952 424:0.181558 429:0.098384 455:0.120303 468:0.087626003 527:0.108808 538:0.125471 554:0.071129002 590:0.178317 627:0.120303 657:0.086172 673:0.077664003 677:0.120303 686:0.131797 706:0.096283004 726:0.131797 767:0.079846002 806:0.120303 827:0.131797 832:0.100653 857:0.092497997 867:0.151446 901:0.125471 915:0.16441999 917:0.112147 924:0.087626003 945:0.139952 948:0.098384 
-0.29008490172734852 8:0.046702001 104:0.077353999 106:0.032178 133:0.061696999 145:0.111941 154:0.26676399 174:0.223883 179:0.066261001 187:0.097416997 206:0.050244998 224:0.103445 230:0.088921003 253:0.064769 281:0.078217998 293:0.044916999 294:0.103445 316:0.085690998 318:0.136739 323:0.145441 342:0.082892999 419:0.44776499 420:0.069721997 424:0.067098998 435:0.097416997 438:0.223883 472:0.111941 481:0.063694 508:0.097416997 522:0.206891 523:0.092742004 561:0.206891 586:0.065900996 596:0.092742004 651:0.103445 671:0.097416997 681:0.061696999 686:0.19483501 690:0.080425002 706:0.071167 745:0.085690998 762:0.047173001 775:0.103445 780:0.092742004 790:0.085690998 797:0.103445 806:0.088921003 808:0.064769 810:0.092742004 813:0.223883 819:0.065900996 827:0.097416997 845:0.092742004 857:0.136739 863:0.088921003 866:0.092742004 868:0.060764998 882:0.223883 927:0.090699002 929:0.071167 932:0.103445 947:0.085690998 951:0.065900996 
0.99999993212504223 22:0.099436 179:0.045302 238:0.121589 260:0.29193699 262:0.085694999 266:0.090112001 299:0.109971 307:0.282897 328:0.109971 330:0.087998003 370:0.091748998 384:0.14144801 402:0.106953 405:0.153065 413:0.21390501 423:0.121589 430:0.126812 495:0.121589 496:0.113346 576:0.121589 581:0.113346 651:0.14144801 657:0.087093003 663:0.126812 686:0.13320599 713:0.091748998 717:0.093486004 762:0.129005 769:0.13320599 791:0.153065 800:0.23434401 857:0.093486004 894:0.13320599 926:0.088563003 927:0.062010001 969:0.56673098 995:0.121589 
0.99999993212504223 2:0.185064 56:0.161052 106:0.053197 179:0.054772001 229:0.080433004 238:0.147007 260:0.235311 290:0.153322 294:0.171018 328:0.26592201 330:0.106394 377:0.161052 380:0.107077 414:0.161052 423:0.147007 473:0.093644001 481:0.1053 522:0.171018 523:0.153322 566:0.171018 579:0.147007 663:0.153322 687:0.101998 721:0.132961 762:0.077987 769:0.161052 800:0.42500001 882:0.185064 883:0.161052 920:0.153322 932:0.171018 948:0.120223 968:0.29401299 986:0.171018 
0.55452634082782037 22:0.139478 74:0.099205002 94:0.058274001 106:0.092577003 108:0.064349003 113:0.099205002 163:0.099205002 168:0.093424 179:0.031771999 229:0.093316004 238:0.085276 244:0.088940002 253:0.062114 260:0.54600102 262:0.060102001 266:0.063199997 274:0.085276 276:0.055052001 278:0.28027201 286:0.077128999 306:0.16435701 309:0.054320998 315:0.071347997 337:0.088940002 357:0.093424 377:0.093424 385:0.093424 390:0.047662999 397:0.079494998 423:0.170553 426:0.093424 430:0.088940002 437:0.107353 444:0.125646 505:0.186848 578:0.082179002 583:0.088940002 594:0.077128999 606:0.186848 617:0.059168 623:0.088940002 650:0.085276 657:0.061083 671:0.093424 680:0.093424 686:0.093424 687:0.118335 717:0.065567002 721:0.077128999 752:0.085276 755:0.088940002 769:0.093424 804:0.064349003 810:0.088940002 850:0.071347997 851:0.19841 853:0.085276 856:0.065567002 857:0.131134 874:0.093424 882:0.107353 897:0.071347997 898:0.099205002 926:0.124227 927:0.086980999 934:0.075011 976:0.099205002 
0.99999993212504223 49:0.106057 80:0.091165997 202:0.164911 281:0.080192 294:0.106057 302:0.052085999 304:0.059664998 309:0.116147 349:0.074556001 399:0.095082998 405:0.229534 482:0.060508002 505:0.099877 579:0.091165997 607:0.28524801 614:0.254958 625:0.273498 663:0.095082998 666:0.084986001 676:0.099877 686:0.29962999 702:0.099877 713:0.137586 767:0.060508002 784:0.099877 874:0.099877 912:0.082456 915:0.062298998 927:0.046494 945:0.63634002 947:0.087854996 948:0.074556001 1000:0.076274998 
-0.13795718190791895 107:0.193939 229:0.101741 250:0.18595 309:0.118451 315:0.155578 390:0.103932 435:0.407433 438:0.234089 459:0.173344 498:0.168183 521:0.216322 671:0.407433 686:0.407433 705:0.216322 717:0.14297201 887:0.121698 947:0.35839099 
-0.2966298018453839 4:0.116479 12:0.252092 22:0.081882998 94:0.068421997 106:0.072465003 179:0.037305001 187:0.219384 196:0.096487999 230:0.100125 253:0.145859 262:0.14113601 286:0.090558998 302:0.228818 307:0.116479 311:0.126046 330:0.072465003 337:0.104427 363:0.059904002 399:0.104427 444:0.049175002 445:0.104135 470:0.116479 473:0.063781001 480:0.096487999 481:0.071718998 498:0.090558998 501:0.066454001 508:0.109692 525:0.109692 526:0.116479 584:0.076984003 622:0.126046 635:0.252092 658:0.109692 661:0.126046 664:0.208854 677:0.100125 704:0.116479 727:0.219384 754:0.116479 780:0.104427 800:0.38595399 804:0.302214 815:0.100125 819:0.074205004 827:0.109692 848:0.061379001 856:0.15396801 948:0.163766 997:0.068421997 
-0.13570452707439656 18:0.26609701 26:0.133048 121:0.133048 144:0.099317998 196:0.117034 253:0.088458002 302:0.069385 306:0.117034 316:0.23406699 319:0.126663 320:0.117034 325:0.104099 328:0.109842 330:0.043947 331:0.133048 355:0.203218 364:0.117034 430:0.126663 431:0.117034 435:0.26609701 444:0.059645999 550:0.133048 557:0.121445 574:0.075387001 579:0.121445 624:0.085593998 644:0.088458002 659:0.113212 666:0.113212 668:0.14128099 670:0.14128099 672:0.31792799 686:0.26609701 705:0.282563 805:0.069385 811:0.14128099 827:0.133048 850:0.101609 900:0.081772998 920:0.126663 922:0.109842 923:0.117034 932:0.14128099 936:0.152885 964:0.088458002 974:0.14128099 
-0.021296199310077452 6:0.167468 75:0.33493599 118:0.108792 155:0.106469 198:0.13874499 241:0.133029 302:0.076003999 313:0.128197 328:0.120319 330:0.096277997 377:0.14574 420:0.104306 435:0.14574 445:0.069178998 473:0.16948099 514:0.181814 568:0.35104901 583:0.13874499 617:0.092299998 646:0.20861199 650:0.133029 662:0.13874499 671:0.14574 681:0.092299998 686:0.29147899 698:0.14574 717:0.102283 721:0.120319 725:0.167468 749:0.15475801 790:0.128197 857:0.102283 865:0.13874499 882:0.167468 915:0.181814 925:0.14574 927:0.067844003 941:0.167468 947:0.128197 948:0.108792 
-0.059808740130455784 56:0.206476 60:0.196566 106:0.204603 136:0.196566 166:0.16155 168:0.206476 218:0.181623 266:0.279356 315:0.157685 359:0.150839 439:0.21925201 497:0.139678 534:0.21925201 611:0.23726 657:0.13499901 686:0.41295201 720:0.30826101 745:0.181623 817:0.128792 920:0.196566 926:0.13727701 956:0.21925201 
0.85402148166084868 106:0.065986 131:0.122779 134:0.190181 248:0.169985 253:0.132818 260:0.43781799 267:0.182347 318:0.140202 382:0.182347 390:0.20383599 418:0.140202 482:0.121025 506:0.175723 592:0.182347 614:0.169985 619:0.21213 737:0.175723 785:0.169985 797:0.21213 850:0.15256301 857:0.420605 882:0.229552 929:0.14593901 949:0.164924 
-0.10495123675598698 63:0.081014998 179:0.044171002 200:0.110518 229:0.064865999 230:0.118554 247:0.104284 297:0.114248 302:0.067734003 328:0.32168201 330:0.042900998 342:0.110518 351:0.12988199 421:0.118554 458:0.118554 469:0.13791899 554:0.070096001 566:0.13791899 700:0.13791899 711:0.13791899 713:0.17892 748:0.47421801 773:0.55167401 790:0.114248 797:0.13791899 850:0.099189997 875:0.092956997 881:0.13791899 882:0.14924601 910:0.13791899 911:0.12988199 
-0.15468472343964079 131:0.121555 276:0.116544 296:0.17397 330:0.065327004 353:0.18828399 411:0.37656799 450:0.18828399 482:0.239637 490:0.158797 583:0.18828399 599:0.114997 688:0.105505 691:0.180528 807:0.210014 830:0.227263 832:0.30208299 850:0.151041 857:0.13880301 880:0.18828399 882:0.45452601 989:0.197776 998:0.197776 
-0.23903923778586489 65:0.28682199 229:0.143245 253:0.190695 294:0.30456999 320:0.25229701 328:0.236793 549:0.209535 554:0.61917901 863:0.26180699 882:0.329584 929:0.209535 
-0.19620741930676705 80:0.17910799 196:0.172602 248:0.166967 253:0.130459 267:0.17910799 302:0.10233 318:0.137712 330:0.064814001 418:0.55084801 482:0.118876 617:0.124272 686:0.19622099 692:0.31509799 748:0.17910799 796:0.172602 815:0.17910799 882:0.45095199 927:0.091344997 934:0.15754899 973:0.16199601 
-0.1799511347632308 63:0.045317002 179:0.024707999 201:0.077147 206:0.037471 220:0.059978999 229:0.072567999 247:0.174999 253:0.096606001 259:0.059978999 291:0.06182 310:0.760809 320:0.31953299 323:0.108466 387:0.055484001 396:0.063906997 441:0.127813 549:0.10615 572:0.059978999 580:0.119959 628:0.144908 631:0.069164 634:0.077147 672:0.043400999 673:0.085623004 686:0.145303 690:0.119959 738:0.066315003 745:0.063906997 762:0.035179999 786:0.154294 797:0.077147 819:0.049148001 836:0.049148001 849:0.06182 850:0.055484001 857:0.15296499 860:0.072650999 866:0.069164 912:0.059978999 963:0.069164 968:0.066315003 973:0.119959 
-0.27794468165929759 101:0.226487 159:0.226487 235:0.16545799 250:0.206734 264:0.19922499 293:0.104429 295:0.215616 318:0.158953 322:0.226487 384:0.240501 402:0.181849 482:0.13721199 542:0.172967 572:0.18698201 669:0.215616 686:0.45297301 737:0.19922499 759:0.172967 861:0.226487 927:0.105434 937:0.172967 964:0.150581 975:0.206734 
-0.066223953495124624 67:0.139108 77:0.166265 104:0.14463601 150:0.166265 193:0.13597199 229:0.090970002 245:0.182151 266:0.123223 295:0.173408 359:0.13306899 363:0.099474996 394:0.38684401 402:0.292503 422:0.209308 424:0.125462 452:0.130366 481:0.119095 514:0.113619 582:0.209308 588:0.104537 751:0.209308 767:0.110352 784:0.182151 796:0.160226 812:0.209308 817:0.113619 827:0.182151 871:0.32045099 915:0.113619 945:0.193422 953:0.142517 
-0.1978138392920423 8:0.104904 9:0.232365 94:0.136494 104:0.086878002 106:0.072279997 211:0.218824 266:0.14803199 272:0.167116 330:0.14455999 445:0.10387 449:0.31322601 501:0.13257 508:0.218824 567:0.232365 574:0.247977 631:0.208322 688:0.116733 694:0.19973999 713:0.150722 726:0.218824 777:0.14307299 783:0.171211 789:0.218824 857:0.153575 937:0.167116 949:0.361312 998:0.218824 
-0.17515896644889531 155:0.143106 182:0.225096 237:0.208012 302:0.102157 311:0.225096 369:0.17880601 468:0.13023899 514:0.122189 535:0.166685 642:0.51693398 686:0.391781 749:0.208012 780:0.186488 807:0.208012 827:0.391781 850:0.149601 868:0.122189 
-0.17599644940118436 1:0.162701 17:0.092552997 23:0.202638 45:0.38582501 84:0.215177 179:0.068915002 224:0.430354 227:0.23285 248:0.172427 272:0.154754 280:0.178247 286:0.167293 363:0.110663 628:0.134725 641:0.148036 687:0.128336 694:0.184966 714:0.202638 762:0.098123997 827:0.40527701 868:0.126398 920:0.192912 
0.79478368510642927 95:0.165225 133:0.104641 177:0.165225 198:0.157295 238:0.30162999 260:0.24140701 276:0.097363003 295:0.157295 302:0.086165003 307:0.175448 312:0.189858 323:0.123337 369:0.150815 370:0.113803 398:0.145337 399:0.157295 402:0.132661 417:0.157295 419:0.189858 488:0.165225 495:0.150815 501:0.100098 505:0.165225 522:0.175448 594:0.136406 673:0.292088 677:0.150815 785:0.140591 791:0.189858 805:0.086165003 857:0.115958 900:0.101548 909:0.098704003 915:0.103061 920:0.31458899 927:0.076915003 969:0.140591 
-0.43463310676160599 46:0.22482599 63:0.140238 229:0.112283 253:0.14947701 286:0.18561099 312:0.25834599 330:0.074262001 389:0.175907 402:0.180516 419:0.25834599 425:0.238738 440:0.180516 445:0.106719 456:0.16424499 504:0.146997 514:0.140238 522:0.238738 603:0.25834599 673:0.132484 687:0.142388 699:0.19776399 709:0.205219 732:0.19776399 785:0.19130699 832:0.171699 848:0.12580401 857:0.15778799 866:0.214035 915:0.140238 973:0.18561099 
-0.25646074139885205 17:0.072098002 90:0.54416502 132:0.167622 179:0.107369 227:0.18138801 235:0.115319 286:0.26064101 303:0.15785401 335:0.15785401 440:0.126743 484:0.167622 485:0.138853 495:0.432262 509:0.167622 628:0.10495 658:0.15785401 700:0.167622 736:0.15785401 762:0.076438002 857:0.22157 882:0.18138801 904:0.108727 945:0.167622 
-0.28119612466463678 15:0.222477 180:0.28615499 253:0.35833201 330:0.089011997 369:0.245978 390:0.137483 501:0.163259 523:0.25654599 592:0.245978 677:0.245978 681:0.17066801 690:0.222477 857:0.189127 909:0.16098499 951:0.54689902 
-0.22852668169725121 57:0.106998 61:0.110018 63:0.083123997 90:0.15312999 131:0.081904002 132:0.141507 175:0.141507 179:0.045320999 224:0.141507 298:0.126865 300:0.13326199 306:0.117221 330:0.044018 370:0.091788001 412:0.126865 445:0.063256003 485:0.117221 508:0.13326199 527:0.110018 574:0.075507998 588:0.076479003 593:0.12164 609:0.13326199 628:0.26579899 681:0.084398001 687:0.168795 714:0.13326199 716:0.12164 747:0.12164 758:0.141507 767:0.080734 854:0.141507 857:0.093525998 909:0.079608999 929:0.097352996 932:0.141507 934:0.106998 945:0.28301501 981:0.61251801 
-0.35164870201416143 49:0.150227 95:0.141473 229:0.070655003 239:0.141473 245:0.28294599 293:0.065231003 302:0.073779002 335:0.141473 342:0.120381 369:0.25827 410:0.16256499 435:0.141473 510:0.16256499 534:0.150227 572:0.116797 588:0.162384 605:0.150227 617:0.089598 653:0.134683 675:0.141473 686:0.28294599 687:0.089598 697:0.248888 715:0.120381 774:0.134683 776:0.16256499 784:0.42441899 806:0.129135 857:0.099289 867:0.16256499 929:0.103352 944:0.150227 945:0.150227 975:0.129135 996:0.150227 
-0.37600084005007045 7:0.052678999 8:0.027667001 17:0.052717999 24:0.046337999 32:0.057712 42:0.066316001 44:0.132632 82:0.066316001 100:0.066316001 103:0.050765 106:0.019063 126:0.061283 131:0.035470001 148:0.066316001 169:0.045155 185:0.061283 203:0.066316001 206:0.029766001 215:0.050765 227:0.066316001 231:0.043081 232:0.066316001 234:0.052678999 238:0.105358 240:0.061283 244:0.054942001 247:0.046337999 253:0.076739997 281:0.046337999 294:0.061283 300:0.057712 302:0.030097 309:0.033557002 315:0.044075001 320:0.050765 323:0.172324 342:0.049107999 349:0.043081 363:0.031516999 371:0.054942001 377:0.28856 378:0.057712 385:0.057712 386:0.132632 389:0.045155 392:0.066316001 412:0.054942001 413:0.092675 414:0.057712 445:0.027394 448:0.057712 455:0.052678999 471:0.122566 473:0.10067 475:0.045155 501:0.069927 514:0.071997002 530:0.045155 537:0.061283 549:0.042160999 561:0.122566 568:0.32436401 574:0.065401003 581:0.049107999 583:0.054942001 590:0.039041001 593:0.052678999 601:0.066316001 603:0.066316001 617:0.073100999 638:0.054942001 643:0.061283 663:0.054942001 664:0.109884 672:0.34476599 676:0.057712 677:0.052678999 686:0.230848 690:0.047646001 697:0.050765 703:0.057712 708:0.122566 715:0.049107999 726:0.057712 743:0.061283 750:0.066316001 759:0.044075001 765:0.061283 766:0.26526499 767:0.034963001 769:0.173136 775:0.122566 785:0.049107999 797:0.122566 802:0.061283 805:0.030097 812:0.066316001 827:0.115424 850:0.044075001 855:0.03655 857:0.16201399 860:0.057712 863:0.052678999 864:0.061283 873:0.061283 895:0.066316001 898:0.061283 902:0.061283 906:0.066316001 909:0.034476999 915:0.035999 920:0.054942001 922:0.047646001 924:0.038369998 948:0.086162001 949:0.047646001 951:0.078083001 962:0.115424 964:0.038369998 968:0.052678999 995:0.052678999 997:0.071997002 
-0.18084432357938676 1:0.34593201 8:0.103274 129:0.189493 249:0.41016701 280:0.189493 359:0.15737499 369:0.19663601 416:0.151188 541:0.228753 543:0.215423 587:0.228753 657:0.14084899 673:0.12694301 686:0.215423 771:0.24754 800:0.189493 810:0.205084 850:0.164518 882:0.24754 908:0.189493 962:0.215423 
-0.20040928646350553 8:0.117294 304:0.146163 316:0.21521901 323:0.182641 380:0.16267 468:0.16267 482:0.148228 506:0.21521901 576:0.223331 677:0.223331 686:0.48933899 739:0.40398699 759:0.186854 827:0.24467 888:0.25980899 894:0.24467 927:0.113898 964:0.16267 
-0.15842836784542272 16:0.145172 77:0.124789 94:0.085276 106:0.135472 171:0.130151 184:0.124789 192:0.124789 197:0.097845003 201:0.145172 226:0.145172 241:0.124789 252:0.136712 259:0.112866 262:0.087950997 274:0.124789 290:0.130151 296:0.120256 308:0.240513 309:0.079492003 342:0.11633 355:0.104407 363:0.14932001 387:0.104407 390:0.069747999 401:0.130151 411:0.130151 434:0.120256 440:0.109768 442:0.124789 475:0.106965 496:0.11633 514:0.085276 523:0.130151 527:0.112866 628:0.090893999 681:0.086583003 688:0.072930001 690:0.112866 742:0.273424 747:0.124789 767:0.082823999 778:0.157095 780:0.130151 797:0.145172 827:0.273424 857:0.095946997 868:0.25582799 882:0.157095 883:0.136712 887:0.081671 909:0.081671 927:0.063642003 932:0.145172 948:0.102053 949:0.112866 951:0.092483997 997:0.085276 999:0.087950997 
-0.25303359441375728 53:0.14574499 60:0.13066401 106:0.090671003 153:0.14574499 179:0.046677999 196:0.120731 294:0.14574499 316:0.120731 317:0.411755 330:0.045336001 390:0.070023 402:0.110201 424:0.094535999 449:0.098231003 501:0.083150998 565:0.15771499 574:0.077767998 580:0.113312 587:0.43723401 654:0.137252 673:0.080879003 677:0.125282 688:0.073218003 692:0.110201 706:0.100268 745:0.120731 748:0.125282 777:0.089737996 797:0.14574499 827:0.137252 842:0.14574499 849:0.116789 857:0.192652 882:0.15771499 910:0.14574499 962:0.137252 969:0.35036701 973:0.113312 1000:0.104819 
-0.47824286432460561 8:0.107391 104:0.177875 154:0.40895 235:0.16365001 304:0.13382301 307:0.237873 323:0.16722 395:0.19704799 438:0.25740901 498:0.184939 521:0.237873 522:0.237873 588:0.128561 599:0.130252 681:0.141872 686:0.44802299 748:0.204475 755:0.21325999 882:0.25740901 
-0.073260265192249596 17:0.098415002 57:0.173007 235:0.15741301 248:0.183349 298:0.20513199 363:0.117673 569:0.189538 584:0.151224 588:0.123661 599:0.12528799 632:0.49519801 652:0.183349 726:0.21547399 817:0.134405 857:0.45367199 860:0.21547399 882:0.24759901 904:0.148414 968:0.19668201 975:0.19668201 
-0.38234375964948436 22:0.246944 31:0.145496 80:0.30195999 92:0.17564 103:0.145496 162:0.145496 202:0.136555 230:0.15098 231:0.123472 255:0.120835 260:0.120835 262:0.10641 312:0.19006599 318:0.23217 345:0.17564 353:0.15746699 449:0.118381 482:0.100207 578:0.145496 586:0.111894 617:0.104755 664:0.47240001 686:0.16540501 711:0.17564 777:0.108146 857:0.23217 875:0.118381 915:0.206347 927:0.153998 985:0.120835 
-0.14457387056023455 21:0.19648699 50:0.34954199 106:0.073783003 118:0.16674501 133:0.141468 277:0.237196 308:0.19648699 309:0.12988099 382:0.203894 552:0.22337399 589:0.237196 615:0.237196 655:0.203894 664:0.212653 686:0.22337399 692:0.17935 717:0.15676901 740:0.19648699 767:0.135326 785:0.190072 849:0.190072 900:0.137288 913:0.22337399 920:0.212653 927:0.103985 930:0.15110999 
-0.21751221951492505 50:0.16714799 72:0.226851 91:0.18178099 94:0.133255 197:0.152897 266:0.144519 291:0.18178099 297:0.18791699 302:0.222819 328:0.176369 363:0.116667 378:0.213632 390:0.108991 607:0.20337801 608:0.20337801 619:0.226851 664:0.20337801 671:0.213632 681:0.135298 688:0.113963 713:0.147145 745:0.18791699 772:0.149931 827:0.427264 857:0.149931 887:0.12762199 948:0.159472 1000:0.16315 
-0.21945529552583648 38:0.12561101 80:0.160201 94:0.109475 135:0.480602 179:0.119376 202:0.28978899 287:0.18636701 309:0.204098 318:0.123174 417:0.167083 430:0.167083 431:0.15438201 537:0.18636701 607:0.334167 666:0.149341 759:0.13403399 805:0.091527 819:0.118728 827:0.17550699 846:0.160201 857:0.123174 882:0.201673 900:0.107868 917:0.29868099 927:0.081702001 948:0.13101301 
-0.19832192039618238 179:0.093722001 281:0.221269 293:0.127066 309:0.160238 329:0.55116397 372:0.25154799 389:0.215619 549:0.201324 588:0.158158 664:0.262355 762:0.13344599 819:0.186427 827:0.27558199 855:0.17453299 927:0.25657699 971:0.227514 984:0.27558199 
-0.12085482815032855 100:0.17949601 186:0.14871 230:0.142584 237:0.16587301 270:0.156207 276:0.092049003 293:0.144049 305:0.142584 309:0.090827003 373:0.156207 385:0.31241399 393:0.28516799 445:0.074147001 446:0.13740499 451:0.14871 473:0.090827003 500:0.16587301 535:0.132918 542:0.119295 572:0.25792199 643:0.16587301 664:0.14871 686:0.31241399 695:0.128961 703:0.156207 705:0.16587301 769:0.156207 785:0.132918 808:0.103855 836:0.105672 850:0.119295 857:0.109629 862:0.142584 875:0.111798 880:0.14871 900:0.096005999 907:0.156207 915:0.097436003 945:0.16587301 
-0.23470781809855884 8:0.106601 106:0.073449001 109:0.25551701 184:0.20297199 237:0.23612399 357:0.22236399 398:0.195599 446:0.195599 599:0.12929399 686:0.444729 688:0.118621 736:0.22236399 769:0.22236399 797:0.23612399 804:0.30632001 808:0.14783999 812:0.25551701 853:0.20297199 857:0.15606 882:0.25551701 
-0.29312308421792022 5:0.191122 100:0.26601601 168:0.231501 248:0.39397401 293:0.106741 299:0.191122 320:0.20363601 390:0.236215 397:0.196987 412:0.22039001 425:0.24582601 442:0.211312 490:0.185876 493:0.24582601 603:0.26601601 673:0.136418 686:0.231501 767:0.14025 850:0.176797 915:0.144402 949:0.191122 
-0.21966481045700403 8:0.046339002 51:0.102642 54:0.111072 104:0.038376998 106:0.031927999 220:0.079801001 223:0.102642 224:0.102642 247:0.077610999 272:0.073820002 282:0.111072 286:0.079801001 290:0.092022002 291:0.082249999 295:0.092022002 319:0.092022002 330:0.031927999 334:0.144311 351:0.096661001 361:0.096661001 400:0.092022002 402:0.077610999 420:0.13836101 444:0.043333001 445:0.045882002 446:0.17005201 448:0.096661001 452:0.13836101 496:0.082249999 497:0.065389998 504:0.442395 509:0.102642 517:0.065389998 523:0.092022002 574:0.109539 592:0.088230997 624:0.062185001 673:0.22783899 686:0.289983 689:0.085026003 705:0.102642 723:0.102642 734:0.077610999 736:0.096661001 745:0.085026003 816:0.102642 819:0.065389998 827:0.193322 839:0.102642 840:0.18404301 848:0.054088 853:0.088230997 857:0.20351601 865:0.092022002 881:0.102642 887:0.057744998 920:0.092022002 927:0.089994997 949:0.159602 951:0.065389998 957:0.096661001 958:0.27606499 997:0.060293999 
-0.18347621661096739 10:0.33490801 31:0.27742901 38:0.22572701 131:0.19384199 330:0.104177 577:0.33490801 686:0.31539199 687:0.199745 904:0.43447101 912:0.52076 
-0.30184286324281556 131:0.156896 169:0.199733 267:0.233015 293:0.117704 364:0.22455101 390:0.130238 418:0.53747803 665:0.19056 695:0.210752 796:0.22455101 819:0.172692 827:0.25527799 876:0.271074 882:0.293338 887:0.152501 916:0.186491 934:0.20496599 997:0.159233 
-0.16340597449594288 155:0.113416 208:0.155249 245:0.155249 250:0.141709 276:0.091484003 293:0.071583003 302:0.080963001 307:0.32971099 318:0.108957 330:0.051279999 352:0.155249 424:0.106932 466:0.37395501 471:0.164855 482:0.188108 554:0.41893199 578:0.27312401 590:0.105024 617:0.098323002 646:0.222224 649:0.147798 664:0.147798 679:0.106932 697:0.136562 703:0.155249 726:0.155249 748:0.141709 773:0.164855 783:0.121469 827:0.155249 915:0.096837997 
-0.05687936610026581 20:0.25670201 104:0.107054 210:0.26964301 248:0.229442 300:0.26964301 318:0.18924101 420:0.192984 423:0.24612699 503:0.25670201 578:0.474374 613:0.28632799 617:0.170772 672:0.161083 673:0.158894 686:0.26964301 687:0.170772 717:0.18924101 
-0.20288121135680109 15:0.069367997 106:0.083260998 179:0.028574999 184:0.076695003 219:0.193101 228:0.073909998 235:0.061383002 248:0.071496002 276:0.049513001 278:0.42011699 290:0.079990998 299:0.069367997 306:0.221729 319:0.079990998 323:0.062721997 328:0.138735 330:0.083260998 333:0.089222997 359:0.061383002 423:0.076695003 429:0.12544399 444:0.037668001 445:0.079767004 448:0.084022999 468:0.111727 480:0.073909998 483:0.142993 497:0.056841001 500:0.089222997 501:0.050903998 503:0.079990998 542:0.064167999 546:0.084022999 558:0.159981 574:0.095216997 581:0.214489 583:0.079990998 590:0.056841001 631:0.079990998 636:0.096550003 652:0.071496002 677:0.076695003 686:0.25207001 726:0.084022999 748:0.076695003 777:0.109873 784:0.084022999 785:0.071496002 788:0.079990998 800:0.073909998 815:0.076695003 842:0.089222997 846:0.076695003 853:0.076695003 855:0.053213999 856:0.23587701 857:0.058968998 882:0.28965101 883:0.084022999 884:0.076695003 916:0.24552999 920:0.079990998 925:0.084022999 949:0.138735 960:0.138735 967:0.071496002 971:0.069367997 
-0.14323558474939019 17:0.060982998 31:0.117447 93:0.11023 235:0.097540997 243:0.15342499 263:0.15342499 309:0.077634998 328:0.11023 334:0.199338 347:0.13351899 369:0.121874 377:0.13351899 399:0.12711 415:0.15342499 420:0.095559001 429:0.099669002 445:0.063377999 447:0.15342499 527:0.220459 585:0.15342499 618:0.15342499 644:0.088771001 655:0.121874 658:0.13351899 686:0.267037 705:0.14178 707:0.117447 721:0.11023 769:0.13351899 827:0.13351899 859:0.352341 870:0.121874 882:0.15342499 927:0.124311 948:0.099669002 972:0.13351899 973:0.11023 993:0.46027499 
-0.14593717696240771 15:0.19398101 76:0.269995 106:0.155222 151:0.234965 218:0.206682 241:0.21447299 328:0.19398101 373:0.234965 385:0.234965 398:0.206682 430:0.22368699 444:0.105335 479:0.22368699 498:0.19398101 552:0.234965 688:0.12534299 790:0.206682 827:0.234965 839:0.249504 907:0.234965 927:0.10938 973:0.19398101 995:0.21447299 
-0.060391030229236552 5:0.13190199 8:0.15318701 17:0.072972998 40:0.304203 108:0.110046 131:0.098196 139:0.18358999 173:0.16965599 185:0.16965599 234:0.145836 274:0.145836 289:0.33931199 294:0.16965599 330:0.21109401 389:0.12500601 406:0.16965599 423:0.145836 429:0.119265 468:0.106224 477:0.122016 523:0.152101 549:0.116718 558:0.152101 586:0.21616399 646:0.114348 681:0.101186 686:0.15977 726:0.15977 822:0.31953999 855:0.101186 857:0.224259 858:0.145836 865:0.152101 938:0.152101 
-0.2566258271850681 12:0.19494 38:0.060708001 48:0.068106003 94:0.05291 98:0.09747 104:0.033677001 106:0.056035999 112:0.090071999 115:0.061967 124:0.09747 148:0.19494 156:0.084824003 167:0.072177 187:0.084824003 210:0.084824003 218:0.074614003 231:0.063318998 266:0.057381999 276:0.049984001 301:0.09747 302:0.044236001 321:0.090071999 335:0.084824003 337:0.080752 352:0.084824003 356:0.058425002 396:0.14922699 413:0.068106003 423:0.154852 428:0.084824003 434:0.074614003 444:0.076053001 447:0.09747 459:0.072177 462:0.161505 466:0.068106003 473:0.049321 481:0.055459999 491:0.090071999 504:0.055459999 509:0.090071999 543:0.084824003 559:0.090071999 602:0.090071999 622:0.09747 634:0.090071999 651:0.090071999 656:0.223841 657:0.110919 662:0.080752 663:0.080752 681:0.053721 684:0.084824003 727:0.084824003 743:0.090071999 752:0.077426001 767:0.051387999 769:0.084824003 772:0.059531 792:0.09747 793:0.080752 800:0.223841 804:0.35054901 857:0.119062 882:0.48734999 905:0.080752 926:0.056396 927:0.039487001 932:0.090071999 940:0.080752 948:0.063318998 985:0.061967 990:0.090071999 
-0.16556812350474132 50:0.17097899 60:0.208039 84:0.232049 109:0.25110701 146:0.199469 175:0.232049 277:0.232049 355:0.166889 366:0.153367 481:0.142878 499:0.185947 554:0.117937 572:0.180411 691:0.199469 699:0.192223 861:0.218527 865:0.208039 866:0.208039 893:0.25110701 914:0.25110701 920:0.41607699 
-0.1702189591647908 104:0.054756001 152:0.14645199 159:0.137918 179:0.046904001 214:0.121317 229:0.068879001 248:0.23471101 253:0.091695003 254:0.14645199 286:0.113861 300:0.137918 329:0.137918 372:0.12589 389:0.215817 396:0.121317 402:0.221472 440:0.110736 445:0.065466002 493:0.14645199 504:0.360695 549:0.201509 569:0.121317 588:0.079150997 673:0.081271 686:0.27583501 695:0.227723 709:0.12589 713:0.094994999 748:0.12589 760:0.121317 767:0.167109 797:0.14645199 827:0.137918 870:0.12589 881:0.29290301 882:0.15848 885:0.117355 924:0.091695003 927:0.064203002 929:0.100755 956:0.14645199 
-0.19761589329330026 1:0.055397999 17:0.031513002 23:0.068995997 68:0.068995997 108:0.047522999 129:0.060690999 179:0.023465 197:0.049380001 200:0.117418 224:0.073265001 229:0.17229 235:0.100808 238:0.125957 247:0.055397999 249:0.197052 276:0.040656999 297:0.121382 304:0.041216999 305:0.125957 328:0.170884 330:0.04558 336:0.237847 342:0.058708999 346:0.060690999 356:0.047522999 370:0.047522999 371:0.131368 387:0.052692 451:0.065683998 477:0.052692 488:0.137991 537:0.073265001 554:0.335127 574:0.039094001 587:0.219795 631:0.065683998 664:0.328421 686:0.27598301 719:0.065683998 762:0.10023 767:0.041799001 769:0.137991 790:0.182072 794:0.158565 797:0.14653 798:0.065683998 831:0.068995997 850:0.052692 857:0.290535 882:0.158565 917:0.058708999 934:0.16619299 947:0.182072 954:0.056961 996:0.14653 
-0.17962271902754426 34:0.23596901 133:0.16372301 159:0.258515 245:0.258515 342:0.219973 357:0.258515 382:0.23596901 517:0.174881 584:0.181431 679:0.35611901 686:0.258515 688:0.137906 694:0.23596901 713:0.17806 783:0.20226499 840:0.246107 857:0.181431 887:0.154434 930:0.174881 970:0.246107 
-0.15785723866031851 73:0.109718 104:0.043559998 147:0.109718 170:0.066469997 172:0.17618699 185:0.116507 193:0.081901997 228:0.096510999 229:0.054795001 234:0.100149 238:0.100149 248:0.093359999 264:0.096510999 302:0.114436 309:0.063795 312:0.126075 330:0.072481997 351:0.109718 355:0.083791003 358:0.109718 363:0.059918001 369:0.100149 380:0.072945997 411:0.208903 448:0.109718 450:0.104451 453:0.100149 469:0.233013 482:0.13293999 490:0.352375 496:0.093359999 513:0.18116 514:0.068438001 516:0.104451 539:0.085844003 554:0.059213001 583:0.104451 588:0.062967002 601:0.126075 607:0.104451 612:0.126075 630:0.126075 644:0.072945997 650:0.100149 664:0.104451 679:0.075571001 686:0.21943501 703:0.109718 767:0.066469997 777:0.071736 797:0.116507 812:0.126075 816:0.116507 817:0.068438001 826:0.104451 827:0.109718 830:0.126075 832:0.25137299 855:0.069486998 857:0.231006 909:0.065544002 918:0.109718 920:0.104451 930:0.074221998 942:0.109718 951:0.074221998 964:0.072945997 
-0.1069927283469527 8:0.079558998 63:0.103517 94:0.103517 106:0.109634 112:0.17622501 145:0.190698 163:0.35245001 179:0.112879 193:0.123883 206:0.085594997 234:0.151483 323:0.123883 330:0.054816999 363:0.090630002 420:0.23755001 438:0.190698 445:0.078775004 468:0.110337 472:0.190698 498:0.274019 501:0.100541 514:0.20703401 521:0.17622501 522:0.17622501 574:0.094033003 599:0.096495003 678:0.12673999 686:0.16595601 688:0.088529997 725:0.190698 795:0.190698 827:0.33191201 857:0.116471 882:0.190698 917:0.141214 964:0.110337 999:0.106764 
-0.1442432401680645 63:0.115839 100:0.21339799 202:0.153318 229:0.092748001 293:0.085628003 353:0.176797 458:0.169514 482:0.112509 554:0.100226 599:0.107982 692:0.14911 697:0.163357 701:0.39440399 769:0.37142101 785:0.158023 797:0.197202 814:0.197202 827:0.18571 882:0.42679599 911:0.37142101 927:0.086452 
-0.15449680162491425 18:0.081416003 47:0.065370001 106:0.053785 115:0.059478 183:0.074316002 198:0.077509001 218:0.071616001 231:0.060775999 235:0.059478 241:0.074316002 243:0.18710899 253:0.16238999 257:0.086453997 266:0.055077001 275:0.059478 302:0.084918 309:0.047339998 312:0.18710899 323:0.060775999 328:0.134431 337:0.077509001 369:0.074316002 398:0.143233 420:0.05827 422:0.093555003 443:0.086453997 444:0.21899401 464:0.17290799 477:0.124355 501:0.098647997 518:0.086453997 519:0.086453997 523:0.077509001 542:0.062176999 561:0.086453997 574:0.046131 581:0.069278002 590:0.055077001 644:0.054129999 657:0.106464 675:0.081416003 681:0.051562998 686:0.16283301 690:0.067215003 699:0.071616001 705:0.086453997 706:0.059478 709:0.074316002 733:0.069278002 739:0.067215003 769:0.081416003 772:0.05714 774:0.077509001 785:0.069278002 790:0.071616001 800:0.143233 823:0.086453997 857:0.05714 867:0.093555003 871:0.57293099 872:0.081416003 875:0.05827 882:0.18710899 905:0.077509001 915:0.050783999 926:0.10826 932:0.17290799 934:0.065370001 941:0.093555003 949:0.067215003 951:0.055077001 959:0.086453997 964:0.054129999 987:0.093555003 
-0.093379463562835704 61:0.14061999 172:0.13676 179:0.057927001 201:0.18087 302:0.177655 304:0.101754 318:0.119541 330:0.056262001 342:0.144935 358:0.17033 359:0.124433 370:0.11732 398:0.149828 414:0.17033 421:0.15547501 431:0.29965499 440:0.13676 477:0.130081 490:0.13676 502:0.18087 574:0.096510999 580:0.14061999 588:0.097753003 617:0.107874 628:0.113245 651:0.18087 666:0.28987101 673:0.20074201 676:0.17033 686:0.34066001 695:0.14061999 741:0.162155 762:0.082479 774:0.162155 817:0.106245 819:0.115226 857:0.119541 920:0.162155 964:0.113245 999:0.109578 
-0.077477003974641245 47:0.13858999 64:0.172608 179:0.058701999 253:0.11476 275:0.12609801 279:0.59502703 306:0.151832 328:0.142501 330:0.057014 400:0.164324 477:0.13182101 481:0.112855 499:0.146874 546:0.172608 574:0.097801998 579:0.31511 599:0.100363 602:0.18328901 613:0.18328901 686:0.172608 691:0.157555 713:0.118889 752:0.31511 757:0.18328901 849:0.146874 
-0.084839086495103633 17:0.081595004 28:0.35729599 122:0.17864799 146:0.163068 162:0.157144 170:0.10823 179:0.060756002 229:0.089221001 249:0.170074 255:0.13051 286:0.147487 300:0.17864799 304:0.106723 469:0.189702 514:0.111434 526:0.189702 686:0.35729599 696:0.163068 720:0.133357 735:0.205283 762:0.173015 789:0.17864799 797:0.189702 805:0.093165003 827:0.17864799 882:0.205283 908:0.157144 919:0.163068 927:0.083163999 932:0.189702 949:0.147487 985:0.13051 988:0.189702 
-0.12691025153554827 8:0.035491001 10:0.078613997 70:0.065122001 151:0.074033 178:0.078613997 185:0.078613997 199:0.074033 201:0.078613997 226:0.31445599 230:0.067575999 240:0.078613997 248:0.125991 253:0.049221002 264:0.065122001 272:0.113078 290:0.070479997 302:0.038608 323:0.055264 330:0.073362 348:0.085070997 352:0.074033 357:0.074033 363:0.040429998 385:0.074033 395:0.065122001 402:0.059441999 420:0.31791401 428:0.074033 429:0.055264 435:0.074033 454:0.078613997 456:0.054083999 461:0.074033 510:0.085070997 517:0.050082002 527:0.06112 535:0.125991 552:0.074033 553:0.296132 572:0.06112 579:0.067575999 581:0.062995002 588:0.042488001 590:0.050082002 594:0.12224 596:0.070479997 617:0.046886999 636:0.085070997 641:0.054083999 672:0.044227 677:0.067575999 687:0.140661 690:0.06112 699:0.065122001 703:0.074033 717:0.155874 718:0.085070997 726:0.074033 748:0.067575999 765:0.15722799 775:0.235842 812:0.085070997 827:0.074033 848:0.041425999 857:0.103916 874:0.074033 916:0.108168 920:0.14095999 945:0.15722799 951:0.050082002 955:0.085070997 960:0.42783901 985:0.054083999 999:0.142883 
-0.13591010759382513 104:0.118562 330:0.098640002 404:0.34315199 456:0.218161 475:0.233651 590:0.20201799 681:0.18912899 690:0.49308199 737:0.26268399 742:0.29862899 827:0.29862899 920:0.28429601 929:0.218161 973:0.24654099 
-0.14766856717316801 106:0.046820998 108:0.097632997 193:0.105812 206:0.073109001 229:0.14158501 281:0.113812 304:0.169358 320:0.37405899 323:0.105812 355:0.108253 369:0.12938599 402:0.113812 468:0.094241999 482:0.42937499 510:0.162881 541:0.150519 580:0.117024 583:0.13494501 672:0.25403801 686:0.28349599 705:0.150519 724:0.12938599 759:0.108253 780:0.13494501 785:0.120615 807:0.150519 808:0.188484 815:0.12938599 825:0.13494501 826:0.13494501 827:0.141748 850:0.108253 857:0.099482 868:0.088417001 882:0.162881 902:0.150519 927:0.065986 
-0.1264806864980336 54:0.16375899 89:0.075664997 106:0.023536 164:0.16375899 195:0.065040998 223:0.15132999 230:0.065040998 233:0.075664997 254:0.075664997 276:0.041988999 282:0.16375899 300:0.14251199 302:0.037160002 309:0.041432001 330:0.023536 334:0.053190999 393:0.065040998 402:0.057211999 441:0.062679 446:0.062679 468:0.047375001 481:0.046588998 499:0.060632002 504:0.046588998 506:0.062679 509:0.075664997 526:0.15132999 557:0.065040998 583:0.067836002 595:0.081878997 599:0.041432001 616:0.067836002 617:0.090255998 637:0.075664997 673:0.37790301 686:0.427535 739:0.058827002 745:0.062679 754:0.15132999 772:0.050009001 796:0.25071499 826:0.067836002 827:0.21376701 839:0.075664997 853:0.065040998 857:0.50008798 868:0.044447001 905:0.067836002 915:0.044447001 927:0.066342004 949:0.058827002 
-0.14886441241707002 104:0.14984 135:0.17224699 170:0.114323 253:0.125462 294:0.200381 300:0.37740901 323:0.140865 419:0.216839 473:0.109723 477:0.144113 482:0.228645 488:0.188705 592:0.17224699 686:0.37740901 796:0.16599099 797:0.200381 820:0.188705 827:0.188705 857:0.13243701 882:0.43367699 920:0.179648 
-0.12734911642141794 17:0.081591003 80:0.163059 229:0.089216001 251:0.35727599 267:0.163059 274:0.163059 291:0.152005 296:0.314271 304:0.106717 318:0.12537199 342:0.152005 346:0.15713599 417:0.170064 418:0.37611499 432:0.18969201 444:0.080084004 482:0.108224 503:0.170064 679:0.36912701 713:0.123042 749:0.18969201 777:0.116798 805:0.093160003 808:0.118769 900:0.109792 930:0.120846 932:0.18969201 938:0.170064 997:0.111428 
-0.092157359676531714 63:0.154102 114:0.26234001 247:0.19836199 295:0.235195 302:0.128839 316:0.217315 327:0.247053 363:0.134918 424:0.170165 445:0.117269 584:0.17338599 641:0.360964 671:0.247053 713:0.170165 733:0.21021999 783:0.193297 797:0.26234001 947:0.43463001 953:0.193297 
-0.08494664820718506 22:0.054839998 25:0.084417999 62:0.129244 81:0.084417999 94:0.18329801 96:0.084417999 106:0.121331 156:0.14692999 172:0.058986001 184:0.067057997 193:0.054839998 206:0.037891001 220:0.060651001 229:0.03669 230:0.067057997 253:0.097686999 259:0.121302 262:0.094524004 266:0.049697999 272:0.056104999 290:0.069939002 293:0.067746997 302:0.191561 308:0.193866 316:0.064622 328:0.060651001 330:0.048532002 331:0.073464997 343:0.067057997 351:0.073464997 356:0.151803 373:0.073464997 377:0.073464997 390:0.112441 396:0.064622 397:0.062512003 400:0.139878 411:0.069939002 423:0.13411599 434:0.193866 439:0.156021 441:0.064622 444:0.032933999 445:0.069743 465:0.067057997 466:0.117972 481:0.144099 497:0.049697999 504:0.048032999 517:0.149094 522:0.078010999 524:0.084417999 541:0.078010999 546:0.073464997 551:0.084417999 599:0.042716 657:0.048032999 664:0.20981599 666:0.25004801 677:0.067057997 679:0.101202 680:0.073464997 681:0.093053997 688:0.117571 692:0.058986001 713:0.050601002 717:0.103118 762:0.035574 796:0.064622 800:0.258488 804:0.101202 805:0.038311999 823:0.078010999 842:0.078010999 849:0.062512003 857:0.30935499 863:0.067057997 868:0.045825001 870:0.20117299 872:0.073464997 909:0.043887001 926:0.048843998 927:0.136797 930:0.049697999 949:0.060651001 951:0.049697999 997:0.045825001 
-0.063506166531103136 17:0.064579003 20:0.134606 169:0.110627 179:0.192343 200:0.120312 204:0.45042399 268:0.134606 302:0.14747301 330:0.046703 367:0.14139199 444:0.063386001 482:0.085658997 501:0.085658997 514:0.088195004 552:0.14139199 554:0.076307997 578:0.124373 617:0.089547001 669:0.53842402 672:0.084467001 673:0.083319001 689:0.124373 717:0.099232003 762:0.136934 775:0.150141 797:0.150141 805:0.073735997 806:0.129061 819:0.095650002 848:0.079117 857:0.19846401 860:0.14139199 868:0.088195004 900:0.086901002 927:0.065820999 945:0.150141 968:0.129061 975:0.129061 997:0.088195004 
-0.033579293485201403 56:0.244179 166:0.19104899 202:0.201589 421:0.445768 458:0.222884 468:0.16234399 482:0.14793099 490:0.196055 554:0.131781 599:0.14197899 697:0.214788 741:0.23246001 759:0.186479 806:0.222884 836:0.16518401 857:0.17137 920:0.464919 948:0.182275 
-0.053034711607589276 104:0.065656997 108:0.113906 131:0.10164 135:0.150951 185:0.175606 193:0.123448 202:0.136528 206:0.085294001 236:0.150951 293:0.152501 294:0.35121199 302:0.086241998 328:0.136528 330:0.109249 339:0.157436 363:0.18062399 373:0.165373 379:0.175606 429:0.123448 445:0.235494 473:0.096156001 482:0.20037501 554:0.089249998 578:0.29093501 579:0.150951 586:0.223745 646:0.118358 697:0.29093501 713:0.113906 762:0.080078997 817:0.103153 857:0.232124 873:0.175606 934:0.13278 948:0.123448 975:0.150951 
-0.0390331286412815 5:0.34033099 102:0.137411 104:0.21822099 131:0.084454 140:0.145914 179:0.046732001 185:0.145914 193:0.102575 224:0.29182801 230:0.12542801 248:0.116925 274:0.12542801 304:0.082088001 338:0.113444 359:0.100385 363:0.150084 377:0.137411 473:0.079898 541:0.145914 549:0.100385 575:0.261632 588:0.157722 590:0.092956997 592:0.12542801 658:0.137411 686:0.137411 706:0.100385 760:0.241743 767:0.083247997 817:0.085712001 820:0.137411 850:0.104941 857:0.192876 860:0.137411 885:0.116925 891:0.27482301 927:0.063968003 932:0.145914 934:0.220659 949:0.113444 968:0.12542801 
-0.021744659984604776 8:0.055443998 66:0.110102 118:0.086332999 124:0.13289601 179:0.039331999 220:0.095481001 224:0.12281 228:0.101732 231:0.086332999 253:0.076893002 255:0.084489003 276:0.13630299 282:0.13289601 291:0.29523101 303:0.115653 323:0.086332999 328:0.095481001 330:0.038201001 358:0.115653 363:0.063160002 390:0.059004001 420:0.165546 495:0.211134 496:0.098410003 506:0.101732 530:0.090489 546:0.115653 548:0.110102 553:0.115653 588:0.066373996 592:0.105567 641:0.084489003 643:0.12281 650:0.105567 673:0.068150997 686:0.115653 687:0.073246002 695:0.095481001 703:0.115653 713:0.079659998 715:0.098410003 717:0.243503 728:0.115653 734:0.092859998 742:0.115653 745:0.305197 770:0.13289601 805:0.060313001 817:0.072140001 827:0.115653 867:0.13289601 922:0.095481001 923:0.101732 947:0.101732 954:0.095481001 975:0.42226699 985:0.084489003 1000:0.088324003 
-0.018520122547154447 15:0.116299 56:0.14087 94:0.087869003 131:0.086580001 179:0.047908001 193:0.105157 218:0.123913 247:0.113106 276:0.083011001 302:0.073463999 320:0.24782699 366:0.098865002 382:0.128584 444:0.063152 445:0.133734 482:0.085343003 497:0.095296003 543:0.14087 549:0.102911 583:0.13410901 621:0.70434898 623:0.13410901 686:0.14087 692:0.113106 713:0.097028002 748:0.128584 749:0.14958601 867:0.161872 891:0.28174001 912:0.116299 951:0.095296003 
-0.016127573869185827 8:0.031443998 54:0.075369 61:0.108299 66:0.062442001 100:0.075369 104:0.052081 115:0.047915999 121:0.065590002 124:0.075369 133:0.041540001 150:0.059870001 153:0.069649003 158:0.065590002 166:0.051318999 169:0.051318999 193:0.048962001 196:0.057695001 201:0.069649003 206:0.067658 209:0.055810999 235:0.047915999 245:0.065590002 254:0.13929699 259:0.108299 276:0.038651001 281:0.105326 282:0.075369 293:0.060485002 294:0.069649003 300:0.065590002 302:0.068411 303:0.32795 304:0.039182998 309:0.038137 334:0.048962001 342:0.055810999 349:0.097924002 364:0.057695001 380:0.043607999 390:0.033463001 393:0.059870001 402:0.052662998 414:0.065590002 431:0.057695001 442:0.059870001 446:0.23078001 466:0.052662998 473:0.038137 475:0.102637 481:0.042884 527:0.05415 539:0.051318999 554:0.14159299 574:0.074327998 593:0.059870001 628:0.30525601 639:0.065590002 664:0.062442001 665:0.097924002 666:0.055810999 686:0.19677 687:0.041540001 690:0.108299 738:0.059870001 748:0.059870001 751:0.075369 756:0.069649003 759:0.050090998 780:0.062442001 796:0.11539 803:0.069649003 805:0.239438 806:0.059870001 808:0.043607999 815:0.059870001 827:0.32795 844:0.069649003 848:0.036702 849:0.16743401 850:0.150273 857:0.322227 863:0.059870001 868:0.040913001 873:0.069649003 882:0.075369 889:0.069649003 900:0.040312 907:0.065590002 927:0.030533001 973:0.108299 974:0.069649003 997:0.040913001 1000:0.050090998 
-0.020387203895654363 17:0.047451001 18:0.103892 133:0.065797001 168:0.103892 179:0.035332002 182:0.23876201 237:0.22064 270:0.103892 289:0.11032 311:0.119381 316:0.091385998 326:0.519458 328:0.085770003 330:0.034316 377:0.103892 423:0.37932399 429:0.077552997 437:0.119381 451:0.098904997 475:0.081285998 502:0.11032 514:0.064804003 591:0.11032 599:0.060408 642:0.18277299 646:0.074354999 671:0.103892 677:0.094830997 679:0.071558997 686:0.207783 705:0.22064 781:0.103892 822:0.103892 857:0.29165301 867:0.119381 882:0.119381 915:0.12960701 970:0.098904997 
-0.014101523243937859 9:0.159016 19:0.172076 70:0.131724 104:0.059454001 105:0.159016 179:0.050928 214:0.39517301 229:0.074787997 243:0.172076 245:0.149749 290:0.142562 322:0.149749 330:0.049463999 335:0.149749 341:0.142562 370:0.103144 387:0.114363 466:0.120236 477:0.114363 512:0.127423 513:0.123629 517:0.405213 530:0.117166 532:0.159016 546:0.149749 570:0.13668901 596:0.142562 631:0.142562 653:0.142562 673:0.088243 785:0.25484699 809:0.172076 857:0.105097 909:0.178918 973:0.24725901 
-0.020678169197669273 17:0.056993 81:0.14338601 106:0.041216999 151:0.124782 201:0.132504 235:0.091159001 248:0.106178 292:0.39751101 294:0.132504 309:0.072554998 348:0.14338601 351:0.24956401 364:0.109762 384:0.39751101 389:0.097631 430:0.118793 435:0.124782 442:0.1139 480:0.109762 481:0.16317099 501:0.075597003 552:0.124782 590:0.084412999 629:0.24956401 657:0.081586003 686:0.374347 705:0.132504 738:0.1139 748:0.1139 817:0.077834003 818:0.14338601 825:0.118793 866:0.118793 881:0.132504 920:0.118793 963:0.118793 992:0.124782 
-0.010806231456432107 10:0.199607 34:0.085790999 47:0.075464003 50:0.367686 58:0.099803001 70:0.082673997 91:0.079975002 94:0.058626 106:0.031044999 108:0.064737 166:0.147074 179:0.031964 197:0.201801 218:0.082673997 230:0.085790999 249:0.089477003 257:0.099803001 266:0.063580997 290:0.089477003 304:0.056147002 315:0.071777999 323:0.070160002 353:0.089477003 370:0.064737 374:0.099803001 385:0.093988001 396:0.082673997 420:0.067267001 423:0.171581 429:0.070160002 439:0.099803001 448:0.093988001 457:0.099803001 471:0.099803001 518:0.099803001 526:0.29940999 583:0.089477003 631:0.089477003 657:0.061450999 662:0.089477003 679:0.064737 686:0.187975 687:0.059525002 696:0.171581 713:0.064737 717:0.197887 739:0.077593997 742:0.093988001 758:0.39921299 769:0.093988001 773:0.099803001 810:0.089477003 827:0.187975 837:0.085790999 882:0.108 883:0.093988001 887:0.056147002 908:0.082673997 926:0.062488001 927:0.087506004 962:0.093988001 973:0.077593997 
-0.0091868477998731709 21:0.185462 22:0.078694001 103:0.092730999 104:0.041854002 106:0.034821 187:0.10542 190:0.087033004 206:0.054372001 222:0.111944 235:0.077013999 237:0.111944 253:0.070088997 262:0.067819998 293:0.097214997 295:0.100361 301:0.121138 302:0.109954 312:0.121138 314:0.111944 330:0.069642998 338:0.087033004 359:0.077013999 363:0.057571001 366:0.073986001 402:0.084643997 420:0.075450003 423:0.096226998 444:0.047260001 456:0.077013999 465:0.192453 477:0.080509 497:0.071314998 498:0.087033004 508:0.10542 519:0.111944 522:0.111944 551:0.48455 570:0.096226998 571:0.111944 572:0.087033004 588:0.060501002 624:0.067819998 664:0.200721 666:0.179407 673:0.062121999 681:0.066765003 684:0.10542 686:0.31626099 703:0.10542 717:0.073986001 732:0.092730999 751:0.121138 785:0.089703001 800:0.185462 804:0.14522301 827:0.10542 857:0.22195899 909:0.062977001 917:0.089703001 927:0.09815 951:0.071314998 973:0.087033004 
-0.014980124838181052 24:0.114437 63:0.088903002 104:0.056586001 139:0.163776 188:0.12537099 224:0.151346 286:0.117667 329:0.142527 372:0.130097 383:0.121277 389:0.111515 396:0.12537099 399:0.135686 423:0.130097 424:0.098168999 440:0.114437 444:0.063895002 451:0.135686 514:0.088903002 549:0.104122 588:0.081796996 593:0.130097 643:0.151346 644:0.094760001 654:0.142527 664:0.135686 679:0.098168999 683:0.151346 686:0.28505301 697:0.12537099 705:0.151346 745:0.25074199 760:0.12537099 761:0.151346 777:0.093186997 805:0.148656 807:0.151346 850:0.108847 855:0.090264998 857:0.100028 870:0.130097 882:0.491328 912:0.117667 934:0.114437 
-0.0076910608998586281 5:0.264514 8:0.051199999 24:0.085750997 31:0.093943998 68:0.1068 118:0.159448 129:0.093943998 179:0.036320999 206:0.055084001 229:0.053337999 235:0.078022003 258:0.090876997 272:0.081563003 280:0.18788899 298:0.101674 302:0.055695999 328:0.088170998 330:0.070554003 336:0.122723 338:0.088170998 339:0.101674 346:0.093943998 348:0.122723 402:0.085750997 420:0.15287399 425:0.113408 429:0.159448 445:0.050694998 453:0.097485997 477:0.081563003 485:0.093943998 509:0.113408 514:0.066618003 520:0.226817 527:0.088170998 554:0.115278 569:0.093943998 575:0.101674 617:0.067639001 628:0.071006998 641:0.078022003 673:0.062933996 679:0.073562004 684:0.1068 686:0.21359999 687:0.067639001 694:0.097485997 709:0.097485997 761:0.34022501 762:0.103432 765:0.113408 767:0.064701997 777:0.069828004 797:0.113408 808:0.142013 819:0.072249003 826:0.101674 848:0.059760999 857:0.14990801 858:0.097485997 882:0.245445 885:0.090876997 887:0.063800998 899:0.113408 921:0.226817 926:0.071006998 927:0.099434003 948:0.079723999 954:0.088170998 997:0.066618003 999:0.068706997 
-0.0055635428497262463 17:0.084037997 51:0.195381 67:0.28103399 104:0.1461 115:0.134417 118:0.13734899 125:0.16184799 229:0.091891997 236:0.33589801 248:0.156564 255:0.134417 276:0.108424 355:0.140517 363:0.200964 390:0.093870997 394:0.195381 481:0.120301 501:0.11147 508:0.18399601 509:0.195381 533:0.211428 588:0.105596 681:0.116529 686:0.18399601 688:0.098153003 736:0.18399601 805:0.095954001 827:0.18399601 848:0.102956 857:0.25826401 930:0.124471 933:0.156564 951:0.124471 958:0.175165 964:0.122331 975:0.16794901 997:0.11477 
-0.0025196824077028546 32:0.112964 106:0.111939 135:0.103112 163:0.119954 168:0.112964 179:0.038417999 197:0.080848999 204:0.119954 218:0.099367 241:0.103112 264:0.099367 276:0.066566996 286:0.18652099 293:0.104172 312:0.129806 320:0.099367 345:0.119954 352:0.112964 359:0.082525 360:0.112964 363:0.061691001 390:0.057631999 396:0.099367 397:0.096121997 413:0.090700001 428:0.112964 444:0.151926 445:0.053621002 448:0.112964 475:0.088385001 482:0.41062099 490:0.090700001 497:0.076419003 502:0.119954 505:0.112964 528:0.107542 542:0.086271003 556:0.129806 578:0.099367 583:0.107542 586:0.15283699 621:0.112964 623:0.107542 646:0.080848999 663:0.107542 686:0.338893 711:0.23990799 739:0.093259998 759:0.086271003 797:0.119954 845:0.107542 853:0.103112 857:0.079281002 874:0.112964 875:0.080848999 882:0.25961199 897:0.086271003 927:0.052586999 964:0.075104997 
