SVM-light Version V3.50
0 # kernel type
1 # kernel parameter -d 
1 # kernel parameter -g 
1 # kernel parameter -s 
0 # kernel parameter -r 
EmptyParam # kernel parameter -u 
257 # highest feature index 
160 # number of training documents 
153 # number of support vectors plus 1 
0.64992103 # threshold b 
-0.3499775361404015 13:0.57735002 99:0.57735002 171:0.57735002 
-0.35021046576173165 63:0.57735002 102:0.57735002 250:0.57735002 
-0.10535146435533588 110:0.60042 157:0.397145 165:0.694098 
-0.067592847775049647 3:0.47453499 5:0.76401401 157:0.43714899 
-0.26080988977081809 204:0.75629902 213:0.65422601 
0.99999990649528392 68:0.70710701 241:0.70710701 
0.99999990649528392 175:1 
0.99999990649528392 224:1 
0.99999990649528392 40:1 
0.99999990649528392 2:1 
-0.60323982324047687 68:0.75629902 221:0.65422601 
-0.52756647116665245 45:0.70710701 68:0.70710701 
-0.036206041182514713 24:0.47554901 88:0.47554901 160:0.52331001 245:0.52331001 
-0.34935306713211245 225:1 
-0.23258899791876825 36:0.547472 203:0.63288897 242:0.547472 
0.03597909820663904 3:0.39922401 138:0.44133499 144:0.50526601 194:0.367771 212:0.50526601 
0.99999990649528392 3:0.36847001 38:0.51318002 138:0.40733701 144:0.466344 212:0.466344 
0.99999990649528392 232:1 
0.99999990649528392 176:1 
0.99999990649528392 80:1 
-0.56757916795730112 138:0.62170601 142:0.78325099 
-0.88433909537254074 3:0.583242 112:0.812298 
-0.19423371092250338 3:0.331983 88:0.42016399 160:0.46236199 227:0.53450102 245:0.46236199 
-0.35007897257541409 1:1 
0.99999990649528392 237:0.75629902 252:0.65422601 
0.99999990649528392 113:0.75629902 252:0.65422601 
0.99999990649528392 34:0.5 174:0.5 236:0.5 246:0.5 
0.99999990649528392 147:1 
-0.3495853093166712 93:1 
-0.3495853093166712 202:1 
-0.26181654036623814 70:0.59214801 231:0.68453598 255:0.42517099 
-0.25855393023288603 19:0.53201997 65:0.53201997 85:0.38841301 149:0.53201997 
-0.24037243332546504 15:0.60719901 85:0.51246297 167:0.60719901 
0.99999990649528392 51:1 
0.99999990649528392 152:1 
0.99999990649528392 84:0.75629902 226:0.65422601 
0.99999990649528392 47:0.70710701 118:0.70710701 
0.99999990649528392 208:1 
-0.74273826829676581 96:0.48021501 118:0.55513901 197:0.48021501 218:0.48021501 
-0.35062138222250538 56:1 
-0.35022291994096588 9:1 
-0.31012759802560319 98:0.70710701 222:0.70710701 
-0.073472823390140871 53:0.65422601 222:0.75629902 
0.99999990649528392 229:1 
0.99999990649528392 195:1 
0.99999990649528392 111:1 
0.99999990649528392 211:1 
0.99999990649528392 130:1 
-0.27534987094844915 95:0.60321099 172:0.52179903 219:0.60321099 
-0.24608647927163962 233:0.65422601 247:0.75629902 
-0.35020993961988411 86:0.70710701 120:0.70710701 
-0.27487041260911771 166:0.60321099 172:0.52179903 196:0.60321099 
-0.28336041390450878 77:0.384949 108:0.384949 128:0.384949 134:0.384949 151:0.332995 184:0.384949 198:0.384949 
0.99999990649528392 100:0.75629902 139:0.65422601 
0.99999990649528392 39:0.70710701 214:0.70710701 
0.99999990649528392 17:0.57735002 74:0.57735002 129:0.57735002 
0.99999990649528392 76:0.37796399 83:0.37796399 123:0.37796399 148:0.75592899 
0.99999990649528392 145:1 
-0.69154336724803966 104:0.60321099 125:0.60321099 139:0.52179903 
-0.35020993960482422 42:0.70710701 132:0.70710701 
-0.35021046563033309 64:0.57735002 114:0.57735002 201:0.57735002 
-0.35020951868191769 67:0.44721401 72:0.44721401 159:0.44721401 191:0.44721401 243:0.44721401 
-0.2752876451299815 24:0.61800301 168:0.78617603 
0.99999990649528392 119:1 
0.99999990649528392 97:1 
0.99999990649528392 23:0.314356 29:0.36340201 55:0.314356 143:0.314356 158:0.36340201 194:0.20793 206:0.36340201 216:0.36340201 251:0.36340201 
0.99999990649528392 41:0.54821199 58:0.54821199 136:0.54821199 194:0.31367299 
0.83239989449695906 30:0.57020402 179:0.57020402 194:0.32625601 249:0.493247 
-0.8139978159632385 23:0.65422601 79:0.75629902 
-0.35019442843193788 82:0.70710701 244:0.70710701 
-0.35022291994096588 94:1 
-0.35016974383717203 117:1 
-0.35016974383717203 223:1 
0.95551134121416781 60:0.65548998 177:0.65548998 194:0.37505499 
0.95551134121416781 116:0.65548998 140:0.65548998 194:0.37505499 
0.99999990649528392 38:0.52331001 112:0.52331001 144:0.47554901 212:0.47554901 
-0.35019442821854146 33:0.70710701 156:0.70710701 
-0.35016974383717203 48:1 
-0.34948820116361567 162:1 
-0.35019442821854146 92:0.70710701 199:0.70710701 
-0.35044602468267683 200:1 
0.73312402078258365 23:0.53935897 55:0.53935897 143:0.53935897 194:0.35675699 
-0.35023931059046354 31:0.5 59:0.5 154:0.5 163:0.5 
-0.35023931059046354 173:1 
-0.35023931059046354 188:1 
-0.35023931059046354 155:1 
-0.34948820116361567 235:1 
-0.35044602468267683 178:1 
-0.35022291994096588 91:1 
-0.35022291994096588 43:1 
-0.35016974383717203 189:1 
-0.34948820116361567 21:1 
-0.35023931059046354 16:1 
-0.35062138222250538 35:1 
-0.35062138222250538 253:1 
-0.34958508531785526 107:0.70710701 153:0.70710701 
-0.21897033876537705 7:0.63288897 12:0.547472 230:0.547472 
-0.3500792742522611 135:0.57735002 161:0.57735002 210:0.57735002 
-0.34995884818758349 25:0.70710701 81:0.70710701 
-0.34935306713211245 217:1 
-0.34995884818758349 32:0.70710701 50:0.70710701 
-0.3495853093166712 46:1 
-0.35007897257541409 192:1 
-0.35007897257541409 238:1 
-0.3494879772938474 190:0.70710701 239:0.70710701 
-0.35007897257541409 205:1 
-0.35044602468267683 73:1 
-0.35023931059046354 26:1 
-0.34995907240917945 234:1 
-0.35062168470526855 54:0.57735002 90:0.57735002 105:0.57735002 
-0.34926179031267135 6:0.70710701 37:0.70710701 
-0.35062138222250538 109:1 
-0.35022291994096588 240:1 
-0.35016974383717203 256:1 
-0.35007897257541409 27:1 
-0.34948820116361567 57:1 
-0.3494879772938474 124:0.70710701 215:0.70710701 
-0.35007874851861487 11:0.70710701 180:0.70710701 
-0.3492617902974342 22:0.70710701 103:0.70710701 
-0.34940723121092754 209:1 
-0.34940723121092754 10:1 
-0.34948820116361567 187:1 
0.62335940426451308 150:0.694098 194:0.397145 249:0.60042 
-0.34984141854355388 182:1 
-0.34984141854355388 49:1 
-0.34984141854355388 101:1 
-0.34984141854355388 69:1 
-0.34997723444605 181:1 
-0.35023931059046354 228:1 
-0.35023931059046354 126:1 
-0.35023931059046354 28:1 
-0.35021016388522275 193:1 
-0.35044602468267683 71:1 
0.44930988806852673 87:0.694098 194:0.397145 226:0.60042 
-0.34948820116361567 14:1 
-0.34995907240917945 169:1 
-0.34995907240917945 141:1 
-0.28389801769173872 20:0.40848199 78:0.40848199 151:0.70670301 186:0.40848199 
-0.2645977759169823 106:0.64741898 220:0.64741898 255:0.40211701 
-0.24721225992322221 18:0.62832201 85:0.45872 122:0.62832201 
-0.32485943303684067 53:0.52179903 131:0.60321099 164:0.60321099 
-0.25391660239170982 121:0.65548998 127:0.65548998 157:0.37505499 
-0.25391660239170993 89:0.65548998 157:0.37505499 257:0.65548998 
-0.26116049332425056 4:0.60321099 115:0.60321099 213:0.52179903 
-0.2187145809200082 12:0.547472 170:0.63288897 230:0.547472 
-0.24464938191348501 185:0.75629902 233:0.65422601 
-0.30843419367697839 62:0.75629902 110:0.65422601 
-0.23216390626984859 8:0.53478402 36:0.46260801 242:0.46260801 254:0.53478402 
-0.067592847775050022 3:0.47453499 52:0.76401401 157:0.43714899 
-0.16002933095138749 3:0.42022401 61:0.67657 138:0.46454901 157:0.38711599 
-0.20033016453621247 24:0.52571201 66:0.66877002 88:0.52571201 
-0.26685006400453515 44:0.53333902 133:0.53333902 137:0.53333902 255:0.382945 
