SVM-light Version V3.50
0 # kernel type
1 # kernel parameter -d 
1 # kernel parameter -g 
1 # kernel parameter -s 
0 # kernel parameter -r 
EmptyParam # kernel parameter -u 
3 # highest feature index 
955 # number of training documents 
645 # number of support vectors plus 1 
1 # threshold b 
-1.7351248513674198 1:1 2:0 3:0 
1.7351248513674198 1:1 2:0 3:0 
-1.7351248513674198 1:1 2:0 3:0 
1.7351248513674198 1:1 2:0 3:0 
-0.26487514863257933 1:0 2:0 3:0 
1.7351248513674198 1:1 2:0 3:0 
-1.7351248513674198 1:1 2:0 3:0 
1.7351248513674198 1:0 2:0 3:0 
-1.7351248513674198 1:1 2:0 3:0 
1.7351248513674198 1:1 2:0 3:0 
-1.7351248513674198 1:1 2:0 3:0 
1.7351248513674198 1:1 2:0 3:0 
-1.7351248513674198 1:0 2:0 3:0 
1.7351248513674198 1:1 2:0 3:0 
-1.7351248513674198 1:1 2:0 3:0 
1.7351248513674198 1:0 2:0 3:0 
-1.7351248513674198 1:1 2:0 3:0 
1.7351248513674198 1:1 2:0 3:0 
-1.7351248513674198 1:1 2:0 3:0 
1.7351248513674198 1:1 2:0 3:0 
-1.7351248513674198 1:0 2:0 3:0 
1.7351248513674198 1:1 2:0 3:0 
-1.7351248513674198 1:1 2:0 3:0 
1.7351248513674198 1:0 2:0 3:0 
-1.7351248513674198 1:0 2:0 3:0 
1.7351248513674198 1:1 2:0 3:0 
-1.7351248513674198 1:1 2:0 3:0 
1.7351248513674198 1:0 2:0 3:0 
-1.7351248513674198 1:1 2:0 3:0 
1.7351248513674198 1:1 2:0 3:0 
-1.7351248513674198 1:0 2:0 3:0 
1.7351248513674198 1:1 2:0 3:0 
-1.7351248513674198 1:1 2:0 3:0 
1.7351248513674198 1:0 2:0 3:0 
-1.7351248513674198 1:0 2:0 3:0 
1.7351248513674198 1:1 2:0 3:0 
-1.7351248513674198 1:1 2:0 3:0 
1.7351248513674198 1:0 2:0 3:0 
-1.7351248513674198 1:0 2:0 3:0 
1.7351248513674198 1:1 2:0 3:0 
-1.7351248513674198 1:1 2:0 3:0 
1.7351248513674198 1:0 2:0 3:0 
-1.7351248513674198 1:0 2:0 3:0 
1.7351248513674198 1:1 2:0 3:0 
-1.7351248513674198 1:1 2:0 3:0 
1.7351248513674198 1:0 2:0 3:0 
-1.7351248513674198 1:0 2:0 3:0 
1.7351248513674198 1:1 2:0 3:0 
-1.7351248513674198 1:1 2:0 3:0 
1.7351248513674198 1:0 2:0 3:0 
-1.7351248513674198 1:0 2:0 3:0 
1.7351248513674198 1:1 2:0 3:0 
-1.7351248513674198 1:1 2:0 3:0 
1.7351248513674198 1:0 2:0 3:0 
-1.7351248513674198 1:0 2:0 3:0 
1.7351248513674198 1:1 2:0 3:0 
-1.7351248513674198 1:1 2:0 3:0 
1.7351248513674198 1:0 2:0 3:0 
-1.7351248513674198 1:1 2:0 3:0 
1.7351248513674198 1:1 2:0 3:0 
-1.7351248513674198 1:0 2:0 3:0 
1.7351248513674198 1:1 2:0 3:0 
-1.7351248513674198 1:1 2:0 3:0 
1.7351248513674198 1:0 2:0 3:0 
-1.7351248513674198 1:0 2:0 3:0 
1.7351248513674198 1:1 2:0 3:0 
-1.7351248513674198 1:1 2:0 3:0 
1.7351248513674198 1:0 2:0 3:0 
-1.7351248513674198 1:0 2:0 3:0 
1.7351248513674198 1:1 2:0 3:0 
-1.7351248513674198 1:1 2:0 3:0 
1.7351248513674198 1:0 2:0 3:0 
-1.7351248513674198 1:0 2:0 3:0 
1.7351248513674198 1:1 2:0 3:0 
-1.7351248513674198 1:1 2:0 3:0 
1.7351248513674198 1:0 2:0 3:0 
-1.7351248513674198 1:0 2:0 3:0 
1.7351248513674198 1:1 2:0 3:0 
-1.7351248513674198 1:1 2:0 3:0 
1.7351248513674198 1:0 2:0 3:0 
-1.7351248513674198 1:0 2:0 3:0 
1.7351248513674198 1:1 2:0 3:0 
-1.7351248513674198 1:1 2:0 3:0 
1.7351248513674198 1:0 2:0 3:1 
-1.7351248513674198 1:0 2:0 3:1 
1.7351248513674198 1:1 2:0 3:0 
-1.7351248513674198 1:1 2:0 3:0 
1.7351248513674198 1:0 2:0 3:1 
-1.7351248513674198 1:0 2:0 3:1 
1.7351248513674198 1:1 2:0 3:0 
-1.7351248513674198 1:1 2:0 3:0 
1.7351248513674198 1:0 2:0 3:1 
-1.7351248513674198 1:0 2:0 3:1 
1.7351248513674198 1:1 2:0 3:0 
-1.7351248513674198 1:1 2:0 3:0 
1.7351248513674198 1:0 2:0 3:1 
-1.7351248513674198 1:0 2:0 3:1 
1.7351248513674198 1:1 2:0 3:0 
-1.7351248513674198 1:1 2:0 3:0 
1.7351248513674198 1:0 2:0 3:1 
-1.7351248513674198 1:0 2:0 3:1 
0.99999999999999944 1:1 2:0 3:0 
-1.7351248513674198 1:1 2:0 3:0 
1.7351248513674198 1:0 2:0 3:0 
-1.7351248513674198 1:0 2:0 3:0 
1.7351248513674198 1:1 2:0 3:0 
-1.7351248513674198 1:1 2:0 3:0 
1.7351248513674198 1:0 2:0 3:1 
-1.7351248513674198 1:0 2:0 3:1 
1.7351248513674198 1:1 2:0 3:0 
-1.7351248513674198 1:1 2:0 3:0 
1.7351248513674198 1:0 2:0 3:1 
-1.7351248513674198 1:0 2:0 3:1 
1.7351248513674198 1:1 2:0 3:0 
-1.7351248513674198 1:1 2:0 3:0 
1.7351248513674198 1:0 2:0 3:1 
-1.7351248513674198 1:0 2:0 3:1 
1.7351248513674198 1:1 2:0 3:0 
-1.7351248513674198 1:1 2:0 3:0 
1.7351248513674198 1:0 2:0 3:1 
-1.7351248513674198 1:0 2:0 3:1 
1.7351248513674198 1:1 2:0 3:0 
-1.7351248513674198 1:1 2:0 3:0 
1.7351248513674198 1:0 2:0 3:1 
-1.7351248513674198 1:0 2:0 3:1 
1.7351248513674198 1:1 2:0 3:0 
-1.7351248513674198 1:1 2:0 3:0 
1.7351248513674198 1:0 2:0 3:1 
-1.7351248513674198 1:0 2:0 3:1 
1.7351248513674198 1:1 2:0 3:0 
-1.7351248513674198 1:1 2:0 3:0 
1.7351248513674198 1:0 2:0 3:1 
-1.7351248513674198 1:0 2:0 3:1 
1.7351248513674198 1:1 2:0 3:0 
-1.7351248513674198 1:1 2:0 3:0 
1.7351248513674198 1:0 2:0 3:1 
-1.7351248513674198 1:0 2:0 3:1 
1.7351248513674198 1:1 2:0 3:0 
-1.7351248513674198 1:1 2:0 3:0 
1.7351248513674198 1:0 2:0 3:1 
-1.7351248513674198 1:0 2:0 3:1 
1.7351248513674198 1:1 2:0 3:0 
-1.7351248513674198 1:1 2:0 3:0 
1.7351248513674198 1:0 2:0 3:0 
-1.7351248513674198 1:0 2:0 3:0 
1.7351248513674198 1:1 2:0 3:0 
-1.7351248513674198 1:1 2:0 3:0 
1.7351248513674198 1:0 2:0 3:1 
-1.7351248513674198 1:0 2:0 3:1 
1.7351248513674198 1:1 2:0 3:0 
-1.7351248513674198 1:1 2:0 3:0 
1.7351248513674198 1:0 2:0 3:1 
-1.7351248513674198 1:0 2:0 3:1 
1.7351248513674198 1:1 2:0 3:0 
-1.7351248513674198 1:1 2:0 3:0 
1.7351248513674198 1:0 2:0 3:1 
-1.7351248513674198 1:0 2:0 3:1 
1.7351248513674198 1:1 2:0 3:0 
-1.7351248513674198 1:1 2:0 3:0 
1.7351248513674198 1:0 2:0 3:1 
-1.7351248513674198 1:0 2:0 3:1 
1.7351248513674198 1:1 2:0 3:0 
-1.7351248513674198 1:1 2:0 3:0 
1.7351248513674198 1:0 2:0 3:1 
-1.7351248513674198 1:0 2:0 3:1 
1.7351248513674198 1:1 2:0 3:0 
-1.7351248513674198 1:1 2:0 3:0 
1.7351248513674198 1:0 2:0 3:1 
-1.7351248513674198 1:0 2:0 3:1 
1.7351248513674198 1:1 2:0 3:0 
-1.7351248513674198 1:1 2:0 3:0 
1.7351248513674198 1:0 2:0 3:1 
-1.7351248513674198 1:0 2:0 3:1 
1.7351248513674198 1:1 2:0 3:0 
-1.7351248513674198 1:1 2:0 3:0 
1.7351248513674198 1:0 2:0 3:1 
-1.7351248513674198 1:0 2:0 3:1 
1.7351248513674198 1:1 2:0 3:0 
-1.7351248513674198 1:1 2:0 3:0 
1.7351248513674198 1:0 2:0 3:1 
-1.7351248513674198 1:0 2:0 3:1 
1.7351248513674198 1:1 2:0 3:0 
-1.7351248513674198 1:1 2:0 3:0 
1.7351248513674198 1:0 2:0 3:1 
-1.7351248513674198 1:0 2:0 3:1 
1.7351248513674198 1:1 2:0 3:0 
-1.7351248513674198 1:1 2:0 3:0 
1.7351248513674198 1:0 2:0 3:1 
-1.7351248513674198 1:0 2:0 3:1 
1.7351248513674198 1:1 2:0 3:0 
-1.7351248513674198 1:1 2:0 3:0 
1.7351248513674198 1:0 2:0 3:1 
-1.7351248513674198 1:0 2:0 3:1 
1.7351248513674198 1:1 2:0 3:0 
-1.7351248513674198 1:1 2:0 3:0 
1.7351248513674198 1:0 2:0 3:1 
-1.7351248513674198 1:0 2:0 3:1 
1.7351248513674198 1:1 2:0 3:0 
-1.7351248513674198 1:1 2:0 3:0 
1.7351248513674198 1:0 2:0 3:1 
-1.7351248513674198 1:0 2:0 3:1 
1.7351248513674198 1:1 2:0 3:0 
-1.7351248513674198 1:1 2:0 3:0 
1.7351248513674198 1:0 2:0 3:0 
-1.7351248513674198 1:0 2:0 3:0 
1.7351248513674198 1:1 2:0 3:0 
-1.7351248513674198 1:1 2:0 3:0 
1.7351248513674198 1:0 2:0 3:1 
-1.7351248513674198 1:0 2:0 3:1 
1.7351248513674198 1:1 2:0 3:0 
-1.7351248513674198 1:1 2:0 3:0 
1.7351248513674198 1:0 2:0 3:1 
-1.7351248513674198 1:0 2:0 3:1 
1.7351248513674198 1:1 2:0 3:0 
-1.7351248513674198 1:1 2:0 3:0 
1.7351248513674198 1:0 2:0 3:1 
-1.7351248513674198 1:0 2:0 3:1 
1.7351248513674198 1:1 2:0 3:0 
-1.7351248513674198 1:1 2:0 3:0 
1.7351248513674198 1:0 2:0 3:1 
-1.7351248513674198 1:0 2:0 3:1 
1.7351248513674198 1:1 2:0 3:0 
-1.7351248513674198 1:1 2:0 3:0 
1.7351248513674198 1:0 2:0 3:1 
-1.7351248513674198 1:0 2:0 3:1 
1.7351248513674198 1:1 2:0 3:0 
-1.7351248513674198 1:1 2:0 3:0 
1.7351248513674198 1:0 2:0 3:0 
-1.7351248513674198 1:0 2:0 3:0 
1.7351248513674198 1:1 2:0 3:0 
-1.7351248513674198 1:1 2:0 3:0 
1.7351248513674198 1:0 2:0 3:1 
-1.7351248513674198 1:0 2:0 3:1 
1.7351248513674198 1:1 2:0 3:0 
-1.7351248513674198 1:1 2:0 3:0 
1.7351248513674198 1:0 2:0 3:1 
-1.7351248513674198 1:0 2:0 3:1 
1.7351248513674198 1:1 2:0 3:0 
-1.7351248513674198 1:1 2:0 3:0 
1.7351248513674198 1:0 2:0 3:1 
-1.7351248513674198 1:0 2:0 3:1 
1.7351248513674198 1:1 2:0 3:0 
-1.7351248513674198 1:1 2:0 3:0 
1.7351248513674198 1:0 2:0 3:1 
-1.7351248513674198 1:0 2:0 3:1 
1.7351248513674198 1:1 2:0 3:0 
-1.7351248513674198 1:1 2:0 3:0 
1.7351248513674198 1:0 2:0 3:0 
-1.7351248513674198 1:0 2:0 3:0 
1.7351248513674198 1:1 2:0 3:0 
-1.7351248513674198 1:1 2:0 3:0 
1.7351248513674198 1:0 2:0 3:1 
-1.7351248513674198 1:0 2:0 3:1 
1.7351248513674198 1:1 2:0 3:0 
-1.7351248513674198 1:1 2:0 3:0 
1.7351248513674198 1:0 2:0 3:1 
-1.7351248513674198 1:0 2:0 3:1 
1.7351248513674198 1:1 2:0 3:0 
-1.7351248513674198 1:1 2:0 3:0 
1.7351248513674198 1:0 2:0 3:1 
-1.7351248513674198 1:0 2:0 3:1 
1.7351248513674198 1:1 2:0 3:0 
-1.7351248513674198 1:1 2:0 3:0 
1.7351248513674198 1:0 2:0 3:1 
-1.7351248513674198 1:0 2:0 3:1 
1.7351248513674198 1:1 2:0 3:0 
-1.7351248513674198 1:1 2:0 3:0 
1.7351248513674198 1:0 2:0 3:1 
-1.7351248513674198 1:0 2:0 3:1 
1.7351248513674198 1:1 2:0 3:0 
-1.7351248513674198 1:1 2:0 3:0 
1.7351248513674198 1:0 2:0 3:1 
-1.7351248513674198 1:0 2:0 3:1 
1.7351248513674198 1:1 2:0 3:0 
-1.7351248513674198 1:1 2:0 3:0 
1.7351248513674198 1:0 2:0 3:1 
-1.7351248513674198 1:0 2:0 3:1 
1.7351248513674198 1:1 2:0 3:0 
-1.7351248513674198 1:1 2:0 3:0 
1.7351248513674198 1:0 2:0 3:1 
-1.7351248513674198 1:0 2:0 3:1 
1.7351248513674198 1:1 2:0 3:0 
-1.7351248513674198 1:1 2:0 3:0 
1.7351248513674198 1:0 2:0 3:1 
-1.7351248513674198 1:0 2:0 3:1 
1.7351248513674198 1:1 2:0 3:0 
-1.7351248513674198 1:1 2:0 3:0 
1.7351248513674198 1:0 2:0 3:1 
-1.7351248513674198 1:0 2:0 3:1 
1.7351248513674198 1:1 2:0 3:0 
-1.7351248513674198 1:1 2:0 3:0 
1.7351248513674198 1:0 2:0 3:1 
-1.7351248513674198 1:0 2:0 3:1 
1.7351248513674198 1:1 2:0 3:0 
-1.7351248513674198 1:1 2:0 3:0 
1.7351248513674198 1:0 2:0 3:0 
-1.7351248513674198 1:0 2:0 3:0 
1.7351248513674198 1:1 2:0 3:0 
-1.7351248513674198 1:1 2:0 3:0 
1.7351248513674198 1:0 2:0 3:1 
-1.7351248513674198 1:0 2:0 3:1 
1.7351248513674198 1:1 2:0 3:0 
-1.7351248513674198 1:1 2:0 3:0 
1.7351248513674198 1:0 2:0 3:1 
-1.7351248513674198 1:0 2:0 3:1 
1.7351248513674198 1:1 2:0 3:0 
-1.7351248513674198 1:1 2:0 3:0 
1.7351248513674198 1:0 2:0 3:1 
-1.7351248513674198 1:0 2:0 3:1 
1.7351248513674198 1:1 2:0 3:0 
-1.7351248513674198 1:1 2:0 3:0 
1.7351248513674198 1:0 2:0 3:1 
-1.7351248513674198 1:0 2:0 3:1 
1.7351248513674198 1:1 2:0 3:0 
-1.7351248513674198 1:0 2:0 3:0 
1.7351248513674198 1:0 2:0 3:1 
-1.7351248513674198 1:0 2:0 3:1 
1.7351248513674198 1:0 2:0 3:0 
-1.7351248513674198 1:0 2:0 3:0 
1.7351248513674198 1:0 2:0 3:1 
-1.7351248513674198 1:0 2:0 3:1 
1.7351248513674198 1:0 2:0 3:0 
-1.7351248513674198 1:0 2:0 3:0 
1.7351248513674198 1:0 2:0 3:1 
-1.7351248513674198 1:0 2:0 3:1 
1.7351248513674198 1:0 2:0 3:0 
-1.7351248513674198 1:0 2:0 3:0 
1.7351248513674198 1:0 2:0 3:1 
-1.7351248513674198 1:0 2:0 3:1 
1.7351248513674198 1:0 2:0 3:0 
-1.7351248513674198 1:0 2:0 3:0 
1.7351248513674198 1:0 2:0 3:1 
-1.7351248513674198 1:0 2:0 3:1 
1.7351248513674198 1:0 2:0 3:0 
-1.7351248513674198 1:0 2:0 3:0 
1.7351248513674198 1:0 2:0 3:1 
-1.7351248513674198 1:0 2:0 3:1 
1.7351248513674198 1:0 2:0 3:0 
-1.7351248513674198 1:0 2:0 3:0 
1.7351248513674198 1:0 2:0 3:1 
-1.7351248513674198 1:0 2:0 3:1 
1.7351248513674198 1:0 2:0 3:0 
-1.7351248513674198 1:0 2:0 3:0 
1.7351248513674198 1:0 2:0 3:1 
-1.7351248513674198 1:0 2:0 3:1 
1.7351248513674198 1:0 2:0 3:0 
-1.7351248513674198 1:0 2:0 3:0 
1.7351248513674198 1:0 2:0 3:1 
-1.7351248513674198 1:0 2:0 3:1 
1.7351248513674198 1:0 2:0 3:0 
-1.7351248513674198 1:0 2:0 3:0 
1.7351248513674198 1:0 2:0 3:1 
-1.7351248513674198 1:0 2:0 3:1 
1.7351248513674198 1:0 2:0 3:0 
-1.7351248513674198 1:0 2:0 3:0 
1.7351248513674198 1:0 2:0 3:1 
-1.7351248513674198 1:0 2:0 3:1 
1.7351248513674198 1:0 2:0 3:0 
-1.7351248513674198 1:0 2:0 3:0 
1.7351248513674198 1:0 2:0 3:1 
-1.7351248513674198 1:0 2:0 3:1 
1.7351248513674198 1:0 2:0 3:0 
-1.7351248513674198 1:0 2:0 3:0 
1.7351248513674198 1:0 2:0 3:1 
-1.7351248513674198 1:0 2:0 3:1 
1.7351248513674198 1:0 2:0 3:0 
-1.7351248513674198 1:0 2:0 3:0 
1.7351248513674198 1:0 2:0 3:1 
-1.7351248513674198 1:0 2:0 3:1 
1.7351248513674198 1:0 2:0 3:0 
-1.7351248513674198 1:0 2:0 3:0 
1.7351248513674198 1:0 2:0 3:1 
-1.7351248513674198 1:0 2:0 3:1 
1.7351248513674198 1:0 2:0 3:0 
-1.7351248513674198 1:0 2:0 3:0 
1.7351248513674198 1:0 2:0 3:1 
-1.7351248513674198 1:0 2:0 3:1 
1.7351248513674198 1:0 2:0 3:0 
-1.7351248513674198 1:0 2:0 3:0 
1.7351248513674198 1:0 2:0 3:1 
-1.7351248513674198 1:0 2:0 3:1 
1.7351248513674198 1:0 2:0 3:0 
-1.7351248513674198 1:0 2:0 3:0 
1.7351248513674198 1:0 2:0 3:1 
-1.7351248513674198 1:0 2:0 3:1 
1.7351248513674198 1:0 2:0 3:0 
-1.7351248513674198 1:0 2:0 3:0 
1.7351248513674198 1:0 2:0 3:1 
-1.7351248513674198 1:0 2:0 3:1 
1.7351248513674198 1:0 2:0 3:0 
-1.7351248513674198 1:0 2:0 3:0 
1.7351248513674198 1:0 2:0 3:1 
-1.7351248513674198 1:0 2:0 3:1 
1.7351248513674198 1:0 2:0 3:0 
-1.7351248513674198 1:0 2:0 3:0 
1.7351248513674198 1:0 2:0 3:1 
-1.7351248513674198 1:0 2:0 3:1 
1.7351248513674198 1:0 2:0 3:0 
-1.7351248513674198 1:0 2:0 3:0 
1.7351248513674198 1:0 2:0 3:1 
-1.7351248513674198 1:0 2:0 3:1 
1.7351248513674198 1:0 2:0 3:0 
-1.7351248513674198 1:0 2:0 3:0 
1.7351248513674198 1:0 2:0 3:1 
-1.7351248513674198 1:0 2:0 3:1 
1.7351248513674198 1:0 2:0 3:0 
-1.7351248513674198 1:0 2:0 3:0 
1.7351248513674198 1:0 2:0 3:1 
-1.7351248513674198 1:0 2:0 3:1 
1.7351248513674198 1:0 2:0 3:0 
-1.7351248513674198 1:0 2:0 3:0 
1.7351248513674198 1:0 2:0 3:1 
-1.7351248513674198 1:0 2:0 3:1 
1.7351248513674198 1:0 2:0 3:0 
-1.7351248513674198 1:0 2:0 3:0 
1.7351248513674198 1:0 2:0 3:1 
-1.7351248513674198 1:0 2:0 3:1 
1.7351248513674198 1:0 2:0 3:0 
-1.7351248513674198 1:0 2:0 3:0 
1.7351248513674198 1:0 2:0 3:1 
-1.7351248513674198 1:0 2:0 3:1 
1.7351248513674198 1:0 2:0 3:0 
-1.7351248513674198 1:0 2:0 3:0 
1.7351248513674198 1:0 2:0 3:1 
-1.7351248513674198 1:0 2:0 3:1 
1.7351248513674198 1:0 2:0 3:0 
-1.7351248513674198 1:0 2:0 3:0 
1.7351248513674198 1:0 2:0 3:1 
-1.7351248513674198 1:0 2:0 3:1 
1.0000000000000002 1:1 2:0 3:0 
1.7351248513674198 1:0 2:0 3:1 
-1.7351248513674198 1:0 2:0 3:1 
1.7351248513674198 1:0 2:0 3:1 
-1.7351248513674198 1:0 2:0 3:1 
1.7351248513674198 1:0 2:0 3:1 
-1.7351248513674198 1:0 2:0 3:1 
1.7351248513674198 1:0 2:0 3:1 
-1.7351248513674198 1:0 2:0 3:1 
1.7351248513674198 1:0 2:0 3:1 
-1.7351248513674198 1:0 2:0 3:1 
1.7351248513674198 1:0 2:0 3:1 
-1.7351248513674198 1:0 2:0 3:1 
1.7351248513674198 1:0 2:0 3:1 
-1.7351248513674198 1:0 2:0 3:1 
1.7351248513674198 1:0 2:0 3:1 
-1.7351248513674198 1:0 2:0 3:1 
1.7351248513674198 1:0 2:0 3:1 
-1.7351248513674198 1:0 2:0 3:1 
1.7351248513674198 1:0 2:0 3:1 
-1.7351248513674198 1:0 2:0 3:1 
1.7351248513674198 1:0 2:0 3:1 
-1.7351248513674198 1:0 2:0 3:1 
1.7351248513674198 1:0 2:0 3:1 
-1.7351248513674198 1:0 2:0 3:1 
1.7351248513674198 1:0 2:0 3:1 
-1.7351248513674198 1:0 2:0 3:1 
1.7351248513674198 1:0 2:0 3:1 
-1.7351248513674198 1:0 2:0 3:1 
1.7351248513674198 1:0 2:0 3:1 
-1.7351248513674198 1:0 2:0 3:1 
1.7351248513674198 1:0 2:0 3:1 
-1.7351248513674198 1:0 2:0 3:1 
1.7351248513674198 1:0 2:0 3:1 
-1.7351248513674198 1:0 2:0 3:1 
1.7351248513674198 1:0 2:0 3:1 
-1.7351248513674198 1:0 2:0 3:1 
1.7351248513674198 1:0 2:0 3:1 
-1.7351248513674198 1:0 2:0 3:1 
1.7351248513674198 1:0 2:0 3:1 
-1.7351248513674198 1:0 2:0 3:1 
1.7351248513674198 1:0 2:0 3:1 
-1.7351248513674198 1:0 2:0 3:1 
1.7351248513674198 1:0 2:0 3:1 
-1.7351248513674198 1:0 2:0 3:1 
1.7351248513674198 1:0 2:0 3:1 
-1.7351248513674198 1:0 2:0 3:1 
1.7351248513674198 1:0 2:0 3:1 
-1.7351248513674198 1:0 2:0 3:1 
1.7351248513674198 1:0 2:0 3:1 
-1.7351248513674198 1:0 2:0 3:1 
1.7351248513674198 1:0 2:0 3:1 
-1.7351248513674198 1:0 2:0 3:1 
1.7351248513674198 1:0 2:0 3:1 
-1.7351248513674198 1:0 2:0 3:1 
1.7351248513674198 1:0 2:0 3:1 
-1.7351248513674198 1:0 2:0 3:1 
1.7351248513674198 1:0 2:0 3:1 
-1.7351248513674198 1:0 2:0 3:1 
1.7351248513674198 1:0 2:0 3:1 
-1.7351248513674198 1:0 2:0 3:1 
1.7351248513674198 1:0 2:0 3:1 
-1.7351248513674198 1:0 2:0 3:1 
1.7351248513674198 1:0 2:0 3:1 
-1.7351248513674198 1:0 2:0 3:1 
1.7351248513674198 1:0 2:0 3:1 
-1.7351248513674198 1:0 2:0 3:1 
1.7351248513674198 1:0 2:0 3:1 
-1.7351248513674198 1:0 2:0 3:1 
1.7351248513674198 1:0 2:0 3:1 
-1.7351248513674198 1:0 2:0 3:1 
1.7351248513674198 1:0 2:0 3:1 
-1.7351248513674198 1:0 2:0 3:1 
1.7351248513674198 1:0 2:0 3:1 
-1.7351248513674198 1:0 2:0 3:1 
1.7351248513674198 1:0 2:0 3:1 
-1.7351248513674198 1:0 2:0 3:1 
1.7351248513674198 1:0 2:0 3:1 
-1.7351248513674198 1:0 2:0 3:1 
1.7351248513674198 1:0 2:0 3:1 
-1.7351248513674198 1:0 2:0 3:1 
1.7351248513674198 1:0 2:0 3:1 
-1.7351248513674198 1:0 2:0 3:1 
1.7351248513674198 1:0 2:0 3:1 
-1.7351248513674198 1:0 2:0 3:1 
1.7351248513674198 1:0 2:0 3:1 
-1.7351248513674198 1:0 2:0 3:1 
1.7351248513674198 1:0 2:0 3:1 
-1.7351248513674198 1:0 2:0 3:1 
1.7351248513674198 1:0 2:0 3:1 
-1.7351248513674198 1:0 2:0 3:1 
1.7351248513674198 1:0 2:0 3:1 
-1.7351248513674198 1:0 2:0 3:1 
1.7351248513674198 1:0 2:0 3:1 
-1.7351248513674198 1:0 2:0 3:1 
1.7351248513674198 1:0 2:0 3:1 
-1.7351248513674198 1:0 2:0 3:1 
1.7351248513674198 1:0 2:0 3:1 
-1.7351248513674198 1:0 2:0 3:1 
1.7351248513674198 1:0 2:0 3:1 
-1.7351248513674198 1:0 2:0 3:1 
1.7351248513674198 1:0 2:0 3:1 
-1.7351248513674198 1:0 2:0 3:1 
1.7351248513674198 1:0 2:0 3:1 
-1.7351248513674198 1:0 2:0 3:1 
1.7351248513674198 1:0 2:0 3:1 
-1.7351248513674198 1:0 2:0 3:1 
1.7351248513674198 1:0 2:0 3:1 
-1.7351248513674198 1:0 2:0 3:1 
1.7351248513674198 1:0 2:0 3:1 
-1.7351248513674198 1:0 2:0 3:1 
1.7351248513674198 1:0 2:0 3:1 
-1.7351248513674198 1:0 2:0 3:1 
1.7351248513674198 1:0 2:0 3:1 
-1.7351248513674198 1:0 2:0 3:1 
1.7351248513674198 1:0 2:0 3:1 
-1.7351248513674198 1:0 2:0 3:1 
1.7351248513674198 1:0 2:0 3:1 
-1.7351248513674198 1:0 2:0 3:1 
1.7351248513674198 1:0 2:0 3:1 
-1.7351248513674198 1:0 2:0 3:1 
1.7351248513674198 1:0 2:0 3:1 
-1.7351248513674198 1:0 2:0 3:1 
1.7351248513674198 1:0 2:0 3:1 
-1.7351248513674198 1:0 2:0 3:1 
1.7351248513674198 1:0 2:0 3:1 
-1.7351248513674198 1:0 2:0 3:1 
1.7351248513674198 1:0 2:0 3:1 
-1.7351248513674198 1:0 2:0 3:1 
1.7351248513674198 1:0 2:0 3:1 
-1.7351248513674198 1:0 2:0 3:1 
1.7351248513674198 1:0 2:0 3:1 
-1.7351248513674198 1:0 2:0 3:1 
1.7351248513674198 1:0 2:0 3:1 
-1.7351248513674198 1:0 2:0 3:1 
1.7351248513674198 1:0 2:0 3:1 
-1.7351248513674198 1:0 2:0 3:1 
1.7351248513674198 1:0 2:0 3:1 
-1.7351248513674198 1:0 2:0 3:1 
1.7351248513674198 1:0 2:0 3:1 
-1.7351248513674198 1:0 2:0 3:1 
1.7351248513674198 1:0 2:0 3:1 
-1.7351248513674198 1:0 2:0 3:1 
1.7351248513674198 1:0 2:0 3:1 
-1.7351248513674198 1:0 2:0 3:1 
1.7351248513674198 1:0 2:0 3:1 
-1.7351248513674198 1:0 2:0 3:1 
1.7351248513674198 1:0 2:0 3:1 
-1.7351248513674198 1:0 2:0 3:1 
1.7351248513674198 1:0 2:0 3:1 
-1.7351248513674198 1:0 2:0 3:1 
1.7351248513674198 1:0 2:0 3:1 
-1.7351248513674198 1:0 2:0 3:1 
1.7351248513674198 1:0 2:0 3:1 
-1.7351248513674198 1:0 2:0 3:1 
1.7351248513674198 1:0 2:0 3:1 
-1.7351248513674198 1:0 2:0 3:1 
1.7351248513674198 1:0 2:0 3:1 
-1.7351248513674198 1:0 2:0 3:1 
1.7351248513674198 1:0 2:0 3:1 
-1.7351248513674198 1:0 2:0 3:1 
1.7351248513674198 1:0 2:0 3:1 
-1.7351248513674198 1:0 2:0 3:1 
1.7351248513674198 1:0 2:0 3:1 
-1.7351248513674198 1:0 2:0 3:1 
1.7351248513674198 1:0 2:0 3:1 
-1.7351248513674198 1:0 2:0 3:1 
1.7351248513674198 1:0 2:0 3:1 
-1.7351248513674198 1:0 2:0 3:1 
1.7351248513674198 1:0 2:0 3:1 
-1.7351248513674198 1:0 2:0 3:1 
1.7351248513674198 1:0 2:0 3:1 
-1.7351248513674198 1:0 2:0 3:1 
1.7351248513674198 1:0 2:0 3:1 
-1.7351248513674198 1:0 2:0 3:1 
1.7351248513674198 1:0 2:0 3:1 
-1.7351248513674198 1:0 2:0 3:1 
1.7351248513674198 1:0 2:0 3:1 
-1.7351248513674198 1:0 2:0 3:1 
1.7351248513674198 1:0 2:0 3:1 
-1.7351248513674198 1:0 2:0 3:1 
1.7351248513674198 1:0 2:0 3:1 
-1.7351248513674198 1:0 2:0 3:1 
1.7351248513674198 1:0 2:0 3:1 
-1.7351248513674198 1:0 2:0 3:1 
1.7351248513674198 1:0 2:0 3:1 
-1.7351248513674198 1:0 2:0 3:1 
1.7351248513674198 1:0 2:0 3:1 
-1.7351248513674198 1:0 2:0 3:1 
1.7351248513674198 1:0 2:0 3:1 
-1.7351248513674198 1:0 2:0 3:1 
1.7351248513674198 1:0 2:0 3:1 
-1.7351248513674198 1:0 2:0 3:1 
1.7351248513674198 1:0 2:0 3:1 
-1.7351248513674198 1:0 2:0 3:1 
1.7351248513674198 1:0 2:0 3:1 
-1.7351248513674198 1:0 2:0 3:1 
1.7351248513674198 1:0 2:0 3:1 
-1.7351248513674198 1:0 2:0 3:1 
1.7351248513674198 1:0 2:0 3:1 
-1.7351248513674198 1:0 2:0 3:1 
1.7351248513674198 1:0 2:0 3:1 
-1.7351248513674198 1:0 2:0 3:1 
1.7351248513674198 1:0 2:0 3:1 
-1.7351248513674198 1:0 2:0 3:1 
1.7351248513674198 1:0 2:0 3:1 
-1.7351248513674198 1:0 2:0 3:1 
1.7351248513674198 1:0 2:0 3:1 
-1.7351248513674198 1:0 2:0 3:1 
1.7351248513674198 1:0 2:0 3:1 
-1.7351248513674198 1:0 2:0 3:1 
1.7351248513674198 1:0 2:0 3:1 
-1.7351248513674198 1:0 2:0 3:1 
1.7351248513674198 1:0 2:0 3:1 
-1.7351248513674198 1:0 2:0 3:1 
