SVM-light Version V3.50
0 # kernel type
1 # kernel parameter -d 
1 # kernel parameter -g 
1 # kernel parameter -s 
0 # kernel parameter -r 
EmptyParam # kernel parameter -u 
1000 # highest feature index 
418 # number of training documents 
163 # number of support vectors plus 1 
0.97063461 # threshold b 
-0.27240389307802088 104:0.069066003 168:0.17396 194:0.165611 220:0.143617 235:0.25417 238:0.15878899 248:0.14802399 262:0.223827 290:0.165611 294:0.184724 307:0.184724 338:0.143617 362:0.184724 514:0.10851 538:0.165611 579:0.15878899 590:0.117682 603:0.19989599 628:0.115658 634:0.184724 641:0.127085 658:0.17396 684:0.17396 686:0.17396 697:0.306041 776:0.19989599 806:0.15878899 836:0.117682 842:0.184724 848:0.097341001 857:0.244177 904:0.11982 915:0.10851 923:0.15302099 927:0.080982 
-0.10606158349356283 63:0.081014998 179:0.044171002 200:0.110518 229:0.064865999 230:0.118554 247:0.104284 297:0.114248 302:0.067734003 328:0.32168201 330:0.042900998 342:0.110518 351:0.12988199 421:0.118554 458:0.118554 469:0.13791899 554:0.070096001 566:0.13791899 700:0.13791899 711:0.13791899 713:0.17892 748:0.47421801 773:0.55167401 790:0.114248 797:0.13791899 850:0.099189997 875:0.092956997 881:0.13791899 882:0.14924601 910:0.13791899 911:0.12988199 
-0.59910259996589321 31:0.140751 48:0.25694999 49:0.169912 104:0.063528001 194:0.15233099 202:0.132101 208:0.16001099 230:0.146056 272:0.1222 309:0.093038999 314:0.169912 349:0.119445 389:0.125195 440:0.128475 468:0.106384 477:0.36660001 485:0.140751 512:0.13615499 527:0.264202 538:0.30466199 549:0.116895 583:0.15233099 588:0.091830999 663:0.15233099 679:0.110212 687:0.202677 697:0.140751 702:0.16001099 703:0.16001099 732:0.140751 760:0.140751 762:0.077482998 767:0.096938998 784:0.16001099 855:0.101339 915:0.099808998 942:0.16001099 945:0.169912 
-0.99999993212504223 35:0.201278 104:0.15051 314:0.201278 329:0.189549 330:0.06261 338:0.156487 372:0.17301799 389:0.29661101 425:0.201278 429:0.141495 526:0.201278 549:0.138473 554:0.102298 569:0.166733 628:0.12602299 684:0.189549 687:0.120046 709:0.17301799 730:0.189549 732:0.33346599 767:0.114834 800:0.166733 808:0.12602299 819:0.25645399 857:0.133029 864:0.201278 866:0.18045101 867:0.21780901 916:0.138473 927:0.088238001 973:0.156487 
-0.81192571020227722 1:0.131273 84:0.173613 105:0.173613 131:0.100486 249:0.46694699 258:0.139121 286:0.13497899 309:0.095064998 322:0.163496 363:0.089286998 380:0.108702 389:0.25584301 420:0.117015 435:0.163496 475:0.127922 477:0.124862 499:0.139121 509:0.173613 513:0.13497899 673:0.192688 686:0.32699299 687:0.103546 695:0.13497899 736:0.163496 767:0.198101 796:0.14381699 808:0.108702 841:0.18787199 973:0.13497899 986:0.173613 996:0.173613 997:0.101983 
0.99999993212504223 5:0.13190199 8:0.15318701 17:0.072972998 40:0.304203 108:0.110046 131:0.098196 139:0.18358999 173:0.16965599 185:0.16965599 234:0.145836 274:0.145836 289:0.33931199 294:0.16965599 330:0.21109401 389:0.12500601 406:0.16965599 423:0.145836 429:0.119265 468:0.106224 477:0.122016 523:0.152101 549:0.116718 558:0.152101 586:0.21616399 646:0.114348 681:0.101186 686:0.15977 726:0.15977 822:0.31953999 855:0.101186 857:0.224259 858:0.145836 865:0.152101 938:0.152101 
0.99999993212504223 26:0.16177 63:0.100906 133:0.102453 144:0.120759 151:0.16177 162:0.142298 229:0.080792002 296:0.142298 306:0.142298 372:0.295324 389:0.126571 423:0.147662 429:0.120759 445:0.076788001 499:0.13765199 508:0.32354099 549:0.11818 574:0.183322 590:0.109435 593:0.147662 627:0.147662 658:0.16177 659:0.13765199 664:0.154006 677:0.147662 679:0.111424 686:0.32354099 694:0.295324 819:0.109435 827:0.16177 857:0.340601 938:0.154006 
0.99999993212504223 17:0.069067001 71:0.160575 144:0.112882 224:0.48172599 247:0.36424601 272:0.115485 294:0.160575 302:0.078860998 306:0.13301601 370:0.104156 372:0.13802999 389:0.23662999 415:0.17376301 423:0.27605999 429:0.112882 430:0.28792101 549:0.22094201 586:0.102297 617:0.095770001 648:0.151218 664:0.14396 673:0.089109004 695:0.124842 701:0.160575 777:0.098870002 784:0.151218 805:0.078860998 836:0.102297 857:0.106128 968:0.13802999 
0.37458177728506992 8:0.079821996 63:0.103859 104:0.066105001 108:0.114684 144:0.124292 162:0.14646199 173:0.176806 206:0.085877001 235:0.121638 280:0.14646199 305:0.15198199 372:0.303965 389:0.52109802 496:0.141679 549:0.36491299 575:0.158512 584:0.116855 593:0.15198199 648:0.166503 664:0.158512 686:0.166503 687:0.105451 689:0.14646199 690:0.13746101 761:0.176806 857:0.116855 858:0.15198199 885:0.141679 996:0.176806 
0.99999993212504223 17:0.080774002 24:0.141996 63:0.110313 111:0.176851 144:0.132016 162:0.155563 188:0.155563 206:0.091214001 235:0.129197 276:0.104213 302:0.092228003 305:0.16142701 306:0.155563 309:0.10283 377:0.176851 389:0.276741 396:0.155563 444:0.079282001 445:0.251838 477:0.13506 481:0.115629 499:0.150484 514:0.33093801 549:0.25839299 553:0.176851 569:0.155563 586:0.119637 588:0.101495 646:0.126572 648:0.176851 664:0.16836201 679:0.121811 686:0.176851 709:0.16142701 808:0.11758 870:0.16142701 882:0.203217 948:0.132016 
-0.83776269752243637 63:0.077933997 80:0.114046 179:0.042491999 200:0.106315 206:0.064441003 229:0.062399 247:0.100318 286:0.10315 318:0.263062 353:0.118946 389:0.19551399 396:0.109903 440:0.100318 444:0.056012001 449:0.17884301 473:0.072648004 482:0.075694002 500:0.13267399 504:0.24507099 509:0.13267399 514:0.46760699 549:0.091275997 581:0.106315 586:0.169044 617:0.079129003 659:0.106315 664:0.35683799 681:0.079129003 686:0.124943 687:0.079129003 696:0.114046 699:0.109903 711:0.13267399 713:0.086057998 734:0.100318 762:0.060501002 777:0.081689999 793:0.118946 797:0.13267399 805:0.065158002 827:0.124943 857:0.087687001 870:0.114046 885:0.106315 890:0.13267399 909:0.074639998 915:0.15586901 927:0.058162998 1000:0.095417999 
-0.035623431566684752 179:0.058972999 193:0.064722002 201:0.184135 206:0.044718001 231:0.064722002 247:0.13923 262:0.055778001 302:0.271294 305:0.158282 306:0.38133201 309:0.050413001 320:0.076265998 330:0.028639 345:0.092068002 360:0.086703002 366:0.060849998 393:0.158282 396:0.076265998 401:0.082540996 423:0.079140998 444:0.116607 445:0.16462199 482:0.052526999 495:0.079140998 515:0.092068002 528:0.082540996 543:0.086703002 569:0.076265998 578:0.228799 594:0.07158 657:0.056688 659:0.073775999 672:0.31077299 677:0.079140998 711:0.092068002 713:0.059719 715:0.073775999 745:0.076265998 774:0.16508301 810:0.16508301 821:0.39851701 851:0.184135 857:0.121699 882:0.099629 909:0.103591 922:0.21473899 926:0.057645001 927:0.040362 974:0.092068002 
-0.99999993212504223 80:0.17920201 206:0.101257 251:0.19632401 293:0.090521999 318:0.137784 330:0.064847998 389:0.30721301 418:0.27556899 549:0.430269 580:0.162081 679:0.270448 689:0.51807898 692:0.15763099 742:0.19632401 857:0.137784 876:0.208472 909:0.117282 934:0.15763099 
-0.5046833655250671 17:0.047451001 18:0.103892 133:0.065797001 168:0.103892 179:0.035332002 182:0.23876201 237:0.22064 270:0.103892 289:0.11032 311:0.119381 316:0.091385998 326:0.519458 328:0.085770003 330:0.034316 377:0.103892 423:0.37932399 429:0.077552997 437:0.119381 451:0.098904997 475:0.081285998 502:0.11032 514:0.064804003 591:0.11032 599:0.060408 642:0.18277299 646:0.074354999 671:0.103892 677:0.094830997 679:0.071558997 686:0.207783 705:0.22064 781:0.103892 822:0.103892 857:0.29165301 867:0.119381 882:0.119381 915:0.12960701 970:0.098904997 
-0.150569375057055 4:0.134799 94:0.079182997 106:0.041931 117:0.101925 146:0.115873 149:0.12694401 169:0.099322997 200:0.108018 206:0.065472998 226:0.26959801 281:0.101925 302:0.132403 313:0.111664 330:0.041931 356:0.087436996 366:0.089092001 381:0.29174 400:0.120851 402:0.101925 411:0.120851 423:0.231746 433:0.134799 444:0.056908999 453:0.115873 475:0.099322997 481:0.165998 485:0.111664 497:0.085876003 501:0.076906003 504:0.082998998 521:0.134799 561:0.134799 574:0.071928002 607:0.120851 613:0.134799 646:0.090853997 666:0.108018 686:0.12694401 687:0.080397002 704:0.134799 747:0.115873 763:0.12694401 828:0.231746 874:0.12694401 887:0.075834997 890:0.134799 941:0.14587 975:0.115873 987:0.43761 991:0.099322997 
0.99999993212504223 5:0.14724401 70:0.156884 102:0.178352 104:0.14162 115:0.130294 140:0.18938901 179:0.060656 229:0.089073002 235:0.130294 253:0.118579 254:0.18938901 258:0.15176199 293:0.082235001 309:0.103703 338:0.14724401 342:0.30352399 371:0.169792 380:0.118579 399:0.169792 424:0.122846 429:0.26627401 471:0.18938901 527:0.14724401 569:0.156884 588:0.204714 607:0.169792 657:0.116611 658:0.178352 681:0.112955 709:0.162798 767:0.108051 808:0.237158 855:0.22590999 857:0.12517101 868:0.11125 875:0.127647 971:0.14724401 996:0.18938901 
0.99999993212504223 61:0.15486901 106:0.061962999 133:0.118805 143:0.17858601 156:0.187589 228:0.16500901 253:0.12472 302:0.097828001 311:0.21555699 335:0.187589 384:0.19919699 411:0.17858601 440:0.150618 451:0.17858601 456:0.137042 501:0.227293 502:0.19919699 508:0.187589 584:0.13165399 603:0.21555699 672:0.112064 688:0.10007 728:0.187589 743:0.19919699 764:0.16500901 797:0.19919699 805:0.097828001 830:0.21555699 855:0.118805 866:0.17858601 923:0.16500901 929:0.137042 949:0.15486901 953:0.146772 963:0.17858601 970:0.17858601 
0.99999993212504223 5:0.191122 100:0.26601601 168:0.231501 248:0.39397401 293:0.106741 299:0.191122 320:0.20363601 390:0.236215 397:0.196987 412:0.22039001 425:0.24582601 442:0.211312 490:0.185876 493:0.24582601 603:0.26601601 673:0.136418 686:0.231501 767:0.14025 850:0.176797 915:0.144402 949:0.191122 
0.99999993212504223 5:0.212679 38:0.184374 104:0.102278 135:0.235145 179:0.087610997 236:0.235145 247:0.20683999 372:0.235145 390:0.131429 410:0.29602 440:0.413681 538:0.245248 583:0.245248 686:0.25761199 762:0.124744 827:0.25761199 927:0.119923 931:0.245248 944:0.27355301 
0.99999993212504223 13:0.22019801 17:0.087523997 179:0.065169998 212:0.203485 214:0.168562 265:0.163058 275:0.139992 276:0.112921 281:0.153861 335:0.19162799 339:0.18243 383:0.163058 423:0.174916 429:0.143047 471:0.203485 512:0.163058 564:0.19162799 592:0.174916 593:0.174916 673:0.112921 695:0.316407 743:0.203485 762:0.092793003 767:0.232187 777:0.125291 805:0.099933997 848:0.107227 877:0.19162799 881:0.203485 896:0.203485 973:0.316407 
-0.23840320897242376 17:0.14664701 20:0.305664 38:0.229794 248:0.273206 298:0.305664 395:0.28242701 445:0.15240499 508:0.32107499 541:0.340942 603:0.36894399 673:0.189201 857:0.225337 904:0.22115 973:0.26507199 
-0.5558977323394757 17:0.10902 90:0.27428001 179:0.081177004 191:0.253463 248:0.203107 253:0.15869699 356:0.164407 363:0.130353 423:0.217877 553:0.238694 603:0.27428001 672:0.14259399 673:0.14065599 686:0.47738701 717:0.16752 762:0.115583 777:0.156064 882:0.27428001 923:0.209962 981:0.27428001 999:0.153559 
-0.27136243307895186 15:0.089071997 69:0.114567 86:0.123976 106:0.035636999 150:0.098480999 155:0.078818999 166:0.084415004 176:0.114567 193:0.080537997 213:0.107891 216:0.123976 233:0.114567 247:0.086626999 253:0.143464 265:0.18361001 269:0.123976 285:0.098480999 300:0.107891 306:0.094903998 323:0.080537997 330:0.035636999 334:0.16107699 364:0.094903998 444:0.048367999 451:0.102712 467:0.102712 478:0.123976 502:0.114567 511:0.123976 530:0.084415004 546:0.107891 584:0.075719997 592:0.098480999 695:0.62350303 713:0.074313 724:0.098480999 736:0.107891 767:0.065362997 772:0.075719997 797:0.114567 827:0.107891 848:0.060371 855:0.068329997 862:0.098480999 876:0.114567 881:0.114567 882:0.247952 896:0.114567 927:0.10045 932:0.114567 957:0.107891 974:0.114567 983:0.102712 
-0.54642128621903463 79:0.237122 106:0.078323998 261:0.20858 281:0.19038799 302:0.247319 355:0.18109 356:0.163325 451:0.225741 471:0.25179499 501:0.143655 504:0.155036 574:0.13435601 584:0.166417 603:0.27247399 624:0.152548 657:0.155036 688:0.12649401 767:0.143655 812:0.27247399 848:0.13268401 857:0.166417 905:0.225741 927:0.110385 933:0.20176899 946:0.27247399 949:0.19576199 971:0.19576199 
-0.99999993212504223 15:0.112987 106:0.045205999 179:0.046544001 183:0.124923 190:0.112987 211:0.136859 214:0.120385 220:0.112987 222:0.145327 253:0.090992004 275:0.099981003 298:0.13029 306:0.48154199 329:0.136859 363:0.22422101 365:0.157263 402:0.109886 423:0.249846 451:0.13029 454:0.145327 468:0.090992004 471:0.145327 496:0.116455 543:0.136859 575:0.13029 577:0.145327 602:0.145327 641:0.099981003 658:0.136859 659:0.34936401 673:0.080646999 686:0.136859 743:0.145327 777:0.089482002 872:0.136859 887:0.081758 916:0.099981003 945:0.145327 957:0.136859 960:0.112987 
0.99999993212504223 72:0.097157001 127:0.105137 131:0.056233998 144:0.068300001 153:0.097157001 193:0.068300001 206:0.047189999 213:0.091495 253:0.060830999 255:0.200524 267:0.083516002 268:0.087104 272:0.13975 281:0.073463 302:0.047715001 316:0.080481999 323:0.068300001 328:0.075535998 330:0.060444001 339:0.087104 358:0.091495 367:0.091495 377:0.091495 396:0.080481999 418:0.128427 424:0.063019998 429:0.068300001 445:0.043430001 468:0.060830999 469:0.097157001 509:0.097157001 572:0.075535998 581:0.077854 584:0.064213 596:0.087104 603:0.105137 617:0.057946 679:0.063019998 686:0.091495 695:0.15107299 700:0.097157001 716:0.083516002 739:0.075535998 743:0.097157001 753:0.091495 777:0.059822001 783:0.14317501 796:0.080481999 797:0.097157001 805:0.429436 834:0.091495 849:0.077854 857:0.128427 863:0.167032 882:0.105137 885:0.155709 900:0.056233998 903:0.38862801 905:0.26131201 909:0.054659002 918:0.182991 927:0.042592999 929:0.200524 1000:0.13975 
0.99999993212504223 114:0.23840401 179:0.076353997 188:0.197487 195:0.20493101 252:0.224512 267:0.20493101 295:0.213736 316:0.39497501 328:0.185351 587:0.23840401 623:0.213736 633:0.213736 641:0.32802999 657:0.146791 672:0.134121 686:0.224512 733:0.191039 767:0.136015 857:0.15756699 905:0.213736 926:0.149268 954:0.185351 
0.99999993212504223 15:0.1428 36:0.091835998 38:0.061896998 40:0.082333997 84:0.091835998 104:0.034336001 107:0.082333997 148:0.099379003 173:0.091835998 179:0.029412 221:0.17297 229:0.043191999 247:0.06944 258:0.073591001 300:0.086484998 302:0.045102 330:0.057133999 338:0.071400002 349:0.12911899 357:0.17297 363:0.047230002 377:0.17297 384:0.091835998 388:0.099379003 389:0.135334 396:0.076075003 402:0.06944 445:0.041051999 453:0.078942001 456:0.063180998 468:0.115 477:0.198145 484:0.091835998 504:0.056545999 508:0.086484998 514:0.107892 520:0.18367299 553:0.259455 554:0.046675 558:0.082333997 569:0.076075003 574:0.049003001 575:0.082333997 584:0.060697 586:0.058506001 617:0.054772999 627:0.078942001 634:0.18367299 664:0.082333997 671:0.086484998 677:0.078942001 679:0.238276 686:0.259455 691:0.157885 694:0.157885 699:0.076075003 709:0.078942001 775:0.091835998 783:0.135334 808:0.057500001 814:0.091835998 827:0.086484998 848:0.048393 850:0.066047996 857:0.18209 858:0.078942001 870:0.157885 885:0.29436299 891:0.17297 909:0.051665001 927:0.040259998 949:0.071400002 960:0.071400002 973:0.071400002 975:0.078942001 999:0.055638 
0.99999993212504223 144:0.125568 245:0.33642599 254:0.17862201 294:0.17862201 327:0.16821299 389:0.131612 468:0.111838 596:0.16013899 628:0.111838 743:0.17862201 763:0.67285198 767:0.101908 805:0.087724 806:0.153543 827:0.33642599 857:0.118055 876:0.17862201 920:0.16013899 
0.99999993212504223 24:0.114437 63:0.088903002 104:0.056586001 139:0.163776 188:0.12537099 224:0.151346 286:0.117667 329:0.142527 372:0.130097 383:0.121277 389:0.111515 396:0.12537099 399:0.135686 423:0.130097 424:0.098168999 440:0.114437 444:0.063895002 451:0.135686 514:0.088903002 549:0.104122 588:0.081796996 593:0.130097 643:0.151346 644:0.094760001 654:0.142527 664:0.135686 679:0.098168999 683:0.151346 686:0.28505301 697:0.12537099 705:0.151346 745:0.25074199 760:0.12537099 761:0.151346 777:0.093186997 805:0.148656 807:0.151346 850:0.108847 855:0.090264998 857:0.100028 870:0.130097 882:0.491328 912:0.117667 934:0.114437 
-0.99999993212504223 22:0.049911998 61:0.055201001 74:0.142001 114:0.071001001 138:0.076831996 156:0.066863 157:0.071001001 172:0.053684998 193:0.049911998 206:0.034485999 210:0.133727 231:0.049911998 245:0.20059 249:0.063653998 253:0.088909 255:0.048845999 262:0.043014999 268:0.063653998 276:0.039400999 302:0.034869 316:0.35289001 330:0.022086 342:0.056894999 354:0.061032001 369:0.061032001 397:0.056894999 409:0.076831996 424:0.046053998 430:0.063653998 444:0.029975001 445:0.031738002 467:0.063653998 480:0.058814999 481:0.043717001 508:0.066863 510:0.076831996 541:0.071001001 624:0.043014999 628:0.044454999 633:0.063653998 641:0.390771 659:0.113789 664:0.31827101 668:0.071001001 672:0.199718 673:0.078801997 686:0.20059 713:0.046053998 726:0.066863 733:0.113789 740:0.058814999 743:0.142001 754:0.142001 764:0.058814999 774:0.063653998 808:0.044454999 810:0.063653998 821:0.15366399 827:0.26745301 854:0.071001001 857:0.046925999 882:0.076831996 897:0.051063001 923:0.11763 927:0.031126 929:0.048845999 954:0.331204 976:0.071001001 
-0.51304555688995501 8:0.077478997 10:0.171617 24:0.12976401 68:0.161616 71:0.171617 75:0.18571199 142:0.161616 229:0.080715001 289:0.171617 294:0.34323299 296:0.14216299 302:0.084283002 377:0.161616 429:0.120644 444:0.072453 445:0.076715 473:0.18794399 556:0.18571199 568:0.51905602 617:0.102355 627:0.147521 639:0.161616 645:0.18571199 646:0.115669 650:0.147521 698:0.161616 814:0.171617 822:0.161616 855:0.102355 915:0.10081 917:0.137521 997:0.10081 
-0.050266570430279954 245:0.39235801 253:0.130431 267:0.17907 273:0.208318 309:0.114069 327:0.196179 330:0.064800002 390:0.100086 416:0.13768201 459:0.166931 488:0.196179 501:0.118851 513:0.161961 561:0.208318 572:0.32392099 624:0.252415 642:0.172565 686:0.196179 783:0.153493 825:0.186763 827:0.196179 836:0.13271201 855:0.124245 882:0.225427 887:0.117196 905:0.186763 951:0.13271201 963:0.186763 
-0.51145873897168181 40:0.17285 42:0.208634 131:0.111591 133:0.114989 179:0.061748002 302:0.094686002 330:0.059971999 385:0.181564 390:0.092629999 410:0.208634 429:0.135534 482:0.109997 506:0.319419 537:0.192799 576:0.16573 677:0.16573 686:0.36312801 721:0.149895 803:0.192799 808:0.120714 831:0.181564 832:0.27732 853:0.16573 882:0.208634 894:0.181564 901:0.17285 927:0.084521003 949:0.149895 969:0.30899 
-0.39373662286375138 5:0.121953 40:0.14062899 103:0.12993801 108:0.101746 131:0.090788998 139:0.169742 151:0.147719 155:0.107915 274:0.134836 281:0.118606 289:0.15685999 301:0.169742 320:0.12993801 369:0.134836 396:0.12993801 418:0.103672 428:0.147719 445:0.14023601 468:0.098212004 482:0.089492001 513:0.121953 514:0.092142001 664:0.14062899 686:0.147719 688:0.157603 753:0.147719 767:0.089492001 777:0.096582003 789:0.147719 798:0.14062899 805:0.077036001 822:0.147719 827:0.29543799 832:0.22562499 834:0.147719 850:0.112813 853:0.134836 855:0.093553998 856:0.103672 857:0.103672 870:0.134836 882:0.33948499 897:0.112813 901:0.14062899 909:0.17649201 915:0.092142001 927:0.068765998 997:0.092142001 998:0.147719 
0.99999993212504223 61:0.097401001 121:0.117979 131:0.072511002 133:0.074718997 143:0.112317 153:0.12527999 166:0.092308998 188:0.20755699 193:0.088068999 200:0.10039 206:0.060849998 226:0.250559 228:0.20755699 275:0.17237701 281:0.094727002 302:0.184579 305:0.10769 306:0.311335 329:0.117979 330:0.077939004 355:0.090101004 423:0.10769 428:0.23595899 429:0.088068999 463:0.12527999 468:0.078438997 477:0.090101004 497:0.079810999 502:0.12527999 552:0.117979 579:0.10769 584:0.082800001 599:0.137198 628:0.15687899 631:0.112317 641:0.17237701 658:0.117979 659:0.30116901 664:0.112317 672:0.070479997 686:0.23595899 821:0.13556901 857:0.248401 909:0.070479997 920:0.112317 945:0.12527999 963:0.112317 
0.99999993212504223 17:0.121193 57:0.21304999 61:0.438126 132:0.28176501 179:0.090241 275:0.193846 302:0.13837799 424:0.18276501 445:0.12595201 467:0.25261 481:0.173489 624:0.17070501 641:0.193846 672:0.31703001 739:0.219063 762:0.128489 848:0.148477 857:0.186225 909:0.15851501 917:0.225785 922:0.219063 954:0.219063 
0.99999993212504223 21:0.278115 166:0.24737699 201:0.33573601 253:0.210209 294:0.33573601 440:0.25385901 513:0.261024 514:0.197216 572:0.261024 574:0.17914701 603:0.36331001 628:0.210209 774:0.30099699 929:0.230977 
0.99999993212504223 179:0.093722001 281:0.221269 293:0.127066 309:0.160238 329:0.55116397 372:0.25154799 389:0.215619 549:0.201324 588:0.158158 664:0.262355 762:0.13344599 819:0.186427 827:0.27558199 855:0.17453299 927:0.25657699 971:0.227514 984:0.27558199 
0.99999993212504223 5:0.13293 17:0.073541 40:0.153286 179:0.054758999 194:0.153286 224:0.17097799 227:0.18502 259:0.13293 302:0.083968997 329:0.32202899 342:0.13700899 351:0.16101401 370:0.221807 385:0.16101401 408:0.34195501 420:0.115238 429:0.240389 440:0.129281 441:0.141633 466:0.129281 514:0.100435 574:0.091233 631:0.153286 648:0.16101401 673:0.18976299 697:0.141633 703:0.16101401 736:0.16101401 739:0.13293 762:0.077969 817:0.100435 827:0.16101401 857:0.33900899 927:0.074955001 949:0.13293 
-0.64425812493978862 8:0.031443998 54:0.075369 61:0.108299 66:0.062442001 100:0.075369 104:0.052081 115:0.047915999 121:0.065590002 124:0.075369 133:0.041540001 150:0.059870001 153:0.069649003 158:0.065590002 166:0.051318999 169:0.051318999 193:0.048962001 196:0.057695001 201:0.069649003 206:0.067658 209:0.055810999 235:0.047915999 245:0.065590002 254:0.13929699 259:0.108299 276:0.038651001 281:0.105326 282:0.075369 293:0.060485002 294:0.069649003 300:0.065590002 302:0.068411 303:0.32795 304:0.039182998 309:0.038137 334:0.048962001 342:0.055810999 349:0.097924002 364:0.057695001 380:0.043607999 390:0.033463001 393:0.059870001 402:0.052662998 414:0.065590002 431:0.057695001 442:0.059870001 446:0.23078001 466:0.052662998 473:0.038137 475:0.102637 481:0.042884 527:0.05415 539:0.051318999 554:0.14159299 574:0.074327998 593:0.059870001 628:0.30525601 639:0.065590002 664:0.062442001 665:0.097924002 666:0.055810999 686:0.19677 687:0.041540001 690:0.108299 738:0.059870001 748:0.059870001 751:0.075369 756:0.069649003 759:0.050090998 780:0.062442001 796:0.11539 803:0.069649003 805:0.239438 806:0.059870001 808:0.043607999 815:0.059870001 827:0.32795 844:0.069649003 848:0.036702 849:0.16743401 850:0.150273 857:0.322227 863:0.059870001 868:0.040913001 873:0.069649003 882:0.075369 889:0.069649003 900:0.040312 907:0.065590002 927:0.030533001 973:0.108299 974:0.069649003 997:0.040913001 1000:0.050090998 
-0.52387646878098615 104:0.065656997 108:0.113906 131:0.10164 135:0.150951 185:0.175606 193:0.123448 202:0.136528 206:0.085294001 236:0.150951 293:0.152501 294:0.35121199 302:0.086241998 328:0.136528 330:0.109249 339:0.157436 363:0.18062399 373:0.165373 379:0.175606 429:0.123448 445:0.235494 473:0.096156001 482:0.20037501 554:0.089249998 578:0.29093501 579:0.150951 586:0.223745 646:0.118358 697:0.29093501 713:0.113906 762:0.080078997 817:0.103153 857:0.232124 873:0.175606 934:0.13278 948:0.123448 975:0.150951 
-0.47689042977445184 1:0.162701 17:0.092552997 23:0.202638 45:0.38582501 84:0.215177 179:0.068915002 224:0.430354 227:0.23285 248:0.172427 272:0.154754 280:0.178247 286:0.167293 363:0.110663 628:0.134725 641:0.148036 687:0.128336 694:0.184966 714:0.202638 762:0.098123997 827:0.40527701 868:0.126398 920:0.192912 
-0.7137286506068764 61:0.14061999 172:0.13676 179:0.057927001 201:0.18087 302:0.177655 304:0.101754 318:0.119541 330:0.056262001 342:0.144935 358:0.17033 359:0.124433 370:0.11732 398:0.149828 414:0.17033 421:0.15547501 431:0.29965499 440:0.13676 477:0.130081 490:0.13676 502:0.18087 574:0.096510999 580:0.14061999 588:0.097753003 617:0.107874 628:0.113245 651:0.18087 666:0.28987101 673:0.20074201 676:0.17033 686:0.34066001 695:0.14061999 741:0.162155 762:0.082479 774:0.162155 817:0.106245 819:0.115226 857:0.119541 920:0.162155 964:0.113245 999:0.109578 
-0.99999993212504223 30:0.15051 82:0.15051 118:0.097774997 131:0.080502003 179:0.089091003 229:0.065415002 243:0.15051 248:0.111454 306:0.115216 328:0.108135 339:0.37408501 351:0.130982 370:0.090218 402:0.105167 428:0.130982 429:0.19555099 443:0.13908701 466:0.105167 493:0.13908701 531:0.13908701 547:0.15051 575:0.124695 586:0.088606998 590:0.088606998 659:0.111454 679:0.090218 686:0.26196301 695:0.108135 706:0.095688 745:0.115216 762:0.063426003 784:0.130982 805:0.068306997 817:0.081701003 827:0.130982 845:0.124695 855:0.082953997 857:0.091926001 859:0.115216 885:0.22290701 895:0.451529 915:0.163403 943:0.119559 
0.99999993212504223 5:0.136813 24:0.133058 41:0.087986998 71:0.087986998 94:0.051685002 106:0.054738998 133:0.052476998 140:0.087986998 167:0.070505999 179:0.028179999 183:0.075632997 188:0.072885998 189:0.082859002 230:0.075632997 244:0.078882001 264:0.072885998 280:0.072885998 297:0.072885998 304:0.0495 309:0.048179001 318:0.058152001 342:0.141012 349:0.061852999 353:0.078882001 359:0.121064 363:0.045249999 381:0.095213003 383:0.141012 384:0.087986998 385:0.082859002 389:0.12966099 396:0.072885998 397:0.141012 398:0.072885998 429:0.061852999 440:0.066528998 444:0.037145998 446:0.072885998 471:0.087986998 480:0.072885998 482:0.050198998 503:0.078882001 549:0.121064 554:0.044718001 586:0.056053001 588:0.095106997 594:0.068406999 599:0.048179001 627:0.075632997 662:0.078882001 679:0.057071999 686:0.248578 689:0.072885998 706:0.060532 734:0.066528998 739:0.136813 759:0.063280001 760:0.072885998 767:0.100397 772:0.058152001 808:0.055089999 824:0.082859002 827:0.082859002 853:0.075632997 855:0.052476998 874:0.082859002 882:0.66649002 885:0.070505999 897:0.126559 927:0.038573001 932:0.087986998 934:0.066528998 959:0.087986998 971:0.068406999 992:0.082859002 
0.99999993212504223 179:0.108412 188:0.140203 224:0.16925099 229:0.079602003 248:0.135625 258:0.135625 280:0.140203 302:0.166243 303:0.31877601 359:0.11644 431:0.140203 483:0.135625 495:0.14548799 499:0.135625 541:0.33850199 588:0.091472998 628:0.10597 666:0.135625 686:0.478165 687:0.100944 724:0.14548799 733:0.135625 762:0.077180997 767:0.28968501 826:0.30347601 827:0.15938801 885:0.135625 
0.99999993212504223 17:0.116551 245:0.25518101 253:0.169659 293:0.11766 363:0.139357 389:0.19965699 430:0.242934 530:0.19965699 572:0.21067201 616:0.242934 686:0.25518101 695:0.21067201 740:0.224465 743:0.54194301 808:0.169659 817:0.159172 920:0.242934 923:0.224465 
0.99999993212504223 61:0.17381001 210:0.21053199 300:0.21053199 316:0.18519101 342:0.179144 352:0.21053199 369:0.19217101 510:0.24191999 514:0.131322 569:0.18519101 628:0.139974 633:0.200427 671:0.21053199 686:0.21053199 726:0.21053199 743:0.22356001 796:0.18519101 827:0.21053199 954:0.52143103 973:0.17381001 
0.99999993212504223 17:0.043177001 24:0.45540899 70:0.083154 104:0.075062998 149:0.094532996 179:0.032148998 186:0.089994997 248:0.080439001 298:0.089994997 304:0.056473002 329:0.094532996 330:0.031225 342:0.080439001 363:0.103251 383:0.080439001 423:0.086287998 425:0.100382 429:0.21170101 430:0.089994997 445:0.044872001 446:0.083154 501:0.057270002 514:0.058966 527:0.078043997 569:0.166308 588:0.217011 599:0.054965999 628:0.062850997 658:0.094532996 673:0.055706002 686:0.56719601 709:0.17257699 748:0.17257699 760:0.083154 767:0.057270002 808:0.125701 820:0.094532996 866:0.089994997 915:0.117932 953:0.073964 971:0.078043997 972:0.094532996 982:0.100382 986:0.100382 996:0.200764 999:0.060816001 
-0.36150285557010198 170:0.118267 196:0.171717 218:0.171717 304:0.11662 309:0.113508 311:0.22431999 330:0.064480998 384:0.207295 413:0.15674099 416:0.137006 477:0.29817101 481:0.127636 494:0.35637999 496:0.16610999 499:0.16610999 502:0.207295 569:0.171717 588:0.112035 603:0.22431999 629:0.195215 686:0.39043 738:0.17818999 767:0.118267 909:0.23323999 927:0.090875998 984:0.195215 
-0.4676994994788703 17:0.056993 81:0.14338601 106:0.041216999 151:0.124782 201:0.132504 235:0.091159001 248:0.106178 292:0.39751101 294:0.132504 309:0.072554998 348:0.14338601 351:0.24956401 364:0.109762 384:0.39751101 389:0.097631 430:0.118793 435:0.124782 442:0.1139 480:0.109762 481:0.16317099 501:0.075597003 552:0.124782 590:0.084412999 629:0.24956401 657:0.081586003 686:0.374347 705:0.132504 738:0.1139 748:0.1139 817:0.077834003 818:0.14338601 825:0.118793 866:0.118793 881:0.132504 920:0.118793 963:0.118793 992:0.124782 
-0.29443997411121792 17:0.079674996 179:0.059326001 201:0.185238 206:0.089971997 229:0.087121002 231:0.130219 349:0.130219 354:0.15922999 370:0.120154 424:0.360461 458:0.318461 496:0.14843599 514:0.217623 554:0.188291 574:0.197684 587:0.185238 594:0.144017 686:0.34888801 748:0.15922999 767:0.105683 802:0.185238 814:0.185238 826:0.166071 827:0.174444 856:0.122428 911:0.174444 927:0.081207 929:0.12743901 973:0.28803301 
-0.42532032114671237 32:0.14011399 73:0.14011399 169:0.109627 170:0.084885001 179:0.047651 218:0.123249 220:0.115675 281:0.112499 290:0.133389 310:0.133389 330:0.046280999 341:0.133389 342:0.119224 389:0.109627 390:0.071483001 421:0.25578901 458:0.127894 468:0.093156002 481:0.09161 482:0.16977 490:0.56249702 513:0.115675 514:0.087398 572:0.115675 594:0.115675 671:0.14011399 673:0.082566001 677:0.127894 686:0.28022799 724:0.127894 726:0.14011399 739:0.115675 748:0.127894 759:0.107005 767:0.084885001 808:0.093156002 817:0.087398 848:0.078401998 855:0.088737004 856:0.098334998 915:0.087398 920:0.133389 927:0.13045099 932:0.148784 951:0.094784997 
0.97355178392752917 15:0.101121 17:0.055943999 63:0.152803 84:0.130064 104:0.048629001 105:0.130064 169:0.095834002 221:0.122485 230:0.111803 299:0.101121 302:0.063876003 330:0.121374 389:0.57500499 396:0.107742 402:0.098344997 423:0.22360601 425:0.130064 430:0.116606 481:0.080084004 499:0.104224 523:0.116606 549:0.44740301 554:0.066104002 575:0.116606 588:0.070294999 646:0.087663002 671:0.122485 673:0.072177 695:0.101121 726:0.24496999 748:0.111803 754:0.130064 767:0.074205004 817:0.076402001 857:0.085963003 870:0.111803 885:0.104224 909:0.073172003 
0.99999993212504223 114:0.30060101 138:0.32528901 295:0.26949701 302:0.14762899 327:0.28308401 467:0.26949701 574:0.32079801 628:0.18821099 633:0.26949701 641:0.20680501 672:0.169112 754:0.30060101 817:0.176577 827:0.28308401 840:0.26949701 
0.99999993212504223 5:0.1095 17:0.020192999 18:0.044211 106:0.014603 108:0.030452 116:0.046946999 123:0.046946999 131:0.027172999 167:0.037620001 169:0.034591999 179:0.045107 200:0.15048 205:0.050802998 206:0.022802999 212:0.046946999 231:0.066005997 238:0.161422 247:0.035498001 251:0.044211 258:0.037620001 265:0.037620001 293:0.020385001 294:0.14084101 297:0.350007 298:0.042089 302:0.046112999 306:0.077779002 309:0.025707001 328:0.36499801 339:0.126268 351:0.221057 363:0.024143999 377:0.044211 380:0.029394001 383:0.075240001 384:0.046946999 389:0.069182999 396:0.03889 402:0.070996001 420:0.031642001 423:0.040355999 425:0.093893997 428:0.132634 429:0.033002999 440:0.035498001 444:0.019819999 451:0.042089 452:0.031642001 453:0.040355999 466:0.035498001 468:0.058788002 473:0.025707001 481:0.028906001 482:0.026784001 512:0.037620001 525:0.044211 574:0.050101001 579:0.121067 588:0.025373001 590:0.089725003 593:0.121067 603:0.050802998 605:0.046946999 617:0.083999999 627:0.040355999 631:0.042089 643:0.32863 651:0.046946999 658:0.044211 659:0.15048 664:0.042089 666:0.037620001 673:0.026053 679:0.030452 683:0.093893997 686:0.221057 695:0.145999 700:0.046946999 705:0.046946999 706:0.064595997 721:0.036499999 736:0.044211 748:0.161422 762:0.14985999 765:0.093893997 777:0.028906001 779:0.046946999 782:0.093893997 790:0.233338 814:0.046946999 817:0.055155002 827:0.044211 842:0.046946999 845:0.042089 850:0.067528002 855:0.028000001 857:0.186171 882:0.050802998 885:0.037620001 896:0.046946999 900:0.027172999 907:0.044211 909:0.026411001 915:0.027577 920:0.042089 924:0.029394001 934:0.035498001 943:0.080711 948:0.033002999 953:0.034591999 954:0.036499999 956:0.046946999 982:0.046946999 
0.99999993212504223 63:0.154102 114:0.26234001 247:0.19836199 295:0.235195 302:0.128839 316:0.217315 327:0.247053 363:0.134918 424:0.170165 445:0.117269 584:0.17338599 641:0.360964 671:0.247053 713:0.170165 733:0.21021999 783:0.193297 797:0.26234001 947:0.43463001 953:0.193297 
0.99999993212504223 15:0.196987 63:0.14883301 94:0.14883301 106:0.078814 206:0.123065 255:0.174311 256:0.27417901 274:0.217796 343:0.217796 383:0.203032 396:0.209885 420:0.17077 423:0.217796 444:0.106967 499:0.203032 558:0.227153 586:0.322826 599:0.13873699 627:0.217796 678:0.18222199 855:0.151114 870:0.217796 910:0.25336999 938:0.227153 949:0.196987 
0.99999993212504223 5:0.200716 104:0.19305 106:0.080306001 107:0.231454 209:0.206875 294:0.258167 380:0.161642 397:0.206875 475:0.190222 501:0.14729001 506:0.21385799 552:0.24312299 574:0.137756 677:0.221919 686:0.48624501 739:0.200716 805:0.126789 829:0.258167 848:0.136041 855:0.153975 857:0.170628 900:0.149425 
-0.91276080959357297 132:0.183011 224:0.183011 229:0.086074002 247:0.13837899 286:0.142285 335:0.17234699 481:0.112684 541:0.183011 568:0.41513801 592:0.157316 628:0.114586 664:0.164075 687:0.109151 691:0.157316 695:0.42685601 700:0.183011 713:0.118709 740:0.151601 743:0.36602199 767:0.104412 783:0.134846 827:0.17234699 848:0.096437998 892:0.183011 917:0.146651 927:0.080229998 954:0.142285 
-0.58947917775248493 15:0.138916 179:0.057225 224:0.17867801 228:0.148012 241:0.15359101 253:0.111873 276:0.099155001 302:0.087751001 305:0.15359101 306:0.148012 316:0.29602399 327:0.336532 330:0.055580001 334:0.125607 402:0.135103 444:0.075433999 445:0.079870999 468:0.111873 515:0.17867801 557:0.46077299 579:0.15359101 631:0.16019 672:0.201041 688:0.089762002 748:0.15359101 774:0.16019 817:0.104958 827:0.168266 882:0.193353 900:0.103418 920:0.16019 970:0.16019 974:0.17867801 
-0.36173435661966641 18:0.245671 26:0.245671 216:0.282298 224:0.26087299 253:0.16333599 285:0.224246 327:0.245671 330:0.081147999 478:0.282298 599:0.142846 641:0.179473 664:0.23388 672:0.44028601 754:0.26087299 836:0.16619299 857:0.172417 964:0.16333599 983:0.23388 
-0.069223441936201627 8:0.068916 71:0.15265 91:0.122322 104:0.057073999 114:0.15265 156:0.143755 175:0.15265 229:0.071794003 261:0.379354 275:0.105019 276:0.084711 286:0.118681 297:0.126451 355:0.21957099 356:0.099016003 442:0.131218 445:0.068236001 449:0.102886 465:0.131218 504:0.093989998 517:0.19449601 552:0.143755 584:0.10089 590:0.097248003 626:0.165187 634:0.15265 638:0.27371001 641:0.31505701 659:0.122322 664:0.13685501 672:0.085878 681:0.182087 691:0.131218 772:0.10089 777:0.093989998 811:0.15265 835:0.3053 923:0.126451 954:0.118681 991:0.112476 
-0.62039161819698785 17:0.065667003 26:0.28754601 37:0.165208 92:0.152669 104:0.114162 135:0.13123401 199:0.143773 245:0.143773 293:0.066290997 309:0.16719399 317:0.28754601 342:0.122338 349:0.107324 383:0.122338 396:0.25293401 408:0.152669 429:0.107324 471:0.152669 517:0.097259998 539:0.11249 584:0.100903 588:0.082511999 617:0.091054998 679:0.099027999 699:0.25293401 760:0.37940201 797:0.152669 817:0.089680001 827:0.143773 857:0.201805 870:0.13123401 875:0.102899 882:0.165208 909:0.171777 916:0.21006399 948:0.107324 971:0.118695 
0.99999993212504223 104:0.054756001 152:0.14645199 159:0.137918 179:0.046904001 214:0.121317 229:0.068879001 248:0.23471101 253:0.091695003 254:0.14645199 286:0.113861 300:0.137918 329:0.137918 372:0.12589 389:0.215817 396:0.121317 402:0.221472 440:0.110736 445:0.065466002 493:0.14645199 504:0.360695 549:0.201509 569:0.121317 588:0.079150997 673:0.081271 686:0.27583501 695:0.227723 709:0.12589 713:0.094994999 748:0.12589 760:0.121317 767:0.167109 797:0.14645199 827:0.137918 870:0.12589 881:0.29290301 882:0.15848 885:0.117355 924:0.091695003 927:0.064203002 929:0.100755 956:0.14645199 
0.99999993212504223 5:0.264514 8:0.051199999 24:0.085750997 31:0.093943998 68:0.1068 118:0.159448 129:0.093943998 179:0.036320999 206:0.055084001 229:0.053337999 235:0.078022003 258:0.090876997 272:0.081563003 280:0.18788899 298:0.101674 302:0.055695999 328:0.088170998 330:0.070554003 336:0.122723 338:0.088170998 339:0.101674 346:0.093943998 348:0.122723 402:0.085750997 420:0.15287399 425:0.113408 429:0.159448 445:0.050694998 453:0.097485997 477:0.081563003 485:0.093943998 509:0.113408 514:0.066618003 520:0.226817 527:0.088170998 554:0.115278 569:0.093943998 575:0.101674 617:0.067639001 628:0.071006998 641:0.078022003 673:0.062933996 679:0.073562004 684:0.1068 686:0.21359999 687:0.067639001 694:0.097485997 709:0.097485997 761:0.34022501 762:0.103432 765:0.113408 767:0.064701997 777:0.069828004 797:0.113408 808:0.142013 819:0.072249003 826:0.101674 848:0.059760999 857:0.14990801 858:0.097485997 882:0.245445 885:0.090876997 887:0.063800998 899:0.113408 921:0.226817 926:0.071006998 927:0.099434003 948:0.079723999 954:0.088170998 997:0.066618003 999:0.068706997 
0.99999993212504223 8:0.1012 57:0.169493 72:0.22416 131:0.129742 153:0.22416 188:0.185688 190:0.17427699 229:0.105427 259:0.17427699 308:0.185688 330:0.069728002 390:0.107698 466:0.169493 530:0.16516601 643:0.22416 736:0.211098 774:0.200966 805:0.220176 846:0.192687 903:0.44832 918:0.42219499 973:0.17427699 
-0.83891421300968483 17:0.062344 65:0.136499 106:0.045086998 124:0.15685 147:0.136499 228:0.24013799 235:0.099717997 253:0.18150499 293:0.062936999 296:0.120069 300:0.136499 320:0.24013799 328:0.11269 356:0.18803599 358:0.136499 393:0.24919 402:0.109597 468:0.090751998 481:0.089245997 501:0.082695 548:0.12994801 549:0.099717997 574:0.077342004 596:0.12994801 620:0.136499 624:0.087814003 627:0.124595 665:0.101894 686:0.40949699 703:0.136499 716:0.124595 739:0.225381 745:0.120069 785:0.116149 805:0.355923 848:0.076379001 855:0.086447999 857:0.095798001 882:0.15685 963:0.12994801 
-0.86875419057179359 3:0.126415 5:0.098283 17:0.054373998 104:0.047265001 193:0.088867001 200:0.101299 231:0.088867001 240:0.126415 248:0.202599 253:0.079149999 294:0.126415 297:0.104719 334:0.088867001 361:0.119048 383:0.202599 396:0.104719 397:0.101299 443:0.126415 452:0.085202999 473:0.069220997 474:0.108666 509:0.126415 514:0.074258 540:0.136797 555:0.136797 579:0.108666 590:0.080534004 617:0.075396001 627:0.108666 637:0.126415 664:0.113334 681:0.075396001 686:0.35714501 709:0.108666 741:0.113334 748:0.108666 780:0.113334 790:0.104719 796:0.104719 797:0.379244 811:0.126415 817:0.074258 826:0.113334 827:0.119048 850:0.090916999 857:0.167101 870:0.108666 882:0.27359399 900:0.073168002 920:0.113334 927:0.055419002 931:0.113334 979:0.226669 
-0.35466552562114273 76:0.29326701 104:0.101326 154:0.232959 174:0.29326701 250:0.232959 291:0.21716601 299:0.210701 302:0.13309599 363:0.139377 371:0.24296699 435:0.25521699 452:0.182659 514:0.15919501 539:0.19968501 584:0.179116 671:0.25521699 673:0.15039299 850:0.19490799 918:0.25521699 931:0.24296699 947:0.22449701 997:0.15919501 
-0.090719405616555934 106:0.062027998 154:0.17141099 172:0.150778 229:0.093786001 247:0.150778 259:0.310067 292:0.39881599 302:0.19586401 328:0.15503301 364:0.16518401 370:0.129345 384:0.19940799 387:0.14341301 390:0.095806003 445:0.089138001 487:0.215786 497:0.12703601 498:0.310067 588:0.215545 686:0.18778799 716:0.17141099 722:0.215786 796:0.16518401 827:0.18778799 849:0.15979099 857:0.13179401 868:0.117135 878:0.15503301 915:0.117135 
-0.40597691109322331 33:0.191929 38:0.137364 50:0.300336 63:0.119718 94:0.119718 151:0.191929 152:0.203806 179:0.065273002 197:0.137364 253:0.127606 262:0.123474 302:0.100092 328:0.158452 330:0.063395999 349:0.143272 363:0.104815 397:0.163315 501:0.116276 543:0.191929 550:0.191929 574:0.108749 624:0.123474 628:0.127606 647:0.18271799 664:0.18271799 678:0.146576 679:0.13219699 686:0.191929 692:0.154103 706:0.140212 743:0.203806 745:0.168827 757:0.203806 762:0.092938997 772:0.1347 827:0.191929 837:0.175191 868:0.119718 918:0.191929 1000:0.146576 
0.99999993212504223 5:0.34033099 102:0.137411 104:0.21822099 131:0.084454 140:0.145914 179:0.046732001 185:0.145914 193:0.102575 224:0.29182801 230:0.12542801 248:0.116925 274:0.12542801 304:0.082088001 338:0.113444 359:0.100385 363:0.150084 377:0.137411 473:0.079898 541:0.145914 549:0.100385 575:0.261632 588:0.157722 590:0.092956997 592:0.12542801 658:0.137411 686:0.137411 706:0.100385 760:0.241743 767:0.083247997 817:0.085712001 820:0.137411 850:0.104941 857:0.192876 860:0.137411 885:0.116925 891:0.27482301 927:0.063968003 932:0.145914 934:0.220659 949:0.113444 968:0.12542801 
0.99999993212504223 68:0.38782799 131:0.119181 143:0.184607 188:0.170573 196:0.170573 228:0.170573 275:0.141662 276:0.114268 293:0.08941 306:0.34114599 309:0.112752 329:0.193914 330:0.064052001 429:0.14475299 463:0.20591301 468:0.128925 550:0.193914 572:0.160091 574:0.109874 599:0.112752 628:0.128925 631:0.184607 667:0.20591301 672:0.115843 673:0.114268 686:0.193914 743:0.20591301 808:0.128925 853:0.177002 855:0.12281 923:0.170573 945:0.20591301 
-0.072768605625762234 57:0.29411101 62:0.32221299 67:0.279746 107:0.34872299 210:0.36630401 390:0.18688101 539:0.28660101 715:0.311692 767:0.221917 878:0.302412 930:0.24779999 964:0.24354 
-0.31060471653879518 10:0.161872 46:0.15244 57:0.122396 67:0.23283599 70:0.134091 77:0.139145 94:0.095086001 104:0.24208701 220:0.12585101 227:0.17516699 236:0.139145 245:0.30487901 305:0.139145 355:0.116418 359:0.111364 363:0.083249003 389:0.119271 390:0.077771999 402:0.122396 455:0.139145 456:0.111364 574:0.086374 588:0.087485999 628:0.101351 658:0.30487901 671:0.15244 681:0.096543998 688:0.081320003 692:0.122396 699:0.134091 786:0.161872 808:0.101351 842:0.161872 861:0.15244 866:0.145123 874:0.15244 875:0.109101 880:0.145123 915:0.095086001 919:0.27829 933:0.129712 951:0.103123 961:0.17516699 
-0.0029701771698510127 56:0.264936 67:0.20233101 102:0.264936 104:0.21037 170:0.160505 171:0.25222 286:0.218724 304:0.15827 316:0.233046 352:0.264936 420:0.189615 456:0.193546 485:0.233046 504:0.17322101 546:0.264936 599:0.154047 658:0.264936 688:0.141331 797:0.28132901 836:0.179225 857:0.185937 
-0.41987681172235969 8:0.101589 21:0.18640199 47:0.170145 71:0.225022 152:0.225022 220:0.17494699 229:0.105832 313:0.18640199 328:0.17494699 330:0.069995999 362:0.225022 370:0.145959 411:0.201738 429:0.158186 430:0.201738 456:0.154808 485:0.18640199 527:0.17494699 541:0.225022 572:0.17494699 613:0.225022 624:0.136327 627:0.19342799 665:0.158186 686:0.211909 713:0.145959 717:0.14872199 763:0.211909 790:0.18640199 887:0.253185 
-0.20056290574568592 48:0.168276 106:0.069227003 179:0.071276002 206:0.108095 225:0.24082901 248:0.17833599 278:0.209582 283:0.222551 323:0.15644901 351:0.209582 397:0.17833599 402:0.168276 455:0.191304 492:0.209582 558:0.199523 589:0.222551 686:0.209582 734:0.168276 769:0.209582 770:0.24082901 817:0.130729 831:0.209582 855:0.26546699 947:0.36871001 953:0.16398001 
-0.5667418182779479 1:0.13572399 11:0.097120002 17:0.077206001 24:0.203585 48:0.067861997 93:0.069776997 105:0.089749001 133:0.053528 135:0.077147998 177:0.084518999 179:0.057487998 210:0.084518999 276:0.049805 305:0.077147998 307:0.089749001 330:0.027918 334:0.18927599 335:0.084518999 351:0.084518999 352:0.084518999 420:0.181472 429:0.126184 445:0.040119 460:0.097120002 477:0.064547002 483:0.071918003 499:0.143837 525:0.084518999 527:0.209332 547:0.097120002 553:0.084518999 578:0.148692 588:0.048505999 592:0.077147998 617:0.053528 664:0.080463 673:0.049805 686:0.25355801 706:0.061744999 734:0.203585 762:0.040927 767:0.102408 769:0.33807799 770:0.388482 831:0.084518999 917:0.071918003 947:0.44607499 948:0.063092001 953:0.066128999 
-0.34768287571166384 8:0.104904 9:0.232365 94:0.136494 104:0.086878002 106:0.072279997 211:0.218824 266:0.14803199 272:0.167116 330:0.14455999 445:0.10387 449:0.31322601 501:0.13257 508:0.218824 567:0.232365 574:0.247977 631:0.208322 688:0.116733 694:0.19973999 713:0.150722 726:0.218824 777:0.14307299 783:0.171211 789:0.218824 857:0.153575 937:0.167116 949:0.361312 998:0.218824 
-0.32926043575892516 17:0.102971 31:0.198312 93:0.186125 106:0.074468002 224:0.239399 235:0.1647 240:0.239399 248:0.191837 263:0.25906101 343:0.205787 375:0.239399 393:0.205787 429:0.168294 445:0.214029 597:0.25906101 686:0.225449 707:0.198312 721:0.186125 777:0.147404 797:0.239399 805:0.117572 858:0.205787 882:0.25906101 900:0.13856301 973:0.186125 
-0.097184602888621602 58:0.230818 94:0.13558599 149:0.434735 179:0.147848 218:0.191203 231:0.16226099 245:0.21736801 248:0.18495999 253:0.144518 282:0.24977501 302:0.226715 306:0.191203 363:0.118707 390:0.110896 424:0.149718 434:0.191203 452:0.15557 467:0.206935 524:0.24977501 574:0.123163 590:0.147046 641:0.158796 672:0.12985399 687:0.13766401 688:0.115956 733:0.18495999 857:0.15255301 868:0.13558599 
-0.45250389712014372 106:0.055806 138:0.19414 193:0.126119 206:0.087139003 227:0.19414 228:0.148615 275:0.370278 298:0.160842 306:0.148615 309:0.098237 423:0.154217 430:0.321684 437:0.19414 445:0.160393 468:0.112328 481:0.110464 483:0.14376201 509:0.179406 581:0.14376201 589:0.179406 631:0.160842 677:0.154217 680:0.168951 686:0.168951 733:0.14376201 736:0.168951 740:0.148615 767:0.102355 777:0.110464 810:0.160842 856:0.237147 857:0.118573 882:0.19414 909:0.10093 916:0.123426 
-0.55308243880312558 179:0.070766002 201:0.22095799 229:0.103921 316:0.183036 389:0.32561299 421:0.189935 469:0.22095799 554:0.1123 574:0.23580401 697:0.183036 701:0.44191599 711:0.44191599 870:0.189935 911:0.41616401 927:0.096865997 
-0.38277507216280043 196:0.176425 198:0.19093999 244:0.19093999 248:0.34132901 304:0.119817 318:0.281524 323:0.149719 329:0.20056701 369:0.183075 398:0.176425 475:0.15692601 522:0.21297701 523:0.19093999 588:0.230212 614:0.170664 675:0.20056701 690:0.165583 759:0.153172 785:0.170664 805:0.104596 857:0.140762 858:0.183075 900:0.12327 902:0.21297701 927:0.186735 949:0.165583 969:0.170664 995:0.183075 
-0.33966368529085389 17:0.098415002 57:0.173007 235:0.15741301 248:0.183349 298:0.20513199 363:0.117673 569:0.189538 584:0.151224 588:0.123661 599:0.12528799 632:0.49519801 652:0.183349 726:0.21547399 817:0.134405 857:0.45367199 860:0.21547399 882:0.24759901 904:0.148414 968:0.19668201 975:0.19668201 
-0.31928360199371209 26:0.140838 104:0.055916 106:0.232601 131:0.086560003 139:0.161835 219:0.161835 301:0.161835 302:0.14689501 330:0.046519998 342:0.11984 352:0.140838 357:0.140838 362:0.149553 424:0.097006001 471:0.149553 473:0.081890002 483:0.11984 486:0.24777099 509:0.149553 514:0.087848999 581:0.11984 588:0.080826998 599:0.245671 658:0.140838 661:0.161835 671:0.140838 686:0.140838 709:0.128555 726:0.28167599 797:0.149553 827:0.140838 848:0.078806996 853:0.128555 856:0.098843001 857:0.395372 882:0.161835 916:0.102888 971:0.232545 997:0.087848999 
-0.49162628401372116 15:0.078666002 31:0.083816998 61:0.078666002 211:0.19057199 228:0.083816998 231:0.071129002 245:0.28585801 253:0.063352004 257:0.101182 258:0.081079997 268:0.090713002 275:0.06961 276:0.056150001 281:0.15301301 293:0.043935001 296:0.083816998 298:0.090713002 306:0.083816998 327:0.095285997 330:0.062948003 342:0.081079997 349:0.071129002 363:0.052037001 366:0.066873997 380:0.12670299 389:0.074552998 392:0.109492 396:0.083816998 406:0.101182 481:0.0623 485:0.083816998 502:0.101182 514:0.059436001 518:0.101182 537:0.101182 560:0.101182 599:0.055404 609:0.28585801 628:0.063352004 629:0.095285997 633:0.090713002 657:0.0623 664:0.090713002 668:0.202364 672:0.056922998 673:0.056150001 679:0.065631002 686:0.095285997 719:0.090713002 733:0.081079997 740:0.083816998 743:0.30354699 758:0.101182 765:0.101182 783:0.074552998 817:0.059436001 822:0.095285997 827:0.38114399 836:0.064460002 848:0.053318001 854:0.202364 855:0.060346998 857:0.133747 882:0.109492 904:0.131262 909:0.056922998 927:0.044357002 933:0.081079997 943:0.086975999 954:0.078666002 975:0.086975999 996:0.101182 997:0.059436001 1000:0.07277 
-0.66048389954816833 1:0.164727 17:0.031235 22:0.05105 38:0.048944999 63:0.042656999 73:0.136774 103:0.060155001 104:0.027151 114:0.145237 117:0.054908998 129:0.120311 138:0.078583002 157:0.145237 175:0.072618999 200:0.058191001 206:0.035271998 215:0.060155001 238:0.124846 245:0.068387002 249:0.065104999 253:0.18187 258:0.116382 261:0.240621 276:0.040298998 286:0.056458998 291:0.116382 302:0.071327999 304:0.040854 311:0.314331 316:0.120311 328:0.056458998 330:0.022589 335:0.20516101 364:0.060155001 390:0.03489 396:0.060155001 416:0.047995001 433:0.072618999 445:0.097383998 466:0.054908998 467:0.130209 495:0.187268 506:0.120311 514:0.042656999 523:0.065104999 537:0.072618999 541:0.145237 554:0.110723 574:0.15499499 588:0.039248001 589:0.072618999 592:0.062422998 603:0.157166 624:0.043995 628:0.045467999 641:0.199838 653:0.065104999 672:0.122561 679:0.047104001 686:0.20516101 724:0.062422998 728:0.068387002 733:0.058191001 739:0.056458998 740:0.060155001 758:0.072618999 767:0.20715401 808:0.045467999 827:0.20516101 840:0.130209 848:0.038267002 856:0.047995001 857:0.191981 882:0.078583002 892:0.072618999 896:0.072618999 922:0.056458998 923:0.180466 954:0.056458998 963:0.065104999 973:0.056458998 975:0.062422998 977:0.072618999 997:0.042656999 
-0.21466240299719824 8:0.076637998 49:0.169754 63:0.099716 106:0.052804001 131:0.098251998 140:0.169754 177:0.159862 202:0.26395601 217:0.169754 230:0.14591999 235:0.116786 260:0.116786 293:0.073710002 329:0.159862 330:0.052804001 379:0.169754 418:0.112194 505:0.159862 522:0.169754 539:0.12507799 588:0.091744997 607:0.304378 625:0.29183999 663:0.152189 686:0.159862 713:0.11011 753:0.159862 783:0.12507799 784:0.31972399 797:0.169754 834:0.159862 855:0.101244 882:0.183696 887:0.0955 909:0.0955 944:0.169754 948:0.119334 960:0.13197801 964:0.106285 973:0.13197801 
-0.30064285187027912 7:0.16005599 27:0.201491 49:0.186198 104:0.13923401 193:0.13089401 202:0.14476299 302:0.091444999 304:0.104752 335:0.175348 371:0.166932 393:0.16005599 410:0.201491 423:0.16005599 468:0.116581 496:0.149206 545:0.201491 586:0.118621 588:0.100633 646:0.125497 671:0.175348 767:0.106231 784:0.175348 832:0.133913 852:0.201491 901:0.50079602 910:0.186198 944:0.37239701 
-0.2092720077988455 3:0.22693001 60:0.203449 62:0.18798301 94:0.133302 106:0.141178 179:0.072678998 196:0.18798301 218:0.18798301 302:0.111448 308:0.18798301 390:0.109029 397:0.18184499 530:0.167207 686:0.427412 717:0.149983 721:0.176431 739:0.176431 767:0.12946901 772:0.149983 790:0.375965 828:0.39013699 909:0.127666 930:0.14456899 
-0.35204443120484041 55:0.237983 106:0.27363601 139:0.237983 155:0.151299 170:0.12547 206:0.106818 308:0.18217701 347:0.20710599 355:0.15816601 389:0.16204201 461:0.20710599 497:0.140104 514:0.12918501 535:0.176228 598:0.237983 686:0.41421199 688:0.220963 728:0.20710599 808:0.137696 817:0.12918501 857:0.29070199 919:0.189044 932:0.21992099 
-0.048754857240732086 63:0.045317002 179:0.024707999 201:0.077147 206:0.037471 220:0.059978999 229:0.072567999 247:0.174999 253:0.096606001 259:0.059978999 291:0.06182 310:0.760809 320:0.31953299 323:0.108466 387:0.055484001 396:0.063906997 441:0.127813 549:0.10615 572:0.059978999 580:0.119959 628:0.144908 631:0.069164 634:0.077147 672:0.043400999 673:0.085623004 686:0.145303 690:0.119959 738:0.066315003 745:0.063906997 762:0.035179999 786:0.154294 797:0.077147 819:0.049148001 836:0.049148001 849:0.06182 850:0.055484001 857:0.15296499 860:0.072650999 866:0.069164 912:0.059978999 963:0.069164 968:0.066315003 973:0.119959 
-0.088119162531578019 15:0.145625 57:0.141628 72:0.187307 124:0.20269001 247:0.141628 293:0.081331 320:0.15515999 330:0.058263998 342:0.150094 366:0.123795 367:0.176392 382:0.32201701 441:0.15515999 548:0.167926 583:0.167926 596:0.167926 664:0.167926 665:0.13167299 686:0.176392 690:0.29124999 692:0.141628 715:0.150094 716:0.161009 805:0.36795601 815:0.161009 849:0.150094 857:0.123795 951:0.119327 975:0.32201701 
-0.2947251180552809 57:0.152318 63:0.118332 112:0.60433602 145:0.21799 179:0.064516999 255:0.13858899 272:0.144879 420:0.135773 452:0.135773 471:0.201445 552:0.189707 588:0.108873 678:0.144879 686:0.37941301 689:0.16687199 703:0.189707 827:0.189707 856:0.13314 857:0.26628 927:0.088312 929:0.13858899 
-0.28194053900712035 132:0.29666299 156:0.27937499 210:0.27937499 330:0.09228 387:0.213358 416:0.196071 428:0.27937499 430:0.265966 445:0.132612 452:0.199949 513:0.230646 563:0.32102701 572:0.46129099 613:0.29666299 
-0.24836217501333002 104:0.107838 121:0.271617 179:0.092373997 224:0.28842399 265:0.231121 344:0.312112 364:0.238923 435:0.271617 473:0.157932 574:0.153901 595:0.312112 665:0.202757 673:0.16005699 695:0.22424001 884:0.24792901 950:0.28842399 954:0.22424001 956:0.28842399 
-0.294084993677455 17:0.090241 104:0.078442998 106:0.065261997 133:0.125131 179:0.067194 214:0.173796 224:0.209804 245:0.197578 297:0.173796 323:0.147488 342:0.168121 356:0.136088 384:0.209804 403:0.45407 504:0.129181 519:0.209804 574:0.11195 660:0.227035 664:0.188095 686:0.197578 687:0.125131 705:0.209804 762:0.191348 767:0.239397 819:0.13365901 868:0.123242 927:0.091976002 946:0.227035 949:0.16311599 971:0.16311599 
-0.31118557998381169 50:0.213458 103:0.239981 179:0.092782997 248:0.232145 259:0.225233 423:0.249027 496:0.232145 499:0.232145 560:0.28970101 572:0.225233 590:0.184559 657:0.178376 681:0.172783 786:0.28970101 853:0.249027 857:0.19147 877:0.27282 893:0.313494 900:0.167677 
-0.1730794726486333 8:0.11093 60:0.220287 106:0.229294 115:0.16904201 136:0.220287 153:0.245711 166:0.181045 168:0.23139299 193:0.172731 206:0.119345 266:0.156534 273:0.245711 328:0.19103201 330:0.076430999 377:0.23139299 534:0.245711 587:0.245711 611:0.26589099 657:0.15129 666:0.196895 712:0.245711 720:0.172731 815:0.21121299 857:0.162396 926:0.153843 
-0.21206071407326693 104:0.084476002 115:0.155441 133:0.134756 238:0.19421899 253:0.14146499 286:0.175662 352:0.21277501 355:0.162496 384:0.225941 396:0.18716399 444:0.095388003 464:0.225941 475:0.16647799 477:0.162496 504:0.139118 540:0.244498 574:0.120561 590:0.28787899 673:0.125383 677:0.19421899 686:0.21277501 739:0.175662 767:0.128905 859:0.18716399 871:0.18716399 874:0.21277501 882:0.244498 905:0.202563 910:0.225941 
-0.23769233694184486 65:0.28682199 229:0.143245 253:0.190695 294:0.30456999 320:0.25229701 328:0.236793 549:0.209535 554:0.61917901 863:0.26180699 882:0.329584 929:0.209535 
-0.23552961979069598 47:0.188594 133:0.297519 143:0.22361401 151:0.234887 179:0.079882003 245:0.234887 304:0.14032 359:0.17159501 416:0.164849 467:0.22361401 517:0.158898 624:0.30221999 686:0.234887 743:0.249422 808:0.156166 817:0.146514 827:0.234887 857:0.164849 886:0.269907 909:0.14032 932:0.249422 937:0.17938299 991:0.183779 
-0.23949484067749546 111:0.174225 169:0.136316 201:0.370011 389:0.136316 404:0.20020001 416:0.122274 450:0.16586301 453:0.15903001 475:0.136316 494:0.15903001 610:0.14383601 624:0.112084 630:0.20020001 651:0.18500499 657:0.113912 672:0.10408 686:0.174225 690:0.28767201 737:0.153254 742:0.34845001 743:0.18500499 789:0.174225 826:0.331725 857:0.122274 923:0.153254 926:0.115835 929:0.127278 997:0.108675 
-0.25971262739560474 24:0.14259 61:0.146615 210:0.177591 222:0.18858001 226:0.18858001 228:0.156214 253:0.118072 297:0.156214 299:0.146615 306:0.156214 330:0.058660001 423:0.162103 454:0.18858001 500:0.18858001 575:0.169067 581:0.151114 613:0.18858001 617:0.112472 658:0.177591 659:0.151114 664:0.169067 672:0.106091 686:0.177591 718:0.20406801 788:0.169067 812:0.20406801 821:0.20406801 856:0.124637 884:0.162103 887:0.106091 916:0.129737 920:0.169067 922:0.146615 929:0.129737 960:0.29322901 967:0.151114 973:0.146615 
-0.15098400940573292 104:0.111332 107:0.13348 115:0.20485801 133:0.088798001 134:0.13348 139:0.16111401 210:0.14021 222:0.148886 230:0.12798201 293:0.064648002 300:0.14021 359:0.102429 440:0.112576 456:0.102429 462:0.66740102 537:0.148886 552:0.14021 599:0.081524998 664:0.13348 673:0.165244 686:0.28041899 699:0.123333 717:0.098402001 736:0.14021 800:0.123333 804:0.096574001 844:0.148886 917:0.119306 927:0.065269999 971:0.115754 992:0.14021 
-0.28710779024779409 46:0.22482599 63:0.140238 229:0.112283 253:0.14947701 286:0.18561099 312:0.25834599 330:0.074262001 389:0.175907 402:0.180516 419:0.25834599 425:0.238738 440:0.180516 445:0.106719 456:0.16424499 504:0.146997 514:0.140238 522:0.238738 603:0.25834599 673:0.132484 687:0.142388 699:0.19776399 709:0.205219 732:0.19776399 785:0.19130699 832:0.171699 848:0.12580401 857:0.15778799 866:0.214035 915:0.140238 973:0.18561099 
-0.24826074926305233 37:0.45511499 53:0.210287 104:0.078622997 120:0.227557 196:0.174196 230:0.18076199 247:0.159003 271:0.227557 309:0.115146 383:0.16850799 429:0.147828 449:0.14173201 456:0.14467099 466:0.159003 486:0.174196 497:0.133966 514:0.123525 586:0.133966 592:0.18076199 599:0.115146 617:0.12541901 657:0.12947901 686:0.198033 703:0.198033 777:0.12947901 820:0.198033 836:0.133966 848:0.110811 857:0.138983 909:0.118303 916:0.14467099 973:0.163491 997:0.123525 
-0.20279857868900017 15:0.116299 56:0.14087 94:0.087869003 131:0.086580001 179:0.047908001 193:0.105157 218:0.123913 247:0.113106 276:0.083011001 302:0.073463999 320:0.24782699 366:0.098865002 382:0.128584 444:0.063152 445:0.133734 482:0.085343003 497:0.095296003 543:0.14087 549:0.102911 583:0.13410901 621:0.70434898 623:0.13410901 686:0.14087 692:0.113106 713:0.097028002 748:0.128584 749:0.14958601 867:0.161872 891:0.28174001 912:0.116299 951:0.095296003 
-0.16530844891363519 8:0.102387 129:0.187867 159:0.21357401 183:0.194948 245:0.21357401 254:0.22679 330:0.070546001 342:0.181733 349:0.159429 382:0.194948 444:0.095746003 468:0.141996 508:0.21357401 517:0.14448 584:0.149891 642:0.187867 653:0.20332401 679:0.44131699 686:0.21357401 694:0.194948 713:0.14710601 840:0.20332401 857:0.149891 873:0.22679 887:0.12758701 953:0.16710301 997:0.13322 
-0.27653765293105742 57:0.106998 61:0.110018 63:0.083123997 90:0.15312999 131:0.081904002 132:0.141507 175:0.141507 179:0.045320999 224:0.141507 298:0.126865 300:0.13326199 306:0.117221 330:0.044018 370:0.091788001 412:0.126865 445:0.063256003 485:0.117221 508:0.13326199 527:0.110018 574:0.075507998 588:0.076479003 593:0.12164 609:0.13326199 628:0.26579899 681:0.084398001 687:0.168795 714:0.13326199 716:0.12164 747:0.12164 758:0.141507 767:0.080734 854:0.141507 857:0.093525998 909:0.079608999 929:0.097352996 932:0.141507 934:0.106998 945:0.28301501 981:0.61251801 
-0.060531200689322016 116:0.293506 146:0.25229701 276:0.16287699 283:0.293506 293:0.127445 294:0.293506 304:0.165121 328:0.228191 494:0.25229701 527:0.228191 686:0.27640301 762:0.133843 810:0.263136 884:0.25229701 924:0.183768 927:0.12867001 988:0.293506 989:0.27640301 
-0.10044400652948826 38:0.13979501 46:0.39065099 63:0.121837 67:0.29833999 104:0.15509699 106:0.064517997 125:0.17181499 179:0.066427998 206:0.100742 224:0.207412 227:0.224447 300:0.195326 323:0.145807 440:0.15683 473:0.113572 477:0.14917 514:0.121837 527:0.161256 554:0.105415 588:0.112098 651:0.41482401 653:0.18595099 681:0.123704 686:0.195326 720:0.145807 796:0.17181499 868:0.121837 917:0.166205 948:0.145807 
-0.15272820394313463 104:0.111841 144:0.21028499 170:0.170662 191:0.29913199 205:0.32370001 221:0.281701 240:0.29913199 377:0.281701 456:0.20579401 599:0.16379599 644:0.187291 705:0.29913199 857:0.197704 882:0.32370001 904:0.19403 971:0.232566 985:0.20579401 
-0.096019543180822509 68:0.093198001 91:0.079302996 113:0.098963998 115:0.204254 156:0.093198001 160:0.107092 179:0.063391 234:0.085069999 257:0.098963998 288:0.093198001 293:0.042971998 313:0.081978999 316:0.245938 321:0.098963998 330:0.092352003 336:0.107092 385:0.093198001 390:0.047547001 398:0.081978999 399:0.088724002 423:0.170139 444:0.125342 445:0.044238001 459:0.079302996 477:0.14235 479:0.177449 497:0.063046999 499:0.15860499 506:0.081978999 518:0.098963998 538:0.088724002 543:0.093198001 554:0.050298002 606:0.186395 609:0.093198001 617:0.118048 623:0.177449 632:0.107092 634:0.19792899 643:0.098963998 650:0.085069999 680:0.093198001 681:0.059023999 686:0.27959299 687:0.059023999 697:0.081978999 721:0.076941997 755:0.088724002 758:0.098963998 762:0.045129001 783:0.072919004 817:0.058132999 849:0.079302996 855:0.059023999 882:0.32127699 900:0.05728 904:0.38515601 909:0.055675 922:0.076941997 927:0.043384999 928:0.107092 981:0.107092 
-0.12588613226510115 104:0.088719003 106:0.073812 118:0.16681001 130:0.25677699 191:0.237289 275:0.163248 309:0.129932 380:0.14857 416:0.15683 532:0.237289 686:0.670385 784:0.223462 808:0.14857 882:0.25677699 904:0.153916 937:0.17065699 984:0.223462 
-0.063966493636316193 48:0.12577 104:0.124381 115:0.114434 125:0.137787 170:0.094898 283:0.166335 293:0.072224997 302:0.081689 313:0.137787 380:0.104145 381:0.359992 440:0.12577 462:0.149124 491:0.166335 497:0.105966 508:0.156642 509:0.166335 551:0.179996 599:0.18216 686:0.156642 741:0.149124 745:0.137787 767:0.094898 804:0.215784 848:0.087650999 855:0.099205002 857:0.219869 869:0.179996 875:0.112109 882:0.53998798 999:0.100773 
-0.23041020202408177 106:0.085372999 248:0.21992999 255:0.18881901 293:0.119173 309:0.15028401 330:0.085372999 343:0.23592301 449:0.184983 501:0.15658499 514:0.16122 574:0.146449 664:0.246059 717:0.18139499 720:0.192939 762:0.125157 767:0.15658499 805:0.13479 819:0.34969401 837:0.23592301 868:0.16122 870:0.23592301 927:0.12032 930:0.17484701 948:0.192939 953:0.202226 980:0.23592301 988:0.27445701 
-0.12864920029387181 80:0.19461501 104:0.084648997 179:0.072509997 229:0.106481 235:0.15575799 239:0.213209 294:0.226402 302:0.111189 306:0.187545 335:0.213209 419:0.48999301 501:0.129168 519:0.226402 574:0.120807 617:0.13503 672:0.127369 673:0.251277 686:0.213209 762:0.103243 827:0.213209 857:0.29926899 893:0.244996 917:0.181422 924:0.141753 
-0.1741005780488461 38:0.102487 131:0.088010997 206:0.073857002 229:0.071516 281:0.114975 293:0.132052 310:0.40897399 354:0.13070901 390:0.21917 393:0.13070901 418:0.20099799 445:0.067971997 549:0.104612 574:0.081138 580:0.118221 588:0.164363 638:0.136325 653:0.136325 669:0.136325 676:0.143198 689:0.25192299 695:0.354662 708:0.152059 713:0.098632 744:0.164547 767:0.086753003 774:0.27265 796:0.12596101 805:0.074677996 807:0.152059 819:0.096871004 840:0.136325 850:0.10936 876:0.152059 909:0.085545003 930:0.096871004 960:0.236441 
-0.17341817841209037 21:0.40592799 154:0.21061499 236:0.21061499 316:0.20296399 363:0.126008 364:0.20296399 390:0.117718 396:0.20296399 397:0.196337 441:0.20296399 443:0.245015 452:0.165139 512:0.196337 552:0.230738 572:0.19049101 624:0.14844 629:0.230738 665:0.172241 774:0.21966299 796:0.20296399 808:0.15340699 900:0.141813 932:0.245015 
-0.14468858975945664 8:0.112729 116:0.249697 144:0.175533 224:0.249697 249:0.22386099 293:0.108422 300:0.235147 304:0.140475 309:0.13672701 339:0.22386099 483:0.20008899 516:0.22386099 532:0.249697 644:0.156339 646:0.33658999 673:0.138566 686:0.235147 719:0.22386099 856:0.165031 857:0.165031 882:0.27020499 943:0.21463899 954:0.194132 
-0.19407787727665227 269:0.25192001 270:0.219234 274:0.200115 285:0.200115 293:0.101085 304:0.130969 334:0.163654 342:0.55964601 349:0.163654 446:0.192845 451:0.208712 583:0.208712 679:0.151004 695:0.180995 739:0.180995 767:0.132818 777:0.143341 827:0.219234 848:0.122675 857:0.153863 900:0.13474301 927:0.102058 957:0.219234 
-0.13067475565821218 15:0.090391003 26:0.109489 41:0.116264 47:0.087909997 56:0.109489 77:0.099940002 88:0.251625 94:0.068295002 106:0.14466099 115:0.159972 122:0.109489 148:0.251625 179:0.037236001 183:0.099940002 193:0.081730999 222:0.116264 249:0.104234 253:0.072793998 266:0.14813501 297:0.096309997 302:0.114197 309:0.063662 328:0.090391003 330:0.036164999 337:0.104234 349:0.081730999 377:0.109489 420:0.078360997 423:0.099940002 429:0.081730999 444:0.098168001 457:0.116264 529:0.116264 530:0.085665002 554:0.11818 556:0.12581199 558:0.104234 594:0.090391003 599:0.063662 619:0.116264 646:0.078360997 657:0.14317299 662:0.104234 664:0.20846701 668:0.116264 679:0.075414002 686:0.109489 688:0.058407001 696:0.099940002 720:0.163462 731:0.218977 739:0.18078201 760:0.096309997 783:0.085665002 793:0.104234 805:0.057099 813:0.12581199 857:0.15368301 882:0.251625 900:0.067293003 920:0.104234 926:0.145588 935:0.12581199 949:0.18078201 952:0.116264 966:0.116264 
-0.14219336976454341 106:0.061386 149:0.37168899 245:0.185845 306:0.16347501 351:0.185845 363:0.101492 396:0.16347501 416:0.13043 435:0.185845 445:0.088215001 456:0.135767 499:0.15813699 501:0.11259 527:0.153429 572:0.153429 574:0.105302 641:0.40730199 652:0.15813699 672:0.22204401 674:0.213552 679:0.128006 687:0.1177 699:0.16347501 736:0.185845 817:0.115923 857:0.13043 915:0.115923 923:0.32695001 973:0.153429 
-0.053710751800348025 172:0.102573 179:0.086893998 223:0.27131301 228:0.112374 229:0.063801996 238:0.11661 264:0.224749 298:0.12162 302:0.066623002 320:0.112374 330:0.042197999 384:0.135657 393:0.23322 420:0.091431998 445:0.06064 499:0.21741 501:0.077395 513:0.21093699 535:0.108705 542:0.097563997 543:0.12775201 574:0.072385997 580:0.105469 652:0.108705 669:0.24324 676:0.255503 686:0.511006 736:0.255503 739:0.105469 745:0.112374 762:0.123723 861:0.12775201 945:0.135657 964:0.084936 975:0.11661 
-0.15829735182774451 179:0.061949998 220:0.150387 260:0.133075 286:0.150387 288:0.18216 302:0.094997004 310:0.173417 316:0.160234 363:0.19895899 377:0.18216 507:0.209318 552:0.18216 554:0.19662 573:0.209318 578:0.160234 593:0.166273 618:0.209318 625:0.166273 628:0.12111 686:0.18216 691:0.166273 726:0.18216 732:0.160234 761:0.193431 762:0.088207997 787:0.193431 792:0.209318 827:0.18216 850:0.13911501 899:0.193431 912:0.150387 915:0.113624 925:0.18216 934:0.14625899 945:0.193431 
-0.077435814829802135 4:0.129475 8:0.058453001 47:0.097898997 60:0.116078 106:0.161099 188:0.107253 225:0.140109 278:0.12193 290:0.116078 293:0.11244 296:0.107253 297:0.107253 298:0.116078 305:0.111296 306:0.214507 323:0.273056 331:0.12193 382:0.111296 390:0.062206 396:0.107253 430:0.116078 438:0.140109 442:0.111296 444:0.218646 456:0.089074999 469:0.129475 471:0.129475 498:0.100663 501:0.073868997 502:0.129475 506:0.107253 521:0.129475 539:0.095399998 574:0.069086999 581:0.103751 592:0.111296 605:0.129475 654:0.12193 664:0.23215599 673:0.071850002 691:0.111296 732:0.107253 742:0.12193 748:0.111296 767:0.073868997 772:0.085573003 785:0.103751 807:0.129475 857:0.25671899 882:0.140109 887:0.072839998 903:0.129475 918:0.12193 929:0.089074999 941:0.28021699 948:0.091018997 972:0.12193 
-0.15839541445074032 31:0.32048899 106:0.120347 169:0.28506801 179:0.123909 276:0.214699 294:0.38688901 482:0.22073001 617:0.230748 686:0.364344 868:0.227264 908:0.32048899 996:0.38688901 997:0.227264 
-0.075799872764881274 15:0.21094701 17:0.116703 28:0.51102901 57:0.205156 122:0.25551501 193:0.19073699 206:0.131786 300:0.25551501 305:0.23323099 686:0.25551501 696:0.23323099 713:0.175993 720:0.19073699 857:0.179325 924:0.33976099 989:0.25551501 
-0.12684990136679369 8:0.117294 304:0.146163 316:0.21521901 323:0.182641 380:0.16267 468:0.16267 482:0.148228 506:0.21521901 576:0.223331 677:0.223331 686:0.48933899 739:0.40398699 759:0.186854 827:0.24467 888:0.25980899 894:0.24467 927:0.113898 964:0.16267 
-0.077902080567646664 8:0.081243001 129:0.149069 159:0.169467 235:0.123803 247:0.136068 254:0.17995401 262:0.109023 272:0.12942199 326:0.169467 337:0.16133399 349:0.379513 382:0.154688 440:0.136068 444:0.075971998 451:0.16133399 475:0.132594 517:0.229285 526:0.17995401 570:0.154688 584:0.118936 617:0.107328 686:0.169467 693:0.17995401 694:0.154688 695:0.279816 781:0.169467 827:0.33893499 857:0.118936 865:0.16133399 873:0.17995401 887:0.101238 912:0.139908 951:0.114642 
-0.069964741221762342 215:0.193553 228:0.193553 261:0.193553 291:0.187233 356:0.30311701 445:0.208892 467:0.20947801 502:0.23365401 513:0.181659 624:0.283115 633:0.20947801 641:0.16074701 672:0.262898 686:0.220039 754:0.23365401 827:0.220039 915:0.27450401 923:0.193553 927:0.102432 929:0.16074701 954:0.181659 973:0.181659 
-0.15310880382765796 8:0.070159003 48:0.235009 56:0.146348 179:0.099541999 256:0.168167 272:0.111765 286:0.120821 302:0.076320998 306:0.128732 330:0.09668 337:0.139323 384:0.155403 423:0.13358399 445:0.069467001 477:0.55882698 514:0.091286004 586:0.19800401 591:0.155403 599:0.085093997 646:0.314224 650:0.13358399 651:0.155403 673:0.086239003 678:0.111765 679:0.100801 681:0.092684999 705:0.155403 713:0.100801 721:0.120821 793:0.139323 855:0.092684999 857:0.205419 915:0.091286004 926:0.1946 927:0.068126999 973:0.120821 
-0.1034299592186704 8:0.107028 17:0.101968 104:0.088636003 106:0.073743001 254:0.237068 260:0.163096 272:0.170498 280:0.196381 323:0.166655 330:0.073743001 394:0.237068 440:0.179253 522:0.237068 526:0.237068 554:0.120488 578:0.196381 625:0.20378301 694:0.20378301 761:0.237068 800:0.196381 814:0.237068 817:0.139257 819:0.15102801 866:0.212538 873:0.237068 882:0.25653899 932:0.237068 948:0.166655 
-0.08021819591992492 8:0.076748997 56:0.16009501 94:0.099861003 108:0.11027 118:0.119508 133:0.101392 155:0.116956 193:0.119508 242:0.170001 300:0.16009501 302:0.083489999 317:0.16009501 346:0.14082401 366:0.112358 402:0.12854201 424:0.11027 445:0.075993001 449:0.22916 470:0.170001 501:0.29096901 574:0.27213499 587:0.170001 623:0.152411 654:0.16009501 703:0.16009501 713:0.11027 732:0.14082401 777:0.20934699 780:0.152411 808:0.21288 836:0.108302 853:0.14613301 857:0.112358 882:0.183963 891:0.320189 962:0.16009501 969:0.136226 972:0.16009501 
-0.069799770917240572 17:0.083254002 24:0.146355 118:0.136069 145:0.209456 238:0.166383 302:0.095059998 315:0.13920701 328:0.15048601 352:0.18228 389:0.142618 509:0.19355901 568:0.58542001 574:0.103282 617:0.115442 649:0.173531 697:0.160339 701:0.19355901 743:0.38711801 827:0.18228 857:0.127928 888:0.19355901 917:0.155104 948:0.136069 
-0.053368806129119928 40:0.21915799 179:0.078290999 235:0.168176 295:0.21915799 311:0.26452899 323:0.34369099 363:0.125719 369:0.21013001 398:0.20249701 402:0.184836 493:0.244452 506:0.20249701 513:0.190053 535:0.195885 576:0.21013001 623:0.21915799 774:0.21915799 775:0.244452 832:0.175809 882:0.26452899 927:0.214331 951:0.15573201 
-0.087392018169666449 22:0.157015 38:0.075271003 43:0.12085 47:0.084443003 63:0.065600999 91:0.089489996 97:0.12085 103:0.092510998 106:0.104216 115:0.076830998 187:0.10517 214:0.092510998 218:0.092510998 222:0.111678 231:0.078507997 257:0.111678 262:0.067658998 266:0.071145996 290:0.100122 297:0.092510998 302:0.16453999 309:0.061151002 324:0.12085 330:0.034738999 342:0.089489996 381:0.12085 396:0.092510998 423:0.095997997 429:0.078507997 444:0.094296001 453:0.095997997 465:0.095997997 475:0.082286999 486:0.092510998 501:0.063715003 518:0.111678 544:0.111678 594:0.086825997 608:0.100122 617:0.066606998 619:0.111678 623:0.100122 646:0.15054099 657:0.13752601 671:0.10517 678:0.080317996 681:0.066606998 686:0.10517 687:0.066606998 690:0.086825997 717:0.073811002 724:0.095997997 725:0.12085 767:0.063715003 772:0.14762101 790:0.27753299 797:0.111678 813:0.12085 823:0.111678 828:0.47999099 848:0.058848999 857:0.073811002 869:0.12085 870:0.095997997 882:0.12085 925:0.10517 926:0.139846 934:0.084443003 940:0.100122 975:0.095997997 985:0.076830998 
-0.11171924455782792 9:0.156183 15:0.242854 63:0.091743998 104:0.175184 131:0.090397999 193:0.109794 220:0.121427 230:0.13425399 259:0.242854 301:0.16901 306:0.12937801 351:0.147082 352:0.147082 370:0.101307 396:0.12937801 449:0.31580001 455:0.13425399 459:0.12515301 466:0.118094 468:0.097787999 471:0.156183 486:0.12937801 508:0.147082 509:0.156183 567:0.156183 586:0.099499002 599:0.085520998 673:0.086671002 686:0.147082 689:0.12937801 696:0.13425399 706:0.107449 736:0.147082 748:0.268509 777:0.192331 797:0.156183 817:0.091743998 819:0.099499002 855:0.093149997 870:0.13425399 882:0.16901 909:0.087865002 970:0.14002199 982:0.156183 997:0.091743998 
-0.038507892534775268 107:0.193939 229:0.101741 250:0.18595 309:0.118451 315:0.155578 390:0.103932 435:0.407433 438:0.234089 459:0.173344 498:0.168183 521:0.216322 671:0.407433 686:0.407433 705:0.216322 717:0.14297201 887:0.121698 947:0.35839099 
-0.10159410679399357 34:0.23596901 133:0.16372301 159:0.258515 245:0.258515 342:0.219973 357:0.258515 382:0.23596901 517:0.174881 584:0.181431 679:0.35611901 686:0.258515 688:0.137906 694:0.23596901 713:0.17806 783:0.20226499 840:0.246107 857:0.181431 887:0.154434 930:0.174881 970:0.246107 
-0.059030347388031555 5:0.079141997 106:0.031665001 119:0.479316 158:0.191726 166:0.075005002 179:0.032602001 214:0.25297299 238:0.087503001 247:0.076970004 260:0.070032001 265:0.24471299 269:0.110155 285:0.175006 318:0.067279004 353:0.091261998 356:0.066028997 388:0.110155 402:0.076970004 419:0.110155 468:0.063735001 482:0.058077 507:0.110155 522:0.101795 554:0.051736001 570:0.175006 574:0.108634 579:0.087503001 590:0.064850003 614:0.163142 617:0.060711998 625:0.087503001 631:0.091261998 686:0.191726 687:0.060711998 695:0.237427 705:0.101795 713:0.066028997 748:0.087503001 750:0.110155 762:0.04642 769:0.095863 773:0.101795 799:0.191726 804:0.132057 805:0.049993001 827:0.191726 848:0.053640999 850:0.073210999 857:0.13455699 877:0.095863 882:0.110155 905:0.091261998 920:0.182524 945:0.101795 975:0.087503001 
-0.046735787811598109 54:0.063444003 89:0.117258 93:0.045582 104:0.065761998 121:0.055211999 134:0.052561998 155:0.040335 161:0.105125 165:0.058628999 170:0.033449002 172:0.088661999 179:0.018777 193:0.041214999 213:0.055211999 228:0.048567001 240:0.058628999 253:0.036708001 265:0.046980999 283:0.058628999 294:0.058628999 300:0.055211999 302:0.115174 316:0.048567001 323:0.041214999 328:0.091164 334:0.041214999 344:0.063444003 349:0.082429998 355:0.042165998 363:0.030152 364:0.048567001 369:0.050397001 370:0.038029 375:0.058628999 393:0.050397001 395:0.048567001 396:0.048567001 415:0.063444003 420:0.118547 424:0.076058 429:0.041214999 445:0.026208 446:0.19426601 447:0.12688801 457:0.058628999 461:0.055211999 466:0.044330999 468:0.036708001 474:0.100794 475:0.043198999 476:0.063444003 497:0.037349999 514:0.034439001 517:0.037349999 525:0.055211999 583:0.052561998 597:0.063444003 599:0.16051701 600:0.063444003 640:0.052561998 652:0.046980999 658:0.496912 666:0.046980999 673:0.065070003 679:0.076058 681:0.034967002 686:0.22085001 697:0.048567001 706:0.040335 713:0.114088 726:0.055211999 732:0.048567001 734:0.044330999 736:0.055211999 738:0.050397001 744:0.063444003 749:0.058628999 790:0.048567001 808:0.036708001 824:0.055211999 826:0.052561998 827:0.22085001 838:0.063444003 848:0.061788999 855:0.034967002 857:0.387492 859:0.19426601 866:0.105125 877:0.055211999 878:0.091164 880:0.052561998 882:0.12688801 900:0.033934001 910:0.058628999 915:0.068879001 927:0.025702 934:0.044330999 936:0.190332 937:0.042165998 973:0.091164 979:0.052561998 993:0.063444003 
-0.071278011518243062 294:0.27129301 298:0.243221 328:0.210921 330:0.084389001 366:0.179304 428:0.25548401 443:0.27129301 494:0.233202 590:0.345662 594:0.210921 631:0.243221 673:0.15054999 686:0.25548401 748:0.233202 762:0.123714 848:0.142958 917:0.43478701 
-0.041708260682961948 50:0.174034 195:0.203034 229:0.111088 230:0.406068 277:0.47239301 355:0.169872 359:0.162496 366:0.15610801 387:0.169872 390:0.113481 446:0.195659 615:0.23619699 624:0.143098 686:0.222433 882:0.255595 913:0.222433 914:0.255595 937:0.169872 949:0.183635 
-0.039546482351597162 10:0.196807 102:0.185339 104:0.073582999 106:0.18365701 226:0.196807 281:0.148811 309:0.107765 315:0.141543 357:0.185339 396:0.16303 474:0.169175 553:0.185339 558:0.176443 581:0.15770601 599:0.107765 607:0.176443 636:0.212971 686:0.185339 709:0.169175 767:0.112283 777:0.121179 808:0.123224 827:0.185339 848:0.103708 856:0.13007399 857:0.390223 882:0.212971 916:0.27079499 960:0.15301099 971:0.15301099 995:0.169175 997:0.115607 
-0.042196912490526303 45:0.201608 220:0.174834 229:0.105764 258:0.180199 302:0.11044 316:0.18628199 328:0.174834 332:0.224877 416:0.148626 463:0.224877 468:0.140798 502:0.224877 514:0.13209599 554:0.114292 574:0.119993 628:0.140798 641:0.154709 686:0.21177299 719:0.201608 758:0.224877 779:0.224877 787:0.224877 805:0.11044 827:0.423545 882:0.24334601 975:0.193303 
-0.046882437921424332 20:0.136898 31:0.126491 104:0.114183 170:0.087118 179:0.048905 190:0.118717 199:0.14380001 224:0.152698 243:0.16523901 276:0.084737003 293:0.132607 300:0.14380001 302:0.074992001 309:0.083612002 329:0.14380001 330:0.094997004 342:0.12236 356:0.099045999 365:0.16523901 383:0.12236 393:0.131258 395:0.126491 403:0.16523901 408:0.152698 440:0.115459 474:0.131258 486:0.126491 504:0.094020002 541:0.152698 589:0.152698 661:0.16523901 664:0.136898 686:0.14380001 699:0.37947199 706:0.105052 760:0.126491 762:0.069633 777:0.094020002 810:0.136898 857:0.40368599 859:0.126491 868:0.089697003 907:0.14380001 948:0.107344 973:0.118717 991:0.112511 
-0.034312477930342991 41:0.15279 134:0.13698 146:0.131338 147:0.143886 161:0.13698 179:0.048934001 198:0.13698 201:0.15279 287:0.15279 293:0.132687 302:0.15007401 306:0.12656701 309:0.083663002 310:0.13698 330:0.047527 351:0.143886 390:0.073408 393:0.131338 397:0.122434 418:0.100982 423:0.131338 440:0.115528 444:0.064503998 489:0.16533799 496:0.122434 513:0.118789 599:0.083663002 610:0.118789 624:0.092565998 642:0.25313401 664:0.27396101 670:0.15279 672:0.343826 686:0.28777301 692:0.115528 715:0.122434 724:0.131338 774:0.13698 827:0.143886 851:0.15279 896:0.15279 900:0.088434003 909:0.085956 922:0.118789 924:0.095664002 927:0.066982001 937:0.109886 951:0.097337 
-0.042579247967979968 8:0.069760002 14:0.14551599 60:0.138532 93:0.120135 106:0.048064999 124:0.167211 146:0.132825 293:0.067094997 323:0.108625 330:0.096130997 334:0.108625 361:0.14551599 376:0.14551599 396:0.128001 407:0.167211 429:0.108625 439:0.15452 445:0.069072999 446:0.128001 481:0.095141999 525:0.14551599 548:0.138532 549:0.106306 585:0.167211 596:0.138532 659:0.123821 665:0.108625 671:0.14551599 681:0.092159003 686:0.14551599 716:0.132825 734:0.35051101 738:0.132825 805:0.379435 853:0.132825 857:0.204252 859:0.128001 874:0.14551599 887:0.086929999 900:0.089435004 915:0.090768002 927:0.20322099 945:0.15452 975:0.132825 985:0.106306 999:0.093615003 
-0.014838595044614877 29:0.20397601 68:0.19209 115:0.14033 116:0.20397601 253:0.127712 258:0.163451 313:0.16896801 325:0.15029401 443:0.20397601 479:0.18287 590:0.12994599 592:0.175337 610:0.158585 623:0.18287 632:0.441457 662:0.18287 666:0.163451 686:0.19209 695:0.158585 726:0.19209 762:0.093015999 808:0.127712 827:0.19209 836:0.12994599 904:0.13230801 943:0.175337 963:0.18287 972:0.19209 979:0.18287 
-0.016542573802560322 99:0.255905 104:0.088417999 156:0.22270299 157:0.23648299 229:0.111223 279:0.255905 296:0.195896 400:0.212014 444:0.099838004 481:0.29121599 497:0.150655 579:0.20328 599:0.25898099 601:0.255905 673:0.26246601 743:0.23648299 774:0.212014 857:0.312594 909:0.26608101 991:0.174245 
-0.020026067208574017 100:0.17949601 186:0.14871 230:0.142584 237:0.16587301 270:0.156207 276:0.092049003 293:0.144049 305:0.142584 309:0.090827003 373:0.156207 385:0.31241399 393:0.28516799 445:0.074147001 446:0.13740499 451:0.14871 473:0.090827003 500:0.16587301 535:0.132918 542:0.119295 572:0.25792199 643:0.16587301 664:0.14871 686:0.31241399 695:0.128961 703:0.156207 705:0.16587301 769:0.156207 785:0.132918 808:0.103855 836:0.105672 850:0.119295 857:0.109629 862:0.142584 875:0.111798 880:0.14871 900:0.096005999 907:0.156207 915:0.097436003 945:0.16587301 
-0.021447276016518864 10:0.212082 66:0.190138 101:0.199724 115:0.145907 124:0.22950099 206:0.103011 247:0.16036101 253:0.132788 356:0.137566 390:0.101895 402:0.16036101 431:0.17568301 442:0.18230499 596:0.190138 624:0.25697601 629:0.199724 652:0.169947 666:0.169947 686:0.39944801 713:0.137566 716:0.18230499 733:0.169947 751:0.22950099 805:0.104157 808:0.26557499 857:0.14016999 929:0.145907 999:0.128488 
-0.019819110822839069 45:0.51893198 123:0.144706 131:0.083755001 146:0.124389 170:0.082557999 172:0.109416 211:0.136274 228:0.119871 245:0.136274 253:0.090602003 258:0.115957 275:0.099554002 276:0.080302 283:0.144706 302:0.071066998 306:0.119871 330:0.045012001 363:0.074421003 414:0.136274 416:0.19127899 468:0.090602003 515:0.144706 624:0.087669 628:0.090602003 631:0.129733 651:0.144706 668:0.144706 672:0.081409 673:0.080302 679:0.093863003 686:0.27254701 728:0.136274 741:0.129733 743:0.28941199 767:0.082557999 783:0.106622 803:0.144706 817:0.085001998 848:0.076252997 854:0.144706 872:0.136274 882:0.156591 900:0.083755001 954:0.112504 996:0.144706 
-0.010023546405027509 101:0.226487 159:0.226487 235:0.16545799 250:0.206734 264:0.19922499 293:0.104429 295:0.215616 318:0.158953 322:0.226487 384:0.240501 402:0.181849 482:0.13721199 542:0.172967 572:0.18698201 669:0.215616 686:0.45297301 737:0.19922499 759:0.172967 861:0.226487 927:0.105434 937:0.172967 964:0.150581 975:0.206734 
-0.0051941593102676868 17:0.157289 50:0.26944399 56:0.34437501 106:0.227501 352:0.34437501 357:0.34437501 481:0.225161 686:0.34437501 688:0.183709 691:0.31434199 808:0.22896001 908:0.30292299 999:0.22154699 
-0.0021936704578972895 49:0.26440901 80:0.227286 104:0.098858997 202:0.20557 236:0.227286 247:0.199927 335:0.24900199 363:0.13598301 418:0.17475399 456:0.181906 497:0.168446 576:0.227286 688:0.13283101 760:0.438059 887:0.14875101 901:0.23705 909:0.14875101 934:0.199927 938:0.23705 944:0.26440901 948:0.185875 
