SVM-light Version V3.50
0 # kernel type
1 # kernel parameter -d 
1 # kernel parameter -g 
1 # kernel parameter -s 
0 # kernel parameter -r 
EmptyParam # kernel parameter -u 
1000 # highest feature index 
418 # number of training documents 
121 # number of support vectors plus 1 
0.98841456 # threshold b 
-0.11533223978285936 17:0.069817998 133:0.096812002 151:0.152863 229:0.076343 238:0.139531 239:0.152863 260:0.111673 264:0.134463 276:0.090078004 281:0.122736 293:0.140965 299:0.12620001 320:0.134463 330:0.151476 369:0.139531 373:0.152863 380:0.101632 390:0.155975 393:0.139531 402:0.122736 434:0.134463 435:0.152863 445:0.072559997 459:0.130072 481:0.099945001 490:0.122736 505:0.152863 580:0.12620001 625:0.139531 643:0.162322 651:0.162322 672:0.091319002 673:0.090078004 686:0.30572599 703:0.152863 708:0.162322 715:0.130072 752:0.139531 769:0.152863 781:0.152863 849:0.26014501 857:0.107282 928:0.175653 934:0.122736 942:0.30572599 999:0.098341003 
-0.023698105419376343 105:0.156556 127:0.169414 152:0.156556 192:0.13457499 210:0.147433 224:0.156556 229:0.14726301 311:0.338828 330:0.048698999 348:0.169414 363:0.080514997 384:0.156556 404:0.169414 435:0.147433 441:0.129687 481:0.096395001 485:0.25937399 495:0.13457499 550:0.147433 630:0.338828 643:0.156556 664:0.140357 673:0.086879 701:0.156556 703:0.147433 736:0.147433 740:0.129687 818:0.169414 827:0.44229999 
-0.19202944881275225 20:0.25670201 104:0.107054 210:0.26964301 248:0.229442 300:0.26964301 318:0.18924101 420:0.192984 423:0.24612699 503:0.25670201 578:0.474374 613:0.28632799 617:0.170772 672:0.161083 673:0.158894 686:0.26964301 687:0.170772 717:0.18924101 
-0.022413923073861974 8:0.084509999 94:0.109958 106:0.174683 108:0.12142 117:0.14153901 184:0.160908 193:0.13159101 196:0.155063 266:0.23850501 272:0.134626 342:0.15000001 343:0.160908 351:0.176282 501:0.106797 503:0.167821 521:0.18719 546:0.35256499 574:0.099884003 599:0.1025 657:0.115258 679:0.12142 688:0.094039001 762:0.085362002 806:0.160908 811:0.18719 827:0.176282 828:0.48272499 857:0.123718 900:0.108344 915:0.109958 926:0.117202 949:0.14553399 991:0.137926 997:0.109958 
-0.15627885710631875 8:0.084059 49:0.18619099 63:0.109371 85:0.201483 95:0.175341 179:0.059632 190:0.144757 194:0.166926 298:0.166926 304:0.104747 318:0.123058 323:0.130889 355:0.133908 445:0.16645899 451:0.166926 466:0.140784 504:0.114642 514:0.109371 523:0.166926 588:0.100629 592:0.16004901 625:0.16004901 629:0.175341 663:0.33385101 688:0.093537003 691:0.16004901 762:0.084905997 777:0.114642 784:0.175341 797:0.18619099 800:0.154236 819:0.118616 827:0.175341 857:0.123058 865:0.166926 880:0.166926 882:0.201483 887:0.104747 945:0.18619099 947:0.154236 951:0.118616 1000:0.133908 
0.99999993212504223 35:0.17885099 48:0.270468 104:0.13373999 155:0.123045 300:0.168429 314:0.17885099 325:0.131781 396:0.148156 414:0.168429 425:0.17885099 468:0.111981 486:0.148156 519:0.17885099 538:0.32069099 571:0.357703 656:0.148156 673:0.099251002 679:0.116011 690:0.13905101 713:0.116011 730:0.168429 749:0.17885099 783:0.131781 855:0.21334 882:0.19354001 916:0.123045 927:0.078406997 932:0.357703 937:0.128629 
0.99999993212504223 10:0.152234 24:0.115108 104:0.056917999 106:0.094708003 131:0.088111997 170:0.086852998 227:0.164737 229:0.071598999 253:0.095316 276:0.16896001 304:0.085643999 312:0.164737 314:0.30446801 328:0.118357 335:0.143363 342:0.121989 355:0.109486 363:0.078291997 373:0.143363 418:0.100615 427:0.152234 447:0.164737 456:0.104733 535:0.121989 554:0.077372 572:0.118357 586:0.096983001 588:0.082277 592:0.13086 612:0.164737 618:0.164737 652:0.121989 666:0.121989 686:0.143363 703:0.143363 732:0.12610701 739:0.118357 753:0.143363 767:0.086852998 787:0.152234 789:0.143363 800:0.252213 808:0.095316 812:0.164737 834:0.143363 870:0.13086 887:0.085643999 897:0.109486 909:0.085643999 917:0.121989 920:0.136482 931:0.136482 934:0.115108 945:0.152234 996:0.152234 999:0.09223 
0.99999993212504223 31:0.140751 48:0.25694999 49:0.169912 104:0.063528001 194:0.15233099 202:0.132101 208:0.16001099 230:0.146056 272:0.1222 309:0.093038999 314:0.169912 349:0.119445 389:0.125195 440:0.128475 468:0.106384 477:0.36660001 485:0.140751 512:0.13615499 527:0.264202 538:0.30466199 549:0.116895 583:0.15233099 588:0.091830999 663:0.15233099 679:0.110212 687:0.202677 697:0.140751 702:0.16001099 703:0.16001099 732:0.140751 760:0.140751 762:0.077482998 767:0.096938998 784:0.16001099 855:0.101339 915:0.099808998 942:0.16001099 945:0.169912 
0.99999993212504223 35:0.201278 104:0.15051 314:0.201278 329:0.189549 330:0.06261 338:0.156487 372:0.17301799 389:0.29661101 425:0.201278 429:0.141495 526:0.201278 549:0.138473 554:0.102298 569:0.166733 628:0.12602299 684:0.189549 687:0.120046 709:0.17301799 730:0.189549 732:0.33346599 767:0.114834 800:0.166733 808:0.12602299 819:0.25645399 857:0.133029 864:0.201278 866:0.18045101 867:0.21780901 916:0.138473 927:0.088238001 973:0.156487 
0.99999993212504223 8:0.048043001 48:0.241392 56:0.100215 106:0.033101998 117:0.080463998 124:0.115156 135:0.091475002 179:0.034081999 194:0.095404997 260:0.146422 286:0.082735002 351:0.20043001 375:0.53207999 468:0.066629 483:0.085274003 496:0.085274003 517:0.067794003 527:0.082735002 541:0.106416 552:0.100215 570:0.091475002 617:0.063468002 644:0.066629 672:0.059868 686:0.20043001 703:0.100215 705:0.106416 713:0.069026001 769:0.30064499 784:0.100215 799:0.50107503 805:0.104525 827:0.100215 857:0.070332997 900:0.061593 985:0.073210999 994:0.115156 
-0.99999993212504223 85:0.071523003 163:0.13218901 179:0.042335998 208:0.124486 229:0.062171001 238:0.056814998 260:0.13641401 262:0.040043 282:0.071523003 286:0.051385999 297:0.054751001 307:0.13218901 309:0.036191002 311:0.071523003 323:0.046463002 328:0.102773 330:0.041119002 337:0.118511 342:0.052963 352:0.062243 357:0.062243 370:0.042872 375:0.13218901 377:0.062243 399:0.118511 417:0.059255999 420:0.044548001 444:0.027904 448:0.062243 462:0.059255999 465:0.056814998 468:0.041382998 505:0.124486 522:0.066095002 527:0.051385999 538:0.118511 566:0.13218901 583:0.35553399 594:0.051385999 644:0.041382998 650:0.11363 663:0.118511 673:0.073357001 679:0.042872 686:0.248973 687:0.078840002 702:0.18673 703:0.062243 705:0.13218901 717:0.043683998 732:0.164253 769:0.311216 782:0.066095002 799:0.18673 800:0.383257 801:0.14304601 804:0.042872 820:0.124486 836:0.042107001 861:0.062243 882:0.071523003 920:0.059255999 925:0.062243 931:0.059255999 942:0.124486 945:0.26437899 968:0.056814998 
-0.032493013021658884 26:0.145962 32:0.145962 80:0.133232 126:0.154994 166:0.114202 193:0.108958 206:0.075282 248:0.1242 251:0.145962 300:0.145962 318:0.102439 330:0.048213001 358:0.145962 390:0.14893299 418:0.409756 501:0.088427998 543:0.145962 569:0.12839299 580:0.120503 599:0.084870003 679:0.100536 686:0.145962 692:0.35158399 703:0.145962 713:0.100536 741:0.138956 745:0.12839299 763:0.145962 777:0.095432997 810:0.138956 825:0.138956 848:0.081674002 857:0.409756 882:0.167723 915:0.091045 916:0.106631 924:0.097043999 937:0.111471 
-0.16008034375008495 17:0.043366 93:0.078387 106:0.062724002 107:0.090391003 131:0.058355998 134:0.090391003 149:0.094948001 166:0.074288003 179:0.064580999 227:0.109103 229:0.047419 245:0.284843 248:0.080792002 281:0.076234996 302:0.099031001 309:0.055206999 330:0.062724002 334:0.141753 349:0.070877001 363:0.15555599 375:0.50411397 380:0.063127004 424:0.065398 429:0.070877001 445:0.090138003 446:0.083518997 509:0.100823 514:0.059225 517:0.321154 552:0.094948001 572:0.078387 618:0.109103 624:0.061083 651:0.100823 655:0.086667001 681:0.060132999 686:0.284843 687:0.060132999 707:0.083518997 721:0.078387 736:0.094948001 738:0.086667001 762:0.045977 767:0.057521999 775:0.100823 783:0.074288003 789:0.094948001 817:0.059225 838:0.109103 859:0.25055701 867:0.109103 882:0.109103 915:0.059225 916:0.069362998 927:0.088399999 932:0.100823 933:0.080792002 947:0.083518997 958:0.090391003 970:0.090391003 975:0.086667001 998:0.094948001 1000:0.072511002 
-0.21414692076762323 103:0.228065 117:0.20817401 304:0.15488701 309:0.150755 420:0.371124 519:0.275316 560:0.275316 588:0.148798 720:0.193542 732:0.45612901 760:0.228065 838:0.29792801 909:0.15488701 927:0.120696 966:0.275316 973:0.21404999 
-0.25159009428284174 179:0.093722001 281:0.221269 293:0.127066 309:0.160238 329:0.55116397 372:0.25154799 389:0.215619 549:0.201324 588:0.158158 664:0.262355 762:0.13344599 819:0.186427 827:0.27558199 855:0.17453299 927:0.25657699 971:0.227514 984:0.27558199 
0.99999993212504223 8:0.055443998 66:0.110102 118:0.086332999 124:0.13289601 179:0.039331999 220:0.095481001 224:0.12281 228:0.101732 231:0.086332999 253:0.076893002 255:0.084489003 276:0.13630299 282:0.13289601 291:0.29523101 303:0.115653 323:0.086332999 328:0.095481001 330:0.038201001 358:0.115653 363:0.063160002 390:0.059004001 420:0.165546 495:0.211134 496:0.098410003 506:0.101732 530:0.090489 546:0.115653 548:0.110102 553:0.115653 588:0.066373996 592:0.105567 641:0.084489003 643:0.12281 650:0.105567 673:0.068150997 686:0.115653 687:0.073246002 695:0.095481001 703:0.115653 713:0.079659998 715:0.098410003 717:0.243503 728:0.115653 734:0.092859998 742:0.115653 745:0.305197 770:0.13289601 805:0.060313001 817:0.072140001 827:0.115653 867:0.13289601 922:0.095481001 923:0.101732 947:0.101732 954:0.095481001 975:0.42226699 985:0.084489003 1000:0.088324003 
0.99999993212504223 48:0.093292996 66:0.110616 108:0.080031998 228:0.102207 248:0.098870002 252:0.116193 266:0.078602999 273:0.123383 281:0.093292996 401:0.110616 420:0.083159998 570:0.10606 583:0.110616 650:0.10606 734:0.466465 739:0.095926002 767:0.070393004 770:0.53406501 772:0.081547 857:0.163093 882:0.133516 940:0.110616 947:0.51103598 989:0.116193 
0.99999993212504223 48:0.168276 106:0.069227003 179:0.071276002 206:0.108095 225:0.24082901 248:0.17833599 278:0.209582 283:0.222551 323:0.15644901 351:0.209582 397:0.17833599 402:0.168276 455:0.191304 492:0.209582 558:0.199523 589:0.222551 686:0.209582 734:0.168276 769:0.209582 770:0.24082901 817:0.130729 831:0.209582 855:0.26546699 947:0.36871001 953:0.16398001 
0.99999993212504223 8:0.070159003 48:0.235009 56:0.146348 179:0.099541999 256:0.168167 272:0.111765 286:0.120821 302:0.076320998 306:0.128732 330:0.09668 337:0.139323 384:0.155403 423:0.13358399 445:0.069467001 477:0.55882698 514:0.091286004 586:0.19800401 591:0.155403 599:0.085093997 646:0.314224 650:0.13358399 651:0.155403 673:0.086239003 678:0.111765 679:0.100801 681:0.092684999 705:0.155403 713:0.100801 721:0.120821 793:0.139323 855:0.092684999 857:0.205419 915:0.091286004 926:0.1946 927:0.068126999 973:0.120821 
0.99999993212504223 1:0.13572399 11:0.097120002 17:0.077206001 24:0.203585 48:0.067861997 93:0.069776997 105:0.089749001 133:0.053528 135:0.077147998 177:0.084518999 179:0.057487998 210:0.084518999 276:0.049805 305:0.077147998 307:0.089749001 330:0.027918 334:0.18927599 335:0.084518999 351:0.084518999 352:0.084518999 420:0.181472 429:0.126184 445:0.040119 460:0.097120002 477:0.064547002 483:0.071918003 499:0.143837 525:0.084518999 527:0.209332 547:0.097120002 553:0.084518999 578:0.148692 588:0.048505999 592:0.077147998 617:0.053528 664:0.080463 673:0.049805 686:0.25355801 706:0.061744999 734:0.203585 762:0.040927 767:0.102408 769:0.33807799 770:0.388482 831:0.084518999 917:0.071918003 947:0.44607499 948:0.063092001 953:0.066128999 
-0.62114228005126815 63:0.154102 114:0.26234001 247:0.19836199 295:0.235195 302:0.128839 316:0.217315 327:0.247053 363:0.134918 424:0.170165 445:0.117269 584:0.17338599 641:0.360964 671:0.247053 713:0.170165 733:0.21021999 783:0.193297 797:0.26234001 947:0.43463001 953:0.193297 
-0.090717745495151172 76:0.29326701 104:0.101326 154:0.232959 174:0.29326701 250:0.232959 291:0.21716601 299:0.210701 302:0.13309599 363:0.139377 371:0.24296699 435:0.25521699 452:0.182659 514:0.15919501 539:0.19968501 584:0.179116 671:0.25521699 673:0.15039299 850:0.19490799 918:0.25521699 931:0.24296699 947:0.22449701 997:0.15919501 
-0.35468599208109364 8:0.069760002 14:0.14551599 60:0.138532 93:0.120135 106:0.048064999 124:0.167211 146:0.132825 293:0.067094997 323:0.108625 330:0.096130997 334:0.108625 361:0.14551599 376:0.14551599 396:0.128001 407:0.167211 429:0.108625 439:0.15452 445:0.069072999 446:0.128001 481:0.095141999 525:0.14551599 548:0.138532 549:0.106306 585:0.167211 596:0.138532 659:0.123821 665:0.108625 671:0.14551599 681:0.092159003 686:0.14551599 716:0.132825 734:0.35051101 738:0.132825 805:0.379435 853:0.132825 857:0.204252 859:0.128001 874:0.14551599 887:0.086929999 900:0.089435004 915:0.090768002 927:0.20322099 945:0.15452 975:0.132825 985:0.106306 999:0.093615003 
-0.14995059193484012 5:0.13190199 8:0.15318701 17:0.072972998 40:0.304203 108:0.110046 131:0.098196 139:0.18358999 173:0.16965599 185:0.16965599 234:0.145836 274:0.145836 289:0.33931199 294:0.16965599 330:0.21109401 389:0.12500601 406:0.16965599 423:0.145836 429:0.119265 468:0.106224 477:0.122016 523:0.152101 549:0.116718 558:0.152101 586:0.21616399 646:0.114348 681:0.101186 686:0.15977 726:0.15977 822:0.31953999 855:0.101186 857:0.224259 858:0.145836 865:0.152101 938:0.152101 
-0.3251062762935103 8:0.117931 80:0.44908601 104:0.097666003 106:0.081254996 135:0.22454301 179:0.083660997 202:0.406178 309:0.14303499 379:0.26121899 477:0.37573501 652:0.20932101 691:0.22454301 797:0.26121899 827:0.245997 882:0.282673 927:0.114516 
0.99999993212504223 5:0.197833 48:0.19240201 208:0.23963 293:0.110489 302:0.124968 367:0.23963 495:0.218732 506:0.210786 578:0.210786 651:0.25445801 663:0.228129 702:0.23963 767:0.145175 800:0.210786 810:0.228129 857:0.336355 882:0.27535701 894:0.23963 945:0.25445801 969:0.203904 
0.99999993212504223 10:0.174943 48:0.13227899 79:0.164749 104:0.065408997 106:0.108836 302:0.085917003 314:0.349886 325:0.128902 396:0.14491799 425:0.174943 538:0.15684199 571:0.174943 656:0.14491799 657:0.107717 666:0.140186 686:0.49424699 703:0.164749 797:0.174943 804:0.113476 827:0.164749 848:0.092187002 855:0.104339 858:0.150381 878:0.136013 882:0.37862301 909:0.098420002 949:0.136013 971:0.136013 997:0.102764 
0.99999993212504223 48:0.113554 73:0.141427 131:0.086921997 133:0.089569002 146:0.12909301 220:0.116759 281:0.113554 312:0.162512 330:0.046714999 335:0.141427 370:0.097411998 377:0.141427 390:0.144306 392:0.162512 393:0.12909301 424:0.097411998 458:0.12909301 490:0.227107 513:0.116759 520:0.150178 580:0.116759 588:0.081165001 643:0.150178 651:0.150178 664:0.13463899 686:0.141427 703:0.141427 715:0.120342 769:0.56570798 781:0.141427 800:0.248807 812:0.162512 831:0.141427 857:0.099256001 900:0.086921997 927:0.065837003 928:0.162512 951:0.095673002 964:0.094029002 
-0.52841115335363043 131:0.115765 237:0.200011 260:0.275204 276:0.110993 299:0.15550201 309:0.10952 312:0.216438 315:0.143847 325:0.14737301 382:0.171929 388:0.216438 390:0.192191 401:0.179316 482:0.114111 495:0.171929 506:0.165684 552:0.188356 565:0.216438 573:0.216438 588:0.108098 767:0.114111 769:0.188356 812:0.216438 827:0.37671301 857:0.26438501 932:0.200011 995:0.171929 
-0.21177531755443066 15:0.163176 170:0.119742 220:0.163176 248:0.168183 281:0.31739399 310:0.18816499 349:0.147543 390:0.100838 393:0.18041401 458:0.18041401 468:0.13141 482:0.239485 490:0.31739399 513:0.163176 535:0.168183 686:0.197651 715:0.168183 752:0.18041401 759:0.15094601 767:0.239485 826:0.18816499 829:0.20988099 849:0.168183 855:0.125177 857:0.138716 882:0.227119 927:0.092009999 937:0.15094601 951:0.133708 964:0.13141 
-0.61401043551412227 12:0.19494 38:0.060708001 48:0.068106003 94:0.05291 98:0.09747 104:0.033677001 106:0.056035999 112:0.090071999 115:0.061967 124:0.09747 148:0.19494 156:0.084824003 167:0.072177 187:0.084824003 210:0.084824003 218:0.074614003 231:0.063318998 266:0.057381999 276:0.049984001 301:0.09747 302:0.044236001 321:0.090071999 335:0.084824003 337:0.080752 352:0.084824003 356:0.058425002 396:0.14922699 413:0.068106003 423:0.154852 428:0.084824003 434:0.074614003 444:0.076053001 447:0.09747 459:0.072177 462:0.161505 466:0.068106003 473:0.049321 481:0.055459999 491:0.090071999 504:0.055459999 509:0.090071999 543:0.084824003 559:0.090071999 602:0.090071999 622:0.09747 634:0.090071999 651:0.090071999 656:0.223841 657:0.110919 662:0.080752 663:0.080752 681:0.053721 684:0.084824003 727:0.084824003 743:0.090071999 752:0.077426001 767:0.051387999 769:0.084824003 772:0.059531 792:0.09747 793:0.080752 800:0.223841 804:0.35054901 857:0.119062 882:0.48734999 905:0.080752 926:0.056396 927:0.039487001 932:0.090071999 940:0.080752 948:0.063318998 985:0.061967 990:0.090071999 
-0.20003947090007868 147:0.16760799 160:0.192597 276:0.098766997 286:0.138373 326:0.50282502 336:0.192597 340:0.192597 373:0.16760799 377:0.16760799 451:0.159564 501:0.20308299 642:0.29486701 658:0.16760799 734:0.13457499 769:0.16760799 781:0.16760799 817:0.104548 857:0.23526201 882:0.385194 932:0.17797901 969:0.142619 
-0.27886999288241143 38:0.13979501 46:0.39065099 63:0.121837 67:0.29833999 104:0.15509699 106:0.064517997 125:0.17181499 179:0.066427998 206:0.100742 224:0.207412 227:0.224447 300:0.195326 323:0.145807 440:0.15683 473:0.113572 477:0.14917 514:0.121837 527:0.161256 554:0.105415 588:0.112098 651:0.41482401 653:0.18595099 681:0.123704 686:0.195326 720:0.145807 796:0.17181499 868:0.121837 917:0.166205 948:0.145807 
-0.11608447286089613 61:0.14061999 172:0.13676 179:0.057927001 201:0.18087 302:0.177655 304:0.101754 318:0.119541 330:0.056262001 342:0.144935 358:0.17033 359:0.124433 370:0.11732 398:0.149828 414:0.17033 421:0.15547501 431:0.29965499 440:0.13676 477:0.130081 490:0.13676 502:0.18087 574:0.096510999 580:0.14061999 588:0.097753003 617:0.107874 628:0.113245 651:0.18087 666:0.28987101 673:0.20074201 676:0.17033 686:0.34066001 695:0.14061999 741:0.162155 762:0.082479 774:0.162155 817:0.106245 819:0.115226 857:0.119541 920:0.162155 964:0.113245 999:0.109578 
-0.15190758003472671 17:0.043177001 24:0.45540899 70:0.083154 104:0.075062998 149:0.094532996 179:0.032148998 186:0.089994997 248:0.080439001 298:0.089994997 304:0.056473002 329:0.094532996 330:0.031225 342:0.080439001 363:0.103251 383:0.080439001 423:0.086287998 425:0.100382 429:0.21170101 430:0.089994997 445:0.044872001 446:0.083154 501:0.057270002 514:0.058966 527:0.078043997 569:0.166308 588:0.217011 599:0.054965999 628:0.062850997 658:0.094532996 673:0.055706002 686:0.56719601 709:0.17257699 748:0.17257699 760:0.083154 767:0.057270002 808:0.125701 820:0.094532996 866:0.089994997 915:0.117932 953:0.073964 971:0.078043997 972:0.094532996 982:0.100382 986:0.100382 996:0.200764 999:0.060816001 
-0.14949274663899556 46:0.22482599 63:0.140238 229:0.112283 253:0.14947701 286:0.18561099 312:0.25834599 330:0.074262001 389:0.175907 402:0.180516 419:0.25834599 425:0.238738 440:0.180516 445:0.106719 456:0.16424499 504:0.146997 514:0.140238 522:0.238738 603:0.25834599 673:0.132484 687:0.142388 699:0.19776399 709:0.205219 732:0.19776399 785:0.19130699 832:0.171699 848:0.12580401 857:0.15778799 866:0.214035 915:0.140238 973:0.18561099 
-0.21364565379782258 44:0.095833004 102:0.083398998 198:0.158792 230:0.076125003 235:0.060926002 252:0.083398998 276:0.049144998 286:0.068852 287:0.088559002 293:0.038454 302:0.13047799 306:0.073360004 307:0.088559002 320:0.073360004 377:0.25019601 378:0.083398998 380:0.055447999 386:0.095833004 389:0.065251999 402:0.066962004 413:0.13392401 426:0.166798 430:0.079396002 444:0.074776001 556:0.095833004 561:0.177119 568:0.40177199 570:0.076125003 599:0.096984997 606:0.083398998 617:0.052818 638:0.079396002 644:0.055447999 645:0.095833004 646:0.119377 650:0.076125003 664:0.079396002 672:0.099642999 680:0.083398998 686:0.41699401 690:0.068852 692:0.066962004 698:0.083398998 703:0.083398998 705:0.088559002 734:0.066962004 762:0.040383998 765:0.088559002 766:0.19166601 767:0.050524998 769:0.166798 772:0.058531001 773:0.177119 774:0.079396002 775:0.088559002 802:0.088559002 836:0.056418002 844:0.088559002 845:0.079396002 846:0.076125003 857:0.175593 875:0.059689 882:0.095833004 885:0.070964999 895:0.095833004 915:0.052021001 916:0.060926002 920:0.079396002 927:0.038823999 931:0.079396002 951:0.056418002 975:0.076125003 
0.81194470169667876 35:0.107882 38:0.072711997 48:0.489434 70:0.089365996 104:0.040336002 106:0.067116 109:0.116742 148:0.116742 177:0.101595 194:0.096718997 229:0.101478 248:0.086448997 257:0.107882 286:0.083875 290:0.096718997 297:0.089365996 307:0.107882 312:0.116742 314:0.107882 349:0.075838998 357:0.101595 366:0.071301997 377:0.101595 396:0.089365996 397:0.086448997 413:0.081572004 426:0.203191 444:0.045545001 447:0.116742 503:0.096718997 544:0.107882 552:0.203191 558:0.096718997 574:0.057565 577:0.107882 581:0.086448997 586:0.068728 594:0.083875 631:0.096718997 656:0.26809901 666:0.086448997 671:0.101595 684:0.101595 686:0.101595 687:0.128685 703:0.203191 713:0.069977 730:0.101595 731:0.101595 745:0.089365996 769:0.101595 792:0.116742 800:0.089365996 804:0.139954 819:0.068728 827:0.101595 833:0.107882 848:0.056848999 855:0.064342998 870:0.092735 874:0.101595 878:0.083875 897:0.077587999 909:0.060692001 916:0.074220002 942:0.101595 945:0.107882 971:0.083875 975:0.092735 
-0.20563767316330933 31:0.23646 110:0.30889601 120:0.154448 178:0.142726 179:0.182843 408:0.28545099 414:0.134409 424:0.092578001 454:0.142726 527:0.110965 552:0.134409 610:0.221929 664:0.127958 684:0.53763503 687:0.170248 767:0.081428997 777:0.175759 857:0.18866199 915:0.083838999 916:0.29457399 960:0.221929 973:0.110965 
-0.18440253068072684 31:0.077785999 63:0.055158999 179:0.030074 194:0.084186003 202:0.073005997 208:0.70743799 260:0.12920301 262:0.056889001 293:0.040773001 397:0.150492 423:0.080718003 451:0.33674201 485:0.077785999 554:0.047724999 581:0.075245999 587:0.187803 588:0.050749999 614:0.075245999 664:0.16837101 687:0.056005001 781:0.353719 847:0.093901999 857:0.124124 897:0.135067 915:0.055158999 928:0.203228 945:0.093901999 999:0.056889001 
-0.31669229447752045 15:0.196987 63:0.14883301 94:0.14883301 106:0.078814 206:0.123065 255:0.174311 256:0.27417901 274:0.217796 343:0.217796 383:0.203032 396:0.209885 420:0.17077 423:0.217796 444:0.106967 499:0.203032 558:0.227153 586:0.322826 599:0.13873699 627:0.217796 678:0.18222199 855:0.151114 870:0.217796 910:0.25336999 938:0.227153 949:0.196987 
-0.048887699319961855 31:0.239456 59:0.46921399 110:0.156405 159:0.136112 167:0.115819 179:0.092579998 210:0.136112 220:0.112371 224:0.14453401 231:0.101605 291:0.115819 299:0.112371 335:0.136112 349:0.101605 363:0.074331999 425:0.14453401 435:0.136112 441:0.119728 510:0.156405 531:0.14453401 569:0.119728 572:0.112371 587:0.14453401 664:0.25915799 672:0.081312001 681:0.086203001 687:0.172405 718:0.156405 759:0.103948 777:0.177986 788:0.12957899 812:0.156405 857:0.095526002 867:0.156405 879:0.156405 882:0.156405 892:0.14453401 900:0.083655 917:0.115819 948:0.101605 951:0.092078 960:0.112371 967:0.115819 
-0.203962805793476 30:0.249052 190:0.17893399 229:0.108244 236:0.197836 259:0.17893399 281:0.174022 313:0.19065 363:0.236726 381:0.249052 466:0.174022 491:0.23015 551:0.249052 590:0.14662001 592:0.197836 656:0.19065 686:0.216738 730:0.216738 745:0.3813 767:0.13130599 804:0.149285 909:0.12947799 951:0.14662001 973:0.17893399 984:0.216738 
-0.12361871675302347 48:0.12577 104:0.124381 115:0.114434 125:0.137787 170:0.094898 283:0.166335 293:0.072224997 302:0.081689 313:0.137787 380:0.104145 381:0.359992 440:0.12577 462:0.149124 491:0.166335 497:0.105966 508:0.156642 509:0.166335 551:0.179996 599:0.18216 686:0.156642 741:0.149124 745:0.137787 767:0.094898 804:0.215784 848:0.087650999 855:0.099205002 857:0.219869 869:0.179996 875:0.112109 882:0.53998798 999:0.100773 
-0.27931052883129731 132:0.154149 141:0.16680899 170:0.087945998 221:0.14516599 253:0.096515 292:0.154149 294:0.154149 300:0.14516599 328:0.119846 330:0.04795 349:0.108364 351:0.58066398 374:0.154149 387:0.221726 414:0.29033199 481:0.094912998 485:0.127693 494:0.132506 514:0.090549 686:0.29033199 749:0.154149 789:0.14516599 840:0.138199 882:0.16680899 917:0.123523 929:0.10605 949:0.119846 965:0.16680899 973:0.119846 999:0.093390003 
-0.16460093346819199 8:0.096773997 17:0.092198998 104:0.080145001 158:0.201865 185:0.21435601 217:0.21435601 234:0.18426 260:0.147471 280:0.17756701 369:0.18426 418:0.141673 517:0.13655899 554:0.108945 617:0.127846 686:0.40373099 688:0.107686 729:0.231961 753:0.201865 769:0.201865 799:0.40373099 834:0.201865 850:0.154164 857:0.283346 887:0.120593 948:0.15068901 
-0.090120653221717834 17:0.072098002 90:0.54416502 132:0.167622 179:0.107369 227:0.18138801 235:0.115319 286:0.26064101 303:0.15785401 335:0.15785401 440:0.126743 484:0.167622 485:0.138853 495:0.432262 509:0.167622 628:0.10495 658:0.15785401 700:0.167622 736:0.15785401 762:0.076438002 857:0.22157 882:0.18138801 904:0.108727 945:0.167622 
-0.19942225636938038 94:0.134124 275:0.31416801 325:0.168238 330:0.071024001 366:0.15090799 404:0.247082 444:0.096395999 445:0.102066 494:0.196271 513:0.17751899 599:0.125026 623:0.204704 624:0.27666199 651:0.228329 652:0.18296599 665:0.160511 672:0.128453 703:0.21502399 705:0.228329 743:0.228329 805:0.112136 900:0.39646599 909:0.128453 920:0.204704 923:0.189142 
-0.17975868326894451 179:0.093369 229:0.137113 267:0.250599 293:0.126587 330:0.090683997 370:0.1891 375:0.291531 418:0.19268 445:0.130318 517:0.18572401 525:0.27454299 580:0.226656 659:0.233611 664:0.26136601 676:0.27454299 677:0.250599 679:0.1891 697:0.241497 762:0.132943 769:0.27454299 772:0.19268 857:0.19268 909:0.16401 
-0.26760730290299245 22:0.099436 179:0.045302 238:0.121589 260:0.29193699 262:0.085694999 266:0.090112001 299:0.109971 307:0.282897 328:0.109971 330:0.087998003 370:0.091748998 384:0.14144801 402:0.106953 405:0.153065 413:0.21390501 423:0.121589 430:0.126812 495:0.121589 496:0.113346 576:0.121589 581:0.113346 651:0.14144801 657:0.087093003 663:0.126812 686:0.13320599 713:0.091748998 717:0.093486004 762:0.129005 769:0.13320599 791:0.153065 800:0.23434401 857:0.093486004 894:0.13320599 926:0.088563003 927:0.062010001 969:0.56673098 995:0.121589 
-0.22092830588519782 5:0.14724401 70:0.156884 102:0.178352 104:0.14162 115:0.130294 140:0.18938901 179:0.060656 229:0.089073002 235:0.130294 253:0.118579 254:0.18938901 258:0.15176199 293:0.082235001 309:0.103703 338:0.14724401 342:0.30352399 371:0.169792 380:0.118579 399:0.169792 424:0.122846 429:0.26627401 471:0.18938901 527:0.14724401 569:0.156884 588:0.204714 607:0.169792 657:0.116611 658:0.178352 681:0.112955 709:0.162798 767:0.108051 808:0.237158 855:0.22590999 857:0.12517101 868:0.11125 875:0.127647 971:0.14724401 996:0.18938901 
-0.14113327982331408 79:0.243118 93:0.200712 166:0.190218 196:0.213854 222:0.25816101 233:0.25816101 265:0.206871 285:0.22191501 293:0.112097 302:0.12678599 428:0.243118 429:0.181483 447:0.27936399 468:0.16163801 473:0.141361 525:0.243118 557:0.22191501 595:0.27936399 717:0.170625 734:0.19520199 857:0.170625 915:0.151648 917:0.206871 
-0.10542224631674084 17:0.089654997 22:0.14653 45:0.186873 179:0.066757001 248:0.334057 249:0.37374499 302:0.102368 354:0.179175 357:0.19629399 445:0.093175001 485:0.172666 527:0.162056 548:0.186873 629:0.19629399 646:0.140488 659:0.16702899 664:0.186873 719:0.186873 765:0.20844001 808:0.13050701 817:0.122441 857:0.13776299 904:0.135203 910:0.20844001 915:0.122441 975:0.35835001 988:0.20844001 
-0.073802400468467089 10:0.199607 34:0.085790999 47:0.075464003 50:0.367686 58:0.099803001 70:0.082673997 91:0.079975002 94:0.058626 106:0.031044999 108:0.064737 166:0.147074 179:0.031964 197:0.201801 218:0.082673997 230:0.085790999 249:0.089477003 257:0.099803001 266:0.063580997 290:0.089477003 304:0.056147002 315:0.071777999 323:0.070160002 353:0.089477003 370:0.064737 374:0.099803001 385:0.093988001 396:0.082673997 420:0.067267001 423:0.171581 429:0.070160002 439:0.099803001 448:0.093988001 457:0.099803001 471:0.099803001 518:0.099803001 526:0.29940999 583:0.089477003 631:0.089477003 657:0.061450999 662:0.089477003 679:0.064737 686:0.187975 687:0.059525002 696:0.171581 713:0.064737 717:0.197887 739:0.077593997 742:0.093988001 758:0.39921299 769:0.093988001 773:0.099803001 810:0.089477003 827:0.187975 837:0.085790999 882:0.108 883:0.093988001 887:0.056147002 908:0.082673997 926:0.062488001 927:0.087506004 962:0.093988001 973:0.077593997 
-0.17782304072171751 8:0.035491001 10:0.078613997 70:0.065122001 151:0.074033 178:0.078613997 185:0.078613997 199:0.074033 201:0.078613997 226:0.31445599 230:0.067575999 240:0.078613997 248:0.125991 253:0.049221002 264:0.065122001 272:0.113078 290:0.070479997 302:0.038608 323:0.055264 330:0.073362 348:0.085070997 352:0.074033 357:0.074033 363:0.040429998 385:0.074033 395:0.065122001 402:0.059441999 420:0.31791401 428:0.074033 429:0.055264 435:0.074033 454:0.078613997 456:0.054083999 461:0.074033 510:0.085070997 517:0.050082002 527:0.06112 535:0.125991 552:0.074033 553:0.296132 572:0.06112 579:0.067575999 581:0.062995002 588:0.042488001 590:0.050082002 594:0.12224 596:0.070479997 617:0.046886999 636:0.085070997 641:0.054083999 672:0.044227 677:0.067575999 687:0.140661 690:0.06112 699:0.065122001 703:0.074033 717:0.155874 718:0.085070997 726:0.074033 748:0.067575999 765:0.15722799 775:0.235842 812:0.085070997 827:0.074033 848:0.041425999 857:0.103916 874:0.074033 916:0.108168 920:0.14095999 945:0.15722799 951:0.050082002 955:0.085070997 960:0.42783901 985:0.054083999 999:0.142883 
-0.049751376989357762 65:0.152215 73:0.152215 100:0.174909 144:0.113626 179:0.051766999 196:0.133893 226:0.323268 229:0.076020002 235:0.1112 253:0.101201 320:0.133893 355:0.116246 364:0.133893 367:0.60886103 467:0.14490899 552:0.152215 554:0.246447 574:0.086246997 664:0.14490899 672:0.27279601 686:0.152215 687:0.096400999 717:0.106828 762:0.073707998 805:0.079380997 819:0.102971 848:0.085173003 857:0.106828 868:0.094945997 927:0.070859 951:0.102971 975:0.13894001 
-0.13608252921109762 136:0.195362 168:0.205211 179:0.069789998 194:0.195362 328:0.16941699 330:0.067782998 444:0.091995999 445:0.097407997 538:0.195362 599:0.23864099 651:0.21790899 677:0.187314 682:0.235806 686:0.205211 731:0.205211 784:0.410422 832:0.313438 882:0.235806 901:0.195362 915:0.384009 
-0.11961652269722665 49:0.150227 95:0.141473 229:0.070655003 239:0.141473 245:0.28294599 293:0.065231003 302:0.073779002 335:0.141473 342:0.120381 369:0.25827 410:0.16256499 435:0.141473 510:0.16256499 534:0.150227 572:0.116797 588:0.162384 605:0.150227 617:0.089598 653:0.134683 675:0.141473 686:0.28294599 687:0.089598 697:0.248888 715:0.120381 774:0.134683 776:0.16256499 784:0.42441899 806:0.129135 857:0.099289 867:0.16256499 929:0.103352 944:0.150227 945:0.150227 975:0.129135 996:0.150227 
-0.050751246543156749 100:0.17949601 186:0.14871 230:0.142584 237:0.16587301 270:0.156207 276:0.092049003 293:0.144049 305:0.142584 309:0.090827003 373:0.156207 385:0.31241399 393:0.28516799 445:0.074147001 446:0.13740499 451:0.14871 473:0.090827003 500:0.16587301 535:0.132918 542:0.119295 572:0.25792199 643:0.16587301 664:0.14871 686:0.31241399 695:0.128961 703:0.156207 705:0.16587301 769:0.156207 785:0.132918 808:0.103855 836:0.105672 850:0.119295 857:0.109629 862:0.142584 875:0.111798 880:0.14871 900:0.096005999 907:0.156207 915:0.097436003 945:0.16587301 
-0.12762199744305749 49:0.106057 80:0.091165997 202:0.164911 281:0.080192 294:0.106057 302:0.052085999 304:0.059664998 309:0.116147 349:0.074556001 399:0.095082998 405:0.229534 482:0.060508002 505:0.099877 579:0.091165997 607:0.28524801 614:0.254958 625:0.273498 663:0.095082998 666:0.084986001 676:0.099877 686:0.29962999 702:0.099877 713:0.137586 767:0.060508002 784:0.099877 874:0.099877 912:0.082456 915:0.062298998 927:0.046494 945:0.63634002 947:0.087854996 948:0.074556001 1000:0.076274998 
-0.10495853129168439 17:0.062344 65:0.136499 106:0.045086998 124:0.15685 147:0.136499 228:0.24013799 235:0.099717997 253:0.18150499 293:0.062936999 296:0.120069 300:0.136499 320:0.24013799 328:0.11269 356:0.18803599 358:0.136499 393:0.24919 402:0.109597 468:0.090751998 481:0.089245997 501:0.082695 548:0.12994801 549:0.099717997 574:0.077342004 596:0.12994801 620:0.136499 624:0.087814003 627:0.124595 665:0.101894 686:0.40949699 703:0.136499 716:0.124595 739:0.225381 745:0.120069 785:0.116149 805:0.355923 848:0.076379001 855:0.086447999 857:0.095798001 882:0.15685 963:0.12994801 
-0.10468992491423171 80:0.17920201 206:0.101257 251:0.19632401 293:0.090521999 318:0.137784 330:0.064847998 389:0.30721301 418:0.27556899 549:0.430269 580:0.162081 679:0.270448 689:0.51807898 692:0.15763099 742:0.19632401 857:0.137784 876:0.208472 909:0.117282 934:0.15763099 
-0.041265314136756326 8:0.079821996 63:0.103859 104:0.066105001 108:0.114684 144:0.124292 162:0.14646199 173:0.176806 206:0.085877001 235:0.121638 280:0.14646199 305:0.15198199 372:0.303965 389:0.52109802 496:0.141679 549:0.36491299 575:0.158512 584:0.116855 593:0.15198199 648:0.166503 664:0.158512 686:0.166503 687:0.105451 689:0.14646199 690:0.13746101 761:0.176806 857:0.116855 858:0.15198199 885:0.141679 996:0.176806 
-0.15767357701935689 57:0.159914 106:0.065787002 179:0.067734003 286:0.32885501 446:0.175194 501:0.120661 526:0.42298299 574:0.11285 584:0.13978 629:0.199167 655:0.36359501 664:0.18960799 705:0.211491 735:0.228861 760:0.175194 762:0.096442997 856:0.13978 905:0.18960799 913:0.199167 935:0.228861 947:0.175194 966:0.211491 980:0.181797 
-0.23976840029935156 21:0.185462 22:0.078694001 103:0.092730999 104:0.041854002 106:0.034821 187:0.10542 190:0.087033004 206:0.054372001 222:0.111944 235:0.077013999 237:0.111944 253:0.070088997 262:0.067819998 293:0.097214997 295:0.100361 301:0.121138 302:0.109954 312:0.121138 314:0.111944 330:0.069642998 338:0.087033004 359:0.077013999 363:0.057571001 366:0.073986001 402:0.084643997 420:0.075450003 423:0.096226998 444:0.047260001 456:0.077013999 465:0.192453 477:0.080509 497:0.071314998 498:0.087033004 508:0.10542 519:0.111944 522:0.111944 551:0.48455 570:0.096226998 571:0.111944 572:0.087033004 588:0.060501002 624:0.067819998 664:0.200721 666:0.179407 673:0.062121999 681:0.066765003 684:0.10542 686:0.31626099 703:0.10542 717:0.073986001 732:0.092730999 751:0.121138 785:0.089703001 800:0.185462 804:0.14522301 827:0.10542 857:0.22195899 909:0.062977001 917:0.089703001 927:0.09815 951:0.071314998 973:0.087033004 
-0.14142369482344866 8:0.107028 17:0.101968 104:0.088636003 106:0.073743001 254:0.237068 260:0.163096 272:0.170498 280:0.196381 323:0.166655 330:0.073743001 394:0.237068 440:0.179253 522:0.237068 526:0.237068 554:0.120488 578:0.196381 625:0.20378301 694:0.20378301 761:0.237068 800:0.196381 814:0.237068 817:0.139257 819:0.15102801 866:0.212538 873:0.237068 882:0.25653899 932:0.237068 948:0.166655 
-0.17354943469954776 63:0.080610998 161:0.123031 179:0.043951001 229:0.064542003 238:0.117963 293:0.059588 298:0.24606299 330:0.042686999 352:0.129234 377:0.387703 378:0.258468 380:0.085922003 430:0.123031 455:0.117963 458:0.471854 475:0.101115 477:0.098696001 528:0.123031 554:0.139493 578:0.113678 590:0.087425001 599:0.075143002 617:0.081846997 649:0.123031 701:0.13723101 762:0.062579997 769:0.258468 802:0.27446201 850:0.098696001 857:0.090699002 882:0.297003 912:0.106693 927:0.120322 
-0.13298072066813491 116:0.293506 146:0.25229701 276:0.16287699 283:0.293506 293:0.127445 294:0.293506 304:0.165121 328:0.228191 494:0.25229701 527:0.228191 686:0.27640301 762:0.133843 810:0.263136 884:0.25229701 924:0.183768 927:0.12867001 988:0.293506 989:0.27640301 
-0.11563536452990138 10:0.33490801 31:0.27742901 38:0.22572701 131:0.19384199 330:0.104177 577:0.33490801 686:0.31539199 687:0.199745 904:0.43447101 912:0.52076 
-0.14505117694685155 5:0.191122 100:0.26601601 168:0.231501 248:0.39397401 293:0.106741 299:0.191122 320:0.20363601 390:0.236215 397:0.196987 412:0.22039001 425:0.24582601 442:0.211312 490:0.185876 493:0.24582601 603:0.26601601 673:0.136418 686:0.231501 767:0.14025 850:0.176797 915:0.144402 949:0.191122 
-0.049698720350871625 68:0.38782799 131:0.119181 143:0.184607 188:0.170573 196:0.170573 228:0.170573 275:0.141662 276:0.114268 293:0.08941 306:0.34114599 309:0.112752 329:0.193914 330:0.064052001 429:0.14475299 463:0.20591301 468:0.128925 550:0.193914 572:0.160091 574:0.109874 599:0.112752 628:0.128925 631:0.184607 667:0.20591301 672:0.115843 673:0.114268 686:0.193914 743:0.20591301 808:0.128925 853:0.177002 855:0.12281 923:0.170573 945:0.20591301 
-0.14684398581678101 60:0.21316101 93:0.184852 106:0.147917 134:0.21316101 291:0.190525 309:0.130191 330:0.073959 375:0.237762 420:0.16025101 429:0.167143 466:0.17977799 474:0.20438001 615:0.237762 617:0.283611 673:0.131943 707:0.19695599 734:0.17977799 824:0.44781399 827:0.22390699 838:0.25729001 848:0.12528899 909:0.13376001 973:0.184852 
-0.066545985666474489 8:0.076748997 56:0.16009501 94:0.099861003 108:0.11027 118:0.119508 133:0.101392 155:0.116956 193:0.119508 242:0.170001 300:0.16009501 302:0.083489999 317:0.16009501 346:0.14082401 366:0.112358 402:0.12854201 424:0.11027 445:0.075993001 449:0.22916 470:0.170001 501:0.29096901 574:0.27213499 587:0.170001 623:0.152411 654:0.16009501 703:0.16009501 713:0.11027 732:0.14082401 777:0.20934699 780:0.152411 808:0.21288 836:0.108302 853:0.14613301 857:0.112358 882:0.183963 891:0.320189 962:0.16009501 969:0.136226 972:0.16009501 
-0.13718658122997895 46:0.32171199 51:0.34161901 79:0.32171199 104:0.127727 106:0.106265 169:0.25171199 506:0.28298801 687:0.203748 699:0.28298801 767:0.194902 882:0.36967599 933:0.27374801 958:0.30627099 997:0.200672 
-0.092416877458727328 57:0.29411101 62:0.32221299 67:0.279746 107:0.34872299 210:0.36630401 390:0.18688101 539:0.28660101 715:0.311692 767:0.221917 878:0.302412 930:0.24779999 964:0.24354 
-0.13738283129726361 106:0.071967997 209:0.185396 227:0.25036299 248:0.185396 302:0.113625 309:0.12668601 334:0.162643 343:0.19887801 375:0.231361 517:0.147392 629:0.21788 686:0.43575901 713:0.150071 717:0.15291201 732:0.191654 734:0.17493799 739:0.179876 744:0.25036299 777:0.142455 808:0.144859 824:0.21788 848:0.121916 850:0.166394 853:0.19887801 857:0.15291201 927:0.101427 931:0.207422 
-0.15101632057725178 107:0.193939 229:0.101741 250:0.18595 309:0.118451 315:0.155578 390:0.103932 435:0.407433 438:0.234089 459:0.173344 498:0.168183 521:0.216322 671:0.407433 686:0.407433 705:0.216322 717:0.14297201 887:0.121698 947:0.35839099 
-0.081550216750298596 179:0.108412 188:0.140203 224:0.16925099 229:0.079602003 248:0.135625 258:0.135625 280:0.140203 302:0.166243 303:0.31877601 359:0.11644 431:0.140203 483:0.135625 495:0.14548799 499:0.135625 541:0.33850199 588:0.091472998 628:0.10597 666:0.135625 686:0.478165 687:0.100944 724:0.14548799 733:0.135625 762:0.077180997 767:0.28968501 826:0.30347601 827:0.15938801 885:0.135625 
-0.11666119507524426 18:0.081416003 47:0.065370001 106:0.053785 115:0.059478 183:0.074316002 198:0.077509001 218:0.071616001 231:0.060775999 235:0.059478 241:0.074316002 243:0.18710899 253:0.16238999 257:0.086453997 266:0.055077001 275:0.059478 302:0.084918 309:0.047339998 312:0.18710899 323:0.060775999 328:0.134431 337:0.077509001 369:0.074316002 398:0.143233 420:0.05827 422:0.093555003 443:0.086453997 444:0.21899401 464:0.17290799 477:0.124355 501:0.098647997 518:0.086453997 519:0.086453997 523:0.077509001 542:0.062176999 561:0.086453997 574:0.046131 581:0.069278002 590:0.055077001 644:0.054129999 657:0.106464 675:0.081416003 681:0.051562998 686:0.16283301 690:0.067215003 699:0.071616001 705:0.086453997 706:0.059478 709:0.074316002 733:0.069278002 739:0.067215003 769:0.081416003 772:0.05714 774:0.077509001 785:0.069278002 790:0.071616001 800:0.143233 823:0.086453997 857:0.05714 867:0.093555003 871:0.57293099 872:0.081416003 875:0.05827 882:0.18710899 905:0.077509001 915:0.050783999 926:0.10826 932:0.17290799 934:0.065370001 941:0.093555003 949:0.067215003 951:0.055077001 959:0.086453997 964:0.054129999 987:0.093555003 
-0.1027866786258855 22:0.038364999 32:0.35976401 70:0.045209002 80:0.046913002 92:0.054575 94:0.032058001 103:0.045209002 104:0.020405 117:0.041266002 133:0.03255 147:0.10279 183:0.140738 208:0.10279 220:0.12729099 222:0.10915 244:0.29356799 262:0.132255 276:0.090856999 288:0.051394999 290:0.048928 304:0.061406001 310:0.14678399 330:0.033952001 342:0.043731999 343:0.046913002 345:0.054575 353:0.048928 360:0.10279 363:0.028067 385:0.154185 393:0.046913002 397:0.087465003 402:0.041266002 420:0.036782999 428:0.10279 429:0.038364999 431:0.090416998 445:0.048790999 451:0.097856 458:0.093824998 482:0.062272999 490:0.49518701 496:0.043731999 513:0.084861003 514:0.032058001 525:0.10279 528:0.097856 541:0.054575 554:0.027736999 590:0.069536 594:0.042429999 628:0.034170002 643:0.054575 659:0.043731999 664:0.048928 666:0.349859 676:0.10279 677:0.046913002 686:0.10279 690:0.042429999 695:0.12729099 711:0.054575 732:0.045209002 762:0.024886999 767:0.062272999 769:0.051394999 774:0.048928 781:0.10279 815:0.046913002 857:0.03607 882:0.118115 897:0.078500003 927:0.023925001 934:0.041266002 945:0.054575 949:0.042429999 964:0.13668101 973:0.084861003 997:0.032058001 
-0.051724434677475756 9:0.159016 19:0.172076 70:0.131724 104:0.059454001 105:0.159016 179:0.050928 214:0.39517301 229:0.074787997 243:0.172076 245:0.149749 290:0.142562 322:0.149749 330:0.049463999 335:0.149749 341:0.142562 370:0.103144 387:0.114363 466:0.120236 477:0.114363 512:0.127423 513:0.123629 517:0.405213 530:0.117166 532:0.159016 546:0.149749 570:0.13668901 596:0.142562 631:0.142562 653:0.142562 673:0.088243 785:0.25484699 809:0.172076 857:0.105097 909:0.178918 973:0.24725901 
-0.13922892926006186 17:0.080774002 24:0.141996 63:0.110313 111:0.176851 144:0.132016 162:0.155563 188:0.155563 206:0.091214001 235:0.129197 276:0.104213 302:0.092228003 305:0.16142701 306:0.155563 309:0.10283 377:0.176851 389:0.276741 396:0.155563 444:0.079282001 445:0.251838 477:0.13506 481:0.115629 499:0.150484 514:0.33093801 549:0.25839299 553:0.176851 569:0.155563 586:0.119637 588:0.101495 646:0.126572 648:0.176851 664:0.16836201 679:0.121811 686:0.176851 709:0.16142701 808:0.11758 870:0.16142701 882:0.203217 948:0.132016 
-0.089309699246104296 5:0.13293 17:0.073541 40:0.153286 179:0.054758999 194:0.153286 224:0.17097799 227:0.18502 259:0.13293 302:0.083968997 329:0.32202899 342:0.13700899 351:0.16101401 370:0.221807 385:0.16101401 408:0.34195501 420:0.115238 429:0.240389 440:0.129281 441:0.141633 466:0.129281 514:0.100435 574:0.091233 631:0.153286 648:0.16101401 673:0.18976299 697:0.141633 703:0.16101401 736:0.16101401 739:0.13293 762:0.077969 817:0.100435 827:0.16101401 857:0.33900899 927:0.074955001 949:0.13293 
-0.063009532946495708 15:0.101121 17:0.055943999 63:0.152803 84:0.130064 104:0.048629001 105:0.130064 169:0.095834002 221:0.122485 230:0.111803 299:0.101121 302:0.063876003 330:0.121374 389:0.57500499 396:0.107742 402:0.098344997 423:0.22360601 425:0.130064 430:0.116606 481:0.080084004 499:0.104224 523:0.116606 549:0.44740301 554:0.066104002 575:0.116606 588:0.070294999 646:0.087663002 671:0.122485 673:0.072177 695:0.101121 726:0.24496999 748:0.111803 754:0.130064 767:0.074205004 817:0.076402001 857:0.085963003 870:0.111803 885:0.104224 909:0.073172003 
-0.052168408155512297 5:0.200716 104:0.19305 106:0.080306001 107:0.231454 209:0.206875 294:0.258167 380:0.161642 397:0.206875 475:0.190222 501:0.14729001 506:0.21385799 552:0.24312299 574:0.137756 677:0.221919 686:0.48624501 739:0.200716 805:0.126789 829:0.258167 848:0.136041 855:0.153975 857:0.170628 900:0.149425 
-0.073447128546500942 5:0.264514 8:0.051199999 24:0.085750997 31:0.093943998 68:0.1068 118:0.159448 129:0.093943998 179:0.036320999 206:0.055084001 229:0.053337999 235:0.078022003 258:0.090876997 272:0.081563003 280:0.18788899 298:0.101674 302:0.055695999 328:0.088170998 330:0.070554003 336:0.122723 338:0.088170998 339:0.101674 346:0.093943998 348:0.122723 402:0.085750997 420:0.15287399 425:0.113408 429:0.159448 445:0.050694998 453:0.097485997 477:0.081563003 485:0.093943998 509:0.113408 514:0.066618003 520:0.226817 527:0.088170998 554:0.115278 569:0.093943998 575:0.101674 617:0.067639001 628:0.071006998 641:0.078022003 673:0.062933996 679:0.073562004 684:0.1068 686:0.21359999 687:0.067639001 694:0.097485997 709:0.097485997 761:0.34022501 762:0.103432 765:0.113408 767:0.064701997 777:0.069828004 797:0.113408 808:0.142013 819:0.072249003 826:0.101674 848:0.059760999 857:0.14990801 858:0.097485997 882:0.245445 885:0.090876997 887:0.063800998 899:0.113408 921:0.226817 926:0.071006998 927:0.099434003 948:0.079723999 954:0.088170998 997:0.066618003 999:0.068706997 
-0.067318749975303904 126:0.26167801 209:0.20969 364:0.216767 446:0.216767 447:0.28317001 540:0.28317001 677:0.22493801 686:0.24642999 703:0.24642999 752:0.22493801 859:0.43353501 862:0.22493801 878:0.203447 880:0.234602 900:0.151458 927:0.229435 
-0.080958932461257335 1:0.131273 84:0.173613 105:0.173613 131:0.100486 249:0.46694699 258:0.139121 286:0.13497899 309:0.095064998 322:0.163496 363:0.089286998 380:0.108702 389:0.25584301 420:0.117015 435:0.163496 475:0.127922 477:0.124862 499:0.139121 509:0.173613 513:0.13497899 673:0.192688 686:0.32699299 687:0.103546 695:0.13497899 736:0.163496 767:0.198101 796:0.14381699 808:0.108702 841:0.18787199 973:0.13497899 986:0.173613 996:0.173613 997:0.101983 
-0.055671972160615882 37:0.45511499 53:0.210287 104:0.078622997 120:0.227557 196:0.174196 230:0.18076199 247:0.159003 271:0.227557 309:0.115146 383:0.16850799 429:0.147828 449:0.14173201 456:0.14467099 466:0.159003 486:0.174196 497:0.133966 514:0.123525 586:0.133966 592:0.18076199 599:0.115146 617:0.12541901 657:0.12947901 686:0.198033 703:0.198033 777:0.12947901 820:0.198033 836:0.133966 848:0.110811 857:0.138983 909:0.118303 916:0.14467099 973:0.163491 997:0.123525 
-0.061147694215895582 7:0.16005599 27:0.201491 49:0.186198 104:0.13923401 193:0.13089401 202:0.14476299 302:0.091444999 304:0.104752 335:0.175348 371:0.166932 393:0.16005599 410:0.201491 423:0.16005599 468:0.116581 496:0.149206 545:0.201491 586:0.118621 588:0.100633 646:0.125497 671:0.175348 767:0.106231 784:0.175348 832:0.133913 852:0.201491 901:0.50079602 910:0.186198 944:0.37239701 
-0.075237172687803874 17:0.093305998 155:0.149241 193:0.15249801 206:0.105365 245:0.204289 276:0.120382 323:0.15249801 349:0.15249801 366:0.143374 444:0.091582999 473:0.118784 480:0.179699 514:0.127428 571:0.21693 594:0.16865601 599:0.356352 656:0.179699 681:0.129381 727:0.408577 730:0.204289 804:0.14071 853:0.186472 857:0.43012199 915:0.127428 937:0.15601499 
-0.085515552634938638 47:0.155634 149:0.193837 226:0.20583101 276:0.114223 293:0.089374997 309:0.112707 349:0.144696 363:0.105857 387:0.14803299 393:0.53079599 495:0.17693201 517:0.131128 541:0.20583101 546:0.193837 592:0.17693201 641:0.141606 672:0.115797 695:0.160027 754:0.20583101 764:0.170505 827:0.193837 855:0.122762 857:0.136039 923:0.34101 973:0.160027 991:0.15166099 
-0.024775066859398349 155:0.113416 208:0.155249 245:0.155249 250:0.141709 276:0.091484003 293:0.071583003 302:0.080963001 307:0.32971099 318:0.108957 330:0.051279999 352:0.155249 424:0.106932 466:0.37395501 471:0.164855 482:0.188108 554:0.41893199 578:0.27312401 590:0.105024 617:0.098323002 646:0.222224 649:0.147798 664:0.147798 679:0.106932 697:0.136562 703:0.155249 726:0.155249 748:0.141709 773:0.164855 783:0.121469 827:0.155249 915:0.096837997 
-0.07009540907248904 1:0.055397999 17:0.031513002 23:0.068995997 68:0.068995997 108:0.047522999 129:0.060690999 179:0.023465 197:0.049380001 200:0.117418 224:0.073265001 229:0.17229 235:0.100808 238:0.125957 247:0.055397999 249:0.197052 276:0.040656999 297:0.121382 304:0.041216999 305:0.125957 328:0.170884 330:0.04558 336:0.237847 342:0.058708999 346:0.060690999 356:0.047522999 370:0.047522999 371:0.131368 387:0.052692 451:0.065683998 477:0.052692 488:0.137991 537:0.073265001 554:0.335127 574:0.039094001 587:0.219795 631:0.065683998 664:0.328421 686:0.27598301 719:0.065683998 762:0.10023 767:0.041799001 769:0.137991 790:0.182072 794:0.158565 797:0.14653 798:0.065683998 831:0.068995997 850:0.052692 857:0.290535 882:0.158565 917:0.058708999 934:0.16619299 947:0.182072 954:0.056961 996:0.14653 
-0.045923075697471123 5:0.212679 38:0.184374 104:0.102278 135:0.235145 179:0.087610997 236:0.235145 247:0.20683999 372:0.235145 390:0.131429 410:0.29602 440:0.413681 538:0.245248 583:0.245248 686:0.25761199 762:0.124744 827:0.25761199 927:0.119923 931:0.245248 944:0.27355301 
-0.067489234219485827 73:0.109718 104:0.043559998 147:0.109718 170:0.066469997 172:0.17618699 185:0.116507 193:0.081901997 228:0.096510999 229:0.054795001 234:0.100149 238:0.100149 248:0.093359999 264:0.096510999 302:0.114436 309:0.063795 312:0.126075 330:0.072481997 351:0.109718 355:0.083791003 358:0.109718 363:0.059918001 369:0.100149 380:0.072945997 411:0.208903 448:0.109718 450:0.104451 453:0.100149 469:0.233013 482:0.13293999 490:0.352375 496:0.093359999 513:0.18116 514:0.068438001 516:0.104451 539:0.085844003 554:0.059213001 583:0.104451 588:0.062967002 601:0.126075 607:0.104451 612:0.126075 630:0.126075 644:0.072945997 650:0.100149 664:0.104451 679:0.075571001 686:0.21943501 703:0.109718 767:0.066469997 777:0.071736 797:0.116507 812:0.126075 816:0.116507 817:0.068438001 826:0.104451 827:0.109718 830:0.126075 832:0.25137299 855:0.069486998 857:0.231006 909:0.065544002 918:0.109718 920:0.104451 930:0.074221998 942:0.109718 951:0.074221998 964:0.072945997 
-0.094593334480213273 8:0.063588999 31:0.116677 80:0.121075 104:0.052662 108:0.091362 118:0.099016003 131:0.081523001 133:0.16801199 179:0.090221003 322:0.132643 330:0.043813001 335:0.132643 367:0.79585803 424:0.091362 482:0.16071799 504:0.086724997 514:0.082737997 517:0.179462 570:0.121075 617:0.084005997 675:0.132643 677:0.121075 686:0.132643 688:0.070758998 762:0.064230002 857:0.093091004 860:0.132643 887:0.079240002 917:0.112867 927:0.061748002 930:0.089731 968:0.121075 
-0.049751606261607198 57:0.106998 61:0.110018 63:0.083123997 90:0.15312999 131:0.081904002 132:0.141507 175:0.141507 179:0.045320999 224:0.141507 298:0.126865 300:0.13326199 306:0.117221 330:0.044018 370:0.091788001 412:0.126865 445:0.063256003 485:0.117221 508:0.13326199 527:0.110018 574:0.075507998 588:0.076479003 593:0.12164 609:0.13326199 628:0.26579899 681:0.084398001 687:0.168795 714:0.13326199 716:0.12164 747:0.12164 758:0.141507 767:0.080734 854:0.141507 857:0.093525998 909:0.079608999 929:0.097352996 932:0.141507 934:0.106998 945:0.28301501 981:0.61251801 
-0.018906424882233264 8:0.11378 26:0.237339 106:0.078395002 155:0.17338599 167:0.20195401 190:0.195942 306:0.41754201 330:0.078395002 333:0.25202501 363:0.129614 486:0.20877101 574:0.134479 581:0.20195401 602:0.25202501 644:0.15779699 705:0.25202501 713:0.16347501 748:0.21664 767:0.143787 836:0.160557 856:0.16656899 857:0.16656899 882:0.272724 909:0.141784 916:0.17338599 
-0.03796738214001661 106:0.139677 130:0.242956 191:0.224516 304:0.12630799 342:0.179911 351:0.21143299 416:0.148388 468:0.14057299 492:0.21143299 530:0.165428 583:0.201285 590:0.28606299 624:0.136021 664:0.201285 668:0.224516 728:0.21143299 736:0.21143299 739:0.17455401 817:0.13188399 881:0.224516 904:0.145631 913:0.21143299 984:0.42286599 
-0.038432148580620593 15:0.1428 36:0.091835998 38:0.061896998 40:0.082333997 84:0.091835998 104:0.034336001 107:0.082333997 148:0.099379003 173:0.091835998 179:0.029412 221:0.17297 229:0.043191999 247:0.06944 258:0.073591001 300:0.086484998 302:0.045102 330:0.057133999 338:0.071400002 349:0.12911899 357:0.17297 363:0.047230002 377:0.17297 384:0.091835998 388:0.099379003 389:0.135334 396:0.076075003 402:0.06944 445:0.041051999 453:0.078942001 456:0.063180998 468:0.115 477:0.198145 484:0.091835998 504:0.056545999 508:0.086484998 514:0.107892 520:0.18367299 553:0.259455 554:0.046675 558:0.082333997 569:0.076075003 574:0.049003001 575:0.082333997 584:0.060697 586:0.058506001 617:0.054772999 627:0.078942001 634:0.18367299 664:0.082333997 671:0.086484998 677:0.078942001 679:0.238276 686:0.259455 691:0.157885 694:0.157885 699:0.076075003 709:0.078942001 775:0.091835998 783:0.135334 808:0.057500001 814:0.091835998 827:0.086484998 848:0.048393 850:0.066047996 857:0.18209 858:0.078942001 870:0.157885 885:0.29436299 891:0.17297 909:0.051665001 927:0.040259998 949:0.071400002 960:0.071400002 973:0.071400002 975:0.078942001 999:0.055638 
-0.035956708001052155 13:0.22019801 17:0.087523997 179:0.065169998 212:0.203485 214:0.168562 265:0.163058 275:0.139992 276:0.112921 281:0.153861 335:0.19162799 339:0.18243 383:0.163058 423:0.174916 429:0.143047 471:0.203485 512:0.163058 564:0.19162799 592:0.174916 593:0.174916 673:0.112921 695:0.316407 743:0.203485 762:0.092793003 767:0.232187 777:0.125291 805:0.099933997 848:0.107227 877:0.19162799 881:0.203485 896:0.203485 973:0.316407 
-0.038501191775218289 18:0.082783997 54:0.095126003 93:0.068343997 115:0.060477 117:0.066468 166:0.064770997 179:0.028154001 200:0.140883 210:0.16556799 223:0.087906003 230:0.075563997 266:0.056001998 286:0.068343997 290:0.078810997 299:0.068343997 315:0.063221999 330:0.027344 334:0.18539 384:0.087906003 420:0.118497 424:0.057020001 426:0.082783997 429:0.18539 440:0.066468 444:0.037112001 446:0.072819002 500:0.087906003 503:0.078810997 525:0.24835201 531:0.087906003 540:0.095126003 579:0.075563997 587:0.087906003 594:0.13668901 606:0.082783997 618:0.095126003 655:0.075563997 659:0.070441999 662:0.078810997 664:0.078810997 671:0.082783997 679:0.057020001 680:0.082783997 682:0.095126003 686:0.082783997 687:0.052429002 690:0.068343997 693:0.087906003 695:0.13668901 697:0.072819002 703:0.16556799 726:0.082783997 731:0.082783997 745:0.072819002 755:0.078810997 769:0.082783997 779:0.087906003 800:0.072819002 803:0.087906003 808:0.055039 815:0.075563997 824:0.082783997 839:0.087906003 842:0.087906003 850:0.063221999 853:0.075563997 859:0.29127699 882:0.475631 915:0.051637001 926:0.110079 936:0.19025201 948:0.061797 949:0.068343997 950:0.087906003 954:0.13668901 960:0.068343997 971:0.068343997 974:0.087906003 
-0.029108440348117597 94:0.139167 108:0.15367299 142:0.446219 155:0.162991 183:0.20365199 193:0.166547 197:0.15967999 289:0.23691501 293:0.102872 306:0.196254 420:0.15967999 431:0.196254 516:0.212401 642:0.392508 644:0.14833599 666:0.18984599 679:0.15367299 705:0.23691501 717:0.156583 749:0.23691501 822:0.22310901 
-0.022706234794121604 91:0.407489 106:0.105454 108:0.109949 183:0.145707 197:0.114246 206:0.082331002 286:0.131786 291:0.27165899 297:0.140414 302:0.083246998 305:0.145707 307:0.169506 315:0.121908 328:0.131786 330:0.052726999 378:0.159629 385:0.159629 439:0.169506 465:0.145707 477:0.121908 579:0.145707 594:0.131786 608:0.151967 617:0.101097 644:0.10613 681:0.20219301 686:0.159629 688:0.085155003 696:0.145707 705:0.169506 713:0.109949 720:0.11916 745:0.140414 772:0.112031 803:0.169506 806:0.145707 813:0.183428 827:0.159629 847:0.169506 856:0.112031 948:0.11916 980:0.145707 
-0.047473332115539675 9:0.242024 53:0.121012 104:0.180979 172:0.091499999 186:0.21698201 222:0.242024 228:0.100243 281:0.091499999 302:0.17829201 311:0.130951 317:0.11396 326:0.22792099 392:0.130951 414:0.11396 430:0.21698201 441:0.100243 445:0.108188 449:0.081561998 468:0.151535 477:0.174063 553:0.11396 631:0.108491 646:0.081561998 664:0.21698201 686:0.22792099 687:0.072173998 734:0.091499999 777:0.074510001 783:0.089163996 798:0.21698201 829:0.121012 857:0.39989901 909:0.068079002 920:0.21698201 927:0.053050999 953:0.089163996 973:0.18816601 983:0.108491 
-0.033857227586560137 93:0.115717 106:0.046298001 108:0.096542999 131:0.086145997 134:0.13343801 146:0.127941 170:0.084916003 222:0.148838 229:0.070001997 234:0.127941 241:0.127941 253:0.093189999 273:0.148838 285:0.127941 294:0.297676 302:0.073096 306:0.123293 334:0.209261 368:0.140165 395:0.123293 429:0.104631 447:0.161062 586:0.09482 600:0.161062 631:0.13343801 651:0.148838 658:0.140165 673:0.082595997 678:0.107044 681:0.088770002 686:0.140165 707:0.123293 732:0.36987999 748:0.127941 760:0.24658699 838:0.161062 859:0.123293 882:0.161062 917:0.119268 924:0.093189999 927:0.13049901 934:0.11254 936:0.161062 939:0.161062 973:0.231434 
-0.035480739397630648 1:0.28951699 23:0.180292 45:0.171638 118:0.13458399 133:0.114183 186:0.171638 228:0.15859 229:0.090042002 238:0.16456801 275:0.13170999 302:0.094022997 346:0.15859 375:0.191448 380:0.119868 387:0.137688 390:0.091981001 420:0.129035 423:0.16456801 445:0.085579 485:0.15859 517:0.121965 574:0.102155 624:0.115987 628:0.119868 641:0.13170999 681:0.114183 686:0.180292 687:0.114183 719:0.171638 765:0.191448 767:0.109226 774:0.171638 827:0.180292 857:0.25306401 867:0.20717099 975:0.32913601 978:0.20717099 
-0.016093102530947839 17:0.085949004 38:0.134681 104:0.074712001 172:0.15109301 189:0.188181 202:0.155358 239:0.188181 247:0.15109301 276:0.11089 293:0.086767003 302:0.196274 318:0.13206901 330:0.062158 367:0.188181 384:0.199825 456:0.137474 482:0.114005 539:0.14723501 546:0.188181 652:0.160125 675:0.188181 697:0.496589 737:0.16553 785:0.160125 796:0.16553 806:0.17176899 875:0.134681 878:0.155358 911:0.188181 927:0.087601997 931:0.179149 948:0.14047401 975:0.17176899 
-0.024949254515055943 56:0.234055 106:0.15462101 117:0.18792599 155:0.170987 193:0.17471801 197:0.167514 206:0.120718 290:0.222821 343:0.213643 349:0.17471801 423:0.213643 497:0.158335 539:0.183128 610:0.19323 624:0.150575 651:0.248538 658:0.234055 668:0.248538 679:0.161213 688:0.124858 743:0.248538 749:0.248538 755:0.222821 827:0.234055 919:0.213643 
-0.025802573092927356 63:0.115839 100:0.21339799 202:0.153318 229:0.092748001 293:0.085628003 353:0.176797 458:0.169514 482:0.112509 554:0.100226 599:0.107982 692:0.14911 697:0.163357 701:0.39440399 769:0.37142101 785:0.158023 797:0.197202 814:0.197202 827:0.18571 882:0.42679599 911:0.37142101 927:0.086452 
-0.019330979310509824 15:0.069367997 106:0.083260998 179:0.028574999 184:0.076695003 219:0.193101 228:0.073909998 235:0.061383002 248:0.071496002 276:0.049513001 278:0.42011699 290:0.079990998 299:0.069367997 306:0.221729 319:0.079990998 323:0.062721997 328:0.138735 330:0.083260998 333:0.089222997 359:0.061383002 423:0.076695003 429:0.12544399 444:0.037668001 445:0.079767004 448:0.084022999 468:0.111727 480:0.073909998 483:0.142993 497:0.056841001 500:0.089222997 501:0.050903998 503:0.079990998 542:0.064167999 546:0.084022999 558:0.159981 574:0.095216997 581:0.214489 583:0.079990998 590:0.056841001 631:0.079990998 636:0.096550003 652:0.071496002 677:0.076695003 686:0.25207001 726:0.084022999 748:0.076695003 777:0.109873 784:0.084022999 785:0.071496002 788:0.079990998 800:0.073909998 815:0.076695003 842:0.089222997 846:0.076695003 853:0.076695003 855:0.053213999 856:0.23587701 857:0.058968998 882:0.28965101 883:0.084022999 884:0.076695003 916:0.24552999 920:0.079990998 925:0.084022999 949:0.138735 960:0.138735 967:0.071496002 971:0.069367997 
-0.015055805098120816 17:0.090241 104:0.078442998 106:0.065261997 133:0.125131 179:0.067194 214:0.173796 224:0.209804 245:0.197578 297:0.173796 323:0.147488 342:0.168121 356:0.136088 384:0.209804 403:0.45407 504:0.129181 519:0.209804 574:0.11195 660:0.227035 664:0.188095 686:0.197578 687:0.125131 705:0.209804 762:0.191348 767:0.239397 819:0.13365901 868:0.123242 927:0.091976002 946:0.227035 949:0.16311599 971:0.16311599 
-0.012987063378495697 61:0.15486901 106:0.061962999 133:0.118805 143:0.17858601 156:0.187589 228:0.16500901 253:0.12472 302:0.097828001 311:0.21555699 335:0.187589 384:0.19919699 411:0.17858601 440:0.150618 451:0.17858601 456:0.137042 501:0.227293 502:0.19919699 508:0.187589 584:0.13165399 603:0.21555699 672:0.112064 688:0.10007 728:0.187589 743:0.19919699 764:0.16500901 797:0.19919699 805:0.097828001 830:0.21555699 855:0.118805 866:0.17858601 923:0.16500901 929:0.137042 949:0.15486901 953:0.146772 963:0.17858601 970:0.17858601 
-0.010893906705856875 18:0.065274999 31:0.057418 69:0.069314003 86:0.075006999 89:0.069314003 105:0.069314003 126:0.069314003 143:0.062142 179:0.044399001 190:0.053890001 193:0.048726998 206:0.067333996 227:0.075006999 247:0.052409999 253:0.043398999 265:0.055543002 272:0.099701002 281:0.052409999 286:0.053890001 287:0.069314003 302:0.034040999 328:0.053890001 330:0.021561 334:0.097453997 380:0.043398999 393:0.178748 424:0.134881 445:0.030983999 452:0.046718001 480:0.057418 503:0.062142 523:0.124285 552:0.065274999 591:0.069314003 607:0.062142 628:0.043398999 664:0.062142 673:0.038465001 686:0.130551 703:0.130551 713:0.04496 726:0.065274999 785:0.111087 805:0.068083003 827:0.130551 848:0.036525 850:0.049851 855:0.041340001 857:0.045812 859:0.057418 862:0.178748 889:0.20794301 907:0.78330398 917:0.055543002 927:0.151934 964:0.043398999 997:0.040716 1000:0.049851 
-0.0074990582647094239 34:0.17424101 47:0.15326799 62:0.16791201 67:0.14578199 125:0.16791201 192:0.17424101 217:0.202701 235:0.13945299 236:0.17424101 248:0.32485899 276:0.112486 282:0.219349 286:0.157594 302:0.099549003 363:0.104247 390:0.097387999 402:0.15326799 427:0.202701 452:0.13662 473:0.110993 537:0.202701 546:0.190889 588:0.109552 612:0.219349 681:0.120895 760:0.16791201 805:0.099549003 808:0.12691399 811:0.202701 816:0.202701 871:0.16791201 915:0.11907 930:0.129134 951:0.129134 973:0.157594 982:0.202701 
-0.0071521297420736223 30:0.174758 46:0.304167 47:0.12211 104:0.120761 123:0.161494 186:0.144784 193:0.113528 207:0.161494 283:0.161494 293:0.070123002 309:0.088428997 349:0.113528 351:0.15208399 377:0.15208399 417:0.144784 461:0.15208399 477:0.116146 497:0.102882 592:0.13882001 599:0.088428997 654:0.15208399 664:0.144784 686:0.15208399 695:0.12555701 699:0.13377801 703:0.15208399 736:0.15208399 739:0.12555701 746:0.174758 748:0.13882001 765:0.322988 767:0.092136003 784:0.15208399 857:0.213471 882:0.349516 885:0.129409 915:0.094864003 986:0.161494 
-0.0023456084158266317 45:0.51893198 123:0.144706 131:0.083755001 146:0.124389 170:0.082557999 172:0.109416 211:0.136274 228:0.119871 245:0.136274 253:0.090602003 258:0.115957 275:0.099554002 276:0.080302 283:0.144706 302:0.071066998 306:0.119871 330:0.045012001 363:0.074421003 414:0.136274 416:0.19127899 468:0.090602003 515:0.144706 624:0.087669 628:0.090602003 631:0.129733 651:0.144706 668:0.144706 672:0.081409 673:0.080302 679:0.093863003 686:0.27254701 728:0.136274 741:0.129733 743:0.28941199 767:0.082557999 783:0.106622 803:0.144706 817:0.085001998 848:0.076252997 854:0.144706 872:0.136274 882:0.156591 900:0.083755001 954:0.112504 996:0.144706 
-0.0026706972649905916 1:0.42207399 17:0.060024001 74:0.139551 131:0.080770999 170:0.159235 179:0.044693999 193:0.098102003 200:0.111826 245:0.131419 249:0.25022399 280:0.115601 294:0.139551 297:0.115601 330:0.043409001 339:0.125112 342:0.111826 359:0.096006997 414:0.131419 416:0.092233002 455:0.119958 466:0.105519 514:0.081974998 526:0.139551 543:0.131419 554:0.14185201 579:0.119958 591:0.139551 646:0.094057001 673:0.077441998 686:0.131419 713:0.18103801 719:0.125112 736:0.131419 783:0.102824 790:0.115601 827:0.131419 836:0.177807 875:0.094057001 882:0.302026 910:0.139551 917:0.111826 924:0.087375 937:0.100365 973:0.108497 975:0.239916 976:0.139551 996:0.139551 
-0.0014647337596577457 38:0.158994 63:0.138569 104:0.088198997 125:0.195411 131:0.136536 186:0.21148901 207:0.235897 234:0.202777 254:0.235897 270:0.222151 286:0.183403 330:0.073379003 338:0.183403 349:0.165832 402:0.178368 473:0.12917 517:0.150282 592:0.202777 599:0.12917 653:0.21148901 678:0.16965599 681:0.14069299 687:0.14069299 732:0.195411 736:0.222151 819:0.150282 836:0.150282 848:0.124307 857:0.15591 909:0.13271099 956:0.235897 985:0.16229101 991:0.173814 
