SVM-light Version V3.50
0 # kernel type
1 # kernel parameter -d 
1 # kernel parameter -g 
1 # kernel parameter -s 
0 # kernel parameter -r 
EmptyParam # kernel parameter -u 
1000 # highest feature index 
418 # number of training documents 
118 # number of support vectors plus 1 
1.0132256 # threshold b 
-0.1627005223670869 104:0.088719003 106:0.073812 118:0.16681001 130:0.25677699 191:0.237289 275:0.163248 309:0.129932 380:0.14857 416:0.15683 532:0.237289 686:0.670385 784:0.223462 808:0.14857 882:0.25677699 904:0.153916 937:0.17065699 984:0.223462 
-0.017553023198659229 10:0.152234 24:0.115108 104:0.056917999 106:0.094708003 131:0.088111997 170:0.086852998 227:0.164737 229:0.071598999 253:0.095316 276:0.16896001 304:0.085643999 312:0.164737 314:0.30446801 328:0.118357 335:0.143363 342:0.121989 355:0.109486 363:0.078291997 373:0.143363 418:0.100615 427:0.152234 447:0.164737 456:0.104733 535:0.121989 554:0.077372 572:0.118357 586:0.096983001 588:0.082277 592:0.13086 612:0.164737 618:0.164737 652:0.121989 666:0.121989 686:0.143363 703:0.143363 732:0.12610701 739:0.118357 753:0.143363 767:0.086852998 787:0.152234 789:0.143363 800:0.252213 808:0.095316 812:0.164737 834:0.143363 870:0.13086 887:0.085643999 897:0.109486 909:0.085643999 917:0.121989 920:0.136482 931:0.136482 934:0.115108 945:0.152234 996:0.152234 999:0.09223 
-0.52229434776111139 31:0.140751 48:0.25694999 49:0.169912 104:0.063528001 194:0.15233099 202:0.132101 208:0.16001099 230:0.146056 272:0.1222 309:0.093038999 314:0.169912 349:0.119445 389:0.125195 440:0.128475 468:0.106384 477:0.36660001 485:0.140751 512:0.13615499 527:0.264202 538:0.30466199 549:0.116895 583:0.15233099 588:0.091830999 663:0.15233099 679:0.110212 687:0.202677 697:0.140751 702:0.16001099 703:0.16001099 732:0.140751 760:0.140751 762:0.077482998 767:0.096938998 784:0.16001099 855:0.101339 915:0.099808998 942:0.16001099 945:0.169912 
-0.031409752575571263 1:0.26639599 8:0.039765 22:0.061918002 29:0.088078998 45:0.078965001 63:0.051739 66:0.078965001 106:0.027398 131:0.050980002 138:0.095312998 159:0.082947001 166:0.064897999 179:0.056418002 200:0.070579998 206:0.042780999 249:0.23689599 253:0.055148002 258:0.14116 259:0.068479002 280:0.29184899 286:0.068479002 290:0.078965001 304:0.049552001 309:0.048229001 328:0.068479002 330:0.027398 363:0.045297999 375:0.26423699 377:0.082947001 418:0.058214001 436:0.088078998 444:0.037184998 448:0.082947001 463:0.088078998 475:0.064897999 495:0.075713001 501:0.050251 506:0.072962001 509:0.088078998 514:0.103478 517:0.168336 541:0.088078998 544:0.088078998 554:0.044764999 561:0.088078998 572:0.068479002 574:0.046998002 590:0.056111999 610:0.068479002 629:0.082947001 643:0.088078998 657:0.054232001 659:0.14116 664:0.078965001 679:0.057131998 681:0.26266 686:0.082947001 688:0.044248 694:0.075713001 713:0.057131998 719:0.078965001 721:0.20543601 739:0.068479002 749:0.088078998 753:0.082947001 762:0.040165 765:0.088078998 775:0.088078998 797:0.088078998 805:0.086514004 808:0.055148002 827:0.165893 834:0.082947001 857:0.058214001 867:0.095312998 882:0.28593901 887:0.099102996 900:0.050980002 908:0.072962001 930:0.056111999 932:0.088078998 948:0.061918002 975:0.227138 976:0.088078998 978:0.095312998 
-0.06217289808670054 29:0.264384 57:0.199908 106:0.08224 191:0.264384 203:0.286098 231:0.185857 258:0.211858 302:0.129842 492:0.248978 544:0.264384 590:0.16843 599:0.144768 616:0.237028 668:0.264384 721:0.20555 808:0.165534 836:0.16843 857:0.17473701 904:0.34298199 981:0.286098 
0.99999993212504223 7:0.076086998 27:0.095784001 42:0.095784001 98:0.095784001 106:0.027533 166:0.195658 183:0.152174 197:0.059657998 229:0.08326 272:0.063658997 290:0.079356 316:0.073322996 330:0.082599998 342:0.070928998 355:0.063658997 359:0.121791 369:0.076086998 413:0.066927999 423:0.22826 426:0.083356999 428:0.083356999 429:0.124448 440:0.066927999 444:0.037369002 445:0.039567001 446:0.073322996 455:0.076086998 475:0.065219 482:0.100999 501:0.100999 502:0.088514 506:0.14664599 519:0.088514 533:0.095784001 542:0.063658997 543:0.083356999 553:0.083356999 558:0.158711 590:0.056389999 599:0.048468001 606:0.083356999 664:0.079356 673:0.049120001 675:0.083356999 677:0.076086998 686:0.083356999 752:0.076086998 762:0.040364001 775:0.088514 806:0.076086998 827:0.166713 831:0.083356999 832:0.12731799 852:0.095784001 855:0.052792002 857:0.117003 867:0.095784001 872:0.083356999 880:0.079356 882:0.38313699 894:0.083356999 901:0.396779 920:0.079356 927:0.038803998 942:0.083356999 960:0.34408599 969:0.070928998 975:0.076086998 989:0.083356999 
0.99497497294435788 136:0.189881 139:0.22919101 194:0.189881 202:0.164664 229:0.099611998 231:0.14888901 343:0.182059 402:0.160144 445:0.094674997 482:0.120835 514:0.124412 617:0.12631901 686:0.19945399 784:0.59836203 832:0.304645 836:0.134928 915:0.373236 960:0.164664 973:0.164664 
0.46341319895519584 136:0.195362 168:0.205211 179:0.069789998 194:0.195362 328:0.16941699 330:0.067782998 444:0.091995999 445:0.097407997 538:0.195362 599:0.23864099 651:0.21790899 677:0.187314 682:0.235806 686:0.205211 731:0.205211 784:0.410422 832:0.313438 882:0.235806 901:0.195362 915:0.384009 
0.99999993212504223 111:0.15515199 136:0.147705 202:0.12808999 206:0.080022 272:0.23697799 318:0.76222098 330:0.051247999 349:0.115818 410:0.17828301 514:0.193556 520:0.16475201 586:0.209916 679:0.21373101 681:0.098260999 686:0.15515199 756:0.16475201 832:0.118489 857:0.108889 927:0.072226003 
0.99999993212504223 31:0.077785999 63:0.055158999 179:0.030074 194:0.084186003 202:0.073005997 208:0.70743799 260:0.12920301 262:0.056889001 293:0.040773001 397:0.150492 423:0.080718003 451:0.33674201 485:0.077785999 554:0.047724999 581:0.075245999 587:0.187803 588:0.050749999 614:0.075245999 664:0.16837101 687:0.056005001 781:0.353719 847:0.093901999 857:0.124124 897:0.135067 915:0.055158999 928:0.203228 945:0.093901999 999:0.056889001 
-0.78401300179575784 22:0.246944 31:0.145496 80:0.30195999 92:0.17564 103:0.145496 162:0.145496 202:0.136555 230:0.15098 231:0.123472 255:0.120835 260:0.120835 262:0.10641 312:0.19006599 318:0.23217 345:0.17564 353:0.15746699 449:0.118381 482:0.100207 578:0.145496 586:0.111894 617:0.104755 664:0.47240001 686:0.16540501 711:0.17564 777:0.108146 857:0.23217 875:0.118381 915:0.206347 927:0.153998 985:0.120835 
-0.43679196537747761 63:0.077933997 80:0.114046 179:0.042491999 200:0.106315 206:0.064441003 229:0.062399 247:0.100318 286:0.10315 318:0.263062 353:0.118946 389:0.19551399 396:0.109903 440:0.100318 444:0.056012001 449:0.17884301 473:0.072648004 482:0.075694002 500:0.13267399 504:0.24507099 509:0.13267399 514:0.46760699 549:0.091275997 581:0.106315 586:0.169044 617:0.079129003 659:0.106315 664:0.35683799 681:0.079129003 686:0.124943 687:0.079129003 696:0.114046 699:0.109903 711:0.13267399 713:0.086057998 734:0.100318 762:0.060501002 777:0.081689999 793:0.118946 797:0.13267399 805:0.065158002 827:0.124943 857:0.087687001 870:0.114046 885:0.106315 890:0.13267399 909:0.074639998 915:0.15586901 927:0.058162998 1000:0.095417999 
-0.24752175731541329 17:0.047451001 18:0.103892 133:0.065797001 168:0.103892 179:0.035332002 182:0.23876201 237:0.22064 270:0.103892 289:0.11032 311:0.119381 316:0.091385998 326:0.519458 328:0.085770003 330:0.034316 377:0.103892 423:0.37932399 429:0.077552997 437:0.119381 451:0.098904997 475:0.081285998 502:0.11032 514:0.064804003 591:0.11032 599:0.060408 642:0.18277299 646:0.074354999 671:0.103892 677:0.094830997 679:0.071558997 686:0.207783 705:0.22064 781:0.103892 822:0.103892 857:0.29165301 867:0.119381 882:0.119381 915:0.12960701 970:0.098904997 
-0.51757024153129305 66:0.180044 80:0.172628 94:0.117967 106:0.062469002 276:0.111444 318:0.13272899 323:0.141176 359:0.138161 398:0.166357 446:0.166357 450:0.180044 482:0.114575 552:0.18912099 617:0.119775 621:0.378243 627:0.172628 670:0.20082401 686:0.18912099 715:0.160925 882:0.65195203 
-0.17439929677228475 6:0.085860997 8:0.071641997 22:0.055778001 31:0.065727003 34:0.068204001 79:0.074721001 106:0.049362 149:0.074721001 151:0.074721001 159:0.44832301 179:0.025412001 193:0.055778001 245:0.074721001 247:0.059994001 250:0.068204001 260:0.16375899 262:0.048069999 276:0.088062003 277:0.079343997 284:0.079343997 296:0.065727003 318:0.36708301 323:0.055778001 355:0.057064001 363:0.040805999 380:0.049678002 397:0.063579999 414:0.074721001 419:0.085860997 445:0.070936002 495:0.068204001 504:0.24427 514:0.046608001 523:0.071134001 561:0.079343997 584:0.052439999 593:0.068204001 614:0.44506299 620:0.074721001 621:0.074721001 659:0.063579999 664:0.142268 673:0.044031002 681:0.141967 686:0.074721001 687:0.047322001 688:0.039859999 690:0.061687 691:0.068204001 712:0.079343997 728:0.074721001 738:0.068204001 745:0.065727003 762:0.036182001 777:0.048854001 789:0.074721001 827:0.149441 857:0.104881 887:0.044636998 897:0.057064001 910:0.079343997 932:0.079343997 933:0.063579999 951:0.25273699 956:0.079343997 999:0.048069999 
0.99999993212504223 49:0.26440901 80:0.227286 104:0.098858997 202:0.20557 236:0.227286 247:0.199927 335:0.24900199 363:0.13598301 418:0.17475399 456:0.181906 497:0.168446 576:0.227286 688:0.13283101 760:0.438059 887:0.14875101 901:0.23705 909:0.14875101 934:0.199927 938:0.23705 944:0.26440901 948:0.185875 
0.99999993212504223 46:0.22482599 63:0.140238 229:0.112283 253:0.14947701 286:0.18561099 312:0.25834599 330:0.074262001 389:0.175907 402:0.180516 419:0.25834599 425:0.238738 440:0.180516 445:0.106719 456:0.16424499 504:0.146997 514:0.140238 522:0.238738 603:0.25834599 673:0.132484 687:0.142388 699:0.19776399 709:0.205219 732:0.19776399 785:0.19130699 832:0.171699 848:0.12580401 857:0.15778799 866:0.214035 915:0.140238 973:0.18561099 
0.99999993212504223 73:0.109718 104:0.043559998 147:0.109718 170:0.066469997 172:0.17618699 185:0.116507 193:0.081901997 228:0.096510999 229:0.054795001 234:0.100149 238:0.100149 248:0.093359999 264:0.096510999 302:0.114436 309:0.063795 312:0.126075 330:0.072481997 351:0.109718 355:0.083791003 358:0.109718 363:0.059918001 369:0.100149 380:0.072945997 411:0.208903 448:0.109718 450:0.104451 453:0.100149 469:0.233013 482:0.13293999 490:0.352375 496:0.093359999 513:0.18116 514:0.068438001 516:0.104451 539:0.085844003 554:0.059213001 583:0.104451 588:0.062967002 601:0.126075 607:0.104451 612:0.126075 630:0.126075 644:0.072945997 650:0.100149 664:0.104451 679:0.075571001 686:0.21943501 703:0.109718 767:0.066469997 777:0.071736 797:0.116507 812:0.126075 816:0.116507 817:0.068438001 826:0.104451 827:0.109718 830:0.126075 832:0.25137299 855:0.069486998 857:0.231006 909:0.065544002 918:0.109718 920:0.104451 930:0.074221998 942:0.109718 951:0.074221998 964:0.072945997 
0.99999993212504223 49:0.150227 95:0.141473 229:0.070655003 239:0.141473 245:0.28294599 293:0.065231003 302:0.073779002 335:0.141473 342:0.120381 369:0.25827 410:0.16256499 435:0.141473 510:0.16256499 534:0.150227 572:0.116797 588:0.162384 605:0.150227 617:0.089598 653:0.134683 675:0.141473 686:0.28294599 687:0.089598 697:0.248888 715:0.120381 774:0.134683 776:0.16256499 784:0.42441899 806:0.129135 857:0.099289 867:0.16256499 929:0.103352 944:0.150227 945:0.150227 975:0.129135 996:0.150227 
0.99999993212504223 40:0.21915799 179:0.078290999 235:0.168176 295:0.21915799 311:0.26452899 323:0.34369099 363:0.125719 369:0.21013001 398:0.20249701 402:0.184836 493:0.244452 506:0.20249701 513:0.190053 535:0.195885 576:0.21013001 623:0.21915799 774:0.21915799 775:0.244452 832:0.175809 882:0.26452899 927:0.214331 951:0.15573201 
-0.76573272485684674 8:0.076637998 49:0.169754 63:0.099716 106:0.052804001 131:0.098251998 140:0.169754 177:0.159862 202:0.26395601 217:0.169754 230:0.14591999 235:0.116786 260:0.116786 293:0.073710002 329:0.159862 330:0.052804001 379:0.169754 418:0.112194 505:0.159862 522:0.169754 539:0.12507799 588:0.091744997 607:0.304378 625:0.29183999 663:0.152189 686:0.159862 713:0.11011 753:0.159862 783:0.12507799 784:0.31972399 797:0.169754 834:0.159862 855:0.101244 882:0.183696 887:0.0955 909:0.0955 944:0.169754 948:0.119334 960:0.13197801 964:0.106285 973:0.13197801 
-0.47951636405863851 67:0.139108 77:0.166265 104:0.14463601 150:0.166265 193:0.13597199 229:0.090970002 245:0.182151 266:0.123223 295:0.173408 359:0.13306899 363:0.099474996 394:0.38684401 402:0.292503 422:0.209308 424:0.125462 452:0.130366 481:0.119095 514:0.113619 582:0.209308 588:0.104537 751:0.209308 767:0.110352 784:0.182151 796:0.160226 812:0.209308 817:0.113619 827:0.182151 871:0.32045099 915:0.113619 945:0.193422 953:0.142517 
-0.15550444073028397 21:0.278115 166:0.24737699 201:0.33573601 253:0.210209 294:0.33573601 440:0.25385901 513:0.261024 514:0.197216 572:0.261024 574:0.17914701 603:0.36331001 628:0.210209 774:0.30099699 929:0.230977 
-0.11862968103660489 104:0.075698003 151:0.19066601 245:0.57199699 253:0.126765 302:0.099432997 349:0.14232799 363:0.104125 364:0.167715 397:0.162239 402:0.153088 494:0.17403699 536:0.219092 603:0.219092 665:0.14232799 673:0.224709 688:0.101712 717:0.26762599 965:0.43818399 973:0.157409 
-0.47079417930329481 95:0.165225 133:0.104641 177:0.165225 198:0.157295 238:0.30162999 260:0.24140701 276:0.097363003 295:0.157295 302:0.086165003 307:0.175448 312:0.189858 323:0.123337 369:0.150815 370:0.113803 398:0.145337 399:0.157295 402:0.132661 417:0.157295 419:0.189858 488:0.165225 495:0.150815 501:0.100098 505:0.165225 522:0.175448 594:0.136406 673:0.292088 677:0.150815 785:0.140591 791:0.189858 805:0.086165003 857:0.115958 900:0.101548 909:0.098704003 915:0.103061 920:0.31458899 927:0.076915003 969:0.140591 
0.99999993212504223 7:0.120303 80:0.120303 84:0.139952 179:0.089644998 202:0.108808 208:0.263594 247:0.211643 260:0.096283004 299:0.108808 311:0.151446 318:0.554986 393:0.240605 394:0.139952 424:0.181558 429:0.098384 455:0.120303 468:0.087626003 527:0.108808 538:0.125471 554:0.071129002 590:0.178317 627:0.120303 657:0.086172 673:0.077664003 677:0.120303 686:0.131797 706:0.096283004 726:0.131797 767:0.079846002 806:0.120303 827:0.131797 832:0.100653 857:0.092497997 867:0.151446 901:0.125471 915:0.16441999 917:0.112147 924:0.087626003 945:0.139952 948:0.098384 
0.99999993212504223 5:0.121953 40:0.14062899 103:0.12993801 108:0.101746 131:0.090788998 139:0.169742 151:0.147719 155:0.107915 274:0.134836 281:0.118606 289:0.15685999 301:0.169742 320:0.12993801 369:0.134836 396:0.12993801 418:0.103672 428:0.147719 445:0.14023601 468:0.098212004 482:0.089492001 513:0.121953 514:0.092142001 664:0.14062899 686:0.147719 688:0.157603 753:0.147719 767:0.089492001 777:0.096582003 789:0.147719 798:0.14062899 805:0.077036001 822:0.147719 827:0.29543799 832:0.22562499 834:0.147719 850:0.112813 853:0.134836 855:0.093553998 856:0.103672 857:0.103672 870:0.134836 882:0.33948499 897:0.112813 901:0.14062899 909:0.17649201 915:0.092142001 927:0.068765998 997:0.092142001 998:0.147719 
0.99999993212504223 7:0.054280002 17:0.027161 27:0.068332002 40:0.056612 177:0.059466001 202:0.049093999 206:0.061342001 208:0.178399 229:0.029699 237:0.063146003 244:0.169837 251:0.059466001 262:0.038256001 276:0.035041999 286:0.049093999 288:0.118933 293:0.109676 299:0.049093999 302:0.062024001 306:0.104617 309:0.034577001 311:0.068332002 340:0.068332002 375:0.063146003 377:0.059466001 384:0.12629201 424:0.040959001 429:0.088780999 451:0.056612 477:0.045414001 480:0.052308001 493:0.189438 545:0.068332002 546:0.059466001 554:0.032093 576:0.16284101 578:0.052308001 583:0.056612 587:0.189438 588:0.034127999 590:0.040228002 599:0.034577001 603:0.068332002 644:0.039537001 650:0.10856 664:0.33967301 671:0.059466001 679:0.040959001 686:0.118933 693:0.31573001 701:0.063146003 703:0.118933 717:0.041735001 732:0.052308001 749:0.063146003 769:0.059466001 773:0.063146003 775:0.063146003 781:0.059466001 782:0.063146003 789:0.059466001 790:0.052308001 798:0.056612 808:0.039537001 817:0.037092999 832:0.090829 836:0.040228002 850:0.090829 852:0.068332002 856:0.041735001 857:0.208673 867:0.068332002 875:0.04256 897:0.045414001 898:0.063146003 901:0.113224 906:0.068332002 912:0.049093999 915:0.074185997 925:0.059466001 927:0.055365 928:0.068332002 948:0.044390999 949:0.049093999 960:0.049093999 964:0.039537001 969:0.50600499 
0.99999993212504223 6:0.238507 106:0.068559997 294:0.220405 330:0.068559997 429:0.15494099 475:0.16239899 482:0.125747 502:0.220405 542:0.15851501 578:0.182578 591:0.220405 644:0.137999 646:0.148552 664:0.19760001 686:0.207562 709:0.18945999 775:0.220405 827:0.207562 830:0.238507 832:0.15851501 882:0.238507 901:0.395199 960:0.171358 997:0.12946901 999:0.267061 
-0.43358874469832553 8:0.073480003 40:0.145919 118:0.114418 151:0.153276 166:0.119925 232:0.176128 275:0.111974 289:0.16276 302:0.159868 343:0.139908 377:0.153276 380:0.101906 429:0.228835 444:0.068714 473:0.089121997 475:0.119925 480:0.134826 529:0.16276 530:0.119925 556:0.176128 568:0.36920199 646:0.2194 650:0.139908 681:0.097073004 698:0.153276 706:0.111974 759:0.117056 822:0.153276 827:0.153276 855:0.097073004 857:0.322716 867:0.176128 882:0.176128 895:0.176128 902:0.16276 906:0.176128 909:0.091565996 927:0.071353003 960:0.126541 
-0.2881124787571322 8:0.117294 304:0.146163 316:0.21521901 323:0.182641 380:0.16267 468:0.16267 482:0.148228 506:0.21521901 576:0.223331 677:0.223331 686:0.48933899 739:0.40398699 759:0.186854 827:0.24467 888:0.25980899 894:0.24467 927:0.113898 964:0.16267 
-0.4215288766402242 22:0.038364999 32:0.35976401 70:0.045209002 80:0.046913002 92:0.054575 94:0.032058001 103:0.045209002 104:0.020405 117:0.041266002 133:0.03255 147:0.10279 183:0.140738 208:0.10279 220:0.12729099 222:0.10915 244:0.29356799 262:0.132255 276:0.090856999 288:0.051394999 290:0.048928 304:0.061406001 310:0.14678399 330:0.033952001 342:0.043731999 343:0.046913002 345:0.054575 353:0.048928 360:0.10279 363:0.028067 385:0.154185 393:0.046913002 397:0.087465003 402:0.041266002 420:0.036782999 428:0.10279 429:0.038364999 431:0.090416998 445:0.048790999 451:0.097856 458:0.093824998 482:0.062272999 490:0.49518701 496:0.043731999 513:0.084861003 514:0.032058001 525:0.10279 528:0.097856 541:0.054575 554:0.027736999 590:0.069536 594:0.042429999 628:0.034170002 643:0.054575 659:0.043731999 664:0.048928 666:0.349859 676:0.10279 677:0.046913002 686:0.10279 690:0.042429999 695:0.12729099 711:0.054575 732:0.045209002 762:0.024886999 767:0.062272999 769:0.051394999 774:0.048928 781:0.10279 815:0.046913002 857:0.03607 882:0.118115 897:0.078500003 927:0.023925001 934:0.041266002 945:0.054575 949:0.042429999 964:0.13668101 973:0.084861003 997:0.032058001 
-0.23686277349313836 106:0.046820998 108:0.097632997 193:0.105812 206:0.073109001 229:0.14158501 281:0.113812 304:0.169358 320:0.37405899 323:0.105812 355:0.108253 369:0.12938599 402:0.113812 468:0.094241999 482:0.42937499 510:0.162881 541:0.150519 580:0.117024 583:0.13494501 672:0.25403801 686:0.28349599 705:0.150519 724:0.12938599 759:0.108253 780:0.13494501 785:0.120615 807:0.150519 808:0.188484 815:0.12938599 825:0.13494501 826:0.13494501 827:0.141748 850:0.108253 857:0.099482 868:0.088417001 882:0.162881 902:0.150519 927:0.065986 
-0.065515698373196929 15:0.163176 170:0.119742 220:0.163176 248:0.168183 281:0.31739399 310:0.18816499 349:0.147543 390:0.100838 393:0.18041401 458:0.18041401 468:0.13141 482:0.239485 490:0.31739399 513:0.163176 535:0.168183 686:0.197651 715:0.168183 752:0.18041401 759:0.15094601 767:0.239485 826:0.18816499 829:0.20988099 849:0.168183 855:0.125177 857:0.138716 882:0.227119 927:0.092009999 937:0.15094601 951:0.133708 964:0.13141 
0.99999993212504223 24:0.168571 36:0.22294 103:0.184678 151:0.209949 179:0.071401 215:0.184678 239:0.209949 312:0.24125101 410:0.24125101 419:0.482501 482:0.127193 617:0.132966 673:0.247435 681:0.132966 748:0.19163901 806:0.19163901 820:0.209949 832:0.160338 836:0.142028 857:0.147347 882:0.24125101 915:0.13095801 927:0.097735003 934:0.168571 
0.99999993212504223 8:0.067345999 36:0.14917199 63:0.087626003 160:0.161423 202:0.115976 231:0.104865 259:0.115976 276:0.082781002 312:0.161423 318:0.098591 330:0.046402 363:0.076716997 373:0.140479 419:0.161423 420:0.100541 466:0.225585 468:0.093399003 501:0.085106 506:0.12357 554:0.379076 574:0.079596996 590:0.095031999 617:0.088969 673:0.082781002 679:0.193519 691:0.12822799 693:0.14917199 694:0.12822799 697:0.12357 721:0.115976 784:0.280958 808:0.093399003 826:0.133737 827:0.42143801 832:0.107284 857:0.197182 921:0.14917199 927:0.065396003 944:0.14917199 960:0.115976 969:0.119535 997:0.087626003 
0.99999993212504223 131:0.121555 276:0.116544 296:0.17397 330:0.065327004 353:0.18828399 411:0.37656799 450:0.18828399 482:0.239637 490:0.158797 583:0.18828399 599:0.114997 688:0.105505 691:0.180528 807:0.210014 830:0.227263 832:0.30208299 850:0.151041 857:0.13880301 880:0.18828399 882:0.45452601 989:0.197776 998:0.197776 
-0.56742356877149713 63:0.085430004 84:0.14543401 158:0.136959 179:0.046578001 231:0.102237 247:0.109966 251:0.136959 318:0.192241 323:0.102237 419:0.157378 420:0.098021999 466:0.219933 482:0.082974002 495:0.250029 508:0.136959 554:0.51740801 574:0.077602997 590:0.092651002 603:0.157378 614:0.23308 617:0.086739004 673:0.161413 677:0.12501501 679:0.28300399 694:0.12501501 762:0.066320002 799:0.136959 807:0.14543401 827:0.136959 850:0.104595 857:0.192241 882:0.157378 912:0.11307 927:0.063757002 956:0.14543401 1000:0.104595 
-0.41582423551175152 155:0.113416 208:0.155249 245:0.155249 250:0.141709 276:0.091484003 293:0.071583003 302:0.080963001 307:0.32971099 318:0.108957 330:0.051279999 352:0.155249 424:0.106932 466:0.37395501 471:0.164855 482:0.188108 554:0.41893199 578:0.27312401 590:0.105024 617:0.098323002 646:0.222224 649:0.147798 664:0.147798 679:0.106932 697:0.136562 703:0.155249 726:0.155249 748:0.141709 773:0.164855 783:0.121469 827:0.155249 915:0.096837997 
-0.42731172665784722 80:0.19461501 104:0.084648997 179:0.072509997 229:0.106481 235:0.15575799 239:0.213209 294:0.226402 302:0.111189 306:0.187545 335:0.213209 419:0.48999301 501:0.129168 519:0.226402 574:0.120807 617:0.13503 672:0.127369 673:0.251277 686:0.213209 762:0.103243 827:0.213209 857:0.29926899 893:0.244996 917:0.181422 924:0.141753 
-0.2968121599071748 17:0.085949004 38:0.134681 104:0.074712001 172:0.15109301 189:0.188181 202:0.155358 239:0.188181 247:0.15109301 276:0.11089 293:0.086767003 302:0.196274 318:0.13206901 330:0.062158 367:0.188181 384:0.199825 456:0.137474 482:0.114005 539:0.14723501 546:0.188181 652:0.160125 675:0.188181 697:0.496589 737:0.16553 785:0.160125 796:0.16553 806:0.17176899 875:0.134681 878:0.155358 911:0.188181 927:0.087601997 931:0.179149 948:0.14047401 975:0.17176899 
-0.23229596100079974 17:0.067221999 80:0.134343 236:0.134343 247:0.23634399 248:0.125236 251:0.44153699 254:0.156286 318:0.206586 325:0.115155 342:0.125236 390:0.075088002 418:0.103293 453:0.134343 466:0.23634399 482:0.089165002 531:0.156286 554:0.079430997 664:0.14011499 679:0.608244 686:0.14717899 688:0.078512996 850:0.1124 856:0.103293 887:0.087922998 924:0.097852997 930:0.099564001 
0.36721550356114885 7:0.16005599 27:0.201491 49:0.186198 104:0.13923401 193:0.13089401 202:0.14476299 302:0.091444999 304:0.104752 335:0.175348 371:0.166932 393:0.16005599 410:0.201491 423:0.16005599 468:0.116581 496:0.149206 545:0.201491 586:0.118621 588:0.100633 646:0.125497 671:0.175348 767:0.106231 784:0.175348 832:0.133913 852:0.201491 901:0.50079602 910:0.186198 944:0.37239701 
-0.2103504827568311 17:0.068972997 178:0.160356 179:0.051357001 190:0.24934299 199:0.151012 306:0.26566899 363:0.164938 365:0.173526 414:0.151012 454:0.160356 543:0.151012 552:0.151012 574:0.085565001 579:0.137842 602:0.160356 664:0.143764 680:0.151012 699:0.132835 777:0.098734997 782:0.160356 798:0.143764 827:0.151012 856:0.105983 916:0.11032 955:0.173526 960:0.62335801 996:0.160356 
-0.35600385087910524 53:0.14574499 60:0.13066401 106:0.090671003 153:0.14574499 179:0.046677999 196:0.120731 294:0.14574499 316:0.120731 317:0.411755 330:0.045336001 390:0.070023 402:0.110201 424:0.094535999 449:0.098231003 501:0.083150998 565:0.15771499 574:0.077767998 580:0.113312 587:0.43723401 654:0.137252 673:0.080879003 677:0.125282 688:0.073218003 692:0.110201 706:0.100268 745:0.120731 748:0.125282 777:0.089737996 797:0.14574499 827:0.137252 842:0.14574499 849:0.116789 857:0.192652 882:0.15771499 910:0.14574499 962:0.137252 969:0.35036701 973:0.113312 1000:0.104819 
-0.2416341167028043 8:0.035491001 10:0.078613997 70:0.065122001 151:0.074033 178:0.078613997 185:0.078613997 199:0.074033 201:0.078613997 226:0.31445599 230:0.067575999 240:0.078613997 248:0.125991 253:0.049221002 264:0.065122001 272:0.113078 290:0.070479997 302:0.038608 323:0.055264 330:0.073362 348:0.085070997 352:0.074033 357:0.074033 363:0.040429998 385:0.074033 395:0.065122001 402:0.059441999 420:0.31791401 428:0.074033 429:0.055264 435:0.074033 454:0.078613997 456:0.054083999 461:0.074033 510:0.085070997 517:0.050082002 527:0.06112 535:0.125991 552:0.074033 553:0.296132 572:0.06112 579:0.067575999 581:0.062995002 588:0.042488001 590:0.050082002 594:0.12224 596:0.070479997 617:0.046886999 636:0.085070997 641:0.054083999 672:0.044227 677:0.067575999 687:0.140661 690:0.06112 699:0.065122001 703:0.074033 717:0.155874 718:0.085070997 726:0.074033 748:0.067575999 765:0.15722799 775:0.235842 812:0.085070997 827:0.074033 848:0.041425999 857:0.103916 874:0.074033 916:0.108168 920:0.14095999 945:0.15722799 951:0.050082002 955:0.085070997 960:0.42783901 985:0.054083999 999:0.142883 
-0.33570719807801275 46:0.32171199 51:0.34161901 79:0.32171199 104:0.127727 106:0.106265 169:0.25171199 506:0.28298801 687:0.203748 699:0.28298801 767:0.194902 882:0.36967599 933:0.27374801 958:0.30627099 997:0.200672 
-0.22721476864875254 52:0.134472 59:0.134472 106:0.077308998 199:0.117025 211:0.23405001 230:0.106819 234:0.106819 247:0.093961 299:0.096612997 330:0.038654 349:0.087357 352:0.117025 357:0.117025 363:0.25563401 420:0.16751 424:0.080604002 435:0.23405001 441:0.102939 445:0.055548001 474:0.106819 517:0.079166003 537:0.124266 572:0.096612997 577:0.124266 579:0.106819 664:0.22281601 679:0.080604002 681:0.148229 713:0.080604002 718:0.268944 775:0.124266 788:0.111408 812:0.268944 827:0.117025 892:0.124266 909:0.069909997 951:0.079166003 955:0.134472 960:0.48306501 967:0.099578001 986:0.124266 
0.87271456636957867 40:0.17285 42:0.208634 131:0.111591 133:0.114989 179:0.061748002 302:0.094686002 330:0.059971999 385:0.181564 390:0.092629999 410:0.208634 429:0.135534 482:0.109997 506:0.319419 537:0.192799 576:0.16573 677:0.16573 686:0.36312801 721:0.149895 803:0.192799 808:0.120714 831:0.181564 832:0.27732 853:0.16573 882:0.208634 894:0.181564 901:0.17285 927:0.084521003 949:0.149895 969:0.30899 
-0.49826055696780325 5:0.212679 38:0.184374 104:0.102278 135:0.235145 179:0.087610997 236:0.235145 247:0.20683999 372:0.235145 390:0.131429 410:0.29602 440:0.413681 538:0.245248 583:0.245248 686:0.25761199 762:0.124744 827:0.25761199 927:0.119923 931:0.245248 944:0.27355301 
-0.33997826066603787 17:0.043177001 24:0.45540899 70:0.083154 104:0.075062998 149:0.094532996 179:0.032148998 186:0.089994997 248:0.080439001 298:0.089994997 304:0.056473002 329:0.094532996 330:0.031225 342:0.080439001 363:0.103251 383:0.080439001 423:0.086287998 425:0.100382 429:0.21170101 430:0.089994997 445:0.044872001 446:0.083154 501:0.057270002 514:0.058966 527:0.078043997 569:0.166308 588:0.217011 599:0.054965999 628:0.062850997 658:0.094532996 673:0.055706002 686:0.56719601 709:0.17257699 748:0.17257699 760:0.083154 767:0.057270002 808:0.125701 820:0.094532996 866:0.089994997 915:0.117932 953:0.073964 971:0.078043997 972:0.094532996 982:0.100382 986:0.100382 996:0.200764 999:0.060816001 
-0.36186151288803248 61:0.15486901 106:0.061962999 133:0.118805 143:0.17858601 156:0.187589 228:0.16500901 253:0.12472 302:0.097828001 311:0.21555699 335:0.187589 384:0.19919699 411:0.17858601 440:0.150618 451:0.17858601 456:0.137042 501:0.227293 502:0.19919699 508:0.187589 584:0.13165399 603:0.21555699 672:0.112064 688:0.10007 728:0.187589 743:0.19919699 764:0.16500901 797:0.19919699 805:0.097828001 830:0.21555699 855:0.118805 866:0.17858601 923:0.16500901 929:0.137042 949:0.15486901 953:0.146772 963:0.17858601 970:0.17858601 
-0.2495424649127993 215:0.193553 228:0.193553 261:0.193553 291:0.187233 356:0.30311701 445:0.208892 467:0.20947801 502:0.23365401 513:0.181659 624:0.283115 633:0.20947801 641:0.16074701 672:0.262898 686:0.220039 754:0.23365401 827:0.220039 915:0.27450401 923:0.193553 927:0.102432 929:0.16074701 954:0.181659 973:0.181659 
-0.4184468648979297 202:0.17598701 302:0.111168 304:0.127345 330:0.070412003 333:0.22635899 339:0.20293701 373:0.21316899 423:0.19457801 482:0.129143 506:0.18751 516:0.20293701 578:0.18751 586:0.28841099 644:0.141727 686:0.21316899 697:0.37502 767:0.129143 857:0.149606 882:0.48989999 943:0.19457801 948:0.159126 
-0.20203267128877506 106:0.062545002 136:0.180263 184:0.172838 302:0.098747 330:0.062545002 412:0.180263 468:0.125892 477:0.14460699 517:0.128094 599:0.110099 604:0.217582 646:0.135519 656:0.16655999 727:0.378703 775:0.201068 804:0.391265 811:0.201068 827:0.18935201 853:0.172838 857:0.39867201 917:0.161121 921:0.201068 932:0.201068 948:0.14134701 
-0.37198724295581936 5:0.197833 48:0.19240201 208:0.23963 293:0.110489 302:0.124968 367:0.23963 495:0.218732 506:0.210786 578:0.210786 651:0.25445801 663:0.228129 702:0.23963 767:0.145175 800:0.210786 810:0.228129 857:0.336355 882:0.27535701 894:0.23963 945:0.25445801 969:0.203904 
-0.00029887429677444288 26:0.140838 104:0.055916 106:0.232601 131:0.086560003 139:0.161835 219:0.161835 301:0.161835 302:0.14689501 330:0.046519998 342:0.11984 352:0.140838 357:0.140838 362:0.149553 424:0.097006001 471:0.149553 473:0.081890002 483:0.11984 486:0.24777099 509:0.149553 514:0.087848999 581:0.11984 588:0.080826998 599:0.245671 658:0.140838 661:0.161835 671:0.140838 686:0.140838 709:0.128555 726:0.28167599 797:0.149553 827:0.140838 848:0.078806996 853:0.128555 856:0.098843001 857:0.395372 882:0.161835 916:0.102888 971:0.232545 997:0.087848999 
-0.10593878371008281 99:0.255905 104:0.088417999 156:0.22270299 157:0.23648299 229:0.111223 279:0.255905 296:0.195896 400:0.212014 444:0.099838004 481:0.29121599 497:0.150655 579:0.20328 599:0.25898099 601:0.255905 673:0.26246601 743:0.23648299 774:0.212014 857:0.312594 909:0.26608101 991:0.174245 
-0.29825504295516503 5:0.13190199 8:0.15318701 17:0.072972998 40:0.304203 108:0.110046 131:0.098196 139:0.18358999 173:0.16965599 185:0.16965599 234:0.145836 274:0.145836 289:0.33931199 294:0.16965599 330:0.21109401 389:0.12500601 406:0.16965599 423:0.145836 429:0.119265 468:0.106224 477:0.122016 523:0.152101 549:0.116718 558:0.152101 586:0.21616399 646:0.114348 681:0.101186 686:0.15977 726:0.15977 822:0.31953999 855:0.101186 857:0.224259 858:0.145836 865:0.152101 938:0.152101 
-0.15026803625394833 5:0.191122 100:0.26601601 168:0.231501 248:0.39397401 293:0.106741 299:0.191122 320:0.20363601 390:0.236215 397:0.196987 412:0.22039001 425:0.24582601 442:0.211312 490:0.185876 493:0.24582601 603:0.26601601 673:0.136418 686:0.231501 767:0.14025 850:0.176797 915:0.144402 949:0.191122 
-0.18469099553218518 6:0.096730001 11:0.096730001 22:0.062838003 47:0.067589 67:0.064287998 68:0.084179997 83:0.096730001 87:0.38691899 88:0.096730001 106:0.055610999 115:0.061496999 124:0.096730001 131:0.051736999 139:0.096730001 171:0.40069601 190:0.069496997 192:0.076838002 262:0.10831 266:0.056945998 281:0.067589 312:0.096730001 328:0.069496997 337:0.080139004 342:0.14325801 352:0.084179997 385:0.084179997 390:0.042947002 396:0.074046999 412:0.080139004 413:0.067589 430:0.080139004 444:0.037737999 448:0.084179997 477:0.064287998 501:0.050997999 542:0.064287998 581:0.071629003 608:0.080139004 624:0.054155 635:0.19346 657:0.055039 659:0.071629003 666:0.071629003 679:0.057980999 686:0.084179997 705:0.089387998 717:0.059078999 731:0.084179997 767:0.050997999 774:0.080139004 790:0.074046999 793:0.080139004 805:0.087800004 827:0.084179997 846:0.076838002 853:0.076838002 868:0.052508 882:0.48364899 900:0.051736999 925:0.084179997 926:0.111935 932:0.089387998 934:0.067589 952:0.089387998 983:0.080139004 999:0.216621 
-0.31641240506757123 8:0.084059 49:0.18619099 63:0.109371 85:0.201483 95:0.175341 179:0.059632 190:0.144757 194:0.166926 298:0.166926 304:0.104747 318:0.123058 323:0.130889 355:0.133908 445:0.16645899 451:0.166926 466:0.140784 504:0.114642 514:0.109371 523:0.166926 588:0.100629 592:0.16004901 625:0.16004901 629:0.175341 663:0.33385101 688:0.093537003 691:0.16004901 762:0.084905997 777:0.114642 784:0.175341 797:0.18619099 800:0.154236 819:0.118616 827:0.175341 857:0.123058 865:0.166926 880:0.166926 882:0.201483 887:0.104747 945:0.18619099 947:0.154236 951:0.118616 1000:0.133908 
-0.17486962311470114 105:0.156556 127:0.169414 152:0.156556 192:0.13457499 210:0.147433 224:0.156556 229:0.14726301 311:0.338828 330:0.048698999 348:0.169414 363:0.080514997 384:0.156556 404:0.169414 435:0.147433 441:0.129687 481:0.096395001 485:0.25937399 495:0.13457499 550:0.147433 630:0.338828 643:0.156556 664:0.140357 673:0.086879 701:0.156556 703:0.147433 736:0.147433 740:0.129687 818:0.169414 827:0.44229999 
-0.19433922830575573 80:0.17910799 196:0.172602 248:0.166967 253:0.130459 267:0.17910799 302:0.10233 318:0.137712 330:0.064814001 418:0.55084801 482:0.118876 617:0.124272 686:0.19622099 692:0.31509799 748:0.17910799 796:0.172602 815:0.17910799 882:0.45095199 927:0.091344997 934:0.15754899 973:0.16199601 
-0.21083698035141757 7:0.108987 41:0.126789 106:0.039439 147:0.1194 179:0.040607002 181:0.13720199 183:0.108987 286:0.098573998 288:0.238801 293:0.055052999 302:0.062268 315:0.091186002 326:0.238801 330:0.078878 336:0.13720199 340:0.13720199 355:0.091186002 371:0.11367 380:0.079383999 390:0.060915999 397:0.101599 402:0.095867999 413:0.095867999 416:0.083797999 423:0.21797501 440:0.095867999 442:0.108987 444:0.053527001 445:0.056676 451:0.11367 479:0.11367 481:0.078066997 497:0.080773003 501:0.14467201 513:0.098573998 554:0.064438999 567:0.126789 580:0.098573998 590:0.080773003 594:0.098573998 606:0.1194 642:0.31508499 650:0.108987 672:0.142658 686:0.1194 703:0.1194 717:0.083797999 736:0.1194 739:0.197148 745:0.105028 781:0.1194 801:0.13720199 827:0.1194 831:0.1194 833:0.126789 850:0.091186002 855:0.075618997 867:0.13720199 875:0.085455 882:0.27440399 900:0.073384002 927:0.055583 951:0.080773003 969:0.101599 975:0.108987 1000:0.091186002 
-0.056552071197432732 18:0.082783997 54:0.095126003 93:0.068343997 115:0.060477 117:0.066468 166:0.064770997 179:0.028154001 200:0.140883 210:0.16556799 223:0.087906003 230:0.075563997 266:0.056001998 286:0.068343997 290:0.078810997 299:0.068343997 315:0.063221999 330:0.027344 334:0.18539 384:0.087906003 420:0.118497 424:0.057020001 426:0.082783997 429:0.18539 440:0.066468 444:0.037112001 446:0.072819002 500:0.087906003 503:0.078810997 525:0.24835201 531:0.087906003 540:0.095126003 579:0.075563997 587:0.087906003 594:0.13668901 606:0.082783997 618:0.095126003 655:0.075563997 659:0.070441999 662:0.078810997 664:0.078810997 671:0.082783997 679:0.057020001 680:0.082783997 682:0.095126003 686:0.082783997 687:0.052429002 690:0.068343997 693:0.087906003 695:0.13668901 697:0.072819002 703:0.16556799 726:0.082783997 731:0.082783997 745:0.072819002 755:0.078810997 769:0.082783997 779:0.087906003 800:0.072819002 803:0.087906003 808:0.055039 815:0.075563997 824:0.082783997 839:0.087906003 842:0.087906003 850:0.063221999 853:0.075563997 859:0.29127699 882:0.475631 915:0.051637001 926:0.110079 936:0.19025201 948:0.061797 949:0.068343997 950:0.087906003 954:0.13668901 960:0.068343997 971:0.068343997 974:0.087906003 
-0.088411183717840014 128:0.463101 179:0.068530001 212:0.213976 214:0.17725199 247:0.32358599 255:0.14721 356:0.55517799 363:0.220091 710:0.23154999 716:0.183934 882:0.23154999 915:0.12569299 924:0.133974 977:0.213976 
-0.068553425465505399 1:0.34593201 8:0.103274 129:0.189493 249:0.41016701 280:0.189493 359:0.15737499 369:0.19663601 416:0.151188 541:0.228753 543:0.215423 587:0.228753 657:0.14084899 673:0.12694301 686:0.215423 771:0.24754 800:0.189493 810:0.205084 850:0.164518 882:0.24754 908:0.189493 962:0.215423 
-0.1436289818781406 48:0.113554 73:0.141427 131:0.086921997 133:0.089569002 146:0.12909301 220:0.116759 281:0.113554 312:0.162512 330:0.046714999 335:0.141427 370:0.097411998 377:0.141427 390:0.144306 392:0.162512 393:0.12909301 424:0.097411998 458:0.12909301 490:0.227107 513:0.116759 520:0.150178 580:0.116759 588:0.081165001 643:0.150178 651:0.150178 664:0.13463899 686:0.141427 703:0.141427 715:0.120342 769:0.56570798 781:0.141427 800:0.248807 812:0.162512 831:0.141427 857:0.099256001 900:0.086921997 927:0.065837003 928:0.162512 951:0.095673002 964:0.094029002 
-0.1931748659704792 56:0.244179 166:0.19104899 202:0.201589 421:0.445768 458:0.222884 468:0.16234399 482:0.14793099 490:0.196055 554:0.131781 599:0.14197899 697:0.214788 741:0.23246001 759:0.186479 806:0.222884 836:0.16518401 857:0.17137 920:0.464919 948:0.182275 
-0.24052802986787039 73:0.223344 161:0.212625 169:0.174748 179:0.075957 202:0.184388 318:0.156748 389:0.174748 421:0.203866 431:0.19646101 458:0.40773201 482:0.27061599 490:0.179326 519:0.23716401 599:0.25972801 617:0.141449 666:0.190046 673:0.131611 686:0.223344 697:0.19646101 817:0.139314 915:0.139314 948:0.166722 964:0.14849199 973:0.184388 997:0.139314 
-0.093155752424735255 30:0.15051 82:0.15051 118:0.097774997 131:0.080502003 179:0.089091003 229:0.065415002 243:0.15051 248:0.111454 306:0.115216 328:0.108135 339:0.37408501 351:0.130982 370:0.090218 402:0.105167 428:0.130982 429:0.19555099 443:0.13908701 466:0.105167 493:0.13908701 531:0.13908701 547:0.15051 575:0.124695 586:0.088606998 590:0.088606998 659:0.111454 679:0.090218 686:0.26196301 695:0.108135 706:0.095688 745:0.115216 762:0.063426003 784:0.130982 805:0.068306997 817:0.081701003 827:0.130982 845:0.124695 855:0.082953997 857:0.091926001 859:0.115216 885:0.22290701 895:0.451529 915:0.163403 943:0.119559 
-0.17630903490633204 17:0.069817998 133:0.096812002 151:0.152863 229:0.076343 238:0.139531 239:0.152863 260:0.111673 264:0.134463 276:0.090078004 281:0.122736 293:0.140965 299:0.12620001 320:0.134463 330:0.151476 369:0.139531 373:0.152863 380:0.101632 390:0.155975 393:0.139531 402:0.122736 434:0.134463 435:0.152863 445:0.072559997 459:0.130072 481:0.099945001 490:0.122736 505:0.152863 580:0.12620001 625:0.139531 643:0.162322 651:0.162322 672:0.091319002 673:0.090078004 686:0.30572599 703:0.152863 708:0.162322 715:0.130072 752:0.139531 769:0.152863 781:0.152863 849:0.26014501 857:0.107282 928:0.175653 934:0.122736 942:0.30572599 999:0.098341003 
-0.20313256603597743 196:0.176425 198:0.19093999 244:0.19093999 248:0.34132901 304:0.119817 318:0.281524 323:0.149719 329:0.20056701 369:0.183075 398:0.176425 475:0.15692601 522:0.21297701 523:0.19093999 588:0.230212 614:0.170664 675:0.20056701 690:0.165583 759:0.153172 785:0.170664 805:0.104596 857:0.140762 858:0.183075 900:0.12327 902:0.21297701 927:0.186735 949:0.165583 969:0.170664 995:0.183075 
-0.18013852340386138 8:0.046702001 104:0.077353999 106:0.032178 133:0.061696999 145:0.111941 154:0.26676399 174:0.223883 179:0.066261001 187:0.097416997 206:0.050244998 224:0.103445 230:0.088921003 253:0.064769 281:0.078217998 293:0.044916999 294:0.103445 316:0.085690998 318:0.136739 323:0.145441 342:0.082892999 419:0.44776499 420:0.069721997 424:0.067098998 435:0.097416997 438:0.223883 472:0.111941 481:0.063694 508:0.097416997 522:0.206891 523:0.092742004 561:0.206891 586:0.065900996 596:0.092742004 651:0.103445 671:0.097416997 681:0.061696999 686:0.19483501 690:0.080425002 706:0.071167 745:0.085690998 762:0.047173001 775:0.103445 780:0.092742004 790:0.085690998 797:0.103445 806:0.088921003 808:0.064769 810:0.092742004 813:0.223883 819:0.065900996 827:0.097416997 845:0.092742004 857:0.136739 863:0.088921003 866:0.092742004 868:0.060764998 882:0.223883 927:0.090699002 929:0.071167 932:0.103445 947:0.085690998 951:0.065900996 
-0.18085100217611302 15:0.1428 36:0.091835998 38:0.061896998 40:0.082333997 84:0.091835998 104:0.034336001 107:0.082333997 148:0.099379003 173:0.091835998 179:0.029412 221:0.17297 229:0.043191999 247:0.06944 258:0.073591001 300:0.086484998 302:0.045102 330:0.057133999 338:0.071400002 349:0.12911899 357:0.17297 363:0.047230002 377:0.17297 384:0.091835998 388:0.099379003 389:0.135334 396:0.076075003 402:0.06944 445:0.041051999 453:0.078942001 456:0.063180998 468:0.115 477:0.198145 484:0.091835998 504:0.056545999 508:0.086484998 514:0.107892 520:0.18367299 553:0.259455 554:0.046675 558:0.082333997 569:0.076075003 574:0.049003001 575:0.082333997 584:0.060697 586:0.058506001 617:0.054772999 627:0.078942001 634:0.18367299 664:0.082333997 671:0.086484998 677:0.078942001 679:0.238276 686:0.259455 691:0.157885 694:0.157885 699:0.076075003 709:0.078942001 775:0.091835998 783:0.135334 808:0.057500001 814:0.091835998 827:0.086484998 848:0.048393 850:0.066047996 857:0.18209 858:0.078942001 870:0.157885 885:0.29436299 891:0.17297 909:0.051665001 927:0.040259998 949:0.071400002 960:0.071400002 973:0.071400002 975:0.078942001 999:0.055638 
-0.077162883908432067 50:0.213458 103:0.239981 179:0.092782997 248:0.232145 259:0.225233 423:0.249027 496:0.232145 499:0.232145 560:0.28970101 572:0.225233 590:0.184559 657:0.178376 681:0.172783 786:0.28970101 853:0.249027 857:0.19147 877:0.27282 893:0.313494 900:0.167677 
-0.16711820042302586 193:0.095941 195:0.117315 206:0.066288002 228:0.113054 229:0.12837601 231:0.095941 264:0.45221499 275:0.093892001 306:0.113054 309:0.074730001 320:0.45221499 358:0.12852401 370:0.088524997 393:0.117315 396:0.113054 431:0.113054 475:0.100559 482:0.155727 535:0.109362 572:0.106106 590:0.173889 620:0.12852401 624:0.16536701 629:0.12852401 666:0.109362 673:0.075736001 686:0.12852401 724:0.117315 738:0.117315 808:0.1709 825:0.122355 826:0.122355 848:0.071916997 857:0.27060199 896:0.27295399 909:0.076779 915:0.080168001 
-0.1621830142240864 155:0.143106 182:0.225096 237:0.208012 302:0.102157 311:0.225096 369:0.17880601 468:0.13023899 514:0.122189 535:0.166685 642:0.51693398 686:0.391781 749:0.208012 780:0.186488 807:0.208012 827:0.391781 850:0.149601 868:0.122189 
-0.12440032818006751 28:0.39195001 57:0.157351 106:0.129465 108:0.134984 122:0.19597501 166:0.15333401 167:0.166757 179:0.066648997 229:0.097874001 266:0.13257401 281:0.157351 286:0.161792 304:0.117074 420:0.14026 446:0.17238601 482:0.118727 526:0.208102 534:0.208102 564:0.19597501 657:0.128133 687:0.124116 720:0.292584 767:0.118727 780:0.18656901 789:0.19597501 837:0.178884 882:0.22519299 924:0.13029499 926:0.13029499 949:0.161792 973:0.161792 989:0.19597501 
-0.10592475605717169 18:0.21572401 47:0.173208 104:0.085647002 118:0.161034 179:0.073365003 190:0.17809699 244:0.20536999 302:0.112501 306:0.189758 309:0.125433 328:0.17809699 330:0.071255997 473:0.125433 497:0.145934 546:0.21572401 558:0.20536999 599:0.125433 601:0.247887 686:0.21572401 687:0.136623 721:0.17809699 790:0.189758 808:0.143426 857:0.30279899 882:0.247887 909:0.12887201 915:0.134561 927:0.100424 971:0.35619399 991:0.168786 
-0.11786962880390528 15:0.069367997 106:0.083260998 179:0.028574999 184:0.076695003 219:0.193101 228:0.073909998 235:0.061383002 248:0.071496002 276:0.049513001 278:0.42011699 290:0.079990998 299:0.069367997 306:0.221729 319:0.079990998 323:0.062721997 328:0.138735 330:0.083260998 333:0.089222997 359:0.061383002 423:0.076695003 429:0.12544399 444:0.037668001 445:0.079767004 448:0.084022999 468:0.111727 480:0.073909998 483:0.142993 497:0.056841001 500:0.089222997 501:0.050903998 503:0.079990998 542:0.064167999 546:0.084022999 558:0.159981 574:0.095216997 581:0.214489 583:0.079990998 590:0.056841001 631:0.079990998 636:0.096550003 652:0.071496002 677:0.076695003 686:0.25207001 726:0.084022999 748:0.076695003 777:0.109873 784:0.084022999 785:0.071496002 788:0.079990998 800:0.073909998 815:0.076695003 842:0.089222997 846:0.076695003 853:0.076695003 855:0.053213999 856:0.23587701 857:0.058968998 882:0.28965101 883:0.084022999 884:0.076695003 916:0.24552999 920:0.079990998 925:0.084022999 949:0.138735 960:0.138735 967:0.071496002 971:0.069367997 
-0.11661829910387969 30:0.174758 46:0.304167 47:0.12211 104:0.120761 123:0.161494 186:0.144784 193:0.113528 207:0.161494 283:0.161494 293:0.070123002 309:0.088428997 349:0.113528 351:0.15208399 377:0.15208399 417:0.144784 461:0.15208399 477:0.116146 497:0.102882 592:0.13882001 599:0.088428997 654:0.15208399 664:0.144784 686:0.15208399 695:0.12555701 699:0.13377801 703:0.15208399 736:0.15208399 739:0.12555701 746:0.174758 748:0.13882001 765:0.322988 767:0.092136003 784:0.15208399 857:0.213471 882:0.349516 885:0.129409 915:0.094864003 986:0.161494 
-0.11399450662095359 93:0.115717 106:0.046298001 108:0.096542999 131:0.086145997 134:0.13343801 146:0.127941 170:0.084916003 222:0.148838 229:0.070001997 234:0.127941 241:0.127941 253:0.093189999 273:0.148838 285:0.127941 294:0.297676 302:0.073096 306:0.123293 334:0.209261 368:0.140165 395:0.123293 429:0.104631 447:0.161062 586:0.09482 600:0.161062 631:0.13343801 651:0.148838 658:0.140165 673:0.082595997 678:0.107044 681:0.088770002 686:0.140165 707:0.123293 732:0.36987999 748:0.127941 760:0.24658699 838:0.161062 859:0.123293 882:0.161062 917:0.119268 924:0.093189999 927:0.13049901 934:0.11254 936:0.161062 939:0.161062 973:0.231434 
-0.080817488399316115 14:0.25692001 16:0.27281699 179:0.087375 293:0.118461 378:0.25692001 387:0.196209 390:0.13107499 393:0.46902701 501:0.15564901 530:0.20101801 574:0.145574 685:0.29522401 692:0.206284 762:0.124409 774:0.244589 823:0.27281699 857:0.18031099 868:0.160257 930:0.173803 934:0.206284 
-0.030100763053784008 103:0.228065 117:0.20817401 304:0.15488701 309:0.150755 420:0.371124 519:0.275316 560:0.275316 588:0.148798 720:0.193542 732:0.45612901 760:0.228065 838:0.29792801 909:0.15488701 927:0.120696 966:0.275316 973:0.21404999 
-0.082801493852772731 15:0.222477 180:0.28615499 253:0.35833201 330:0.089011997 369:0.245978 390:0.137483 501:0.163259 523:0.25654599 592:0.245978 677:0.245978 681:0.17066801 690:0.222477 857:0.189127 909:0.16098499 951:0.54689902 
-0.10745275876881571 24:0.120575 63:0.093671001 104:0.119243 106:0.049603 135:0.13707501 193:0.1121 202:0.123978 206:0.077453002 215:0.13209599 276:0.088491999 345:0.159464 360:0.150171 379:0.159464 402:0.120575 419:0.345121 440:0.120575 473:0.17463499 482:0.18195599 486:0.13209599 528:0.14296401 578:0.13209599 583:0.14296401 678:0.114686 686:0.150171 697:0.13209599 711:0.159464 741:0.14296401 745:0.264191 797:0.159464 820:0.150171 827:0.30034301 836:0.30476701 857:0.105393 878:0.123978 882:0.17256001 924:0.099841997 927:0.069908001 948:0.1121 985:0.109706 990:0.159464 
-0.083857566985532553 178:0.187594 227:0.20300101 235:0.12906 299:0.145849 309:0.102721 347:0.176663 414:0.176663 552:0.176663 613:0.187594 628:0.117455 788:0.168184 857:0.123985 879:0.60900402 887:0.105537 909:0.105537 915:0.110196 955:0.20300101 960:0.43754601 967:0.150324 983:0.168184 
-0.05125663234760254 8:0.069868997 17:0.066565998 22:0.108794 63:0.090908997 106:0.048140001 108:0.100385 111:0.145743 200:0.248028 221:0.145743 242:0.154761 245:0.145743 259:0.24064399 266:0.098592997 317:0.145743 330:0.048140001 350:0.167472 397:0.124014 402:0.117019 411:0.13874801 416:0.102285 445:0.069179997 449:0.104309 469:0.30952299 514:0.090908997 517:0.098592997 519:0.154761 554:0.15731201 572:0.24064399 624:0.093760997 651:0.154761 657:0.095289998 659:0.124014 662:0.13874801 664:0.13874801 673:0.085882999 678:0.111304 763:0.145743 772:0.102285 793:0.13874801 808:0.096897997 827:0.291486 835:0.154761 843:0.154761 848:0.081551999 857:0.102285 887:0.087066002 923:0.12819999 926:0.096897997 972:0.145743 973:0.120322 
-0.04410631035567858 132:0.29666299 156:0.27937499 210:0.27937499 330:0.09228 387:0.213358 416:0.196071 428:0.27937499 430:0.265966 445:0.132612 452:0.199949 513:0.230646 563:0.32102701 572:0.46129099 613:0.29666299 
-0.046154363006303205 78:0.308357 131:0.17847501 179:0.098757997 306:0.25543499 349:0.21676999 396:0.25543499 445:0.137839 452:0.20783199 517:0.196444 563:0.33368301 603:0.33368301 609:0.290389 664:0.27645099 798:0.27645099 909:0.173476 932:0.308357 
-0.084864920086039575 15:0.067790002 22:0.061294999 23:0.082111999 108:0.056557 115:0.059985999 116:0.087192997 144:0.061294999 146:0.074951001 179:0.027925 196:0.072228 214:0.072228 222:0.087192997 224:0.087192997 230:0.074951001 235:0.059985999 247:0.065929003 249:0.62536699 255:0.059985999 262:0.052825 302:0.128465 328:0.067790002 330:0.027122 339:0.078171 354:0.149901 370:0.056557 397:0.069870003 409:0.094354004 430:0.078171 444:0.036811002 445:0.038975999 449:0.117535 468:0.054593001 483:0.069870003 500:0.17438599 502:0.087192997 532:0.087192997 552:0.082111999 584:0.057627998 596:0.078171 617:0.052003 659:0.13974001 664:0.078171 671:0.082111999 686:0.246336 696:0.149901 703:0.082111999 716:0.074951001 719:0.156342 721:0.067790002 726:0.082111999 739:0.067790002 760:0.072228 779:0.087192997 784:0.164224 805:0.128465 806:0.224852 817:0.051217999 857:0.115256 874:0.082111999 877:0.082111999 880:0.078171 882:0.094354004 897:0.062709004 900:0.050466999 915:0.051217999 927:0.038224999 943:0.074951001 945:0.087192997 954:0.067790002 975:0.074951001 976:0.087192997 
-0.071918806570683724 22:0.099436 179:0.045302 238:0.121589 260:0.29193699 262:0.085694999 266:0.090112001 299:0.109971 307:0.282897 328:0.109971 330:0.087998003 370:0.091748998 384:0.14144801 402:0.106953 405:0.153065 413:0.21390501 423:0.121589 430:0.126812 495:0.121589 496:0.113346 576:0.121589 581:0.113346 651:0.14144801 657:0.087093003 663:0.126812 686:0.13320599 713:0.091748998 717:0.093486004 762:0.129005 769:0.13320599 791:0.153065 800:0.23434401 857:0.093486004 894:0.13320599 926:0.088563003 927:0.062010001 969:0.56673098 995:0.121589 
-0.055388453043293435 147:0.16760799 160:0.192597 276:0.098766997 286:0.138373 326:0.50282502 336:0.192597 340:0.192597 373:0.16760799 377:0.16760799 451:0.159564 501:0.20308299 642:0.29486701 658:0.16760799 734:0.13457499 769:0.16760799 781:0.16760799 817:0.104548 857:0.23526201 882:0.385194 932:0.17797901 969:0.142619 
-0.03411832242092222 6:0.167468 75:0.33493599 118:0.108792 155:0.106469 198:0.13874499 241:0.133029 302:0.076003999 313:0.128197 328:0.120319 330:0.096277997 377:0.14574 420:0.104306 435:0.14574 445:0.069178998 473:0.16948099 514:0.181814 568:0.35104901 583:0.13874499 617:0.092299998 646:0.20861199 650:0.133029 662:0.13874499 671:0.14574 681:0.092299998 686:0.29147899 698:0.14574 717:0.102283 721:0.120319 725:0.167468 749:0.15475801 790:0.128197 857:0.102283 865:0.13874499 882:0.167468 915:0.181814 925:0.14574 927:0.067844003 941:0.167468 947:0.128197 948:0.108792 
-0.058041279180569866 24:0.114437 63:0.088903002 104:0.056586001 139:0.163776 188:0.12537099 224:0.151346 286:0.117667 329:0.142527 372:0.130097 383:0.121277 389:0.111515 396:0.12537099 399:0.135686 423:0.130097 424:0.098168999 440:0.114437 444:0.063895002 451:0.135686 514:0.088903002 549:0.104122 588:0.081796996 593:0.130097 643:0.151346 644:0.094760001 654:0.142527 664:0.135686 679:0.098168999 683:0.151346 686:0.28505301 697:0.12537099 705:0.151346 745:0.25074199 760:0.12537099 761:0.151346 777:0.093186997 805:0.148656 807:0.151346 850:0.108847 855:0.090264998 857:0.100028 870:0.130097 882:0.491328 912:0.117667 934:0.114437 
-0.053337581070631294 131:0.156896 169:0.199733 267:0.233015 293:0.117704 364:0.22455101 390:0.130238 418:0.53747803 665:0.19056 695:0.210752 796:0.22455101 819:0.172692 827:0.25527799 876:0.271074 882:0.293338 887:0.152501 916:0.186491 934:0.20496599 997:0.159233 
-0.063546834809508373 60:0.148748 87:0.17954201 106:0.206439 171:0.29749501 266:0.21139801 276:0.092072003 284:0.165915 290:0.148748 301:0.17954201 309:0.090850003 328:0.128994 342:0.132952 351:0.156247 357:0.156247 359:0.114145 363:0.085327998 377:0.156247 452:0.111826 475:0.12225 497:0.105699 514:0.097461 537:0.165915 546:0.156247 591:0.165915 599:0.090850003 657:0.102158 664:0.148748 686:0.156247 688:0.083351001 720:0.116635 721:0.25798699 723:0.165915 736:0.156247 739:0.128994 780:0.148748 789:0.156247 808:0.207763 815:0.14262 882:0.17954201 897:0.119325 926:0.103882 932:0.165915 
-0.058758195708222632 59:0.184075 104:0.063600004 110:0.36815 170:0.097048998 190:0.13225099 222:0.170104 243:0.184075 299:0.13225099 335:0.160192 414:0.160192 424:0.110337 425:0.170104 454:0.34020901 485:0.14091 575:0.152503 684:0.160192 686:0.160192 762:0.077569999 777:0.104737 788:0.152503 857:0.112426 916:0.234054 960:0.52900201 967:0.136309 999:0.103056 
-0.039934674502712895 141:0.595833 170:0.157069 292:0.27530599 349:0.193535 376:0.25926301 414:0.25926301 494:0.236652 599:0.150749 688:0.13830499 811:0.27530599 829:0.27530599 875:0.185555 882:0.297916 
-0.033853161417036377 17:0.069067001 71:0.160575 144:0.112882 224:0.48172599 247:0.36424601 272:0.115485 294:0.160575 302:0.078860998 306:0.13301601 370:0.104156 372:0.13802999 389:0.23662999 415:0.17376301 423:0.27605999 429:0.112882 430:0.28792101 549:0.22094201 586:0.102297 617:0.095770001 648:0.151218 664:0.14396 673:0.089109004 695:0.124842 701:0.160575 777:0.098870002 784:0.151218 805:0.078860998 836:0.102297 857:0.106128 968:0.13802999 
-0.038257679072472114 17:0.093305998 155:0.149241 193:0.15249801 206:0.105365 245:0.204289 276:0.120382 323:0.15249801 349:0.15249801 366:0.143374 444:0.091582999 473:0.118784 480:0.179699 514:0.127428 571:0.21693 594:0.16865601 599:0.356352 656:0.179699 681:0.129381 727:0.408577 730:0.204289 804:0.14071 853:0.186472 857:0.43012199 915:0.127428 937:0.15601499 
-0.045144759869788248 179:0.097254999 307:0.303666 421:0.261031 440:0.22961 469:0.303666 499:0.24333601 514:0.178378 554:0.308671 659:0.24333601 664:0.54449099 805:0.14913499 826:0.27224499 909:0.170837 927:0.13312501 
-0.016025437463195957 1:0.086115003 17:0.048985999 23:0.214506 28:0.107253 45:0.306315 121:0.107253 139:0.123243 144:0.080062002 170:0.064976998 227:0.123243 245:0.214506 249:0.102105 253:0.071308002 276:0.063201003 281:0.086115003 290:0.20421 293:0.049451999 302:0.111865 306:0.188686 328:0.088545002 330:0.035427 337:0.102105 363:0.058572002 374:0.113889 377:0.107253 402:0.086115003 423:0.19579799 449:0.076761 473:0.062362 526:0.113889 567:0.227779 587:0.113889 590:0.14511 599:0.062362 610:0.088545002 646:0.076761 682:0.123243 686:0.107253 696:0.097898997 719:0.20421 741:0.102105 748:0.097898997 760:0.094342999 785:0.091263004 793:0.102105 797:0.113889 805:0.055932999 827:0.32175899 835:0.113889 836:0.14511 841:0.123243 856:0.075272001 857:0.150544 873:0.227779 927:0.049927998 956:0.113889 998:0.107253 
-0.011816362268496155 4:0.129475 8:0.058453001 47:0.097898997 60:0.116078 106:0.161099 188:0.107253 225:0.140109 278:0.12193 290:0.116078 293:0.11244 296:0.107253 297:0.107253 298:0.116078 305:0.111296 306:0.214507 323:0.273056 331:0.12193 382:0.111296 390:0.062206 396:0.107253 430:0.116078 438:0.140109 442:0.111296 444:0.218646 456:0.089074999 469:0.129475 471:0.129475 498:0.100663 501:0.073868997 502:0.129475 506:0.107253 521:0.129475 539:0.095399998 574:0.069086999 581:0.103751 592:0.111296 605:0.129475 654:0.12193 664:0.23215599 673:0.071850002 691:0.111296 732:0.107253 742:0.12193 748:0.111296 767:0.073868997 772:0.085573003 785:0.103751 807:0.129475 857:0.25671899 882:0.140109 887:0.072839998 903:0.129475 918:0.12193 929:0.089074999 941:0.28021699 948:0.091018997 972:0.12193 
-0.01866913045583388 17:0.043366 93:0.078387 106:0.062724002 107:0.090391003 131:0.058355998 134:0.090391003 149:0.094948001 166:0.074288003 179:0.064580999 227:0.109103 229:0.047419 245:0.284843 248:0.080792002 281:0.076234996 302:0.099031001 309:0.055206999 330:0.062724002 334:0.141753 349:0.070877001 363:0.15555599 375:0.50411397 380:0.063127004 424:0.065398 429:0.070877001 445:0.090138003 446:0.083518997 509:0.100823 514:0.059225 517:0.321154 552:0.094948001 572:0.078387 618:0.109103 624:0.061083 651:0.100823 655:0.086667001 681:0.060132999 686:0.284843 687:0.060132999 707:0.083518997 721:0.078387 736:0.094948001 738:0.086667001 762:0.045977 767:0.057521999 775:0.100823 783:0.074288003 789:0.094948001 817:0.059225 838:0.109103 859:0.25055701 867:0.109103 882:0.109103 915:0.059225 916:0.069362998 927:0.088399999 932:0.100823 933:0.080792002 947:0.083518997 958:0.090391003 970:0.090391003 975:0.086667001 998:0.094948001 1000:0.072511002 
-0.030780946795485414 17:0.081591003 80:0.163059 229:0.089216001 251:0.35727599 267:0.163059 274:0.163059 291:0.152005 296:0.314271 304:0.106717 318:0.12537199 342:0.152005 346:0.15713599 417:0.170064 418:0.37611499 432:0.18969201 444:0.080084004 482:0.108224 503:0.170064 679:0.36912701 713:0.123042 749:0.18969201 777:0.116798 805:0.093160003 808:0.118769 900:0.109792 930:0.120846 932:0.18969201 938:0.170064 997:0.111428 
-0.014199193640463195 8:0.106615 106:0.073458999 139:0.25554901 170:0.13473199 186:0.21171901 270:0.22239301 306:0.19562399 363:0.121451 406:0.236154 435:0.22239301 581:0.189236 603:0.25554901 620:0.22239301 681:0.56338602 691:0.202998 713:0.15318 836:0.150446 856:0.15607999 916:0.162467 943:0.202998 
-0.0095161137711426563 63:0.115839 100:0.21339799 202:0.153318 229:0.092748001 293:0.085628003 353:0.176797 458:0.169514 482:0.112509 554:0.100226 599:0.107982 692:0.14911 697:0.163357 701:0.39440399 769:0.37142101 785:0.158023 797:0.197202 814:0.197202 827:0.18571 882:0.42679599 911:0.37142101 927:0.086452 
-0.010394059501801341 8:0.084509999 94:0.109958 106:0.174683 108:0.12142 117:0.14153901 184:0.160908 193:0.13159101 196:0.155063 266:0.23850501 272:0.134626 342:0.15000001 343:0.160908 351:0.176282 501:0.106797 503:0.167821 521:0.18719 546:0.35256499 574:0.099884003 599:0.1025 657:0.115258 679:0.12142 688:0.094039001 762:0.085362002 806:0.160908 811:0.18719 827:0.176282 828:0.48272499 857:0.123718 900:0.108344 915:0.109958 926:0.117202 949:0.14553399 991:0.137926 997:0.109958 
-0.011771111777812003 31:0.239456 59:0.46921399 110:0.156405 159:0.136112 167:0.115819 179:0.092579998 210:0.136112 220:0.112371 224:0.14453401 231:0.101605 291:0.115819 299:0.112371 335:0.136112 349:0.101605 363:0.074331999 425:0.14453401 435:0.136112 441:0.119728 510:0.156405 531:0.14453401 569:0.119728 572:0.112371 587:0.14453401 664:0.25915799 672:0.081312001 681:0.086203001 687:0.172405 718:0.156405 759:0.103948 777:0.177986 788:0.12957899 812:0.156405 857:0.095526002 867:0.156405 879:0.156405 882:0.156405 892:0.14453401 900:0.083655 917:0.115819 948:0.101605 951:0.092078 960:0.112371 967:0.115819 
-0.0078761996324942414 8:0.094881997 31:0.174095 45:0.188419 249:0.188419 302:0.103215 309:0.11508 369:0.180658 389:0.154854 471:0.21016499 474:0.180658 485:0.174095 509:0.21016499 514:0.123454 581:0.168411 591:0.21016499 681:0.25069299 719:0.188419 797:0.21016499 827:0.39583701 857:0.13890301 882:0.22742601 904:0.40896699 975:0.180658 
-0.0063397859440567014 9:0.193872 19:0.209795 179:0.062091999 229:0.182364 242:0.193872 244:0.173812 247:0.14659201 293:0.084182002 311:0.209795 330:0.060306001 429:0.136289 435:0.182575 453:0.16665199 456:0.133379 465:0.16665199 477:0.278864 481:0.358116 523:0.173812 537:0.193872 594:0.15073 686:0.36515 762:0.088408999 785:0.15535501 786:0.193872 882:0.209795 909:0.21813799 927:0.084991999 999:0.117456 
-0.0025315901220918963 68:0.093198001 91:0.079302996 113:0.098963998 115:0.204254 156:0.093198001 160:0.107092 179:0.063391 234:0.085069999 257:0.098963998 288:0.093198001 293:0.042971998 313:0.081978999 316:0.245938 321:0.098963998 330:0.092352003 336:0.107092 385:0.093198001 390:0.047547001 398:0.081978999 399:0.088724002 423:0.170139 444:0.125342 445:0.044238001 459:0.079302996 477:0.14235 479:0.177449 497:0.063046999 499:0.15860499 506:0.081978999 518:0.098963998 538:0.088724002 543:0.093198001 554:0.050298002 606:0.186395 609:0.093198001 617:0.118048 623:0.177449 632:0.107092 634:0.19792899 643:0.098963998 650:0.085069999 680:0.093198001 681:0.059023999 686:0.27959299 687:0.059023999 697:0.081978999 721:0.076941997 755:0.088724002 758:0.098963998 762:0.045129001 783:0.072919004 817:0.058132999 849:0.079302996 855:0.059023999 882:0.32127699 900:0.05728 904:0.38515601 909:0.055675 922:0.076941997 927:0.043384999 928:0.107092 981:0.107092 
-0.0022382555163299629 1:0.091043003 8:0.054359 17:0.051789999 68:0.11339 73:0.11339 129:0.398967 193:0.084643997 206:0.058483001 248:0.096484996 249:0.107948 276:0.066817999 302:0.059133001 323:0.084643997 336:0.13029601 356:0.078101002 387:0.086595997 433:0.240814 485:0.099742003 497:0.076706998 513:0.187225 514:0.070729002 554:0.30597901 569:0.099742003 572:0.187225 584:0.079580002 592:0.103501 596:0.107948 628:0.075387999 629:0.11339 634:0.120407 664:0.32384399 672:0.067737997 687:0.071813002 688:0.120977 748:0.103501 805:0.059133001 827:0.11339 842:0.120407 853:0.103501 854:0.120407 855:0.071813002 857:0.159159 863:0.103501 882:0.26059201 904:0.234303 923:0.099742003 932:0.120407 975:0.103501 977:0.120407 
-0.0019295561207989774 45:0.201608 220:0.174834 229:0.105764 258:0.180199 302:0.11044 316:0.18628199 328:0.174834 332:0.224877 416:0.148626 463:0.224877 468:0.140798 502:0.224877 514:0.13209599 554:0.114292 574:0.119993 628:0.140798 641:0.154709 686:0.21177299 719:0.201608 758:0.224877 779:0.224877 787:0.224877 805:0.11044 827:0.423545 882:0.24334601 975:0.193303 
