SVM-light Version V3.50
0 # kernel type
1 # kernel parameter -d 
1 # kernel parameter -g 
1 # kernel parameter -s 
0 # kernel parameter -r 
EmptyParam # kernel parameter -u 
1000 # highest feature index 
418 # number of training documents 
87 # number of support vectors plus 1 
1.0456097 # threshold b 
-0.030663265796217781 15:0.101121 17:0.055943999 63:0.152803 84:0.130064 104:0.048629001 105:0.130064 169:0.095834002 221:0.122485 230:0.111803 299:0.101121 302:0.063876003 330:0.121374 389:0.57500499 396:0.107742 402:0.098344997 423:0.22360601 425:0.130064 430:0.116606 481:0.080084004 499:0.104224 523:0.116606 549:0.44740301 554:0.066104002 575:0.116606 588:0.070294999 646:0.087663002 671:0.122485 673:0.072177 695:0.101121 726:0.24496999 748:0.111803 754:0.130064 767:0.074205004 817:0.076402001 857:0.085963003 870:0.111803 885:0.104224 909:0.073172003 
-0.019760077445999141 8:0.056508999 22:0.087990999 33:0.117874 47:0.094642997 60:0.112216 81:0.13544799 94:0.073524997 106:0.038934998 179:0.040088002 197:0.084362999 229:0.058869001 245:0.117874 262:0.075832002 268:0.224433 293:0.05435 301:0.13544799 302:0.061471999 309:0.068538003 317:0.117874 330:0.038934998 341:0.112216 356:0.081188999 360:0.117874 390:0.060137 397:0.2006 445:0.055950999 449:0.084362999 513:0.097314 515:0.125168 517:0.079740003 525:0.117874 526:0.375503 528:0.112216 546:0.117874 554:0.063615002 574:0.066789001 599:0.068538003 603:0.13544799 623:0.112216 624:0.075832002 629:0.117874 631:0.112216 641:0.086112 644:0.078368999 647:0.112216 652:0.1003 657:0.077068999 659:0.2006 664:0.112216 678:0.090020001 679:0.162378 705:0.125168 743:0.125168 790:0.103686 818:0.13544799 827:0.23574799 857:0.082726002 863:0.107594 882:0.13544799 897:0.090020001 905:0.112216 909:0.21125101 910:0.125168 923:0.103686 926:0.078368999 927:0.109745 934:0.094642997 948:0.087990999 950:0.125168 
-0.10594319361244067 15:0.196987 63:0.14883301 94:0.14883301 106:0.078814 206:0.123065 255:0.174311 256:0.27417901 274:0.217796 343:0.217796 383:0.203032 396:0.209885 420:0.17077 423:0.217796 444:0.106967 499:0.203032 558:0.227153 586:0.322826 599:0.13873699 627:0.217796 678:0.18222199 855:0.151114 870:0.217796 910:0.25336999 938:0.227153 949:0.196987 
-0.030833895370338253 15:0.067790002 22:0.061294999 23:0.082111999 108:0.056557 115:0.059985999 116:0.087192997 144:0.061294999 146:0.074951001 179:0.027925 196:0.072228 214:0.072228 222:0.087192997 224:0.087192997 230:0.074951001 235:0.059985999 247:0.065929003 249:0.62536699 255:0.059985999 262:0.052825 302:0.128465 328:0.067790002 330:0.027122 339:0.078171 354:0.149901 370:0.056557 397:0.069870003 409:0.094354004 430:0.078171 444:0.036811002 445:0.038975999 449:0.117535 468:0.054593001 483:0.069870003 500:0.17438599 502:0.087192997 532:0.087192997 552:0.082111999 584:0.057627998 596:0.078171 617:0.052003 659:0.13974001 664:0.078171 671:0.082111999 686:0.246336 696:0.149901 703:0.082111999 716:0.074951001 719:0.156342 721:0.067790002 726:0.082111999 739:0.067790002 760:0.072228 779:0.087192997 784:0.164224 805:0.128465 806:0.224852 817:0.051217999 857:0.115256 874:0.082111999 877:0.082111999 880:0.078171 882:0.094354004 897:0.062709004 900:0.050466999 915:0.051217999 927:0.038224999 943:0.074951001 945:0.087192997 954:0.067790002 975:0.074951001 976:0.087192997 
-0.035909362054357213 56:0.264936 67:0.20233101 102:0.264936 104:0.21037 170:0.160505 171:0.25222 286:0.218724 304:0.15827 316:0.233046 352:0.264936 420:0.189615 456:0.193546 485:0.233046 504:0.17322101 546:0.264936 599:0.154047 658:0.264936 688:0.141331 797:0.28132901 836:0.179225 857:0.185937 
0.99999993212504223 22:0.157015 38:0.075271003 43:0.12085 47:0.084443003 63:0.065600999 91:0.089489996 97:0.12085 103:0.092510998 106:0.104216 115:0.076830998 187:0.10517 214:0.092510998 218:0.092510998 222:0.111678 231:0.078507997 257:0.111678 262:0.067658998 266:0.071145996 290:0.100122 297:0.092510998 302:0.16453999 309:0.061151002 324:0.12085 330:0.034738999 342:0.089489996 381:0.12085 396:0.092510998 423:0.095997997 429:0.078507997 444:0.094296001 453:0.095997997 465:0.095997997 475:0.082286999 486:0.092510998 501:0.063715003 518:0.111678 544:0.111678 594:0.086825997 608:0.100122 617:0.066606998 619:0.111678 623:0.100122 646:0.15054099 657:0.13752601 671:0.10517 678:0.080317996 681:0.066606998 686:0.10517 687:0.066606998 690:0.086825997 717:0.073811002 724:0.095997997 725:0.12085 767:0.063715003 772:0.14762101 790:0.27753299 797:0.111678 813:0.12085 823:0.111678 828:0.47999099 848:0.058848999 857:0.073811002 869:0.12085 870:0.095997997 882:0.12085 925:0.10517 926:0.139846 934:0.084443003 940:0.100122 975:0.095997997 985:0.076830998 
0.99999993212504223 3:0.22693001 60:0.203449 62:0.18798301 94:0.133302 106:0.141178 179:0.072678998 196:0.18798301 218:0.18798301 302:0.111448 308:0.18798301 390:0.109029 397:0.18184499 530:0.167207 686:0.427412 717:0.149983 721:0.176431 739:0.176431 767:0.12946901 772:0.149983 790:0.375965 828:0.39013699 909:0.127666 930:0.14456899 
0.99999993212504223 13:0.069871999 17:0.027772 20:0.057888001 38:0.043519001 46:0.060805999 67:0.232187 79:0.060805999 84:0.12913699 97:0.20961501 103:0.106974 104:0.144848 105:0.064568996 115:0.088843003 118:0.045391001 137:0.069871999 138:0.069871999 164:0.069871999 179:0.041359 196:0.053486999 206:0.031362001 229:0.030368 231:0.045391001 235:0.044420999 236:0.111006 243:0.069871999 254:0.12913699 265:0.051739998 282:0.069871999 286:0.2008 293:0.028037 294:0.064568996 300:0.121612 301:0.069871999 302:0.095132001 304:0.07265 319:0.057888001 323:0.045391001 330:0.040169999 346:0.053486999 356:0.041882001 363:0.033206999 368:0.060805999 373:0.060805999 390:0.031021999 393:0.111006 412:0.057888001 424:0.041882001 428:0.060805999 430:0.057888001 440:0.097644001 443:0.064568996 450:0.057888001 452:0.043519001 468:0.040426999 473:0.070712 475:0.047575001 480:0.053486999 501:0.036837999 504:0.159026 508:0.121612 509:0.19370601 527:0.0502 530:0.047575001 533:0.069871999 541:0.064568996 546:0.060805999 554:0.032816 574:0.068907 588:0.034897 590:0.041134 617:0.038509998 627:0.055503 628:0.040426999 661:0.069871999 664:0.057888001 673:0.035831001 686:0.182418 699:0.16046099 705:0.064568996 717:0.085349999 736:0.060805999 748:0.055503 762:0.058889002 786:0.12913699 796:0.106974 797:0.12913699 798:0.057888001 815:0.055503 817:0.075856999 827:0.060805999 828:0.444024 857:0.25604901 868:0.075856999 870:0.166509 878:0.0502 885:0.051739998 896:0.064568996 900:0.037372001 907:0.060805999 915:0.037928998 920:0.057888001 923:0.053486999 926:0.040426999 927:0.056612998 929:0.044420999 933:0.051739998 956:0.064568996 990:0.064568996 
0.99999993212504223 8:0.084509999 94:0.109958 106:0.174683 108:0.12142 117:0.14153901 184:0.160908 193:0.13159101 196:0.155063 266:0.23850501 272:0.134626 342:0.15000001 343:0.160908 351:0.176282 501:0.106797 503:0.167821 521:0.18719 546:0.35256499 574:0.099884003 599:0.1025 657:0.115258 679:0.12142 688:0.094039001 762:0.085362002 806:0.160908 811:0.18719 827:0.176282 828:0.48272499 857:0.123718 900:0.108344 915:0.109958 926:0.117202 949:0.14553399 991:0.137926 997:0.109958 
0.99999993212504223 4:0.134799 94:0.079182997 106:0.041931 117:0.101925 146:0.115873 149:0.12694401 169:0.099322997 200:0.108018 206:0.065472998 226:0.26959801 281:0.101925 302:0.132403 313:0.111664 330:0.041931 356:0.087436996 366:0.089092001 381:0.29174 400:0.120851 402:0.101925 411:0.120851 423:0.231746 433:0.134799 444:0.056908999 453:0.115873 475:0.099322997 481:0.165998 485:0.111664 497:0.085876003 501:0.076906003 504:0.082998998 521:0.134799 561:0.134799 574:0.071928002 607:0.120851 613:0.134799 646:0.090853997 666:0.108018 686:0.12694401 687:0.080397002 704:0.134799 747:0.115873 763:0.12694401 828:0.231746 874:0.12694401 887:0.075834997 890:0.134799 941:0.14587 975:0.115873 987:0.43761 991:0.099322997 
-0.3843027813789181 22:0.054839998 25:0.084417999 62:0.129244 81:0.084417999 94:0.18329801 96:0.084417999 106:0.121331 156:0.14692999 172:0.058986001 184:0.067057997 193:0.054839998 206:0.037891001 220:0.060651001 229:0.03669 230:0.067057997 253:0.097686999 259:0.121302 262:0.094524004 266:0.049697999 272:0.056104999 290:0.069939002 293:0.067746997 302:0.191561 308:0.193866 316:0.064622 328:0.060651001 330:0.048532002 331:0.073464997 343:0.067057997 351:0.073464997 356:0.151803 373:0.073464997 377:0.073464997 390:0.112441 396:0.064622 397:0.062512003 400:0.139878 411:0.069939002 423:0.13411599 434:0.193866 439:0.156021 441:0.064622 444:0.032933999 445:0.069743 465:0.067057997 466:0.117972 481:0.144099 497:0.049697999 504:0.048032999 517:0.149094 522:0.078010999 524:0.084417999 541:0.078010999 546:0.073464997 551:0.084417999 599:0.042716 657:0.048032999 664:0.20981599 666:0.25004801 677:0.067057997 679:0.101202 680:0.073464997 681:0.093053997 688:0.117571 692:0.058986001 713:0.050601002 717:0.103118 762:0.035574 796:0.064622 800:0.258488 804:0.101202 805:0.038311999 823:0.078010999 842:0.078010999 849:0.062512003 857:0.30935499 863:0.067057997 868:0.045825001 870:0.20117299 872:0.073464997 909:0.043887001 926:0.048843998 927:0.136797 930:0.049697999 949:0.060651001 951:0.049697999 997:0.045825001 
-0.19540521578629577 63:0.092013001 69:0.15664101 94:0.184027 106:0.048725002 108:0.101604 115:0.107765 193:0.110116 209:0.125521 266:0.099790998 296:0.129757 304:0.176247 309:0.171544 337:0.140433 373:0.147513 380:0.098075002 434:0.25951499 444:0.066129997 464:0.15664101 501:0.178735 543:0.147513 574:0.16716599 581:0.125521 627:0.134648 657:0.096447997 673:0.086925998 678:0.112656 686:0.44253999 688:0.078691997 733:0.125521 808:0.098075002 810:0.140433 827:0.147513 868:0.092013001 871:0.389272 899:0.15664101 915:0.092013001 926:0.098075002 964:0.098075002 985:0.107765 997:0.092013001 
-0.11880399578450646 3:0.126415 5:0.098283 17:0.054373998 104:0.047265001 193:0.088867001 200:0.101299 231:0.088867001 240:0.126415 248:0.202599 253:0.079149999 294:0.126415 297:0.104719 334:0.088867001 361:0.119048 383:0.202599 396:0.104719 397:0.101299 443:0.126415 452:0.085202999 473:0.069220997 474:0.108666 509:0.126415 514:0.074258 540:0.136797 555:0.136797 579:0.108666 590:0.080534004 617:0.075396001 627:0.108666 637:0.126415 664:0.113334 681:0.075396001 686:0.35714501 709:0.108666 741:0.113334 748:0.108666 780:0.113334 790:0.104719 796:0.104719 797:0.379244 811:0.126415 817:0.074258 826:0.113334 827:0.119048 850:0.090916999 857:0.167101 870:0.108666 882:0.27359399 900:0.073168002 920:0.113334 927:0.055419002 931:0.113334 979:0.226669 
-0.053670921498430807 17:0.084037997 51:0.195381 67:0.28103399 104:0.1461 115:0.134417 118:0.13734899 125:0.16184799 229:0.091891997 236:0.33589801 248:0.156564 255:0.134417 276:0.108424 355:0.140517 363:0.200964 390:0.093870997 394:0.195381 481:0.120301 501:0.11147 508:0.18399601 509:0.195381 533:0.211428 588:0.105596 681:0.116529 686:0.18399601 688:0.098153003 736:0.18399601 805:0.095954001 827:0.18399601 848:0.102956 857:0.25826401 930:0.124471 933:0.156564 951:0.124471 958:0.175165 964:0.122331 975:0.16794901 997:0.11477 
-0.22560528037920557 56:0.206476 60:0.196566 106:0.204603 136:0.196566 166:0.16155 168:0.206476 218:0.181623 266:0.279356 315:0.157685 359:0.150839 439:0.21925201 497:0.139678 534:0.21925201 611:0.23726 657:0.13499901 686:0.41295201 720:0.30826101 745:0.181623 817:0.128792 920:0.196566 926:0.13727701 956:0.21925201 
0.99999993212504223 22:0.109178 61:0.120746 105:0.15530699 106:0.096620001 108:0.100739 133:0.092628002 197:0.104676 200:0.124451 210:0.146257 266:0.098940998 276:0.086185001 293:0.067437001 296:0.12865201 297:0.12865201 330:0.096620001 331:0.146257 342:0.124451 343:0.13350099 351:0.146257 445:0.069424003 497:0.098940998 500:0.15530699 503:0.139237 504:0.095625997 541:0.15530699 554:0.078933001 560:0.15530699 572:0.120746 617:0.092628002 624:0.18818299 657:0.19125199 664:0.139237 677:0.13350099 681:0.185256 686:0.146257 731:0.146257 733:0.124451 765:0.15530699 783:0.114433 826:0.139237 828:0.40050399 865:0.139237 867:0.168062 868:0.182459 870:0.13350099 881:0.15530699 900:0.089891002 915:0.091228999 926:0.097240001 948:0.109178 999:0.094090998 
-0.32778880580576553 22:0.15658399 83:0.241036 87:0.241036 106:0.20785999 171:0.399389 179:0.071337998 193:0.15658399 262:0.134946 266:0.141901 290:0.19969501 307:0.22274201 308:0.184514 342:0.356978 378:0.20976201 475:0.164121 497:0.141901 583:0.19969501 657:0.13714799 688:0.111899 721:0.17317501 803:0.22274201 813:0.241036 926:0.13946199 999:0.134946 
-0.24377421128300156 8:0.101589 21:0.18640199 47:0.170145 71:0.225022 152:0.225022 220:0.17494699 229:0.105832 313:0.18640199 328:0.17494699 330:0.069995999 362:0.225022 370:0.145959 411:0.201738 429:0.158186 430:0.201738 456:0.154808 485:0.18640199 527:0.17494699 541:0.225022 572:0.17494699 613:0.225022 624:0.136327 627:0.19342799 665:0.158186 686:0.211909 713:0.145959 717:0.14872199 763:0.211909 790:0.18640199 887:0.253185 
-0.12020983916448093 106:0.139677 130:0.242956 191:0.224516 304:0.12630799 342:0.179911 351:0.21143299 416:0.148388 468:0.14057299 492:0.21143299 530:0.165428 583:0.201285 590:0.28606299 624:0.136021 664:0.201285 668:0.224516 728:0.21143299 736:0.21143299 739:0.17455401 817:0.13188399 881:0.224516 904:0.145631 913:0.21143299 984:0.42286599 
-0.14757479763842293 20:0.25670201 104:0.107054 210:0.26964301 248:0.229442 300:0.26964301 318:0.18924101 420:0.192984 423:0.24612699 503:0.25670201 578:0.474374 613:0.28632799 617:0.170772 672:0.161083 673:0.158894 686:0.26964301 687:0.170772 717:0.18924101 
-0.075842444526184785 17:0.090241 104:0.078442998 106:0.065261997 133:0.125131 179:0.067194 214:0.173796 224:0.209804 245:0.197578 297:0.173796 323:0.147488 342:0.168121 356:0.136088 384:0.209804 403:0.45407 504:0.129181 519:0.209804 574:0.11195 660:0.227035 664:0.188095 686:0.197578 687:0.125131 705:0.209804 762:0.191348 767:0.239397 819:0.13365901 868:0.123242 927:0.091976002 946:0.227035 949:0.16311599 971:0.16311599 
-0.16191048946480505 16:0.123416 22:0.086759001 62:0.102234 100:0.133552 106:0.076779999 153:0.123416 179:0.039526001 200:0.098895997 229:0.058045 245:0.232448 253:0.077271998 281:0.093318 293:0.053589001 302:0.121222 308:0.102234 331:0.116224 351:0.116224 390:0.059294999 397:0.098895997 440:0.093318 448:0.116224 449:0.24954499 501:0.070412003 517:0.078624003 525:0.116224 526:0.123416 546:0.232448 548:0.110646 572:0.095951997 574:0.065853998 581:0.098895997 594:0.095951997 603:0.267104 609:0.232448 623:0.110646 624:0.074770004 639:0.116224 647:0.110646 651:0.123416 654:0.116224 657:0.075989999 664:0.110646 672:0.069430999 673:0.13697501 679:0.160106 748:0.106088 772:0.081568003 793:0.110646 796:0.102234 815:0.106088 827:0.116224 830:0.133552 849:0.19779199 855:0.073606998 857:0.24470501 859:0.102234 900:0.071432002 909:0.069430999 923:0.102234 926:0.077271998 927:0.054104 934:0.093318 940:0.110646 945:0.123416 973:0.095951997 990:0.123416 
-0.10531083470634199 79:0.237122 106:0.078323998 261:0.20858 281:0.19038799 302:0.247319 355:0.18109 356:0.163325 451:0.225741 471:0.25179499 501:0.143655 504:0.155036 574:0.13435601 584:0.166417 603:0.27247399 624:0.152548 657:0.155036 688:0.12649401 767:0.143655 812:0.27247399 848:0.13268401 857:0.166417 905:0.225741 927:0.110385 933:0.20176899 946:0.27247399 949:0.19576199 971:0.19576199 
-0.058922444388914183 47:0.155634 149:0.193837 226:0.20583101 276:0.114223 293:0.089374997 309:0.112707 349:0.144696 363:0.105857 387:0.14803299 393:0.53079599 495:0.17693201 517:0.131128 541:0.20583101 546:0.193837 592:0.17693201 641:0.141606 672:0.115797 695:0.160027 754:0.20583101 764:0.170505 827:0.193837 855:0.122762 857:0.136039 923:0.34101 973:0.160027 991:0.15166099 
-0.086860184495581014 18:0.21572401 47:0.173208 104:0.085647002 118:0.161034 179:0.073365003 190:0.17809699 244:0.20536999 302:0.112501 306:0.189758 309:0.125433 328:0.17809699 330:0.071255997 473:0.125433 497:0.145934 546:0.21572401 558:0.20536999 599:0.125433 601:0.247887 686:0.21572401 687:0.136623 721:0.17809699 790:0.189758 808:0.143426 857:0.30279899 882:0.247887 909:0.12887201 915:0.134561 927:0.100424 971:0.35619399 991:0.168786 
-0.16065397259112513 6:0.167468 75:0.33493599 118:0.108792 155:0.106469 198:0.13874499 241:0.133029 302:0.076003999 313:0.128197 328:0.120319 330:0.096277997 377:0.14574 420:0.104306 435:0.14574 445:0.069178998 473:0.16948099 514:0.181814 568:0.35104901 583:0.13874499 617:0.092299998 646:0.20861199 650:0.133029 662:0.13874499 671:0.14574 681:0.092299998 686:0.29147899 698:0.14574 717:0.102283 721:0.120319 725:0.167468 749:0.15475801 790:0.128197 857:0.102283 865:0.13874499 882:0.167468 915:0.181814 925:0.14574 927:0.067844003 941:0.167468 947:0.128197 948:0.108792 
-0.22375038836278521 4:0.097081997 8:0.043829001 22:0.068246998 25:0.105056 41:0.19416501 76:0.105056 106:0.120794 115:0.06679 156:0.091425002 179:0.031093 187:0.274275 213:0.091425002 230:0.083452001 257:0.097081997 259:0.075478002 266:0.123696 276:0.053874001 290:0.087036997 297:0.080420002 312:0.105056 321:0.097081997 330:0.030199001 335:0.091425002 349:0.068246998 356:0.062972002 376:0.091425002 423:0.083452001 424:0.062972002 438:0.105056 439:0.097081997 444:0.081972003 448:0.091425002 466:0.073407002 469:0.097081997 479:0.17407399 497:0.061848 498:0.52834898 499:0.077794999 510:0.105056 518:0.097081997 561:0.097081997 579:0.166904 605:0.097081997 608:0.087036997 611:0.105056 623:0.087036997 628:0.060784999 644:0.060784999 657:0.119552 666:0.077794999 680:0.091425002 681:0.057902001 686:0.091425002 704:0.097081997 725:0.105056 743:0.097081997 755:0.087036997 767:0.055388 790:0.080420002 795:0.105056 797:0.097081997 827:0.18285 850:0.069821 856:0.064163998 857:0.064163998 875:0.065433003 882:0.105056 926:0.121569 927:0.12768 941:0.105056 975:0.083452001 987:0.105056 
-0.045998294576352683 38:0.13979501 46:0.39065099 63:0.121837 67:0.29833999 104:0.15509699 106:0.064517997 125:0.17181499 179:0.066427998 206:0.100742 224:0.207412 227:0.224447 300:0.195326 323:0.145807 440:0.15683 473:0.113572 477:0.14917 514:0.121837 527:0.161256 554:0.105415 588:0.112098 651:0.41482401 653:0.18595099 681:0.123704 686:0.195326 720:0.145807 796:0.17181499 868:0.121837 917:0.166205 948:0.145807 
-0.12456944840152734 79:0.243118 93:0.200712 166:0.190218 196:0.213854 222:0.25816101 233:0.25816101 265:0.206871 285:0.22191501 293:0.112097 302:0.12678599 428:0.243118 429:0.181483 447:0.27936399 468:0.16163801 473:0.141361 525:0.243118 557:0.22191501 595:0.27936399 717:0.170625 734:0.19520199 857:0.170625 915:0.151648 917:0.206871 
-0.091548715953947105 50:0.213458 103:0.239981 179:0.092782997 248:0.232145 259:0.225233 423:0.249027 496:0.232145 499:0.232145 560:0.28970101 572:0.225233 590:0.184559 657:0.178376 681:0.172783 786:0.28970101 853:0.249027 857:0.19147 877:0.27282 893:0.313494 900:0.167677 
-0.10026279241569629 31:0.32048899 106:0.120347 169:0.28506801 179:0.123909 276:0.214699 294:0.38688901 482:0.22073001 617:0.230748 686:0.364344 868:0.227264 908:0.32048899 996:0.38688901 997:0.227264 
-0.092751248290650734 57:0.29411101 62:0.32221299 67:0.279746 107:0.34872299 210:0.36630401 390:0.18688101 539:0.28660101 715:0.311692 767:0.221917 878:0.302412 930:0.24779999 964:0.24354 
-0.086417288112581744 50:0.16714799 72:0.226851 91:0.18178099 94:0.133255 197:0.152897 266:0.144519 291:0.18178099 297:0.18791699 302:0.222819 328:0.176369 363:0.116667 378:0.213632 390:0.108991 607:0.20337801 608:0.20337801 619:0.226851 664:0.20337801 671:0.213632 681:0.135298 688:0.113963 713:0.147145 745:0.18791699 772:0.149931 827:0.427264 857:0.149931 887:0.12762199 948:0.159472 1000:0.16315 
-0.060991885999728046 111:0.174225 169:0.136316 201:0.370011 389:0.136316 404:0.20020001 416:0.122274 450:0.16586301 453:0.15903001 475:0.136316 494:0.15903001 610:0.14383601 624:0.112084 630:0.20020001 651:0.18500499 657:0.113912 672:0.10408 686:0.174225 690:0.28767201 737:0.153254 742:0.34845001 743:0.18500499 789:0.174225 826:0.331725 857:0.122274 923:0.153254 926:0.115835 929:0.127278 997:0.108675 
-0.058014007305364053 41:0.109791 115:0.075533003 151:0.103393 179:0.070326 297:0.090948001 313:0.090948001 330:0.034152001 349:0.077180997 369:0.094375998 390:0.052749 423:0.094375998 436:0.109791 444:0.046351001 448:0.103393 475:0.080895998 494:0.66063398 510:0.118808 524:0.118808 561:0.109791 594:0.085359 617:0.130963 650:0.094375998 660:0.118808 671:0.103393 672:0.24706499 679:0.071214996 686:0.103393 688:0.055156 690:0.170718 716:0.094375998 728:0.103393 737:0.090948001 742:0.103393 790:0.090948001 827:0.103393 872:0.103393 874:0.103393 882:0.118808 884:0.18875299 900:0.254186 905:0.098430999 915:0.064493001 926:0.068742 929:0.075533003 965:0.118808 970:0.098430999 985:0.075533003 
-0.095619844881637953 15:0.090391003 26:0.109489 41:0.116264 47:0.087909997 56:0.109489 77:0.099940002 88:0.251625 94:0.068295002 106:0.14466099 115:0.159972 122:0.109489 148:0.251625 179:0.037236001 183:0.099940002 193:0.081730999 222:0.116264 249:0.104234 253:0.072793998 266:0.14813501 297:0.096309997 302:0.114197 309:0.063662 328:0.090391003 330:0.036164999 337:0.104234 349:0.081730999 377:0.109489 420:0.078360997 423:0.099940002 429:0.081730999 444:0.098168001 457:0.116264 529:0.116264 530:0.085665002 554:0.11818 556:0.12581199 558:0.104234 594:0.090391003 599:0.063662 619:0.116264 646:0.078360997 657:0.14317299 662:0.104234 664:0.20846701 668:0.116264 679:0.075414002 686:0.109489 688:0.058407001 696:0.099940002 720:0.163462 731:0.218977 739:0.18078201 760:0.096309997 783:0.085665002 793:0.104234 805:0.057099 813:0.12581199 857:0.15368301 882:0.251625 900:0.067293003 920:0.104234 926:0.145588 935:0.12581199 949:0.18078201 952:0.116264 966:0.116264 
-0.10307267482998085 17:0.077287003 34:0.154459 84:0.17968699 104:0.067181997 105:0.17968699 106:0.055893999 138:0.194445 141:0.194445 192:0.154459 248:0.143988 286:0.27940199 298:0.16109399 306:0.148848 402:0.271732 439:0.17968699 509:0.17968699 527:0.13970099 574:0.095880002 686:0.33843201 720:0.12631699 736:0.16921601 742:0.16921601 780:0.16109399 797:0.17968699 848:0.094686002 857:0.118759 864:0.17968699 868:0.211101 882:0.194445 924:0.112505 930:0.114472 948:0.25263399 997:0.105551 
-0.12203435477733467 5:0.200716 104:0.19305 106:0.080306001 107:0.231454 209:0.206875 294:0.258167 380:0.161642 397:0.206875 475:0.190222 501:0.14729001 506:0.21385799 552:0.24312299 574:0.137756 677:0.221919 686:0.48624501 739:0.200716 805:0.126789 829:0.258167 848:0.136041 855:0.153975 857:0.170628 900:0.149425 
-0.14247582056852998 5:0.1095 17:0.020192999 18:0.044211 106:0.014603 108:0.030452 116:0.046946999 123:0.046946999 131:0.027172999 167:0.037620001 169:0.034591999 179:0.045107 200:0.15048 205:0.050802998 206:0.022802999 212:0.046946999 231:0.066005997 238:0.161422 247:0.035498001 251:0.044211 258:0.037620001 265:0.037620001 293:0.020385001 294:0.14084101 297:0.350007 298:0.042089 302:0.046112999 306:0.077779002 309:0.025707001 328:0.36499801 339:0.126268 351:0.221057 363:0.024143999 377:0.044211 380:0.029394001 383:0.075240001 384:0.046946999 389:0.069182999 396:0.03889 402:0.070996001 420:0.031642001 423:0.040355999 425:0.093893997 428:0.132634 429:0.033002999 440:0.035498001 444:0.019819999 451:0.042089 452:0.031642001 453:0.040355999 466:0.035498001 468:0.058788002 473:0.025707001 481:0.028906001 482:0.026784001 512:0.037620001 525:0.044211 574:0.050101001 579:0.121067 588:0.025373001 590:0.089725003 593:0.121067 603:0.050802998 605:0.046946999 617:0.083999999 627:0.040355999 631:0.042089 643:0.32863 651:0.046946999 658:0.044211 659:0.15048 664:0.042089 666:0.037620001 673:0.026053 679:0.030452 683:0.093893997 686:0.221057 695:0.145999 700:0.046946999 705:0.046946999 706:0.064595997 721:0.036499999 736:0.044211 748:0.161422 762:0.14985999 765:0.093893997 777:0.028906001 779:0.046946999 782:0.093893997 790:0.233338 814:0.046946999 817:0.055155002 827:0.044211 842:0.046946999 845:0.042089 850:0.067528002 855:0.028000001 857:0.186171 882:0.050802998 885:0.037620001 896:0.046946999 900:0.027172999 907:0.044211 909:0.026411001 915:0.027577 920:0.042089 924:0.029394001 934:0.035498001 943:0.080711 948:0.033002999 953:0.034591999 954:0.036499999 956:0.046946999 982:0.046946999 
-0.081716254974314215 104:0.054756001 152:0.14645199 159:0.137918 179:0.046904001 214:0.121317 229:0.068879001 248:0.23471101 253:0.091695003 254:0.14645199 286:0.113861 300:0.137918 329:0.137918 372:0.12589 389:0.215817 396:0.121317 402:0.221472 440:0.110736 445:0.065466002 493:0.14645199 504:0.360695 549:0.201509 569:0.121317 588:0.079150997 673:0.081271 686:0.27583501 695:0.227723 709:0.12589 713:0.094994999 748:0.12589 760:0.121317 767:0.167109 797:0.14645199 827:0.137918 870:0.12589 881:0.29290301 882:0.15848 885:0.117355 924:0.091695003 927:0.064203002 929:0.100755 956:0.14645199 
-0.047404821027610747 50:0.17097899 60:0.208039 84:0.232049 109:0.25110701 146:0.199469 175:0.232049 277:0.232049 355:0.166889 366:0.153367 481:0.142878 499:0.185947 554:0.117937 572:0.180411 691:0.199469 699:0.192223 861:0.218527 865:0.208039 866:0.208039 893:0.25110701 914:0.25110701 920:0.41607699 
-0.098541672540557596 1:0.28951699 23:0.180292 45:0.171638 118:0.13458399 133:0.114183 186:0.171638 228:0.15859 229:0.090042002 238:0.16456801 275:0.13170999 302:0.094022997 346:0.15859 375:0.191448 380:0.119868 387:0.137688 390:0.091981001 420:0.129035 423:0.16456801 445:0.085579 485:0.15859 517:0.121965 574:0.102155 624:0.115987 628:0.119868 641:0.13170999 681:0.114183 686:0.180292 687:0.114183 719:0.171638 765:0.191448 767:0.109226 774:0.171638 827:0.180292 857:0.25306401 867:0.20717099 975:0.32913601 978:0.20717099 
-0.068311242774006756 63:0.118692 67:0.145319 117:0.15278099 229:0.095031999 243:0.43730599 266:0.12872399 278:0.190284 290:0.181151 349:0.14204299 381:0.21865299 444:0.170609 464:0.202058 514:0.118692 517:0.25744799 651:0.202058 657:0.124412 687:0.120511 699:0.16737901 743:0.202058 815:0.17368899 827:0.38056701 871:0.16737901 905:0.181151 926:0.12651099 937:0.145319 973:0.157094 
-0.062643731699675451 17:0.085949004 38:0.134681 104:0.074712001 172:0.15109301 189:0.188181 202:0.155358 239:0.188181 247:0.15109301 276:0.11089 293:0.086767003 302:0.196274 318:0.13206901 330:0.062158 367:0.188181 384:0.199825 456:0.137474 482:0.114005 539:0.14723501 546:0.188181 652:0.160125 675:0.188181 697:0.496589 737:0.16553 785:0.160125 796:0.16553 806:0.17176899 875:0.134681 878:0.155358 911:0.188181 927:0.087601997 931:0.179149 948:0.14047401 975:0.17176899 
-0.098076918858526513 17:0.080748998 38:0.126533 46:0.17679501 57:0.14195099 67:0.13501801 91:0.150437 103:0.155515 104:0.14038301 162:0.155515 245:0.17679501 248:0.150437 293:0.16303401 330:0.058396999 420:0.126533 453:0.161376 465:0.161376 503:0.16831 519:0.18773501 562:0.203154 584:0.124078 657:0.231186 664:0.16831 673:0.104181 678:0.13501801 699:0.155515 720:0.131974 732:0.155515 745:0.155515 820:0.17679501 836:0.119599 926:0.117543 933:0.150437 958:0.16831 966:0.37547001 980:0.161376 985:0.25831199 
-0.066165805556723564 48:0.12577 104:0.124381 115:0.114434 125:0.137787 170:0.094898 283:0.166335 293:0.072224997 302:0.081689 313:0.137787 380:0.104145 381:0.359992 440:0.12577 462:0.149124 491:0.166335 497:0.105966 508:0.156642 509:0.166335 551:0.179996 599:0.18216 686:0.156642 741:0.149124 745:0.137787 767:0.094898 804:0.215784 848:0.087650999 855:0.099205002 857:0.219869 869:0.179996 875:0.112109 882:0.53998798 999:0.100773 
-0.11262584883055543 179:0.108412 188:0.140203 224:0.16925099 229:0.079602003 248:0.135625 258:0.135625 280:0.140203 302:0.166243 303:0.31877601 359:0.11644 431:0.140203 483:0.135625 495:0.14548799 499:0.135625 541:0.33850199 588:0.091472998 628:0.10597 666:0.135625 686:0.478165 687:0.100944 724:0.14548799 733:0.135625 762:0.077180997 767:0.28968501 826:0.30347601 827:0.15938801 885:0.135625 
-0.068964295784074925 8:0.104904 9:0.232365 94:0.136494 104:0.086878002 106:0.072279997 211:0.218824 266:0.14803199 272:0.167116 330:0.14455999 445:0.10387 449:0.31322601 501:0.13257 508:0.218824 567:0.232365 574:0.247977 631:0.208322 688:0.116733 694:0.19973999 713:0.150722 726:0.218824 777:0.14307299 783:0.171211 789:0.218824 857:0.153575 937:0.167116 949:0.361312 998:0.218824 
-0.053219126360662547 65:0.152215 73:0.152215 100:0.174909 144:0.113626 179:0.051766999 196:0.133893 226:0.323268 229:0.076020002 235:0.1112 253:0.101201 320:0.133893 355:0.116246 364:0.133893 367:0.60886103 467:0.14490899 552:0.152215 554:0.246447 574:0.086246997 664:0.14490899 672:0.27279601 686:0.152215 687:0.096400999 717:0.106828 762:0.073707998 805:0.079380997 819:0.102971 848:0.085173003 857:0.106828 868:0.094945997 927:0.070859 951:0.102971 975:0.13894001 
-0.032728377645584429 136:0.189881 139:0.22919101 194:0.189881 202:0.164664 229:0.099611998 231:0.14888901 343:0.182059 402:0.160144 445:0.094674997 482:0.120835 514:0.124412 617:0.12631901 686:0.19945399 784:0.59836203 832:0.304645 836:0.134928 915:0.373236 960:0.164664 973:0.164664 
-0.070607334957989029 34:0.17424101 47:0.15326799 62:0.16791201 67:0.14578199 125:0.16791201 192:0.17424101 217:0.202701 235:0.13945299 236:0.17424101 248:0.32485899 276:0.112486 282:0.219349 286:0.157594 302:0.099549003 363:0.104247 390:0.097387999 402:0.15326799 427:0.202701 452:0.13662 473:0.110993 537:0.202701 546:0.190889 588:0.109552 612:0.219349 681:0.120895 760:0.16791201 805:0.099549003 808:0.12691399 811:0.202701 816:0.202701 871:0.16791201 915:0.11907 930:0.129134 951:0.129134 973:0.157594 982:0.202701 
-0.047102796613559053 99:0.30149201 150:0.239493 193:0.195858 206:0.135324 257:0.27860999 281:0.210664 444:0.117623 518:0.27860999 572:0.21661 679:0.180719 857:0.18414 886:0.60298502 983:0.249782 991:0.205286 
-0.079431271527452163 63:0.101443 196:0.14305501 200:0.138384 302:0.084812 305:0.29689401 309:0.094562002 316:0.14305501 318:0.114137 352:0.16263001 389:0.127244 394:0.172693 396:0.14305501 482:0.098526001 509:0.172693 549:0.118808 578:0.14305501 583:0.154825 617:0.102998 649:0.154825 664:0.30964899 679:0.112016 686:0.16263001 711:0.34538701 734:0.130578 783:0.127244 790:0.14305501 793:0.154825 805:0.084812 827:0.32526001 856:0.114137 857:0.228274 859:0.14305501 865:0.154825 870:0.14844701 915:0.101443 
-0.06723153848033081 68:0.080605999 79:0.080605999 91:0.068588004 106:0.026625 108:0.055520002 115:0.058885999 117:0.064719997 118:0.060171001 166:0.063066997 179:0.027412999 183:0.073576003 197:0.115379 207:0.25678101 210:0.080605999 228:0.070903003 257:0.085593998 287:0.085593998 290:0.153474 297:0.070903003 299:0.066546001 305:0.073576003 306:0.070903003 311:0.092623003 315:0.061558001 321:0.085593998 323:0.060171001 329:0.080605999 335:0.080605999 356:0.166559 360:0.080605999 366:0.056570999 368:0.080605999 398:0.070903003 412:0.076737002 430:0.076737002 444:0.072270997 445:0.038261 466:0.064719997 475:0.063066997 479:0.230211 481:0.052701999 497:0.054529 502:0.085593998 503:0.076737002 504:0.105404 518:0.085593998 523:0.076737002 542:0.061558001 548:0.153474 554:0.043501999 579:0.073576003 583:0.076737002 609:0.080605999 617:0.05105 629:0.080605999 660:0.092623003 667:0.085593998 673:0.047499001 677:0.073576003 686:0.32242301 690:0.066546001 691:0.073576003 726:0.080605999 733:0.068588004 758:0.085593998 767:0.048833001 797:0.085593998 800:0.070903003 808:0.053591002 813:0.092623003 823:0.085593998 827:0.161212 853:0.073576003 882:0.463117 890:0.171187 902:0.085593998 920:0.076737002 941:0.092623003 949:0.133092 953:0.063066997 991:0.189201 
-0.062288074347051969 18:0.081416003 47:0.065370001 106:0.053785 115:0.059478 183:0.074316002 198:0.077509001 218:0.071616001 231:0.060775999 235:0.059478 241:0.074316002 243:0.18710899 253:0.16238999 257:0.086453997 266:0.055077001 275:0.059478 302:0.084918 309:0.047339998 312:0.18710899 323:0.060775999 328:0.134431 337:0.077509001 369:0.074316002 398:0.143233 420:0.05827 422:0.093555003 443:0.086453997 444:0.21899401 464:0.17290799 477:0.124355 501:0.098647997 518:0.086453997 519:0.086453997 523:0.077509001 542:0.062176999 561:0.086453997 574:0.046131 581:0.069278002 590:0.055077001 644:0.054129999 657:0.106464 675:0.081416003 681:0.051562998 686:0.16283301 690:0.067215003 699:0.071616001 705:0.086453997 706:0.059478 709:0.074316002 733:0.069278002 739:0.067215003 769:0.081416003 772:0.05714 774:0.077509001 785:0.069278002 790:0.071616001 800:0.143233 823:0.086453997 857:0.05714 867:0.093555003 871:0.57293099 872:0.081416003 875:0.05827 882:0.18710899 905:0.077509001 915:0.050783999 926:0.10826 932:0.17290799 934:0.065370001 941:0.093555003 949:0.067215003 951:0.055077001 959:0.086453997 964:0.054129999 987:0.093555003 
-0.046867943572605458 14:0.068020001 15:0.056155998 16:0.072228998 22:0.050776001 47:0.054614 94:0.25457099 106:0.17974199 133:0.086158 139:0.078161001 144:0.050776001 149:0.068020001 159:0.068020001 170:0.041209001 180:0.144458 197:0.048682 209:0.115758 220:0.056155998 229:0.067942001 241:0.062088002 253:0.090447001 255:0.049692001 262:0.043759 275:0.049692001 276:0.040082999 278:0.068020001 293:0.125452 296:0.059833001 297:0.059833001 301:0.078161001 302:0.035473 305:0.124176 306:0.119666 308:0.119666 328:0.056155998 330:0.022468001 349:0.050776001 355:0.051947001 390:0.104108 397:0.057879001 402:0.054614 412:0.064755999 416:0.047738001 434:0.179498 444:0.121974 445:0.096862003 459:0.115758 497:0.046015002 499:0.057879001 504:0.044473 514:0.042428002 517:0.092030004 524:0.078161001 527:0.056155998 541:0.072228998 546:0.068020001 552:0.204061 553:0.068020001 561:0.144458 574:0.077082001 579:0.124176 588:0.039037 605:0.072228998 628:0.180895 633:0.064755999 640:0.064755999 641:0.049692001 644:0.045224 649:0.064755999 664:0.129511 672:0.081269003 673:0.040082999 679:0.093702003 686:0.204061 688:0.036286 690:0.056155998 692:0.109229 705:0.072228998 717:0.047738001 772:0.095476002 789:0.068020001 790:0.059833001 797:0.072228998 805:0.035473 812:0.078161001 827:0.068020001 853:0.062088002 857:0.047738001 865:0.064755999 882:0.078161001 897:0.051947001 900:0.083612002 909:0.121904 915:0.042428002 919:0.43461701 922:0.056155998 927:0.094994001 932:0.144458 940:0.129511 951:0.046015002 964:0.045224 972:0.068020001 973:0.056155998 997:0.042428002 
-0.064357583108247907 14:0.25692001 16:0.27281699 179:0.087375 293:0.118461 378:0.25692001 387:0.196209 390:0.13107499 393:0.46902701 501:0.15564901 530:0.20101801 574:0.145574 685:0.29522401 692:0.206284 762:0.124409 774:0.244589 823:0.27281699 857:0.18031099 868:0.160257 930:0.173803 934:0.206284 
-0.067125170214764496 20:0.136898 31:0.126491 104:0.114183 170:0.087118 179:0.048905 190:0.118717 199:0.14380001 224:0.152698 243:0.16523901 276:0.084737003 293:0.132607 300:0.14380001 302:0.074992001 309:0.083612002 329:0.14380001 330:0.094997004 342:0.12236 356:0.099045999 365:0.16523901 383:0.12236 393:0.131258 395:0.126491 403:0.16523901 408:0.152698 440:0.115459 474:0.131258 486:0.126491 504:0.094020002 541:0.152698 589:0.152698 661:0.16523901 664:0.136898 686:0.14380001 699:0.37947199 706:0.105052 760:0.126491 762:0.069633 777:0.094020002 810:0.136898 857:0.40368599 859:0.126491 868:0.089697003 907:0.14380001 948:0.107344 973:0.118717 991:0.112511 
-0.04365804856869436 106:0.085372999 248:0.21992999 255:0.18881901 293:0.119173 309:0.15028401 330:0.085372999 343:0.23592301 449:0.184983 501:0.15658499 514:0.16122 574:0.146449 664:0.246059 717:0.18139499 720:0.192939 762:0.125157 767:0.15658499 805:0.13479 819:0.34969401 837:0.23592301 868:0.16122 870:0.23592301 927:0.12032 930:0.17484701 948:0.192939 953:0.202226 980:0.23592301 988:0.27445701 
-0.043782916202877324 17:0.064579003 20:0.134606 169:0.110627 179:0.192343 200:0.120312 204:0.45042399 268:0.134606 302:0.14747301 330:0.046703 367:0.14139199 444:0.063386001 482:0.085658997 501:0.085658997 514:0.088195004 552:0.14139199 554:0.076307997 578:0.124373 617:0.089547001 669:0.53842402 672:0.084467001 673:0.083319001 689:0.124373 717:0.099232003 762:0.136934 775:0.150141 797:0.150141 805:0.073735997 806:0.129061 819:0.095650002 848:0.079117 857:0.19846401 860:0.14139199 868:0.088195004 900:0.086901002 927:0.065820999 945:0.150141 968:0.129061 975:0.129061 997:0.088195004 
-0.04962253083689569 22:0.08066 45:0.102867 74:0.229479 91:0.091944002 249:0.30860099 258:0.091944002 266:0.073096 290:0.102867 302:0.05635 330:0.035691001 349:0.08066 354:0.19725899 409:0.124163 413:0.17351501 420:0.077334002 444:0.096881002 445:0.051290002 500:0.114739 503:0.102867 529:0.114739 581:0.183887 594:0.089206003 650:0.098630004 659:0.183887 662:0.102867 664:0.102867 682:0.124163 686:0.108053 703:0.108053 706:0.078937002 731:0.108053 745:0.095046997 765:0.114739 772:0.075833999 789:0.108053 790:0.19009399 793:0.102867 801:0.124163 803:0.114739 841:0.37248799 842:0.114739 855:0.068433002 856:0.075833999 878:0.089206003 882:0.248326 890:0.114739 916:0.078937002 926:0.071840003 927:0.150902 954:0.267618 968:0.098630004 976:0.114739 
-0.074965987810763551 60:0.148748 87:0.17954201 106:0.206439 171:0.29749501 266:0.21139801 276:0.092072003 284:0.165915 290:0.148748 301:0.17954201 309:0.090850003 328:0.128994 342:0.132952 351:0.156247 357:0.156247 359:0.114145 363:0.085327998 377:0.156247 452:0.111826 475:0.12225 497:0.105699 514:0.097461 537:0.165915 546:0.156247 591:0.165915 599:0.090850003 657:0.102158 664:0.148748 686:0.156247 688:0.083351001 720:0.116635 721:0.25798699 723:0.165915 736:0.156247 739:0.128994 780:0.148748 789:0.156247 808:0.207763 815:0.14262 882:0.17954201 897:0.119325 926:0.103882 932:0.165915 
-0.047612711420389718 2:0.26549101 10:0.122671 85:0.132745 106:0.114474 117:0.092753999 119:0.115522 158:0.115522 193:0.086235002 208:0.115522 260:0.25318101 262:0.074318998 265:0.098298997 290:0.109978 293:0.053265002 297:0.101617 304:0.069012001 318:0.16215201 352:0.115522 353:0.109978 414:0.23104499 417:0.109978 465:0.105447 473:0.134341 475:0.090386003 501:0.069986999 503:0.109978 514:0.072058 541:0.122671 554:0.124692 578:0.101617 583:0.109978 614:0.29489699 617:0.073163003 625:0.105447 628:0.076806001 651:0.122671 686:0.346567 732:0.101617 748:0.105447 790:0.101617 799:0.115522 800:0.203234 804:0.079568997 827:0.23104499 836:0.078148998 848:0.064641997 875:0.082679003 912:0.190745 968:0.210895 
-0.036229656769454555 8:0.044238999 22:0.068885997 28:0.092280999 88:0.21207701 94:0.172683 106:0.060961999 108:0.063561 111:0.092280999 133:0.058442999 166:0.072200999 170:0.055906001 179:0.031383999 197:0.066045001 226:0.195981 293:0.042548999 301:0.106039 302:0.048124999 304:0.055128001 309:0.053656999 316:0.081173003 330:0.060961999 349:0.068885997 352:0.092280999 390:0.047079999 434:0.081173003 440:0.074092999 461:0.092280999 476:0.42415401 497:0.062426001 558:0.087851003 565:0.21207701 581:0.078521997 594:0.076185003 660:0.106039 664:0.087851003 686:0.184561 688:0.049228001 696:0.084233001 717:0.25905699 736:0.184561 760:0.16234601 778:0.106039 813:0.106039 827:0.184561 844:0.097990997 847:0.097990997 856:0.32382199 870:0.084233001 927:0.214791 930:0.062426001 934:0.074092999 935:0.21207701 966:0.097990997 973:0.076185003 980:0.168465 
-0.044794844980378792 8:0.046339002 51:0.102642 54:0.111072 104:0.038376998 106:0.031927999 220:0.079801001 223:0.102642 224:0.102642 247:0.077610999 272:0.073820002 282:0.111072 286:0.079801001 290:0.092022002 291:0.082249999 295:0.092022002 319:0.092022002 330:0.031927999 334:0.144311 351:0.096661001 361:0.096661001 400:0.092022002 402:0.077610999 420:0.13836101 444:0.043333001 445:0.045882002 446:0.17005201 448:0.096661001 452:0.13836101 496:0.082249999 497:0.065389998 504:0.442395 509:0.102642 517:0.065389998 523:0.092022002 574:0.109539 592:0.088230997 624:0.062185001 673:0.22783899 686:0.289983 689:0.085026003 705:0.102642 723:0.102642 734:0.077610999 736:0.096661001 745:0.085026003 816:0.102642 819:0.065389998 827:0.193322 839:0.102642 840:0.18404301 848:0.054088 853:0.088230997 857:0.20351601 865:0.092022002 881:0.102642 887:0.057744998 920:0.092022002 927:0.089994997 949:0.159602 951:0.065389998 957:0.096661001 958:0.27606499 997:0.060293999 
-0.023945687371752476 31:0.17301901 46:0.196695 104:0.078092001 170:0.119163 229:0.098233998 253:0.13077401 301:0.22602101 302:0.205154 304:0.117504 381:0.22602101 395:0.17301901 465:0.17954101 542:0.150216 598:0.22602101 664:0.187255 686:0.196695 699:0.346039 717:0.138045 730:0.196695 739:0.162387 741:0.187255 764:0.17301901 800:0.17301901 804:0.13548 857:0.27608901 927:0.18313 984:0.196695 994:0.22602101 
-0.015162187191039836 190:0.26421401 211:0.160018 224:0.169919 226:0.169919 276:0.094293997 296:0.14075699 298:0.152338 299:0.132107 306:0.14075699 351:0.32003599 365:0.18387499 394:0.169919 445:0.075956002 500:0.169919 572:0.132107 574:0.090668 629:0.160018 631:0.152338 681:0.101343 686:0.160018 688:0.085362002 691:0.29212499 718:0.18387499 726:0.160018 788:0.152338 812:0.18387499 817:0.099812999 857:0.112304 884:0.146062 886:0.18387499 887:0.095592998 892:0.169919 927:0.074491002 956:0.169919 960:0.26421401 967:0.136161 
-0.03537861271309295 47:0.110403 84:0.14601199 104:0.054591998 105:0.14601199 125:0.24190401 170:0.083302997 229:0.068672001 248:0.117003 259:0.22703899 300:0.275006 330:0.090837002 390:0.070151001 440:0.110403 445:0.065269001 462:0.130904 481:0.089902997 485:0.120952 497:0.093019001 506:0.120952 508:0.137503 527:0.113519 572:0.113519 617:0.087084003 686:0.41251001 701:0.14601199 717:0.096501999 726:0.137503 730:0.275006 785:0.117003 796:0.120952 804:0.28412801 833:0.14601199 857:0.096501999 869:0.31600699 909:0.082143001 917:0.117003 927:0.064010002 957:0.137503 999:0.088459998 
-0.027109666027870773 24:0.14259 61:0.146615 210:0.177591 222:0.18858001 226:0.18858001 228:0.156214 253:0.118072 297:0.156214 299:0.146615 306:0.156214 330:0.058660001 423:0.162103 454:0.18858001 500:0.18858001 575:0.169067 581:0.151114 613:0.18858001 617:0.112472 658:0.177591 659:0.151114 664:0.169067 672:0.106091 686:0.177591 718:0.20406801 788:0.169067 812:0.20406801 821:0.20406801 856:0.124637 884:0.162103 887:0.106091 916:0.129737 920:0.169067 922:0.146615 929:0.129737 960:0.29322901 967:0.151114 973:0.146615 
-0.027061832126322325 58:0.230818 94:0.13558599 149:0.434735 179:0.147848 218:0.191203 231:0.16226099 245:0.21736801 248:0.18495999 253:0.144518 282:0.24977501 302:0.226715 306:0.191203 363:0.118707 390:0.110896 424:0.149718 434:0.191203 452:0.15557 467:0.206935 524:0.24977501 574:0.123163 590:0.147046 641:0.158796 672:0.12985399 687:0.13766401 688:0.115956 733:0.18495999 857:0.15255301 868:0.13558599 
-0.018896614587252277 17:0.081591003 80:0.163059 229:0.089216001 251:0.35727599 267:0.163059 274:0.163059 291:0.152005 296:0.314271 304:0.106717 318:0.12537199 342:0.152005 346:0.15713599 417:0.170064 418:0.37611499 432:0.18969201 444:0.080084004 482:0.108224 503:0.170064 679:0.36912701 713:0.123042 749:0.18969201 777:0.116798 805:0.093160003 808:0.118769 900:0.109792 930:0.120846 932:0.18969201 938:0.170064 997:0.111428 
-0.025793741702327649 17:0.073499002 50:0.125907 67:0.122895 77:0.146887 101:0.16092101 103:0.141551 104:0.063888997 117:0.129206 118:0.120125 180:0.17087799 230:0.146887 245:0.16092101 253:0.106989 268:0.15319701 302:0.083921 349:0.120125 355:0.122895 363:0.087880999 390:0.082098998 412:0.15319701 465:0.146887 475:0.125907 515:0.17087799 517:0.108861 546:0.16092101 572:0.132852 574:0.091179997 679:0.110839 681:0.101915 699:0.141551 700:0.17087799 736:0.16092101 751:0.18491299 754:0.17087799 805:0.083921 857:0.112938 863:0.146887 893:0.18491299 914:0.55473799 
-0.025582082450812539 107:0.193939 229:0.101741 250:0.18595 309:0.118451 315:0.155578 390:0.103932 435:0.407433 438:0.234089 459:0.173344 498:0.168183 521:0.216322 671:0.407433 686:0.407433 705:0.216322 717:0.14297201 887:0.121698 947:0.35839099 
-0.023357431542845607 3:0.212724 64:0.20032801 104:0.079535 179:0.068129003 300:0.20032801 330:0.06617 351:0.20032801 355:0.15299 444:0.089806996 449:0.43012601 475:0.15673999 517:0.271038 527:0.16538601 552:0.20032801 574:0.113508 638:0.38142601 657:0.130979 686:0.20032801 691:0.18285701 723:0.212724 777:0.130979 827:0.20032801 881:0.212724 957:0.20032801 
-0.012450673453682523 17:0.056993 81:0.14338601 106:0.041216999 151:0.124782 201:0.132504 235:0.091159001 248:0.106178 292:0.39751101 294:0.132504 309:0.072554998 348:0.14338601 351:0.24956401 364:0.109762 384:0.39751101 389:0.097631 430:0.118793 435:0.124782 442:0.1139 480:0.109762 481:0.16317099 501:0.075597003 552:0.124782 590:0.084412999 629:0.24956401 657:0.081586003 686:0.374347 705:0.132504 738:0.1139 748:0.1139 817:0.077834003 818:0.14338601 825:0.118793 866:0.118793 881:0.132504 920:0.118793 963:0.118793 992:0.124782 
-0.01391097582881457 38:0.158994 63:0.138569 104:0.088198997 125:0.195411 131:0.136536 186:0.21148901 207:0.235897 234:0.202777 254:0.235897 270:0.222151 286:0.183403 330:0.073379003 338:0.183403 349:0.165832 402:0.178368 473:0.12917 517:0.150282 592:0.202777 599:0.12917 653:0.21148901 678:0.16965599 681:0.14069299 687:0.14069299 732:0.195411 736:0.222151 819:0.150282 836:0.150282 848:0.124307 857:0.15591 909:0.13271099 956:0.235897 985:0.16229101 991:0.173814 
-0.01374488227278187 94:0.134124 275:0.31416801 325:0.168238 330:0.071024001 366:0.15090799 404:0.247082 444:0.096395999 445:0.102066 494:0.196271 513:0.17751899 599:0.125026 623:0.204704 624:0.27666199 651:0.228329 652:0.18296599 665:0.160511 672:0.128453 703:0.21502399 705:0.228329 743:0.228329 805:0.112136 900:0.39646599 909:0.128453 920:0.204704 923:0.189142 
-0.011794745151807303 179:0.059865002 229:0.087912999 244:0.16757999 266:0.119081 294:0.186921 316:0.15484001 323:0.131402 349:0.131402 351:0.176028 389:0.13772701 411:0.16757999 421:0.160677 424:0.36373499 458:0.160677 499:0.149784 554:0.19000199 574:0.199479 659:0.149784 697:0.15484001 701:0.37384099 711:0.186921 747:0.160677 790:0.15484001 856:0.12354 882:0.202272 898:0.186921 911:0.35205701 927:0.081944004 
-0.015681497925547808 22:0.071275003 28:0.095481001 47:0.153327 61:0.078827001 94:0.059558 106:0.094614998 115:0.069752999 133:0.060470998 148:0.109717 150:0.087154001 166:0.074706003 218:0.083988003 229:0.095371 231:0.071275003 246:0.109717 253:0.126963 262:0.061425999 266:0.12918399 281:0.076663002 302:0.049794 320:0.083988003 377:0.095481001 382:0.174309 396:0.083988003 397:0.081246004 430:0.090898998 432:0.10139 442:0.087154001 444:0.085608996 445:0.045322001 449:0.068336003 469:0.10139 477:0.072919004 481:0.062428001 502:0.10139 523:0.090898998 530:0.074706003 542:0.072919004 543:0.095481001 552:0.095481001 611:0.109717 624:0.061425999 649:0.090898998 657:0.124856 672:0.057039998 686:0.28644401 687:0.060470998 688:0.050935 733:0.081246004 767:0.057845 774:0.181797 805:0.049794 808:0.063481003 837:0.087154001 846:0.087154001 857:0.067010999 882:0.21943399 900:0.058683999 908:0.083988003 909:0.057039998 919:0.52292597 922:0.157654 926:0.126963 927:0.044447999 934:0.076663002 951:0.12918399 952:0.10139 959:0.10139 962:0.095481001 963:0.090898998 973:0.157654 
-0.011051146775756217 7:0.16005599 27:0.201491 49:0.186198 104:0.13923401 193:0.13089401 202:0.14476299 302:0.091444999 304:0.104752 335:0.175348 371:0.166932 393:0.16005599 410:0.201491 423:0.16005599 468:0.116581 496:0.149206 545:0.201491 586:0.118621 588:0.100633 646:0.125497 671:0.175348 767:0.106231 784:0.175348 832:0.133913 852:0.201491 901:0.50079602 910:0.186198 944:0.37239701 
-0.008093340253199667 66:0.200037 142:0.210122 181:0.241449 182:0.241449 195:0.191797 237:0.223124 286:0.173471 289:0.223124 304:0.125525 326:0.210122 330:0.069404997 440:0.16870999 451:0.200037 516:0.200037 517:0.14214399 570:0.191797 642:0.18483 644:0.13970099 679:0.144728 681:0.133075 686:0.210122 688:0.112091 690:0.173471 705:0.223124 713:0.144728 781:0.210122 783:0.16440199 822:0.210122 915:0.13106599 951:0.14214399 
-0.0055710457310334163 8:0.103928 22:0.080913998 106:0.071607001 108:0.074658997 197:0.077577002 200:0.092233002 234:0.09894 241:0.09894 255:0.079186 262:0.069733001 276:0.063873999 293:0.049977999 302:0.056527998 308:0.095345996 330:0.10741 342:0.092233002 349:0.080913998 352:0.108394 390:0.055300001 391:0.37366199 412:0.103191 420:0.077577002 465:0.09894 471:0.115101 476:0.62277001 502:0.115101 559:0.115101 564:0.108394 565:0.124554 620:0.108394 623:0.20638201 647:0.103191 655:0.09894 664:0.103191 678:0.082780004 679:0.074658997 688:0.057822999 691:0.09894 696:0.197881 703:0.108394 720:0.080913998 765:0.115101 827:0.108394 856:0.228218 
-0.0032928534075003114 17:0.121193 57:0.21304999 61:0.438126 132:0.28176501 179:0.090241 275:0.193846 302:0.13837799 424:0.18276501 445:0.12595201 467:0.25261 481:0.173489 624:0.17070501 641:0.193846 672:0.31703001 739:0.219063 762:0.128489 848:0.148477 857:0.186225 909:0.15851501 917:0.225785 922:0.219063 954:0.219063 
-0.0045671140663498984 8:0.064990997 15:0.111921 56:0.13556699 78:0.14395601 106:0.089559004 113:0.14395601 166:0.21213999 193:0.101199 203:0.155779 206:0.069921002 209:0.115356 226:0.14395601 253:0.090132996 261:0.476998 266:0.091709003 297:0.119249 304:0.080986999 319:0.129061 328:0.223842 363:0.074034996 366:0.095144004 369:0.123744 380:0.090132996 382:0.123744 420:0.097025998 443:0.14395601 468:0.090132996 492:0.13556699 561:0.14395601 583:0.129061 609:0.13556699 624:0.174429 679:0.093376003 686:0.271135 733:0.115356 747:0.123744 790:0.119249 827:0.271135 857:0.19028801 905:0.129061 909:0.080986999 991:0.10607 
-0.0029508851932104931 170:0.118267 196:0.171717 218:0.171717 304:0.11662 309:0.113508 311:0.22431999 330:0.064480998 384:0.207295 413:0.15674099 416:0.137006 477:0.29817101 481:0.127636 494:0.35637999 496:0.16610999 499:0.16610999 502:0.207295 569:0.171717 588:0.112035 603:0.22431999 629:0.195215 686:0.39043 738:0.17818999 767:0.118267 909:0.23323999 927:0.090875998 984:0.195215 
-0.0012732938660615853 91:0.407489 106:0.105454 108:0.109949 183:0.145707 197:0.114246 206:0.082331002 286:0.131786 291:0.27165899 297:0.140414 302:0.083246998 305:0.145707 307:0.169506 315:0.121908 328:0.131786 330:0.052726999 378:0.159629 385:0.159629 439:0.169506 465:0.145707 477:0.121908 579:0.145707 594:0.131786 608:0.151967 617:0.101097 644:0.10613 681:0.20219301 686:0.159629 688:0.085155003 696:0.145707 705:0.169506 713:0.109949 720:0.11916 745:0.140414 772:0.112031 803:0.169506 806:0.145707 813:0.183428 827:0.159629 847:0.169506 856:0.112031 948:0.11916 980:0.145707 
