SVM-light Version V3.50
0 # kernel type
1 # kernel parameter -d 
1 # kernel parameter -g 
1 # kernel parameter -s 
0 # kernel parameter -r 
EmptyParam # kernel parameter -u 
264 # highest feature index 
166 # number of training documents 
107 # number of support vectors plus 1 
1.2773283 # threshold b 
-0.17276358681339482 1:0.5 2:0.5 3:1 4:1 5:1 40:1 
-0.2314255819268744 1:0.575342 2:0.78082198 3:0.054795001 4:1 5:0.150685 141:0.57735002 167:0.57735002 216:0.57735002 
-0.33451866521484075 1:0.60000002 2:0.5 3:1 4:0.89999998 5:0.60000002 196:0.70710701 245:0.70710701 
-0.10110795045044463 1:0 2:1 3:0 4:1 5:0 187:1 
-0.21753052387899879 1:0 2:1 3:1 4:0 5:0 210:0.78562802 219:0.61869901 
0.33451866521484075 1:0 2:1 3:0 4:1 5:0 73:0.70710701 248:0.70710701 
0.33451866521484075 1:0 2:1 3:1 4:0 5:0 181:1 
0.33451866521484075 1:1 2:1 3:1 4:1 5:0 230:1 
0.33451866521484075 1:0.5 2:1 3:0.5 4:0.5 5:0.5 45:1 
0.33451866521484075 1:0.60000002 2:1 3:1 4:0 5:0 7:1 
-0.33451866521484075 1:1 2:1 3:1 4:0 5:0 75:0.592112 237:0.683779 262:0.42643899 
-0.33451866521484075 1:1 2:1 3:1 4:0 5:0 211:1 
-0.33451866521484075 1:1 2:1 3:1 4:0.75 5:0.25 78:1 
-0.28761390598061026 1:0.66666698 2:0.83333302 3:0.83333302 4:0 5:0 239:0.67281401 254:0.739811 
0.33451866521484075 1:0 2:0 3:0 4:1 5:1 65:0.65502697 183:0.65502697 200:0.37667 
0.33451866521484075 1:0 2:0 3:1 4:1 5:1 78:0.52219599 102:0.60303903 246:0.60303903 
0.33451866521484075 1:0 2:0.5 3:0 4:0.5 5:0.5 119:0.75595999 259:0.65461701 
0.33451866521484075 1:0 2:0 3:0.5 4:0 5:0.5 182:1 
0.33451866521484075 1:0 2:0 3:0 4:1 5:0 8:0.39971501 144:0.44142401 150:0.50474501 200:0.36856201 218:0.50474501 
-0.14665861205071928 1:0.25 2:0.75 3:0.5 4:0.5 5:0.25 198:1 
-0.046582536275389642 1:0.33333299 2:0.33333299 3:0.33333299 4:0.33333299 5:0.166667 33:1 
-0.067174887710720707 1:0.33333299 2:0.33333299 3:0.33333299 4:1 5:0.33333299 112:0.64699 226:0.64699 262:0.40349501 
-0.23497195642342783 1:0.5 2:1 3:1 4:1 5:1 97:0.70710701 205:0.70710701 
-0.28005907957476323 1:0.5 2:1 3:0.5 4:0 5:0 72:0.44721401 77:0.44721401 165:0.44721401 197:0.44721401 250:0.44721401 
0.33451866521484075 1:1 2:1 3:1 4:0 5:0 85:1 
0.33451866521484075 1:1 2:1 3:1 4:0 5:0 153:1 
0.33451866521484075 1:1 2:1 3:1 4:0 5:0 44:0.70710701 220:0.70710701 
0.33451866521484075 1:1 2:1 3:1 4:0 5:0 151:1 
0.33451866521484075 1:1 2:1 3:1 4:0 5:0 35:0.569754 185:0.569754 200:0.32763401 256:0.49337301 
-0.33451866521484075 1:0 2:1 3:1 4:0 5:0 144:0.622473 148:0.78264099 
-0.062050483497237824 1:0 2:1 3:1 4:0 5:0 69:0.57735002 120:0.57735002 206:0.57735002 
-0.33451866521484075 1:0 2:1 3:1 4:0 5:0 29:0.475752 93:0.475752 166:0.52312601 252:0.52312601 
-0.33451866521484075 1:0 2:1 3:1 4:0 5:0 38:0.70710701 162:0.70710701 
-0.33451866521484075 1:0 2:1 3:1 4:0 5:0 184:1 
0.33451866521484075 1:1 2:1 3:0 4:1 5:0 238:1 
0.33451866521484075 1:0 2:1 3:0 4:0.5 5:0.5 117:1 
0.33451866521484075 1:1 2:1 3:0 4:1 5:0 43:0.52312601 118:0.52312601 150:0.475752 218:0.475752 
-0.33451866521484075 1:1 2:0.33333299 3:0.66666698 4:0.33333299 5:0 19:1 
-0.2187451587655877 1:0.5 2:0.5 3:0.5 4:0 5:0 21:1 
-0.29137077354424218 1:0.60000002 2:0.60000002 3:0.80000001 4:0.80000001 5:0.60000002 48:1 
-0.018511475037726342 1:0 2:0.33333299 3:0 4:1 5:0 263:1 
-0.034481807568934583 1:1 2:1 3:0 4:1 5:1 110:0.60303903 131:0.60303903 145:0.52219599 
0.33451866521484075 1:0 2:1 3:1 4:0 5:0 56:1 
0.33451866521484075 1:0 2:1 3:1 4:0 5:0 235:1 
0.33451866521484075 1:0.5 2:1 3:1 4:0 5:0 136:1 
0.33451866521484075 1:0.5 2:0.5 3:1 4:0 5:0 214:1 
0.33451866521484075 1:0 2:0 3:1 4:0 5:0 8:0.36919099 43:0.51262301 144:0.40771401 150:0.46619999 218:0.46619999 
-0.33451866521484075 1:0 2:1 3:1 4:0 5:0 8:0.58441103 118:0.81145799 
-0.22248371189129901 1:0 2:0 3:1 4:0 5:0 36:0.5 64:0.5 160:0.5 169:0.5 
-0.22250463712618318 1:0 2:0 3:1 4:0 5:0 194:1 
-0.22248371189129951 1:0 2:0 3:1 4:0 5:0 161:1 
-0.22248371189129934 1:0 2:0 3:1 4:0 5:0 188:1 
0.33451866521484075 1:1 2:1 3:1 4:1 5:1 217:1 
0.33451866521484075 1:0.66666698 2:1 3:0.66666698 4:1 5:0.66666698 106:0.75595999 145:0.65461701 
0.33451866521484075 1:0.752101 2:0.62605 3:0.86134499 4:0.90756297 5:0.878151 103:1 
-0.33451866521484075 1:1 2:1 3:1 4:1 5:1 49:0.45764899 73:0.52849901 139:0.45764899 143:0.45764899 163:0.30390999 
-0.33451866521484075 1:1 2:1 3:0.33333299 4:1 5:0.33333299 50:0.70710701 73:0.70710701 
-0.2523402864674717 1:1 2:1 3:0.66666698 4:1 5:1 115:1 
-0.33451866521484075 1:1 2:1 3:0 4:1 5:0 61:1 
0.33451866521484075 1:0 2:0.33333299 3:0.33333299 4:0.33333299 5:0 89:0.75595999 232:0.65461701 
0.33451866521484075 1:1 2:0 3:1 4:0 5:0 22:0.57735002 79:0.57735002 135:0.57735002 
0.33451866521484075 1:0 2:0.5 3:1 4:0.5 5:0.5 46:0.54794103 63:0.54794103 142:0.54794103 200:0.31509101 
-0.13417298451607079 1:0 2:0 3:1 4:0 5:0 127:0.65502697 133:0.65502697 163:0.37667 
0.33451866521484075 1:0.33333299 2:1 3:0.66666698 4:1 5:0.33333299 122:0.65502697 146:0.65502697 200:0.37667 
0.33451866521484075 1:1 2:1 3:0.5 4:0.5 5:0 243:0.75595999 259:0.65461701 
0.33451866521484075 1:1 2:1 3:1 4:1 5:0 28:0.288515 34:0.366357 60:0.31724399 149:0.31724399 164:0.366357 200:0.21067201 212:0.366357 222:0.366357 258:0.366357 
-0.30831067044746996 1:0.77777803 2:0.88888901 3:0.111111 4:1 5:0.222222 47:0.70710701 138:0.70710701 
-0.038873641693916661 1:0 2:0.5 3:0 4:1 5:0 16:0.70710701 186:0.70710701 
-0.33451866521484075 1:0.875 2:1 3:0.125 4:0.875 5:0 9:0.59474498 121:0.59474498 219:0.54088497 
0.33451866521484075 1:0.77777803 2:0.88888901 3:1 4:0 5:0 52:0.70710701 124:0.70710701 
0.33451866521484075 1:0.73684198 2:0.98245603 3:0.75438601 4:0.210526 5:0.210526 158:1 
0.33451866521484075 1:0.23076899 2:0.76923102 3:1 4:1 5:0 201:1 
0.33451866521484075 1:0.25 2:1 3:1 4:1 5:0 39:0.5 180:0.5 242:0.5 253:0.5 
0.33451866521484075 1:0.70339 2:0.957627 3:0.983051 4:0.644068 5:0.025424 81:0.37796399 88:0.37796399 129:0.37796399 154:0.75592899 
-0.33451866521484075 1:1 2:0.5 3:1 4:0.5 5:0.5 132:1 
-0.28282992265797818 1:0 2:1 3:1 4:0 5:0 69:0.57735002 120:0.57735002 206:0.57735002 
-0.33451866521484075 1:0.33333299 2:0.66666698 3:0.66666698 4:1 5:0 27:0.70710701 109:0.70710701 
0.33451866521484075 1:0.81818199 2:1 3:0.909091 4:0 5:0 125:1 
-0.33451866521484075 1:0.5 2:1 3:0.5 4:0.5 5:0 130:0.70710701 221:0.70710701 
-0.23497210680500408 1:0.5 2:1 3:1 4:1 5:1 231:1 
-0.32075293169818642 1:0.5 2:0.5 3:1 4:0.5 5:0.5 179:1 
-0.31729946321980446 1:0.66666698 2:0.66666698 3:0.66666698 4:0 5:0 20:0.60697103 90:0.513004 173:0.60697103 
-0.16437327692880138 1:1 2:1 3:1 4:0 5:1 67:0.75595999 116:0.65461701 
-0.28397347570530246 1:0.60000002 2:0.60000002 3:0.80000001 4:0.2 5:0.2 23:0.62799299 90:0.459618 128:0.62799299 
-0.20030466367203092 1:0.66666698 2:0.83333302 3:0.83333302 4:0 5:0 239:0.67281401 254:0.739811 
0.33451866521484075 1:0 2:1 3:1 4:1 5:0 92:0.69328701 200:0.398671 232:0.60034603 
-0.16437882050199118 1:0.375 2:0.75 3:0.875 4:1 5:0.875 113:0.70710701 159:0.70710701 
-0.20867760524317391 1:0.5 2:0.91666698 3:0.41666701 4:1 5:0.5 244:1 
0.33451866521484075 1:1 2:1 3:1 4:0 5:0 156:0.69328701 200:0.398671 256:0.60034603 
0.33451866521484075 1:0.85714298 2:0.85714298 3:1 4:1 5:0 28:0.50307 60:0.55316502 149:0.55316502 200:0.36733899 
-0.31781585392491341 1:1 2:1 3:0.5 4:0.5 5:0.5 208:1 
-0.2243904245592605 1:0.33333299 2:1 3:0 4:1 5:0 12:0.63249201 17:0.547701 236:0.547701 
-0.10103202777378673 1:0 2:1 3:0 4:1 5:0 14:1 
-0.10110788570448626 1:0 2:1 3:0 4:1 5:0 104:0.70710701 228:0.70710701 
-0.10103194778574642 1:0 2:1 3:0 4:1 5:0 172:0.60303903 178:0.52219599 202:0.60303903 
-0.10029057914456677 1:0 2:1 3:0 4:1 5:0 37:0.70710701 55:0.70710701 
-0.16223912086444386 1:0.23076899 2:0.69230801 3:0.69230801 4:0.076922998 5:0 8:0.475582 57:0.76257801 163:0.43851599 
-0.16156574202269175 1:0 2:0.5 3:0.5 4:0.5 5:0 96:1 
-0.16230807076717094 1:0.33333299 2:0.66666698 3:0.66666698 4:0.33333299 5:0.33333299 54:1 
-0.10306662296689922 1:0.57142901 2:0.71428603 3:0.42857099 4:0.71428603 5:0.57142901 227:1 
-0.047225373938019538 1:0.875 2:1 3:0.125 4:0.875 5:0 9:0.59474498 121:0.59474498 219:0.54088497 
-0.1587517457671308 1:0 2:0 3:1 4:0 5:0 8:0.42104301 66:0.67512703 144:0.46497801 163:0.388228 
-0.024786840342824967 1:0.5 2:0.75 3:0.75 4:0.25 5:0.75 41:0.547701 209:0.63249201 249:0.547701 
-0.023422333189990457 1:0.166667 2:0.72222197 3:0.277778 4:0.166667 5:0.055555999 91:0.70710701 126:0.70710701 
-0.018371534869074439 1:0 2:0 3:1 4:0 5:0 144:0.622473 148:0.78264099 
-0.0087779196788151659 1:0.41666701 2:0.58333302 3:0.41666701 4:0.5 5:0.5 168:1 
