SVM-light Version V3.50
0 # kernel type
1 # kernel parameter -d 
1 # kernel parameter -g 
1 # kernel parameter -s 
0 # kernel parameter -r 
EmptyParam # kernel parameter -u 
264 # highest feature index 
166 # number of training documents 
155 # number of support vectors plus 1 
0.63699733 # threshold b 
-0.22861792016787275 1:0 2:0.33333299 3:1 4:1 5:1 18:0.57735002 105:0.57735002 177:0.57735002 
-0.19986355815928847 1:0.222222 2:0.66666698 3:1 4:1 5:0.66666698 68:0.57735002 108:0.57735002 257:0.57735002 
-0.051339158500505078 1:0 2:1 3:1 4:1 5:0 116:0.60034603 163:0.398671 171:0.69328701 
-0.18635389030350849 1:0.5 2:0.5 3:1 4:1 5:0 8:0.475582 10:0.76257801 163:0.43851599 
-0.047554352362524033 1:0 2:1 3:1 4:1 5:1 210:0.78562802 219:0.61869901 
0.2497250950285336 1:0.5 2:0.5 3:1 4:0.5 5:0 179:1 
0.2497250950285336 1:0 2:0 3:1 4:1 5:0 194:1 
0.2497250950285336 1:0 2:0 3:1 4:1 5:0 161:1 
0.2497250950285336 1:0.66666698 2:0.33333299 3:1 4:1 5:0.33333299 241:1 
0.2497250950285336 1:0 2:0 3:1 4:1 5:0 6:1 
-0.2497250950285336 1:0 2:0 3:1 4:1 5:0 6:1 
-0.23961842103279238 1:0 2:0 3:1 4:0 5:0 20:0.44508499 58:0.44508499 90:0.37618101 173:0.44508499 189:0.51398998 
-0.2497250950285336 1:0 2:0 3:1 4:0 5:0 36:0.5 64:0.5 160:0.5 169:0.5 
-0.2497250950285336 1:1 2:0 3:1 4:1 5:0 22:0.57735002 79:0.57735002 135:0.57735002 
-0.2497250950285336 1:0 2:0 3:1 4:0.5 5:0 182:1 
0.2497250950285336 1:0 2:1 3:1 4:1 5:1 69:0.57735002 120:0.57735002 206:0.57735002 
0.2497250950285336 1:0.5 2:1 3:1 4:1 5:1 72:0.44721401 77:0.44721401 165:0.44721401 197:0.44721401 250:0.44721401 
0.2497250950285336 1:0.875 2:1 3:1 4:1 5:0.875 9:0.59474498 121:0.59474498 219:0.54088497 
0.2497250950285336 1:0.83333302 2:1 3:1 4:1 5:1 193:1 
0.2497250950285336 1:1 2:1 3:1 4:1 5:1 26:1 
-0.2497250950285336 1:0.875 2:1 3:1 4:1 5:0.875 9:0.59474498 121:0.59474498 219:0.54088497 
-0.14435693272563435 1:1 2:1 3:1 4:1 5:1 208:1 
-0.14435693272563457 1:1 2:1 3:1 4:1 5:1 61:1 
-0.14435693272563474 1:1 2:1 3:1 4:1 5:1 123:1 
-0.03513024962558807 1:0 2:1 3:1 4:1 5:0 104:0.70710701 228:0.70710701 
0.2497250950285336 1:0 2:0 3:1 4:0 5:0 58:0.52219599 137:0.60303903 170:0.60303903 
0.2497250950285336 1:0 2:0 3:1 4:1 5:0 260:1 
0.2497250950285336 1:0 2:0 3:1 4:1 5:0 51:1 
0.2497250950285336 1:0 2:0 3:1 4:1 5:0 59:0.57735002 95:0.57735002 111:0.57735002 
0.2497250950285336 1:0 2:0 3:1 4:1 5:0 188:1 
-0.2497250950285336 1:0 2:0 3:1 4:1 5:0 13:0.534545 41:0.46288401 249:0.46288401 261:0.534545 
-0.2497250950285336 1:0 2:0 3:1 4:1 5:0 101:0.48036999 124:0.55473697 203:0.48036999 224:0.48036999 
-0.2497250950285336 1:0 2:0 3:1 4:1 5:0 53:1 
-0.2497250950285336 1:0 2:0 3:1 4:1 5:0 65:0.65502697 183:0.65502697 200:0.37667 
-0.2497250950285336 1:0 2:0 3:1 4:1 5:0 78:0.52219599 102:0.60303903 246:0.60303903 
0.2497250950285336 1:1 2:1 3:1 4:1 5:0.66666698 115:1 
0.2497250950285336 1:0.77777803 2:0.88888901 3:1 4:1 5:0.88888901 47:0.70710701 138:0.70710701 
0.2497250950285336 1:1 2:1 3:1 4:1 5:0.5 211:1 
-0.2497250950285336 1:0.77777803 2:0.88888901 3:1 4:1 5:0.88888901 47:0.70710701 138:0.70710701 
-0.2497250950285336 1:0.5 2:1 3:1 4:1 5:1 72:0.44721401 77:0.44721401 165:0.44721401 197:0.44721401 250:0.44721401 
-0.14409954307985728 1:1 2:1 3:1 4:1 5:1 238:1 
-0.14889286109292921 1:0.81818199 2:1 3:1 4:1 5:0.81818199 125:1 
-0.12364600057469954 1:0.73684198 2:0.98245603 3:1 4:1 5:1 158:1 
0.2497250950285336 1:0 2:0 3:1 4:1 5:0 76:1 
0.2497250950285336 1:0 2:0 3:1 4:1 5:0 175:1 
0.2497250950285336 1:0 2:0.33333299 3:1 4:1 5:0 223:1 
0.2497250950285336 1:0 2:0.33333299 3:1 4:1 5:0 263:1 
0.2497250950285336 1:0 2:0.5 3:1 4:1 5:0 96:1 
-0.2497250950285336 1:0 2:0 3:1 4:1 5:0 24:0.53182101 70:0.53182101 90:0.389231 155:0.53182101 
-0.1739263748670879 1:0 2:0 3:1 4:1 5:0 8:0.36919099 43:0.51262301 144:0.40771401 150:0.46619999 218:0.46619999 
-0.20927764821616701 1:0 2:0.5 3:1 4:1 5:0 46:0.54794103 63:0.54794103 142:0.54794103 200:0.31509101 
-0.2497250950285336 1:0 2:0 3:1 4:1 5:0 127:0.65502697 133:0.65502697 163:0.37667 
-0.1881944726656391 1:0 2:0 3:1 4:1 5:0 8:0.42104301 66:0.67512703 144:0.46497801 163:0.388228 
0.2497250950285336 1:1 2:0 3:1 4:1 5:1 215:1 
0.2497250950285336 1:0.5 2:0.75 3:1 4:0.75 5:0.75 15:1 
0.2497250950285336 1:0.5 2:0.91666698 3:1 4:1 5:0.66666698 244:1 
0.2497250950285336 1:1 2:1 3:1 4:1 5:0.25 78:1 
0.2497250950285336 1:0.55813998 2:0.69767398 3:1 4:1 5:0.67441899 147:1 
-0.2497250950285336 1:1 2:1 3:1 4:1 5:0 230:1 
-0.2497250950285336 1:1 2:1 3:1 4:1 5:0 85:1 
-0.16501838426472909 1:1 2:1 3:1 4:1 5:0 243:0.75595999 259:0.65461701 
-0.2497250950285336 1:1 2:1 3:1 4:1 5:0 153:1 
-0.2497250950285336 1:1 2:1 3:1 4:1 5:0 217:1 
0.2497250950285336 1:0 2:0.5 3:1 4:1 5:0 30:0.70710701 86:0.70710701 
0.2497250950285336 1:0 2:0.5 3:1 4:1 5:0 31:1 
0.2497250950285336 1:0 2:0.5 3:1 4:1 5:0 11:0.70710701 42:0.70710701 
-0.2497250950285336 1:0 2:1 3:1 4:1 5:1 69:0.57735002 120:0.57735002 206:0.57735002 
-0.2497250950285336 1:0 2:0.5 3:1 4:1 5:0 58:0.65461701 228:0.75595999 
-0.2497250950285336 1:0 2:0.33333299 3:1 4:1 5:0 87:0.70710701 251:0.70710701 
-0.2497250950285336 1:0 2:0.33333299 3:1 4:1 5:0 89:0.75595999 232:0.65461701 
0.2497250950285336 1:1 2:1 3:1 4:1 5:0 110:0.60303903 131:0.60303903 145:0.52219599 
0.2497250950285336 1:1 2:1 3:1 4:1 5:0 247:1 
0.2497250950285336 1:1 2:0.5 3:1 4:1 5:0.5 107:1 
0.2497250950285336 1:1 2:0.5 3:1 4:1 5:0 132:1 
0.2497250950285336 1:1 2:0.33333299 3:1 4:0.66666698 5:0 19:1 
-0.1404312250182187 1:1 2:1 3:1 4:0 5:0 75:0.592112 237:0.683779 262:0.42643899 
-0.2497250950285336 1:1 2:1 3:1 4:1 5:0 44:0.70710701 220:0.70710701 
-0.2497250950285336 1:1 2:1 3:1 4:1 5:0 151:1 
-0.14775487221564348 1:1 2:1 3:1 4:1 5:0 28:0.288515 34:0.366357 60:0.31724399 149:0.31724399 164:0.366357 200:0.21067201 212:0.366357 222:0.366357 258:0.366357 
-0.13081905441304209 1:1 2:1 3:1 4:1 5:0 35:0.569754 185:0.569754 200:0.32763401 256:0.49337301 
0.2497250950285336 1:0 2:1 3:1 4:1 5:0 37:0.70710701 55:0.70710701 
0.2497250950285336 1:0 2:1 3:1 4:1 5:0 17:0.547701 176:0.63249201 236:0.547701 
0.2497250950285336 1:0 2:1 3:1 4:1 5:0 187:1 
0.2497250950285336 1:0 2:1 3:1 4:1 5:0 229:1 
0.2497250950285336 1:0 2:1 3:1 4:1 5:0 199:1 
-0.2497250950285336 1:0 2:1 3:1 4:1 5:0 229:1 
-0.035424848675603582 1:0 2:1 3:1 4:1 5:0 73:0.70710701 248:0.70710701 
-0.16889860323185779 1:0 2:1 3:1 4:1 5:0 38:0.70710701 162:0.70710701 
-0.11000070909637349 1:0 2:1 3:1 4:1 5:0 25:0.408268 83:0.408268 157:0.70707297 192:0.408268 
-0.1686493971061922 1:0 2:1 3:1 4:1 5:0 181:1 
0.2497250950285336 1:0.5 2:0.5 3:1 4:0.5 5:0.5 28:0.61869901 84:0.78562802 
0.2497250950285336 1:0.66666698 2:0.83333302 3:1 4:1 5:0.33333299 239:0.67281401 254:0.739811 
0.2497250950285336 1:0.60000002 2:0.60000002 3:1 4:1 5:0 23:0.62799299 90:0.459618 128:0.62799299 
0.2497250950285336 1:0.60000002 2:0.80000001 3:1 4:1 5:0.40000001 191:0.78562802 239:0.61869901 
-0.2497250950285336 1:0.66666698 2:0.83333302 3:1 4:1 5:0.33333299 239:0.67281401 254:0.739811 
-0.22060552111410031 1:0 2:0 3:1 4:1 5:1 144:0.622473 148:0.78264099 
-0.22106181879461717 1:0.41666701 2:0.58333302 3:1 4:1 5:0.83333302 168:1 
-0.2497250950285336 1:0.5 2:0.5 3:1 4:1 5:0.5 98:1 
-0.16366969982199026 1:0.5 2:0.75 3:1 4:1 5:1 207:1 
0.2497250950285336 1:0 2:1 3:1 4:0 5:0 184:1 
0.2497250950285336 1:0.5 2:1 3:1 4:1 5:0 240:1 
0.2497250950285336 1:0.42857099 2:0.85714298 3:1 4:1 5:0 62:1 
0.2497250950285336 1:0.25 2:0.75 3:1 4:0.75 5:0 198:1 
0.2497250950285336 1:0.5 2:1 3:1 4:1 5:0.5 130:0.70710701 221:0.70710701 
-0.10804023812652463 1:0.77777803 2:0.88888901 3:1 4:0.111111 5:0 52:0.70710701 124:0.70710701 
-0.14145076322860362 1:0.60000002 2:1 3:1 4:0.2 5:0.2 7:1 
-0.2497250950285336 1:0.5 2:0.5 3:1 4:0.5 5:0 214:1 
-0.16891407323591201 1:0 2:1 3:1 4:1 5:0 56:1 
-0.16885371438145758 1:0 2:1 3:1 4:1 5:0 235:1 
0.2497250950285336 1:0.285714 2:0.71428603 3:1 4:1 5:0.71428603 32:1 
0.2497250950285336 1:0.5 2:0.5 3:1 4:1 5:0.5 40:1 
0.2497250950285336 1:0.5 2:0.5 3:1 4:1 5:0.5 74:1 
0.2497250950285336 1:0.25 2:0.5 3:1 4:1 5:0.5 195:1 
0.2497250950285336 1:0.5 2:1 3:1 4:1 5:0.5 234:1 
-0.24399821196080396 1:0 2:0.5 3:1 4:1 5:0.5 100:0.60303903 178:0.52219599 225:0.60303903 
-0.2497250950285336 1:0.33333299 2:0.33333299 3:1 4:1 5:0.33333299 112:0.64699 226:0.64699 262:0.40349501 
-0.17293682928532927 1:0.166667 2:0.72222197 3:1 4:1 5:0.72222197 91:0.70710701 126:0.70710701 
-0.2497250950285336 1:0.66666698 2:1 3:1 4:1 5:0.33333299 106:0.75595999 145:0.65461701 
-0.17088210112484178 1:0.33333299 2:0.70833302 3:1 4:0.95833302 5:0.875 99:1 
0.2497250950285336 1:0.33333299 2:0.66666698 3:1 4:0.66666698 5:0 27:0.70710701 109:0.70710701 
0.2497250950285336 1:0.575342 2:0.78082198 3:1 4:0.93150699 5:0.123288 141:0.57735002 167:0.57735002 216:0.57735002 
0.2497250950285336 1:0.33333299 2:0.33333299 3:1 4:0.66666698 5:0.166667 33:1 
0.2497250950285336 1:0.57142901 2:0.71428603 3:1 4:1 5:0.142857 227:1 
-0.2497250950285336 1:0.752101 2:0.62605 3:1 4:1 5:0.012605 103:1 
-0.2497250950285336 1:0.5 2:0.5 3:1 4:1 5:0 82:0.384904 114:0.384904 134:0.384904 140:0.384904 157:0.333305 190:0.384904 204:0.384904 
-0.2497250950285336 1:0.23076899 2:0.76923102 3:1 4:1 5:0 201:1 
-0.24513995777029463 1:0.70339 2:0.957627 3:1 4:1 5:0.025424 81:0.37796399 88:0.37796399 129:0.37796399 154:0.75592899 
-0.2172580021712418 1:0.5 2:1 3:1 4:1 5:0 97:0.70710701 205:0.70710701 
0.2497250950285336 1:0.33333299 2:0.66666698 3:1 4:1 5:0.33333299 54:1 
0.2497250950285336 1:0.375 2:0.75 3:1 4:1 5:0 113:0.70710701 159:0.70710701 
0.2497250950285336 1:0 2:0.5 3:1 4:1 5:0 16:0.70710701 186:0.70710701 
0.2497250950285336 1:0.60000002 2:0.60000002 3:1 4:1 5:0 48:1 
0.2497250950285336 1:0.5 2:0.5 3:1 4:1 5:0 21:1 
-0.23390998485287751 1:0 2:0.5 3:1 4:1 5:0 119:0.75595999 259:0.65461701 
0.2497250950285336 1:0.33333299 2:1 3:1 4:1 5:0 12:0.63249201 17:0.547701 236:0.547701 
0.2497250950285336 1:0.60000002 2:0.5 3:1 4:1 5:0 196:0.70710701 245:0.70710701 
-0.19318674783191647 1:0.25 2:1 3:1 4:1 5:0 39:0.5 180:0.5 242:0.5 253:0.5 
-0.20003460650868521 1:0.5 2:1 3:1 4:1 5:0.142857 136:1 
-0.15720680295644257 1:0.66666698 2:0.66666698 3:1 4:1 5:0 20:0.60697103 90:0.513004 173:0.60697103 
-0.1686493971061932 1:0 2:1 3:1 4:1 5:0 117:1 
-0.2497250950285336 1:0 2:0.5 3:1 4:1 5:0.5 73:0.75595999 227:0.65461701 
-0.15630583299613587 1:0.5 2:1 3:1 4:1 5:0.5 45:1 
-0.1200390460329865 1:0.47999999 2:0.68000001 3:1 4:1 5:1 29:0.61869901 174:0.78562802 
-0.18474407697120515 1:0.85714298 2:0.85714298 3:1 4:1 5:0 28:0.50307 60:0.55316502 149:0.55316502 200:0.36733899 
-0.095868988636732932 1:0.5 2:1 3:1 4:1 5:1 231:1 
-0.18560723188855222 1:0 2:0.60000002 3:1 4:0.60000002 5:0 29:0.52614099 71:0.66809601 93:0.52614099 
-0.047440371794436734 1:1 2:1 3:1 4:0 5:1 67:0.75595999 116:0.65461701 
-0.14136759307767779 1:1 2:1 3:1 4:1 5:0 43:0.52312601 118:0.52312601 150:0.475752 218:0.475752 
-0.047297941040647634 1:0 2:1 3:1 4:1 5:1 14:1 
-0.037285502221124131 1:0.5 2:0.75 3:1 4:1 5:1 41:0.547701 209:0.63249201 249:0.547701 
-0.072930298335867949 1:0.33333299 2:1 3:1 4:1 5:0 122:0.65502697 146:0.65502697 200:0.37667 
-0.03418991280318423 1:0.5 2:1 3:1 4:1 5:1 49:0.53310102 139:0.53310102 143:0.53310102 262:0.383939 
-0.095335828425547248 1:1 2:1 3:1 4:1 5:0 156:0.69328701 200:0.398671 256:0.60034603 
-0.1004096035701213 1:0 2:0.66666698 3:1 4:1 5:0.33333299 8:0.33293501 93:0.42041799 166:0.462282 233:0.533849 252:0.462282 
