SVM-light Version V3.50
0 # kernel type
1 # kernel parameter -d 
1 # kernel parameter -g 
1 # kernel parameter -s 
0 # kernel parameter -r 
EmptyParam # kernel parameter -u 
264 # highest feature index 
166 # number of training documents 
133 # number of support vectors plus 1 
0.79424736 # threshold b 
-0.10478450636425669 1:0 2:0.5 3:1 4:1 5:0 46:0.54794103 63:0.54794103 142:0.54794103 200:0.31509101 
-0.12297513723575941 1:0 2:0 3:1 4:1 5:0 194:1 
-0.12297513723575966 1:0 2:0 3:1 4:1 5:0 161:1 
-0.2497250950285336 1:0.66666698 2:0.33333299 3:1 4:1 5:0.33333299 241:1 
-0.2497250950285336 1:0 2:0 3:1 4:1 5:0 6:1 
0.2497250950285336 1:0 2:0.33333299 3:1 4:1 5:1 18:0.57735002 105:0.57735002 177:0.57735002 
0.2497250950285336 1:0.222222 2:0.66666698 3:1 4:1 5:0.66666698 68:0.57735002 108:0.57735002 257:0.57735002 
0.2497250950285336 1:0 2:1 3:1 4:1 5:0 116:0.60034603 163:0.398671 171:0.69328701 
0.2497250950285336 1:0.5 2:0.5 3:1 4:1 5:0 8:0.475582 10:0.76257801 163:0.43851599 
0.23572547730850504 1:0 2:1 3:1 4:1 5:1 210:0.78562802 219:0.61869901 
-0.2497250950285336 1:0 2:1 3:1 4:1 5:1 69:0.57735002 120:0.57735002 206:0.57735002 
-0.2497250950285336 1:0.5 2:1 3:1 4:1 5:1 72:0.44721401 77:0.44721401 165:0.44721401 197:0.44721401 250:0.44721401 
-0.2497250950285336 1:0.875 2:1 3:1 4:1 5:0.875 9:0.59474498 121:0.59474498 219:0.54088497 
-0.2497250950285336 1:0.83333302 2:1 3:1 4:1 5:1 193:1 
-0.2497250950285336 1:0.73684198 2:0.98245603 3:1 4:1 5:1 158:1 
0.2497250950285336 1:0 2:0 3:1 4:1 5:0 6:1 
0.2497250950285336 1:0 2:0 3:1 4:0 5:0 20:0.44508499 58:0.44508499 90:0.37618101 173:0.44508499 189:0.51398998 
0.2497250950285336 1:0 2:0 3:1 4:0 5:0 36:0.5 64:0.5 160:0.5 169:0.5 
0.2497250950285336 1:0 2:0 3:1 4:1 5:0 13:0.534545 41:0.46288401 249:0.46288401 261:0.534545 
0.2497250950285336 1:0 2:0 3:1 4:1 5:0 24:0.53182101 70:0.53182101 90:0.389231 155:0.53182101 
-0.2497250950285336 1:0 2:0 3:1 4:0 5:0 58:0.52219599 137:0.60303903 170:0.60303903 
-0.16412259624150086 1:0 2:0 3:1 4:0.5 5:0 182:1 
-0.2497250950285336 1:0 2:0 3:1 4:1 5:0 8:0.39971501 144:0.44142401 150:0.50474501 200:0.36856201 218:0.50474501 
-0.2497250950285336 1:0 2:0 3:1 4:1 5:0 8:0.36919099 43:0.51262301 144:0.40771401 150:0.46619999 218:0.46619999 
-0.12249255421655796 1:0 2:0 3:1 4:1 5:0 260:1 
0.2497250950285336 1:0.875 2:1 3:1 4:1 5:0.875 9:0.59474498 121:0.59474498 219:0.54088497 
0.2497250950285336 1:1 2:1 3:1 4:1 5:1 208:1 
0.2497250950285336 1:1 2:1 3:1 4:1 5:1 61:1 
0.2497250950285336 1:1 2:1 3:1 4:1 5:1 123:1 
0.2497250950285336 1:1 2:1 3:1 4:1 5:1 50:0.70710701 73:0.70710701 
-0.2497250950285336 1:1 2:1 3:1 4:1 5:1 26:1 
-0.2497250950285336 1:1 2:1 3:1 4:1 5:1 238:1 
-0.2497250950285336 1:0.81818199 2:1 3:1 4:1 5:0.81818199 125:1 
0.2497250950285336 1:0 2:0 3:1 4:1 5:0 8:0.42104301 66:0.67512703 144:0.46497801 163:0.388228 
0.2497250950285336 1:0 2:0 3:1 4:1 5:0 101:0.48036999 124:0.55473697 203:0.48036999 224:0.48036999 
0.2497250950285336 1:0 2:0 3:1 4:1 5:0 53:1 
-0.12297513723575941 1:0 2:0 3:1 4:1 5:0 51:1 
-0.12287671487524321 1:0 2:0 3:1 4:1 5:0 59:0.57735002 95:0.57735002 111:0.57735002 
-0.12287660900511072 1:0 2:0 3:1 4:1 5:0 188:1 
-0.12297513723575965 1:0 2:0 3:1 4:1 5:0 76:1 
-0.1228766090051109 1:0 2:0 3:1 4:1 5:0 175:1 
0.2497250950285336 1:0.5 2:1 3:1 4:1 5:1 72:0.44721401 77:0.44721401 165:0.44721401 197:0.44721401 250:0.44721401 
0.2497250950285336 1:1 2:1 3:1 4:0 5:1 67:0.75595999 116:0.65461701 
0.2497250950285336 1:0.77777803 2:0.88888901 3:1 4:1 5:0.88888901 47:0.70710701 138:0.70710701 
0.2497250950285336 1:1 2:1 3:1 4:1 5:1 49:0.45764899 73:0.52849901 139:0.45764899 143:0.45764899 163:0.30390999 
-0.2497250950285336 1:0.77777803 2:0.88888901 3:1 4:1 5:0.88888901 47:0.70710701 138:0.70710701 
-0.2497250950285336 1:1 2:1 3:1 4:1 5:0.66666698 115:1 
-0.2497250950285336 1:1 2:1 3:1 4:1 5:0.5 211:1 
-0.2497250950285336 1:0.5 2:0.91666698 3:1 4:1 5:0.66666698 244:1 
0.2497250950285336 1:0 2:0 3:1 4:1 5:0 127:0.65502697 133:0.65502697 163:0.37667 
0.2497250950285336 1:0 2:0.33333299 3:1 4:1 5:0 87:0.70710701 251:0.70710701 
-0.2497250950285336 1:0 2:1 3:1 4:1 5:0 73:0.70710701 248:0.70710701 
-0.2497250950285336 1:0 2:1 3:1 4:0 5:0 184:1 
-0.10965305839139619 1:0.5 2:1 3:1 4:1 5:0.142857 136:1 
-0.20847545507175116 1:0.60000002 2:1 3:1 4:0.2 5:0.2 7:1 
-0.2497250950285336 1:0.5 2:0.75 3:1 4:0.75 5:0.75 15:1 
0.2497250950285336 1:0.5 2:0.5 3:1 4:1 5:0 82:0.384904 114:0.384904 134:0.384904 140:0.384904 157:0.333305 190:0.384904 204:0.384904 
0.2497250950285336 1:0.33333299 2:0.33333299 3:1 4:1 5:0.33333299 112:0.64699 226:0.64699 262:0.40349501 
0.2497250950285336 1:0 2:0.5 3:1 4:1 5:0 58:0.65461701 228:0.75595999 
0.2497250950285336 1:0.5 2:0.5 3:1 4:1 5:0.5 98:1 
0.2497250950285336 1:0.66666698 2:0.83333302 3:1 4:1 5:0.33333299 239:0.67281401 254:0.739811 
-0.2497250950285336 1:1 2:0 3:1 4:1 5:1 215:1 
-0.2497250950285336 1:0.66666698 2:0.83333302 3:1 4:1 5:0.33333299 239:0.67281401 254:0.739811 
-0.12287651173624543 1:0 2:0 3:1 4:1 5:0 78:0.52219599 102:0.60303903 246:0.60303903 
-0.064362604956911484 1:0 2:0 3:1 4:1 5:0 65:0.65502697 183:0.65502697 200:0.37667 
-0.2497250950285336 1:0.25 2:0.5 3:1 4:1 5:0.5 195:1 
0.2497250950285336 1:1 2:1 3:1 4:0 5:0 75:0.592112 237:0.683779 262:0.42643899 
0.2497250950285336 1:0 2:0.60000002 3:1 4:0.60000002 5:0 29:0.52614099 71:0.66809601 93:0.52614099 
0.2497250950285336 1:0.5 2:1 3:1 4:1 5:0 97:0.70710701 205:0.70710701 
-0.2497250950285336 1:0.5 2:1 3:1 4:1 5:0.5 130:0.70710701 221:0.70710701 
-0.2497250950285336 1:0.5 2:1 3:1 4:1 5:0.5 234:1 
-0.2497250950285336 1:0.5 2:1 3:1 4:1 5:0.5 45:1 
-0.17877074166851345 1:0 2:1 3:1 4:1 5:0 37:0.70710701 55:0.70710701 
-0.17877105080410866 1:0 2:1 3:1 4:1 5:0 17:0.547701 176:0.63249201 236:0.547701 
0.2497250950285336 1:0 2:1 3:1 4:1 5:1 69:0.57735002 120:0.57735002 206:0.57735002 
0.2497250950285336 1:0 2:0 3:1 4:1 5:1 144:0.622473 148:0.78264099 
0.2497250950285336 1:0 2:0.5 3:1 4:1 5:0.5 100:0.60303903 178:0.52219599 225:0.60303903 
0.2497250950285336 1:0.41666701 2:0.58333302 3:1 4:1 5:0.83333302 168:1 
0.2497250950285336 1:0.33333299 2:0.70833302 3:1 4:0.95833302 5:0.875 99:1 
-0.2497250950285336 1:0.285714 2:0.71428603 3:1 4:1 5:0.71428603 32:1 
-0.2497250950285336 1:0.55813998 2:0.69767398 3:1 4:1 5:0.67441899 147:1 
-0.2497250950285336 1:0.5 2:0.5 3:1 4:1 5:0.5 40:1 
-0.2497250950285336 1:0.5 2:0.5 3:1 4:1 5:0.5 74:1 
0.2497250950285336 1:0 2:1 3:1 4:1 5:0 229:1 
0.2497250950285336 1:0 2:1 3:1 4:1 5:0 38:0.70710701 162:0.70710701 
0.2497250950285336 1:0 2:1 3:1 4:1 5:0 8:0.58441103 118:0.81145799 
0.2497250950285336 1:0 2:1 3:1 4:1 5:0 25:0.408268 83:0.408268 157:0.70707297 192:0.408268 
0.2497250950285336 1:0 2:1 3:1 4:1 5:0 29:0.475752 93:0.475752 166:0.52312601 252:0.52312601 
-0.2497250950285336 1:0 2:1 3:1 4:1 5:0 229:1 
-0.17953138207465932 1:0 2:1 3:1 4:1 5:0 187:1 
-0.17953138207465963 1:0 2:1 3:1 4:1 5:0 199:1 
-0.1793794192666511 1:0 2:1 3:1 4:1 5:0 181:1 
-0.17953138207465957 1:0 2:1 3:1 4:1 5:0 56:1 
0.2497250950285336 1:0.5 2:0.75 3:1 4:1 5:1 207:1 
-0.17917069443450578 1:0 2:1 3:1 4:1 5:0 235:1 
-0.17917069443450523 1:0 2:1 3:1 4:1 5:0 117:1 
-0.2497250950285336 1:0.33333299 2:0.66666698 3:1 4:1 5:0.33333299 54:1 
-0.15122869698564556 1:0 2:0.5 3:1 4:1 5:0 96:1 
-0.15122860214733125 1:0 2:0.5 3:1 4:1 5:0 30:0.70710701 86:0.70710701 
0.2497250950285336 1:0.66666698 2:0.66666698 3:1 4:1 5:0 20:0.60697103 90:0.513004 173:0.60697103 
0.2497250950285336 1:1 2:1 3:1 4:1 5:0 101:0.539087 163:0.35799101 203:0.539087 224:0.539087 
0.2497250950285336 1:0 2:1 3:1 4:1 5:0 104:0.70710701 228:0.70710701 
0.2497250950285336 1:0.5 2:1 3:1 4:1 5:1 231:1 
-0.2497250950285336 1:0.60000002 2:0.80000001 3:1 4:1 5:0.40000001 191:0.78562802 239:0.61869901 
0.2497250950285336 1:0 2:0.5 3:1 4:1 5:0.5 73:0.75595999 227:0.65461701 
0.2497250950285336 1:0 2:0.66666698 3:1 4:1 5:0.33333299 8:0.33293501 93:0.42041799 166:0.462282 233:0.533849 252:0.462282 
-0.15058997105914482 1:0 2:0.5 3:1 4:1 5:0 31:1 
-0.15121250860774643 1:0 2:0.5 3:1 4:1 5:0 11:0.70710701 42:0.70710701 
-0.15113425066165512 1:0 2:0.5 3:1 4:1 5:0 16:0.70710701 186:0.70710701 
-0.15059013139652103 1:0 2:0.5 3:1 4:1 5:0 119:0.75595999 259:0.65461701 
-0.14159126416057655 1:0 2:0.33333299 3:1 4:1 5:0 223:1 
0.2497250950285336 1:0.166667 2:0.72222197 3:1 4:1 5:0.72222197 91:0.70710701 126:0.70710701 
0.2497250950285336 1:0.5 2:0.75 3:1 4:1 5:1 41:0.547701 209:0.63249201 249:0.547701 
0.2497250950285336 1:0.47999999 2:0.68000001 3:1 4:1 5:1 29:0.61869901 174:0.78562802 
0.23572544360689268 1:0 2:1 3:1 4:1 5:1 14:1 
0.21859055344932732 1:0.5 2:1 3:1 4:1 5:1 49:0.53310102 139:0.53310102 143:0.53310102 262:0.383939 
-0.2497250950285336 1:0.5 2:0.5 3:1 4:0.5 5:0.5 28:0.61869901 84:0.78562802 
-0.2497250950285336 1:0.66666698 2:1 3:1 4:1 5:0.33333299 106:0.75595999 145:0.65461701 
-0.2497250950285336 1:1 2:0.5 3:1 4:1 5:0.5 107:1 
0.2497250950285336 1:0.23076899 2:0.69230801 3:1 4:1 5:0.615385 8:0.475582 57:0.76257801 163:0.43851599 
0.2497250950285336 1:0.285714 2:0.71428603 3:1 4:1 5:0.57142901 75:0.71434498 163:0.474374 262:0.51447099 
-0.076325234924456933 1:0 2:1 3:1 4:1 5:0 92:0.69328701 200:0.398671 232:0.60034603 
0.16762811018439217 1:0 2:1 3:1 4:1 5:1 172:0.60303903 178:0.52219599 202:0.60303903 
-0.23642417142765337 1:0.33333299 2:0.33333299 3:1 4:0.66666698 5:0.166667 33:1 
-0.21530701934073421 1:0.57142901 2:0.71428603 3:1 4:1 5:0.142857 227:1 
-0.1415054770137063 1:0 2:0.33333299 3:1 4:1 5:0 263:1 
-0.027856245477138775 1:0.575342 2:0.78082198 3:1 4:0.93150699 5:0.123288 141:0.57735002 167:0.57735002 216:0.57735002 
-0.038536027472099166 1:0.25 2:0.75 3:1 4:0.75 5:0 198:1 
-0.031409996962421749 1:0.25 2:1 3:1 4:1 5:0 39:0.5 180:0.5 242:0.5 253:0.5 
-0.11151002851851693 1:0 2:0.33333299 3:1 4:1 5:0 89:0.75595999 232:0.65461701 
0.044761409631074445 1:0 2:1 3:1 4:1 5:1 144:0.622473 148:0.78264099 
-0.030153467870529749 1:0.23076899 2:0.76923102 3:1 4:1 5:0 201:1 
