SVM-light Version V3.50
0 # kernel type
1 # kernel parameter -d 
1 # kernel parameter -g 
1 # kernel parameter -s 
0 # kernel parameter -r 
EmptyParam # kernel parameter -u 
264 # highest feature index 
166 # number of training documents 
127 # number of support vectors plus 1 
1.0388849 # threshold b 
-0.16559954783598674 1:1 2:1 3:1 4:1 5:0.66666698 115:1 
-0.17691381486588981 1:0.5 2:0.5 3:1 4:0.5 5:0 179:1 
-0.10130218399861535 1:0 2:1 3:1 4:1 5:0 116:0.60034603 163:0.398671 171:0.69328701 
-0.15882973722151017 1:0.5 2:0.5 3:1 4:1 5:0 8:0.475582 10:0.76257801 163:0.43851599 
-0.14903363929951252 1:0.66666698 2:0.83333302 3:1 4:1 5:0.33333299 239:0.67281401 254:0.739811 
0.2497250950285336 1:0 2:1 3:1 4:1 5:0 73:0.70710701 248:0.70710701 
0.2497250950285336 1:0 2:1 3:1 4:1 5:0 181:1 
0.2497250950285336 1:1 2:1 3:1 4:1 5:0 230:1 
0.2497250950285336 1:0.5 2:1 3:1 4:1 5:0.5 45:1 
0.2497250950285336 1:0.60000002 2:1 3:1 4:0.2 5:0.2 7:1 
-0.2497250950285336 1:1 2:1 3:1 4:0 5:0 75:0.592112 237:0.683779 262:0.42643899 
-0.2497250950285336 1:1 2:1 3:1 4:1 5:0 110:0.60303903 131:0.60303903 145:0.52219599 
-0.2497250950285336 1:1 2:1 3:1 4:1 5:0 247:1 
-0.2497250950285336 1:1 2:1 3:1 4:1 5:0 101:0.539087 163:0.35799101 203:0.539087 224:0.539087 
-0.2497250950285336 1:1 2:1 3:1 4:1 5:0.25 78:1 
0.2497250950285336 1:0 2:0 3:1 4:1 5:0 8:0.39971501 144:0.44142401 150:0.50474501 200:0.36856201 218:0.50474501 
0.2497250950285336 1:0 2:0 3:1 4:1 5:0 8:0.36919099 43:0.51262301 144:0.40771401 150:0.46619999 218:0.46619999 
0.2497250950285336 1:0 2:0 3:1 4:1 5:0 65:0.65502697 183:0.65502697 200:0.37667 
0.2497250950285336 1:0 2:0 3:1 4:1 5:0 78:0.52219599 102:0.60303903 246:0.60303903 
0.2497250950285336 1:0 2:0 3:1 4:0.5 5:0 182:1 
-0.14864485375675907 1:1 2:0.5 3:1 4:1 5:0.5 107:1 
-0.021780449832392246 1:0.55813998 2:0.69767398 3:1 4:1 5:0.67441899 147:1 
-0.015881231272436916 1:0.83333302 2:1 3:1 4:1 5:1 193:1 
-0.025156904619686671 1:0 2:0 3:1 4:1 5:0 13:0.534545 41:0.46288401 249:0.46288401 261:0.534545 
-0.025156902933326952 1:0 2:0 3:1 4:1 5:0 6:1 
0.2497250950285336 1:1 2:1 3:1 4:1 5:1 238:1 
0.2497250950285336 1:0.73684198 2:0.98245603 3:1 4:1 5:1 158:1 
0.2497250950285336 1:0.81818199 2:1 3:1 4:1 5:0.81818199 125:1 
0.2497250950285336 1:0.66666698 2:1 3:1 4:1 5:0.33333299 106:0.75595999 145:0.65461701 
0.2497250950285336 1:1 2:1 3:1 4:1 5:0 85:1 
-0.17114460964673162 1:1 2:1 3:1 4:1 5:1 50:0.70710701 73:0.70710701 
-0.017782840340134332 1:1 2:1 3:1 4:1 5:1 49:0.45764899 73:0.52849901 139:0.45764899 143:0.45764899 163:0.30390999 
-0.052927634363205689 1:1 2:1 3:1 4:1 5:1 208:1 
-0.05291100324363085 1:1 2:1 3:1 4:1 5:1 61:1 
-0.052927634363205578 1:1 2:1 3:1 4:1 5:1 123:1 
0.2497250950285336 1:0.5 2:0.5 3:1 4:0.5 5:0 214:1 
0.2497250950285336 1:0.77777803 2:0.88888901 3:1 4:0.111111 5:0 52:0.70710701 124:0.70710701 
0.2497250950285336 1:0 2:0.33333299 3:1 4:1 5:0 89:0.75595999 232:0.65461701 
0.2497250950285336 1:0 2:0.5 3:1 4:1 5:0 119:0.75595999 259:0.65461701 
-0.2497250950285336 1:0 2:1 3:1 4:1 5:0 8:0.58441103 118:0.81145799 
-0.16742574174325631 1:0 2:1 3:1 4:1 5:0 104:0.70710701 228:0.70710701 
-0.1712664149337107 1:0 2:1 3:1 4:1 5:0 29:0.475752 93:0.475752 166:0.52312601 252:0.52312601 
-0.17148445425713621 1:0 2:1 3:1 4:1 5:0 229:1 
-0.17197614106895021 1:0 2:1 3:1 4:1 5:0 38:0.70710701 162:0.70710701 
0.2497250950285336 1:1 2:0 3:1 4:1 5:0 22:0.57735002 79:0.57735002 135:0.57735002 
0.2497250950285336 1:1 2:1 3:1 4:1 5:0 153:1 
0.2497250950285336 1:1 2:1 3:1 4:1 5:0 217:1 
0.2497250950285336 1:1 2:1 3:1 4:1 5:0 44:0.70710701 220:0.70710701 
-0.2497250950285336 1:1 2:0.5 3:1 4:1 5:0 132:1 
-0.2497250950285336 1:1 2:0.33333299 3:1 4:0.66666698 5:0 19:1 
-0.23054546646958662 1:0.60000002 2:0.5 3:1 4:1 5:0 196:0.70710701 245:0.70710701 
-0.24515755205082357 1:0.60000002 2:0.60000002 3:1 4:1 5:0 48:1 
0.2497250950285336 1:0 2:1 3:1 4:1 5:0 56:1 
0.2497250950285336 1:0 2:1 3:1 4:1 5:0 235:1 
0.2497250950285336 1:0 2:1 3:1 4:1 5:0 117:1 
0.2497250950285336 1:0 2:1 3:1 4:1 5:0 92:0.69328701 200:0.398671 232:0.60034603 
0.2497250950285336 1:0 2:0.5 3:1 4:1 5:0 46:0.54794103 63:0.54794103 142:0.54794103 200:0.31509101 
-0.12913682391013948 1:0 2:1 3:1 4:1 5:0 25:0.408268 83:0.408268 157:0.70707297 192:0.408268 
-0.17148434399107751 1:0 2:1 3:1 4:1 5:0 37:0.70710701 55:0.70710701 
-0.038946863710031615 1:0 2:1 3:1 4:1 5:0 17:0.547701 176:0.63249201 236:0.547701 
-0.17197625125842153 1:0 2:1 3:1 4:1 5:0 187:1 
-0.17197625125842164 1:0 2:1 3:1 4:1 5:0 199:1 
0.2497250950285336 1:0.752101 2:0.62605 3:1 4:1 5:0.012605 103:1 
0.2497250950285336 1:0.5 2:1 3:1 4:1 5:0.142857 136:1 
0.2497250950285336 1:1 2:1 3:1 4:1 5:0 151:1 
0.2497250950285336 1:0.70339 2:0.957627 3:1 4:1 5:0.025424 81:0.37796399 88:0.37796399 129:0.37796399 154:0.75592899 
0.2497250950285336 1:1 2:1 3:1 4:1 5:0 28:0.288515 34:0.366357 60:0.31724399 149:0.31724399 164:0.366357 200:0.21067201 212:0.366357 222:0.366357 258:0.366357 
-0.22226860764579226 1:1 2:1 3:1 4:1 5:0.5 211:1 
-0.19222600607372764 1:0.60000002 2:0.60000002 3:1 4:1 5:0 23:0.62799299 90:0.459618 128:0.62799299 
0.2497250950285336 1:0.23076899 2:0.76923102 3:1 4:1 5:0 201:1 
0.2497250950285336 1:0.25 2:1 3:1 4:1 5:0 39:0.5 180:0.5 242:0.5 253:0.5 
-0.20858468333620714 1:0.5 2:0.5 3:1 4:1 5:0 21:1 
-0.2497250950285336 1:0.5 2:1 3:1 4:1 5:0 97:0.70710701 205:0.70710701 
-0.2497250950285336 1:0.5 2:1 3:1 4:1 5:0 240:1 
-0.24482891294079129 1:0.42857099 2:0.85714298 3:1 4:1 5:0 62:1 
-0.21705055090412329 1:0.375 2:0.75 3:1 4:1 5:0 113:0.70710701 159:0.70710701 
0.2497250950285336 1:0.33333299 2:1 3:1 4:1 5:0 122:0.65502697 146:0.65502697 200:0.37667 
0.2497250950285336 1:1 2:1 3:1 4:1 5:0 35:0.569754 185:0.569754 200:0.32763401 256:0.49337301 
-0.17818043504741374 1:0.5 2:0.5 3:1 4:1 5:0 82:0.384904 114:0.384904 134:0.384904 140:0.384904 157:0.333305 190:0.384904 204:0.384904 
-0.20644998957556737 1:0.57142901 2:0.71428603 3:1 4:1 5:0.142857 227:1 
-0.22022940276677128 1:0.575342 2:0.78082198 3:1 4:0.93150699 5:0.123288 141:0.57735002 167:0.57735002 216:0.57735002 
0.2497250950285336 1:1 2:1 3:1 4:1 5:0 243:0.75595999 259:0.65461701 
0.2497250950285336 1:1 2:1 3:1 4:1 5:0 43:0.52312601 118:0.52312601 150:0.475752 218:0.475752 
0.2497250950285336 1:0.85714298 2:0.85714298 3:1 4:1 5:0 28:0.50307 60:0.55316502 149:0.55316502 200:0.36733899 
0.2497250950285336 1:1 2:1 3:1 4:1 5:0 156:0.69328701 200:0.398671 256:0.60034603 
-0.22427929961618043 1:0.66666698 2:0.66666698 3:1 4:1 5:0 20:0.60697103 90:0.513004 173:0.60697103 
-0.17386671846308516 1:0.25 2:0.75 3:1 4:0.75 5:0 198:1 
-0.17508623359127268 1:0.33333299 2:0.66666698 3:1 4:0.66666698 5:0 27:0.70710701 109:0.70710701 
-0.051907486652348636 1:0.875 2:1 3:1 4:1 5:0.875 9:0.59474498 121:0.59474498 219:0.54088497 
-0.11187507407020517 1:0.5 2:1 3:1 4:1 5:0.5 130:0.70710701 221:0.70710701 
-0.11187514586702482 1:0.5 2:1 3:1 4:1 5:0.5 234:1 
-0.098142871430828782 1:0 2:0.5 3:1 4:1 5:0 96:1 
-0.098009125416470222 1:0 2:0.5 3:1 4:1 5:0 30:0.70710701 86:0.70710701 
-0.098142871430828782 1:0 2:0.5 3:1 4:1 5:0 31:1 
-0.098258463135267399 1:0 2:0.5 3:1 4:1 5:0 11:0.70710701 42:0.70710701 
-0.098258463135267871 1:0 2:0.5 3:1 4:1 5:0 16:0.70710701 186:0.70710701 
-0.12979309496312869 1:0.5 2:0.5 3:1 4:0.5 5:0.5 28:0.61869901 84:0.78562802 
-0.10790987136289214 1:0.66666698 2:0.33333299 3:1 4:1 5:0.33333299 241:1 
-0.073353401970405935 1:0 2:0.33333299 3:1 4:1 5:0 87:0.70710701 251:0.70710701 
-0.07335344883908182 1:0 2:0.33333299 3:1 4:1 5:0 223:1 
-0.073353448839082624 1:0 2:0.33333299 3:1 4:1 5:0 263:1 
-0.025156902933327285 1:0 2:0 3:1 4:1 5:0 53:1 
-0.025156902933327535 1:0 2:0 3:1 4:1 5:0 194:1 
-0.052536697821801787 1:1 2:1 3:1 4:1 5:1 26:1 
-0.083070486293322837 1:0.33333299 2:0.66666698 3:1 4:1 5:0.33333299 54:1 
-0.020970667541838822 1:0.77777803 2:0.88888901 3:1 4:1 5:0.88888901 47:0.70710701 138:0.70710701 
-0.10807746374007876 1:0 2:1 3:1 4:0 5:0 184:1 
-0.024647261445180459 1:0 2:0 3:1 4:1 5:0 161:1 
-0.02464726144518067 1:0 2:0 3:1 4:1 5:0 260:1 
-0.024645362284256872 1:0 2:0 3:1 4:1 5:0 51:1 
-0.024647282707589129 1:0 2:0 3:1 4:1 5:0 59:0.57735002 95:0.57735002 111:0.57735002 
-0.076553842787167536 1:0.60000002 2:0.80000001 3:1 4:1 5:0.40000001 191:0.78562802 239:0.61869901 
-0.22116653742819758 1:0.33333299 2:1 3:1 4:1 5:0 12:0.63249201 17:0.547701 236:0.547701 
-0.069089319474769262 1:0.33333299 2:0.33333299 3:1 4:0.66666698 5:0.166667 33:1 
-0.038396857720866873 1:0.5 2:0.5 3:1 4:1 5:0.5 98:1 
-0.038597674598110671 1:0.5 2:0.5 3:1 4:1 5:0.5 40:1 
-0.032195831685194132 1:0 2:0 3:1 4:1 5:0 8:0.42104301 66:0.67512703 144:0.46497801 163:0.388228 
-0.024647261445180556 1:0 2:0 3:1 4:1 5:0 188:1 
-0.025526508080821797 1:0 2:0 3:1 4:1 5:0 76:1 
-0.025526508080821575 1:0 2:0 3:1 4:1 5:0 175:1 
-0.043407679483229211 1:0.5 2:0.91666698 3:1 4:1 5:0.66666698 244:1 
-0.015550331230457903 1:0.875 2:1 3:1 4:1 5:0.875 9:0.59474498 121:0.59474498 219:0.54088497 
-0.038432304886270252 1:0.5 2:0.5 3:1 4:1 5:0.5 74:1 
-0.003977916981176513 1:0.77777803 2:0.88888901 3:1 4:1 5:0.88888901 47:0.70710701 138:0.70710701 
-0.008512670107400807 1:0 2:0.5 3:1 4:1 5:0 58:0.65461701 228:0.75595999 
-0.001687513430628812 1:0 2:0.60000002 3:1 4:0.60000002 5:0 29:0.52614099 71:0.66809601 93:0.52614099 
