1000 22
0 0.002381 0.002381 0.002381 0.002381 0.002381 0.002381 0.023810 0.002381 0.002381 0.002381 0.002381 0.002381 0.002381 0.002381 0.002381 0.002381 0.004762 0.002381 0.002381 0.002381 0.002381 0.002381
1 0.002381 0.002381 0.002381 0.002381 0.002381 0.002381 0.002381 0.007143 0.002381 0.002381 0.002381 0.002381 0.002381 0.002381 0.002381 0.002381 0.002381 0.002381 0.002381 0.002381 0.002381 0.002381
2 0.002381 0.004762 0.002381 0.002381 0.002381 0.004762 0.002381 0.002381 0.002381 0.002381 0.002381 0.002381 0.002381 0.002381 0.002381 0.002381 0.002381 0.002381 0.002381 0.004762 0.002381 0.002381
3 0.002381 0.004762 0.002381 0.002381 0.002381 0.002381 0.002381 0.002381 0.004762 0.002381 0.002381 0.002381 0.004762 0.002381 0.002381 0.002381 0.002381 0.002381 0.002381 0.002381 0.002381 0.002381
4 0.004762 0.002381 0.002381 0.002381 0.002381 0.002381 0.002381 0.002381 0.002381 0.019048 0.002381 0.004762 0.002381 0.002381 0.002381 0.002381 0.002381 0.002381 0.002381 0.002381 0.002381 0.002381
5 0.002381 0.002381 0.002381 0.002381 0.004762 0.002381 0.002381 0.004762 0.002381 0.002381 0.002381 0.002381 0.002381 0.002381 0.002381 0.002381 0.002381 0.002381 0.002381 0.002381 0.002381 0.002381
6 0.002381 0.002381 0.002381 0.002381 0.007143 0.002381 0.002381 0.002381 0.002381 0.002381 0.002381 0.002381 0.002381 0.002381 0.002381 0.002381 0.002381 0.004762 0.009524 0.002381 0.002381 0.002381
7 0.007143 0.004762 0.002381 0.007143 0.007143 0.014286 0.011905 0.011905 0.002381 0.011905 0.004762 0.009524 0.016667 0.002381 0.007143 0.002381 0.004762 0.004762 0.002381 0.014286 0.002381 0.007143
8 0.002381 0.002381 0.002381 0.002381 0.002381 0.002381 0.002381 0.002381 0.002381 0.002381 0.002381 0.002381 0.002381 0.002381 0.002381 0.002381 0.002381 0.002381 0.002381 0.009524 0.002381 0.002381
9 0.007143 0.002381 0.002381 0.002381 0.002381 0.002381 0.002381 0.002381 0.002381 0.002381 0.002381 0.002381 0.002381 0.002381 0.002381 0.002381 0.004762 0.002381 0.002381 0.002381 0.002381 0.002381
10 0.004762 0.002381 0.002381 0.002381 0.002381 0.002381 0.002381 0.002381 0.002381 0.002381 0.002381 0.002381 0.002381 0.004762 0.002381 0.002381 0.002381 0.002381 0.002381 0.002381 0.002381 0.002381
11 0.002381 0.002381 0.002381 0.002381 0.002381 0.002381 0.002381 0.002381 0.007143 0.002381 0.002381 0.002381 0.002381 0.002381 0.002381 0.002381 0.002381 0.002381 0.002381 0.002381 0.002381 0.002381
12 0.002381 0.004762 0.002381 0.002381 0.002381 0.002381 0.002381 0.002381 0.002381 0.004762 0.002381 0.002381 0.002381 0.002381 0.002381 0.002381 0.002381 0.002381 0.002381 0.002381 0.002381 0.002381
13 0.002381 0.002381 0.004762 0.002381 0.002381 0.004762 0.002381 0.002381 0.002381 0.002381 0.002381 0.002381 0.004762 0.002381 0.002381 0.002381 0.002381 0.002381 0.002381 0.002381 0.004762 0.002381
14 0.002381 0.002381 0.002381 0.004762 0.002381 0.007143 0.002381 0.002381 0.002381 0.007143 0.004762 0.007143 0.004762 0.002381 0.002381 0.002381 0.002381 0.002381 0.002381 0.002381 0.002381 0.002381
15 0.002381 0.002381 0.004762 0.002381 0.002381 0.002381 0.002381 0.002381 0.002381 0.002381 0.002381 0.002381 0.002381 0.004762 0.002381 0.002381 0.002381 0.002381 0.002381 0.002381 0.004762 0.002381
16 0.004762 0.002381 0.002381 0.004762 0.007143 0.011905 0.016667 0.009524 0.007143 0.016667 0.011905 0.014286 0.004762 0.002381 0.007143 0.004762 0.016667 0.004762 0.002381 0.011905 0.004762 0.002381
17 0.002381 0.002381 0.002381 0.002381 0.002381 0.009524 0.002381 0.002381 0.002381 0.002381 0.002381 0.002381 0.002381 0.002381 0.002381 0.002381 0.002381 0.004762 0.002381 0.002381 0.002381 0.002381
18 0.002381 0.002381 0.002381 0.002381 0.002381 0.002381 0.002381 0.002381 0.002381 0.002381 0.002381 0.002381 0.002381 0.002381 0.002381 0.002381 0.002381 0.002381 0.002381 0.007143 0.002381 0.002381
19 0.002381 0.002381 0.002381 0.004762 0.002381 0.002381 0.002381 0.002381 0.002381 0.002381 0.002381 0.007143 0.002381 0.002381 0.002381 0.002381 0.004762 0.002381 0.002381 0.002381 0.002381 0.004762
20 0.002381 0.002381 0.002381 0.002381 0.002381 0.002381 0.002381 0.002381 0.002381 0.002381 0.002381 0.002381 0.016667 0.002381 0.002381 0.002381 0.002381 0.002381 0.002381 0.004762 0.002381 0.002381
21 0.002381 0.004762 0.002381 0.002381 0.004762 0.002381 0.004762 0.004762 0.004762 0.002381 0.009524 0.007143 0.004762 0.004762 0.002381 0.002381 0.002381 0.002381 0.002381 0.002381 0.004762 0.002381
22 0.002381 0.002381 0.002381 0.002381 0.002381 0.002381 0.011905 0.002381 0.002381 0.002381 0.002381 0.002381 0.002381 0.002381 0.002381 0.002381 0.002381 0.002381 0.002381 0.002381 0.002381 0.002381
23 0.004762 0.002381 0.002381 0.007143 0.007143 0.002381 0.002381 0.002381 0.002381 0.011905 0.002381 0.004762 0.002381 0.002381 0.002381 0.002381 0.002381 0.002381 0.002381 0.002381 0.002381 0.002381
24 0.002381 0.002381 0.002381 0.002381 0.002381 0.002381 0.002381 0.002381 0.002381 0.002381 0.002381 0.002381 0.007143 0.002381 0.002381 0.002381 0.002381 0.002381 0.002381 0.002381 0.002381 0.002381
25 0.002381 0.002381 0.002381 0.002381 0.002381 0.007143 0.002381 0.002381 0.002381 0.004762 0.002381 0.002381 0.002381 0.002381 0.002381 0.002381 0.002381 0.002381 0.002381 0.004762 0.002381 0.002381
26 0.002381 0.002381 0.002381 0.002381 0.002381 0.002381 0.002381 0.002381 0.002381 0.002381 0.002381 0.002381 0.002381 0.002381 0.002381 0.002381 0.002381 0.002381 0.007143 0.002381 0.002381 0.002381
27 0.002381 0.002381 0.002381 0.002381 0.002381 0.002381 0.002381 0.002381 0.002381 0.002381 0.009524 0.002381 0.002381 0.002381 0.002381 0.002381 0.002381 0.002381 0.002381 0.002381 0.004762 0.002381
28 0.002381 0.002381 0.002381 0.002381 0.002381 0.002381 0.004762 0.002381 0.002381 0.002381 0.002381 0.002381 0.002381 0.002381 0.002381 0.002381 0.007143 0.002381 0.002381 0.002381 0.002381 0.002381
29 0.002381 0.002381 0.002381 0.002381 0.002381 0.002381 0.002381 0.002381 0.007143 0.002381 0.002381 0.002381 0.002381 0.002381 0.002381 0.002381 0.002381 0.002381 0.002381 0.002381 0.002381 0.002381
30 0.002381 0.002381 0.002381 0.007143 0.002381 0.004762 0.002381 0.004762 0.002381 0.004762 0.002381 0.007143 0.002381 0.002381 0.002381 0.002381 0.002381 0.002381 0.002381 0.002381 0.002381 0.002381
31 0.002381 0.002381 0.002381 0.002381 0.002381 0.002381 0.002381 0.002381 0.002381 0.002381 0.002381 0.011905 0.002381 0.002381 0.002381 0.002381 0.002381 0.002381 0.002381 0.002381 0.002381 0.002381
32 0.002381 0.002381 0.002381 0.002381 0.002381 0.002381 0.002381 0.002381 0.002381 0.002381 0.004762 0.002381 0.002381 0.002381 0.004762 0.002381 0.002381 0.002381 0.002381 0.004762 0.004762 0.002381
33 0.002381 0.002381 0.004762 0.002381 0.002381 0.002381 0.002381 0.004762 0.002381 0.002381 0.004762 0.002381 0.004762 0.002381 0.004762 0.002381 0.002381 0.004762 0.002381 0.002381 0.002381 0.002381
34 0.007143 0.002381 0.002381 0.002381 0.004762 0.002381 0.002381 0.002381 0.002381 0.002381 0.002381 0.002381 0.002381 0.002381 0.002381 0.002381 0.002381 0.002381 0.002381 0.002381 0.002381 0.002381
35 0.002381 0.002381 0.002381 0.002381 0.002381 0.002381 0.002381 0.002381 0.002381 0.004762 0.002381 0.002381 0.002381 0.002381 0.002381 0.002381 0.002381 0.002381 0.007143 0.002381 0.002381 0.002381
36 0.002381 0.002381 0.002381 0.002381 0.002381 0.002381 0.002381 0.002381 0.002381 0.002381 0.002381 0.002381 0.002381 0.002381 0.002381 0.002381 0.002381 0.002381 0.002381 0.007143 0.002381 0.002381
37 0.004762 0.002381 0.004762 0.002381 0.004762 0.002381 0.002381 0.002381 0.004762 0.007143 0.004762 0.007143 0.007143 0.004762 0.004762 0.002381 0.004762 0.002381 0.002381 0.002381 0.002381 0.004762
38 0.002381 0.002381 0.004762 0.002381 0.004762 0.002381 0.002381 0.002381 0.002381 0.002381 0.002381 0.002381 0.002381 0.002381 0.002381 0.002381 0.002381 0.002381 0.002381 0.002381 0.002381 0.002381
39 0.002381 0.002381 0.002381 0.002381 0.002381 0.002381 0.002381 0.002381 0.002381 0.009524 0.002381 0.002381 0.002381 0.002381 0.002381 0.002381 0.002381 0.002381 0.007143 0.002381 0.002381 0.002381
40 0.002381 0.002381 0.002381 0.002381 0.002381 0.002381 0.002381 0.002381 0.002381 0.002381 0.004762 0.002381 0.002381 0.002381 0.004762 0.002381 0.002381 0.004762 0.002381 0.002381 0.002381 0.002381
41 0.002381 0.002381 0.002381 0.002381 0.004762 0.002381 0.002381 0.002381 0.002381 0.002381 0.002381 0.002381 0.002381 0.002381 0.002381 0.002381 0.002381 0.002381 0.004762 0.002381 0.002381 0.002381
42 0.002381 0.004762 0.002381 0.002381 0.002381 0.002381 0.002381 0.002381 0.002381 0.002381 0.002381 0.002381 0.002381 0.004762 0.002381 0.002381 0.002381 0.002381 0.002381 0.002381 0.002381 0.002381
43 0.002381 0.002381 0.002381 0.002381 0.007143 0.002381 0.002381 0.002381 0.002381 0.002381 0.002381 0.002381 0.002381 0.002381 0.002381 0.002381 0.002381 0.002381 0.002381 0.002381 0.002381 0.002381
44 0.002381 0.002381 0.002381 0.002381 0.002381 0.002381 0.014286 0.002381 0.002381 0.002381 0.002381 0.002381 0.002381 0.002381 0.002381 0.002381 0.002381 0.002381 0.002381 0.002381 0.002381 0.002381
45 0.002381 0.002381 0.002381 0.002381 0.002381 0.002381 0.002381 0.002381 0.002381 0.002381 0.007143 0.002381 0.002381 0.002381 0.002381 0.002381 0.002381 0.002381 0.004762 0.002381 0.002381 0.004762
46 0.002381 0.002381 0.004762 0.002381 0.002381 0.002381 0.002381 0.002381 0.004762 0.002381 0.004762 0.002381 0.002381 0.007143 0.007143 0.002381 0.004762 0.002381 0.002381 0.002381 0.004762 0.004762
47 0.026190 0.002381 0.002381 0.002381 0.002381 0.002381 0.002381 0.002381 0.002381 0.002381 0.002381 0.002381 0.002381 0.002381 0.002381 0.002381 0.002381 0.002381 0.002381 0.002381 0.002381 0.002381
48 0.004762 0.002381 0.002381 0.002381 0.002381 0.002381 0.002381 0.007143 0.002381 0.002381 0.002381 0.002381 0.002381 0.002381 0.002381 0.002381 0.002381 0.002381 0.002381 0.002381 0.002381 0.002381
49 0.002381 0.002381 0.002381 0.002381 0.002381 0.002381 0.002381 0.002381 0.002381 0.002381 0.002381 0.002381 0.002381 0.002381 0.028571 0.002381 0.002381 0.002381 0.002381 0.002381 0.002381 0.002381
50 0.002381 0.002381 0.002381 0.002381 0.002381 0.004762 0.002381 0.002381 0.002381 0.002381 0.004762 0.002381 0.002381 0.002381 0.002381 0.002381 0.002381 0.002381 0.002381 0.004762 0.002381 0.002381
51 0.002381 0.002381 0.002381 0.007143 0.002381 0.002381 0.002381 0.002381 0.002381 0.002381 0.002381 0.002381 0.002381 0.002381 0.002381 0.002381 0.002381 0.002381 0.002381 0.002381 0.002381 0.002381
52 0.002381 0.002381 0.002381 0.002381 0.002381 0.002381 0.002381 0.002381 0.002381 0.002381 0.002381 0.002381 0.002381 0.002381 0.002381 0.002381 0.002381 0.002381 0.002381 0.009524 0.002381 0.002381
53 0.002381 0.002381 0.002381 0.002381 0.002381 0.007143 0.002381 0.002381 0.002381 0.002381 0.002381 0.002381 0.002381 0.002381 0.002381 0.002381 0.002381 0.002381 0.002381 0.002381 0.002381 0.002381
54 0.002381 0.002381 0.002381 0.002381 0.002381 0.002381 0.002381 0.002381 0.002381 0.002381 0.002381 0.002381 0.002381 0.002381 0.002381 0.002381 0.002381 0.002381 0.002381 0.002381 0.007143 0.002381
55 0.002381 0.002381 0.002381 0.002381 0.002381 0.002381 0.002381 0.004762 0.002381 0.002381 0.002381 0.002381 0.002381 0.002381 0.002381 0.002381 0.002381 0.002381 0.002381 0.004762 0.004762 0.004762
56 0.002381 0.002381 0.007143 0.002381 0.002381 0.002381 0.002381 0.002381 0.002381 0.004762 0.004762 0.004762 0.002381 0.002381 0.002381 0.002381 0.011905 0.002381 0.002381 0.002381 0.004762 0.002381
57 0.002381 0.002381 0.004762 0.002381 0.002381 0.002381 0.002381 0.002381 0.002381 0.002381 0.002381 0.002381 0.002381 0.002381 0.004762 0.002381 0.004762 0.002381 0.002381 0.002381 0.002381 0.002381
58 0.002381 0.002381 0.002381 0.007143 0.002381 0.002381 0.002381 0.002381 0.002381 0.002381 0.002381 0.002381 0.002381 0.002381 0.002381 0.002381 0.002381 0.002381 0.002381 0.002381 0.002381 0.002381
59 0.002381 0.002381 0.002381 0.002381 0.002381 0.004762 0.002381 0.002381 0.004762 0.002381 0.002381 0.002381 0.004762 0.002381 0.004762 0.002381 0.002381 0.002381 0.002381 0.004762 0.002381 0.002381
60 0.002381 0.004762 0.002381 0.002381 0.002381 0.002381 0.004762 0.002381 0.002381 0.011905 0.002381 0.002381 0.002381 0.002381 0.002381 0.002381 0.007143 0.002381 0.002381 0.002381 0.004762 0.002381
61 0.002381 0.004762 0.007143 0.002381 0.004762 0.002381 0.002381 0.002381 0.004762 0.002381 0.002381 0.002381 0.002381 0.002381 0.002381 0.002381 0.002381 0.002381 0.002381 0.004762 0.002381 0.004762
62 0.002381 0.004762 0.007143 0.002381 0.002381 0.002381 0.004762 0.009524 0.002381 0.011905 0.004762 0.014286 0.007143 0.002381 0.002381 0.002381 0.002381 0.002381 0.007143 0.007143 0.002381 0.002381
63 0.002381 0.002381 0.002381 0.002381 0.002381 0.002381 0.002381 0.002381 0.002381 0.002381 0.002381 0.002381 0.004762 0.002381 0.002381 0.002381 0.002381 0.002381 0.002381 0.007143 0.002381 0.004762
64 0.002381 0.002381 0.002381 0.002381 0.002381 0.002381 0.002381 0.002381 0.002381 0.002381 0.002381 0.009524 0.004762 0.002381 0.002381 0.002381 0.002381 0.002381 0.002381 0.002381 0.002381 0.002381
65 0.007143 0.002381 0.002381 0.002381 0.002381 0.002381 0.004762 0.002381 0.002381 0.002381 0.002381 0.004762 0.002381 0.002381 0.002381 0.002381 0.002381 0.004762 0.002381 0.002381 0.002381 0.002381
66 0.002381 0.004762 0.011905 0.002381 0.002381 0.002381 0.002381 0.002381 0.002381 0.002381 0.009524 0.002381 0.002381 0.007143 0.004762 0.002381 0.002381 0.002381 0.002381 0.002381 0.004762 0.002381
67 0.002381 0.002381 0.002381 0.002381 0.004762 0.004762 0.002381 0.002381 0.002381 0.007143 0.002381 0.002381 0.002381 0.002381 0.002381 0.002381 0.002381 0.002381 0.002381 0.002381 0.002381 0.002381
68 0.002381 0.002381 0.004762 0.004762 0.002381 0.004762 0.002381 0.002381 0.002381 0.002381 0.002381 0.002381 0.002381 0.002381 0.002381 0.002381 0.002381 0.002381 0.002381 0.002381 0.002381 0.002381
69 0.004762 0.002381 0.002381 0.007143 0.002381 0.004762 0.002381 0.002381 0.002381 0.004762 0.002381 0.002381 0.002381 0.002381 0.004762 0.002381 0.002381 0.002381 0.002381 0.004762 0.002381 0.002381
70 0.002381 0.002381 0.002381 0.002381 0.004762 0.002381 0.002381 0.002381 0.002381 0.004762 0.002381 0.002381 0.002381 0.002381 0.002381 0.002381 0.002381 0.002381 0.002381 0.002381 0.002381 0.004762
71 0.002381 0.002381 0.004762 0.002381 0.002381 0.002381 0.002381 0.002381 0.002381 0.007143 0.002381 0.002381 0.002381 0.002381 0.002381 0.002381 0.002381 0.002381 0.002381 0.002381 0.002381 0.002381
72 0.004762 0.002381 0.002381 0.002381 0.002381 0.002381 0.004762 0.004762 0.002381 0.002381 0.002381 0.004762 0.002381 0.002381 0.002381 0.002381 0.002381 0.002381 0.002381 0.002381 0.002381 0.002381
73 0.002381 0.002381 0.002381 0.002381 0.002381 0.002381 0.007143 0.004762 0.002381 0.002381 0.002381 0.002381 0.002381 0.002381 0.002381 0.002381 0.002381 0.002381 0.002381 0.002381 0.002381 0.002381
74 0.002381 0.002381 0.002381 0.002381 0.007143 0.002381 0.002381 0.002381 0.002381 0.002381 0.002381 0.002381 0.002381 0.002381 0.002381 0.002381 0.002381 0.002381 0.002381 0.002381 0.002381 0.002381
75 0.002381 0.002381 0.002381 0.002381 0.002381 0.002381 0.002381 0.002381 0.002381 0.002381 0.002381 0.002381 0.007143 0.002381 0.002381 0.002381 0.002381 0.002381 0.002381 0.002381 0.002381 0.002381
76 0.002381 0.002381 0.007143 0.002381 0.002381 0.002381 0.002381 0.002381 0.002381 0.002381 0.007143 0.002381 0.002381 0.004762 0.002381 0.002381 0.002381 0.002381 0.002381 0.002381 0.004762 0.002381
77 0.002381 0.002381 0.002381 0.002381 0.002381 0.002381 0.002381 0.002381 0.002381 0.002381 0.002381 0.004762 0.002381 0.002381 0.002381 0.002381 0.002381 0.002381 0.002381 0.002381 0.002381 0.007143
78 0.004762 0.004762 0.002381 0.002381 0.002381 0.002381 0.002381 0.002381 0.002381 0.002381 0.004762 0.002381 0.002381 0.002381 0.002381 0.002381 0.002381 0.002381 0.002381 0.002381 0.002381 0.004762
79 0.002381 0.002381 0.002381 0.002381 0.002381 0.002381 0.002381 0.004762 0.002381 0.002381 0.002381 0.014286 0.002381 0.002381 0.002381 0.002381 0.002381 0.002381 0.002381 0.002381 0.002381 0.002381
80 0.002381 0.002381 0.002381 0.002381 0.002381 0.002381 0.002381 0.002381 0.004762 0.002381 0.002381 0.002381 0.002381 0.002381 0.002381 0.004762 0.002381 0.002381 0.002381 0.002381 0.002381 0.002381
81 0.002381 0.002381 0.002381 0.002381 0.007143 0.002381 0.002381 0.002381 0.002381 0.002381 0.002381 0.002381 0.002381 0.002381 0.002381 0.002381 0.002381 0.002381 0.002381 0.002381 0.002381 0.002381
82 0.002381 0.002381 0.002381 0.002381 0.002381 0.002381 0.002381 0.002381 0.002381 0.002381 0.002381 0.002381 0.002381 0.007143 0.002381 0.002381 0.002381 0.002381 0.002381 0.002381 0.002381 0.002381
83 0.002381 0.002381 0.002381 0.002381 0.002381 0.002381 0.002381 0.004762 0.002381 0.004762 0.002381 0.002381 0.002381 0.002381 0.004762 0.002381 0.002381 0.002381 0.002381 0.002381 0.002381 0.002381
84 0.002381 0.002381 0.002381 0.002381 0.002381 0.002381 0.002381 0.007143 0.002381 0.002381 0.002381 0.002381 0.002381 0.002381 0.002381 0.002381 0.002381 0.002381 0.002381 0.002381 0.002381 0.002381
85 0.002381 0.002381 0.002381 0.002381 0.002381 0.007143 0.002381 0.002381 0.002381 0.002381 0.002381 0.002381 0.002381 0.002381 0.002381 0.002381 0.002381 0.002381 0.002381 0.002381 0.002381 0.002381
86 0.002381 0.002381 0.002381 0.002381 0.002381 0.002381 0.002381 0.002381 0.002381 0.002381 0.002381 0.002381 0.002381 0.007143 0.002381 0.002381 0.002381 0.002381 0.002381 0.002381 0.002381 0.002381
87 0.002381 0.002381 0.002381 0.002381 0.002381 0.002381 0.002381 0.002381 0.002381 0.002381 0.007143 0.002381 0.002381 0.002381 0.002381 0.002381 0.002381 0.002381 0.002381 0.002381 0.002381 0.002381
88 0.002381 0.002381 0.002381 0.002381 0.002381 0.009524 0.002381 0.002381 0.002381 0.002381 0.002381 0.002381 0.002381 0.002381 0.002381 0.002381 0.002381 0.002381 0.002381 0.002381 0.002381 0.002381
89 0.002381 0.002381 0.002381 0.002381 0.002381 0.002381 0.002381 0.002381 0.002381 0.002381 0.002381 0.002381 0.002381 0.002381 0.002381 0.002381 0.007143 0.002381 0.002381 0.002381 0.002381 0.002381
90 0.002381 0.004762 0.002381 0.002381 0.002381 0.002381 0.004762 0.002381 0.002381 0.002381 0.007143 0.002381 0.002381 0.002381 0.004762 0.002381 0.004762 0.002381 0.002381 0.002381 0.004762 0.004762
91 0.002381 0.002381 0.002381 0.002381 0.002381 0.002381 0.002381 0.002381 0.002381 0.002381 0.002381 0.007143 0.002381 0.002381 0.004762 0.002381 0.002381 0.002381 0.002381 0.002381 0.002381 0.002381
92 0.002381 0.002381 0.002381 0.002381 0.002381 0.023810 0.002381 0.002381 0.002381 0.002381 0.002381 0.002381 0.002381 0.002381 0.002381 0.002381 0.002381 0.002381 0.002381 0.002381 0.002381 0.002381
93 0.002381 0.007143 0.007143 0.002381 0.002381 0.002381 0.002381 0.002381 0.007143 0.002381 0.007143 0.009524 0.007143 0.002381 0.011905 0.004762 0.002381 0.004762 0.002381 0.004762 0.009524 0.002381
94 0.002381 0.002381 0.002381 0.002381 0.002381 0.004762 0.002381 0.007143 0.002381 0.002381 0.002381 0.002381 0.002381 0.002381 0.002381 0.002381 0.002381 0.002381 0.004762 0.002381 0.002381 0.002381
95 0.002381 0.002381 0.002381 0.002381 0.002381 0.002381 0.002381 0.002381 0.007143 0.002381 0.002381 0.002381 0.002381 0.002381 0.002381 0.002381 0.002381 0.002381 0.002381 0.002381 0.002381 0.002381
96 0.002381 0.007143 0.002381 0.002381 0.002381 0.002381 0.002381 0.002381 0.002381 0.002381 0.002381 0.002381 0.002381 0.002381 0.002381 0.002381 0.002381 0.002381 0.002381 0.002381 0.002381 0.002381
97 0.002381 0.002381 0.002381 0.002381 0.002381 0.002381 0.002381 0.002381 0.004762 0.002381 0.002381 0.002381 0.002381 0.002381 0.002381 0.002381 0.002381 0.004762 0.002381 0.002381 0.002381 0.002381
98 0.002381 0.002381 0.002381 0.002381 0.002381 0.002381 0.002381 0.002381 0.002381 0.002381 0.002381 0.002381 0.002381 0.002381 0.002381 0.002381 0.002381 0.002381 0.002381 0.002381 0.002381 0.007143
99 0.002381 0.002381 0.002381 0.002381 0.004762 0.002381 0.002381 0.002381 0.002381 0.002381 0.002381 0.002381 0.002381 0.002381 0.002381 0.002381 0.002381 0.002381 0.002381 0.004762 0.002381 0.002381
100 0.002381 0.002381 0.004762 0.002381 0.002381 0.002381 0.002381 0.002381 0.002381 0.002381 0.002381 0.004762 0.004762 0.002381 0.004762 0.002381 0.002381 0.002381 0.002381 0.002381 0.002381 0.002381
101 0.002381 0.002381 0.002381 0.002381 0.004762 0.002381 0.002381 0.002381 0.002381 0.007143 0.002381 0.002381 0.002381 0.004762 0.002381 0.002381 0.002381 0.002381 0.002381 0.002381 0.002381 0.002381
102 0.002381 0.004762 0.002381 0.002381 0.002381 0.002381 0.002381 0.002381 0.002381 0.002381 0.007143 0.007143 0.002381 0.002381 0.007143 0.002381 0.002381 0.002381 0.002381 0.002381 0.002381 0.002381
103 0.014286 0.004762 0.007143 0.002381 0.004762 0.011905 0.004762 0.004762 0.016667 0.019048 0.014286 0.021429 0.011905 0.004762 0.002381 0.007143 0.009524 0.002381 0.007143 0.021429 0.004762 0.011905
104 0.002381 0.002381 0.002381 0.002381 0.002381 0.004762 0.002381 0.002381 0.002381 0.002381 0.004762 0.002381 0.002381 0.002381 0.002381 0.002381 0.002381 0.002381 0.002381 0.004762 0.002381 0.002381
105 0.014286 0.011905 0.009524 0.023810 0.004762 0.021429 0.002381 0.021429 0.016667 0.007143 0.030952 0.009524 0.016667 0.014286 0.009524 0.002381 0.007143 0.002381 0.004762 0.011905 0.014286 0.009524
106 0.002381 0.002381 0.002381 0.002381 0.002381 0.004762 0.002381 0.002381 0.004762 0.004762 0.002381 0.002381 0.004762 0.002381 0.002381 0.002381 0.002381 0.002381 0.002381 0.002381 0.004762 0.002381
107 0.004762 0.007143 0.004762 0.002381 0.002381 0.004762 0.004762 0.002381 0.002381 0.004762 0.011905 0.007143 0.002381 0.002381 0.004762 0.002381 0.002381 0.004762 0.002381 0.004762 0.002381 0.004762
108 0.004762 0.002381 0.002381 0.002381 0.002381 0.002381 0.002381 0.002381 0.004762 0.002381 0.002381 0.002381 0.002381 0.002381 0.002381 0.002381 0.002381 0.002381 0.002381 0.002381 0.002381 0.002381
109 0.002381 0.002381 0.002381 0.007143 0.002381 0.002381 0.002381 0.002381 0.002381 0.002381 0.002381 0.002381 0.002381 0.002381 0.002381 0.002381 0.002381 0.002381 0.002381 0.002381 0.002381 0.002381
110 0.002381 0.002381 0.002381 0.002381 0.002381 0.002381 0.002381 0.002381 0.002381 0.004762 0.004762 0.004762 0.002381 0.002381 0.002381 0.004762 0.002381 0.002381 0.002381 0.002381 0.002381 0.002381
111 0.002381 0.002381 0.002381 0.002381 0.002381 0.002381 0.002381 0.002381 0.004762 0.002381 0.002381 0.002381 0.007143 0.002381 0.002381 0.002381 0.002381 0.002381 0.002381 0.002381 0.002381 0.002381
112 0.002381 0.002381 0.002381 0.002381 0.002381 0.002381 0.002381 0.004762 0.002381 0.002381 0.002381 0.002381 0.002381 0.002381 0.002381 0.004762 0.004762 0.002381 0.002381 0.002381 0.002381 0.002381
113 0.002381 0.002381 0.002381 0.002381 0.002381 0.002381 0.004762 0.002381 0.002381 0.007143 0.002381 0.002381 0.002381 0.002381 0.002381 0.002381 0.002381 0.002381 0.002381 0.002381 0.002381 0.002381
114 0.002381 0.007143 0.007143 0.002381 0.002381 0.004762 0.002381 0.002381 0.007143 0.004762 0.007143 0.002381 0.002381 0.004762 0.004762 0.002381 0.002381 0.002381 0.002381 0.002381 0.004762 0.004762
115 0.002381 0.002381 0.002381 0.002381 0.002381 0.002381 0.004762 0.002381 0.002381 0.002381 0.002381 0.002381 0.002381 0.002381 0.002381 0.004762 0.004762 0.002381 0.002381 0.002381 0.002381 0.002381
116 0.004762 0.007143 0.004762 0.002381 0.002381 0.002381 0.004762 0.004762 0.002381 0.002381 0.004762 0.002381 0.002381 0.002381 0.004762 0.002381 0.002381 0.002381 0.002381 0.002381 0.004762 0.004762
117 0.004762 0.002381 0.002381 0.002381 0.009524 0.002381 0.004762 0.002381 0.002381 0.004762 0.002381 0.004762 0.002381 0.002381 0.002381 0.002381 0.004762 0.002381 0.002381 0.007143 0.002381 0.009524
118 0.002381 0.002381 0.002381 0.002381 0.002381 0.002381 0.002381 0.011905 0.002381 0.002381 0.002381 0.002381 0.002381 0.002381 0.002381 0.002381 0.002381 0.002381 0.002381 0.002381 0.002381 0.002381
119 0.002381 0.002381 0.002381 0.002381 0.002381 0.002381 0.002381 0.002381 0.002381 0.002381 0.002381 0.002381 0.002381 0.002381 0.002381 0.002381 0.002381 0.002381 0.002381 0.007143 0.002381 0.002381
120 0.002381 0.002381 0.002381 0.002381 0.002381 0.007143 0.004762 0.002381 0.002381 0.004762 0.002381 0.002381 0.002381 0.002381 0.002381 0.002381 0.002381 0.002381 0.002381 0.002381 0.002381 0.002381
121 0.002381 0.002381 0.002381 0.002381 0.002381 0.002381 0.002381 0.002381 0.002381 0.002381 0.009524 0.002381 0.002381 0.002381 0.002381 0.002381 0.002381 0.002381 0.002381 0.002381 0.004762 0.002381
122 0.002381 0.002381 0.002381 0.002381 0.002381 0.002381 0.002381 0.002381 0.002381 0.004762 0.002381 0.002381 0.004762 0.002381 0.002381 0.002381 0.002381 0.002381 0.002381 0.002381 0.002381 0.004762
123 0.002381 0.002381 0.002381 0.002381 0.002381 0.002381 0.002381 0.002381 0.004762 0.002381 0.002381 0.002381 0.002381 0.004762 0.002381 0.002381 0.002381 0.002381 0.002381 0.002381 0.002381 0.002381
124 0.002381 0.002381 0.004762 0.002381 0.002381 0.002381 0.002381 0.002381 0.007143 0.002381 0.007143 0.002381 0.002381 0.002381 0.002381 0.002381 0.002381 0.002381 0.002381 0.002381 0.002381 0.007143
125 0.002381 0.002381 0.002381 0.002381 0.002381 0.007143 0.002381 0.002381 0.002381 0.002381 0.002381 0.004762 0.002381 0.002381 0.002381 0.002381 0.002381 0.002381 0.002381 0.002381 0.002381 0.002381
126 0.002381 0.002381 0.002381 0.002381 0.004762 0.002381 0.002381 0.002381 0.002381 0.002381 0.002381 0.002381 0.002381 0.002381 0.002381 0.004762 0.002381 0.002381 0.002381 0.002381 0.002381 0.002381
127 0.002381 0.002381 0.002381 0.002381 0.002381 0.002381 0.002381 0.002381 0.002381 0.002381 0.002381 0.002381 0.002381 0.002381 0.002381 0.002381 0.002381 0.002381 0.002381 0.002381 0.002381 0.007143
128 0.002381 0.002381 0.002381 0.002381 0.002381 0.002381 0.009524 0.002381 0.002381 0.004762 0.002381 0.002381 0.002381 0.002381 0.002381 0.002381 0.004762 0.007143 0.002381 0.002381 0.002381 0.002381
129 0.002381 0.002381 0.002381 0.002381 0.002381 0.002381 0.002381 0.002381 0.002381 0.002381 0.002381 0.002381 0.002381 0.002381 0.002381 0.002381 0.007143 0.002381 0.002381 0.002381 0.002381 0.002381
130 0.004762 0.002381 0.002381 0.002381 0.004762 0.007143 0.009524 0.002381 0.002381 0.019048 0.002381 0.009524 0.002381 0.004762 0.002381 0.002381 0.007143 0.004762 0.002381 0.004762 0.002381 0.007143
131 0.002381 0.002381 0.002381 0.002381 0.002381 0.002381 0.002381 0.002381 0.002381 0.004762 0.002381 0.002381 0.002381 0.002381 0.002381 0.002381 0.007143 0.002381 0.002381 0.002381 0.002381 0.002381
132 0.004762 0.004762 0.007143 0.002381 0.002381 0.002381 0.002381 0.007143 0.002381 0.007143 0.007143 0.007143 0.004762 0.004762 0.004762 0.002381 0.002381 0.004762 0.004762 0.007143 0.004762 0.007143
133 0.002381 0.002381 0.002381 0.002381 0.002381 0.007143 0.002381 0.004762 0.004762 0.002381 0.002381 0.002381 0.002381 0.002381 0.002381 0.002381 0.002381 0.004762 0.002381 0.002381 0.002381 0.002381
134 0.007143 0.002381 0.002381 0.002381 0.002381 0.002381 0.002381 0.002381 0.002381 0.002381 0.002381 0.009524 0.002381 0.002381 0.002381 0.002381 0.002381 0.002381 0.002381 0.004762 0.002381 0.002381
135 0.002381 0.002381 0.002381 0.002381 0.002381 0.002381 0.002381 0.002381 0.002381 0.002381 0.007143 0.002381 0.002381 0.002381 0.002381 0.002381 0.002381 0.002381 0.009524 0.002381 0.002381 0.002381
136 0.002381 0.004762 0.002381 0.002381 0.002381 0.002381 0.002381 0.002381 0.002381 0.002381 0.002381 0.002381 0.004762 0.002381 0.002381 0.002381 0.002381 0.002381 0.002381 0.002381 0.002381 0.002381
137 0.002381 0.002381 0.002381 0.002381 0.002381 0.002381 0.007143 0.002381 0.002381 0.002381 0.002381 0.002381 0.002381 0.002381 0.002381 0.002381 0.002381 0.002381 0.002381 0.002381 0.002381 0.002381
138 0.002381 0.002381 0.002381 0.002381 0.002381 0.002381 0.002381 0.002381 0.002381 0.004762 0.002381 0.002381 0.002381 0.004762 0.002381 0.002381 0.002381 0.002381 0.002381 0.002381 0.002381 0.002381
139 0.002381 0.002381 0.002381 0.002381 0.002381 0.002381 0.002381 0.004762 0.002381 0.007143 0.002381 0.002381 0.002381 0.002381 0.002381 0.002381 0.002381 0.002381 0.002381 0.002381 0.002381 0.002381
140 0.002381 0.002381 0.002381 0.002381 0.002381 0.002381 0.002381 0.002381 0.002381 0.002381 0.002381 0.002381 0.002381 0.002381 0.002381 0.007143 0.002381 0.002381 0.002381 0.002381 0.002381 0.002381
141 0.002381 0.002381 0.002381 0.002381 0.004762 0.002381 0.002381 0.002381 0.002381 0.002381 0.002381 0.002381 0.002381 0.004762 0.002381 0.002381 0.002381 0.007143 0.002381 0.002381 0.002381 0.002381
142 0.002381 0.002381 0.002381 0.002381 0.002381 0.004762 0.002381 0.002381 0.002381 0.009524 0.002381 0.002381 0.002381 0.002381 0.002381 0.002381 0.002381 0.002381 0.002381 0.002381 0.002381 0.004762
143 0.002381 0.002381 0.002381 0.002381 0.002381 0.002381 0.009524 0.002381 0.002381 0.014286 0.002381 0.004762 0.002381 0.004762 0.002381 0.002381 0.007143 0.002381 0.002381 0.002381 0.004762 0.002381
144 0.002381 0.002381 0.002381 0.002381 0.002381 0.002381 0.002381 0.002381 0.002381 0.002381 0.002381 0.002381 0.007143 0.002381 0.002381 0.002381 0.002381 0.002381 0.002381 0.002381 0.002381 0.002381
145 0.002381 0.002381 0.002381 0.002381 0.002381 0.007143 0.007143 0.002381 0.002381 0.002381 0.002381 0.002381 0.002381 0.002381 0.004762 0.004762 0.002381 0.002381 0.002381 0.002381 0.002381 0.002381
146 0.002381 0.002381 0.002381 0.002381 0.002381 0.002381 0.002381 0.002381 0.002381 0.002381 0.002381 0.007143 0.002381 0.002381 0.002381 0.002381 0.002381 0.007143 0.002381 0.002381 0.002381 0.002381
147 0.004762 0.002381 0.002381 0.002381 0.002381 0.002381 0.002381 0.002381 0.004762 0.002381 0.002381 0.002381 0.002381 0.002381 0.002381 0.002381 0.002381 0.002381 0.002381 0.002381 0.002381 0.002381
148 0.002381 0.002381 0.004762 0.002381 0.002381 0.002381 0.002381 0.004762 0.002381 0.002381 0.002381 0.002381 0.002381 0.002381 0.002381 0.002381 0.002381 0.002381 0.002381 0.002381 0.002381 0.007143
149 0.002381 0.002381 0.004762 0.002381 0.002381 0.009524 0.002381 0.002381 0.002381 0.002381 0.002381 0.002381 0.002381 0.002381 0.002381 0.002381 0.002381 0.002381 0.002381 0.002381 0.004762 0.004762
150 0.002381 0.002381 0.002381 0.002381 0.002381 0.002381 0.002381 0.007143 0.002381 0.002381 0.002381 0.002381 0.002381 0.002381 0.004762 0.004762 0.002381 0.002381 0.002381 0.002381 0.002381 0.002381
151 0.002381 0.002381 0.002381 0.002381 0.002381 0.002381 0.002381 0.002381 0.002381 0.004762 0.002381 0.002381 0.002381 0.002381 0.007143 0.002381 0.002381 0.002381 0.002381 0.002381 0.002381 0.002381
152 0.002381 0.002381 0.002381 0.002381 0.002381 0.004762 0.002381 0.002381 0.002381 0.007143 0.002381 0.002381 0.002381 0.002381 0.002381 0.002381 0.002381 0.002381 0.002381 0.002381 0.002381 0.002381
153 0.002381 0.002381 0.002381 0.002381 0.002381 0.002381 0.002381 0.002381 0.002381 0.002381 0.002381 0.002381 0.016667 0.002381 0.002381 0.002381 0.002381 0.002381 0.002381 0.002381 0.002381 0.002381
154 0.004762 0.002381 0.002381 0.004762 0.004762 0.007143 0.002381 0.002381 0.007143 0.002381 0.002381 0.002381 0.002381 0.002381 0.002381 0.002381 0.004762 0.007143 0.004762 0.004762 0.007143 0.002381
155 0.002381 0.002381 0.002381 0.002381 0.002381 0.002381 0.002381 0.002381 0.004762 0.004762 0.002381 0.002381 0.002381 0.002381 0.002381 0.002381 0.004762 0.002381 0.002381 0.002381 0.002381 0.004762
156 0.002381 0.002381 0.002381 0.002381 0.002381 0.002381 0.007143 0.002381 0.002381 0.002381 0.002381 0.002381 0.002381 0.002381 0.002381 0.002381 0.002381 0.002381 0.002381 0.002381 0.002381 0.004762
157 0.002381 0.002381 0.002381 0.002381 0.002381 0.002381 0.002381 0.011905 0.002381 0.002381 0.002381 0.002381 0.002381 0.002381 0.002381 0.002381 0.002381 0.002381 0.002381 0.002381 0.002381 0.002381
158 0.002381 0.002381 0.002381 0.002381 0.002381 0.002381 0.002381 0.004762 0.002381 0.004762 0.002381 0.004762 0.002381 0.002381 0.002381 0.002381 0.002381 0.002381 0.002381 0.002381 0.004762 0.002381
159 0.002381 0.002381 0.002381 0.002381 0.002381 0.002381 0.002381 0.002381 0.002381 0.002381 0.002381 0.002381 0.002381 0.002381 0.002381 0.002381 0.002381 0.004762 0.004762 0.002381 0.002381 0.002381
160 0.002381 0.002381 0.002381 0.002381 0.002381 0.007143 0.002381 0.002381 0.002381 0.002381 0.002381 0.007143 0.002381 0.002381 0.002381 0.002381 0.002381 0.004762 0.002381 0.002381 0.002381 0.002381
161 0.002381 0.002381 0.002381 0.002381 0.002381 0.002381 0.002381 0.002381 0.004762 0.009524 0.004762 0.004762 0.002381 0.002381 0.004762 0.002381 0.002381 0.002381 0.002381 0.002381 0.002381 0.002381
162 0.002381 0.002381 0.002381 0.002381 0.002381 0.002381 0.002381 0.002381 0.002381 0.002381 0.002381 0.004762 0.007143 0.002381 0.002381 0.002381 0.002381 0.002381 0.002381 0.002381 0.002381 0.002381
163 0.002381 0.004762 0.002381 0.002381 0.002381 0.004762 0.002381 0.002381 0.002381 0.002381 0.002381 0.002381 0.002381 0.002381 0.002381 0.002381 0.002381 0.002381 0.002381 0.002381 0.002381 0.002381
164 0.002381 0.002381 0.002381 0.002381 0.002381 0.009524 0.002381 0.002381 0.002381 0.002381 0.002381 0.002381 0.002381 0.002381 0.002381 0.002381 0.002381 0.002381 0.002381 0.002381 0.002381 0.002381
165 0.002381 0.002381 0.002381 0.002381 0.002381 0.007143 0.002381 0.004762 0.002381 0.002381 0.009524 0.002381 0.002381 0.002381 0.004762 0.004762 0.002381 0.002381 0.004762 0.002381 0.002381 0.007143
166 0.002381 0.002381 0.002381 0.007143 0.002381 0.009524 0.002381 0.002381 0.002381 0.007143 0.004762 0.002381 0.002381 0.002381 0.002381 0.002381 0.002381 0.002381 0.002381 0.002381 0.002381 0.002381
167 0.002381 0.002381 0.002381 0.002381 0.002381 0.002381 0.002381 0.002381 0.002381 0.002381 0.007143 0.007143 0.002381 0.002381 0.002381 0.002381 0.002381 0.002381 0.002381 0.002381 0.002381 0.002381
168 0.002381 0.002381 0.002381 0.002381 0.002381 0.007143 0.002381 0.002381 0.002381 0.004762 0.004762 0.014286 0.004762 0.002381 0.002381 0.004762 0.002381 0.002381 0.002381 0.002381 0.002381 0.002381
169 0.004762 0.002381 0.002381 0.007143 0.004762 0.004762 0.009524 0.002381 0.009524 0.002381 0.002381 0.009524 0.002381 0.004762 0.002381 0.009524 0.007143 0.002381 0.004762 0.002381 0.007143 0.007143
170 0.002381 0.002381 0.002381 0.002381 0.002381 0.002381 0.002381 0.002381 0.002381 0.002381 0.002381 0.002381 0.002381 0.014286 0.002381 0.002381 0.002381 0.002381 0.002381 0.002381 0.002381 0.002381
171 0.002381 0.002381 0.002381 0.002381 0.004762 0.007143 0.007143 0.002381 0.002381 0.002381 0.002381 0.009524 0.004762 0.002381 0.002381 0.002381 0.002381 0.002381 0.002381 0.004762 0.002381 0.002381
172 0.002381 0.002381 0.002381 0.002381 0.002381 0.002381 0.002381 0.002381 0.002381 0.009524 0.002381 0.002381 0.002381 0.002381 0.002381 0.002381 0.002381 0.002381 0.002381 0.002381 0.002381 0.002381
173 0.002381 0.002381 0.002381 0.002381 0.002381 0.002381 0.002381 0.002381 0.002381 0.002381 0.002381 0.002381 0.007143 0.002381 0.002381 0.002381 0.002381 0.002381 0.002381 0.002381 0.002381 0.002381
174 0.002381 0.002381 0.002381 0.002381 0.002381 0.002381 0.002381 0.002381 0.002381 0.002381 0.004762 0.002381 0.002381 0.002381 0.002381 0.002381 0.004762 0.002381 0.002381 0.004762 0.002381 0.002381
175 0.002381 0.002381 0.002381 0.002381 0.002381 0.007143 0.002381 0.002381 0.002381 0.002381 0.002381 0.002381 0.002381 0.002381 0.002381 0.002381 0.004762 0.002381 0.002381 0.002381 0.002381 0.002381
176 0.004762 0.002381 0.002381 0.002381 0.002381 0.002381 0.002381 0.007143 0.002381 0.002381 0.002381 0.002381 0.002381 0.002381 0.002381 0.002381 0.002381 0.002381 0.004762 0.002381 0.002381 0.002381
177 0.002381 0.002381 0.002381 0.009524 0.002381 0.002381 0.002381 0.002381 0.002381 0.002381 0.002381 0.002381 0.002381 0.002381 0.002381 0.002381 0.002381 0.002381 0.002381 0.002381 0.002381 0.002381
178 0.009524 0.004762 0.004762 0.009524 0.007143 0.009524 0.016667 0.023810 0.002381 0.028571 0.009524 0.045238 0.009524 0.004762 0.007143 0.004762 0.011905 0.004762 0.009524 0.011905 0.007143 0.014286
179 0.002381 0.002381 0.004762 0.002381 0.004762 0.002381 0.002381 0.002381 0.002381 0.002381 0.002381 0.002381 0.002381 0.002381 0.002381 0.002381 0.002381 0.002381 0.002381 0.002381 0.004762 0.002381
180 0.002381 0.002381 0.002381 0.002381 0.002381 0.002381 0.002381 0.002381 0.002381 0.002381 0.002381 0.002381 0.002381 0.002381 0.002381 0.002381 0.002381 0.007143 0.002381 0.002381 0.002381 0.002381
181 0.002381 0.002381 0.002381 0.002381 0.002381 0.002381 0.002381 0.002381 0.002381 0.002381 0.002381 0.002381 0.002381 0.002381 0.002381 0.002381 0.002381 0.007143 0.002381 0.002381 0.002381 0.002381
182 0.002381 0.002381 0.004762 0.004762 0.002381 0.002381 0.002381 0.002381 0.002381 0.002381 0.004762 0.002381 0.002381 0.002381 0.002381 0.002381 0.002381 0.007143 0.004762 0.002381 0.002381 0.002381
183 0.002381 0.004762 0.002381 0.004762 0.002381 0.002381 0.002381 0.002381 0.007143 0.002381 0.002381 0.002381 0.002381 0.007143 0.002381 0.002381 0.002381 0.002381 0.002381 0.002381 0.002381 0.002381
184 0.002381 0.002381 0.002381 0.002381 0.004762 0.002381 0.002381 0.004762 0.002381 0.002381 0.002381 0.002381 0.002381 0.002381 0.002381 0.002381 0.002381 0.002381 0.004762 0.002381 0.002381 0.002381
185 0.002381 0.002381 0.002381 0.002381 0.002381 0.004762 0.002381 0.002381 0.002381 0.004762 0.002381 0.002381 0.002381 0.002381 0.002381 0.002381 0.002381 0.002381 0.002381 0.004762 0.002381 0.007143
186 0.002381 0.002381 0.002381 0.002381 0.002381 0.002381 0.002381 0.002381 0.004762 0.002381 0.002381 0.002381 0.009524 0.002381 0.002381 0.002381 0.002381 0.002381 0.002381 0.002381 0.002381 0.002381
187 0.002381 0.002381 0.002381 0.002381 0.002381 0.002381 0.002381 0.002381 0.002381 0.019048 0.002381 0.002381 0.002381 0.002381 0.002381 0.002381 0.002381 0.002381 0.002381 0.002381 0.002381 0.002381
188 0.002381 0.002381 0.002381 0.002381 0.004762 0.004762 0.002381 0.002381 0.002381 0.002381 0.002381 0.002381 0.002381 0.002381 0.004762 0.002381 0.002381 0.002381 0.002381 0.002381 0.002381 0.004762
189 0.002381 0.002381 0.002381 0.011905 0.002381 0.002381 0.002381 0.004762 0.009524 0.002381 0.002381 0.002381 0.002381 0.002381 0.002381 0.002381 0.002381 0.002381 0.002381 0.002381 0.002381 0.004762
190 0.002381 0.002381 0.002381 0.002381 0.002381 0.002381 0.002381 0.002381 0.002381 0.002381 0.002381 0.002381 0.002381 0.002381 0.002381 0.002381 0.009524 0.002381 0.002381 0.002381 0.002381 0.002381
191 0.002381 0.002381 0.009524 0.002381 0.002381 0.002381 0.002381 0.002381 0.002381 0.002381 0.004762 0.002381 0.002381 0.007143 0.002381 0.002381 0.002381 0.002381 0.002381 0.002381 0.002381 0.002381
192 0.002381 0.002381 0.004762 0.002381 0.002381 0.007143 0.004762 0.004762 0.002381 0.002381 0.002381 0.011905 0.002381 0.004762 0.002381 0.002381 0.002381 0.002381 0.007143 0.004762 0.002381 0.002381
193 0.009524 0.002381 0.002381 0.002381 0.002381 0.002381 0.002381 0.004762 0.002381 0.002381 0.002381 0.002381 0.002381 0.002381 0.002381 0.002381 0.002381 0.002381 0.004762 0.002381 0.002381 0.002381
194 0.002381 0.002381 0.002381 0.004762 0.002381 0.004762 0.002381 0.002381 0.002381 0.004762 0.002381 0.004762 0.002381 0.002381 0.004762 0.002381 0.002381 0.004762 0.002381 0.002381 0.002381 0.002381
195 0.002381 0.002381 0.002381 0.002381 0.002381 0.009524 0.002381 0.002381 0.004762 0.004762 0.002381 0.004762 0.002381 0.002381 0.002381 0.002381 0.002381 0.002381 0.002381 0.004762 0.002381 0.002381
196 0.002381 0.002381 0.002381 0.002381 0.002381 0.002381 0.004762 0.002381 0.002381 0.002381 0.011905 0.002381 0.002381 0.004762 0.011905 0.002381 0.002381 0.004762 0.002381 0.004762 0.007143 0.004762
197 0.002381 0.002381 0.002381 0.002381 0.007143 0.002381 0.002381 0.007143 0.002381 0.002381 0.002381 0.002381 0.002381 0.002381 0.002381 0.002381 0.002381 0.004762 0.002381 0.002381 0.002381 0.002381
198 0.002381 0.002381 0.002381 0.009524 0.002381 0.002381 0.002381 0.002381 0.002381 0.002381 0.002381 0.002381 0.002381 0.002381 0.002381 0.002381 0.002381 0.002381 0.002381 0.002381 0.002381 0.004762
199 0.002381 0.002381 0.002381 0.002381 0.002381 0.002381 0.007143 0.002381 0.002381 0.004762 0.007143 0.004762 0.004762 0.002381 0.002381 0.002381 0.002381 0.002381 0.002381 0.004762 0.002381 0.002381
200 0.002381 0.002381 0.002381 0.002381 0.002381 0.002381 0.002381 0.002381 0.002381 0.002381 0.002381 0.004762 0.002381 0.002381 0.002381 0.004762 0.002381 0.004762 0.002381 0.002381 0.002381 0.002381
201 0.004762 0.002381 0.002381 0.002381 0.002381 0.002381 0.002381 0.007143 0.002381 0.002381 0.002381 0.014286 0.002381 0.002381 0.002381 0.002381 0.002381 0.002381 0.004762 0.002381 0.002381 0.002381
202 0.002381 0.002381 0.002381 0.002381 0.004762 0.002381 0.002381 0.002381 0.002381 0.002381 0.002381 0.002381 0.002381 0.002381 0.002381 0.002381 0.004762 0.002381 0.002381 0.002381 0.002381 0.002381
203 0.002381 0.002381 0.002381 0.002381 0.002381 0.002381 0.002381 0.002381 0.002381 0.002381 0.002381 0.009524 0.002381 0.002381 0.002381 0.002381 0.002381 0.002381 0.002381 0.002381 0.002381 0.002381
204 0.002381 0.002381 0.002381 0.002381 0.002381 0.002381 0.002381 0.002381 0.002381 0.002381 0.002381 0.002381 0.002381 0.002381 0.002381 0.002381 0.007143 0.002381 0.002381 0.002381 0.002381 0.002381
205 0.004762 0.007143 0.002381 0.007143 0.004762 0.011905 0.009524 0.002381 0.009524 0.014286 0.007143 0.011905 0.011905 0.002381 0.002381 0.002381 0.007143 0.002381 0.004762 0.004762 0.007143 0.004762
206 0.002381 0.002381 0.002381 0.002381 0.002381 0.002381 0.002381 0.002381 0.002381 0.002381 0.002381 0.002381 0.002381 0.002381 0.002381 0.002381 0.002381 0.002381 0.002381 0.002381 0.002381 0.009524
207 0.002381 0.002381 0.002381 0.002381 0.002381 0.002381 0.002381 0.002381 0.002381 0.002381 0.002381 0.007143 0.002381 0.002381 0.002381 0.002381 0.002381 0.002381 0.007143 0.002381 0.002381 0.002381
208 0.002381 0.002381 0.004762 0.002381 0.002381 0.011905 0.002381 0.002381 0.002381 0.004762 0.002381 0.002381 0.002381 0.002381 0.002381 0.002381 0.002381 0.002381 0.002381 0.002381 0.004762 0.004762
209 0.002381 0.004762 0.007143 0.002381 0.002381 0.002381 0.002381 0.002381 0.002381 0.002381 0.002381 0.002381 0.002381 0.002381 0.002381 0.002381 0.002381 0.002381 0.002381 0.002381 0.002381 0.004762
210 0.002381 0.002381 0.002381 0.009524 0.002381 0.002381 0.002381 0.002381 0.002381 0.002381 0.002381 0.002381 0.002381 0.002381 0.002381 0.002381 0.002381 0.002381 0.002381 0.004762 0.002381 0.002381
211 0.002381 0.002381 0.002381 0.002381 0.002381 0.002381 0.002381 0.002381 0.002381 0.007143 0.002381 0.002381 0.002381 0.002381 0.002381 0.002381 0.002381 0.002381 0.002381 0.002381 0.002381 0.004762
212 0.002381 0.002381 0.002381 0.002381 0.002381 0.009524 0.002381 0.002381 0.002381 0.002381 0.002381 0.002381 0.004762 0.002381 0.002381 0.002381 0.002381 0.002381 0.002381 0.002381 0.002381 0.002381
213 0.002381 0.002381 0.004762 0.004762 0.002381 0.002381 0.004762 0.004762 0.002381 0.004762 0.002381 0.002381 0.002381 0.002381 0.002381 0.002381 0.002381 0.002381 0.002381 0.004762 0.002381 0.004762
214 0.002381 0.002381 0.002381 0.002381 0.004762 0.002381 0.004762 0.002381 0.002381 0.002381 0.002381 0.004762 0.004762 0.002381 0.002381 0.002381 0.002381 0.002381 0.004762 0.002381 0.002381 0.007143
215 0.002381 0.002381 0.002381 0.002381 0.002381 0.007143 0.002381 0.002381 0.002381 0.002381 0.002381 0.002381 0.002381 0.002381 0.002381 0.002381 0.002381 0.002381 0.002381 0.002381 0.002381 0.002381
216 0.002381 0.002381 0.004762 0.002381 0.002381 0.002381 0.002381 0.004762 0.002381 0.002381 0.002381 0.002381 0.004762 0.002381 0.002381 0.002381 0.002381 0.002381 0.002381 0.002381 0.002381 0.002381
217 0.002381 0.004762 0.002381 0.002381 0.002381 0.002381 0.002381 0.002381 0.004762 0.002381 0.004762 0.004762 0.002381 0.002381 0.002381 0.004762 0.007143 0.002381 0.002381 0.002381 0.002381 0.002381
218 0.002381 0.002381 0.002381 0.007143 0.002381 0.002381 0.002381 0.002381 0.002381 0.002381 0.002381 0.002381 0.002381 0.002381 0.002381 0.002381 0.002381 0.002381 0.002381 0.002381 0.002381 0.002381
219 0.004762 0.002381 0.002381 0.002381 0.002381 0.002381 0.002381 0.002381 0.004762 0.002381 0.002381 0.014286 0.004762 0.002381 0.002381 0.002381 0.002381 0.002381 0.002381 0.002381 0.004762 0.002381
220 0.002381 0.002381 0.002381 0.002381 0.002381 0.002381 0.002381 0.002381 0.002381 0.007143 0.002381 0.002381 0.002381 0.002381 0.002381 0.002381 0.002381 0.002381 0.002381 0.007143 0.002381 0.002381
221 0.002381 0.002381 0.002381 0.004762 0.002381 0.002381 0.004762 0.002381 0.002381 0.002381 0.002381 0.002381 0.002381 0.002381 0.002381 0.002381 0.002381 0.002381 0.002381 0.004762 0.002381 0.002381
222 0.002381 0.002381 0.002381 0.002381 0.002381 0.009524 0.002381 0.002381 0.002381 0.002381 0.002381 0.002381 0.002381 0.002381 0.002381 0.002381 0.002381 0.002381 0.002381 0.002381 0.002381 0.002381
223 0.002381 0.002381 0.002381 0.002381 0.002381 0.002381 0.002381 0.002381 0.002381 0.007143 0.002381 0.002381 0.002381 0.002381 0.002381 0.002381 0.004762 0.002381 0.002381 0.002381 0.002381 0.002381
224 0.004762 0.002381 0.002381 0.002381 0.002381 0.002381 0.002381 0.002381 0.002381 0.002381 0.002381 0.002381 0.004762 0.002381 0.002381 0.002381 0.002381 0.002381 0.002381 0.002381 0.002381 0.002381
225 0.002381 0.002381 0.002381 0.002381 0.002381 0.002381 0.002381 0.002381 0.002381 0.002381 0.004762 0.002381 0.002381 0.004762 0.002381 0.002381 0.002381 0.002381 0.002381 0.004762 0.002381 0.002381
226 0.002381 0.002381 0.002381 0.002381 0.002381 0.007143 0.002381 0.002381 0.002381 0.002381 0.002381 0.002381 0.002381 0.002381 0.002381 0.002381 0.002381 0.002381 0.002381 0.002381 0.002381 0.002381
227 0.002381 0.002381 0.002381 0.002381 0.002381 0.002381 0.002381 0.002381 0.002381 0.002381 0.002381 0.014286 0.002381 0.002381 0.002381 0.002381 0.002381 0.002381 0.004762 0.004762 0.002381 0.002381
228 0.004762 0.004762 0.002381 0.002381 0.002381 0.002381 0.009524 0.004762 0.011905 0.011905 0.004762 0.040476 0.004762 0.002381 0.004762 0.004762 0.002381 0.002381 0.004762 0.011905 0.002381 0.007143
229 0.004762 0.002381 0.002381 0.004762 0.002381 0.004762 0.002381 0.002381 0.004762 0.002381 0.004762 0.004762 0.002381 0.002381 0.002381 0.002381 0.002381 0.002381 0.002381 0.002381 0.002381 0.002381
230 0.004762 0.004762 0.007143 0.004762 0.004762 0.007143 0.002381 0.004762 0.004762 0.002381 0.002381 0.004762 0.002381 0.002381 0.002381 0.002381 0.004762 0.002381 0.002381 0.002381 0.002381 0.004762
231 0.002381 0.002381 0.002381 0.002381 0.007143 0.002381 0.002381 0.002381 0.002381 0.002381 0.002381 0.002381 0.002381 0.002381 0.002381 0.002381 0.002381 0.002381 0.002381 0.002381 0.002381 0.002381
232 0.002381 0.002381 0.002381 0.002381 0.002381 0.009524 0.002381 0.002381 0.002381 0.002381 0.002381 0.002381 0.002381 0.002381 0.002381 0.002381 0.002381 0.002381 0.002381 0.002381 0.002381 0.002381
233 0.002381 0.002381 0.002381 0.002381 0.004762 0.002381 0.002381 0.004762 0.002381 0.002381 0.002381 0.002381 0.004762 0.002381 0.002381 0.002381 0.004762 0.002381 0.002381 0.004762 0.002381 0.004762
234 0.002381 0.002381 0.004762 0.002381 0.002381 0.002381 0.004762 0.004762 0.004762 0.009524 0.002381 0.007143 0.007143 0.002381 0.002381 0.002381 0.007143 0.002381 0.004762 0.002381 0.002381 0.002381
235 0.002381 0.004762 0.002381 0.004762 0.002381 0.002381 0.002381 0.002381 0.004762 0.002381 0.004762 0.002381 0.002381 0.002381 0.002381 0.002381 0.002381 0.002381 0.004762 0.002381 0.004762 0.002381
236 0.002381 0.002381 0.002381 0.002381 0.002381 0.004762 0.002381 0.002381 0.002381 0.002381 0.002381 0.002381 0.002381 0.002381 0.002381 0.002381 0.002381 0.007143 0.002381 0.002381 0.002381 0.002381
237 0.002381 0.002381 0.002381 0.002381 0.007143 0.002381 0.004762 0.004762 0.002381 0.004762 0.002381 0.004762 0.002381 0.002381 0.002381 0.002381 0.002381 0.002381 0.002381 0.002381 0.002381 0.002381
238 0.002381 0.002381 0.002381 0.002381 0.002381 0.002381 0.002381 0.004762 0.002381 0.002381 0.002381 0.004762 0.002381 0.002381 0.002381 0.002381 0.002381 0.002381 0.007143 0.002381 0.002381 0.002381
239 0.002381 0.002381 0.002381 0.002381 0.004762 0.004762 0.002381 0.002381 0.002381 0.002381 0.002381 0.002381 0.002381 0.002381 0.002381 0.002381 0.004762 0.002381 0.002381 0.002381 0.002381 0.002381
240 0.002381 0.002381 0.004762 0.002381 0.004762 0.004762 0.002381 0.002381 0.002381 0.002381 0.002381 0.004762 0.004762 0.004762 0.002381 0.002381 0.002381 0.002381 0.002381 0.002381 0.002381 0.002381
241 0.002381 0.002381 0.002381 0.002381 0.002381 0.002381 0.002381 0.002381 0.002381 0.002381 0.002381 0.002381 0.002381 0.002381 0.002381 0.002381 0.002381 0.002381 0.002381 0.009524 0.002381 0.002381
242 0.002381 0.004762 0.002381 0.002381 0.004762 0.002381 0.002381 0.002381 0.002381 0.002381 0.002381 0.002381 0.002381 0.002381 0.002381 0.002381 0.002381 0.002381 0.002381 0.002381 0.002381 0.002381
243 0.002381 0.002381 0.002381 0.002381 0.004762 0.002381 0.002381 0.004762 0.002381 0.004762 0.002381 0.004762 0.002381 0.002381 0.002381 0.002381 0.002381 0.002381 0.004762 0.002381 0.002381 0.002381
244 0.002381 0.002381 0.002381 0.002381 0.002381 0.004762 0.002381 0.002381 0.002381 0.002381 0.002381 0.002381 0.002381 0.002381 0.002381 0.002381 0.002381 0.004762 0.002381 0.004762 0.004762 0.002381
245 0.002381 0.002381 0.002381 0.002381 0.002381 0.002381 0.002381 0.002381 0.002381 0.002381 0.002381 0.002381 0.002381 0.004762 0.002381 0.002381 0.002381 0.002381 0.002381 0.002381 0.004762 0.002381
246 0.002381 0.002381 0.002381 0.002381 0.002381 0.004762 0.002381 0.007143 0.002381 0.004762 0.002381 0.009524 0.004762 0.002381 0.002381 0.002381 0.002381 0.002381 0.002381 0.004762 0.002381 0.004762
247 0.002381 0.002381 0.002381 0.002381 0.004762 0.002381 0.007143 0.002381 0.004762 0.007143 0.004762 0.002381 0.002381 0.002381 0.002381 0.002381 0.004762 0.002381 0.002381 0.002381 0.002381 0.002381
248 0.002381 0.002381 0.002381 0.002381 0.002381 0.002381 0.014286 0.002381 0.002381 0.002381 0.002381 0.002381 0.002381 0.002381 0.002381 0.002381 0.002381 0.002381 0.002381 0.002381 0.002381 0.002381
249 0.002381 0.002381 0.002381 0.002381 0.004762 0.002381 0.002381 0.007143 0.002381 0.002381 0.002381 0.007143 0.004762 0.002381 0.002381 0.002381 0.002381 0.002381 0.002381 0.002381 0.002381 0.002381
250 0.002381 0.002381 0.002381 0.002381 0.002381 0.002381 0.002381 0.004762 0.002381 0.002381 0.002381 0.009524 0.002381 0.002381 0.002381 0.002381 0.002381 0.002381 0.002381 0.002381 0.002381 0.002381
251 0.002381 0.002381 0.002381 0.002381 0.004762 0.004762 0.002381 0.002381 0.002381 0.004762 0.002381 0.002381 0.002381 0.004762 0.002381 0.002381 0.002381 0.002381 0.002381 0.002381 0.002381 0.002381
252 0.004762 0.002381 0.007143 0.004762 0.002381 0.011905 0.007143 0.004762 0.002381 0.004762 0.002381 0.011905 0.002381 0.002381 0.002381 0.002381 0.002381 0.002381 0.004762 0.004762 0.002381 0.004762
253 0.002381 0.004762 0.002381 0.002381 0.002381 0.002381 0.002381 0.002381 0.002381 0.004762 0.002381 0.004762 0.002381 0.002381 0.002381 0.002381 0.002381 0.002381 0.002381 0.002381 0.002381 0.002381
254 0.004762 0.002381 0.002381 0.002381 0.004762 0.002381 0.007143 0.002381 0.002381 0.007143 0.007143 0.004762 0.004762 0.002381 0.002381 0.002381 0.004762 0.002381 0.002381 0.002381 0.004762 0.007143
255 0.004762 0.002381 0.002381 0.002381 0.002381 0.002381 0.002381 0.002381 0.002381 0.002381 0.002381 0.002381 0.002381 0.002381 0.002381 0.004762 0.002381 0.002381 0.002381 0.002381 0.002381 0.002381
256 0.004762 0.004762 0.002381 0.002381 0.002381 0.002381 0.002381 0.002381 0.002381 0.002381 0.002381 0.002381 0.002381 0.002381 0.002381 0.002381 0.002381 0.002381 0.002381 0.002381 0.002381 0.004762
257 0.002381 0.002381 0.002381 0.002381 0.002381 0.002381 0.011905 0.002381 0.002381 0.004762 0.002381 0.002381 0.002381 0.002381 0.002381 0.002381 0.009524 0.002381 0.002381 0.002381 0.002381 0.002381
258 0.002381 0.002381 0.002381 0.002381 0.002381 0.004762 0.004762 0.002381 0.007143 0.002381 0.002381 0.004762 0.007143 0.002381 0.002381 0.002381 0.002381 0.002381 0.002381 0.007143 0.002381 0.002381
259 0.002381 0.002381 0.002381 0.002381 0.002381 0.002381 0.002381 0.033333 0.002381 0.002381 0.002381 0.002381 0.002381 0.002381 0.002381 0.002381 0.002381 0.002381 0.004762 0.002381 0.002381 0.002381
260 0.002381 0.002381 0.002381 0.002381 0.002381 0.002381 0.004762 0.002381 0.002381 0.002381 0.002381 0.002381 0.002381 0.002381 0.002381 0.002381 0.002381 0.002381 0.002381 0.009524 0.002381 0.009524
261 0.002381 0.004762 0.002381 0.002381 0.002381 0.002381 0.004762 0.014286 0.011905 0.002381 0.004762 0.007143 0.002381 0.009524 0.004762 0.002381 0.002381 0.004762 0.004762 0.004762 0.002381 0.002381
262 0.002381 0.002381 0.002381 0.002381 0.002381 0.007143 0.002381 0.002381 0.002381 0.002381 0.002381 0.002381 0.002381 0.002381 0.002381 0.002381 0.002381 0.002381 0.002381 0.002381 0.002381 0.002381
263 0.002381 0.002381 0.002381 0.004762 0.002381 0.002381 0.002381 0.004762 0.002381 0.004762 0.002381 0.011905 0.002381 0.002381 0.002381 0.002381 0.002381 0.002381 0.002381 0.002381 0.002381 0.002381
264 0.002381 0.004762 0.002381 0.002381 0.002381 0.011905 0.002381 0.007143 0.002381 0.004762 0.002381 0.002381 0.002381 0.002381 0.002381 0.002381 0.002381 0.002381 0.002381 0.002381 0.002381 0.002381
265 0.004762 0.009524 0.004762 0.002381 0.004762 0.004762 0.002381 0.004762 0.004762 0.002381 0.007143 0.002381 0.004762 0.007143 0.011905 0.002381 0.002381 0.002381 0.002381 0.002381 0.002381 0.002381
266 0.002381 0.002381 0.002381 0.002381 0.002381 0.002381 0.002381 0.007143 0.002381 0.004762 0.002381 0.009524 0.002381 0.002381 0.002381 0.002381 0.002381 0.002381 0.002381 0.002381 0.002381 0.002381
267 0.002381 0.002381 0.002381 0.002381 0.002381 0.002381 0.002381 0.002381 0.002381 0.004762 0.002381 0.004762 0.002381 0.002381 0.004762 0.002381 0.004762 0.002381 0.002381 0.004762 0.002381 0.002381
268 0.002381 0.002381 0.002381 0.002381 0.002381 0.007143 0.002381 0.002381 0.002381 0.002381 0.002381 0.002381 0.002381 0.002381 0.002381 0.002381 0.002381 0.002381 0.002381 0.002381 0.002381 0.002381
269 0.002381 0.002381 0.002381 0.002381 0.002381 0.009524 0.002381 0.002381 0.002381 0.002381 0.002381 0.002381 0.002381 0.002381 0.002381 0.002381 0.002381 0.002381 0.002381 0.002381 0.002381 0.004762
270 0.002381 0.002381 0.002381 0.002381 0.002381 0.002381 0.002381 0.002381 0.002381 0.002381 0.002381 0.002381 0.002381 0.002381 0.002381 0.002381 0.002381 0.002381 0.002381 0.007143 0.002381 0.002381
271 0.004762 0.002381 0.002381 0.007143 0.002381 0.004762 0.004762 0.004762 0.004762 0.007143 0.002381 0.002381 0.004762 0.002381 0.004762 0.002381 0.002381 0.002381 0.002381 0.004762 0.002381 0.002381
272 0.004762 0.002381 0.002381 0.002381 0.002381 0.002381 0.002381 0.002381 0.002381 0.002381 0.004762 0.002381 0.002381 0.002381 0.002381 0.002381 0.002381 0.004762 0.002381 0.002381 0.002381 0.002381
273 0.002381 0.002381 0.002381 0.002381 0.004762 0.004762 0.002381 0.004762 0.002381 0.004762 0.002381 0.004762 0.002381 0.002381 0.002381 0.002381 0.002381 0.002381 0.004762 0.002381 0.002381 0.002381
274 0.002381 0.002381 0.004762 0.009524 0.004762 0.002381 0.007143 0.002381 0.002381 0.007143 0.002381 0.004762 0.002381 0.002381 0.002381 0.002381 0.007143 0.002381 0.002381 0.002381 0.004762 0.004762
275 0.004762 0.004762 0.004762 0.004762 0.002381 0.009524 0.002381 0.009524 0.004762 0.007143 0.009524 0.014286 0.004762 0.002381 0.004762 0.002381 0.002381 0.002381 0.004762 0.004762 0.004762 0.004762
276 0.002381 0.002381 0.002381 0.002381 0.002381 0.002381 0.002381 0.002381 0.002381 0.002381 0.002381 0.002381 0.002381 0.002381 0.009524 0.002381 0.002381 0.002381 0.002381 0.002381 0.002381 0.002381
277 0.002381 0.002381 0.004762 0.004762 0.002381 0.002381 0.002381 0.004762 0.002381 0.002381 0.002381 0.002381 0.004762 0.002381 0.002381 0.002381 0.002381 0.002381 0.002381 0.002381 0.002381 0.002381
278 0.002381 0.002381 0.002381 0.002381 0.002381 0.002381 0.002381 0.002381 0.002381 0.002381 0.002381 0.002381 0.002381 0.002381 0.002381 0.002381 0.002381 0.002381 0.002381 0.002381 0.002381 0.007143
279 0.002381 0.002381 0.002381 0.002381 0.002381 0.002381 0.007143 0.007143 0.002381 0.009524 0.002381 0.002381 0.002381 0.002381 0.002381 0.002381 0.002381 0.002381 0.002381 0.002381 0.002381 0.002381
280 0.002381 0.002381 0.002381 0.002381 0.002381 0.007143 0.002381 0.004762 0.002381 0.004762 0.002381 0.009524 0.002381 0.004762 0.002381 0.002381 0.002381 0.004762 0.002381 0.004762 0.002381 0.002381
281 0.002381 0.004762 0.002381 0.002381 0.002381 0.004762 0.002381 0.002381 0.002381 0.002381 0.002381 0.002381 0.002381 0.002381 0.002381 0.002381 0.002381 0.002381 0.002381 0.002381 0.002381 0.002381
282 0.004762 0.002381 0.002381 0.002381 0.002381 0.002381 0.002381 0.002381 0.002381 0.002381 0.002381 0.002381 0.002381 0.002381 0.002381 0.004762 0.002381 0.002381 0.002381 0.002381 0.002381 0.004762
283 0.002381 0.002381 0.002381 0.002381 0.002381 0.002381 0.002381 0.007143 0.002381 0.002381 0.002381 0.002381 0.002381 0.004762 0.002381 0.002381 0.002381 0.002381 0.002381 0.002381 0.002381 0.002381
284 0.002381 0.002381 0.002381 0.002381 0.002381 0.014286 0.002381 0.004762 0.002381 0.002381 0.002381 0.002381 0.002381 0.002381 0.002381 0.002381 0.002381 0.002381 0.002381 0.002381 0.002381 0.002381
285 0.004762 0.004762 0.004762 0.002381 0.002381 0.002381 0.004762 0.002381 0.002381 0.004762 0.002381 0.007143 0.002381 0.004762 0.002381 0.002381 0.002381 0.004762 0.002381 0.002381 0.002381 0.002381
286 0.002381 0.002381 0.002381 0.002381 0.004762 0.002381 0.002381 0.002381 0.002381 0.002381 0.002381 0.004762 0.002381 0.002381 0.002381 0.004762 0.002381 0.002381 0.002381 0.002381 0.002381 0.002381
287 0.002381 0.002381 0.002381 0.002381 0.002381 0.002381 0.002381 0.002381 0.004762 0.002381 0.002381 0.004762 0.004762 0.002381 0.002381 0.002381 0.002381 0.002381 0.004762 0.002381 0.002381 0.002381
288 0.002381 0.002381 0.002381 0.002381 0.004762 0.002381 0.002381 0.002381 0.002381 0.004762 0.002381 0.002381 0.002381 0.002381 0.002381 0.002381 0.002381 0.004762 0.002381 0.002381 0.002381 0.002381
289 0.002381 0.002381 0.002381 0.002381 0.002381 0.004762 0.004762 0.004762 0.002381 0.002381 0.002381 0.002381 0.002381 0.007143 0.002381 0.002381 0.002381 0.002381 0.002381 0.002381 0.002381 0.002381
290 0.004762 0.002381 0.002381 0.002381 0.002381 0.002381 0.004762 0.002381 0.002381 0.002381 0.004762 0.004762 0.007143 0.002381 0.004762 0.002381 0.002381 0.002381 0.002381 0.002381 0.002381 0.004762
291 0.002381 0.002381 0.004762 0.002381 0.002381 0.002381 0.002381 0.002381 0.002381 0.002381 0.002381 0.002381 0.004762 0.002381 0.002381 0.004762 0.002381 0.002381 0.002381 0.002381 0.002381 0.002381
292 0.004762 0.007143 0.004762 0.002381 0.004762 0.019048 0.007143 0.007143 0.009524 0.007143 0.014286 0.021429 0.007143 0.002381 0.002381 0.002381 0.002381 0.007143 0.009524 0.009524 0.007143 0.009524
293 0.002381 0.002381 0.002381 0.002381 0.002381 0.007143 0.002381 0.002381 0.002381 0.002381 0.002381 0.004762 0.002381 0.002381 0.002381 0.002381 0.002381 0.002381 0.002381 0.002381 0.002381 0.002381
294 0.002381 0.002381 0.004762 0.002381 0.002381 0.002381 0.002381 0.002381 0.004762 0.004762 0.002381 0.004762 0.002381 0.002381 0.002381 0.002381 0.002381 0.002381 0.004762 0.002381 0.002381 0.002381
295 0.002381 0.004762 0.004762 0.002381 0.004762 0.002381 0.002381 0.002381 0.002381 0.004762 0.002381 0.004762 0.002381 0.002381 0.002381 0.002381 0.002381 0.002381 0.004762 0.002381 0.004762 0.002381
296 0.004762 0.002381 0.002381 0.002381 0.002381 0.002381 0.004762 0.004762 0.002381 0.004762 0.002381 0.002381 0.004762 0.002381 0.002381 0.002381 0.002381 0.002381 0.002381 0.002381 0.007143 0.002381
297 0.002381 0.002381 0.002381 0.007143 0.002381 0.002381 0.002381 0.004762 0.002381 0.004762 0.002381 0.002381 0.002381 0.002381 0.002381 0.002381 0.004762 0.002381 0.002381 0.002381 0.002381 0.002381
298 0.002381 0.002381 0.002381 0.014286 0.002381 0.004762 0.002381 0.004762 0.002381 0.004762 0.004762 0.002381 0.002381 0.002381 0.002381 0.002381 0.002381 0.002381 0.002381 0.002381 0.002381 0.002381
299 0.002381 0.004762 0.002381 0.002381 0.002381 0.004762 0.002381 0.002381 0.004762 0.002381 0.004762 0.002381 0.002381 0.002381 0.002381 0.002381 0.002381 0.002381 0.002381 0.002381 0.002381 0.002381
300 0.002381 0.002381 0.002381 0.002381 0.002381 0.002381 0.002381 0.002381 0.002381 0.002381 0.002381 0.002381 0.002381 0.004762 0.002381 0.002381 0.002381 0.002381 0.002381 0.002381 0.004762 0.002381
301 0.007143 0.007143 0.004762 0.002381 0.011905 0.014286 0.014286 0.004762 0.004762 0.019048 0.002381 0.011905 0.004762 0.002381 0.004762 0.002381 0.002381 0.002381 0.004762 0.007143 0.002381 0.002381
302 0.002381 0.002381 0.002381 0.002381 0.002381 0.004762 0.004762 0.002381 0.002381 0.002381 0.002381 0.002381 0.002381 0.002381 0.002381 0.002381 0.007143 0.002381 0.002381 0.002381 0.002381 0.002381
303 0.002381 0.004762 0.004762 0.004762 0.002381 0.007143 0.009524 0.009524 0.004762 0.007143 0.007143 0.007143 0.002381 0.002381 0.004762 0.004762 0.004762 0.007143 0.002381 0.002381 0.004762 0.007143
304 0.004762 0.002381 0.002381 0.002381 0.002381 0.002381 0.002381 0.002381 0.002381 0.007143 0.004762 0.004762 0.002381 0.002381 0.002381 0.002381 0.002381 0.002381 0.002381 0.002381 0.004762 0.002381
305 0.002381 0.002381 0.002381 0.004762 0.004762 0.004762 0.002381 0.002381 0.002381 0.002381 0.002381 0.002381 0.002381 0.002381 0.002381 0.002381 0.002381 0.002381 0.004762 0.002381 0.004762 0.007143
306 0.002381 0.002381 0.002381 0.002381 0.002381 0.002381 0.002381 0.002381 0.002381 0.002381 0.004762 0.004762 0.002381 0.004762 0.002381 0.002381 0.002381 0.002381 0.002381 0.002381 0.002381 0.002381
307 0.002381 0.002381 0.002381 0.002381 0.002381 0.002381 0.002381 0.002381 0.004762 0.004762 0.004762 0.002381 0.002381 0.007143 0.004762 0.002381 0.002381 0.002381 0.002381 0.002381 0.004762 0.002381
308 0.004762 0.004762 0.004762 0.007143 0.002381 0.014286 0.004762 0.009524 0.002381 0.009524 0.004762 0.007143 0.002381 0.002381 0.004762 0.002381 0.002381 0.002381 0.004762 0.007143 0.002381 0.011905
309 0.002381 0.002381 0.002381 0.002381 0.002381 0.002381 0.002381 0.002381 0.002381 0.002381 0.002381 0.014286 0.002381 0.002381 0.002381 0.002381 0.002381 0.002381 0.002381 0.002381 0.002381 0.002381
310 0.002381 0.002381 0.002381 0.002381 0.002381 0.002381 0.004762 0.002381 0.002381 0.002381 0.002381 0.002381 0.002381 0.002381 0.002381 0.002381 0.002381 0.004762 0.002381 0.002381 0.002381 0.002381
311 0.002381 0.002381 0.002381 0.002381 0.002381 0.002381 0.002381 0.002381 0.002381 0.002381 0.002381 0.002381 0.002381 0.002381 0.002381 0.002381 0.002381 0.002381 0.007143 0.002381 0.002381 0.002381
312 0.002381 0.002381 0.002381 0.002381 0.002381 0.002381 0.002381 0.002381 0.007143 0.002381 0.002381 0.002381 0.004762 0.002381 0.002381 0.004762 0.009524 0.002381 0.002381 0.002381 0.002381 0.002381
313 0.007143 0.002381 0.002381 0.002381 0.002381 0.002381 0.002381 0.002381 0.004762 0.002381 0.002381 0.002381 0.002381 0.002381 0.002381 0.002381 0.002381 0.002381 0.002381 0.002381 0.002381 0.002381
314 0.002381 0.002381 0.002381 0.004762 0.009524 0.004762 0.002381 0.007143 0.002381 0.002381 0.004762 0.002381 0.004762 0.004762 0.004762 0.002381 0.002381 0.002381 0.002381 0.002381 0.002381 0.004762
315 0.002381 0.002381 0.002381 0.002381 0.002381 0.002381 0.007143 0.002381 0.002381 0.009524 0.002381 0.004762 0.002381 0.002381 0.002381 0.002381 0.004762 0.002381 0.002381 0.002381 0.002381 0.002381
316 0.002381 0.002381 0.002381 0.002381 0.002381 0.002381 0.002381 0.002381 0.002381 0.002381 0.002381 0.002381 0.002381 0.002381 0.002381 0.002381 0.002381 0.002381 0.002381 0.011905 0.002381 0.002381
317 0.002381 0.002381 0.002381 0.002381 0.002381 0.002381 0.002381 0.014286 0.002381 0.002381 0.002381 0.023810 0.004762 0.002381 0.002381 0.002381 0.002381 0.002381 0.004762 0.002381 0.002381 0.002381
318 0.002381 0.004762 0.002381 0.002381 0.002381 0.007143 0.002381 0.002381 0.002381 0.002381 0.002381 0.002381 0.004762 0.002381 0.002381 0.002381 0.002381 0.002381 0.002381 0.002381 0.002381 0.004762
319 0.002381 0.002381 0.002381 0.002381 0.002381 0.002381 0.002381 0.002381 0.002381 0.002381 0.002381 0.019048 0.002381 0.002381 0.002381 0.002381 0.002381 0.002381 0.002381 0.002381 0.002381 0.002381
320 0.002381 0.002381 0.002381 0.002381 0.002381 0.002381 0.002381 0.002381 0.002381 0.002381 0.002381 0.002381 0.004762 0.002381 0.002381 0.004762 0.004762 0.002381 0.002381 0.002381 0.002381 0.002381
321 0.002381 0.002381 0.002381 0.002381 0.002381 0.002381 0.002381 0.002381 0.002381 0.002381 0.002381 0.009524 0.002381 0.002381 0.002381 0.002381 0.002381 0.002381 0.002381 0.004762 0.002381 0.002381
322 0.007143 0.004762 0.002381 0.002381 0.002381 0.009524 0.002381 0.004762 0.002381 0.002381 0.004762 0.009524 0.004762 0.002381 0.002381 0.002381 0.002381 0.002381 0.004762 0.002381 0.002381 0.002381
323 0.002381 0.004762 0.002381 0.002381 0.002381 0.002381 0.002381 0.002381 0.002381 0.002381 0.002381 0.002381 0.002381 0.002381 0.002381 0.002381 0.002381 0.002381 0.002381 0.002381 0.002381 0.004762
324 0.004762 0.002381 0.002381 0.002381 0.002381 0.004762 0.002381 0.004762 0.002381 0.002381 0.002381 0.007143 0.004762 0.002381 0.002381 0.004762 0.007143 0.002381 0.002381 0.002381 0.004762 0.004762
325 0.002381 0.002381 0.002381 0.002381 0.002381 0.002381 0.002381 0.004762 0.002381 0.002381 0.002381 0.002381 0.002381 0.002381 0.002381 0.002381 0.002381 0.009524 0.002381 0.002381 0.002381 0.002381
326 0.002381 0.002381 0.002381 0.002381 0.002381 0.004762 0.002381 0.002381 0.002381 0.007143 0.002381 0.002381 0.002381 0.002381 0.002381 0.002381 0.004762 0.002381 0.002381 0.002381 0.002381 0.002381
327 0.002381 0.002381 0.002381 0.002381 0.007143 0.002381 0.007143 0.007143 0.002381 0.009524 0.002381 0.002381 0.002381 0.002381 0.002381 0.002381 0.002381 0.002381 0.002381 0.002381 0.002381 0.002381
328 0.002381 0.002381 0.002381 0.004762 0.002381 0.002381 0.002381 0.004762 0.002381 0.007143 0.002381 0.002381 0.002381 0.002381 0.002381 0.002381 0.002381 0.002381 0.002381 0.002381 0.002381 0.002381
329 0.011905 0.009524 0.004762 0.011905 0.002381 0.019048 0.014286 0.016667 0.011905 0.019048 0.016667 0.030952 0.011905 0.002381 0.004762 0.009524 0.016667 0.009524 0.009524 0.019048 0.002381 0.011905
330 0.002381 0.004762 0.002381 0.002381 0.002381 0.002381 0.002381 0.002381 0.004762 0.002381 0.002381 0.002381 0.004762 0.002381 0.002381 0.002381 0.002381 0.002381 0.002381 0.002381 0.004762 0.002381
331 0.002381 0.002381 0.004762 0.002381 0.002381 0.002381 0.004762 0.002381 0.002381 0.002381 0.002381 0.002381 0.002381 0.002381 0.002381 0.002381 0.002381 0.002381 0.002381 0.002381 0.002381 0.004762
332 0.002381 0.002381 0.002381 0.002381 0.002381 0.002381 0.002381 0.002381 0.002381 0.002381 0.002381 0.004762 0.002381 0.002381 0.002381 0.002381 0.007143 0.002381 0.002381 0.002381 0.002381 0.002381
333 0.004762 0.002381 0.002381 0.002381 0.002381 0.030952 0.002381 0.002381 0.002381 0.002381 0.002381 0.002381 0.002381 0.002381 0.002381 0.002381 0.002381 0.002381 0.002381 0.002381 0.002381 0.002381
334 0.002381 0.002381 0.002381 0.002381 0.004762 0.002381 0.004762 0.002381 0.002381 0.002381 0.002381 0.002381 0.002381 0.002381 0.002381 0.002381 0.004762 0.002381 0.002381 0.004762 0.002381 0.002381
335 0.002381 0.002381 0.002381 0.002381 0.002381 0.002381 0.007143 0.002381 0.002381 0.002381 0.002381 0.002381 0.002381 0.002381 0.002381 0.002381 0.002381 0.002381 0.002381 0.002381 0.002381 0.002381
336 0.004762 0.002381 0.002381 0.002381 0.004762 0.002381 0.002381 0.004762 0.002381 0.002381 0.002381 0.002381 0.002381 0.004762 0.002381 0.002381 0.002381 0.004762 0.002381 0.002381 0.002381 0.002381
337 0.004762 0.002381 0.002381 0.002381 0.002381 0.002381 0.002381 0.002381 0.004762 0.009524 0.004762 0.002381 0.002381 0.002381 0.002381 0.002381 0.004762 0.002381 0.002381 0.002381 0.002381 0.007143
338 0.002381 0.002381 0.002381 0.002381 0.004762 0.002381 0.007143 0.002381 0.002381 0.004762 0.002381 0.004762 0.002381 0.002381 0.002381 0.002381 0.002381 0.002381 0.002381 0.002381 0.002381 0.002381
339 0.002381 0.002381 0.002381 0.002381 0.002381 0.002381 0.002381 0.002381 0.002381 0.002381 0.002381 0.002381 0.002381 0.002381 0.002381 0.002381 0.002381 0.004762 0.004762 0.002381 0.002381 0.002381
340 0.002381 0.002381 0.002381 0.002381 0.002381 0.004762 0.002381 0.002381 0.002381 0.002381 0.002381 0.004762 0.002381 0.002381 0.002381 0.002381 0.004762 0.002381 0.002381 0.007143 0.002381 0.002381
341 0.002381 0.002381 0.002381 0.002381 0.002381 0.002381 0.007143 0.004762 0.002381 0.004762 0.002381 0.007143 0.002381 0.002381 0.002381 0.002381 0.004762 0.004762 0.002381 0.002381 0.002381 0.002381
342 0.002381 0.002381 0.002381 0.002381 0.004762 0.007143 0.002381 0.002381 0.002381 0.004762 0.004762 0.002381 0.002381 0.002381 0.002381 0.002381 0.002381 0.002381 0.004762 0.002381 0.002381 0.002381
343 0.002381 0.002381 0.002381 0.002381 0.002381 0.007143 0.002381 0.002381 0.002381 0.002381 0.002381 0.002381 0.002381 0.002381 0.002381 0.002381 0.002381 0.002381 0.002381 0.002381 0.002381 0.002381
344 0.002381 0.002381 0.002381 0.002381 0.002381 0.002381 0.002381 0.002381 0.002381 0.002381 0.002381 0.009524 0.002381 0.002381 0.002381 0.002381 0.002381 0.002381 0.002381 0.002381 0.002381 0.002381
345 0.002381 0.004762 0.002381 0.002381 0.002381 0.002381 0.007143 0.002381 0.002381 0.004762 0.002381 0.004762 0.002381 0.002381 0.002381 0.002381 0.002381 0.002381 0.002381 0.007143 0.002381 0.002381
346 0.002381 0.002381 0.002381 0.004762 0.002381 0.004762 0.002381 0.002381 0.002381 0.002381 0.002381 0.002381 0.002381 0.002381 0.002381 0.002381 0.002381 0.002381 0.002381 0.002381 0.007143 0.002381
347 0.002381 0.002381 0.002381 0.002381 0.002381 0.002381 0.002381 0.002381 0.002381 0.002381 0.002381 0.002381 0.002381 0.002381 0.002381 0.007143 0.002381 0.002381 0.002381 0.002381 0.002381 0.002381
348 0.002381 0.002381 0.004762 0.004762 0.004762 0.004762 0.002381 0.004762 0.002381 0.002381 0.002381 0.004762 0.002381 0.002381 0.002381 0.004762 0.002381 0.007143 0.002381 0.004762 0.007143 0.004762
349 0.002381 0.002381 0.002381 0.002381 0.002381 0.002381 0.002381 0.002381 0.002381 0.002381 0.002381 0.002381 0.002381 0.002381 0.007143 0.002381 0.002381 0.002381 0.002381 0.002381 0.002381 0.002381
350 0.002381 0.002381 0.002381 0.002381 0.002381 0.002381 0.002381 0.002381 0.002381 0.004762 0.002381 0.002381 0.002381 0.004762 0.002381 0.002381 0.004762 0.002381 0.002381 0.004762 0.002381 0.002381
351 0.002381 0.002381 0.002381 0.002381 0.004762 0.002381 0.002381 0.002381 0.002381 0.002381 0.007143 0.004762 0.002381 0.002381 0.002381 0.002381 0.002381 0.002381 0.002381 0.002381 0.002381 0.002381
352 0.002381 0.002381 0.002381 0.002381 0.002381 0.002381 0.002381 0.009524 0.002381 0.002381 0.002381 0.007143 0.002381 0.002381 0.002381 0.002381 0.002381 0.002381 0.002381 0.002381 0.002381 0.002381
353 0.002381 0.002381 0.002381 0.002381 0.004762 0.002381 0.009524 0.002381 0.002381 0.002381 0.002381 0.007143 0.002381 0.002381 0.002381 0.002381 0.002381 0.002381 0.002381 0.002381 0.002381 0.002381
354 0.004762 0.002381 0.004762 0.002381 0.002381 0.002381 0.002381 0.002381 0.002381 0.002381 0.007143 0.004762 0.002381 0.004762 0.004762 0.002381 0.002381 0.002381 0.002381 0.009524 0.007143 0.002381
355 0.002381 0.007143 0.002381 0.002381 0.002381 0.002381 0.004762 0.002381 0.004762 0.002381 0.002381 0.004762 0.007143 0.002381 0.002381 0.002381 0.004762 0.002381 0.002381 0.007143 0.002381 0.019048
356 0.002381 0.002381 0.002381 0.002381 0.002381 0.002381 0.002381 0.004762 0.004762 0.004762 0.002381 0.002381 0.002381 0.002381 0.002381 0.002381 0.002381 0.004762 0.002381 0.002381 0.002381 0.002381
357 0.002381 0.002381 0.002381 0.002381 0.002381 0.002381 0.002381 0.002381 0.002381 0.002381 0.002381 0.009524 0.002381 0.002381 0.002381 0.002381 0.002381 0.002381 0.004762 0.002381 0.002381 0.002381
358 0.002381 0.002381 0.004762 0.004762 0.002381 0.002381 0.009524 0.002381 0.007143 0.004762 0.004762 0.007143 0.002381 0.004762 0.004762 0.002381 0.002381 0.002381 0.004762 0.002381 0.002381 0.002381
359 0.002381 0.002381 0.002381 0.002381 0.002381 0.002381 0.002381 0.002381 0.002381 0.002381 0.002381 0.009524 0.002381 0.002381 0.002381 0.002381 0.002381 0.002381 0.002381 0.004762 0.002381 0.002381
360 0.002381 0.002381 0.002381 0.002381 0.002381 0.011905 0.002381 0.002381 0.002381 0.002381 0.002381 0.002381 0.002381 0.002381 0.002381 0.002381 0.002381 0.002381 0.002381 0.002381 0.002381 0.002381
361 0.002381 0.002381 0.002381 0.002381 0.002381 0.002381 0.002381 0.002381 0.002381 0.002381 0.002381 0.002381 0.002381 0.002381 0.002381 0.002381 0.004762 0.002381 0.002381 0.002381 0.002381 0.007143
362 0.004762 0.004762 0.002381 0.011905 0.007143 0.002381 0.007143 0.004762 0.004762 0.016667 0.007143 0.004762 0.004762 0.002381 0.009524 0.007143 0.002381 0.002381 0.004762 0.002381 0.007143 0.009524
363 0.002381 0.002381 0.002381 0.002381 0.002381 0.011905 0.002381 0.002381 0.002381 0.002381 0.002381 0.004762 0.004762 0.002381 0.002381 0.002381 0.002381 0.002381 0.002381 0.002381 0.004762 0.002381
364 0.002381 0.002381 0.002381 0.007143 0.002381 0.002381 0.002381 0.002381 0.002381 0.002381 0.002381 0.002381 0.002381 0.002381 0.002381 0.002381 0.002381 0.002381 0.002381 0.002381 0.002381 0.002381
365 0.004762 0.002381 0.004762 0.002381 0.002381 0.002381 0.002381 0.002381 0.009524 0.002381 0.002381 0.011905 0.002381 0.002381 0.007143 0.007143 0.004762 0.002381 0.002381 0.002381 0.002381 0.007143
366 0.002381 0.002381 0.002381 0.002381 0.002381 0.002381 0.002381 0.002381 0.002381 0.004762 0.002381 0.009524 0.002381 0.002381 0.002381 0.002381 0.002381 0.002381 0.002381 0.002381 0.002381 0.002381
367 0.002381 0.004762 0.002381 0.002381 0.002381 0.004762 0.002381 0.002381 0.002381 0.002381 0.002381 0.002381 0.004762 0.002381 0.002381 0.002381 0.002381 0.002381 0.002381 0.002381 0.002381 0.004762
368 0.002381 0.002381 0.004762 0.002381 0.002381 0.007143 0.004762 0.002381 0.002381 0.002381 0.002381 0.002381 0.002381 0.002381 0.002381 0.002381 0.002381 0.002381 0.004762 0.004762 0.002381 0.002381
369 0.002381 0.002381 0.002381 0.002381 0.004762 0.007143 0.004762 0.009524 0.002381 0.007143 0.002381 0.009524 0.002381 0.002381 0.004762 0.002381 0.007143 0.002381 0.002381 0.007143 0.002381 0.002381
370 0.002381 0.002381 0.002381 0.002381 0.004762 0.002381 0.007143 0.004762 0.002381 0.002381 0.002381 0.002381 0.004762 0.002381 0.002381 0.002381 0.002381 0.002381 0.002381 0.002381 0.002381 0.002381
371 0.004762 0.002381 0.002381 0.002381 0.002381 0.002381 0.002381 0.002381 0.002381 0.014286 0.002381 0.002381 0.002381 0.002381 0.002381 0.002381 0.002381 0.002381 0.002381 0.002381 0.002381 0.002381
372 0.004762 0.004762 0.002381 0.002381 0.002381 0.002381 0.002381 0.004762 0.002381 0.002381 0.002381 0.004762 0.002381 0.002381 0.002381 0.002381 0.002381 0.002381 0.002381 0.002381 0.002381 0.002381
373 0.002381 0.002381 0.002381 0.002381 0.002381 0.002381 0.002381 0.002381 0.002381 0.002381 0.002381 0.002381 0.002381 0.002381 0.004762 0.007143 0.002381 0.002381 0.002381 0.002381 0.002381 0.002381
374 0.004762 0.002381 0.002381 0.002381 0.002381 0.007143 0.002381 0.002381 0.002381 0.002381 0.002381 0.002381 0.002381 0.002381 0.002381 0.002381 0.002381 0.002381 0.002381 0.002381 0.002381 0.002381
375 0.002381 0.002381 0.002381 0.002381 0.002381 0.007143 0.002381 0.002381 0.002381 0.002381 0.002381 0.002381 0.004762 0.002381 0.002381 0.004762 0.002381 0.002381 0.002381 0.002381 0.002381 0.002381
376 0.002381 0.002381 0.002381 0.002381 0.007143 0.002381 0.002381 0.004762 0.002381 0.004762 0.002381 0.002381 0.002381 0.002381 0.002381 0.002381 0.002381 0.002381 0.002381 0.002381 0.002381 0.002381
377 0.002381 0.002381 0.002381 0.002381 0.002381 0.002381 0.002381 0.002381 0.002381 0.002381 0.004762 0.004762 0.002381 0.004762 0.004762 0.002381 0.002381 0.002381 0.002381 0.002381 0.002381 0.002381
378 0.002381 0.002381 0.002381 0.002381 0.002381 0.002381 0.002381 0.002381 0.002381 0.002381 0.002381 0.009524 0.002381 0.002381 0.002381 0.002381 0.002381 0.002381 0.002381 0.002381 0.002381 0.002381
379 0.002381 0.002381 0.007143 0.002381 0.009524 0.002381 0.002381 0.009524 0.004762 0.009524 0.004762 0.002381 0.004762 0.002381 0.002381 0.002381 0.004762 0.004762 0.004762 0.002381 0.004762 0.004762
380 0.002381 0.004762 0.002381 0.002381 0.002381 0.002381 0.002381 0.002381 0.002381 0.004762 0.002381 0.002381 0.002381 0.002381 0.002381 0.002381 0.002381 0.002381 0.002381 0.002381 0.002381 0.002381
381 0.002381 0.002381 0.002381 0.002381 0.002381 0.002381 0.002381 0.007143 0.002381 0.002381 0.002381 0.007143 0.004762 0.002381 0.002381 0.002381 0.002381 0.002381 0.002381 0.002381 0.004762 0.002381
382 0.002381 0.002381 0.002381 0.002381 0.002381 0.004762 0.002381 0.002381 0.002381 0.014286 0.002381 0.002381 0.002381 0.002381 0.002381 0.002381 0.002381 0.002381 0.002381 0.007143 0.002381 0.002381
383 0.002381 0.002381 0.002381 0.002381 0.002381 0.002381 0.002381 0.002381 0.002381 0.002381 0.002381 0.007143 0.002381 0.002381 0.002381 0.004762 0.002381 0.002381 0.002381 0.002381 0.002381 0.002381
384 0.002381 0.002381 0.002381 0.002381 0.002381 0.004762 0.002381 0.002381 0.002381 0.002381 0.002381 0.004762 0.002381 0.004762 0.002381 0.002381 0.004762 0.002381 0.002381 0.002381 0.002381 0.002381
385 0.002381 0.002381 0.002381 0.002381 0.007143 0.002381 0.002381 0.002381 0.002381 0.002381 0.002381 0.002381 0.002381 0.002381 0.002381 0.002381 0.002381 0.002381 0.002381 0.002381 0.002381 0.002381
386 0.002381 0.002381 0.004762 0.002381 0.002381 0.002381 0.007143 0.002381 0.002381 0.002381 0.002381 0.004762 0.004762 0.004762 0.004762 0.004762 0.002381 0.002381 0.002381 0.004762 0.002381 0.009524
387 0.002381 0.002381 0.002381 0.002381 0.002381 0.002381 0.002381 0.007143 0.002381 0.002381 0.002381 0.002381 0.002381 0.002381 0.002381 0.002381 0.002381 0.002381 0.002381 0.002381 0.002381 0.002381
388 0.004762 0.002381 0.002381 0.002381 0.002381 0.002381 0.002381 0.002381 0.002381 0.014286 0.002381 0.009524 0.002381 0.002381 0.002381 0.002381 0.004762 0.002381 0.004762 0.002381 0.002381 0.002381
389 0.004762 0.004762 0.014286 0.002381 0.007143 0.002381 0.007143 0.007143 0.007143 0.009524 0.007143 0.011905 0.009524 0.007143 0.007143 0.004762 0.004762 0.002381 0.004762 0.007143 0.007143 0.004762
390 0.002381 0.002381 0.002381 0.002381 0.002381 0.002381 0.002381 0.002381 0.002381 0.002381 0.007143 0.002381 0.002381 0.002381 0.002381 0.002381 0.002381 0.002381 0.002381 0.002381 0.002381 0.002381
391 0.002381 0.002381 0.002381 0.002381 0.004762 0.002381 0.002381 0.002381 0.002381 0.002381 0.002381 0.002381 0.004762 0.002381 0.002381 0.002381 0.002381 0.002381 0.002381 0.002381 0.002381 0.002381
392 0.002381 0.002381 0.007143 0.002381 0.002381 0.007143 0.002381 0.002381 0.002381 0.002381 0.002381 0.002381 0.002381 0.002381 0.002381 0.002381 0.002381 0.002381 0.004762 0.002381 0.002381 0.004762
393 0.002381 0.002381 0.004762 0.004762 0.002381 0.002381 0.002381 0.004762 0.002381 0.002381 0.002381 0.002381 0.002381 0.002381 0.002381 0.002381 0.002381 0.002381 0.002381 0.002381 0.002381 0.002381
394 0.002381 0.002381 0.002381 0.007143 0.002381 0.004762 0.002381 0.002381 0.004762 0.002381 0.002381 0.002381 0.004762 0.002381 0.002381 0.002381 0.004762 0.002381 0.002381 0.002381 0.002381 0.004762
395 0.002381 0.002381 0.002381 0.002381 0.002381 0.004762 0.002381 0.004762 0.002381 0.009524 0.002381 0.002381 0.002381 0.002381 0.002381 0.002381 0.002381 0.002381 0.002381 0.007143 0.002381 0.002381
396 0.004762 0.002381 0.002381 0.002381 0.002381 0.002381 0.002381 0.004762 0.002381 0.004762 0.002381 0.007143 0.002381 0.002381 0.002381 0.002381 0.002381 0.002381 0.004762 0.004762 0.004762 0.002381
397 0.002381 0.002381 0.002381 0.002381 0.002381 0.004762 0.002381 0.002381 0.002381 0.004762 0.002381 0.002381 0.004762 0.002381 0.002381 0.004762 0.004762 0.002381 0.004762 0.004762 0.002381 0.002381
398 0.002381 0.002381 0.002381 0.002381 0.002381 0.002381 0.002381 0.007143 0.002381 0.007143 0.002381 0.002381 0.002381 0.002381 0.002381 0.002381 0.004762 0.002381 0.002381 0.002381 0.002381 0.002381
399 0.002381 0.004762 0.002381 0.004762 0.002381 0.002381 0.002381 0.002381 0.004762 0.002381 0.002381 0.002381 0.002381 0.002381 0.002381 0.002381 0.002381 0.002381 0.002381 0.002381 0.002381 0.007143
400 0.002381 0.002381 0.002381 0.002381 0.004762 0.002381 0.002381 0.004762 0.002381 0.002381 0.002381 0.004762 0.002381 0.004762 0.002381 0.002381 0.002381 0.002381 0.002381 0.002381 0.002381 0.004762
401 0.004762 0.002381 0.004762 0.002381 0.002381 0.002381 0.002381 0.007143 0.004762 0.004762 0.002381 0.007143 0.002381 0.002381 0.002381 0.004762 0.002381 0.002381 0.004762 0.002381 0.002381 0.002381
402 0.002381 0.002381 0.002381 0.002381 0.002381 0.002381 0.002381 0.002381 0.002381 0.002381 0.002381 0.002381 0.002381 0.002381 0.002381 0.002381 0.002381 0.002381 0.002381 0.002381 0.002381 0.007143
403 0.002381 0.002381 0.002381 0.002381 0.002381 0.002381 0.002381 0.002381 0.002381 0.002381 0.002381 0.002381 0.002381 0.002381 0.002381 0.007143 0.002381 0.002381 0.002381 0.002381 0.002381 0.002381
404 0.002381 0.002381 0.002381 0.002381 0.002381 0.002381 0.002381 0.007143 0.002381 0.002381 0.002381 0.002381 0.002381 0.002381 0.002381 0.002381 0.002381 0.002381 0.002381 0.002381 0.002381 0.002381
405 0.002381 0.002381 0.002381 0.004762 0.002381 0.002381 0.002381 0.002381 0.002381 0.004762 0.002381 0.002381 0.002381 0.002381 0.002381 0.002381 0.004762 0.002381 0.002381 0.002381 0.002381 0.002381
406 0.002381 0.002381 0.002381 0.002381 0.002381 0.007143 0.002381 0.002381 0.002381 0.002381 0.002381 0.002381 0.002381 0.002381 0.002381 0.002381 0.002381 0.002381 0.002381 0.002381 0.002381 0.002381
407 0.002381 0.002381 0.002381 0.004762 0.002381 0.002381 0.002381 0.002381 0.002381 0.004762 0.002381 0.002381 0.002381 0.002381 0.002381 0.002381 0.002381 0.002381 0.002381 0.004762 0.002381 0.002381
408 0.002381 0.002381 0.002381 0.002381 0.002381 0.002381 0.007143 0.002381 0.002381 0.002381 0.002381 0.002381 0.002381 0.002381 0.002381 0.002381 0.002381 0.002381 0.002381 0.002381 0.002381 0.002381
409 0.002381 0.002381 0.002381 0.002381 0.002381 0.002381 0.002381 0.002381 0.002381 0.002381 0.002381 0.002381 0.002381 0.002381 0.002381 0.002381 0.002381 0.002381 0.007143 0.002381 0.002381 0.002381
410 0.002381 0.004762 0.002381 0.002381 0.002381 0.002381 0.002381 0.002381 0.002381 0.002381 0.002381 0.002381 0.002381 0.002381 0.002381 0.002381 0.002381 0.002381 0.007143 0.004762 0.002381 0.004762
411 0.002381 0.004762 0.002381 0.002381 0.004762 0.004762 0.002381 0.002381 0.002381 0.002381 0.002381 0.002381 0.002381 0.004762 0.002381 0.002381 0.002381 0.002381 0.002381 0.002381 0.002381 0.004762
412 0.002381 0.002381 0.002381 0.002381 0.007143 0.002381 0.004762 0.004762 0.004762 0.002381 0.002381 0.002381 0.002381 0.004762 0.002381 0.004762 0.002381 0.004762 0.004762 0.004762 0.002381 0.002381
413 0.004762 0.002381 0.002381 0.002381 0.002381 0.004762 0.002381 0.004762 0.002381 0.002381 0.002381 0.002381 0.002381 0.002381 0.002381 0.004762 0.002381 0.002381 0.002381 0.002381 0.002381 0.002381
414 0.002381 0.002381 0.002381 0.002381 0.002381 0.007143 0.002381 0.002381 0.002381 0.002381 0.002381 0.002381 0.002381 0.002381 0.002381 0.002381 0.002381 0.002381 0.002381 0.002381 0.002381 0.002381
415 0.002381 0.002381 0.002381 0.004762 0.002381 0.002381 0.011905 0.002381 0.002381 0.002381 0.002381 0.002381 0.002381 0.002381 0.002381 0.007143 0.007143 0.007143 0.002381 0.004762 0.004762 0.009524
416 0.002381 0.002381 0.002381 0.002381 0.002381 0.002381 0.002381 0.009524 0.002381 0.002381 0.002381 0.007143 0.002381 0.002381 0.002381 0.002381 0.002381 0.002381 0.002381 0.002381 0.002381 0.002381
417 0.004762 0.002381 0.002381 0.002381 0.002381 0.002381 0.002381 0.011905 0.002381 0.004762 0.002381 0.021429 0.002381 0.002381 0.002381 0.002381 0.002381 0.004762 0.004762 0.002381 0.002381 0.002381
418 0.002381 0.002381 0.002381 0.002381 0.002381 0.002381 0.002381 0.002381 0.002381 0.002381 0.002381 0.002381 0.002381 0.002381 0.002381 0.002381 0.002381 0.002381 0.007143 0.002381 0.002381 0.002381
419 0.002381 0.004762 0.002381 0.004762 0.002381 0.009524 0.004762 0.002381 0.002381 0.007143 0.004762 0.002381 0.002381 0.004762 0.002381 0.002381 0.009524 0.004762 0.002381 0.002381 0.002381 0.004762
420 0.002381 0.002381 0.002381 0.002381 0.002381 0.002381 0.002381 0.002381 0.002381 0.002381 0.002381 0.016667 0.002381 0.002381 0.002381 0.002381 0.002381 0.002381 0.002381 0.002381 0.002381 0.002381
421 0.002381 0.002381 0.007143 0.002381 0.002381 0.002381 0.002381 0.002381 0.002381 0.002381 0.002381 0.002381 0.002381 0.002381 0.002381 0.002381 0.002381 0.002381 0.002381 0.002381 0.002381 0.002381
422 0.004762 0.002381 0.002381 0.002381 0.002381 0.002381 0.004762 0.004762 0.002381 0.009524 0.002381 0.002381 0.002381 0.002381 0.002381 0.002381 0.002381 0.002381 0.002381 0.002381 0.002381 0.002381
423 0.002381 0.002381 0.004762 0.004762 0.002381 0.009524 0.004762 0.002381 0.004762 0.011905 0.002381 0.007143 0.007143 0.002381 0.002381 0.002381 0.004762 0.002381 0.004762 0.002381 0.002381 0.002381
424 0.007143 0.002381 0.002381 0.002381 0.002381 0.002381 0.002381 0.002381 0.002381 0.004762 0.002381 0.002381 0.002381 0.002381 0.002381 0.002381 0.002381 0.002381 0.002381 0.002381 0.002381 0.002381
425 0.004762 0.002381 0.002381 0.002381 0.004762 0.002381 0.002381 0.002381 0.002381 0.002381 0.002381 0.002381 0.002381 0.002381 0.002381 0.002381 0.002381 0.004762 0.004762 0.002381 0.002381 0.002381
426 0.004762 0.002381 0.004762 0.002381 0.002381 0.004762 0.002381 0.002381 0.002381 0.002381 0.002381 0.002381 0.002381 0.002381 0.002381 0.002381 0.002381 0.002381 0.002381 0.002381 0.002381 0.002381
427 0.002381 0.004762 0.002381 0.002381 0.004762 0.002381 0.002381 0.002381 0.002381 0.002381 0.002381 0.004762 0.002381 0.002381 0.002381 0.002381 0.002381 0.002381 0.002381 0.002381 0.002381 0.004762
428 0.002381 0.004762 0.002381 0.002381 0.002381 0.026190 0.002381 0.002381 0.002381 0.007143 0.002381 0.002381 0.002381 0.002381 0.002381 0.002381 0.002381 0.002381 0.002381 0.002381 0.002381 0.002381
429 0.002381 0.002381 0.002381 0.002381 0.004762 0.002381 0.004762 0.002381 0.002381 0.004762 0.002381 0.004762 0.002381 0.004762 0.002381 0.002381 0.002381 0.002381 0.002381 0.002381 0.002381 0.002381
430 0.002381 0.002381 0.002381 0.002381 0.002381 0.007143 0.002381 0.002381 0.002381 0.002381 0.002381 0.011905 0.002381 0.002381 0.002381 0.002381 0.002381 0.004762 0.002381 0.002381 0.002381 0.002381
431 0.002381 0.002381 0.002381 0.002381 0.002381 0.002381 0.002381 0.002381 0.002381 0.002381 0.002381 0.004762 0.002381 0.002381 0.002381 0.002381 0.002381 0.002381 0.002381 0.002381 0.007143 0.002381
432 0.002381 0.004762 0.002381 0.002381 0.002381 0.002381 0.004762 0.002381 0.002381 0.002381 0.002381 0.002381 0.002381 0.002381 0.002381 0.002381 0.004762 0.002381 0.002381 0.002381 0.002381 0.002381
433 0.002381 0.002381 0.007143 0.002381 0.002381 0.002381 0.002381 0.004762 0.007143 0.002381 0.002381 0.002381 0.002381 0.002381 0.002381 0.004762 0.002381 0.002381 0.002381 0.002381 0.004762 0.002381
434 0.002381 0.002381 0.002381 0.007143 0.002381 0.004762 0.002381 0.002381 0.002381 0.002381 0.002381 0.002381 0.002381 0.002381 0.002381 0.002381 0.002381 0.002381 0.002381 0.004762 0.002381 0.002381
435 0.002381 0.002381 0.002381 0.002381 0.002381 0.002381 0.007143 0.002381 0.002381 0.002381 0.002381 0.002381 0.002381 0.002381 0.002381 0.004762 0.002381 0.002381 0.002381 0.002381 0.002381 0.002381
436 0.002381 0.002381 0.002381 0.004762 0.002381 0.002381 0.002381 0.002381 0.002381 0.002381 0.002381 0.002381 0.002381 0.002381 0.002381 0.002381 0.002381 0.004762 0.002381 0.002381 0.002381 0.002381
437 0.002381 0.002381 0.002381 0.002381 0.002381 0.002381 0.002381 0.002381 0.002381 0.002381 0.002381 0.002381 0.007143 0.002381 0.002381 0.002381 0.002381 0.002381 0.002381 0.002381 0.002381 0.002381
438 0.002381 0.002381 0.002381 0.002381 0.002381 0.002381 0.002381 0.002381 0.004762 0.002381 0.002381 0.002381 0.007143 0.002381 0.002381 0.002381 0.002381 0.002381 0.002381 0.002381 0.002381 0.002381
439 0.004762 0.002381 0.002381 0.002381 0.002381 0.002381 0.002381 0.002381 0.002381 0.007143 0.002381 0.002381 0.002381 0.002381 0.004762 0.002381 0.002381 0.007143 0.004762 0.004762 0.004762 0.004762
440 0.002381 0.002381 0.002381 0.007143 0.002381 0.002381 0.002381 0.002381 0.004762 0.004762 0.002381 0.007143 0.002381 0.002381 0.002381 0.002381 0.002381 0.002381 0.002381 0.004762 0.002381 0.002381
441 0.002381 0.002381 0.002381 0.002381 0.002381 0.004762 0.002381 0.002381 0.002381 0.004762 0.002381 0.002381 0.004762 0.004762 0.002381 0.002381 0.002381 0.004762 0.002381 0.002381 0.004762 0.002381
442 0.002381 0.004762 0.002381 0.002381 0.002381 0.002381 0.002381 0.002381 0.002381 0.002381 0.002381 0.002381 0.004762 0.002381 0.002381 0.002381 0.004762 0.002381 0.002381 0.002381 0.002381 0.002381
443 0.004762 0.004762 0.009524 0.004762 0.007143 0.011905 0.014286 0.007143 0.009524 0.009524 0.007143 0.014286 0.009524 0.004762 0.002381 0.009524 0.004762 0.011905 0.007143 0.004762 0.007143 0.009524
444 0.002381 0.002381 0.002381 0.009524 0.007143 0.011905 0.009524 0.009524 0.007143 0.021429 0.002381 0.011905 0.004762 0.002381 0.004762 0.004762 0.007143 0.002381 0.007143 0.011905 0.004762 0.014286
445 0.002381 0.002381 0.002381 0.002381 0.002381 0.016667 0.002381 0.002381 0.002381 0.002381 0.004762 0.002381 0.002381 0.002381 0.002381 0.002381 0.002381 0.002381 0.002381 0.002381 0.002381 0.002381
446 0.002381 0.002381 0.002381 0.002381 0.002381 0.007143 0.002381 0.002381 0.002381 0.002381 0.002381 0.002381 0.002381 0.002381 0.002381 0.002381 0.002381 0.002381 0.002381 0.002381 0.002381 0.002381
447 0.002381 0.002381 0.002381 0.002381 0.004762 0.002381 0.002381 0.004762 0.002381 0.002381 0.002381 0.004762 0.002381 0.002381 0.002381 0.004762 0.002381 0.002381 0.002381 0.002381 0.002381 0.002381
448 0.002381 0.002381 0.002381 0.002381 0.002381 0.002381 0.004762 0.002381 0.002381 0.002381 0.004762 0.004762 0.002381 0.002381 0.002381 0.002381 0.002381 0.002381 0.002381 0.030952 0.002381 0.002381
449 0.002381 0.004762 0.002381 0.002381 0.002381 0.002381 0.002381 0.002381 0.002381 0.002381 0.002381 0.004762 0.002381 0.002381 0.002381 0.004762 0.002381 0.002381 0.007143 0.002381 0.002381 0.002381
450 0.002381 0.002381 0.002381 0.002381 0.002381 0.002381 0.002381 0.002381 0.002381 0.004762 0.002381 0.004762 0.002381 0.002381 0.002381 0.002381 0.002381 0.007143 0.004762 0.002381 0.002381 0.002381
451 0.002381 0.004762 0.009524 0.002381 0.002381 0.009524 0.002381 0.002381 0.002381 0.004762 0.002381 0.002381 0.009524 0.004762 0.002381 0.002381 0.002381 0.002381 0.002381 0.002381 0.004762 0.007143
452 0.002381 0.002381 0.002381 0.002381 0.002381 0.002381 0.002381 0.002381 0.002381 0.007143 0.002381 0.004762 0.002381 0.002381 0.002381 0.004762 0.002381 0.002381 0.004762 0.004762 0.002381 0.002381
453 0.002381 0.002381 0.002381 0.009524 0.002381 0.002381 0.002381 0.002381 0.002381 0.002381 0.002381 0.002381 0.002381 0.002381 0.002381 0.002381 0.002381 0.002381 0.002381 0.002381 0.002381 0.002381
454 0.004762 0.002381 0.002381 0.002381 0.004762 0.002381 0.004762 0.002381 0.002381 0.002381 0.002381 0.004762 0.002381 0.002381 0.002381 0.002381 0.002381 0.002381 0.004762 0.004762 0.002381 0.002381
455 0.002381 0.002381 0.004762 0.004762 0.002381 0.002381 0.002381 0.002381 0.002381 0.004762 0.002381 0.004762 0.004762 0.002381 0.002381 0.004762 0.007143 0.002381 0.007143 0.007143 0.004762 0.004762
456 0.002381 0.002381 0.002381 0.002381 0.002381 0.004762 0.002381 0.002381 0.002381 0.002381 0.002381 0.002381 0.004762 0.002381 0.004762 0.002381 0.002381 0.002381 0.002381 0.002381 0.002381 0.002381
457 0.002381 0.002381 0.002381 0.002381 0.002381 0.002381 0.002381 0.002381 0.002381 0.002381 0.002381 0.016667 0.002381 0.002381 0.002381 0.002381 0.002381 0.002381 0.002381 0.002381 0.002381 0.002381
458 0.002381 0.002381 0.002381 0.002381 0.002381 0.002381 0.002381 0.007143 0.002381 0.002381 0.002381 0.002381 0.007143 0.002381 0.002381 0.002381 0.004762 0.004762 0.002381 0.004762 0.004762 0.002381
459 0.002381 0.002381 0.002381 0.002381 0.002381 0.007143 0.002381 0.002381 0.002381 0.002381 0.002381 0.002381 0.002381 0.002381 0.002381 0.002381 0.002381 0.002381 0.002381 0.002381 0.002381 0.002381
460 0.002381 0.002381 0.002381 0.007143 0.002381 0.004762 0.002381 0.002381 0.002381 0.002381 0.002381 0.002381 0.002381 0.002381 0.002381 0.002381 0.002381 0.002381 0.002381 0.002381 0.004762 0.002381
461 0.002381 0.002381 0.002381 0.002381 0.002381 0.002381 0.002381 0.004762 0.011905 0.002381 0.002381 0.002381 0.002381 0.002381 0.002381 0.002381 0.002381 0.002381 0.002381 0.002381 0.002381 0.002381
462 0.002381 0.002381 0.002381 0.002381 0.002381 0.002381 0.004762 0.002381 0.002381 0.007143 0.002381 0.002381 0.002381 0.002381 0.002381 0.002381 0.002381 0.002381 0.002381 0.002381 0.002381 0.002381
463 0.002381 0.002381 0.009524 0.002381 0.002381 0.002381 0.002381 0.002381 0.002381 0.002381 0.002381 0.002381 0.002381 0.002381 0.002381 0.002381 0.002381 0.002381 0.002381 0.002381 0.002381 0.002381
464 0.002381 0.002381 0.002381 0.002381 0.002381 0.002381 0.002381 0.004762 0.004762 0.002381 0.007143 0.002381 0.002381 0.002381 0.002381 0.002381 0.002381 0.002381 0.002381 0.007143 0.002381 0.002381
465 0.002381 0.002381 0.004762 0.004762 0.002381 0.002381 0.004762 0.004762 0.007143 0.004762 0.002381 0.002381 0.002381 0.002381 0.002381 0.002381 0.002381 0.002381 0.004762 0.007143 0.002381 0.002381
466 0.002381 0.002381 0.004762 0.002381 0.002381 0.002381 0.004762 0.002381 0.002381 0.004762 0.002381 0.002381 0.002381 0.002381 0.002381 0.002381 0.002381 0.002381 0.002381 0.002381 0.002381 0.007143
467 0.009524 0.002381 0.002381 0.007143 0.002381 0.009524 0.004762 0.004762 0.002381 0.004762 0.002381 0.007143 0.002381 0.002381 0.002381 0.002381 0.004762 0.002381 0.007143 0.009524 0.002381 0.002381
468 0.002381 0.002381 0.002381 0.002381 0.002381 0.002381 0.002381 0.002381 0.002381 0.004762 0.002381 0.002381 0.002381 0.002381 0.002381 0.002381 0.002381 0.002381 0.002381 0.007143 0.002381 0.002381
469 0.002381 0.002381 0.002381 0.002381 0.002381 0.002381 0.002381 0.002381 0.007143 0.002381 0.002381 0.002381 0.002381 0.002381 0.002381 0.002381 0.002381 0.002381 0.002381 0.004762 0.002381 0.002381
470 0.002381 0.002381 0.002381 0.004762 0.004762 0.002381 0.002381 0.002381 0.002381 0.002381 0.002381 0.002381 0.002381 0.002381 0.004762 0.002381 0.002381 0.002381 0.002381 0.002381 0.002381 0.002381
471 0.002381 0.002381 0.002381 0.002381 0.002381 0.002381 0.002381 0.002381 0.002381 0.002381 0.002381 0.002381 0.007143 0.002381 0.002381 0.002381 0.002381 0.002381 0.002381 0.002381 0.002381 0.002381
472 0.002381 0.004762 0.004762 0.004762 0.011905 0.014286 0.004762 0.007143 0.009524 0.007143 0.004762 0.011905 0.002381 0.002381 0.002381 0.002381 0.004762 0.002381 0.002381 0.002381 0.002381 0.007143
473 0.002381 0.002381 0.002381 0.007143 0.002381 0.007143 0.004762 0.002381 0.002381 0.002381 0.002381 0.002381 0.002381 0.002381 0.002381 0.002381 0.002381 0.002381 0.002381 0.002381 0.002381 0.004762
474 0.002381 0.004762 0.002381 0.002381 0.002381 0.004762 0.004762 0.004762 0.002381 0.002381 0.002381 0.007143 0.002381 0.007143 0.002381 0.004762 0.002381 0.007143 0.002381 0.002381 0.002381 0.002381
475 0.002381 0.002381 0.002381 0.002381 0.002381 0.002381 0.002381 0.002381 0.002381 0.002381 0.007143 0.002381 0.002381 0.002381 0.002381 0.002381 0.002381 0.002381 0.002381 0.002381 0.002381 0.002381
476 0.009524 0.004762 0.002381 0.002381 0.002381 0.002381 0.002381 0.002381 0.002381 0.007143 0.007143 0.004762 0.002381 0.002381 0.004762 0.002381 0.002381 0.002381 0.004762 0.004762 0.002381 0.002381
477 0.002381 0.002381 0.002381 0.002381 0.002381 0.007143 0.002381 0.002381 0.002381 0.002381 0.002381 0.002381 0.002381 0.002381 0.002381 0.002381 0.002381 0.002381 0.002381 0.002381 0.002381 0.002381
478 0.002381 0.002381 0.002381 0.002381 0.002381 0.002381 0.002381 0.002381 0.002381 0.002381 0.002381 0.002381 0.007143 0.002381 0.002381 0.002381 0.004762 0.004762 0.002381 0.002381 0.002381 0.004762
479 0.002381 0.004762 0.002381 0.002381 0.002381 0.004762 0.004762 0.002381 0.004762 0.004762 0.002381 0.002381 0.002381 0.002381 0.002381 0.004762 0.002381 0.002381 0.004762 0.002381 0.002381 0.002381
480 0.002381 0.004762 0.004762 0.002381 0.007143 0.007143 0.002381 0.004762 0.009524 0.011905 0.002381 0.002381 0.002381 0.002381 0.004762 0.002381 0.002381 0.002381 0.002381 0.007143 0.004762 0.007143
481 0.002381 0.002381 0.002381 0.002381 0.002381 0.002381 0.002381 0.007143 0.002381 0.004762 0.002381 0.050000 0.002381 0.002381 0.002381 0.002381 0.002381 0.004762 0.004762 0.002381 0.002381 0.002381
482 0.007143 0.002381 0.002381 0.009524 0.002381 0.002381 0.007143 0.002381 0.002381 0.004762 0.002381 0.002381 0.002381 0.002381 0.002381 0.002381 0.002381 0.002381 0.002381 0.002381 0.002381 0.002381
483 0.002381 0.002381 0.002381 0.002381 0.002381 0.002381 0.002381 0.002381 0.002381 0.004762 0.002381 0.002381 0.002381 0.002381 0.002381 0.002381 0.004762 0.002381 0.002381 0.002381 0.004762 0.002381
484 0.004762 0.004762 0.002381 0.004762 0.002381 0.002381 0.002381 0.002381 0.004762 0.002381 0.002381 0.002381 0.002381 0.004762 0.002381 0.004762 0.004762 0.002381 0.002381 0.002381 0.002381 0.002381
485 0.004762 0.004762 0.002381 0.004762 0.002381 0.002381 0.002381 0.002381 0.002381 0.002381 0.002381 0.004762 0.002381 0.002381 0.002381 0.002381 0.004762 0.002381 0.002381 0.004762 0.002381 0.004762
486 0.002381 0.002381 0.002381 0.002381 0.002381 0.002381 0.002381 0.002381 0.002381 0.002381 0.002381 0.002381 0.007143 0.002381 0.002381 0.002381 0.002381 0.002381 0.002381 0.002381 0.002381 0.002381
487 0.002381 0.002381 0.002381 0.002381 0.002381 0.002381 0.004762 0.007143 0.002381 0.002381 0.002381 0.002381 0.002381 0.002381 0.002381 0.002381 0.002381 0.004762 0.002381 0.002381 0.002381 0.002381
488 0.002381 0.002381 0.002381 0.002381 0.004762 0.002381 0.002381 0.002381 0.002381 0.002381 0.002381 0.002381 0.002381 0.002381 0.002381 0.002381 0.002381 0.004762 0.002381 0.002381 0.002381 0.002381
489 0.004762 0.002381 0.002381 0.002381 0.002381 0.002381 0.002381 0.004762 0.002381 0.004762 0.002381 0.014286 0.002381 0.002381 0.002381 0.002381 0.002381 0.002381 0.007143 0.002381 0.002381 0.002381
490 0.002381 0.002381 0.002381 0.002381 0.002381 0.002381 0.002381 0.002381 0.009524 0.002381 0.002381 0.002381 0.002381 0.002381 0.002381 0.002381 0.002381 0.002381 0.002381 0.002381 0.002381 0.002381
491 0.004762 0.002381 0.002381 0.002381 0.002381 0.004762 0.002381 0.002381 0.002381 0.002381 0.002381 0.002381 0.002381 0.002381 0.002381 0.002381 0.004762 0.002381 0.002381 0.002381 0.002381 0.004762
492 0.002381 0.002381 0.002381 0.002381 0.007143 0.002381 0.002381 0.002381 0.002381 0.004762 0.002381 0.002381 0.002381 0.002381 0.002381 0.002381 0.002381 0.002381 0.002381 0.002381 0.002381 0.002381
493 0.002381 0.002381 0.002381 0.002381 0.002381 0.002381 0.002381 0.002381 0.002381 0.002381 0.002381 0.002381 0.002381 0.002381 0.002381 0.016667 0.002381 0.002381 0.002381 0.002381 0.002381 0.002381
494 0.004762 0.002381 0.002381 0.002381 0.002381 0.002381 0.007143 0.004762 0.002381 0.002381 0.002381 0.004762 0.002381 0.002381 0.002381 0.002381 0.004762 0.002381 0.002381 0.002381 0.002381 0.002381
